{"schema_version": 1, "metadata": {"global_step": 25026560, "run_name": "v102_b2beta", "obs_size": 341, "hidden_size": 64, "action_space_size": 18}, "weights": {"fc1.weight": [[0.28054100275039673, -0.1464383751153946, 0.01989157870411873, -0.054915718734264374, 0.1116526648402214, 0.04487012326717377, -0.20498940348625183, 0.16268281638622284, 0.02130601741373539, -0.1801193803548813, -0.01894732192158699, 0.010768749751150608, -0.09195137768983841, -0.06963612884283066, 0.12278582155704498, 0.11674705147743225, -0.007548523135483265, -0.10491219907999039, -0.04725920408964157, 0.0028239809907972813, -0.49689310789108276, 0.15410390496253967, -0.2470855414867401, -0.0380362942814827, 0.044964734464883804, -0.016692131757736206, 0.16170728206634521, -0.17062415182590485, 0.09207025170326233, -0.0892271026968956, -0.12643462419509888, 0.21999728679656982, 0.07169444113969803, -0.13911700248718262, 0.051209479570388794, 0.020938221365213394, -0.04580099135637283, -0.11179599910974503, -0.037794485688209534, 0.19925078749656677, 0.043999265879392624, -0.03491717949509621, 0.05013202503323555, -0.07833867520093918, -0.0729224756360054, -0.09872739762067795, -0.007090673316270113, 0.15435999631881714, 0.026858782395720482, -0.05745536461472511, 0.1710626482963562, -0.09418889135122299, -0.016150062903761864, -0.019193563610315323, 0.10712853819131851, -0.13253870606422424, 0.13721951842308044, 0.17642034590244293, -0.3799934387207031, 0.18757782876491547, -0.07494939863681793, -0.02380646951496601, -0.22771883010864258, -0.014817247167229652, 0.011566761881113052, -0.1998971402645111, -0.07957407832145691, 0.039640024304389954, 0.18786470592021942, 0.02018309012055397, 0.05039219930768013, -0.0291537307202816, -0.1292543262243271, 0.05782438814640045, -0.1559700071811676, 0.07284148782491684, -0.12598873674869537, 0.0785425677895546, 0.23667095601558685, -0.23891597986221313, -0.012726463377475739, 0.1733008176088333, 0.13518542051315308, 0.038231261074543, 0.2050687074661255, 0.013241531327366829, -0.23187343776226044, -0.0410986989736557, 0.01721104606986046, 0.017202431336045265, 0.014237492345273495, 0.2609410881996155, 0.06564555317163467, -0.23129212856292725, 0.009255492128431797, 0.14272356033325195, 0.16739511489868164, 0.04146376624703407, 0.2256034016609192, 0.015735706314444542, -0.19556157290935516, 0.17201298475265503, 0.0037271338514983654, 0.06046123430132866, 0.09798315912485123, -0.0011812540469691157, -0.105351522564888, -0.2572076916694641, -0.11867991834878922, -0.11009811609983444, 0.1368148773908615, 0.08060501515865326, 0.010681998915970325, -0.02066870592534542, -0.15551955997943878, 0.16302445530891418, -0.07682952284812927, 0.04570886120200157, -0.06816715747117996, 0.13170723617076874, 0.048948947340250015, -0.014327664859592915, -0.04967937991023064, -0.18448574841022491, 0.1359614133834839, -0.05779555067420006, -0.05258871987462044, 0.11674312502145767, 0.05253005400300026, 0.028448719531297684, -0.019325116649270058, -0.06606283038854599, -0.06229761242866516, 0.022443993017077446, -0.2033202350139618, -0.10547499358654022, -0.025379730388522148, -0.05171603336930275, -0.03675554692745209, 0.030827684327960014, 0.025253411382436752, 0.07554810494184494, -0.0648699626326561, -0.048978857696056366, 0.0026995884254574776, -0.01679859682917595, -0.07594598829746246, -0.025911010801792145, 0.00046239374205470085, -0.20790618658065796, 0.1968642771244049, -0.0039885388687253, -0.20933698117733002, 0.07324535399675369, -0.05991467088460922, -0.10179702192544937, 0.09322510659694672, 0.14844629168510437, -0.20890070497989655, -0.24550198018550873, 0.17835137248039246, 0.12664850056171417, 0.0829998254776001, -0.09635400772094727, 0.037174053490161896, -0.08751754462718964, -0.5011551380157471, 0.2734033465385437, -0.07483845949172974, -0.042924851179122925, -0.10292086750268936, 0.11063992977142334, -0.3132292330265045, -0.45769351720809937, 0.10959745943546295, 0.06284239888191223, -0.04163935035467148, -0.023419111967086792, 0.032530587166547775, -0.4987371265888214, -0.6354703307151794, 0.15018905699253082, -0.1539173126220703, 0.026174746453762054, -0.11207755655050278, 0.005515762604773045, -0.4225447475910187, -0.7823485136032104, 0.14789696037769318, -0.08603710681200027, -0.1441773921251297, -0.0964602530002594, -0.008217346854507923, -0.05965003743767738, -0.7278708815574646, 0.18262791633605957, -0.0034857699647545815, -0.13199153542518616, -0.04261907562613487, 0.025151744484901428, -0.010437197051942348, -0.7149861454963684, 0.1533782035112381, -0.016674568876624107, 0.05306735262274742, -0.08637237548828125, -0.03371693193912506, -0.17084233462810516, -0.6863093376159668, 0.0936846062541008, -0.01894775778055191, 0.08204573392868042, -0.027211178094148636, -0.13780483603477478, -0.17932043969631195, -0.5962663888931274, 0.12111753970384598, -0.0012420729035511613, 0.0045416210778057575, -0.14651058614253998, -0.020384829491376877, -0.17981277406215668, -0.4075940251350403, 0.155473530292511, 0.07611655443906784, -0.03800759091973305, -0.1495646983385086, -0.07783439755439758, -0.3994413912296295, -0.425121009349823, 0.20997552573680878, 0.11532071232795715, 0.09776107221841812, -0.13911013305187225, -0.16065534949302673, -0.08072084188461304, -0.23801687359809875, 0.09074420481920242, 0.2934909462928772, -0.055718839168548584, -0.11425329744815826, -0.11362965404987335, -0.10575614869594574, -0.152666836977005, 0.049439165741205215, 0.042581330984830856, -0.04617353528738022, -0.18386133015155792, 0.06540762633085251, 0.14325501024723053, -0.2068961262702942, 0.18660561740398407, 0.2327275574207306, 0.012065684422850609, 0.030331214889883995, 0.00810005608946085, -0.1443343460559845, -0.16976535320281982, 0.14242622256278992, 0.18400079011917114, 0.0025545170065015554, -0.3018833100795746, -0.05229395255446434, -0.05527221038937569, -0.17165260016918182, 0.07752379775047302, 0.1678425818681717, -0.0006590663688257337, -0.3149053752422333, -0.021722208708524704, -0.30175384879112244, -0.14592836797237396, 0.1441286951303482, 0.04694082587957382, 0.05781583860516548, -0.2140044867992401, -0.060309819877147675, -0.17673757672309875, -0.02456654980778694, 0.09777721017599106, 0.136724054813385, -0.027255699038505554, -0.13177841901779175, 0.02495807595551014, -0.14743322134017944, 0.11633401364088058, -0.03990211710333824, 0.08017849177122116, 0.10399697721004486, -0.5024217367172241, 0.08462193608283997, -0.10588938742876053, -0.043293289840221405, -0.0986986756324768, 0.038098517805337906, 0.14061416685581207, -0.31718623638153076, 0.025898244231939316, 0.16154080629348755, 0.05044395476579666, -0.010898512788116932, 0.27356278896331787, 0.145232155919075, -0.43448615074157715, 0.007818708196282387, -0.11108200997114182, 0.11777423322200775, 0.13809770345687866, 0.12837032973766327, 0.03317293897271156, -0.40670838952064514, 0.028095463290810585, -0.09109285473823547, 0.1327177882194519, 0.10624388605356216, -0.1316213458776474, -0.023810457438230515, -0.013503867201507092, -0.05780032277107239, 0.028794432058930397, 0.0021496633999049664, 0.3637530505657196, 0.18431273102760315, 0.014934487640857697, -0.19759543240070343, -0.06586486846208572, 0.11304111778736115, 0.10616610199213028, -0.23900914192199707, 0.06653228402137756, -0.0465531200170517, -0.08325999975204468, 0.028232092037796974, 0.14337468147277832, -0.10876583307981491, -0.4559479355812073, -0.07219880819320679, 0.20277109742164612, 0.7114822268486023, -0.15943141281604767, 0.6194122433662415], [-0.12825168669223785, 0.10356004536151886, -0.07056143879890442, -0.09144371002912521, 0.07907158881425858, -0.02302759513258934, -0.2586054503917694, -0.24389897286891937, -0.09111842513084412, -0.008648425340652466, 0.08236707001924515, 0.00944433268159628, -0.09155172109603882, 0.05959651619195938, -0.030772695317864418, 0.14027929306030273, -0.051686327904462814, 0.026701979339122772, 0.03080643340945244, -0.07582899928092957, -0.05441085994243622, -0.012049825862050056, 0.21765996515750885, -0.06396052986383438, -0.07806600630283356, 0.11667188256978989, -0.14574509859085083, -0.18768320977687836, 0.04309035465121269, 0.25751885771751404, 0.0530572310090065, 0.047376859933137894, 0.24546514451503754, -0.16164357960224152, -0.18975496292114258, -0.03635360300540924, -0.05343968793749809, 0.10586811602115631, -0.029537495225667953, 0.09463703632354736, -0.14219391345977783, -0.04155457392334938, 0.14702999591827393, 0.15791676938533783, -0.21337458491325378, 0.04235531762242317, 0.009756066836416721, -0.201386496424675, -0.021982606500387192, 0.10448557883501053, 0.1850987821817398, -0.16178059577941895, 0.06037486344575882, 0.11255304515361786, -0.17011655867099762, 0.06266044080257416, 0.23471054434776306, 0.11574515700340271, -0.43235358595848083, 0.01251243520528078, 0.035021718591451645, -0.06935485452413559, 0.14222843945026398, 0.06800180673599243, -0.10286112874746323, -0.13905920088291168, -0.046092402189970016, 0.23376992344856262, 0.13488321006298065, -0.14452098309993744, 0.07731420546770096, -0.0036792128812521696, -0.4382001757621765, 0.02783999964594841, 0.17611920833587646, -0.13749581575393677, 0.14471401274204254, 0.10030774772167206, 0.010847519151866436, -0.4839506149291992, -0.028499219566583633, 0.29304012656211853, 0.10108645260334015, 0.1515585035085678, -0.15227431058883667, 0.13336366415023804, -0.477558970451355, -0.005420919973403215, -0.022598255425691605, 0.27391496300697327, 0.12646228075027466, 0.02616436965763569, 0.04114484041929245, -0.5785260796546936, -0.1722412407398224, -0.025958294048905373, 0.09505637735128403, 0.12424369901418686, -0.07770438492298126, 0.2221735566854477, -0.43976354598999023, -0.03249431028962135, -0.1278810352087021, -0.024463312700390816, 0.02660297602415085, 0.014509877189993858, -0.0009178897016681731, -0.5199899673461914, -0.014233698137104511, 0.12618128955364227, 0.16765739023685455, 0.11866442859172821, 0.0614134855568409, 0.29935523867607117, -0.5045467019081116, -0.02567887492477894, -0.005424517672508955, 0.0033009222242981195, 0.08542383462190628, -0.13740453124046326, 0.072042316198349, -0.38390862941741943, 0.1438455730676651, -0.15333101153373718, 0.07553432881832123, 0.19931478798389435, 0.02156701311469078, 0.007735349703580141, -0.3746297061443329, -0.14667335152626038, -0.00700302142649889, 0.07554683089256287, 0.2997691035270691, -0.05206788331270218, 0.0017476530047133565, -0.4130750298500061, -0.10775063931941986, -0.027525678277015686, -0.04408460110425949, 0.25000736117362976, -0.050655096769332886, 0.07112161815166473, -0.45195940136909485, -0.049182046204805374, 0.0017931228503584862, -0.016461260616779327, 0.3978133797645569, -0.05610596016049385, 0.02736441232264042, -0.27854374051094055, -0.053565409034490585, 0.07941682636737823, -0.0369572676718235, 0.31545209884643555, -0.0522984080016613, 0.11034945398569107, 0.0011350660352036357, 0.00046894553815945983, -0.18813368678092957, -0.009076925925910473, -0.0013578056823462248, 0.028916800394654274, 0.07359447330236435, -0.07059887051582336, 0.03143664449453354, 0.002583090215921402, -0.3137672245502472, -0.1727360635995865, -0.08887158334255219, -0.06121483072638512, 0.24077406525611877, 0.0217220950871706, 0.025338487699627876, -0.36204618215560913, 0.02389294095337391, -0.08401625603437424, -0.1820993274450302, -0.030944112688302994, -0.05759405344724655, -0.17353513836860657, -0.14835570752620697, 0.03351187705993652, -0.1103956326842308, -0.21568885445594788, 0.0002504515869077295, 0.020753249526023865, 0.015715261921286583, -0.10781887918710709, -0.03984164446592331, -0.05741215497255325, -0.08279671519994736, -0.054541777819395065, 0.004522170405834913, -0.06214943528175354, -0.1742877960205078, 0.14333999156951904, -0.029412927106022835, 0.013031220994889736, -0.14760246872901917, 0.04773859307169914, -0.14558759331703186, -0.26280325651168823, -0.003857205854728818, -0.08235886693000793, -0.075638547539711, -0.11952794343233109, 0.06259340792894363, 0.0463198721408844, -0.1845346987247467, 0.0611463263630867, -0.24475766718387604, -0.22333498299121857, 0.16178490221500397, -0.22807128727436066, -0.02591749094426632, -0.27321720123291016, 0.06351036578416824, -0.027236174792051315, -0.12825559079647064, 0.08956815302371979, 0.06958667188882828, -0.2060587853193283, 0.05550456419587135, 0.03053826279938221, -0.22725225985050201, -0.10839948058128357, 0.023786872625350952, 0.10477858036756516, -0.2838082015514374, -0.13867104053497314, -0.06791161745786667, -0.2733635902404785, -0.10557571053504944, 0.2831980586051941, 0.08446264266967773, -0.187773197889328, -0.1433330923318863, -0.07968336343765259, -0.004022677429020405, -0.2249862551689148, 0.09051940590143204, -0.10208595544099808, -0.09882036596536636, 0.04302411153912544, 0.038508374243974686, 0.09269914776086807, 0.05281805619597435, 0.11675333231687546, -0.18415658175945282, -0.20076113939285278, -0.0020657156128436327, 0.05863930657505989, -0.0736832544207573, 0.035118117928504944, 0.09377051889896393, -0.11843027919530869, -0.29781702160835266, 0.00805799663066864, 0.02023545280098915, -0.11337745189666748, -0.036304596811532974, 0.08959273248910904, 0.09906752407550812, 0.32190677523612976, -0.11185679584741592, -0.06219404935836792, -0.06274452805519104, -0.18319235742092133, 0.06714161485433578, 0.024585800245404243, 0.21842016279697418, -0.020733095705509186, -0.06798183917999268, -0.01065506599843502, -0.1790298968553543, 0.07882433384656906, 0.07016868889331818, 0.05095276981592178, 0.007974936626851559, 0.24864713847637177, 0.04778272658586502, -0.24364905059337616, 0.09091177582740784, 0.05995814874768257, -0.22180746495723724, -0.18788011372089386, 0.1712987869977951, 0.044195983558893204, -0.15636125206947327, 0.18223656713962555, 0.01809859275817871, 0.08597961068153381, -0.050299353897571564, 0.102650947868824, 0.01743590645492077, -0.22259975969791412, 0.20491142570972443, 0.062062643468379974, -0.1327214539051056, -0.09341370314359665, 0.2643682658672333, 0.039474885910749435, -0.18240590393543243, 0.31518441438674927, -0.07792642712593079, -0.060174550861120224, -0.289953351020813, 0.11326966434717178, 0.17166796326637268, 0.01793062314391136, 0.11195914447307587, 0.07163932174444199, -0.10086232423782349, -0.1384698748588562, 0.3260273337364197, 0.20993584394454956, -0.03290446102619171, 0.1020527333021164, -0.1262567788362503, -0.023154396563768387, 0.08136696368455887, 0.18736547231674194, 0.1797429323196411, 0.08486802130937576, 0.028177078813314438, -0.03648635745048523, -0.029836656525731087, -0.0738251730799675, 0.19413743913173676, -0.03916625678539276, -0.17557692527770996, -0.09450845420360565, 0.09923943877220154, 0.022462671622633934, -0.05994732677936554, 0.35339510440826416, -0.37855982780456543, 0.3451160788536072, -0.7264757752418518, 0.32813408970832825, -0.44916316866874695], [0.32053372263908386, 0.031425707042217255, 0.17376679182052612, 0.010060099884867668, -0.20738592743873596, 0.00409217644482851, -0.01721930503845215, 0.07735196501016617, 0.10806465148925781, 0.03060479834675789, 0.043199822306632996, -0.099447101354599, 0.004672672133892775, -0.05360237509012222, -0.2816828787326813, 0.05916753038764, 0.12147898972034454, 0.06300079822540283, -0.13168491423130035, -0.05373469367623329, 0.08465158194303513, -0.0044218446128070354, -0.0063649327494204044, 0.08356533944606781, -0.1000923365354538, -0.0347566120326519, -0.029771845787763596, 0.02146035246551037, 0.0803021788597107, 0.24045461416244507, -0.12437021732330322, -0.07592672854661942, -0.17756198346614838, -0.2209872007369995, -0.05496034026145935, 0.15792430937290192, 0.1023770272731781, -0.3082699179649353, -0.12388496100902557, 0.050430431962013245, -0.20585966110229492, -0.23041769862174988, 0.177584707736969, 0.10938308387994766, -0.07828540354967117, 0.10511364042758942, 0.05078219622373581, -0.06466265022754669, -0.1558426469564438, 0.2617693245410919, 0.24486835300922394, -0.25243452191352844, 0.08069762587547302, -0.08693674206733704, -0.139938086271286, 0.09268217533826828, 0.061484597623348236, 0.07407111674547195, -0.17062263190746307, 0.06563236564397812, -0.16206030547618866, -0.0014312624698504806, -0.07883202284574509, 0.15568341314792633, 0.044295426458120346, -0.12913066148757935, 0.13838455080986023, -0.03899778798222542, 0.06411813944578171, -0.011220574378967285, -0.009522940032184124, -0.09331034868955612, -0.09832693636417389, -0.009093906730413437, -0.0897781252861023, 0.06442368775606155, 0.0271977037191391, -0.009779407642781734, -0.15490087866783142, 0.31062859296798706, 0.05215265229344368, -0.22147949039936066, -0.04413146898150444, -0.006093460135161877, 0.011920307762920856, -0.23623014986515045, 0.4818994402885437, -0.09399597346782684, -0.022298971191048622, -0.04899902641773224, 0.12153349816799164, -0.11060120165348053, -0.1943371444940567, 0.2981695234775543, -0.01493065431714058, 0.036434173583984375, -0.11597473919391632, 0.0006144053768366575, 0.059342872351408005, -0.34327754378318787, 0.2355857491493225, -0.008998755365610123, -0.21436336636543274, -0.025463666766881943, -0.07937349379062653, -0.07387309521436691, -0.14897020161151886, 0.22776488959789276, 0.03250672295689583, -0.13153167068958282, -0.028366055339574814, 0.04829360544681549, -0.25744953751564026, -0.28177255392074585, 0.5271996855735779, 0.03846248984336853, -0.0549921877682209, -0.045256488025188446, -0.39981377124786377, -0.21632419526576996, -0.1831664741039276, 0.36937597393989563, -0.06178133189678192, -0.026363009586930275, -0.07411316782236099, -0.23619961738586426, -0.025261718779802322, -0.1859145313501358, 0.3263311982154846, 0.02578406035900116, 0.0798017755150795, -0.04696599021553993, -0.38351547718048096, -0.13656629621982574, -0.05148567259311676, 0.222171813249588, 0.22949232161045074, -0.023443827405571938, -0.17637990415096283, -0.16057328879833221, 0.0009637345792725682, -0.2040305882692337, 0.19652974605560303, 0.07602642476558685, 0.050129637122154236, -0.06960198283195496, -0.09108024090528488, -0.14222373068332672, -0.2672049403190613, 0.07176091521978378, -0.15351128578186035, 0.016880877315998077, -0.14162589609622955, 0.0346851721405983, -0.13235785067081451, -0.2703686058521271, 0.1436086893081665, 0.1259697526693344, -0.2578648626804352, -0.07776211947202682, 0.11307218670845032, -0.00041214469820261, -0.1998646855354309, 0.04356427490711212, 0.053362809121608734, -0.1976628601551056, -0.08366076648235321, 0.1891268938779831, -0.10038872063159943, -0.2450055181980133, 0.3012419044971466, 0.06956405192613602, -0.24449236690998077, -0.006902866065502167, 0.045453429222106934, -0.16706140339374542, -0.4606103301048279, 0.14649905264377594, -0.09543885290622711, -0.333158940076828, 0.13277778029441833, 0.025513136759400368, -0.32213345170021057, -0.3069554269313812, 0.2907540500164032, -0.05343889445066452, -0.1958746761083603, -0.027194511145353317, -0.09547149389982224, -0.33023932576179504, -0.2272080034017563, 0.2227274626493454, 0.05372083559632301, -0.15589994192123413, -0.054297465831041336, -0.13844718039035797, -0.23361098766326904, -0.11858724802732468, 0.1375027745962143, 0.08371531963348389, -0.3190191686153412, 0.04649189114570618, -0.1261768341064453, -0.1354570984840393, -0.07549184560775757, 0.10558129847049713, 0.030053088441491127, -0.22323472797870636, 0.07794275134801865, -0.12685102224349976, -0.1133086085319519, 0.059252697974443436, 0.034173160791397095, -0.1313277781009674, -0.34105542302131653, -0.05551569536328316, 0.006461676675826311, 0.1437770277261734, -0.012732041999697685, 0.0393466055393219, -0.15654915571212769, -0.15205970406532288, 0.037381093949079514, -0.22728395462036133, 0.06332357227802277, -0.11397518962621689, -0.04980256035923958, -0.06603549420833588, -0.4868137836456299, 0.04946107417345047, 0.0641854777932167, 0.358527809381485, 0.19181251525878906, -0.2676667869091034, 0.06050267070531845, -0.07910231500864029, 0.08499748259782791, 0.11581280082464218, 0.23411473631858826, 0.08704599738121033, -0.3091789484024048, 0.08746787160634995, -0.14617812633514404, 0.20712722837924957, -0.15305474400520325, 0.12179730832576752, 0.019367709755897522, -0.4206545650959015, -0.0002421017998130992, -0.1898793876171112, 0.0696551650762558, -0.134224534034729, 0.24741004407405853, 0.16416487097740173, -0.2634253203868866, -0.05761312320828438, -0.20538683235645294, 0.21658185124397278, -0.07763099670410156, 0.09036149084568024, 0.2259460985660553, -0.12384992092847824, 0.00017581589054316282, 0.0037744531873613596, 0.05087486281991005, -0.16170348227024078, -0.0034772404469549656, 0.00740659749135375, -0.2515837848186493, 0.035207349807024, 0.22783102095127106, 0.18404912948608398, -0.07899925112724304, -0.09744266420602798, -0.017207343131303787, 0.050404831767082214, -0.12952381372451782, -0.08635777980089188, 0.2410624921321869, -0.07496532052755356, -0.01084447093307972, 0.05897651985287666, -0.21168003976345062, -0.15665893256664276, -0.21089063584804535, -0.018857324495911598, 0.01628250814974308, -0.017281942069530487, -0.0707053691148758, -0.292289137840271, 0.09803000837564468, -0.03399515897035599, -0.10843118280172348, -0.005407193209975958, 0.15113019943237305, 0.08090444654226303, -0.002107781358063221, 0.09027538448572159, -0.17037202417850494, -0.05844701826572418, 0.10348383337259293, 0.03519420698285103, -0.11835114657878876, -0.22243355214595795, 0.1523560881614685, -0.023058438673615456, -0.016941754147410393, 0.005361282732337713, 0.2840654253959656, -0.13482679426670074, -0.15701010823249817, 0.15681235492229462, -0.09055469185113907, 0.1256936639547348, 0.022599102929234505, -0.023192252963781357, -0.05482231453061104, -0.06728999316692352, -0.04540396109223366, -0.15007662773132324, 0.03945310413837433, -0.055211473256349564, 0.006852178834378719, -0.11437813192605972, 0.19121240079402924, 0.005014629103243351, -0.06308791041374207, 0.0027579322922974825, -0.07669177651405334, -0.023670153692364693, 0.029200060293078423, 0.14026251435279846, 0.012528648599982262, -0.03069024346768856, -0.13657984137535095, 0.05225364863872528, -0.14504997432231903, 0.3172091245651245, 0.3271941840648651, -0.4515768885612488, -1.0919135808944702], [-0.2536926567554474, -0.08855190128087997, 0.19591528177261353, 0.02832574024796486, -0.18744607269763947, -0.058132968842983246, 0.012821380980312824, -0.1614391952753067, -0.107236348092556, 0.04457759112119675, -0.004895247519016266, -0.06217048317193985, -0.13050299882888794, 0.34984585642814636, -0.2655985355377197, 0.09845758229494095, 0.39750662446022034, -0.017490606755018234, -0.0038733030669391155, -0.23675628006458282, 0.2028418779373169, -0.09148535132408142, -0.09019257128238678, 0.5465725660324097, -0.03964352235198021, 0.028948135673999786, -0.1676367223262787, 0.17322926223278046, -0.17873530089855194, -0.1523919701576233, 0.35116180777549744, 0.10312582552433014, 0.008003802970051765, 0.16977308690547943, 0.09277462214231491, 0.28826773166656494, -0.06697534769773483, 0.1901438981294632, 0.003385254880413413, -0.006750599481165409, -0.1761394739151001, 0.07002095878124237, 0.11838129907846451, -0.08016151934862137, 0.3531261682510376, -0.006958015263080597, 0.3139336109161377, -0.02163187600672245, -0.03855070844292641, 0.10634276270866394, -0.08797696977853775, 0.38856929540634155, 0.06865082681179047, 0.16667568683624268, -0.05839436501264572, -0.1749098151922226, 0.29402872920036316, -0.024073436856269836, 0.21965031325817108, 0.06610549241304398, 0.18603281676769257, -0.18536533415317535, 0.006180524360388517, 0.08245250582695007, -0.24121709167957306, 0.25506308674812317, -0.08276558667421341, 0.11369623988866806, -0.03193041309714317, 0.024886490777134895, 0.30676937103271484, -0.10230963677167892, 0.16927112638950348, 0.07209935784339905, 0.06341750919818878, -0.11042409390211105, 0.19095173478126526, 0.07548800855875015, -0.07535708695650101, -0.12596039474010468, 0.0736277848482132, 0.08529448509216309, -0.18800318241119385, 0.20513522624969482, 0.20343884825706482, -0.045015886425971985, 0.025018855929374695, -0.025585560128092766, 0.011955615133047104, -0.11952873319387436, 0.11445050686597824, 0.0949421375989914, 0.017071519047021866, -0.030109211802482605, -0.041745901107788086, 0.11065172404050827, 0.07514975965023041, 0.003365421434864402, 0.028334643691778183, 0.021799858659505844, 0.11770519614219666, 0.005690598860383034, -0.02176658995449543, -0.03757486864924431, 0.018282588571310043, -0.044131312519311905, -0.2285538613796234, -0.040566734969615936, 0.0370979942381382, -0.22410887479782104, -0.05312860384583473, -0.017297497019171715, -0.015684083104133606, 0.036692988127470016, -0.0973304882645607, 0.09490296244621277, 0.00033479509875178337, -0.010845178738236427, -0.01398508157581091, 0.079130619764328, 0.03014778532087803, -0.11835348606109619, -0.09986358135938644, -0.012928052805364132, -0.05809810012578964, 0.08325295150279999, 0.06648822128772736, 0.13258065283298492, -0.18993636965751648, 0.1115085706114769, 0.03340126574039459, 0.03590148314833641, -0.01264223549515009, 0.07983658462762833, 0.05842483043670654, -0.5824706554412842, -0.05743371322751045, 0.05699457600712776, 0.12032154947519302, 0.10914056748151779, 0.20230792462825775, 0.13997144997119904, -0.46990737318992615, -0.08733256161212921, 0.1777573525905609, 0.07841210812330246, 0.08572278916835785, 0.19269418716430664, 0.12513937056064606, -0.4724814295768738, -0.07331470400094986, 0.2946539521217346, 0.043362561613321304, 0.1651381254196167, 0.20176181197166443, 0.3114840090274811, -0.3365408480167389, -0.06442153453826904, 0.16629578173160553, 0.028600377961993217, 0.20088569819927216, 0.17390090227127075, 0.30629223585128784, -0.29590514302253723, 0.17352250218391418, 0.08837780356407166, -0.0023591492790728807, 0.1510721892118454, 0.04402982071042061, 0.297476202249527, -0.36061352491378784, 0.07098957151174545, 0.2191409021615982, 0.08595546334981918, 0.036056093871593475, 0.1500551402568817, 0.2807689309120178, -0.23091314733028412, -0.05391520634293556, 0.14175273478031158, 0.2126389741897583, 0.15783487260341644, 0.10783348977565765, 0.13644911348819733, -0.37128815054893494, 0.0605519637465477, 0.07324983179569244, 0.06342300772666931, 0.13093648850917816, 0.09835581481456757, 0.14739519357681274, -0.23764684796333313, -0.012231928296387196, -0.014585427939891815, -0.06351912021636963, 0.0710335299372673, -0.1857665479183197, 0.08435745537281036, -0.2831574082374573, 0.007894153706729412, -0.016497720032930374, 0.15013885498046875, 0.17191259562969208, -0.005106612108647823, 0.09368995577096939, -0.19922034442424774, 0.04373391717672348, -0.052860915660858154, 0.07291864603757858, 0.07331583648920059, -0.229995995759964, 0.021701501682400703, -0.09524334222078323, 0.12325693666934967, -0.002344949170947075, 0.15774069726467133, -0.015366860665380955, -0.29314157366752625, 0.09731338918209076, -0.11462359875440598, -0.01401201169937849, 0.007371217478066683, 0.05554564669728279, -0.09817013889551163, -0.12617892026901245, -0.03809184581041336, -0.053147055208683014, -0.037408821284770966, -0.20172764360904694, 0.20462238788604736, -0.137254536151886, -0.09050878882408142, 0.01992916688323021, 0.07002521306276321, -0.07265857607126236, -0.006081720348447561, 0.39973580837249756, -0.05345991626381874, -0.0704878494143486, -0.04077020287513733, -0.12136440724134445, 0.10150512307882309, -0.02123948559165001, 0.44984763860702515, -0.050233833491802216, -0.022945482283830643, 0.05583539232611656, 0.06790006905794144, -0.11968178302049637, 0.0051366970874369144, 0.46487098932266235, 0.06593464314937592, -0.008922549895942211, -0.04243708401918411, -0.03705928847193718, 0.049319520592689514, 0.008350661024451256, 0.5390176773071289, -0.04251759126782417, -0.011596874333918095, 0.005689654499292374, -0.08038691431283951, 0.08680146932601929, -0.062439631670713425, 0.4463379383087158, -0.08500023186206818, 0.028405960649251938, 0.01201163325458765, 0.20321114361286163, 0.004757919814437628, 0.02896173670887947, 0.3555212914943695, -0.03986257314682007, 0.10343052446842194, -0.0047821905463933945, 0.21796642243862152, -0.1110849529504776, 0.04994465038180351, 0.23365160822868347, -0.13783369958400726, 0.0011303395731374621, -0.0030553818214684725, 0.5433704853057861, 0.0071242437697947025, 0.007813943549990654, 0.13632524013519287, -0.22381995618343353, -0.017302393913269043, -0.0935753732919693, 0.4769602119922638, 0.019863538444042206, 0.03701847419142723, 0.23628316819667816, -0.03758135065436363, 0.05730563402175903, -0.08205808699131012, 0.43000924587249756, -0.08426429331302643, -0.06710510700941086, 0.1745857149362564, -0.11378641426563263, 0.0811595544219017, -0.22412021458148956, 0.5171534419059753, -0.00637812539935112, -0.10433360189199448, 0.1478990912437439, 0.017313476651906967, 0.09073957055807114, -0.2698197662830353, 0.4167148172855377, 0.027896730229258537, -0.019248371943831444, 0.3084656298160553, -0.11829918622970581, 0.21380139887332916, -0.4124068319797516, 0.15827174484729767, -0.005614932160824537, 0.11979595571756363, 0.08615114539861679, 0.10848875343799591, -0.1412692368030548, -0.05884760990738869, 0.44993340969085693, -0.07234316319227219, 0.03696576505899429, 0.13112932443618774, -0.11141510307788849, -0.09988632798194885, -0.15113066136837006, 0.3960345983505249, -0.11132608354091644, -0.14906668663024902, -0.06024320051074028, -0.0508362352848053, -0.18171516060829163, 0.2246125191450119, 0.33753082156181335, -0.46354296803474426, -0.25192806124687195], [-0.25265511870384216, 0.24019241333007812, 0.06424843519926071, 0.08534801006317139, -0.11176596581935883, 0.1127099096775055, -0.06351834535598755, -0.15269868075847626, -0.0060729775577783585, 0.482254296541214, 0.05821864679455757, -0.010524168610572815, -0.16363753378391266, -0.10357918590307236, 0.028411483392119408, -0.19372445344924927, 0.21008718013763428, 0.12903854250907898, -0.028471805155277252, -0.057825472205877304, -0.12715519964694977, 0.06018109992146492, -0.12329436838626862, -0.06455103307962418, 0.1367024928331375, -0.014554692432284355, 0.08865171670913696, -0.012855535373091698, 0.04922356829047203, -0.050021201372146606, 0.22617900371551514, 0.06165297329425812, 0.056384097784757614, 0.4597199857234955, -0.1484089344739914, -0.1144196167588234, -0.06587577611207962, 0.08355782926082611, -0.041632045060396194, 0.09541519731283188, 0.3705461323261261, -0.09890107810497284, -0.11130143702030182, -0.28305289149284363, 0.3468134105205536, -0.06548328697681427, 0.05934913083910942, 0.23143920302391052, -0.04818885400891304, -0.06243717297911644, 0.013006682507693768, 0.25825685262680054, -0.02346479706466198, 0.04570627212524414, 0.0883522480726242, -0.02430424466729164, -0.3671399652957916, -0.16247454285621643, 0.18087348341941833, -0.024882201105356216, 0.18589480221271515, 0.2962862551212311, -0.08989556133747101, -0.21888762712478638, -0.08445845544338226, 0.0686405822634697, -0.0946199893951416, 0.40453314781188965, -0.14440445601940155, 0.10794645547866821, -0.2721593379974365, 0.13658539950847626, -0.020014259964227676, -0.027156198397278786, 0.20159116387367249, 0.059655994176864624, 0.09510138630867004, -0.19713930785655975, -0.06708382815122604, -0.2312059849500656, -0.000755309360101819, 0.23386698961257935, 0.12823064625263214, -0.07477539032697678, -0.07727337628602982, 0.17125871777534485, -0.11642250418663025, 0.05027681216597557, 0.3421771824359894, 0.23024536669254303, -0.12223446369171143, -0.08896464854478836, 0.11574259400367737, -0.09524554759263992, 0.11709010601043701, 0.11230077594518661, 0.20671875774860382, -0.03125930577516556, -0.02708839625120163, 0.20520593225955963, -0.03987903147935867, -0.007647364865988493, 0.0513729527592659, 0.17716845870018005, -0.10845467448234558, 0.026415418833494186, 0.2811799943447113, -0.127452090382576, -0.027183206751942635, -0.048753079026937485, -0.04131704568862915, -0.13638971745967865, 0.16189298033714294, 0.06429187953472137, 0.0023090916220098734, 0.04527566581964493, 0.13630478084087372, -0.05360765382647514, -0.21341904997825623, 0.21979807317256927, 0.23277820646762848, -0.01621435210108757, -0.06655128300189972, 0.2520603835582733, -0.03521692380309105, -0.18849977850914001, 0.028186215087771416, 0.10648266971111298, -0.03202182427048683, -0.08307338505983353, 0.16821400821208954, 0.0764964371919632, -0.12228959053754807, 0.09865996241569519, 0.06772910803556442, -0.013575459830462933, -0.09747911244630814, 0.11407320201396942, -0.026041196659207344, -0.07330100238323212, -0.026028694584965706, 0.022869763895869255, 0.18355488777160645, -0.0012433797819539905, 0.2883383631706238, -0.14780756831169128, 0.05092150717973709, -0.018923481926321983, -0.05560401454567909, 0.06855201721191406, -0.050605881959199905, 0.26263004541397095, 0.053181152790784836, -0.07737231999635696, -0.11017626523971558, 0.11108502000570297, 0.34875214099884033, -0.048669394105672836, 0.3708271086215973, -0.23482830822467804, -0.08143185079097748, -0.10446477681398392, 0.18496428430080414, 0.02840624935925007, 0.08628635853528976, 0.2893659770488739, 0.03706944361329079, -0.15360814332962036, -0.12288738042116165, 0.19481965899467468, 0.12841184437274933, 0.053669918328523636, 0.2773546874523163, -0.2687389552593231, -0.05418430641293526, -0.10363361984491348, 0.06496390700340271, -0.04457015171647072, -0.00561728049069643, 0.44723719358444214, -0.03767590969800949, -0.09410177171230316, -0.14857637882232666, 0.022337570786476135, 0.02192114293575287, -0.09841921180486679, 0.25801998376846313, 0.015674009919166565, -0.16797763109207153, -0.2594005763530731, 0.10741038620471954, 0.05568438395857811, -0.017697378993034363, 0.13662303984165192, -0.13955815136432648, -0.06545677036046982, -0.36767980456352234, 0.19020064175128937, 0.06540441513061523, -0.0038977970834821463, 0.30630114674568176, -0.033908046782016754, -0.10006853193044662, -0.2137291580438614, -0.03330111876130104, 0.11239810287952423, -0.05656886100769043, 0.3965226709842682, 0.06493562459945679, 0.004340918269008398, -0.12123631685972214, 0.041106317192316055, 0.02891562506556511, -0.07960522174835205, 0.22284197807312012, -0.01862310990691185, 0.026746725663542747, -0.017960261553525925, 0.11506924033164978, 0.11900310963392258, -0.09752179682254791, 0.1906745582818985, -0.01387615967541933, -0.07555519789457321, -0.11688027530908585, -0.03768644109368324, 0.25864672660827637, -0.06686633080244064, 0.16956298053264618, -0.09184272587299347, -0.0009396487730555236, -0.2755798399448395, 0.032240431755781174, 0.15547893941402435, 0.13499614596366882, 0.0977025181055069, -0.0019838549196720123, -0.007255905773490667, -0.25014692544937134, 0.025572005659341812, 0.05776011943817139, -0.0854724571108818, 0.07997750490903854, 0.22179557383060455, 0.05854479596018791, -0.19579778611660004, 0.026893459260463715, 0.11916041374206543, -0.024996617808938026, -0.031399838626384735, -0.13863836228847504, 0.09958866983652115, -0.3536767363548279, -0.006325654219835997, 0.22716490924358368, -0.03832685947418213, 0.059108998626470566, -0.03826383501291275, 0.06525113433599472, -0.2864040434360504, -0.10231374204158783, 0.2794066071510315, -0.04505737125873566, 0.011131089180707932, 0.0026857273187488317, -0.016417572274804115, -0.10749030113220215, -0.1800018846988678, 0.18589752912521362, -0.022709593176841736, 0.1575842946767807, 0.025275275111198425, 0.12597505748271942, -0.035746827721595764, -0.27833840250968933, 0.20170708000659943, -0.0077186571434140205, 0.03589792922139168, 0.02484804019331932, 0.2119147777557373, -0.2075852006673813, -0.40107813477516174, 0.42444002628326416, -0.0714980736374855, 0.15127387642860413, 0.017200259491801262, 0.30267995595932007, -0.11285677552223206, -0.27958035469055176, 0.42158448696136475, -0.030658166855573654, -0.27587729692459106, 0.10613543540239334, 0.23883575201034546, -0.18141333758831024, -0.2862039804458618, 0.395891934633255, 0.026323558762669563, -0.1748681515455246, -0.01782872900366783, 0.2355828881263733, 0.0623304508626461, -0.15273736417293549, 0.14610128104686737, 0.10341887921094894, -0.2029869556427002, 0.029306193813681602, 0.23524796962738037, -0.13987122476100922, 0.019051603972911835, -0.0835639089345932, -0.20318268239498138, -0.11205776035785675, 0.03014814667403698, 0.32006046175956726, -0.13721871376037598, -0.4022273123264313, 0.75519859790802, 0.0009014924289658666, -0.044917937368154526, 0.12836511433124542, 0.08242818713188171, -0.15844731032848358, -0.33077844977378845, -0.14170648157596588, 0.004071076866239309, 0.13875046372413635, 0.2611076831817627, 0.17825129628181458, -0.27105647325515747, 0.0066153076477348804, 0.1558748185634613, -0.14064572751522064, 0.12413585931062698, 0.036348260939121246, -0.05617270991206169, 0.44300270080566406, -0.11110269278287888, 0.45484551787376404, -0.08781593292951584, 0.06651280075311661], [0.11397840827703476, 0.012599986977875233, -0.4097962975502014, -0.024395296350121498, 0.14466014504432678, 0.06461907178163528, 0.03542906045913696, 0.1817675530910492, 0.10254885256290436, -0.15050724148750305, 0.04053729772567749, 0.06645665317773819, 0.16645941138267517, -0.0807957649230957, 0.10898616909980774, -0.06625896692276001, -0.21343132853507996, 0.025366520509123802, 0.10025055706501007, 0.10456860065460205, -0.18588027358055115, 0.02838512323796749, 0.1139073520898819, 0.047696396708488464, 0.09102515131235123, 0.05834514647722244, 0.059049926698207855, -0.41394707560539246, 0.21089249849319458, 0.29599642753601074, -0.1229376569390297, -0.10748008638620377, 0.04417422041296959, 0.2499416172504425, -0.34548160433769226, 0.0015882387524470687, 0.10150985419750214, -0.027264807373285294, -0.10194182395935059, 0.08922838419675827, 0.19756196439266205, -0.2741711139678955, 0.10929182916879654, 0.12762677669525146, -0.09221302717924118, 0.020449522882699966, 0.0894300565123558, 0.06531306356191635, -0.15889884531497955, 0.06999439746141434, 0.2827993631362915, -0.034564025700092316, -0.010029541328549385, 0.12753534317016602, 0.19078736007213593, -0.2890179753303528, -0.017257435247302055, 0.0289678443223238, 0.05969046428799629, 0.014937978237867355, 0.13207946717739105, 0.1977199763059616, -0.1191047728061676, 0.03273650258779526, 0.05101002752780914, -0.11573885381221771, -0.022905487567186356, 0.25278332829475403, 0.010032964870333672, -0.1332024186849594, 0.08281727135181427, 0.07787241041660309, -0.0808764398097992, -0.006797836162149906, 0.23550768196582794, 0.17062342166900635, -0.10417846590280533, 0.0472048744559288, -0.021819541230797768, -0.08287590742111206, 0.1334201693534851, 0.06463178992271423, 0.017486736178398132, 0.07781879603862762, 0.04517890885472298, 0.09354044497013092, -0.05819268524646759, -0.04082689806818962, -0.0371527262032032, 0.1776537448167801, 0.022032825276255608, 0.07992825657129288, 0.08502475917339325, -0.10662301629781723, -0.04532519355416298, -0.050076693296432495, 0.1020030751824379, 0.124103844165802, 0.1319371908903122, 0.195346862077713, -0.09653110802173615, 0.06348741054534912, 0.08370795100927353, 0.04429375007748604, -0.16473715007305145, 0.06373705714941025, 0.19265979528427124, 0.0182034894824028, -0.018119968473911285, 0.053623225539922714, 0.013598933815956116, -0.1590961515903473, 0.19447001814842224, 0.17730411887168884, -0.02379211038351059, 0.12587721645832062, 0.038891859352588654, 0.01919097639620304, -0.13787111639976501, 0.11426755785942078, 0.2480691373348236, -0.06281167268753052, 0.172159805893898, -0.048562150448560715, 0.14785781502723694, -0.10451490432024002, 0.05903632566332817, 0.11923815310001373, -0.15105821192264557, -0.05862515792250633, 0.24307185411453247, 0.27146217226982117, -0.1945541799068451, 0.0787961333990097, -0.09698448330163956, -0.08154670149087906, -0.024404767900705338, 0.14222930371761322, 0.06833115965127945, -0.0552266463637352, 0.06335999816656113, 0.02269221842288971, -0.09506427496671677, -0.008561881259083748, 0.043421246111392975, 0.06881055235862732, 0.03441481664776802, -0.023962225764989853, 0.030537091195583344, -0.14688467979431152, -0.010271027684211731, -0.05088452994823456, 0.19303663074970245, 0.04366368427872658, -0.015073235146701336, -0.03877050802111626, -0.1762228012084961, 0.02800983004271984, -0.006376346573233604, -0.1855269968509674, -0.048556774854660034, 0.17984053492546082, -0.00868401862680912, 0.01458212174475193, 0.056514956057071686, 0.10286332666873932, -0.10976725816726685, 0.1241350993514061, 0.0024897116236388683, -0.02877831645309925, -0.13242566585540771, -0.07480519264936447, -0.18261748552322388, -0.018820004537701607, 0.09737364202737808, -0.06428632885217667, 0.012583757750689983, 0.023971963673830032, 0.06839091330766678, 0.1104075014591217, -0.02107147127389908, 0.01546765398234129, 0.11126605421304703, -0.042696334421634674, -0.3581477999687195, 0.05247792601585388, 0.0634438544511795, 0.018797820433974266, 0.04364142566919327, 0.08043637871742249, 0.040459178388118744, -0.10775750875473022, 0.055855050683021545, -0.041645586490631104, -0.01886572316288948, 0.22747454047203064, -0.02144698239862919, -0.08179160952568054, -0.19070428609848022, -0.024835938587784767, -0.08706441521644592, -0.05169117450714111, 0.20035268366336823, 0.026552995666861534, -0.04508642107248306, -0.121212437748909, 0.041040923446416855, -0.3694007694721222, -0.07167255133390427, 0.14901882410049438, -0.10171838849782944, 0.0766100361943245, -0.18515799939632416, -0.017686033621430397, -0.3749215006828308, -0.0006104512722231448, 0.15392298996448517, -0.04336073249578476, 0.04305057227611542, -0.01728714630007744, -0.006296026054769754, -0.46875715255737305, -0.12071071565151215, 0.1288946270942688, -0.0341036356985569, -0.12518027424812317, 0.021991407498717308, 0.1108042299747467, -0.3782635033130646, -0.057609256356954575, 0.03273557871580124, -0.15279777348041534, -0.15766653418540955, 0.015518587082624435, 0.05346149206161499, -0.18672211468219757, -0.16034294664859772, 0.023628560826182365, -0.05523549020290375, -0.04840587079524994, 0.0283404178917408, 0.05169151350855827, -0.2108052521944046, -0.22522588074207306, 0.1564936637878418, -0.14317730069160461, -0.09900978952646255, -0.05112684145569801, -0.007948535494506359, -0.27229732275009155, -0.19930428266525269, 0.21974211931228638, -0.07588926702737808, -0.18996793031692505, -0.014119361527264118, -0.11690085381269455, -0.30907556414604187, -0.2513027787208557, 0.1996575891971588, 0.025455769151449203, -0.13636700809001923, -0.08270128071308136, 0.060942646116018295, -0.31431061029434204, -0.4055868089199066, 0.2685585021972656, -0.07765339314937592, -0.08078417927026749, -0.24496997892856598, -0.1355653703212738, -0.2381628006696701, -0.40822580456733704, 0.13842962682247162, -0.018937919288873672, -0.07094309478998184, -0.1315707266330719, 0.029350511729717255, -0.290934294462204, -0.633205771446228, 0.22531874477863312, 0.17710576951503754, 0.029540307819843292, -0.18647514283657074, -0.10040463507175446, -0.2687758207321167, -0.24650943279266357, 0.3731690049171448, 0.16360941529273987, -0.08404465764760971, -0.09071096777915955, 0.04284151643514633, -0.13109908998012543, -0.40385252237319946, 0.4189998507499695, 0.16800478100776672, -0.1717589646577835, -0.22240222990512848, 0.021392742171883583, 0.051990754902362823, -0.32180026173591614, 0.289979487657547, -0.044344477355480194, -0.004011667799204588, -0.15983009338378906, -0.10095161199569702, 0.11402766406536102, -0.17275801301002502, 0.22372637689113617, 0.124870665371418, -0.37769773602485657, -0.16534441709518433, -0.032958973199129105, 0.13544988632202148, -0.24648861587047577, 0.36906635761260986, 0.10699111223220825, -0.017036546021699905, -0.0686839297413826, -0.040520623326301575, 0.15424147248268127, -0.2560688853263855, 0.539920449256897, 0.2215675264596939, 0.0800735130906105, -0.257125586271286, -0.04772628843784332, 0.08918696641921997, -0.18962717056274414, 0.3697773218154907, 0.2979903817176819, 0.12280450761318207, 0.26613759994506836, 0.12377573549747467, 0.06312469393014908, -0.31340667605400085, 0.05444124713540077, 0.09203164279460907, 0.3630901873111725, -0.21516969799995422, -0.1092105284333229, 0.5397796034812927], [0.32838794589042664, -0.04695994779467583, 0.05005915090441704, -0.10715664178133011, 0.037736136466264725, 0.1637451946735382, -0.04625239968299866, 0.3144197463989258, 0.07430358231067657, 0.040771353989839554, 0.13364556431770325, 0.14125652611255646, -0.028925925493240356, -0.028434211388230324, 0.34479787945747375, 0.15101180970668793, 0.034470073878765106, -0.10971095412969589, 0.07623643428087234, 0.020143458619713783, 0.05702366307377815, 0.023301055654883385, 0.17278099060058594, -0.09443329274654388, -0.07870960980653763, 0.02824043110013008, -0.11193017661571503, 0.024884261190891266, 0.0887393206357956, -0.02001187950372696, -0.05911961942911148, -0.08808541297912598, 0.14268352091312408, -0.09882301837205887, 0.13850732147693634, 0.18093931674957275, -0.14180760085582733, -0.062005024403333664, -0.0010353303514420986, 0.01738782413303852, -0.08194657415151596, 0.02947307750582695, 0.15558303892612457, -0.1420893371105194, 0.1351729929447174, -0.1367052048444748, 0.05389462411403656, 0.03771098703145981, -0.04604410007596016, -0.009172015823423862, -0.2538313865661621, 0.20870377123355865, -0.057338226586580276, -0.07314570248126984, 0.01887659728527069, 0.1369398534297943, 0.05444960668683052, -0.3725232183933258, 0.1597592979669571, -0.009312999434769154, -0.1081642210483551, -0.06521416455507278, 0.15801288187503815, 0.005775850266218185, -0.20466651022434235, 0.3457847535610199, -0.05812497064471245, -0.08207758516073227, 0.1408328264951706, -0.02906521037220955, -0.09240132570266724, -0.45260027050971985, 0.3897942304611206, -0.09372811764478683, -0.15084989368915558, 0.3064848482608795, 0.01584661193192005, -0.13775327801704407, -0.36861634254455566, 0.4022153615951538, -0.042849406599998474, 0.018259787932038307, 0.21320457756519318, -0.12767630815505981, 0.09070201218128204, -0.36785224080085754, 0.43320533633232117, -0.0710792988538742, 0.07929036766290665, 0.015458705835044384, -0.02397717349231243, 0.037008874118328094, -0.15650103986263275, 0.20401707291603088, -0.05266072601079941, -0.11665352433919907, 0.09902315586805344, -0.07705935090780258, -0.04228409007191658, -0.155402272939682, 0.21972377598285675, 0.1815701425075531, -0.1203230693936348, 0.06977801769971848, -0.041379813104867935, 0.07250672578811646, -0.12456202507019043, 0.18101146817207336, -0.04809761419892311, -0.21436013281345367, 0.06632039695978165, 0.00660104351118207, 0.0493532232940197, -0.24973683059215546, 0.13329988718032837, 0.04278464987874031, -0.06754996627569199, 0.01761147752404213, -0.004161960911005735, 0.09427980333566666, -0.21756407618522644, 0.28456926345825195, -0.08063725382089615, 0.034837622195482254, 0.034392837435007095, -0.22115451097488403, -0.01812390424311161, -0.01628592610359192, 0.3085158169269562, -0.08149309456348419, 0.0525241494178772, -0.09033336490392685, -0.09107133001089096, 0.061179425567388535, -0.09349904954433441, 0.3016883432865143, 0.023698844015598297, -0.21352353692054749, -0.060054294764995575, -0.18726123869419098, 0.05531907081604004, -0.05898096784949303, 0.22972485423088074, 0.014340369030833244, -0.045551493763923645, 0.0719369649887085, -0.18995681405067444, 0.07831422239542007, -0.1717250496149063, 0.3907894194126129, -0.01957758329808712, 0.01073957048356533, -0.06378940492868423, -0.21513810753822327, 0.05201735347509384, -0.07530805468559265, 0.40462425351142883, 0.00605013919994235, 0.05284208431839943, 0.20769049227237701, -0.12818005681037903, 0.02601117081940174, -0.14571800827980042, 0.33814430236816406, 0.03252868354320526, 0.09556592255830765, -0.03587538003921509, -0.23757413029670715, -0.07896014302968979, -0.13861533999443054, 0.30308741331100464, 0.0626070573925972, -0.31592515110969543, 0.007204324472695589, -0.1275739073753357, 0.011467521078884602, -0.0845469981431961, 0.48396575450897217, 0.026432564482092857, -0.06816412508487701, 0.17039652168750763, -0.2433553785085678, 0.060868747532367706, -0.017736805602908134, 0.33727121353149414, -0.04294874519109726, -0.1934884488582611, 0.17940957844257355, -0.16950921714305878, 0.08281052112579346, -0.05361783504486084, 0.5696893334388733, -0.0542629137635231, -0.11872442811727524, 0.1986391246318817, -0.23529043793678284, -0.08041822910308838, 0.031246982514858246, 0.4077436923980713, -0.13394978642463684, -0.10066062957048416, 0.1328267753124237, -0.2375127226114273, -0.010008157230913639, -0.04883802309632301, 0.3465508222579956, -0.1492381989955902, -0.06515060365200043, 0.1762310415506363, -0.34149160981178284, -0.04804825037717819, -0.09156335890293121, 0.2919493615627289, 0.03306934982538223, 0.011362715624272823, 0.09620844572782516, -0.3036617338657379, -0.0011776915052905679, 0.0349542461335659, 0.16565746068954468, 0.07364657521247864, 0.022719014436006546, 0.013018752448260784, -0.13131210207939148, -0.0488358810544014, 0.09697385132312775, 0.2618845999240875, -0.000556168844923377, -0.020011741667985916, -0.15018390119075775, -0.0722130537033081, 0.06214579567313194, 0.029137562960386276, 0.05071649327874184, 0.010140696540474892, -0.05936776101589203, -0.1874162256717682, -0.05940806865692139, -0.07740124315023422, -0.06235632672905922, 0.07886597514152527, -0.11421236395835876, 0.1625603288412094, -0.18742692470550537, -0.09879961609840393, -0.0595969632267952, 0.16817452013492584, -0.10626745223999023, -0.004584458656609058, -0.08006978780031204, -0.1686539202928543, 0.11481261253356934, 0.16250304877758026, 0.10758434236049652, -0.3816433846950531, -0.05800517275929451, -0.22633637487888336, -0.1472945511341095, 0.02038400061428547, -0.01003497838973999, 0.06483038514852524, -0.15545915067195892, -0.004370563663542271, 0.016975101083517075, -0.14924924075603485, 0.10700088739395142, 0.01305102277547121, 0.0653701052069664, 0.0669647678732872, 0.04809611290693283, 0.07178474962711334, -0.2871350347995758, 0.15390688180923462, 0.019251786172389984, 0.08534014970064163, 0.08449222892522812, -0.15544384717941284, 0.008121485821902752, -0.16288544237613678, 0.12327253073453903, 0.02108662948012352, 0.024691812694072723, 0.11722211539745331, -0.08635809272527695, -0.12605860829353333, 0.020365459844470024, 0.011377980932593346, -0.03479919582605362, 0.03147401288151741, 0.05000576004385948, 0.060409631580114365, 0.1077180728316307, -0.05252434313297272, -0.019009072333574295, 0.19266757369041443, 0.04726318269968033, -0.1625274419784546, -0.04671098291873932, 0.1378290057182312, 0.0555364266037941, 0.02468688227236271, -0.04035939276218414, -0.11184101551771164, 0.06757684051990509, -0.050524234771728516, -0.0635421872138977, 0.0999622493982315, -0.01563224196434021, -0.05799838528037071, 0.01583416573703289, -0.09621188789606094, -0.026664938777685165, 0.058617040514945984, 0.23058925569057465, 0.04099157825112343, -0.021480772644281387, 0.06598552316427231, -0.11538466811180115, -0.013057021424174309, 0.06648048013448715, 0.1887810081243515, 0.06052649766206741, 0.12166489660739899, -0.030415182933211327, 0.06919381022453308, 0.11812499910593033, 0.10834500193595886, -0.04654146358370781, 0.04017062485218048, 0.33212822675704956, 0.028631918132305145, 0.18810255825519562, 0.044543348252773285, 0.10132832080125809, 0.008136201649904251, 0.021191487088799477, 0.5280995965003967, 0.23344051837921143, 1.0176799297332764, -0.0022361367009580135, 0.020473524928092957], [0.06427637487649918, -0.01844712160527706, -0.09915255755186081, 0.0371127687394619, -0.11099141091108322, -0.0010460951598361135, 0.08558327704668045, -0.09789598733186722, -0.12137075513601303, -0.17524120211601257, 0.09556414186954498, -0.1218193843960762, -0.07706177979707718, 0.21565338969230652, -0.16958369314670563, -0.04389336332678795, -0.2098209410905838, 0.06524256616830826, 0.008760667406022549, 0.034671150147914886, 0.1174190491437912, -0.004111760761588812, -0.07640263438224792, -0.037780798971652985, -0.2382652759552002, 0.21012789011001587, -0.09945191442966461, 0.10364317893981934, 0.21290723979473114, -0.3294423818588257, 0.2865287661552429, 0.05725677311420441, 0.12292921543121338, 0.06277255713939667, 0.12478474527597427, 0.1106913834810257, -0.28497546911239624, 0.24932178854942322, -0.015863852575421333, -0.059222638607025146, 0.18040531873703003, 0.11953892558813095, 0.10416185110807419, -0.2944560647010803, 0.3173716366291046, 0.07693330943584442, 0.19985395669937134, 0.1971202939748764, 0.10096771270036697, 0.1544933021068573, -0.23477952182292938, 0.1553315818309784, -0.06347469985485077, 0.07243135571479797, 0.2487412691116333, 0.17473985254764557, 0.08297973871231079, -0.2893291115760803, 0.31562596559524536, -0.05365399643778801, 0.30324646830558777, 0.1757359653711319, 0.005236150696873665, 0.2645722031593323, 0.008643939159810543, 0.23184049129486084, 0.05319337919354439, 0.21642862260341644, -0.1523243486881256, -0.13452033698558807, 0.20864342153072357, -0.15603630244731903, 0.14464476704597473, 0.03449101373553276, 0.3015672266483307, -0.03731371462345123, -0.22034180164337158, 0.18510589003562927, 0.0010130658047273755, 0.12835432589054108, -0.007119062822312117, 0.19576391577720642, 0.011189444921910763, -0.2021224945783615, 0.08134574443101883, -0.006579314824193716, 0.30698147416114807, 0.005480271298438311, 0.09944207966327667, -0.005478373728692532, -0.2773991525173187, -0.031992338597774506, 0.05399979278445244, -0.01766287162899971, 0.12077543884515762, 0.36782610416412354, 0.15756000578403473, -0.11396494507789612, -0.020457865670323372, 0.10023542493581772, -0.09793099761009216, -0.07768435031175613, 0.12024176120758057, 0.11546902358531952, -0.1743115782737732, -0.04303159937262535, 0.1623220294713974, -0.15405641496181488, -0.041070133447647095, 0.01409147959202528, 0.06565777212381363, -0.16103975474834442, -0.05800727382302284, 0.07793638855218887, -0.1011439636349678, 0.033287592232227325, 0.2814443111419678, 0.17826148867607117, -0.03149552643299103, 0.08299646526575089, -0.03802787885069847, 0.004254180006682873, -0.014879687689244747, 0.05560256540775299, 0.10341145098209381, -0.1407351940870285, -0.04330088198184967, 0.1008187010884285, -0.033937036991119385, 0.06477535516023636, 0.16036352515220642, -0.10924362391233444, -0.10624796152114868, -0.04323813319206238, -0.03546763211488724, 0.422715425491333, -0.14934255182743073, 0.10671834647655487, 0.03069167025387287, -0.221107617020607, -0.18556003272533417, -0.12327582389116287, 0.1639539897441864, -0.022886129096150398, 0.1393657922744751, -0.21298207342624664, -0.13008825480937958, -0.09887702018022537, -0.164405956864357, 0.19954310357570648, 0.013195527717471123, 0.0853693038225174, -0.1992882788181305, -0.236112579703331, -0.18195456266403198, -0.07252107560634613, 0.13834935426712036, -0.018660051748156548, 0.06725217401981354, 0.09244789183139801, -0.2085684835910797, -0.09365121275186539, -0.197616308927536, 0.16299155354499817, 0.10900439321994781, -0.06124904379248619, 0.20041538774967194, -0.2012542337179184, -0.10956694930791855, -0.07466306537389755, 0.04050571098923683, 0.020606214180588722, 0.04162612929940224, 0.06708849966526031, -0.13899247348308563, -0.19987691938877106, -0.046820268034935, -0.03915522247552872, 0.024194395169615746, 0.08825099468231201, 0.1495712697505951, -0.1928447037935257, -0.08747857064008713, 0.03670116886496544, -0.08231442421674728, 0.06390977650880814, -0.0008179046562872827, 0.09756653010845184, 0.017312677577137947, -0.1450115442276001, -0.07904849201440811, -0.1129595935344696, -0.060143258422613144, 0.18962380290031433, 0.09779654443264008, 0.23680922389030457, 0.09738246351480484, -0.1113540455698967, -0.04060806334018707, -0.025964558124542236, -0.02536722458899021, -0.011470195837318897, 0.18099330365657806, -0.08217274397611618, -0.011489634402096272, -0.00229429779574275, -0.01397579163312912, 0.06516022235155106, 0.003528381697833538, -0.0029926046263426542, 0.014193015173077583, -0.1337480992078781, 0.1417236626148224, 0.06166485324501991, 0.08683175593614578, 0.14279420673847198, -0.056750986725091934, -0.13809382915496826, -0.19185443222522736, 0.1792639046907425, -0.03481534495949745, 0.001779009122401476, 0.3463495373725891, 0.0939335823059082, -0.0023034417536109686, -0.12529629468917847, 0.22804468870162964, -0.07118218392133713, -0.11680427193641663, 0.29318374395370483, -0.033485740423202515, -0.027402210980653763, -0.2714387774467468, 0.3631708323955536, -0.040078550577163696, -0.13001610338687897, 0.41975685954093933, 0.004725856706500053, 0.09646187722682953, -0.1415279656648636, 0.24972186982631683, -0.10627443343400955, 0.02414053864777088, 0.29445260763168335, -0.06205109879374504, 0.1218307614326477, -0.23313865065574646, 0.26400911808013916, -0.010363866575062275, -0.0295400470495224, 0.27189382910728455, 0.008488286286592484, 0.07148703187704086, -0.2851554751396179, 0.16527506709098816, -0.029989859089255333, -0.18536271154880524, 0.19368764758110046, 0.15598860383033752, 0.2482508420944214, -0.14871162176132202, 0.22558121383190155, -0.0231163389980793, 0.02732126973569393, 0.24602189660072327, -0.10636111348867416, -0.051774900406599045, -0.23365002870559692, 0.05869588255882263, -0.025737926363945007, -0.015623636543750763, 0.037084829062223434, 0.08175313472747803, 0.08202480524778366, 0.05421137437224388, 0.2070101499557495, -0.07588143646717072, -0.09286536276340485, -0.18204103410243988, 0.10404855012893677, 0.07627402245998383, -0.06731773912906647, -0.021311858668923378, -0.014340626075863838, 0.16913942992687225, -0.2901226878166199, 0.11842551082372665, 0.12358251959085464, 0.066811203956604, -0.12942180037498474, -0.021291455253958702, -0.017304841428995132, -0.08556222915649414, -0.06920906156301498, 0.05996585637331009, -0.1637629121541977, -0.25605854392051697, -0.06550580263137817, -0.0865967869758606, -0.06677290797233582, 0.11514416337013245, 0.2327951043844223, -0.14028795063495636, -0.007997049950063229, -0.007326758466660976, 0.07144583016633987, -0.047814056277275085, 0.17629702389240265, 0.00840600486844778, -0.09917904436588287, -0.39029237627983093, 0.1479383111000061, 0.09600192308425903, -0.14562015235424042, 0.3832602798938751, -0.0061214580200612545, -0.06611909717321396, -0.5534952282905579, 0.01060508843511343, 0.13490958511829376, -0.03942748159170151, -0.006976740434765816, -0.002227549673989415, 0.06850425899028778, -0.15428626537322998, -0.1164533942937851, 0.031099751591682434, -0.07643803209066391, -0.23165291547775269, 0.21640491485595703, 0.028101839125156403, -0.17340025305747986, -0.04662632569670677, 0.010521446354687214, -0.01272633858025074, 0.13753601908683777, 0.02129831351339817, 0.3387204706668854, 0.5717568397521973, 0.43464937806129456, 0.12228141725063324], [0.31769895553588867, 0.173105850815773, 0.1794077754020691, 0.04895196855068207, -0.07912369817495346, -0.10564959049224854, 0.04059084877371788, 0.20389144122600555, 0.10218892991542816, -0.04469945281744003, 0.05683976039290428, 0.002466167788952589, -0.3145753741264343, 0.1285777986049652, 0.13484226167201996, 0.37837138772010803, 0.457453191280365, 0.07171106338500977, 0.04403918236494064, -0.6051507592201233, -0.01720939576625824, 0.0925469845533371, 0.04822719469666481, 0.2814699709415436, -0.09317982941865921, -0.037709884345531464, -0.40053072571754456, 0.14706484973430634, -0.015709754079580307, 0.07668426632881165, 0.22290697693824768, -0.03495442867279053, 0.026303669437766075, -0.34860098361968994, 0.1972597986459732, 0.011851233430206776, -0.24020865559577942, 0.1554013043642044, -0.06284534186124802, -0.22903533279895782, -0.09930750727653503, 0.11633210629224777, 0.19178664684295654, -0.160611093044281, 0.23153647780418396, -0.02558440901339054, -0.01459992304444313, -0.16934916377067566, 0.0679851695895195, 0.10303061455488205, -0.1375005692243576, 0.14631490409374237, -0.17804482579231262, 0.01060421671718359, -5.243109626462683e-07, -0.019993828609585762, -0.07521247863769531, -0.17242178320884705, 0.20594912767410278, -0.07210757583379745, -0.22803333401679993, 0.02619023062288761, -0.052205633372068405, -0.0861240029335022, 0.01056134793907404, -0.05941193550825119, -0.04723432660102844, 0.013355121947824955, -0.06236199289560318, 0.04273000359535217, -0.1694798469543457, 0.1871396005153656, -0.029122065752744675, -0.015054295770823956, 0.04291896894574165, -0.2493148148059845, 0.009522732347249985, -0.2596186697483063, 0.2770884335041046, -0.05018765851855278, 0.024659285321831703, -0.028978312388062477, -0.14422142505645752, -0.21093934774398804, -0.13730967044830322, 0.13464517891407013, -0.10350784659385681, -0.07851579785346985, 0.10378807038068771, -0.1906260848045349, 0.0003998774045612663, -0.18048763275146484, 0.15105292201042175, -0.1445266306400299, 0.008184378035366535, -0.12022602558135986, -0.315259724855423, 0.0014649800723418593, -0.11617011576890945, 0.2717699110507965, -0.12989996373653412, 0.06408476829528809, -0.0014760004123672843, -0.24704447388648987, 0.03234923258423805, -0.2003258764743805, 0.24716299772262573, -0.12452800571918488, -0.03454158455133438, 0.00031544771627523005, -0.053285952657461166, -0.09133494645357132, -0.12437332421541214, 0.18203836679458618, -0.027057228609919548, -0.03145741671323776, -0.042623504996299744, -0.23237475752830505, -0.07230354845523834, -0.14249220490455627, 0.13509784638881683, -0.19289760291576385, 0.035536229610443115, -0.09547220170497894, -0.2523956000804901, -0.147038072347641, -0.09340906888246536, 0.10080898553133011, 0.0028853637631982565, 0.07565685361623764, 0.11849413812160492, -0.045887548476457596, -0.12311039865016937, 0.005366727244108915, 0.14681711792945862, 0.12444327026605606, 0.03595449775457382, 0.2088731825351715, 0.08868522942066193, -0.24118079245090485, -0.003415261395275593, -0.10011816024780273, 0.041853442788124084, 0.051985155791044235, 0.049108076840639114, -0.13119152188301086, -0.2548668086528778, -0.04679596424102783, 0.20032314956188202, 0.11234959959983826, 0.09652361273765564, 0.1699187010526657, -0.16942206025123596, -0.22288966178894043, -0.07627198100090027, -0.0688038095831871, 0.22790518403053284, 0.16204088926315308, 0.101953886449337, -0.13693960011005402, -0.09018706530332565, -0.07186058908700943, -0.08474484086036682, 0.07184763252735138, -0.0681479424238205, -0.10286479443311691, -0.11295933276414871, -0.3328610062599182, -0.06977976113557816, 0.06510021537542343, -0.036669760942459106, 0.1485854834318161, -0.008220617659389973, 0.020817747339606285, -0.01173066534101963, 0.117369145154953, 0.06891714781522751, -0.15309935808181763, 0.012157240882515907, -0.10378210246562958, 0.10854823887348175, -0.2606617212295532, 0.11523409187793732, 0.00040829816134646535, -0.11576403677463531, -0.07211992144584656, -0.04613122344017029, 0.09811025857925415, -0.028514791280031204, 0.04165966436266899, 0.03334924206137657, -0.11690672487020493, -0.07704531401395798, -0.03518516570329666, 0.16207043826580048, -0.1258271038532257, 0.1450071930885315, 0.038572758436203, -0.0785120353102684, -0.01573760062456131, -0.014853700995445251, 0.007701280992478132, -0.06233701854944229, -0.05238969624042511, -0.06376878917217255, 0.1825614869594574, 0.020053908228874207, -0.11695114523172379, 0.0011957738315686584, -0.161733016371727, -0.010694732889533043, 0.006257796194404364, 0.049124825745821, -0.105341337621212, 0.05004710704088211, 0.09523430466651917, -0.1690511256456375, 0.020911140367388725, -0.09047827869653702, -0.03171669691801071, -0.1619575470685959, 0.0001401394110871479, 0.01875898987054825, 0.20366114377975464, 0.08975521475076675, -0.2070268988609314, 0.1399650275707245, -0.011783336289227009, 0.18266016244888306, 0.16334021091461182, 0.3285044729709625, -0.23311728239059448, -0.2959880232810974, 0.0035509837325662374, -0.011826977133750916, 0.08797948062419891, 0.06694524735212326, 0.06225939095020294, -0.326114684343338, -0.15861530601978302, 0.10467404127120972, -0.053062111139297485, -0.04486723616719246, 0.2740195691585541, 0.1462910771369934, -0.11472742259502411, -0.24671123921871185, 0.08076710999011993, -0.00865509919822216, 0.043318480253219604, 0.36527979373931885, 0.08631214499473572, -0.28811532258987427, -0.10683699697256088, 0.028307726606726646, 0.030525265261530876, -0.362544447183609, 0.35441476106643677, -0.06815347075462341, -0.47181153297424316, -0.10592913627624512, 0.180094912648201, -0.046831924468278885, -0.18274059891700745, 0.3079318404197693, -0.06499373912811279, -0.2536972463130951, -0.30730846524238586, 0.1592441350221634, -0.06647323817014694, -0.15804317593574524, 0.2865656018257141, 0.2285207360982895, -0.18265607953071594, -0.12230059504508972, -0.038365114480257034, -0.011703774333000183, -0.1350748986005783, 0.20336513221263885, 0.034538108855485916, -0.048712555319070816, -0.13105551898479462, -0.11016913503408432, -0.030858388170599937, -0.1572016030550003, 0.33021143078804016, 0.10529278963804245, -0.1762458086013794, -0.03695610910654068, -0.2990175783634186, 0.12285050749778748, -0.05028730630874634, 0.2268260419368744, 0.12113385647535324, -0.027449123561382294, -0.016140691936016083, -0.22526685893535614, 0.03946896269917488, -0.04954863712191582, 0.2618255019187927, -0.09108638763427734, -0.13569873571395874, 0.15972508490085602, -0.19917844235897064, 0.08516053855419159, 0.06294230371713638, 0.27152740955352783, 0.1627933830022812, -0.14906051754951477, 0.11209087818861008, -0.2913304567337036, 0.007969248108565807, 0.11460036784410477, 0.13113781809806824, -0.01235783752053976, -0.07509147375822067, -0.0543006956577301, -0.0663108378648758, 0.15684857964515686, -0.037735793739557266, 0.18274739384651184, -0.28469258546829224, 0.22076848149299622, 0.12036740034818649, 0.03809644654393196, 0.06310340017080307, -0.1234966367483139, 0.012358788400888443, -0.3901112973690033, 0.1542116403579712, -0.15283265709877014, 0.35449400544166565, -0.04968995228409767, 0.08638747781515121, 0.05635415390133858, 0.01905602402985096, 0.11332922428846359, 0.33651527762413025, 0.08021380752325058, -0.09177642315626144, -0.09211043268442154], [-0.35374167561531067, -0.06208978593349457, 0.06339169293642044, 0.06120535358786583, -0.22350622713565826, 0.03828775882720947, -0.05854765325784683, -0.3618990182876587, 0.19243931770324707, -0.1007513701915741, 0.043589022010564804, -0.14861352741718292, -0.14570756256580353, 0.033477962017059326, -0.25692838430404663, 0.2555002272129059, -0.265247106552124, 0.04121038690209389, -0.06944071501493454, -0.12379352003335953, 0.2254319041967392, -0.07412973046302795, 0.04886184260249138, -0.2987571358680725, -0.024085957556962967, 0.01942044496536255, 0.24283194541931152, -0.00397498719394207, 0.28166064620018005, 0.03736657649278641, -0.24309800565242767, 0.012539969757199287, 0.19022418558597565, 0.2213994562625885, 0.1370193511247635, 0.13940368592739105, 0.01288588996976614, -0.2606406807899475, -0.03338618203997612, 0.028967775404453278, 0.18127958476543427, -0.038864459842443466, 0.1405320018529892, -0.05491184815764427, -0.2003432810306549, 0.1207413524389267, -0.01603367179632187, 0.004871829878538847, 0.02881714701652527, 0.202623188495636, -0.1729183793067932, -0.2148689329624176, -0.14965572953224182, 0.1880563348531723, 0.14705143868923187, 0.11526314914226532, 0.22293920814990997, -0.15759818255901337, 0.00408778665587306, -0.005221257451921701, 0.01664077490568161, 0.25974541902542114, 0.12643004953861237, 0.3697272539138794, -0.209769144654274, 0.027728121727705002, 0.029554449021816254, 0.08809683471918106, 0.16534174978733063, 0.02780693955719471, 0.25759702920913696, -0.032103847712278366, 0.1881352961063385, -0.06904802471399307, 0.06931345909833908, 0.07820446789264679, 0.01563018374145031, 0.04041295126080513, -0.03915242850780487, 0.21396049857139587, 0.031562063843011856, -0.030228551477193832, 0.05948435142636299, -0.0456039160490036, 0.07614083588123322, -0.002916594734415412, 0.2096334546804428, 0.007782788947224617, -0.03303932026028633, 0.013213987462222576, -0.039989203214645386, 0.22175395488739014, 0.040549758821725845, 0.1550130993127823, 0.09948264807462692, 0.045091819018125534, 0.04474465176463127, -0.005062231328338385, 0.17961284518241882, 0.022839149460196495, 0.048083554953336716, 0.017263447865843773, -0.13876020908355713, 0.10645036399364471, -0.15769097208976746, 0.08735241740942001, 0.06344065815210342, -0.03552314266562462, -0.06918501108884811, 0.041164252907037735, 0.10430410504341125, -0.2203642725944519, 0.09505147486925125, 0.020564792677760124, 0.08922134339809418, 0.062488824129104614, -0.09834850579500198, 0.08402054756879807, -0.17177966237068176, 0.20166024565696716, 0.19481953978538513, -0.13854041695594788, 0.040543027222156525, 0.010305440984666348, 0.0880429670214653, -0.07913366705179214, 0.05910111963748932, 0.30145663022994995, -0.08177606761455536, -0.1275588870048523, 0.013116932474076748, -0.1812880039215088, -0.050103772431612015, 0.002500295639038086, 0.2870299816131592, -0.18198475241661072, 0.06885571777820587, 0.10370732843875885, -0.15107879042625427, -0.25009870529174805, 0.12723016738891602, 0.34385013580322266, -0.21053948998451233, -0.010846883058547974, 0.051638197153806686, -0.07992658019065857, -0.25915318727493286, 0.11311054974794388, 0.3424718976020813, -0.05307094752788544, 0.16135120391845703, -0.0838947668671608, -0.10891785472631454, -0.1144043579697609, -0.014572572894394398, 0.21266691386699677, -0.1574394851922989, 0.09099503606557846, 0.06924346089363098, -0.3325337767601013, -0.09583126753568649, 0.15070292353630066, 0.01694263145327568, -0.05659876763820648, -0.020092127844691277, -0.10989759862422943, -0.3538723587989807, -0.08308358490467072, 0.07041101902723312, -0.08530610054731369, -0.09651351720094681, -0.050908830016851425, -0.12906374037265778, -0.357809841632843, 0.023391401395201683, 0.09489741921424866, -0.02406851202249527, 0.188944473862648, -0.048691052943468094, 0.10786142945289612, -0.3399701714515686, -0.024495497345924377, 0.1307012289762497, -0.11368995904922485, 0.08038374781608582, -0.0284801684319973, -0.018284667283296585, 0.012798384763300419, -0.15100687742233276, 0.15061821043491364, -0.12203380465507507, 0.19137482345104218, 0.021771904081106186, 0.17212946712970734, -0.20235690474510193, -0.14831173419952393, 0.10960245132446289, -0.2133149653673172, 0.1830369234085083, -0.02060380019247532, 0.03293361887335777, -0.3804575502872467, -0.09580429643392563, 0.27330395579338074, -0.15685798227787018, 0.28340503573417664, -0.05015771463513374, 0.06101711466908455, -0.4282568097114563, -0.11224629729986191, 0.16133594512939453, -0.010465330444276333, 0.03694198280572891, -0.07833567261695862, -0.11175503581762314, -0.3291356563568115, -0.13006460666656494, -0.056220319122076035, 0.009243946522474289, -0.030703186988830566, -0.08233983814716339, -0.06467381864786148, -0.32007333636283875, -0.06766798347234726, 0.0876731127500534, -0.04502599313855171, 0.06527037918567657, 0.03867023438215256, -0.06660376489162445, -0.29347753524780273, -0.06634578108787537, 0.1132117435336113, 0.05160894989967346, -0.12133041769266129, -0.03343730792403221, 0.07462985813617706, -0.03980527073144913, 0.24206043779850006, 0.20409853756427765, 0.03031712770462036, 0.1114722341299057, -0.02285672351717949, 0.0557350255548954, -0.08984626829624176, -0.04830890893936157, -0.008166451938450336, 0.029421573504805565, -0.1145692691206932, -0.030520768836140633, -0.10627961158752441, -0.1247790977358818, -0.00939424429088831, 0.022835521027445793, -0.13102468848228455, 0.018883226439356804, -0.007159760221838951, -0.08117754757404327, 0.12951938807964325, 0.006733410060405731, 0.0799325630068779, 0.29125529527664185, -0.11516603082418442, 0.01597564108669758, -0.19437775015830994, 0.1598605513572693, -0.11989205330610275, -0.19191233813762665, -0.02329746074974537, -0.4359729290008545, 0.14867688715457916, -0.2927953004837036, 0.15223151445388794, -0.08402706682682037, 0.09159594774246216, 0.07740933448076248, -0.4248245656490326, -0.09863893687725067, -0.1034233495593071, 0.07516960054636002, -0.03175521269440651, 0.06297015398740768, 0.007182455621659756, -0.3471839427947998, 0.16867081820964813, -0.11689312756061554, 0.10179030895233154, -0.1330358237028122, -0.16011591255664825, 0.1825299710035324, -0.34917619824409485, 0.046105511486530304, -0.0629967674612999, 0.2261650413274765, -0.010528200305998325, -0.058163225650787354, -0.0006482683238573372, -0.32792210578918457, -0.03931322693824768, 0.03406135365366936, 0.21732859313488007, -0.04700419679284096, -0.006225543096661568, 0.04882282018661499, -0.39686161279678345, 0.04544850066304207, 0.08626890927553177, 0.21729826927185059, -0.07507775723934174, -0.10496620833873749, -0.37919315695762634, -0.3141290247440338, -0.007862437516450882, 0.25757619738578796, 0.42350366711616516, -0.04471934214234352, -0.26568397879600525, -0.1040283590555191, -0.2510836124420166, -0.08244140446186066, 0.040713947266340256, 0.04223538935184479, 0.10700863599777222, -0.015286078676581383, -0.012576618231832981, -0.2598482668399811, 0.007685094606131315, -0.10950491577386856, 0.043123435229063034, 0.16845457255840302, -0.1374196708202362, 0.07128214836120605, -0.10905421525239944, -0.04998984932899475, -0.14909514784812927, 0.047380782663822174, -0.047936562448740005, -0.37741678953170776, -0.19205273687839508, -0.010597589425742626, -0.08561468124389648, 0.16497460007667542], [-0.5988209247589111, 0.013562382198870182, 0.10733364522457123, -0.132051482796669, -0.10035189986228943, 0.06175140291452408, -0.41415053606033325, -0.4931142032146454, -0.00098919658921659, -0.0036218976601958275, 0.013003733940422535, -0.024366486817598343, -0.06322877109050751, -0.028311150148510933, -0.09546053409576416, -0.07453513890504837, -0.08159315586090088, -0.004346203990280628, 0.01457970030605793, 0.09593857824802399, 0.11231695115566254, 0.22896195948123932, 0.10823489725589752, -0.0108041325584054, -0.008985265158116817, 0.13899081945419312, 0.14783580601215363, -0.17206814885139465, 0.09919212013483047, 0.1859423816204071, -0.29132208228111267, 0.05589209869503975, 0.07526553422212601, 0.07508518546819687, -0.33486029505729675, 0.010230657644569874, 0.0979781225323677, -0.17088472843170166, 0.03825794905424118, 0.18534450232982635, 0.05869404599070549, -0.12179625034332275, 0.3372308015823364, 0.13857658207416534, -0.3035833537578583, 0.007131881546229124, 0.06683006882667542, 0.04541918262839317, -0.036368921399116516, 0.13284270465373993, 0.021541545167565346, -0.14978261291980743, 0.12809151411056519, 0.30805784463882446, 0.009880236349999905, 0.011671464890241623, 0.2273939549922943, 0.013545602560043335, -0.30812105536460876, -0.17127856612205505, 0.25776341557502747, -0.049296390265226364, -0.04341398552060127, 0.0806942731142044, 0.03000887855887413, -0.3610159456729889, -0.00672520836815238, 0.37713387608528137, -0.03967076167464256, -0.035488229244947433, 0.21610765159130096, 0.06283313781023026, -0.48197421431541443, -0.07080916315317154, 0.3071254789829254, -0.012919547036290169, 0.13563881814479828, 0.2481669932603836, 0.17078879475593567, -0.369695782661438, -0.05281566455960274, 0.5515892505645752, -0.16495506465435028, 0.008233161643147469, -0.013069852255284786, 0.17052200436592102, -0.49697285890579224, 0.10963883250951767, 0.25953778624534607, -0.1055455356836319, 0.09117204695940018, 0.14837601780891418, 0.04070998355746269, -0.1461375653743744, 0.07650325447320938, 0.20158807933330536, -0.1184411495923996, 0.01466250978410244, 0.108741894364357, -0.0868837907910347, -0.16682161390781403, -0.024274084717035294, 0.04736528918147087, -0.29335758090019226, 0.1803639978170395, -0.036772917956113815, -0.02766915038228035, -0.26670897006988525, -0.023259343579411507, -0.01669403910636902, -0.10210230201482773, 0.27977463603019714, 0.04374983534216881, -0.09041076898574829, -0.007407141849398613, 0.16511474549770355, 0.24531124532222748, -0.0699799433350563, 0.06740257889032364, -0.054959625005722046, -0.04052068293094635, 0.08160389214754105, 0.013004212640225887, 0.2580513656139374, -0.16281716525554657, -0.031202686950564384, -0.2308807373046875, -0.2042207270860672, -0.07516133785247803, -0.10987606644630432, 0.17403662204742432, -0.14445438981056213, 0.21924278140068054, -0.17129963636398315, -0.0789521187543869, 0.1416400521993637, 0.10833609104156494, -0.2767644226551056, -0.0747031420469284, 0.1566316932439804, -0.19545112550258636, -0.08207523822784424, 0.15228427946567535, 0.13403113186359406, -0.1221693828701973, -0.1378473937511444, -0.024894315749406815, -0.07109572738409042, -0.012876753695309162, 0.08421769738197327, -0.08475860208272934, -0.0977674275636673, -0.05816761031746864, -0.052496910095214844, -0.17216402292251587, -0.07873683422803879, 0.15272065997123718, -0.014559773728251457, 0.22768232226371765, -0.2116619199514389, -0.05223048850893974, -0.13071681559085846, -0.08461154252290726, 0.03581416234374046, 0.047208599746227264, 0.10184570401906967, -0.17087043821811676, 0.12632769346237183, -0.020240487530827522, -0.20263317227363586, 0.11499598622322083, 0.05151735618710518, -0.004332455340772867, -0.15236955881118774, -0.008293231017887592, -0.09527207911014557, -0.016495591029524803, -0.11442198604345322, 0.04463774338364601, 0.024417808279395103, -0.15554922819137573, 0.3025122582912445, -0.05410271883010864, -0.18246817588806152, -0.0729076936841011, 0.07513672858476639, -0.013788290321826935, -0.15238547325134277, 0.15014739334583282, 0.002672812668606639, -0.002511191414669156, -0.020621128380298615, 0.031301457434892654, 0.00734205637127161, -0.15285514295101166, 0.1654910296201706, -0.03218863531947136, -0.05671379342675209, -0.07200609147548676, -0.008932165801525116, 0.3054784834384918, -0.13536697626113892, 0.09515805542469025, -0.12045489996671677, -0.1002216637134552, 0.08289068937301636, -0.05220603942871094, 0.1978815793991089, -0.02517239935696125, 0.05865935981273651, -0.16806140542030334, -0.10040485113859177, 0.08872565627098083, 0.10404331982135773, 0.14788353443145752, -0.18636424839496613, -0.12388955056667328, -0.16665641963481903, -0.09471094608306885, 0.1893424540758133, 0.05748196691274643, 0.05948062986135483, -0.05244636908173561, -0.0229620561003685, -0.09314919263124466, -0.05713386461138725, 0.043910663574934006, 0.030904939398169518, -0.09028193354606628, -0.005070006474852562, -0.1515953689813614, -0.20705831050872803, -0.08141554147005081, -0.02870563231408596, -0.07150859385728836, 0.08341474086046219, 0.010559995658695698, 0.11101692169904709, -0.031846191734075546, 0.0738801583647728, -0.089140884578228, 0.031065819784998894, 0.07942532002925873, -0.008449016138911247, -0.09430272877216339, 0.06159132346510887, -0.07697515934705734, -0.0875757485628128, 0.15431299805641174, 0.02795853279531002, -0.18244607746601105, -0.01853407546877861, 0.04875829815864563, -0.08204106986522675, 0.07051284611225128, 0.07252504676580429, -0.13898307085037231, -0.10890249162912369, -0.1173163652420044, 0.26919329166412354, 0.18912746012210846, -0.3185349702835083, 0.07612371444702148, -0.011085011065006256, -0.04960804805159569, -0.17751750349998474, 0.10660003870725632, 0.19521047174930573, -0.2630216181278229, -0.0258848387748003, 0.022491568699479103, -0.013284523040056229, -0.09333832561969757, 0.09501207619905472, 0.15317127108573914, -0.0896172970533371, -0.10616300255060196, -0.09073659777641296, 0.11364642530679703, -0.14418259263038635, 0.19474846124649048, 0.0013619649689644575, -0.15492863953113556, 0.1131427213549614, 0.0311435516923666, 0.12514305114746094, 0.0847565084695816, -0.012922128662467003, -0.047856491059064865, -0.18954618275165558, -0.14196009933948517, 0.11697033047676086, 0.02258240431547165, -0.1585216075181961, -0.06953715533018112, 0.012963091023266315, -0.13862335681915283, -0.11778654903173447, -0.07021462172269821, 0.08188813924789429, 0.0029830855783075094, -0.05531056225299835, -0.10025778412818909, -0.05438460409641266, 0.05808774381875992, 0.1554640680551529, 0.007605666294693947, -0.08503730595111847, 0.04309626668691635, 0.0007654364453628659, -0.08178117126226425, -0.020306287333369255, -0.0020200370345264673, 0.1679236739873886, 0.0005263210623525083, -0.11430532485246658, -0.2839107811450958, -0.04411165416240692, -0.0005785088869743049, -0.06642141193151474, 0.31074923276901245, 0.12589742243289948, -0.292561799287796, -0.0335673913359642, -0.15422198176383972, -0.011409332044422626, 0.05478772893548012, 0.24896574020385742, 0.0024382183328270912, -0.4177084267139435, -0.07896934449672699, 0.08968116343021393, -0.0615692213177681, -0.12859684228897095, -0.07415668666362762, -0.18695734441280365, -0.12713617086410522, 0.03169811889529228, -0.18648244440555573, -0.3926739990711212, 0.8865709900856018], [0.06613446027040482, -0.11115027219057083, -0.022064292803406715, 0.014309829100966454, -0.027014264836907387, 0.11768484860658646, -0.3296372592449188, -0.010533805936574936, 0.0062367902137339115, -0.04384593293070793, -0.041018128395080566, -0.06298056244850159, 0.07494566589593887, 0.09190092980861664, -0.019774459302425385, 0.11716856062412262, -0.287797212600708, 0.12563660740852356, -0.06320162862539291, -0.09728223830461502, -0.06803669035434723, 0.1474207192659378, 0.13188153505325317, -0.53593909740448, -0.018510963767766953, 0.05912299081683159, -0.06476055085659027, -0.04932733625173569, 0.09322966635227203, 0.08332836627960205, -0.4822240173816681, -0.0024668301921337843, 0.08079738169908524, -0.11387179791927338, 0.12339824438095093, 0.12028348445892334, 0.01177214179188013, -0.2763214409351349, 0.08550211787223816, 0.10752728581428528, -0.1926119476556778, 0.11664240062236786, 0.1759491264820099, -0.024247560650110245, -0.2504882514476776, -0.06109102442860603, 0.2058487832546234, -0.36894455552101135, 0.05791906267404556, 0.21785467863082886, -0.013458502478897572, -0.13171248137950897, -0.00487500848248601, 0.01311721932142973, -0.20487508177757263, 0.14052149653434753, 0.04925384372472763, -0.07625351846218109, -0.14247268438339233, 0.054563023149967194, -0.0067382133565843105, -0.45576855540275574, 0.012050535529851913, 0.025322439149022102, 0.0034717281814664602, -0.08346948027610779, 0.06645405292510986, 0.1566557139158249, -0.621501624584198, -0.0066223060712218285, -0.16420333087444305, -0.04119514301419258, -0.06902366131544113, -0.13768748939037323, 0.016687290742993355, -0.5211965441703796, 0.06499721109867096, 0.02850419655442238, -0.20518895983695984, 0.17570996284484863, 0.008336341939866543, -0.0696226954460144, -0.42010700702667236, -0.004594650585204363, -0.12313943356275558, -0.0798923522233963, 0.28111588954925537, -0.043372951447963715, 0.03865382447838783, -0.4724487066268921, 0.07929977774620056, 0.0005231655086390674, -0.037519268691539764, 0.18700191378593445, 0.05992690101265907, -0.07191313803195953, -0.39089837670326233, -0.045546337962150574, 0.06997636705636978, -0.03966633230447769, 0.24448390305042267, -0.024275097995996475, -0.18732000887393951, -0.5678393244743347, -0.056690484285354614, 0.07624506950378418, -0.10065766423940659, 0.18709957599639893, 0.04897279292345047, 0.004649905487895012, -0.6938307881355286, -0.1192077025771141, 0.17556317150592804, -0.005410223267972469, 0.36761683225631714, -0.042447786778211594, -0.3046276271343231, -0.4858280122280121, -0.0893794596195221, 0.024824539199471474, -0.1866268515586853, 0.3831643760204315, -0.05622945725917816, -0.16272149980068207, -0.48836272954940796, -0.06634508073329926, -0.006676094140857458, -0.03572894632816315, 0.23219889402389526, 0.06490395218133926, -0.02580709382891655, -0.45562079548835754, -0.24394255876541138, 0.016351398080587387, -0.1326420158147812, 0.31073567271232605, 0.08082278072834015, -0.12992912530899048, -0.31926771998405457, -0.19804514944553375, -0.012954524718225002, 0.12458083033561707, 0.3856695294380188, -0.0712660551071167, -0.044468097388744354, -0.4479333460330963, -0.173783540725708, 0.035560622811317444, -0.1830180138349533, 0.2451365888118744, -0.10004714131355286, 0.09115298092365265, -0.40680113434791565, -0.10370789468288422, -0.003553990041837096, -0.18710610270500183, 0.16593003273010254, 0.028021471574902534, -0.11205552518367767, -0.2150980532169342, -0.2847559154033661, 0.005789972376078367, -0.04129329323768616, 0.31657564640045166, 0.04040323570370674, -0.11346171796321869, -0.4606526792049408, -0.15793344378471375, -0.012186827138066292, -0.1300777792930603, 0.26436883211135864, 0.058794014155864716, -0.06302002817392349, -0.4303830862045288, -0.08212729543447495, -0.036092936992645264, -0.18649177253246307, 0.47528496384620667, 0.05990703031420708, 0.030077040195465088, -0.43253523111343384, -0.05361652746796608, 0.03719612583518028, -0.21392934024333954, 0.24618420004844666, 0.021397557109594345, -0.12484687566757202, -0.3243034780025482, -0.08616285771131516, -0.014931424520909786, -0.14695380628108978, 0.23255042731761932, -0.09968757629394531, -0.13704845309257507, -0.20096199214458466, -0.053780995309352875, 0.1694943606853485, -0.12489919364452362, 0.30573660135269165, -0.14809276163578033, 0.020628169178962708, -0.4254584312438965, 0.10811425745487213, 0.02701076678931713, -0.16032443940639496, 0.11239863187074661, 0.03787476569414139, 0.096693255007267, -0.08457133919000626, -0.12786293029785156, 0.018786530941724777, -0.16265009343624115, 0.08764238655567169, -0.03321355581283569, 0.18261376023292542, -0.20458906888961792, 0.050020769238471985, -0.1063474714756012, -0.01557108387351036, -0.06565266102552414, 0.11139614135026932, 0.046880923211574554, -0.18756704032421112, -0.05163151025772095, 0.04512673243880272, -0.06059221550822258, -0.10609249770641327, -0.16932694613933563, -0.26316460967063904, -0.14472652971744537, 0.1920672208070755, -0.07395705580711365, -0.0115809990093112, -0.1182970330119133, -0.04718584194779396, -0.17896683514118195, -0.07140003144741058, 0.06607913225889206, -0.12055154889822006, 0.0703316405415535, -0.04166864976286888, 0.13936494290828705, -0.3557013273239136, -0.0774100050330162, 0.1483268141746521, -0.12502025067806244, 0.11780014634132385, -0.17443132400512695, -0.09583338350057602, -0.6060435175895691, -0.32167521119117737, 0.17524433135986328, -0.09439346194267273, 0.0876232162117958, -0.15893419086933136, -0.05282916501164436, -0.42381858825683594, -0.2527078092098236, 0.24485550820827484, -0.13356976211071014, 0.14788344502449036, -0.23538120090961456, 0.01499740220606327, -0.20757217705249786, -0.2350897490978241, 0.18016433715820312, 0.00828149076551199, 0.16069181263446808, -0.2362903356552124, -0.056104108691215515, -0.07107357680797577, -0.32424798607826233, -0.0915408506989479, 0.030773505568504333, 0.08832687139511108, -0.5346404910087585, -0.07293474674224854, 0.005405104253441095, -0.2521696388721466, -0.12152579426765442, -0.060689527541399, 0.18477657437324524, -0.3207669258117676, 0.018106680363416672, 0.00948340818285942, 0.04945143684744835, -0.10372110456228256, 0.057476822286844254, 0.1827225238084793, -0.545001745223999, -0.15628769993782043, 0.12863534688949585, -0.0061208512634038925, -0.1470022201538086, 0.09372018277645111, 0.19858616590499878, -0.3468806743621826, -0.09936585277318954, -0.00781831331551075, 0.23284989595413208, -0.3008742928504944, -0.05318469926714897, 0.03682103008031845, -0.4243050515651703, 0.017133234068751335, -0.039734046906232834, 0.19515950977802277, -0.3574475049972534, 0.12183507531881332, 0.09417514503002167, -0.472467839717865, 0.04553333297371864, 0.10376986116170883, 0.41393181681632996, -0.026543717831373215, 0.07401010394096375, -0.08245193213224411, -0.3033626675605774, -0.03675093874335289, -0.053200613707304, 0.24094976484775543, -0.11288508772850037, 0.0338611900806427, -0.18771888315677643, -0.40488508343696594, -0.0436776764690876, -0.11587026715278625, 0.3209332227706909, -0.5606374740600586, 0.09143342822790146, -0.2862344980239868, -0.34171581268310547, 0.0005272062844596803, -0.028078150004148483, 0.3177435100078583, -0.34068405628204346, 0.12300506979227066, 0.1326381415128708, -0.6889219284057617, 0.5774165391921997, 0.24811024963855743], [-0.2700329124927521, -0.07536280155181885, 0.13365775346755981, 0.005706602241843939, -0.1497407704591751, 0.018723927438259125, 0.37254080176353455, -0.2843974828720093, 0.00012704588880296797, 0.36600035429000854, 0.10984671115875244, -0.15021759271621704, -0.0708814263343811, 0.32316306233406067, -0.19231180846691132, 0.11809223890304565, -0.05332803353667259, -0.0020995899103581905, -0.06680115312337875, -0.08593788743019104, 0.3248555362224579, -0.33564460277557373, 0.05061562731862068, -0.2992978096008301, 0.09892259538173676, -0.12276331335306168, -0.09727127850055695, 0.4709223210811615, -0.23945677280426025, -0.11928740888834, -0.2213265597820282, 0.009248294867575169, -0.09091711044311523, -0.23782894015312195, 0.2888971269130707, -0.04211508855223656, -0.1342947781085968, -0.31875160336494446, -0.043180469423532486, -0.043297529220581055, -0.07950328290462494, 0.0778723806142807, -0.09698773175477982, -0.22356149554252625, -0.142229363322258, 0.10880033671855927, 0.008815528824925423, 0.26866281032562256, -0.011888561770319939, -0.049310341477394104, -0.08071368932723999, -0.1251780241727829, 0.16016435623168945, -0.044908151030540466, 0.4384750723838806, 0.04654119908809662, 0.043735526502132416, -0.11304084211587906, -0.09569113701581955, -0.05781858041882515, -0.02798614278435707, 0.08808933198451996, -0.022080501541495323, 0.10148896276950836, -0.007334670517593622, -0.10263113677501678, -0.017082424834370613, -0.026935089379549026, 0.09548050165176392, 0.07380620390176773, 0.12770362198352814, 0.026899736374616623, -0.0928107425570488, -0.05523968115448952, 0.04694375768303871, 0.10473702847957611, 0.08760056644678116, -0.07070611417293549, 0.1441282033920288, -0.2388220578432083, 0.016633182764053345, -0.07153713703155518, 0.3000001311302185, 0.10165393352508545, -0.10202882438898087, -0.050608646124601364, -0.1314721405506134, 0.1361997276544571, -0.014321502298116684, 0.12532661855220795, 0.03520137816667557, 0.11550754308700562, -0.12307926267385483, -0.09159131348133087, -0.05778459087014198, -0.017839688807725906, 0.20822177827358246, -0.11807247996330261, -0.03493180125951767, -0.04761730134487152, 0.03096960112452507, -0.02263008803129196, -0.10793261229991913, 0.07464968413114548, 0.04374841973185539, -0.07923328876495361, -0.20177637040615082, -0.2020273655653, 0.02237890101969242, -0.06644759327173233, 0.12081149965524673, -0.08487504720687866, 0.004248292185366154, -0.14923161268234253, -0.10721851885318756, 0.03334580734372139, -0.01271110214293003, 0.08233078569173813, 0.020970884710550308, 0.051503583788871765, 0.038573212921619415, 0.0526750348508358, 0.029748301953077316, 0.021579908207058907, 0.11744719743728638, 0.028012849390506744, 0.06422552466392517, -0.007975907996296883, -0.12198109179735184, 0.009763824753463268, 0.1527324616909027, 0.1427464634180069, 0.010472707450389862, -0.04467145726084709, 0.003866297658532858, -0.06568331271409988, 0.018341299146413803, 0.10525459796190262, 0.01939316652715206, -0.08596377819776535, -0.01000424288213253, 0.034923676401376724, -0.06271437555551529, 0.020234806463122368, 0.02351444773375988, 0.1904286891222, 0.06664653867483139, 0.043295085430145264, 0.024772116914391518, -0.014846268109977245, -0.09117282181978226, 0.08115600794553757, 0.08680493384599686, -0.07174533605575562, 0.05008017644286156, 0.1468580663204193, -0.004010851960629225, -0.10557921230792999, -0.13515432178974152, -0.06749779731035233, -0.0050038485787808895, -0.005501709412783384, -0.016974005848169327, -0.09725261479616165, 0.03323075920343399, -0.033230915665626526, 0.07357283681631088, -0.11155018210411072, 0.06946239620447159, 0.11987331509590149, -0.014654754661023617, 0.007897483184933662, 0.0971059650182724, 0.27253860235214233, -0.07842093706130981, 0.14872202277183533, 0.005834794603288174, -0.05398689955472946, -0.019933896139264107, 0.05677765980362892, 0.2586974501609802, -0.07635441422462463, 0.14656080305576324, 0.08706910163164139, 0.02841697633266449, -0.10053128749132156, 0.21277250349521637, 0.20868809521198273, -0.06831400841474533, -0.07622471451759338, 0.12920516729354858, -0.10507476329803467, -0.16172626614570618, 0.5155457854270935, 0.21791473031044006, -0.16860516369342804, -0.026370584964752197, 0.11432535201311111, -0.025385433807969093, -0.022168094292283058, 0.16905426979064941, 0.15798211097717285, -0.15604650974273682, -0.08418425172567368, 0.0831744596362114, -0.02252337895333767, 0.12317003309726715, 0.007862385362386703, 0.18158763647079468, -0.34766703844070435, 0.003177804173901677, 0.08908553421497345, 0.06998474895954132, 0.0032189039047807455, 0.17164674401283264, 0.24766795337200165, -0.2129267156124115, 0.011459103785455227, 0.11181970685720444, 0.050953082740306854, 0.017576755955815315, -0.2581714689731598, 0.31335312128067017, -0.17322412133216858, -0.011962958611547947, 0.1385849267244339, 0.05259808525443077, 0.009495159611105919, 0.07614809274673462, 0.11236485093832016, -0.26142528653144836, 0.0105146374553442, 0.128054678440094, 0.0617523267865181, -0.14929825067520142, 0.03114476427435875, 0.29488953948020935, -0.22638553380966187, -0.05341479927301407, 0.3123067617416382, 0.104322150349617, -0.10477662831544876, -0.0031533315777778625, 0.13753579556941986, -0.3088890612125397, -0.16352221369743347, 0.19054555892944336, -0.01629892736673355, -0.1408521980047226, -0.1123160868883133, 0.22879154980182648, -0.26373350620269775, -0.21034838259220123, 0.191899836063385, -0.025684582069516182, -0.0793856605887413, 0.07632514089345932, 0.3709123730659485, -0.3442824184894562, -0.30505794286727905, 0.30916497111320496, 0.02413429319858551, -0.007783021777868271, -0.16016146540641785, 0.3190048038959503, -0.34037187695503235, -0.34459400177001953, 0.13128434121608734, 0.10323099046945572, -0.08075825870037079, -0.13797013461589813, 0.3640960454940796, -0.18929295241832733, -0.3332537114620209, 0.04888683557510376, -0.009950979612767696, 0.020821625366806984, -0.019468938931822777, 0.2908884882926941, -0.11755550652742386, -0.33577829599380493, 0.12283898144960403, 0.08723732829093933, -0.1606776863336563, -0.0570988692343235, 0.29101812839508057, -0.15300577878952026, -0.21215692162513733, 0.024592747911810875, 0.011215174570679665, -0.13532987236976624, -0.12687648832798004, 0.32426804304122925, -0.054591335356235504, -0.07702016085386276, -0.16104461252689362, -0.11634135991334915, -0.07348752021789551, -0.08712907135486603, 0.3479396104812622, 0.05133304372429848, -0.0424499548971653, -0.08267797529697418, -0.19532880187034607, -0.12285934388637543, -0.027020856738090515, 0.2690475583076477, 0.08390548080205917, 0.052268918603658676, -0.2175949662923813, -0.018159059807658195, -0.027677295729517937, -0.06021707132458687, 0.39586687088012695, 0.055238690227270126, 0.14630840718746185, -0.09293971955776215, 0.13403253257274628, 0.013967247679829597, -0.040583740919828415, 0.12184392660856247, 0.2925887703895569, -0.041979238390922546, -0.04098658636212349, 0.07850022614002228, -0.006666878703981638, 0.0048911916092038155, 0.08261966705322266, 0.3394187092781067, -0.2799088954925537, 0.009822343476116657, 0.020031148567795753, -0.0071673146449029446, -0.09233905375003815, 0.1120591014623642, 0.3692608177661896, -0.3618035912513733, -0.048618439584970474, 0.025261543691158295, -0.23496775329113007, 0.28422099351882935], [0.010605298914015293, 0.040824200958013535, 0.440817266702652, 0.0005003436817787588, 0.08333519846200943, -0.17385108768939972, 0.07395287603139877, 0.008956211619079113, 0.0394323356449604, 0.3400837182998657, 0.003889689454808831, -0.0140302125364542, -0.04576754942536354, 0.017642121762037277, -0.008412176743149757, 0.16682566702365875, 0.38250988721847534, -0.05260491371154785, -0.06857264786958694, -0.07463136315345764, -0.16172252595424652, 0.09989989548921585, 0.13701409101486206, 0.04568380117416382, -0.07514537125825882, -0.16382956504821777, 0.04932330921292305, -0.06500303000211716, -0.09888981282711029, 0.044539500027894974, 0.055195122957229614, 0.12374380975961685, -0.12642906606197357, 0.1878659874200821, -0.18727578222751617, -0.10753096640110016, -0.033737100660800934, -0.08420361578464508, 0.1247050017118454, -0.13993902504444122, -0.1575470268726349, 0.08035837858915329, -0.2729856073856354, -0.07570429891347885, 0.0879400297999382, -0.05654953792691231, -0.2532014846801758, -0.10581247508525848, 0.061853375285863876, -0.2715539038181305, -0.09112931042909622, -0.02305096946656704, 0.008701655082404613, -0.18876387178897858, -0.25962063670158386, 0.12439154833555222, -0.20424075424671173, 0.009250986389815807, -0.11375207453966141, 0.0688990131020546, -0.05127691477537155, -0.19593274593353271, 0.0817716047167778, -0.05729237198829651, -0.06460528820753098, -0.19826510548591614, 0.025936830788850784, -0.1651567667722702, -0.08193770796060562, 0.05271299555897713, -0.07478366047143936, 0.17887595295906067, -0.405958354473114, 0.05131194740533829, -0.1318511962890625, -0.1235041469335556, 0.11728986352682114, -0.05624692514538765, 0.15611954033374786, -0.6546609401702881, -0.06196756288409233, -0.013992704451084137, 0.07490243762731552, 0.11913410574197769, 0.13120131194591522, 0.3761366903781891, -0.832667350769043, 0.04515593871474266, -0.027445245534181595, -0.03793266788125038, 0.11197415739297867, 0.022439610213041306, 0.3284218907356262, -0.4324633479118347, 0.022508487105369568, -0.19485074281692505, -0.0750856027007103, 0.11615782976150513, 0.1402839869260788, 0.13073281943798065, -0.22848545014858246, -0.09012763947248459, -0.08235388249158859, -0.12783358991146088, -0.12676608562469482, 0.11322233080863953, 0.1908271461725235, 0.19701017439365387, 0.009618065319955349, 0.14960116147994995, -0.013954009860754013, -0.2255280315876007, 0.0729929506778717, -0.04851607605814934, -0.09852126240730286, -0.07721178978681564, 0.29319000244140625, -0.02723647654056549, -0.11247619986534119, 0.029764948412775993, 0.19313056766986847, -0.04556811600923538, 0.09338810294866562, -0.09678613394498825, -0.06024591252207756, 0.00933688972145319, 0.003551009576767683, 0.10450081527233124, -0.15463705360889435, 0.0319175198674202, -0.06816613674163818, 0.09298297762870789, 0.016801243647933006, -0.04869289696216583, -0.02348470687866211, -0.13079231977462769, -0.06890397518873215, 0.1281994879245758, -0.05221130698919296, 0.031214922666549683, 0.026459472253918648, 0.03697097301483154, -0.1795550435781479, -0.10677578300237656, -0.10670606046915054, -0.0577535480260849, 0.09771758317947388, -0.11574003845453262, 0.20171575248241425, -0.2724686861038208, 0.0413295216858387, -0.1293720304965973, -0.12418972700834274, 0.009366736747324467, 0.14722111821174622, 0.093285471200943, -0.34669339656829834, 0.09177370369434357, 0.05022722855210304, -0.04252993315458298, 0.0638657733798027, 0.031082989647984505, 0.17009234428405762, -0.12392544001340866, 0.1364205777645111, -0.01978263258934021, 0.04192265123128891, 0.03285111114382744, -0.020891213789582253, 0.06949996948242188, -0.29660430550575256, 0.05323532968759537, -0.14981840550899506, 0.054671697318553925, 0.05368451774120331, 0.06509413570165634, 0.02381858043372631, -0.05430340766906738, -0.09373114258050919, -0.03699595853686333, -0.18046942353248596, 0.23175810277462006, 0.16272228956222534, 0.023824233561754227, -0.13182689249515533, 0.09965454787015915, -0.0704708993434906, -0.036376286298036575, -0.006869148928672075, 0.042825691401958466, -0.008275923319160938, -0.09403609484434128, -0.01038067415356636, -0.1938166618347168, 0.002700633369386196, 0.20962193608283997, 0.05213063582777977, -0.15545058250427246, -0.19909508526325226, 0.04500865936279297, 0.0831158235669136, 0.16496506333351135, 0.05990205705165863, -0.046325165778398514, 