{"schema_version": 1, "metadata": {"global_step": 33785856, "run_name": "v102_b2beta", "obs_size": 341, "hidden_size": 64, "action_space_size": 18}, "weights": {"fc1.weight": [[0.22922608256340027, -0.04201735556125641, -0.0048025525175035, -0.054915718734264374, 0.08566664904356003, -0.06915681809186935, -0.13948345184326172, 0.13836641609668732, -3.6609271774068475e-05, -0.17583270370960236, -0.01894732192158699, 0.05611373484134674, -0.12061194330453873, -0.002540116896852851, 0.13760089874267578, 0.1511843055486679, -0.05416363477706909, -0.10491219907999039, -0.0250649806112051, -0.03356650844216347, -0.4461086094379425, 0.2267819195985794, -0.1483273059129715, -0.04035056754946709, 0.044964734464883804, -0.026574742048978806, 0.0012752469629049301, -0.12736773490905762, 0.21249288320541382, -0.03985604643821716, -0.15946507453918457, 0.21999728679656982, 0.04456477239727974, -0.1675119400024414, 0.04911147430539131, 0.16187766194343567, -0.05948284640908241, -0.09528469294309616, -0.037794485688209534, 0.19340747594833374, 0.07059139758348465, -0.04219919070601463, 0.19117853045463562, -0.12128707766532898, -0.12942899763584137, -0.09872739762067795, 0.10273012518882751, 0.18188849091529846, 0.05143491551280022, 0.06218136101961136, 0.11900459975004196, -0.12058818340301514, -0.016150062903761864, 0.02682356722652912, 0.1136629581451416, -0.08850619196891785, 0.22322788834571838, 0.06323440372943878, -0.40640056133270264, 0.18757782876491547, 0.021390099078416824, -0.006633654702454805, -0.1444687843322754, 0.08936186134815216, -0.047632940113544464, -0.22353774309158325, -0.07957407832145691, 0.09538942575454712, 0.2506926953792572, 0.05628930404782295, 0.09124297648668289, -0.08680345863103867, -0.13453719019889832, 0.05782438814640045, -0.07900425046682358, 0.13652090728282928, -0.11518757045269012, 0.10117164254188538, 0.241032212972641, -0.23728464543819427, -0.012726463377475739, 0.21243567764759064, 0.16457338631153107, 0.0107383131980896, 0.16568930447101593, -0.014496734365820885, -0.13312746584415436, -0.0410986989736557, 0.011844583787024021, -0.041111864149570465, -0.03104020282626152, 0.22655801475048065, 0.020156333222985268, -0.1523340940475464, 0.009255492128431797, 0.1545013040304184, 0.13493773341178894, 0.016977887600660324, 0.19731362164020538, 0.008671301417052746, -0.16500291228294373, 0.17201298475265503, 0.09549611806869507, 0.023592252284288406, 0.03844373673200607, -0.016840176656842232, -0.12618790566921234, -0.2223973423242569, -0.11867991834878922, -0.050027474761009216, 0.12223342061042786, 0.0472557470202446, -0.006849014200270176, -0.053945932537317276, -0.13925649225711823, 0.16302445530891418, 0.025053763762116432, 0.0025861274916678667, -0.08528725057840347, 0.14745619893074036, 0.005170905496925116, 0.002276837360113859, -0.04967937991023064, -0.0962507575750351, 0.10915131866931915, -0.06455641239881516, 0.012652870267629623, 0.10208649933338165, 0.03669607639312744, 0.028448719531297684, 0.03344876319169998, -0.07245349138975143, -0.06425207853317261, 0.06833567470312119, -0.20696111023426056, -0.08464784920215607, -0.025379730388522148, -0.02910652570426464, -0.019539685919880867, -0.0013753240928053856, 0.06690050661563873, 0.05543018877506256, -0.013120563700795174, -0.048978857696056366, 0.03798689320683479, 0.0007899805204942822, -0.11875291913747787, -0.008316775783896446, -0.04611149802803993, -0.13887807726860046, 0.1968642771244049, 0.058667831122875214, -0.2229171246290207, 0.045414555817842484, -0.0035585234872996807, -0.057114750146865845, 0.0712752416729927, 0.14844629168510437, -0.11852815002202988, -0.2934975326061249, 0.12190689146518707, 0.1418226957321167, 0.0918886736035347, -0.11489979922771454, 0.037174053490161896, 0.020839449018239975, -0.5260562896728516, 0.2572397291660309, -0.049232885241508484, -0.010077846236526966, -0.14159414172172546, 0.11063992977142334, -0.23896312713623047, -0.5488101243972778, 0.09551626443862915, 0.06967673450708389, -0.0015455340035259724, -0.053525105118751526, 0.032530587166547775, -0.4623775780200958, -0.7855420112609863, 0.12812481820583344, -0.12229426205158234, 0.11338699609041214, -0.14717870950698853, 0.005515762604773045, -0.46824002265930176, -0.9071726202964783, 0.08221860229969025, -0.0754769966006279, -0.08298683911561966, -0.10825228691101074, -0.008217346854507923, 0.006527263671159744, -0.8586638569831848, 0.10064000636339188, -0.006129959598183632, -0.0977984219789505, -0.05894885212182999, 0.025151744484901428, -0.0058215586468577385, -0.8546459078788757, 0.12552668154239655, -0.004701514728367329, 0.10430581867694855, -0.1436624974012375, -0.03371693193912506, -0.23494017124176025, -0.8110691905021667, 0.10503707081079483, 0.006491818930953741, 0.1312170922756195, -0.11516362428665161, -0.13780483603477478, -0.20647116005420685, -0.7316496968269348, 0.16026172041893005, 0.021280432119965553, 0.09302213042974472, -0.22931113839149475, -0.020384829491376877, -0.30234867334365845, -0.5312671065330505, 0.16411732137203217, 0.04491448029875755, 0.04073476418852806, -0.20854739844799042, -0.07783439755439758, -0.4629281759262085, -0.5747063755989075, 0.1879613995552063, 0.10430574417114258, 0.14987267553806305, -0.16747766733169556, -0.16065534949302673, -0.175345316529274, -0.3700605630874634, 0.09134121984243393, 0.2675330936908722, 0.002141387900337577, -0.15707868337631226, -0.11362965404987335, -0.2132018655538559, -0.22046802937984467, 0.06634754687547684, 0.009961208328604698, 0.047454603016376495, -0.26260003447532654, 0.06540762633085251, 0.020162688568234444, -0.24587935209274292, 0.21546287834644318, 0.21835573017597198, 0.1360606849193573, -0.07848025858402252, 0.00810005608946085, -0.24738483130931854, -0.2561061680316925, 0.15246643126010895, 0.11668170988559723, 0.10097392648458481, -0.3510180115699768, -0.05229395255446434, -0.08562590181827545, -0.21311065554618835, 0.03414999321103096, 0.09694208204746246, 0.020336268469691277, -0.3032514750957489, -0.021722208708524704, -0.287952184677124, -0.1913299411535263, 0.14375662803649902, 0.003192164469510317, 0.04777007922530174, -0.25836580991744995, -0.060309819877147675, -0.13526678085327148, 0.03224426507949829, 0.09222200512886047, 0.06509954482316971, -0.06834850460290909, -0.16360241174697876, 0.02495807595551014, -0.06975923478603363, 0.17068658769130707, -0.04550402984023094, -0.003791250055655837, 0.048428431153297424, -0.5429148077964783, 0.08462193608283997, -0.01672651804983616, 0.03886601701378822, -0.13510571420192719, -0.040189795196056366, 0.06168007105588913, -0.33102163672447205, 0.025898244231939316, 0.22974997758865356, 0.11573730409145355, -0.013936358503997326, 0.18813644349575043, 0.06297660619020462, -0.367962121963501, 0.007818708196282387, -0.04484971612691879, 0.14144285023212433, 0.1676172912120819, 0.053938888013362885, -0.04184320569038391, -0.36086583137512207, 0.028095463290810585, -0.022023649886250496, 0.1491762399673462, 0.15920226275920868, -0.2015789896249771, -0.05021617189049721, 0.0016787240747362375, -0.05780032277107239, -0.011642545461654663, 0.05478966608643532, 0.3417443037033081, 0.09806115180253983, 0.0006404889863915741, -0.1313730776309967, -0.06586486846208572, 0.1076081320643425, 0.10446149855852127, -0.2622474730014801, -0.03628579527139664, -0.17860275506973267, -0.07163665443658829, 0.028232092037796974, 0.06606794148683548, 0.07426776736974716, -0.37245357036590576, -0.06282823532819748, 0.2479276806116104, 0.7244580984115601, -0.16442888975143433, 0.750328540802002], [-0.15081092715263367, 0.05678117647767067, -0.03473273292183876, -0.09144371002912521, 0.1329033374786377, -0.007920091971755028, -0.19052790105342865, -0.16662171483039856, -0.10696451365947723, 0.02030482329428196, 0.08236707001924515, -0.0026198450941592455, -0.06467334926128387, -0.03253912925720215, -0.004202431999146938, 0.07641512155532837, -0.03710242733359337, 0.026701979339122772, 0.15374423563480377, -0.06935735046863556, -0.06058796867728233, 0.03893551602959633, 0.18162332475185394, -0.0860874131321907, -0.07806600630283356, 0.17894744873046875, -0.14450055360794067, -0.15386757254600525, 0.10608688741922379, 0.19708657264709473, -0.02170938067138195, 0.047376859933137894, 0.17202872037887573, -0.03693617507815361, -0.0931692123413086, -0.000752986641600728, -0.10943842679262161, 0.024537909775972366, -0.029537495225667953, 0.10354169458150864, -0.05498132482171059, 0.03615362197160721, 0.17636705935001373, 0.05852538347244263, -0.2087332010269165, 0.04235531762242317, 0.0028080290649086237, -0.08527515083551407, 0.041322123259305954, 0.17437967658042908, 0.2229594886302948, -0.2104593962430954, 0.06037486344575882, 0.03826695308089256, -0.022299034520983696, 0.01171395555138588, 0.25441011786460876, 0.15971322357654572, -0.41227543354034424, 0.01251243520528078, -0.015118787065148354, 0.04938068240880966, 0.05773930624127388, 0.08658821880817413, -0.10908400267362595, -0.21115417778491974, -0.046092402189970016, 0.13100093603134155, 0.2825491726398468, -0.10575755685567856, 0.06684202700853348, 0.012916836887598038, -0.44829678535461426, 0.02783999964594841, 0.09107208251953125, -0.024385808035731316, 0.15654101967811584, 0.12326497584581375, 0.06163531541824341, -0.5071855187416077, -0.028499219566583633, 0.16604474186897278, 0.2100854068994522, 0.15191666781902313, -0.13250389695167542, 0.1349666565656662, -0.41850849986076355, -0.005420919973403215, -0.08009668439626694, 0.3387446701526642, 0.12024280428886414, 0.07527371495962143, 0.06345859915018082, -0.5616324543952942, -0.1722412407398224, -0.13032041490077972, 0.1850859373807907, 0.12311897426843643, -0.036512017250061035, 0.253266304731369, -0.46637070178985596, -0.03249431028962135, -0.16785681247711182, 0.09156206250190735, 0.007853804156184196, 0.03548343479633331, 0.02976696379482746, -0.5799404382705688, -0.014233698137104511, 0.1446845680475235, 0.278196781873703, 0.09153793752193451, 0.07905521988868713, 0.3273196518421173, -0.5316669940948486, -0.02567887492477894, 0.0265684574842453, 0.09384310245513916, 0.043025679886341095, -0.11530431360006332, 0.07734404504299164, -0.4224197566509247, 0.1438455730676651, -0.09786303341388702, 0.21920128166675568, 0.18254569172859192, 0.041512470692396164, 0.06693187355995178, -0.42429283261299133, -0.14667335152626038, 0.04418817535042763, 0.20876272022724152, 0.23766110837459564, -0.018995167687535286, 0.0664118155837059, -0.4899117648601532, -0.10775063931941986, -0.012521322816610336, 0.12389801442623138, 0.210634246468544, -0.039421841502189636, 0.12677112221717834, -0.5292115211486816, -0.049182046204805374, 0.02192668989300728, 0.13730119168758392, 0.371511846780777, -0.07215634733438492, 0.029754774644970894, -0.3321439325809479, -0.053565409034490585, 0.18345880508422852, 0.09980879724025726, 0.3030811846256256, -0.07602191716432571, 0.07872901111841202, 0.0019749703351408243, 0.00046894553815945983, -0.10489477217197418, 0.10833734273910522, 0.005324500147253275, 0.008879179134964943, 0.07615561038255692, -0.053117021918296814, 0.03143664449453354, 0.033986758440732956, -0.1728387326002121, -0.2230592519044876, -0.1207825317978859, -0.0962601825594902, 0.2681017220020294, 0.0217220950871706, 0.055037468671798706, -0.22754229605197906, 0.010344214737415314, -0.11780617386102676, -0.2135734111070633, 0.018058542162179947, -0.05759405344724655, -0.15605981647968292, 0.007764442358165979, 0.003736457321792841, -0.12241111695766449, -0.20231612026691437, -0.000611022871453315, 0.020753249526023865, 0.024425845593214035, 0.05829410254955292, -0.09697020053863525, -0.0741502195596695, -0.08492042869329453, -0.02825305610895157, 0.004522170405834913, -0.06301791965961456, -0.035128094255924225, 0.07922740280628204, -0.03663481026887894, -0.00747719407081604, -0.11481587588787079, 0.04773859307169914, -0.1475031077861786, -0.19372735917568207, -0.030242113396525383, -0.10489245504140854, -0.10185839980840683, -0.09537158906459808, 0.06259340792894363, 0.04500722512602806, -0.10812437534332275, 0.05470781773328781, -0.26342353224754333, -0.265646755695343, 0.16536471247673035, -0.22807128727436066, 0.11525960266590118, -0.2014460265636444, 0.03948212414979935, -0.018177315592765808, -0.14267875254154205, 0.09762582927942276, 0.06958667188882828, -0.15384484827518463, 0.13613739609718323, 0.0024759736843407154, -0.2596173584461212, -0.1245020404458046, 0.017528504133224487, 0.10477858036756516, -0.2129759043455124, -0.04016647860407829, -0.10108835250139236, -0.30984851717948914, -0.12248622626066208, 0.29253092408180237, 0.08446264266967773, -0.2144693285226822, -0.07218380272388458, -0.06907707452774048, -0.046202968806028366, -0.23455193638801575, 0.1400003582239151, -0.10208595544099808, -0.12351202964782715, 0.04675697907805443, 0.04832809045910835, 0.03607282415032387, 0.08124551922082901, 0.24323350191116333, -0.18415658175945282, -0.2850009799003601, -0.07977388799190521, 0.053172457963228226, -0.1194286122918129, 0.10207854211330414, 0.22117818892002106, -0.11843027919530869, -0.3873847424983978, -0.0781913548707962, -0.017786873504519463, -0.18336893618106842, -0.03383532166481018, 0.24042664468288422, 0.09906752407550812, 0.24851492047309875, -0.16553895175457, -0.049754563719034195, -0.17173604667186737, -0.1955987811088562, 0.18538671731948853, 0.024585800245404243, 0.24687159061431885, -0.12784501910209656, -0.0366852842271328, -0.11998414993286133, -0.12801799178123474, 0.12915025651454926, 0.07016868889331818, 0.05742577090859413, -0.06535478681325912, 0.22520971298217773, -0.03825533017516136, -0.21770358085632324, 0.21783162653446198, 0.05995814874768257, -0.23035788536071777, -0.2549602687358856, 0.1814684420824051, -0.04321996495127678, -0.12688709795475006, 0.2829384505748749, 0.01809859275817871, 0.054636400192976, -0.10578697919845581, 0.11540467292070389, -0.019893478602170944, -0.2299487292766571, 0.24429401755332947, 0.062062643468379974, -0.1523892879486084, -0.12482321262359619, 0.3616032004356384, 0.03939627483487129, -0.13994385302066803, 0.3136464059352875, -0.07792642712593079, -0.10586628317832947, -0.32260861992836, 0.1727801114320755, 0.2039688378572464, 0.0608079619705677, 0.08292001485824585, 0.07163932174444199, -0.15044432878494263, -0.14477184414863586, 0.38955557346343994, 0.23659494519233704, -0.05192180722951889, 0.19494037330150604, -0.1262567788362503, -0.05618422105908394, 0.05112556740641594, 0.36219918727874756, 0.20685410499572754, 0.027595728635787964, 0.0013607949949800968, -0.03648635745048523, -0.040966182947158813, -0.008545838296413422, 0.31460800766944885, -0.047809816896915436, -0.15494224429130554, -0.06777653843164444, 0.09923943877220154, 0.035592589527368546, -0.11020225286483765, 0.4298066794872284, -0.26346996426582336, 0.3108193576335907, -0.6865501999855042, 0.40378227829933167, -0.37265175580978394], [0.38526201248168945, -0.006556293927133083, 0.25728318095207214, 0.010060099884867668, -0.20330706238746643, 0.04583197832107544, 0.03719496726989746, 0.13319182395935059, 0.023693395778536797, 0.1611667275428772, 0.043199822306632996, -0.09609109163284302, 0.062114689499139786, 0.01303218025714159, -0.2316337525844574, 0.051208287477493286, 0.1437838077545166, 0.06300079822540283, -0.09222438931465149, -0.08659178763628006, 0.16174237430095673, 0.03569238632917404, 0.08002892881631851, -0.01143522746860981, -0.1000923365354538, -0.006348987575620413, -0.08885081857442856, 0.01699216291308403, 0.13965049386024475, 0.19709669053554535, -0.20356453955173492, -0.07592672854661942, -0.22444239258766174, -0.158539280295372, 0.05468875914812088, 0.21318019926548004, 0.03900281339883804, -0.28867730498313904, -0.12388496100902557, 0.066770538687706, -0.14750680327415466, -0.1800847351551056, 0.24438093602657318, 0.054469041526317596, -0.09440954774618149, 0.10511364042758942, 0.05222879350185394, -0.0662284791469574, -0.05365811660885811, 0.29481226205825806, 0.1630377173423767, -0.1962175816297531, 0.08069762587547302, 0.024564987048506737, -0.11766999214887619, 0.12042516469955444, 0.07299145311117172, 0.052842773497104645, -0.16983743011951447, 0.06563236564397812, -0.06797603517770767, -0.021037740632891655, -0.07830803096294403, 0.1690131425857544, 0.03319729119539261, -0.11257956176996231, 0.13838455080986023, -0.07261281460523605, 0.021120766177773476, 0.03740705922245979, -0.02854265831410885, -0.046945586800575256, -0.06264933198690414, -0.009093906730413437, -0.11158833652734756, 0.019900336861610413, -0.01791721023619175, -0.03213272988796234, -0.1385463923215866, 0.3700808882713318, 0.05215265229344368, -0.22339366376399994, -0.0035791590344160795, -0.09041786938905716, -0.031949665397405624, -0.21419233083724976, 0.5583468675613403, -0.09399597346782684, -0.06416338682174683, 0.004110340960323811, 0.03587162867188454, -0.16103850305080414, -0.18501390516757965, 0.3763725459575653, -0.01493065431714058, 0.012416530400514603, -0.047929152846336365, -0.08038058876991272, -0.028102228417992592, -0.3023286461830139, 0.24235668778419495, -0.008998755365610123, -0.118923120200634, 0.006226855330169201, -0.19743981957435608, -0.16153301298618317, -0.12397025525569916, 0.24879010021686554, 0.03250672295689583, -0.13237597048282623, -0.01396151166409254, -0.000877938000485301, -0.29640522599220276, -0.25887438654899597, 0.4821839928627014, 0.03846248984336853, -0.03969680890440941, -0.03520091250538826, -0.3968718945980072, -0.23451630771160126, -0.15604791045188904, 0.33549192547798157, -0.06178133189678192, -0.07154323905706406, -0.06143038719892502, -0.22249476611614227, -0.057207562029361725, -0.17999953031539917, 0.3459309935569763, 0.02578406035900116, 0.013992409221827984, -0.03954649344086647, -0.38905978202819824, -0.17125959694385529, -0.06192046031355858, 0.2434552013874054, 0.22949232161045074, -0.08515658974647522, -0.18264049291610718, -0.13622944056987762, -0.018246134743094444, -0.20966894924640656, 0.21456894278526306, 0.07602642476558685, -0.03972460702061653, -0.06061422824859619, -0.06249291077256203, -0.1719801425933838, -0.25155502557754517, 0.09397599846124649, -0.15351128578186035, -0.1687086820602417, -0.09864426404237747, 0.0386534184217453, -0.11117836087942123, -0.25929781794548035, 0.1648988425731659, 0.1259697526693344, -0.36434072256088257, -0.04805517569184303, 0.09583032131195068, -0.0149210374802351, -0.21044541895389557, 0.09836436808109283, 0.053362809121608734, -0.24779130518436432, -0.0563092976808548, 0.14759910106658936, -0.10913366824388504, -0.2410949319601059, 0.29695430397987366, 0.06956405192613602, -0.329000324010849, 0.028973931446671486, 0.05254094675183296, -0.19924013316631317, -0.43616408109664917, 0.13804838061332703, -0.09543885290622711, -0.4167225956916809, 0.13547594845294952, 0.030561700463294983, -0.3207569420337677, -0.22706979513168335, 0.23944364488124847, -0.05343889445066452, -0.20591212809085846, -0.04874086007475853, -0.11548779904842377, -0.37589743733406067, -0.16618920862674713, 0.24954143166542053, 0.05372083559632301, -0.21532590687274933, -0.1064380630850792, -0.20334786176681519, -0.28725892305374146, -0.03608180209994316, 0.19005273282527924, 0.08371531963348389, -0.31726086139678955, -0.0395633690059185, -0.22690647840499878, -0.19789858162403107, -0.01804852858185768, 0.15776044130325317, 0.030053088441491127, -0.2507626414299011, -0.030944012105464935, -0.1731642186641693, -0.13334092497825623, 0.15104857087135315, 0.06601972877979279, -0.1313277781009674, -0.4539645314216614, -0.15238440036773682, -0.05596955493092537, 0.1233154758810997, 0.07667837291955948, 0.055690545588731766, -0.15654915571212769, -0.24783413112163544, -0.04152563586831093, -0.2865055799484253, 0.023498447611927986, -0.04236568138003349, 0.01994737610220909, -0.06603549420833588, -0.523631751537323, -0.05230139195919037, -0.0011678437003865838, 0.31863150000572205, 0.2512938380241394, -0.23940759897232056, 0.06050267070531845, -0.06859937310218811, 0.01654072478413582, 0.0661601647734642, 0.1931031346321106, 0.15106993913650513, -0.2756200134754181, 0.08746787160634995, -0.10281834006309509, 0.11134831607341766, -0.20621758699417114, 0.07498302310705185, 0.04099692404270172, -0.32597190141677856, -0.0002421017998130992, -0.1917380839586258, -0.025718379765748978, -0.14075252413749695, 0.2016080766916275, 0.22620955109596252, -0.2331622987985611, -0.05761312320828438, -0.20703113079071045, 0.12308403104543686, -0.11608443409204483, 0.059809427708387375, 0.27148666977882385, -0.09473636746406555, 0.00017581589054316282, -0.13244907557964325, -0.015964891761541367, -0.11945424228906631, -0.01958957314491272, 0.050630949437618256, -0.21825259923934937, 0.035207349807024, 0.10241470485925674, 0.10022548586130142, -0.025642408058047295, -0.12327518314123154, -0.000837065395899117, -0.011674790643155575, -0.12952381372451782, -0.12260595709085464, 0.2230992466211319, -0.05496428161859512, -0.041031695902347565, 0.061373110860586166, -0.25474128127098083, -0.15665893256664276, -0.17851950228214264, -0.013031592592597008, 0.010661925189197063, -0.04815753176808357, -0.09728400409221649, -0.33357763290405273, 0.09803000837564468, -0.02276330068707466, -0.09509428590536118, 0.047144368290901184, 0.1036912202835083, -0.027368448674678802, -0.03584316372871399, 0.09027538448572159, -0.11238367855548859, 0.013861296698451042, 0.1851956993341446, 0.002703445265069604, -0.16884541511535645, -0.22555311024188995, 0.1523560881614685, 0.014864414930343628, 0.07077290117740631, -0.018578508868813515, 0.24359795451164246, -0.14244408905506134, -0.17874813079833984, 0.15681235492229462, -0.06626525521278381, 0.16111654043197632, -0.01809798739850521, -0.0687854215502739, -0.09426911920309067, -0.09894617646932602, -0.04540396109223366, -0.18236000835895538, 0.134104385972023, -0.06560368090867996, -0.007396003697067499, -0.11692842841148376, 0.3082819879055023, 0.005014629103243351, -0.14625157415866852, 0.04909180849790573, -0.04989515617489815, 0.003978793974965811, 0.028823094442486763, 0.23202067613601685, 0.012528648599982262, -0.11622565984725952, -0.09586581587791443, 0.19458147883415222, -0.16416387259960175, 0.3805036246776581, 0.3024628162384033, -0.5378755331039429, -0.9450163841247559], [-0.18975092470645905, -0.11865458637475967, 0.0724789947271347, 0.02832574024796486, -0.1354205161333084, -0.055081795901060104, 0.06763311475515366, -0.15337811410427094, -0.13667018711566925, 0.013167263939976692, -0.004895247519016266, -0.016145821660757065, -0.10807067155838013, 0.3859458863735199, -0.2622811794281006, 0.08591648936271667, 0.32348084449768066, -0.017490606755018234, -0.05064807087182999, -0.20139075815677643, 0.35467788577079773, -0.1525162160396576, -0.05565224215388298, 0.5101611614227295, -0.03964352235198021, 0.00024747473071329296, -0.2104255110025406, 0.2511262595653534, -0.25035712122917175, -0.1292305439710617, 0.4092290699481964, 0.10312582552433014, -0.07127248495817184, 0.1332654356956482, 0.11685731261968613, 0.23348812758922577, -0.07780218869447708, 0.2869563400745392, 0.003385254880413413, -0.11277922242879868, -0.17052333056926727, 0.09991981089115143, 0.09835375845432281, -0.0700313150882721, 0.3702583312988281, -0.006958015263080597, 0.15200175344944, -0.020763741806149483, 0.0016687808092683554, 0.09231557697057724, -0.1063268631696701, 0.491437703371048, 0.06865082681179047, 0.0587654709815979, -0.035172317177057266, -0.17262670397758484, 0.28902286291122437, -0.047310322523117065, 0.36581090092658997, 0.06610549241304398, 0.14961950480937958, -0.1720234453678131, -0.030718030408024788, 0.08308007568120956, -0.2182351052761078, 0.2648302912712097, -0.08276558667421341, 0.03035980463027954, 0.027822207659482956, -0.061758749186992645, 0.29259705543518066, -0.14206169545650482, 0.32904720306396484, 0.07209935784339905, 0.02312939241528511, -0.08306337147951126, 0.10725794732570648, 0.04741126298904419, -0.1732667237520218, 0.09894973039627075, 0.0736277848482132, 0.05098336189985275, -0.11370456963777542, 0.11216207593679428, 0.1530759185552597, -0.08309491723775864, 0.17840830981731415, -0.025585560128092766, 0.009220490232110023, -0.13819803297519684, 0.03179458901286125, 0.06651895493268967, -0.02920868992805481, 0.06106876581907272, -0.041745901107788086, 0.09439435601234436, 0.07077623158693314, -0.02349141053855419, 0.019025634974241257, 0.019798871129751205, 0.1117715984582901, 0.005690598860383034, 0.010758097283542156, -0.0471855029463768, -0.0038837844040244818, -0.054670631885528564, -0.1880308836698532, -0.14614325761795044, 0.0370979942381382, -0.10398577898740768, -0.05982127785682678, -0.04816829413175583, 0.0006006085895933211, 0.07994438707828522, -0.21788401901721954, 0.09490296244621277, 0.030943427234888077, -0.03766258805990219, -0.003616801928728819, 0.0867796242237091, 0.0703570544719696, -0.22579514980316162, -0.09986358135938644, 0.0039274427108466625, -0.05502062663435936, 0.08555585145950317, 0.09103840589523315, 0.14086830615997314, -0.32979536056518555, 0.1115085706114769, 0.08510779589414597, 0.04878440871834755, 0.04247351735830307, 0.14467062056064606, 0.0964309349656105, -0.7409771680831909, -0.05743371322751045, 0.0037668105214834213, 0.12338632345199585, 0.1875450313091278, 0.24514712393283844, 0.12094064056873322, -0.5668997168540955, -0.08733256161212921, 0.08247770369052887, 0.0786638930439949, 0.1852281391620636, 0.21447424590587616, 0.09628231078386307, -0.5369974374771118, -0.07331470400094986, 0.16747181117534637, 0.10434029251337051, 0.24202416837215424, 0.18932287395000458, 0.2889622747898102, -0.3790512681007385, -0.06442153453826904, 0.03388837352395058, 0.06663879007101059, 0.2625284492969513, 0.189035102725029, 0.29007455706596375, -0.31761935353279114, 0.17352250218391418, -0.029412778094410896, 0.02843788079917431, 0.18821260333061218, 0.05696680024266243, 0.30404990911483765, -0.38210248947143555, 0.07098957151174545, 0.060353413224220276, 0.0507177971303463, 0.07616694271564484, 0.1377473771572113, 0.29715943336486816, -0.2264380007982254, -0.05391520634293556, 0.03524085134267807, 0.09983818978071213, 0.17129434645175934, 0.10662279278039932, 0.16150231659412384, -0.3534223139286041, 0.0605519637465477, 0.015620016492903233, 0.0069048465229570866, 0.09472023695707321, 0.08311273902654648, 0.15945442020893097, -0.2230222225189209, -0.012231928296387196, -0.032738469541072845, -0.10751493275165558, 0.022712113335728645, -0.20611479878425598, 0.0984777957201004, -0.2671993672847748, 0.007894153706729412, -0.00947131123393774, 0.041534196585416794, 0.12420105189085007, -0.04038028046488762, 0.10294854640960693, -0.2613280117511749, 0.04373391717672348, 0.0022580353543162346, -0.01659313216805458, 0.0654594674706459, -0.24199743568897247, 0.04689354822039604, -0.13787057995796204, 0.12325693666934967, 0.0387248732149601, 0.04585610330104828, -0.03675132244825363, -0.29942193627357483, 0.1353432536125183, -0.17017762362957, -0.01401201169937849, -0.004212574567645788, -0.013237462379038334, -0.09761460870504379, -0.15022486448287964, -0.0373302586376667, -0.14945322275161743, -0.037408821284770966, -0.06695395708084106, 0.18217864632606506, -0.13918983936309814, -0.1266099512577057, 0.023619893938302994, 0.0032628572080284357, -0.07265857607126236, 0.020079869776964188, 0.3520069420337677, -0.02333124354481697, -0.12861739099025726, -0.042161572724580765, -0.14563308656215668, 0.10150512307882309, -0.0778152272105217, 0.4310877025127411, -0.014428839087486267, -0.0932789221405983, 0.05290495976805687, 0.025747504085302353, -0.11968178302049637, -0.013707197271287441, 0.3968883454799652, 0.1047610193490982, -0.05686940252780914, -0.04732505977153778, -0.11793705821037292, 0.049319520592689514, 0.024101996794342995, 0.4609329402446747, 0.004438329953700304, -0.11060024052858353, -0.08424871414899826, -0.08419611304998398, 0.08680146932601929, 0.010384034365415573, 0.35560381412506104, -0.03840947151184082, -0.0269614327698946, -0.033819664269685745, 0.1849469393491745, 0.004757919814437628, 0.06691738218069077, 0.2972724139690399, -0.01078039687126875, 0.01910208724439144, -0.01548322755843401, 0.13767613470554352, -0.1110849529504776, 0.09334834665060043, 0.15562744438648224, -0.12217739224433899, -0.08398804068565369, -0.013820006512105465, 0.509695291519165, 0.0071242437697947025, 0.056809935718774796, 0.028753601014614105, -0.22530589997768402, -0.08513636887073517, -0.08675862103700638, 0.47898873686790466, 0.019863538444042206, 0.03581836819648743, 0.18180617690086365, -0.04689183831214905, 0.008720685727894306, -0.14336659014225006, 0.42068880796432495, -0.08426429331302643, -0.04850134253501892, 0.1601494401693344, -0.06781848520040512, 0.025504693388938904, -0.26621708273887634, 0.5164225101470947, -0.00637812539935112, -0.005605770740658045, 0.18856292963027954, -0.014827554114162922, 0.06526850908994675, -0.29013246297836304, 0.47633954882621765, 0.027896730229258537, -0.01725335791707039, 0.4183632433414459, -0.16552695631980896, 0.22227057814598083, -0.3868952691555023, 0.3491193652153015, -0.005614932160824537, 0.08140461891889572, 0.12237769365310669, -0.04474937543272972, -0.158687561750412, -0.04602581262588501, 0.40045952796936035, -0.07234316319227219, 0.018468884751200676, 0.12516890466213226, -0.12529905140399933, -0.07860229164361954, -0.18557284772396088, 0.4408424198627472, -0.11132608354091644, -0.15594297647476196, -0.0067200190387666225, -0.10677602142095566, -0.13775959610939026, 0.17893610894680023, 0.2194494903087616, -0.6298452615737915, -0.17673815786838531], [-0.3060092329978943, 0.14092284440994263, 0.05440389737486839, 0.08534801006317139, 0.0005221086321398616, 0.1587994545698166, 0.008585479110479355, -0.0825682133436203, 0.10342943668365479, 0.414615660905838, 0.05821864679455757, -0.023835407570004463, -0.26064664125442505, -0.09302569925785065, 0.16888608038425446, -0.1880207657814026, 0.04618331044912338, 0.12903854250907898, -0.03733893483877182, 0.0038158628158271313, -0.0998651385307312, 0.14085645973682404, -0.1801069974899292, -0.09589137881994247, 0.1367024928331375, 0.005964970216155052, 0.090965636074543, 0.13541826605796814, 0.09342833608388901, -0.10716831684112549, 0.2735009491443634, 0.06165297329425812, 0.03298071399331093, 0.4475126564502716, -0.04732377827167511, -0.08424436300992966, -0.08723956346511841, 0.12959259748458862, -0.041632045060396194, 0.11043834686279297, 0.37002018094062805, -0.0772862583398819, -0.07355611026287079, -0.31803661584854126, 0.3876188099384308, -0.06548328697681427, 0.08190423250198364, 0.20340779423713684, -0.021217605099081993, -0.04981498792767525, 0.009637049399316311, 0.3123088777065277, -0.02346479706466198, 0.09756527841091156, 0.012259673327207565, -0.031462736427783966, -0.34374406933784485, -0.17525115609169006, 0.20889906585216522, -0.024882201105356216, 0.24987559020519257, 0.24820592999458313, -0.07988923788070679, -0.22613845765590668, -0.15220215916633606, 0.13529092073440552, -0.0946199893951416, 0.5404826402664185, -0.17091859877109528, 0.11617258191108704, -0.3151039481163025, -0.029121404513716698, 0.12263193726539612, -0.027156198397278786, 0.3000026047229767, 0.11068181693553925, 0.15709403157234192, -0.21198192238807678, -0.09539275616407394, -0.18211416900157928, -0.000755309360101819, 0.18409475684165955, 0.12254457175731659, -0.04637303948402405, -0.046802688390016556, 0.1479048728942871, -0.10882695764303207, 0.05027681216597557, 0.3130984604358673, 0.20508523285388947, -0.09054502099752426, -0.02162032015621662, 0.19173136353492737, -0.14204181730747223, 0.11709010601043701, 0.03794265165925026, 0.16168135404586792, -0.040129031985998154, 0.03991624712944031, 0.26082026958465576, -0.09053774923086166, -0.007647364865988493, -0.01837535761296749, 0.20574738085269928, -0.10958650708198547, 0.0382719412446022, 0.2605907618999481, -0.10636276751756668, -0.027183206751942635, -0.10546411573886871, -0.01265439111739397, -0.1132686659693718, 0.15048101544380188, 0.012957199476659298, 0.03294634073972702, 0.04527566581964493, 0.11128242313861847, -0.02666250802576542, -0.18863429129123688, 0.20464742183685303, 0.1950063407421112, -0.017831020057201385, -0.06655128300189972, 0.2042384147644043, -0.005983550101518631, -0.14019015431404114, 0.0066858744248747826, 0.08874762803316116, -0.01984568126499653, -0.08307338505983353, 0.05607195943593979, 0.11552148312330246, -0.09174783527851105, 0.05790692940354347, 0.032630592584609985, -0.007712990045547485, -0.09747911244630814, 0.06229223310947418, 0.011778581887483597, -0.03966027870774269, -0.06460358947515488, 0.003405687864869833, 0.15401506423950195, -0.0012433797819539905, 0.29077720642089844, -0.09046228975057602, 0.07483013719320297, -0.07089295238256454, -0.12065917253494263, 0.005491071380674839, -0.050605881959199905, 0.35588541626930237, 0.10956333577632904, 0.015489190816879272, -0.14149110019207, 0.07111494988203049, 0.20955555140972137, -0.048669394105672836, 0.44919708371162415, -0.1465543508529663, 0.056468091905117035, -0.13466776907444, 0.09764160960912704, -0.04816636070609093, 0.08628635853528976, 0.31455180048942566, 0.11184926331043243, -0.008263396099209785, -0.14876507222652435, 0.12843146920204163, 0.04239232838153839, 0.053669918328523636, 0.30416059494018555, -0.15587028861045837, 0.06944507360458374, -0.14831914007663727, 0.007559541612863541, -0.0784389078617096, -0.00561728049069643, 0.41086864471435547, 0.11488816142082214, -0.016444819048047066, -0.1931750774383545, -0.04006028547883034, 0.04098417982459068, -0.09841921180486679, 0.11802245676517487, 0.11025968194007874, -0.08713594824075699, -0.3009377121925354, 0.05429381504654884, 0.0960192084312439, -0.017697378993034363, -0.0032771690748631954, -0.07031165063381195, -0.007087321020662785, -0.40093478560447693, 0.15981201827526093, 0.07140211760997772, -0.0038977970834821463, 0.18452544510364532, 0.09190603345632553, -0.07247097790241241, -0.24616679549217224, -0.05199189856648445, 0.12015450745820999, -0.05656886100769043, 0.2889648973941803, 0.14888742566108704, 0.03913886845111847, -0.15918950736522675, 0.08961760997772217, 0.014248845167458057, -0.07960522174835205, 0.1513393074274063, 0.024976853281259537, 0.004961974918842316, -0.07974608242511749, 0.18833906948566437, 0.14393487572669983, -0.09752179682254791, 0.12381049990653992, 0.020026659592986107, -0.16207927465438843, -0.15882182121276855, 0.025463994592428207, 0.31166037917137146, -0.06686633080244064, 0.08086257427930832, -0.08188837021589279, -0.05860373005270958, -0.334056556224823, 0.09339388459920883, 0.19265776872634888, 0.13499614596366882, 0.06392346322536469, 0.01283974014222622, -0.07265531271696091, -0.34390005469322205, 0.022937437519431114, 0.13238228857517242, -0.0854724571108818, 0.14300315082073212, 0.24018341302871704, 0.002202363917604089, -0.3393878936767578, 0.016273200511932373, 0.20975926518440247, -0.024996617808938026, 0.07868558913469315, -0.16299980878829956, 0.01935800537467003, -0.4774741530418396, -0.02699856087565422, 0.2968372702598572, -0.03832685947418213, 0.0905415341258049, -0.05648142471909523, 0.0459883026778698, -0.3930615186691284, -0.11074452847242355, 0.36390283703804016, -0.04505737125873566, 0.028892451897263527, 0.012517061084508896, -0.04984471946954727, -0.1490851193666458, -0.11424650996923447, 0.21956570446491241, -0.022709593176841736, 0.11485747992992401, 0.05303981527686119, 0.053670383989810944, -0.06553028523921967, -0.2462257295846939, 0.2501424551010132, -0.0077186571434140205, 0.022955091670155525, 0.038712743669748306, 0.1612028181552887, -0.24161316454410553, -0.352862685918808, 0.4367501437664032, -0.0714980736374855, 0.25195592641830444, -0.05768495053052902, 0.20878341794013977, -0.11080325394868851, -0.23549750447273254, 0.5033321976661682, -0.030658166855573654, -0.19482696056365967, -0.0032628194894641638, 0.18613721430301666, -0.1713242083787918, -0.26896700263023376, 0.40037721395492554, 0.026323558762669563, -0.12965255975723267, -0.020085427910089493, 0.16532030701637268, 0.11240418255329132, -0.19739572703838348, 0.11345537006855011, 0.10341887921094894, -0.17532390356063843, 0.09532494097948074, 0.24483121931552887, -0.12544526159763336, -0.12463675439357758, -0.045739151537418365, -0.20318268239498138, -0.03613409027457237, 0.14029158651828766, 0.2892543077468872, -0.09406792372465134, -0.5015843510627747, 0.9204972386360168, 0.0009014924289658666, -0.04222005233168602, 0.22162768244743347, 0.058128248900175095, -0.13098621368408203, -0.2927594780921936, -0.06462027877569199, 0.004071076866239309, 0.08863741159439087, 0.2372995764017105, 0.1650100201368332, -0.2889539897441864, 0.14269013702869415, 0.25187948346138, -0.14064572751522064, 0.09629829972982407, -0.10653790086507797, -0.005326662212610245, 0.5748193860054016, -0.06624507904052734, 0.42207953333854675, -0.07436853647232056, 0.1645975559949875], [0.06232843175530434, -0.020002473145723343, -0.4041120111942291, -0.024395296350121498, 0.05062011629343033, 0.12219342589378357, 0.10040932148694992, 0.1431628316640854, 0.081052765250206, -0.1382754147052765, 0.04053729772567749, 0.03714463487267494, 0.18950045108795166, -0.08930553495883942, 0.02324754185974598, -0.037986498326063156, -0.13657134771347046, 0.025366520509123802, 0.07178270816802979, 0.061233993619680405, -0.20545117557048798, -0.05077506974339485, 0.12758786976337433, 0.015551866963505745, 0.09102515131235123, 0.11625782400369644, 0.058475311845541, -0.5939515829086304, 0.1162831038236618, 0.2616337537765503, -0.06383384764194489, -0.10748008638620377, 0.0890873372554779, 0.2856123447418213, -0.5142446756362915, -0.047953687608242035, 0.10639631748199463, 0.018308233469724655, -0.10194182395935059, 0.09081733971834183, 0.2597956359386444, -0.39280277490615845, 0.09286446124315262, 0.19180281460285187, -0.07471811026334763, 0.020449522882699966, 0.024851994588971138, 0.10985232144594193, -0.24059805274009705, 0.030863095074892044, 0.28132590651512146, 0.011821607127785683, -0.010029541328549385, 0.10699146240949631, 0.2025337964296341, -0.31655415892601013, -0.08884884417057037, 0.005827279761433601, 0.11644483357667923, 0.014937978237867355, 0.11624221503734589, 0.24379177391529083, -0.13975946605205536, -0.028877485543489456, 0.02922241948544979, -0.10382059216499329, -0.022905487567186356, 0.2139873057603836, 0.058050502091646194, -0.1009792611002922, 0.09082873165607452, 0.07755449414253235, -0.12302970886230469, -0.006797836162149906, 0.17544150352478027, 0.1878681182861328, -0.054536815732717514, 0.07478716224431992, 0.04789750650525093, -0.16770780086517334, 0.1334201693534851, 0.10138854384422302, -0.04748978465795517, 0.045211102813482285, 0.04638483375310898, 0.13039444386959076, -0.1079479306936264, -0.04082689806818962, 0.03427550196647644, 0.17012834548950195, 0.007391512859612703, 0.07893770933151245, 0.12819746136665344, -0.1171964704990387, -0.04532519355416298, -0.019665084779262543, 0.11243461072444916, 0.08718468993902206, 0.14505384862422943, 0.22620563209056854, -0.1195145919919014, 0.06348741054534912, 0.08644174784421921, 0.03996970131993294, -0.17162521183490753, 0.07830420136451721, 0.19595156610012054, 0.006249417085200548, -0.018119968473911285, 0.016352783888578415, 0.016184378415346146, -0.1264221966266632, 0.20550288259983063, 0.15658394992351532, -0.019493114203214645, 0.12587721645832062, 0.007537110708653927, -0.04701617732644081, -0.09107663482427597, 0.12793482840061188, 0.2076343595981598, -0.014553611166775227, 0.172159805893898, -0.0486915223300457, 0.0510110929608345, -0.094105064868927, 0.10025661438703537, 0.08506800979375839, -0.1695733219385147, -0.05862515792250633, 0.25835075974464417, 0.21316342055797577, -0.15151681005954742, 0.1133580356836319, -0.09657788276672363, -0.09226076304912567, -0.024404767900705338, 0.13953746855258942, 0.035424843430519104, -0.052846454083919525, 0.0907931700348854, -0.027491392567753792, -0.07208916544914246, -0.008561881259083748, -0.004830899182707071, 0.026220714673399925, 0.06804037094116211, -0.021254315972328186, -0.0392925851047039, -0.047979824244976044, -0.010271027684211731, -0.10310376435518265, 0.1570155918598175, 0.03719603270292282, -0.01207510381937027, -0.05845143646001816, -0.0618993416428566, 0.02800983004271984, -0.04773268476128578, -0.21004292368888855, -0.1118120476603508, 0.17516784369945526, -0.05173533409833908, 0.10986503958702087, 0.056514956057071686, 0.11358148604631424, -0.11098513752222061, 0.09167028963565826, -0.007393126375973225, -0.057122740894556046, -0.08952124416828156, -0.07480519264936447, -0.12273728847503662, -0.07725149393081665, 0.0788545086979866, -0.05510811507701874, 0.005924582481384277, 0.06478188931941986, 0.06839091330766678, 0.10565166920423508, -0.08116713166236877, 0.004356227815151215, 0.14210230112075806, -0.04585874453186989, -0.3319392502307892, 0.05247792601585388, 0.1235429123044014, -0.06957052648067474, 0.015753736719489098, 0.11722943186759949, 0.050212614238262177, -0.06498271226882935, 0.055855050683021545, -0.014334597624838352, -0.1089194193482399, 0.18661686778068542, 0.011231428012251854, -0.08048912137746811, -0.1769261360168457, -0.024835938587784767, -1.6119100109790452e-05, -0.1674245148897171, 0.17534109950065613, 0.06336632370948792, -0.04299159720540047, -0.11262492835521698, 0.041040923446416855, -0.3112579882144928, -0.16917794942855835, 0.13759443163871765, -0.04867684468626976, 0.0785093605518341, -0.15840856730937958, -0.017686033621430397, -0.2967270016670227, -0.09427943080663681, 0.13512447476387024, 0.01855449378490448, 0.05925392732024193, 0.024872474372386932, -0.006296026054769754, -0.5283713340759277, -0.21266628801822662, 0.10631201416254044, 0.03938869759440422, -0.09316190332174301, 0.008292650803923607, 0.1108042299747467, -0.3456089198589325, -0.1317761093378067, 0.0024191353004425764, -0.06854550540447235, -0.13139961659908295, -0.004448998719453812, 0.05346149206161499, -0.18490053713321686, -0.25294816493988037, 0.0207173153758049, 0.01518559455871582, -0.018164116889238358, 0.031228234991431236, 0.05169151350855827, -0.2712763249874115, -0.38218897581100464, 0.14677794277668, -0.0744667574763298, -0.06929033249616623, -0.04423163831233978, -0.007948535494506359, -0.30841848254203796, -0.34093448519706726, 0.19564493000507355, -0.0067396401427686214, -0.1962912231683731, -0.0026752061676234007, -0.11690085381269455, -0.29679587483406067, -0.40080487728118896, 0.19263839721679688, 0.12545722723007202, -0.060144901275634766, -0.12991872429847717, 0.060942646116018295, -0.31704768538475037, -0.5916036367416382, 0.2233380228281021, -0.011533472687005997, -0.10195324569940567, -0.17665939033031464, -0.1355653703212738, -0.19769200682640076, -0.5620381832122803, 0.09816326946020126, 0.04764912277460098, -0.06879814714193344, -0.10093341022729874, 0.029350511729717255, -0.3252677321434021, -0.7552666664123535, 0.250794380903244, 0.20523332059383392, 0.059980154037475586, -0.16333632171154022, -0.10040463507175446, -0.2604929804801941, -0.432941734790802, 0.3567747175693512, 0.20192250609397888, -0.006631552241742611, -0.09369795024394989, 0.04284151643514633, -0.11237981170415878, -0.523923397064209, 0.32825419306755066, 0.21318671107292175, -0.07267994433641434, -0.26235678791999817, 0.021392742171883583, 0.09741751849651337, -0.4253188967704773, 0.1520364135503769, 0.06120891869068146, 0.16103017330169678, -0.16087283194065094, -0.10095161199569702, 0.03622179850935936, -0.28557440638542175, 0.08032945543527603, 0.2523138225078583, -0.21290306746959686, -0.20327410101890564, -0.032958973199129105, 0.018311243504285812, -0.3306586444377899, 0.2773893177509308, 0.24650122225284576, 0.05819116532802582, -0.19562600553035736, -0.040520623326301575, 0.09423432499170303, -0.26433679461479187, 0.49602365493774414, 0.25745290517807007, 0.03673115745186806, -0.2575787305831909, -0.04772628843784332, 0.06710708886384964, -0.1377304643392563, 0.345746248960495, 0.27925798296928406, -0.01654128171503544, 0.25519996881484985, 0.12377573549747467, 0.0627572312951088, -0.21305306255817413, 0.1552208513021469, 0.02275758795440197, 0.33793768286705017, -0.3275611400604248, -0.16667966544628143, 0.4638308584690094], [0.4144041836261749, 0.00705393822863698, 0.16673436760902405, -0.10715664178133011, 0.042288217693567276, 0.11743586510419846, -0.0400560088455677, 0.4021557569503784, 0.11418316513299942, 0.11916778236627579, 0.13364556431770325, 0.18849711120128632, -0.09225843101739883, -0.02476145140826702, 0.3941209614276886, 0.1578044593334198, 0.05683918669819832, -0.10971095412969589, 0.036887966096401215, 0.010045592673122883, 0.10362056642770767, -0.004417710471898317, 0.13060735166072845, -0.0575149767100811, -0.07870960980653763, 0.05465588718652725, -0.12326712161302567, 0.09938153624534607, 0.050246577709913254, -0.04078095406293869, 0.09584566205739975, -0.08808541297912598, 0.11978596448898315, -0.11684685945510864, 0.17104697227478027, 0.167280912399292, -0.14571303129196167, -0.003199938451871276, -0.0010353303514420986, -0.0348534882068634, -0.1101912334561348, 0.08553046733140945, 0.15037061274051666, -0.08349474519491196, 0.1412334144115448, -0.1367052048444748, 0.06094805523753166, -0.08926305174827576, -0.003359309397637844, -0.003460231702774763, -0.20935453474521637, 0.21845965087413788, -0.057338226586580276, -0.08267641812562943, -0.07954558730125427, 0.17120234668254852, 0.05543995276093483, -0.39036402106285095, 0.15882031619548798, -0.009312999434769154, -0.1031489446759224, -0.09895960986614227, 0.2135760337114334, -0.012900246307253838, -0.2505019009113312, 0.379692941904068, -0.05812497064471245, -0.08000514656305313, 0.06937999278306961, 0.04730038717389107, -0.10421118140220642, -0.5046659111976624, 0.4152948558330536, -0.09372811764478683, -0.2277604341506958, 0.3218044638633728, 0.10963017493486404, -0.1573653221130371, -0.44618532061576843, 0.4208765923976898, -0.042849406599998474, -0.03074641153216362, 0.27744731307029724, -0.04393811523914337, 0.03969832509756088, -0.3534982204437256, 0.4707462191581726, -0.0710792988538742, 0.05748048424720764, 0.06627340614795685, -0.0830533504486084, 0.004035210702568293, -0.19239462912082672, 0.230014830827713, -0.05266072601079941, -0.12065988034009933, 0.13545727729797363, -0.06455086171627045, -0.05212380364537239, -0.1758648157119751, 0.21903181076049805, 0.1815701425075531, -0.13746796548366547, 0.10932815819978714, -0.011314020492136478, 0.05213667079806328, -0.15224336087703705, 0.19924120604991913, -0.04809761419892311, -0.2812463641166687, 0.08051563054323196, 0.03996657580137253, 0.02031335048377514, -0.2924380898475647, 0.14323562383651733, 0.04278464987874031, -0.08217983692884445, 0.030048217624425888, 0.04685429856181145, 0.07757741212844849, -0.24526895582675934, 0.28441429138183594, -0.08063725382089615, 0.024902958422899246, 0.031542520970106125, -0.1690700501203537, -0.022977201268076897, -0.07069224864244461, 0.3037165105342865, -0.08149309456348419, 0.054171133786439896, -0.06324787437915802, -0.015290533192455769, 0.0037254421040415764, -0.17488937079906464, 0.31030160188674927, 0.023698844015598297, -0.19353289902210236, -0.052559517323970795, -0.09274672716856003, 0.029445145279169083, -0.0988602340221405, 0.2118186056613922, 0.014340369030833244, -0.015984848141670227, 0.056610722094774246, -0.12305377423763275, 0.05358446016907692, -0.21137996017932892, 0.367568701505661, -0.01957758329808712, 0.07359664142131805, -0.10524818301200867, -0.1514262855052948, 0.09700045734643936, -0.059011612087488174, 0.3383658230304718, 0.00605013919994235, 0.11995051056146622, 0.16064947843551636, -0.07917676120996475, 0.07059825956821442, -0.13252727687358856, 0.29468032717704773, 0.03252868354320526, 0.12592822313308716, -0.06868211925029755, -0.20325584709644318, -0.05709735304117203, -0.12695635855197906, 0.2538739740848541, 0.0626070573925972, -0.22579728066921234, -0.024409612640738487, -0.09174066036939621, 0.00908565241843462, -0.10594592243432999, 0.47042974829673767, 0.026432564482092857, 0.06871073693037033, 0.1353294551372528, -0.21305842697620392, 0.08318819105625153, -0.020380137488245964, 0.3044971227645874, -0.04294874519109726, -0.1015552282333374, 0.13498608767986298, -0.13119646906852722, 0.08961217850446701, -0.056768666952848434, 0.5215580463409424, -0.0542629137635231, -0.02416720800101757, 0.18819881975650787, -0.20287352800369263, -0.048123087733983994, 0.032891154289245605, 0.3389893174171448, -0.13394978642463684, -0.07871182262897491, 0.11584386974573135, -0.17577652633190155, 0.043605804443359375, -0.035828523337841034, 0.2689670920372009, -0.1492381989955902, -0.07685600221157074, 0.14615455269813538, -0.26976439356803894, -0.00015185485244728625, -0.13949474692344666, 0.2678341865539551, 0.03306934982538223, 0.04866788908839226, 0.05694430693984032, -0.22237877547740936, 0.03321649506688118, 0.007760378532111645, 0.15217182040214539, 0.07364657521247864, -0.008741414174437523, -0.01488235779106617, -0.06835152953863144, -0.029225794598460197, 0.06475625187158585, 0.31331318616867065, -0.000556168844923377, -0.027564948424696922, -0.1785104125738144, -0.05082891508936882, 0.09371787309646606, 0.04019731655716896, 0.023747682571411133, 0.010140696540474892, -0.030752873048186302, -0.2325882911682129, -0.06289961189031601, -0.026978636160492897, -0.01115255057811737, 0.05652659013867378, -0.11421236395835876, 0.1429762840270996, -0.2644745409488678, -0.12479136139154434, -0.018629414960741997, 0.21144859492778778, -0.11962626874446869, -0.004584458656609058, -0.06588329374790192, -0.24435119330883026, 0.07033330202102661, 0.219709575176239, 0.15762795507907867, -0.47846680879592896, -0.05800517275929451, -0.1311548948287964, -0.16742056608200073, -0.05149681866168976, 0.09122874587774277, 0.13003037869930267, -0.1870766133069992, -0.004370563663542271, -0.04458935558795929, -0.20850974321365356, 0.08683069050312042, 0.08523859083652496, 0.10092920064926147, -0.0019612079486250877, 0.04809611290693283, -0.01856297254562378, -0.3371870815753937, 0.20626744627952576, 0.08042526245117188, 0.0884130671620369, 0.09640859812498093, -0.15544384717941284, -0.02517402172088623, -0.11553114652633667, 0.13235336542129517, 0.05352957919239998, -0.057746630162000656, 0.15964864194393158, -0.08635809272527695, -0.08672108501195908, 0.11069381237030029, 0.04161849245429039, 0.010330989956855774, -0.014298730529844761, 0.13463094830513, 0.060409631580114365, 0.01957174390554428, 0.0176322590559721, 0.0430901013314724, 0.22330015897750854, -0.004680735990405083, -0.024304157122969627, -0.04671098291873932, 0.11937496811151505, 0.09234549105167389, 0.05368078500032425, -0.011576950550079346, -0.13381873071193695, 0.1239694356918335, -0.050524234771728516, -0.053448375314474106, 0.12577028572559357, -0.021268684417009354, -0.016544613987207413, 0.052631475031375885, -0.025373132899403572, -0.026664938777685165, 0.025460805743932724, 0.21847282350063324, 0.04834023863077164, 0.0612262561917305, 0.0870446041226387, -0.013287554495036602, -0.013057021424174309, 0.001660173642449081, 0.22614450752735138, 0.10059604793787003, 0.22887283563613892, -0.03628554567694664, 0.11077927052974701, 0.11812499910593033, 0.06326453387737274, 0.04489677771925926, 0.024534083902835846, 0.4370819330215454, 0.01116308942437172, 0.20038071274757385, 0.044543348252773285, 0.12563304603099823, 0.06013653427362442, -0.03266281634569168, 0.4671779274940491, 0.3095538914203644, 1.0028120279312134, -0.14499515295028687, -0.08691506087779999], [0.09069592505693436, 0.02261360175907612, -0.016732996329665184, 0.0371127687394619, -0.08222883194684982, -0.08324865251779556, 0.13386692106723785, -0.10931240022182465, -0.09538336098194122, -0.12583531439304352, 0.09556414186954498, -0.021589813753962517, -0.16154839098453522, 0.2159157395362854, -0.19453386962413788, -0.0442059263586998, -0.16000008583068848, 0.06524256616830826, 0.029500314965844154, 0.0053130583837628365, 0.15991303324699402, -0.00653314683586359, -0.13440264761447906, 0.047550272196531296, -0.2382652759552002, 0.16114787757396698, -0.1106286346912384, 0.20403838157653809, 0.1843355894088745, -0.38503777980804443, 0.35822582244873047, 0.05725677311420441, 0.18927337229251862, 0.016775788739323616, 0.17084820568561554, 0.11545182764530182, -0.29134562611579895, 0.27892744541168213, -0.015863852575421333, -0.08126526325941086, 0.08456923812627792, 0.20373766124248505, 0.1371324360370636, -0.254485547542572, 0.23158259689807892, 0.07693330943584442, 0.16760994493961334, 0.1614903211593628, 0.13896800577640533, 0.19697518646717072, -0.15659388899803162, 0.07653342932462692, -0.06347469985485077, 0.05543619766831398, 0.2100784182548523, 0.14677850902080536, 0.15044048428535461, -0.21813571453094482, 0.2414998710155487, -0.05365399643778801, 0.25046414136886597, 0.16954636573791504, -0.0023010214790701866, 0.3312249183654785, -0.025043819099664688, 0.28541839122772217, 0.05319337919354439, 0.19784127175807953, -0.1474320888519287, -0.1195700615644455, 0.23989345133304596, -0.24624934792518616, 0.28839007019996643, 0.03449101373553276, 0.28981828689575195, 0.012823088094592094, -0.24821574985980988, 0.2205984890460968, -0.047484081238508224, 0.171482652425766, -0.007119062822312117, 0.20605944097042084, 0.07071850448846817, -0.21286804974079132, 0.15613436698913574, -0.018083708360791206, 0.2906663715839386, 0.005480271298438311, 0.06204658001661301, 0.02354609966278076, -0.24820958077907562, 0.03776772320270538, 0.0545157715678215, -0.05484654754400253, 0.12077543884515762, 0.3740578889846802, 0.19899572432041168, -0.11171331256628036, 0.05976344645023346, 0.1011144369840622, -0.12153337895870209, -0.07768435031175613, 0.15061761438846588, 0.16546012461185455, -0.2042211890220642, 0.040182195603847504, 0.16629764437675476, -0.178706094622612, -0.041070133447647095, 0.02650219388306141, 0.1213030070066452, -0.1780044585466385, 0.03062880039215088, 0.05010507255792618, -0.10887427628040314, 0.033287592232227325, 0.218510702252388, 0.25381386280059814, -0.0044963164255023, 0.1889142096042633, -0.05065144598484039, -0.003389307064935565, -0.014879687689244747, -0.013961001299321651, 0.11532425880432129, -0.10084319859743118, 0.06159977614879608, 0.09201964735984802, -0.07604660093784332, 0.06477535516023636, 0.0995296910405159, -0.08881870657205582, -0.05100250244140625, 0.04222303628921509, -0.06284796446561813, 0.3974825441837311, -0.14934255182743073, 0.04024864360690117, 0.022647332400083542, -0.1506199985742569, -0.11478228867053986, -0.13276168704032898, 0.1482119858264923, -0.022886129096150398, 0.07441078871488571, -0.21397383511066437, -0.0926438719034195, -0.040674060583114624, -0.1638140082359314, 0.18143288791179657, 0.013195527717471123, 0.05288328602910042, -0.19250071048736572, -0.22421620786190033, -0.12278613448143005, -0.04970543086528778, 0.132794588804245, -0.018660051748156548, 0.007551949005573988, 0.0786142572760582, -0.2262832224369049, -0.028448274359107018, -0.1750970482826233, 0.15772584080696106, 0.10900439321994781, -0.10951363295316696, 0.1525515466928482, -0.21144478023052216, -0.07356184720993042, -0.07436256855726242, 0.053838349878787994, 0.020606214180588722, 0.028785254806280136, 0.028800440952181816, -0.14707791805267334, -0.15334898233413696, -0.06885182112455368, -0.022188687697052956, 0.024194395169615746, 0.09768868237733841, 0.13732227683067322, -0.18823932111263275, -0.023964492604136467, 0.024651402607560158, -0.0772659182548523, 0.06390977650880814, 0.01495895441621542, 0.09071781486272812, 0.008887197822332382, -0.10642058402299881, -0.12829679250717163, -0.06413418054580688, -0.060143258422613144, 0.21928785741329193, 0.09518492221832275, 0.2455996721982956, 0.11382080614566803, -0.17412015795707703, 0.09218096733093262, -0.025964558124542236, -0.08237084746360779, -0.008887151256203651, 0.1777190864086151, -0.06940826028585434, -0.0550190806388855, 0.12173493206501007, -0.01397579163312912, 0.027079006657004356, -0.039685189723968506, -0.01623222790658474, 0.044763967394828796, -0.18193267285823822, 0.18553392589092255, 0.06166485324501991, 0.06691090017557144, 0.13748958706855774, -0.02414257638156414, -0.1373550295829773, -0.26766109466552734, 0.2303108274936676, -0.03481534495949745, 0.025473011657595634, 0.3712482750415802, 0.13975666463375092, 0.006803327240049839, -0.22053909301757812, 0.2578570246696472, -0.07118218392133713, -0.09374541789293289, 0.3421752154827118, 0.04879085719585419, 0.013398812152445316, -0.307792991399765, 0.36158475279808044, -0.040078550577163696, -0.10232384502887726, 0.46269628405570984, 0.02156120538711548, 0.14451152086257935, -0.149403378367424, 0.2653202414512634, -0.10627443343400955, 0.02208438329398632, 0.29667508602142334, -0.06281376630067825, 0.14547061920166016, -0.233713299036026, 0.32352325320243835, -0.010363866575062275, -0.014481556601822376, 0.33577197790145874, -0.03232662379741669, 0.10190199315547943, -0.26890894770622253, 0.21819251775741577, -0.029989859089255333, -0.14626404643058777, 0.1536555141210556, 0.09623866528272629, 0.3239142894744873, -0.12771360576152802, 0.2165866494178772, -0.0231163389980793, -0.03272905573248863, 0.2931205928325653, -0.09923017024993896, 0.027725137770175934, -0.14319480955600739, 0.06693468987941742, -0.025737926363945007, -0.15195626020431519, 0.08890390396118164, 0.03713754191994667, 0.17117373645305634, 0.10714057087898254, 0.17324908077716827, -0.07588143646717072, -0.1721639782190323, -0.08413698524236679, 0.07727421075105667, 0.1399744302034378, -0.05011220648884773, -0.08373565226793289, -0.014340626075863838, 0.136400043964386, -0.1671265959739685, 0.0978408083319664, 0.18705426156520844, 0.0024061042349785566, -0.11010235548019409, -0.021291455253958702, 0.005872586742043495, -0.044907256960868835, -0.018598394468426704, 0.0999138131737709, -0.1958964318037033, -0.19622407853603363, -0.06550580263137817, -0.09446104615926743, -0.007122163660824299, 0.09010423719882965, 0.2932995855808258, -0.1472812443971634, 0.07589752972126007, -0.007326758466660976, 0.03386862203478813, -0.010307910852134228, 0.11229821294546127, 0.07149588316679001, -0.14107029139995575, -0.43697869777679443, 0.1479383111000061, 0.07581999152898788, -0.037726886570453644, 0.35171160101890564, 0.01604059524834156, -0.08700346946716309, -0.5457346439361572, 0.01060508843511343, 0.10038525611162186, 0.009243014268577099, -0.018589401617646217, -0.04530559480190277, 0.059918418526649475, -0.15053270757198334, -0.1164533942937851, 0.08897700905799866, -0.1102302223443985, -0.2220895141363144, 0.17615336179733276, 0.11655616015195847, -0.2318616509437561, -0.04662632569670677, 0.0653819814324379, -0.12560822069644928, 0.19451119005680084, 0.026277964934706688, 0.45903488993644714, 0.585577666759491, 0.5667224526405334, 0.13814784586429596], [0.3147765100002289, 0.17079699039459229, 0.07518400251865387, 0.04895196855068207, -0.0435616672039032, -0.1202101856470108, 0.11585254967212677, 0.29643213748931885, 0.17131637036800385, 0.03419163450598717, 0.05683976039290428, -0.0024296133778989315, -0.44335129857063293, 0.2803671360015869, 0.14593032002449036, 0.2990393042564392, 0.3562619090080261, 0.07171106338500977, 0.08918270468711853, -0.5506120920181274, 0.16580577194690704, 0.059418294578790665, 0.09728138893842697, 0.21851056814193726, -0.09317982941865921, -0.036003824323415756, -0.5484966039657593, 0.26620185375213623, 0.014360894449055195, 0.09842906147241592, 0.1726359724998474, -0.03495442867279053, 0.016251711174845695, -0.4140794575214386, 0.26761725544929504, 0.04710378125309944, -0.2566705346107483, 0.13173508644104004, -0.06284534186124802, -0.1364116668701172, -0.12986363470554352, 0.11772658675909042, 0.294911652803421, -0.17043882608413696, 0.2160726636648178, -0.02558440901339054, -0.0005007664440199733, -0.17556099593639374, 0.09022292494773865, 0.23295563459396362, -0.15841364860534668, 0.1266760379076004, -0.17804482579231262, 0.03621185943484306, -0.010693900287151337, 0.018132276833057404, 0.039897508919239044, -0.21181851625442505, 0.17060628533363342, -0.07210757583379745, -0.13460777699947357, 0.05295788124203682, -0.04267880693078041, 0.05029357597231865, -0.0006917529390193522, -0.12400227040052414, -0.04723432660102844, 0.013484194874763489, -0.02982383780181408, 0.10302576422691345, -0.11349684745073318, 0.14148004353046417, 0.01859862729907036, -0.015054295770823956, -0.023914767429232597, -0.24304217100143433, 0.08061863481998444, -0.21961987018585205, 0.2561130225658417, -0.07467024773359299, 0.024659285321831703, -0.10246795415878296, -0.07878348976373672, -0.1288389265537262, -0.13117296993732452, 0.09418433904647827, -0.06753115355968475, -0.07851579785346985, 0.04474356025457382, -0.07494482398033142, 0.03150675818324089, -0.1916133016347885, 0.13735166192054749, -0.11995666474103928, 0.008184378035366535, -0.09874488413333893, -0.21973393857479095, -0.02787984535098076, -0.11059695482254028, 0.22817371785640717, -0.08842255920171738, 0.06408476829528809, 0.020726822316646576, -0.13400813937187195, 0.023599054664373398, -0.17176151275634766, 0.19400984048843384, -0.1045512780547142, -0.03454158455133438, 0.012923904694616795, -0.006475590635091066, -0.052184805274009705, -0.07089859247207642, 0.14345760643482208, -0.03697052225470543, -0.03145741671323776, -0.03683013468980789, -0.1834580898284912, -0.017328491434454918, -0.07516033202409744, 0.1430918574333191, -0.18827606737613678, 0.035536229610443115, -0.14219573140144348, -0.17270442843437195, -0.15787190198898315, -0.007716959808021784, 0.12000774592161179, -0.013691302388906479, 0.07565685361623764, 0.027161555364727974, 0.02577967941761017, -0.09413104504346848, 0.10365947335958481, 0.16235947608947754, 0.1025017499923706, 0.03595449775457382, 0.09806355088949203, 0.17343145608901978, -0.19067750871181488, 0.08115947246551514, -0.11159761250019073, 0.03165997192263603, 0.051985155791044235, 0.03669591620564461, -0.04087286815047264, -0.22586354613304138, 0.041746463626623154, 0.188688263297081, 0.11022023111581802, 0.09652361273765564, 0.19889359176158905, -0.08156196027994156, -0.22068579494953156, 0.04676418378949165, -0.05581462010741234, 0.1592756062746048, 0.16204088926315308, 0.17896807193756104, -0.06441619247198105, -0.06266307830810547, 0.024428177624940872, -0.10101005434989929, 0.008130094967782497, -0.0681479424238205, 0.009116125293076038, -0.034112147986888885, -0.28893908858299255, -0.03489935025572777, 0.004608712624758482, 0.017653191462159157, 0.1485854834318161, 0.09228121489286423, 0.10329630225896835, -0.03375304862856865, 0.1246328353881836, 0.0015928801149129868, -0.10572094470262527, 0.012157240882515907, 0.0015884448075667024, 0.22366510331630707, -0.26803159713745117, 0.11557629704475403, -0.0507911778986454, -0.04650701954960823, -0.07211992144584656, 0.008027692325413227, 0.19711720943450928, -0.05210981145501137, 0.03867961838841438, 0.008627502247691154, -0.0671195536851883, -0.07704531401395798, 0.0009156549931503832, 0.24734929203987122, -0.15577207505702972, 0.14704447984695435, 0.035261303186416626, -0.05003374069929123, -0.01573760062456131, -0.031036067754030228, 0.11976780742406845, -0.08094893395900726, -0.02022596448659897, -0.05207473039627075, 0.18188966810703278, 0.020053908228874207, -0.17796747386455536, 0.10757111757993698, -0.15559540688991547, 0.06268500536680222, 0.024489277973771095, 0.012586562894284725, -0.105341337621212, -0.0326240099966526, 0.205815851688385, -0.12550875544548035, 0.04578690975904465, -0.07312687486410141, -0.035307686775922775, -0.1619575470685959, 0.0005674348212778568, 0.11333522200584412, 0.17565613985061646, 0.1220240369439125, -0.18058601021766663, 0.1412866711616516, -0.011783336289227009, 0.15829284489154816, 0.239447221159935, 0.30212458968162537, -0.18143099546432495, -0.22259239852428436, -0.02617766708135605, -0.011826977133750916, 0.08008134365081787, 0.16273364424705505, -0.01253755483776331, -0.26532185077667236, -0.09256696701049805, 0.10135358572006226, -0.053062111139297485, -0.06194173917174339, 0.356259822845459, 0.06325346231460571, -0.047473642975091934, -0.2072419673204422, 0.0658591240644455, -0.00865509919822216, 0.024238688871264458, 0.4557465612888336, 0.038735780864953995, -0.23895464837551117, -0.09799276292324066, 0.033286720514297485, 0.030525265261530876, -0.33929839730262756, 0.4005020558834076, -0.1163831576704979, -0.4530590772628784, -0.1276523470878601, 0.18704092502593994, -0.046831924468278885, -0.2084842324256897, 0.3502952456474304, -0.022480439394712448, -0.20536869764328003, -0.31790199875831604, 0.19418875873088837, -0.06647323817014694, -0.1828833520412445, 0.3745761513710022, 0.2295602560043335, -0.14645017683506012, -0.21026411652565002, 0.01160303596407175, -0.011703774333000183, -0.13384942710399628, 0.42069077491760254, 0.06488066911697388, -0.01591215655207634, -0.1762974113225937, -0.17361649870872498, -0.030858388170599937, -0.1748543381690979, 0.5955380201339722, 0.1056150272488594, -0.12836399674415588, -0.10835520923137665, -0.28764334321022034, 0.12285050749778748, -0.10147593915462494, 0.3668617904186249, 0.18511863052845, 0.015846246853470802, -0.05437145382165909, -0.17205928266048431, 0.03946896269917488, -0.10182452946901321, 0.33069944381713867, -0.03908658027648926, -0.12315084040164948, 0.07785250246524811, -0.13271579146385193, 0.08516053855419159, 0.04901597276329994, 0.33136889338493347, 0.22628740966320038, -0.14680947363376617, -0.005950198508799076, -0.3275224268436432, 0.007969248108565807, 0.048917267471551895, 0.28403642773628235, 0.10153031349182129, -0.07401735335588455, -0.14146775007247925, -0.11713111400604248, 0.15684857964515686, -0.15865015983581543, 0.3594817519187927, -0.2267361283302307, 0.15459054708480835, -0.0053320387378335, 0.05601397156715393, 0.06310340017080307, -0.15569989383220673, 0.18994314968585968, -0.49627408385276794, 0.11399642378091812, -0.09751130640506744, 0.26160570979118347, -0.04968995228409767, 0.071858249604702, 0.014276278205215931, -0.025158219039440155, 0.13473790884017944, 0.24705365300178528, -0.0687311664223671, -0.02460687793791294, -0.15163013339042664], [-0.3246828317642212, -0.01149514690041542, 0.028136279433965683, 0.06120535358786583, -0.19878263771533966, -0.04460647329688072, 0.027703961357474327, -0.36035898327827454, 0.1315639764070511, -0.04601827636361122, 0.043589022010564804, -0.09108461439609528, -0.1050381287932396, 0.04979830980300903, -0.31584519147872925, 0.2111242115497589, -0.15262757241725922, 0.04121038690209389, -0.040446698665618896, -0.11119914799928665, 0.1615162193775177, -0.18650959432125092, -0.000319453130941838, -0.24944941699504852, -0.024085957556962967, -0.002302135108038783, 0.29184526205062866, 0.002835123799741268, 0.2140067219734192, -0.029348965734243393, -0.13882753252983093, 0.012539969757199287, 0.16837021708488464, 0.3452397584915161, 0.11553139239549637, 0.08226803690195084, -0.0663774386048317, -0.08189927786588669, -0.03338618203997612, 0.030429961159825325, 0.21191084384918213, -0.05026446282863617, 0.11502882838249207, -0.12415101379156113, -0.010730522684752941, 0.1207413524389267, -0.024199800565838814, 0.041372813284397125, -0.004341707564890385, 0.19597406685352325, -0.17496822774410248, -0.10374773293733597, -0.14965572953224182, 0.15339398384094238, 0.23895207047462463, 0.04442528262734413, 0.19640587270259857, -0.08813108503818512, 0.007371742743998766, -0.005221257451921701, 0.025366714224219322, 0.2955566644668579, 0.023725153878331184, 0.3189583420753479, -0.1804712861776352, -0.002607758389785886, 0.029554449021816254, 0.1123221144080162, 0.21636395156383514, 0.0007203957065939903, 0.21158456802368164, -0.024486739188432693, 0.13689637184143066, -0.06904802471399307, 0.12716685235500336, 0.17261196672916412, 0.01578965224325657, 0.058396533131599426, -0.01503737736493349, 0.11036492884159088, 0.031562063843011856, 0.08868604153394699, 0.13156524300575256, -0.05681094527244568, 0.0641184076666832, 0.03574981912970543, 0.11769935488700867, 0.007782788947224617, 0.04656011238694191, 0.08652062714099884, -0.049027591943740845, 0.16890884935855865, -0.007193585392087698, 0.12172679603099823, 0.09948264807462692, 0.06016112491488457, 0.10685745626688004, 0.060563825070858, 0.11746548861265182, -0.03191879391670227, -0.008807500824332237, 0.017263447865843773, -0.036166995763778687, 0.14558173716068268, -0.09421783685684204, 0.015811190009117126, 0.010110882110893726, -0.05452676862478256, -0.06918501108884811, -0.013283993117511272, 0.12486439198255539, -0.12289939075708389, 0.013952279463410378, -0.0017297774320468307, 0.036875929683446884, 0.062488824129104614, -0.08957824110984802, 0.04328428953886032, -0.10007748007774353, 0.08635018020868301, 0.21527263522148132, -0.16024249792099, 0.040543027222156525, 0.013808698393404484, 0.015359065495431423, -0.07763759791851044, -0.0005664459313265979, 0.3028533160686493, -0.08287184685468674, -0.1275588870048523, -0.028178976848721504, -0.2804701030254364, -0.02818112075328827, 0.013783265836536884, 0.33522093296051025, -0.20091740787029266, 0.06885571777820587, -0.02385575883090496, -0.24899588525295258, -0.21893969178199768, 0.1536894589662552, 0.41597121953964233, -0.2084788829088211, -0.010846883058547974, 0.042192280292510986, -0.18334005773067474, -0.33064818382263184, 0.1475963145494461, 0.40030741691589355, -0.05645666643977165, 0.16135120391845703, -0.07743429392576218, -0.14209453761577606, -0.1793522983789444, -0.03300410509109497, 0.22613117098808289, -0.11161834746599197, 0.09099503606557846, 0.01716836914420128, -0.44836941361427307, -0.13548894226551056, 0.09246718883514404, 0.03190768137574196, -0.01659722439944744, -0.020092127844691277, -0.025333579629659653, -0.46104952692985535, -0.1732487678527832, 0.009964060969650745, -0.06416124105453491, -0.06785885989665985, -0.050908830016851425, -0.056653931736946106, -0.46656957268714905, -0.05524345859885216, 0.10482817143201828, 0.05358154699206352, 0.117510586977005, -0.048691052943468094, 0.00791200902312994, -0.40986523032188416, 0.0015680858632549644, 0.10648665577173233, -0.0943290963768959, 0.061534859240055084, -0.0284801684319973, -0.08662436902523041, -0.07767999917268753, -0.12916119396686554, 0.1451466977596283, -0.10087388753890991, 0.19420374929904938, 0.021771904081106186, -0.0019514646846801043, -0.29728880524635315, -0.09461694955825806, 0.09043446183204651, -0.1495680958032608, 0.1699734926223755, -0.02060380019247532, -0.06517306715250015, -0.4595492482185364, -0.10757263004779816, 0.22121676802635193, -0.11329431086778641, 0.26550012826919556, -0.05015771463513374, 0.02567974478006363, -0.48952504992485046, -0.1288360059261322, 0.09100174903869629, -0.010225520469248295, -0.009056145325303078, -0.07833567261695862, -0.07139606028795242, -0.3299514055252075, -0.11604335159063339, -0.14075498282909393, -0.029939444735646248, -0.022895650938153267, -0.08233983814716339, 0.01566058211028576, -0.3501308560371399, -0.07138623297214508, 0.03355994075536728, -0.034193314611911774, 0.09004685282707214, 0.03867023438215256, -0.05055087432265282, -0.3107451796531677, -0.1090271919965744, 0.05378582328557968, 0.10136710852384567, -0.022647490724921227, -0.03343730792403221, 0.050889261066913605, -0.043397512286901474, 0.1175127774477005, 0.16355381906032562, 0.0649658739566803, 0.13422834873199463, -0.02285672351717949, 0.058804139494895935, -0.061475854367017746, -0.118375763297081, -0.0322270467877388, 0.08641690760850906, -0.14170071482658386, -0.030520768836140633, -0.05241277441382408, -0.08370722830295563, -0.10309041291475296, 0.02379446104168892, -0.06426426768302917, 0.0073717376217246056, -0.007159760221838951, -0.014931285753846169, 0.16959045827388763, -0.1162458211183548, 0.12386418879032135, 0.2832041084766388, -0.19654734432697296, 0.01597564108669758, -0.16399653255939484, 0.25819873809814453, -0.12996983528137207, -0.15442852675914764, -0.07118314504623413, -0.4627489447593689, 0.14867688715457916, -0.2733619213104248, 0.2466103881597519, -0.06267329305410385, 0.1223338320851326, 0.04043843597173691, -0.4844537377357483, -0.09863893687725067, -0.039457205682992935, 0.18589229881763458, -0.05492999404668808, 0.09935090690851212, -0.10642117261886597, -0.3152657449245453, 0.16867081820964813, -0.03586000204086304, 0.1726422905921936, -0.10013978183269501, -0.11534839868545532, 0.061753738671541214, -0.2711032032966614, 0.046105511486530304, 0.041007544845342636, 0.33144739270210266, -0.005961873568594456, 0.0036673264112323523, -0.04876628518104553, -0.31339991092681885, -0.03931322693824768, 0.04382907599210739, 0.31413254141807556, -0.05278593674302101, 0.03981709107756615, 0.09896443039178848, -0.3397815227508545, 0.04544850066304207, 0.013588294386863708, 0.2593212425708771, -0.17188793420791626, -0.08536440879106522, -0.313570499420166, -0.36106187105178833, -0.007862437516450882, 0.1202818900346756, 0.45778828859329224, -0.060826580971479416, -0.2921409606933594, -0.08743693679571152, -0.27690187096595764, -0.08244140446186066, -0.009063535369932652, 0.026759911328554153, 0.1932557076215744, -0.09285677969455719, 0.022950058802962303, -0.2488580048084259, 0.007685094606131315, -0.08285188674926758, -0.018625596538186073, 0.09724163264036179, -0.18868152797222137, 0.05724823847413063, -0.10087918490171432, -0.04998984932899475, -0.0898042619228363, 0.031671471893787384, -0.08345122635364532, -0.2580145001411438, -0.02091304399073124, -0.03520750254392624, 0.012903942726552486, 0.11323133111000061], [-0.5606234073638916, -0.059387266635894775, 0.08063134551048279, -0.132051482796669, -0.011392288841307163, 0.09818180650472641, -0.3824160695075989, -0.41471612453460693, -0.05051445960998535, 0.095028817653656, 0.013003733940422535, 0.05287953093647957, -0.04694368317723274, -0.15653195977210999, -0.11094359308481216, -0.053391002118587494, -0.04213322326540947, -0.004346203990280628, 0.10019862651824951, 0.06219467148184776, -0.057430218905210495, 0.24355937540531158, 0.08634867519140244, -0.011923195794224739, -0.008985265158116817, 0.27260822057724, 0.14415200054645538, -0.2495587021112442, 0.13054251670837402, 0.09365423023700714, -0.27730444073677063, 0.05589209869503975, 0.15216369926929474, 0.07460717111825943, -0.23696324229240417, 0.039888832718133926, 0.010075662285089493, -0.13568444550037384, 0.03825794905424118, 0.2312036007642746, 0.09972954541444778, -0.05685056373476982, 0.3330049216747284, -0.023821212351322174, -0.21090862154960632, 0.007131881546229124, 0.16453158855438232, 0.09829060733318329, 0.041345980018377304, 0.13858382403850555, -0.015714433044195175, -0.1337452530860901, 0.12809151411056519, 0.3453381657600403, 0.06561901420354843, 0.008413583040237427, 0.21788546442985535, 0.06137680634856224, -0.3087526857852936, -0.17127856612205505, 0.33789676427841187, -0.03532875329256058, -0.12759213149547577, 0.05581245198845863, 0.06209983304142952, -0.3906891644001007, -0.00672520836815238, 0.4313143491744995, -0.06174926459789276, -0.050767287611961365, 0.10423034429550171, 0.006313778925687075, -0.4433582127094269, -0.07080916315317154, 0.38239407539367676, -0.003113559680059552, 0.15946263074874878, 0.13122166693210602, 0.17818620800971985, -0.3624482750892639, -0.05281566455960274, 0.527870774269104, -0.07538175582885742, -0.01762797310948372, -0.12906455993652344, 0.2095501571893692, -0.53618323802948, 0.10963883250951767, 0.21625438332557678, -0.14098301529884338, 0.08325266093015671, 0.037064552307128906, 0.09209129214286804, -0.20021063089370728, 0.07650325447320938, 0.2808113992214203, -0.1607072949409485, -0.021814504638314247, 0.011351115070283413, -0.012845054268836975, -0.22643348574638367, -0.024274084717035294, 0.1564571112394333, -0.30540716648101807, 0.10994214564561844, -0.11504538357257843, 0.009268324822187424, -0.31266865134239197, -0.023259343579411507, 0.03904539346694946, -0.09573772549629211, 0.24820436537265778, -0.022816356271505356, -0.043513666838407516, -0.07658263295888901, 0.16511474549770355, 0.2563011050224304, -0.1042180210351944, 0.06088211387395859, -0.12439363449811935, 0.020833153277635574, 0.03501027822494507, 0.013004212640225887, 0.2389737069606781, -0.1653520166873932, -0.07085448503494263, -0.2828857898712158, -0.17991195619106293, -0.11588472127914429, -0.10987606644630432, 0.16228044033050537, -0.11142075061798096, 0.21725346148014069, -0.22242259979248047, -0.10172436386346817, 0.1416236162185669, 0.10833609104156494, -0.24206824600696564, -0.03909952938556671, 0.16145353019237518, -0.23492826521396637, -0.061517294496297836, 0.16686540842056274, 0.13403113186359406, -0.18339939415454865, -0.08104077726602554, -0.052550096064805984, -0.09353945404291153, -0.008610949851572514, 0.10791872441768646, -0.08475860208272934, -0.17887459695339203, -0.04558231309056282, -0.0638369619846344, -0.1642596274614334, -0.049285195767879486, 0.1707693338394165, -0.014559773728251457, 0.11721503734588623, -0.24926914274692535, -0.06693530082702637, -0.1447780430316925, -0.06635481864213943, 0.11196020245552063, 0.047208599746227264, -0.059594206511974335, -0.1599191129207611, 0.08547792583703995, -0.03508620709180832, -0.16403034329414368, 0.18801753222942352, 0.05151735618710518, -0.1116584986448288, -0.2015298306941986, -0.07478684931993484, -0.12838774919509888, -0.022359952330589294, -0.04106508940458298, 0.04463774338364601, -0.017698008567094803, -0.24884244799613953, 0.26313215494155884, -0.06824342906475067, -0.18806026875972748, -0.07362367957830429, 0.07513672858476639, 0.014727981761097908, -0.18814291059970856, 0.13304710388183594, 0.007276630494743586, 0.022233853116631508, -0.06291437149047852, 0.031301457434892654, -0.018695510923862457, -0.18491752445697784, 0.16095604002475739, -0.005636236164718866, -0.007907729595899582, -0.1278100460767746, -0.008932165801525116, 0.2879614531993866, -0.17616550624370575, 0.07661550492048264, -0.09226135164499283, -0.04981477931141853, 0.05067512392997742, -0.05220603942871094, 0.1696869432926178, -0.04221763461828232, 0.021481283009052277, -0.1294877529144287, -0.07470211386680603, 0.044450413435697556, 0.10404331982135773, 0.11786121129989624, -0.2770773470401764, -0.11841785162687302, -0.11947541683912277, -0.06368737667798996, 0.1932198405265808, 0.05748196691274643, -0.029412366449832916, -0.1814681738615036, -0.007273440714925528, -0.06885694712400436, -0.06618855893611908, 0.0646623745560646, 0.030904939398169518, -0.1377052217721939, -0.08023683726787567, -0.13288824260234833, -0.18989789485931396, -0.035495370626449585, 0.004901761654764414, -0.07150859385728836, 0.001589883235283196, -0.0809243768453598, 0.09333713352680206, -0.011552375741302967, 0.1119571328163147, -0.060571957379579544, 0.031065819784998894, -0.023065289482474327, -0.1374286711215973, -0.0801437571644783, 0.0622178353369236, -0.03926176577806473, -0.041355423629283905, 0.15431299805641174, -0.08465337008237839, -0.27714449167251587, -0.0017226481577381492, 0.0446331724524498, -0.05292214825749397, 0.07782600820064545, 0.07252504676580429, -0.13917818665504456, -0.2121824026107788, -0.1255815178155899, 0.28497403860092163, 0.1857842057943344, -0.2883763015270233, 0.07612371444702148, -0.09878309071063995, -0.13660435378551483, -0.10468567162752151, 0.10551771521568298, 0.1293887495994568, -0.2427310347557068, -0.0258848387748003, -0.007342495024204254, -0.11079901456832886, 0.04181120917201042, 0.098639115691185, 0.07606691867113113, -0.09620162844657898, -0.10616300255060196, 0.0015062944730743766, 0.08138171583414078, -0.08233214169740677, 0.22662240266799927, -0.038483839482069016, -0.17005036771297455, 0.1131427213549614, 0.05547367036342621, 0.10537025332450867, 0.15163905918598175, 0.05476975813508034, -0.023859741166234016, -0.12614719569683075, -0.14196009933948517, 0.051666561514139175, -0.026496080681681633, -0.12718641757965088, 0.03842002525925636, 0.08534365147352219, -0.2864782512187958, -0.11778654903173447, -0.06055360287427902, 0.057378318160772324, 0.00010674458462744951, 0.07519248872995377, 0.00762691255658865, -0.1488916575908661, 0.05808774381875992, 0.086815245449543, -0.029664456844329834, -0.11460115015506744, 0.1747729629278183, 0.111109159886837, -0.15852545201778412, -0.020306287333369255, -0.06681816279888153, 0.12318948656320572, -0.011346343904733658, -0.04315190762281418, -0.21139413118362427, -0.04066577926278114, -0.0005785088869743049, -0.08255705237388611, 0.2591591775417328, -0.02339821681380272, -0.31046709418296814, -0.011131403036415577, -0.06355211138725281, -0.011409332044422626, 0.019267680123448372, 0.23086673021316528, -0.09913987666368484, -0.5202003717422485, -0.11793078482151031, 0.1234980970621109, -0.0615692213177681, -0.05445990711450577, -0.06403344869613647, -0.34374335408210754, -0.1220785528421402, 0.004816698841750622, -0.19193729758262634, -0.31391459703445435, 0.9959326386451721], [0.07061933726072311, -0.16578169167041779, -0.06506616622209549, 0.014309829100966454, -0.018524790182709694, 0.17094598710536957, -0.31981322169303894, -0.01924857683479786, 0.010136125609278679, -0.21507211029529572, -0.041018128395080566, 0.04724009707570076, 0.06131406128406525, 0.10511181503534317, -0.060565244406461716, 0.07601010799407959, -0.3814495801925659, 0.12563660740852356, -0.019188260659575462, -0.08261526376008987, 0.05032803863286972, 0.10399183630943298, 0.1774427592754364, -0.6501942873001099, -0.018510963767766953, 0.03899938985705376, -0.07705039530992508, -0.05625957250595093, 0.059427112340927124, 0.1588660031557083, -0.5603891611099243, -0.0024668301921337843, 0.028406735509634018, -0.19864599406719208, 0.14968009293079376, 0.0664832592010498, 0.08558905869722366, -0.3744898736476898, 0.08550211787223816, 0.0789903998374939, -0.25149619579315186, 0.12077710777521133, 0.15280497074127197, 0.07017719000577927, -0.32524868845939636, -0.06109102442860603, 0.12877556681632996, -0.37187209725379944, 0.031481675803661346, 0.18533974885940552, 0.11551520973443985, -0.22982288897037506, -0.00487500848248601, 0.016211874783039093, -0.26640740036964417, 0.07044743001461029, 0.02804047428071499, -0.01046490017324686, -0.1532820612192154, 0.054563023149967194, -0.07591486722230911, -0.5041913986206055, 4.5881723053753376e-05, -0.014452263712882996, 0.04960058629512787, -0.08583804965019226, 0.06645405292510986, 0.06209047511219978, -0.7322753667831421, 0.027536286041140556, -0.20439745485782623, 0.01749485172331333, -0.10437183827161789, -0.13768748939037323, 0.013122554868459702, -0.6064948439598083, 0.04196074977517128, 0.031880591064691544, -0.127685084939003, 0.07701341807842255, 0.008336341939866543, -0.061716437339782715, -0.5524201989173889, -0.010232331231236458, -0.09954147785902023, -0.033887553960084915, 0.19706858694553375, -0.043372951447963715, 0.04128694906830788, -0.5163124799728394, 0.08197541534900665, 0.011647379025816917, 0.006822101306170225, 0.09889794886112213, 0.05992690101265907, -0.008428530767560005, -0.4568650722503662, -0.05732019990682602, 0.05146665871143341, -0.005886565428227186, 0.14609873294830322, -0.024275097995996475, -0.08869589120149612, -0.637733519077301, -0.07317431271076202, 0.0589277409017086, -0.05696845427155495, 0.07054315507411957, 0.04897279292345047, 0.10197639465332031, -0.770713210105896, -0.13884693384170532, 0.14800596237182617, -0.01881631650030613, 0.26434028148651123, -0.042447786778211594, -0.08310720324516296, -0.5688926577568054, -0.11205537617206573, 0.014977732673287392, -0.20255377888679504, 0.3025090992450714, -0.05622945725917816, -0.012429011054337025, -0.5533543825149536, -0.05873887985944748, -0.011866726912558079, -0.09587462991476059, 0.1892283707857132, 0.06490395218133926, 0.07193466275930405, -0.5162593722343445, -0.1755744218826294, -0.006019189953804016, -0.1818058043718338, 0.2788706123828888, 0.08082278072834015, 0.028034508228302002, -0.3783975839614868, -0.18107959628105164, -0.013140506111085415, 0.08300277590751648, 0.36520615220069885, -0.0712660551071167, 0.03771528601646423, -0.5289549827575684, -0.1396099328994751, 0.02971827983856201, -0.1694953739643097, 0.25256672501564026, -0.10004714131355286, 0.11755295842885971, -0.47748124599456787, -0.13772253692150116, 0.0036563826724886894, -0.1345258355140686, 0.17543639242649078, 0.028021471574902534, -0.05698511376976967, -0.303823858499527, -0.36768704652786255, 0.04129054769873619, -0.006279370281845331, 0.2992806136608124, 0.04040323570370674, -0.1116093248128891, -0.5591456890106201, -0.16833779215812683, 0.03100910782814026, -0.09869462996721268, 0.23513266444206238, 0.058794014155864716, -0.030401412397623062, -0.5191746354103088, -0.08954210579395294, 0.005555303767323494, -0.14179280400276184, 0.44283297657966614, 0.05990703031420708, 0.11188095062971115, -0.5267348289489746, -0.09301045536994934, 0.07138071209192276, -0.11689503490924835, 0.26764872670173645, 0.021397557109594345, -0.08326524496078491, -0.42607438564300537, -0.2067556083202362, 0.005106713622808456, -0.06413877010345459, 0.28788524866104126, -0.09968757629394531, -0.13936223089694977, -0.27998319268226624, -0.160344198346138, 0.15779897570610046, -0.05798054859042168, 0.3627164661884308, -0.14809276163578033, -0.03418801352381706, -0.5018053650856018, 0.038217201828956604, 0.028247732669115067, -0.1334650218486786, 0.14668099582195282, 0.03787476569414139, 0.08035075664520264, -0.1675662249326706, -0.14189161360263824, 0.016545001417398453, -0.12326475232839584, 0.13425442576408386, -0.03321355581283569, 0.12341228127479553, -0.2844559848308563, 0.03580983728170395, -0.1104787066578865, -0.01595897041261196, -0.059739332646131516, 0.11139614135026932, 0.010569622740149498, -0.26291802525520325, -0.017904013395309448, 0.01564687304198742, -0.05759589374065399, -0.056221358478069305, -0.16932694613933563, -0.23889848589897156, -0.21816396713256836, 0.1606089323759079, -0.08676586300134659, -0.029045986011624336, -0.0961996391415596, -0.04718584194779396, -0.18212144076824188, -0.14394190907478333, 0.07911672443151474, -0.10445726662874222, 0.05131503567099571, -0.024262413382530212, 0.13936494290828705, -0.4201304018497467, -0.18176086246967316, 0.19187238812446594, -0.09662318229675293, 0.12338918447494507, -0.17373789846897125, -0.09583338350057602, -0.5365935564041138, -0.4863321781158447, 0.18848298490047455, -0.05000871792435646, 0.10957091301679611, -0.16966457664966583, -0.05282916501164436, -0.35243096947669983, -0.4092947840690613, 0.25431931018829346, -0.08925309032201767, 0.21059003472328186, -0.2856109142303467, 0.01499740220606327, -0.172694593667984, -0.21810448169708252, 0.13566365838050842, 0.026995118707418442, 0.1377989500761032, -0.31283193826675415, -0.056104108691215515, -0.014601320028305054, -0.269030898809433, -0.04314650222659111, 0.05876243859529495, 0.05743633955717087, -0.514914333820343, -0.07293474674224854, -0.027936113998293877, -0.16931520402431488, -0.0999833270907402, -0.0012157978489995003, 0.24315960705280304, -0.45776063203811646, 0.018106680363416672, -0.04400942474603653, 0.052646659314632416, -0.056414443999528885, 0.11822686344385147, 0.23442235589027405, -0.6135721206665039, -0.15628769993782043, 0.07651933282613754, -0.0011394878383725882, -0.1421874463558197, 0.10643769800662994, 0.2520831823348999, -0.44117167592048645, -0.09936585277318954, 0.058479852974414825, 0.19682522118091583, -0.3645821809768677, -0.02219836600124836, 0.0831407830119133, -0.6273719072341919, 0.017133234068751335, -0.0007183311390690506, 0.2151794284582138, -0.47437235713005066, 0.13221929967403412, 0.13274195790290833, -0.4686237573623657, 0.04553333297371864, 0.13213999569416046, 0.39774182438850403, -0.15402844548225403, 0.07762766629457474, -0.04418317601084709, -0.3578444719314575, -0.03675093874335289, -0.10249268263578415, 0.23648881912231445, -0.12063691765069962, 0.04144367575645447, -0.23354780673980713, -0.35465213656425476, -0.0436776764690876, -0.050223466008901596, 0.32504066824913025, -0.5705115795135498, 0.14347907900810242, -0.35325008630752563, -0.3052598237991333, 0.0005272062844596803, 0.045037731528282166, 0.350253701210022, -0.47162631154060364, 0.07226599007844925, 0.055719468742609024, -0.6950874924659729, 0.5488505363464355, 0.3503696322441101], [-0.30171263217926025, -0.05077620968222618, 0.1753162294626236, 0.005706602241843939, -0.16288483142852783, -0.015259208157658577, 0.3988741934299469, -0.30659475922584534, -0.011158333159983158, 0.3966499865055084, 0.10984671115875244, -0.13162468373775482, -0.07665245234966278, 0.3438691198825836, -0.23199893534183502, 0.09503152966499329, -0.06917022168636322, -0.0020995899103581905, -0.08367965370416641, -0.051188137382268906, 0.37581557035446167, -0.3552904427051544, 0.040428511798381805, -0.298749715089798, 0.09892259538173676, -0.08317027240991592, -0.09257838129997253, 0.43708163499832153, -0.2112404853105545, -0.07162031531333923, -0.2753024697303772, 0.009248294867575169, -0.08042959868907928, -0.21748314797878265, 0.14906495809555054, 0.002606400055810809, -0.06913197785615921, -0.346008837223053, -0.043180469423532486, -0.022012660279870033, -0.11790619790554047, -0.0025129104033112526, -0.0649908035993576, -0.16682542860507965, -0.10994068533182144, 0.10880033671855927, -0.04847449064254761, 0.2479158490896225, -0.05869380012154579, -0.07647325843572617, -0.05174712464213371, -0.1254531443119049, 0.16016435623168945, -0.040595732629299164, 0.4027557969093323, 0.017827320843935013, 0.01641538180410862, -0.10718448460102081, -0.1194576695561409, -0.05781858041882515, -0.015246590599417686, 0.029702862724661827, -0.009874297305941582, 0.08762335032224655, -0.02178177237510681, -0.18768514692783356, -0.017082424834370613, 0.037918828427791595, 0.15363994240760803, 0.08981943875551224, 0.14979277551174164, 0.04336462914943695, -0.19651338458061218, -0.05523968115448952, 0.07423865050077438, 0.06069297343492508, 0.13216634094715118, -0.07559602707624435, 0.08923959732055664, -0.25181955099105835, 0.016633182764053345, 0.0075604235753417015, 0.2514165937900543, 0.10724735260009766, -0.08212495595216751, -0.049416616559028625, -0.13873374462127686, 0.1361997276544571, -0.019079187884926796, 0.10865692049264908, 0.01056620478630066, 0.1199333667755127, -0.14059729874134064, -0.11189273744821548, -0.05778459087014198, -0.019000744447112083, 0.1801731437444687, -0.09352684020996094, -0.018166983500123024, -0.024605687707662582, -0.02453797310590744, -0.02263008803129196, -0.030561236664652824, 0.040441323071718216, 0.010601834394037724, -0.07483702152967453, -0.18725794553756714, -0.21059781312942505, 0.02237890101969242, -0.059858858585357666, 0.1320018619298935, -0.12994347512722015, 0.014426824636757374, -0.0918654352426529, -0.12568876147270203, 0.03334580734372139, -0.011340751312673092, 0.0660005733370781, -0.05390099436044693, 0.04911654070019722, 0.05098521336913109, 0.02877957373857498, 0.029748301953077316, 0.03446180000901222, 0.11152444034814835, 0.01706632971763611, 0.023520521819591522, -0.009403201751410961, -0.10067926347255707, 0.009763824753463268, 0.09921213984489441, 0.1282726377248764, 0.00011012434697477147, -0.05574827641248703, -0.01496958453208208, -0.03478657826781273, 0.018341299146413803, 0.05125866085290909, -0.016646021977066994, -0.0888533815741539, -0.017108140513300896, 0.06454402953386307, -0.00510955648496747, 0.020234806463122368, -0.009546491317451, 0.156688392162323, -0.02956918254494667, 0.05602120980620384, 0.03543282672762871, -0.041971419006586075, -0.09117282181978226, 0.05206446722149849, 0.05721701681613922, -0.057902272790670395, 0.02092534303665161, 0.15615493059158325, -0.032363828271627426, -0.10557921230792999, 0.00739087862893939, -0.017607368528842926, -0.04938264936208725, -0.009846889413893223, 0.01803555339574814, -0.18165375292301178, 0.03323075920343399, 0.032355308532714844, 0.0823674350976944, -0.08321882784366608, 0.03945784270763397, 0.1496599167585373, -0.06704053282737732, 0.007897483184933662, 0.03779735788702965, 0.2399130016565323, -0.02938167378306389, 0.09206036478281021, 0.05213989317417145, -0.05692070350050926, -0.019933896139264107, 0.03198136016726494, 0.21007832884788513, -0.11346420645713806, 0.12013734877109528, 0.13771763443946838, 0.031039904803037643, -0.10053128749132156, 0.14916668832302094, 0.1654338240623474, -0.10849283635616302, -0.04424603283405304, 0.1089671328663826, -0.07630591839551926, -0.16172626614570618, 0.497509628534317, 0.19406016170978546, -0.18287262320518494, 0.03218384087085724, 0.09984476119279861, -0.004091623239219189, -0.022168094292283058, 0.1514453887939453, 0.1384497433900833, -0.15424133837223053, -0.011795840226113796, 0.06825056672096252, -0.03219213709235191, 0.12317003309726715, 0.03811090067028999, 0.17539238929748535, -0.3170798718929291, 0.045009251683950424, 0.12536850571632385, 0.0597219318151474, 0.0032189039047807455, 0.14602048695087433, 0.19517678022384644, -0.21792249381542206, 0.01807824894785881, 0.09222383052110672, 0.06002404913306236, 0.017576755955815315, -0.09662705659866333, 0.2822263836860657, -0.2349885106086731, 0.022015700116753578, 0.10715749859809875, 0.05985817685723305, 0.009495159611105919, 0.13291576504707336, 0.09095411002635956, -0.256264865398407, 0.02707134746015072, 0.1168469712138176, 0.06187622249126434, -0.14929825067520142, 0.09106779098510742, 0.26405662298202515, -0.2503339350223541, -0.03140294924378395, 0.28490743041038513, 0.08854755014181137, -0.10477662831544876, 0.06262123584747314, 0.13261695206165314, -0.2931554317474365, -0.16382189095020294, 0.1491478830575943, -0.007529199589043856, -0.1408521980047226, -0.022271301597356796, 0.19633892178535461, -0.271116703748703, -0.2203359752893448, 0.15534837543964386, 0.0256569292396307, -0.0793856605887413, 0.07581895589828491, 0.3394832909107208, -0.3529474437236786, -0.34720203280448914, 0.2251443862915039, 0.026696134358644485, -0.007783021777868271, -0.06307324022054672, 0.37821948528289795, -0.3174470365047455, -0.37432289123535156, 0.10571835935115814, 0.015474709682166576, -0.08075825870037079, -0.07244241237640381, 0.4585514962673187, -0.16060896217823029, -0.36700141429901123, 0.02527448534965515, -0.013431285507977009, 0.020821625366806984, -0.015885261818766594, 0.3703230917453766, -0.11278705298900604, -0.34411633014678955, 0.07043413817882538, 0.10484214127063751, -0.1606776863336563, -0.05351017415523529, 0.45163366198539734, -0.13391004502773285, -0.24882251024246216, 0.033958420157432556, 0.000260682194493711, -0.13532987236976624, -0.031885839998722076, 0.451394259929657, -0.15975192189216614, -0.10584543645381927, -0.12976282835006714, -0.094293013215065, -0.07348752021789551, 0.004560123197734356, 0.3616032302379608, -0.06356486678123474, -0.03405433148145676, -0.06463315337896347, -0.19458848237991333, -0.12285934388637543, -0.04097035899758339, 0.23795239627361298, 0.09070461988449097, 0.03393368795514107, -0.19728757441043854, -0.008193680085241795, -0.027677295729517937, -0.045208148658275604, 0.2692548930644989, 0.08074617385864258, 0.17089399695396423, -0.11678402870893478, 0.004967064131051302, 0.013967247679829597, 0.003345283679664135, 0.16268672049045563, 0.2569146454334259, -0.04833259433507919, -0.07645220309495926, 0.11108819395303726, -0.006666878703981638, 0.01821117103099823, 0.11543598771095276, 0.3785155117511749, -0.3145345151424408, -0.0038469466380774975, 0.006307395175099373, -0.0071673146449029446, -0.07356282323598862, 0.13463442027568817, 0.37045881152153015, -0.35965126752853394, -0.07753375172615051, -0.0010539009235799313, -0.22784653306007385, 0.3880813717842102], [0.04642222821712494, 0.05246567726135254, 0.5439966320991516, 0.0005003436817787588, -0.02184106409549713, -0.14757949113845825, 0.06082289665937424, -0.005345859099179506, 0.053435780107975006, 0.43382155895233154, 0.003889689454808831, -0.0848524197936058, 0.00284395064227283, -0.16781660914421082, -0.009479670785367489, 0.1542242467403412, 0.44031813740730286, -0.05260491371154785, -0.12977337837219238, -0.036738574504852295, -0.21204140782356262, 0.09526637196540833, 0.07100436091423035, 0.13655127584934235, -0.07514537125825882, -0.1330864578485489, 0.09750442206859589, -0.06165595352649689, -0.076889269053936, 0.04452354460954666, 0.06676460802555084, 0.12374380975961685, -0.18095336854457855, 0.1606474220752716, -0.0851316824555397, -0.05867922306060791, -0.013218339532613754, -0.118914395570755, 0.1247050017118454, -0.15993443131446838, -0.16194911301136017, 0.10474497079849243, -0.24146537482738495, -0.10380169004201889, -0.008270000107586384, -0.05654953792691231, -0.2602522373199463, -0.023026611655950546, 0.08485369384288788, -0.20907241106033325, -0.05043631047010422, -0.13800488412380219, 0.008701655082404613, -0.29494184255599976, -0.1739215850830078, 0.15081487596035004, -0.1476992517709732, 0.028029339388012886, -0.16759437322616577, 0.0688990131020546, -0.1580093652009964, -0.1100170686841011, 0.14112353324890137, -0.0008132205111905932, -0.01581219956278801, -0.29282301664352417, 0.025936830788850784, -0.28395599126815796, -0.04394320026040077, 0.12619367241859436, -0.044298067688941956, 0.1920374482870102, -0.5136033296585083, 0.05131194740533829, -0.25105002522468567, -0.11883608996868134, 0.25656387209892273, -0.07518117129802704, 0.19583739340305328, -0.7514216303825378, -0.06196756288409233, -0.17192421853542328, 0.07096657156944275, 0.20196467638015747, 0.05780606344342232, 0.2546258866786957, -0.799244225025177, 0.04515593871474266, -0.06392873078584671, -0.03136853128671646, 0.24139663577079773, -0.03739815205335617, 0.2573639154434204, -0.4122315049171448, 0.022508487105369568, -0.18692804872989655, -0.0643257275223732, 0.1679644137620926, 0.08343306183815002, 0.03818974643945694, -0.18898703157901764, -0.09012763947248459, -0.038774725049734116, -0.12785039842128754, -0.055111415684223175, 0.07746212929487228, 0.14196448028087616, 0.20371288061141968, 0.009618065319955349, 0.09826407581567764, 0.01080334186553955, -0.15064112842082977, 0.05344536900520325, -0.05475352331995964, -0.13981430232524872, -0.07721178978681564, 0.2229669839143753, -0.033900968730449677, -0.03253510594367981, 0.012634877115488052, 0.192388653755188, -0.07251845300197601, 0.09338810294866562, -0.1754302978515625, -0.031637292355298996, 0.04726739600300789, -0.025895819067955017, 0.118560291826725, -0.15838868916034698, 0.0319175198674202, -0.108738973736763, 0.10897595435380936, 0.010524681769311428, -0.07231976836919785, 0.009775654412806034, -0.15506945550441742, -0.06890397518873215, 0.07848373055458069, -0.011769742704927921, 0.015583507716655731, -0.0026361513882875443, 0.04038077965378761, -0.18592514097690582, -0.10677578300237656, -0.17647728323936462, -0.02096353843808174, 0.10005535185337067, -0.12682034075260162, 0.20231673121452332, -0.320194274187088, 0.0413295216858387, -0.11104664206504822, -0.08495631814002991, 0.017489353194832802, 0.1393384337425232, 0.09159024804830551, -0.38552913069725037, 0.09177370369434357, 0.06427803635597229, -0.02679842710494995, 0.08213263750076294, 0.02334159053862095, 0.16682001948356628, -0.1589810699224472, 0.1364205777645111, -0.037082262337207794, 0.04608386382460594, 0.06647393852472305, -0.042607177048921585, 0.0735791027545929, -0.3050675392150879, 0.05323532968759537, -0.1357657015323639, 0.04902133718132973, 0.04881327226758003, 0.03531018644571304, 0.04331125319004059, -0.07036379724740982, -0.09373114258050919, -0.06058463454246521, -0.21945008635520935, 0.2423998862504959, 0.11878080666065216, 0.08419296890497208, -0.16655749082565308, 0.09965454787015915, -0.0006719850352965295, -0.09838278591632843, -0.03366474062204361, -0.02591746300458908, 0.03318034112453461, -0.128064826130867, -0.01038067415356636, -0.0637521967291832, -0.04027619585394859, 0.17652380466461182, -0.010307492688298225, -0.1235985979437828, -0.24794189631938934, 0.04500865936279297, 0.22829578816890717, 0.11439819633960724, 0.040923070162534714, -0.0934453085064888, 0.1069410964846611, 