{"schema_version": 1, "metadata": {"global_step": 32534528, "run_name": "v102_b2beta", "obs_size": 341, "hidden_size": 64, "action_space_size": 18}, "weights": {"fc1.weight": [[0.25723522901535034, -0.06612386554479599, -0.032469987869262695, -0.054915718734264374, 0.08354315161705017, -0.03734113276004791, -0.12299773842096329, 0.1510438323020935, 0.02605634182691574, -0.16601862013339996, -0.01894732192158699, 0.03904946893453598, -0.15166324377059937, 0.025364354252815247, 0.13870809972286224, 0.17513149976730347, -0.03382798656821251, -0.10491219907999039, -0.029774408787488937, -0.06660452485084534, -0.44817832112312317, 0.2183545082807541, -0.13549381494522095, -0.02355988509953022, 0.044964734464883804, -0.039000678807497025, 0.008741982281208038, -0.15990585088729858, 0.17547957599163055, -0.04852406308054924, -0.12444279342889786, 0.21999728679656982, 0.05703651160001755, -0.1802346408367157, 0.03953203931450844, 0.12775366008281708, -0.0578388087451458, -0.07799796760082245, -0.037794485688209534, 0.2020055502653122, 0.06093147397041321, -0.053005486726760864, 0.1551191210746765, -0.11845863610506058, -0.11118219792842865, -0.09872739762067795, 0.09743368625640869, 0.17587313055992126, 0.042425092309713364, 0.0339534655213356, 0.14148320257663727, -0.11632883548736572, -0.016150062903761864, 0.015686159953475, 0.10868822038173676, -0.10776382684707642, 0.20506088435649872, 0.07694028317928314, -0.39638862013816833, 0.18757782876491547, 0.0035025589168071747, -0.017527958378195763, -0.1536225527524948, 0.07708215713500977, -0.048857156187295914, -0.21079517900943756, -0.07957407832145691, 0.08569260686635971, 0.2322448194026947, 0.057640790939331055, 0.09004545211791992, -0.08930403739213943, -0.11941748112440109, 0.05782438814640045, -0.07527588307857513, 0.10563033819198608, -0.1205771192908287, 0.09803503006696701, 0.22880950570106506, -0.23522277176380157, -0.012726463377475739, 0.21514630317687988, 0.1618485450744629, 0.021672945469617844, 0.18406713008880615, -0.022850004956126213, -0.14148801565170288, -0.0410986989736557, 0.013761178590357304, -0.033633917570114136, -0.012700819410383701, 0.2583630681037903, 0.02571161836385727, -0.1710960566997528, 0.009255492128431797, 0.14565509557724, 0.13001933693885803, 0.03442623093724251, 0.22467520833015442, 0.006090689916163683, -0.17882195115089417, 0.17201298475265503, 0.09902611374855042, 0.020908484235405922, 0.05584396421909332, 0.006720236036926508, -0.12646029889583588, -0.23055481910705566, -0.11867991834878922, -0.036188285797834396, 0.1287696361541748, 0.05278963968157768, 0.015915723517537117, -0.05536822974681854, -0.14570826292037964, 0.16302445530891418, 0.03925132006406784, 0.012301682494580746, -0.08046435564756393, 0.17182603478431702, 0.0027277502231299877, -0.0090714730322361, -0.04967937991023064, -0.08022918552160263, 0.11022359132766724, -0.05330421030521393, 0.026905285194516182, 0.0903157889842987, 0.03974197804927826, 0.028448719531297684, 0.05294624716043472, -0.06075568497180939, -0.059051744639873505, 0.08527331799268723, -0.21028336882591248, -0.08720380812883377, -0.025379730388522148, -0.038192760199308395, -0.007125030737370253, 0.007246177643537521, 0.07900926470756531, 0.05148392543196678, -0.017082879319787025, -0.048978857696056366, 0.04168969765305519, 0.011306799948215485, -0.11094783246517181, -0.00046798825496807694, -0.0542762465775013, -0.1497296690940857, 0.1968642771244049, 0.05713650584220886, -0.21223381161689758, 0.06605825573205948, 0.0031252733897417784, -0.06903938204050064, 0.06717640161514282, 0.14844629168510437, -0.14046227931976318, -0.28720229864120483, 0.14769494533538818, 0.1502484679222107, 0.08364257216453552, -0.1276351362466812, 0.037174053490161896, -0.0013022624189034104, -0.5042114853858948, 0.2860668897628784, -0.03846597298979759, -0.023442676290869713, -0.15112465620040894, 0.11063992977142334, -0.2617754638195038, -0.5137890577316284, 0.12571479380130768, 0.08333054184913635, -0.005531917326152325, -0.05972335487604141, 0.032530587166547775, -0.477340430021286, -0.7598154544830322, 0.14370191097259521, -0.11910633742809296, 0.11722720414400101, -0.1460280865430832, 0.005515762604773045, -0.4709570109844208, -0.88118577003479, 0.07645060122013092, -0.07499060034751892, -0.07193394750356674, -0.10146203637123108, -0.008217346854507923, 0.00815918855369091, -0.8326732516288757, 0.08098454773426056, 0.005233843810856342, -0.0801345556974411, -0.05921119078993797, 0.025151744484901428, -0.01327885128557682, -0.8285902142524719, 0.10391071438789368, 0.006712400354444981, 0.11735103279352188, -0.1525852531194687, -0.03371693193912506, -0.2518356442451477, -0.7827744483947754, 0.10117941349744797, 0.011177683249115944, 0.12923657894134521, -0.10715717822313309, -0.13780483603477478, -0.2104225605726242, -0.7056455016136169, 0.15425194799900055, 0.014941437169909477, 0.07769299298524857, -0.20861245691776276, -0.020384829491376877, -0.28573423624038696, -0.5035862922668457, 0.15795761346817017, 0.04387039318680763, 0.037098221480846405, -0.19429689645767212, -0.07783439755439758, -0.47013774514198303, -0.5492088794708252, 0.18012042343616486, 0.10486207157373428, 0.1483822613954544, -0.16597740352153778, -0.16065534949302673, -0.17422151565551758, -0.351174533367157, 0.08958440274000168, 0.27927646040916443, 0.012137708254158497, -0.16732345521450043, -0.11362965404987335, -0.2102857083082199, -0.24718426167964935, 0.06302937120199203, 0.02278151735663414, 0.04971294105052948, -0.27666419744491577, 0.06540762633085251, 0.028015585616230965, -0.27401861548423767, 0.21983468532562256, 0.21909762918949127, 0.10894231498241425, -0.05737302452325821, 0.00810005608946085, -0.22744500637054443, -0.27200573682785034, 0.1618613302707672, 0.11798181384801865, 0.07881755381822586, -0.3415142595767975, -0.05229395255446434, -0.06482383608818054, -0.2101309597492218, 0.041001446545124054, 0.09973805397748947, 0.008474843576550484, -0.30930936336517334, -0.021722208708524704, -0.27409353852272034, -0.19775737822055817, 0.15455327928066254, 0.016112767159938812, 0.057753968983888626, -0.2980705499649048, -0.060309819877147675, -0.11973690986633301, 0.03452612832188606, 0.08507785201072693, 0.07666511833667755, -0.07688436657190323, -0.19536393880844116, 0.02495807595551014, -0.04685864597558975, 0.1649034023284912, -0.03476333245635033, 0.012180761434137821, 0.04933837056159973, -0.5478870868682861, 0.08462193608283997, -0.021774614229798317, 0.026367558166384697, -0.12290932238101959, -0.03314102813601494, 0.0608786977827549, -0.3207266330718994, 0.025898244231939316, 0.24333275854587555, 0.10043704509735107, -0.018242044374346733, 0.20047412812709808, 0.08566277474164963, -0.3755221664905548, 0.007818708196282387, -0.0401952862739563, 0.12409930676221848, 0.14655078947544098, 0.07469888776540756, -0.00790299754589796, -0.3745570778846741, 0.028095463290810585, -0.04317878931760788, 0.13941694796085358, 0.1380399912595749, -0.1882338523864746, -0.041097164154052734, -0.015580559149384499, -0.05780032277107239, 0.010292674414813519, 0.04596172273159027, 0.320656955242157, 0.11940931528806686, 0.010100157000124454, -0.1302690953016281, -0.06586486846208572, 0.08563049882650375, 0.10969018191099167, -0.2612338960170746, -0.03181606903672218, -0.17492340505123138, -0.07974227517843246, 0.028232092037796974, 0.09203314781188965, 0.06099376082420349, -0.37790197134017944, -0.05834770202636719, 0.247019425034523, 0.7094550728797913, -0.140520840883255, 0.7451899647712708], [-0.1396075040102005, 0.06315013766288757, -0.04275321215391159, -0.09144371002912521, 0.12349645793437958, -0.004825395066291094, -0.18595615029335022, -0.1543440818786621, -0.09972772002220154, -0.015208074823021889, 0.08236707001924515, -0.016751881688833237, -0.04564381763339043, -0.01804378814995289, -0.004368881694972515, 0.09045787155628204, -0.003032263368368149, 0.026701979339122772, 0.1433676928281784, -0.09737430512905121, -0.07706006616353989, 0.04587261378765106, 0.18874143064022064, -0.09840992093086243, -0.07806600630283356, 0.17777922749519348, -0.14262515306472778, -0.14862629771232605, 0.12351280450820923, 0.19526833295822144, -0.011572755873203278, 0.047376859933137894, 0.15892110764980316, -0.03854198753833771, -0.07685534656047821, 0.010857658460736275, -0.09689781069755554, 0.05020029470324516, -0.029537495225667953, 0.09548924118280411, -0.05035237595438957, 0.009249315597116947, 0.19015352427959442, 0.10053099691867828, -0.21755434572696686, 0.04235531762242317, -0.000686763203702867, -0.07386861741542816, -0.01071410533040762, 0.18666690587997437, 0.24506978690624237, -0.23126187920570374, 0.06037486344575882, 0.05012921243906021, -0.026816707104444504, -0.009443337097764015, 0.2642947733402252, 0.18184764683246613, -0.4041328430175781, 0.01251243520528078, -0.01702391728758812, 0.03344923257827759, 0.03870513290166855, 0.09289881587028503, -0.08784633874893188, -0.23457393050193787, -0.046092402189970016, 0.14888866245746613, 0.28188401460647583, -0.12774154543876648, 0.06431607902050018, 0.02918071672320366, -0.45100998878479004, 0.02783999964594841, 0.12343502789735794, -0.05714784935116768, 0.13084776699543, 0.12378232181072235, 0.07772321254014969, -0.5137584805488586, -0.028499219566583633, 0.18187792599201202, 0.1810464859008789, 0.13505452871322632, -0.13033854961395264, 0.1462538242340088, -0.45078909397125244, -0.005420919973403215, -0.06009169667959213, 0.3175724446773529, 0.11679675430059433, 0.07538320124149323, 0.06948772817850113, -0.5875470638275146, -0.1722412407398224, -0.09783294796943665, 0.1520630270242691, 0.11960215121507645, -0.039950039237737656, 0.24404311180114746, -0.4809326231479645, -0.03249431028962135, -0.12849274277687073, 0.057631418108940125, 0.013763445429503918, 0.03405675292015076, 0.012731354683637619, -0.5759633779525757, -0.014233698137104511, 0.16713657975196838, 0.2551209628582001, 0.10266263782978058, 0.0818980261683464, 0.32133403420448303, -0.5323535203933716, -0.02567887492477894, 0.03889336436986923, 0.08379088342189789, 0.04627568647265434, -0.10738828778266907, 0.06560209393501282, -0.4321041703224182, 0.1438455730676651, -0.09799187630414963, 0.21192654967308044, 0.20287497341632843, 0.05100273713469505, 0.03558942675590515, -0.4365760087966919, -0.14667335152626038, 0.04282805696129799, 0.20594331622123718, 0.282278835773468, -0.014076475985348225, 0.03470025584101677, -0.4912828803062439, -0.10775063931941986, 0.002453606342896819, 0.10953044146299362, 0.24419088661670685, -0.03351603075861931, 0.09252189099788666, -0.5317155718803406, -0.049182046204805374, 0.03958405181765556, 0.11730766296386719, 0.4092780649662018, -0.05716698244214058, 0.01845170184969902, -0.3526768386363983, -0.053565409034490585, 0.2071639597415924, 0.08133883774280548, 0.327041357755661, -0.06499982625246048, 0.06005728244781494, -0.019279493018984795, 0.00046894553815945983, -0.07441932708024979, 0.09349841624498367, 0.036501750349998474, 0.022841868922114372, 0.07394987344741821, -0.0712176188826561, 0.03143664449453354, 0.05167405307292938, -0.19119709730148315, -0.20628581941127777, -0.10413223505020142, -0.09083479642868042, 0.2532833516597748, 0.0217220950871706, 0.05669533833861351, -0.25759318470954895, 0.023871412500739098, -0.09914552420377731, -0.2001325935125351, -0.009991503320634365, -0.05759405344724655, -0.15542970597743988, -0.02403872460126877, 0.017580104991793633, -0.11748983711004257, -0.19578298926353455, -0.0022103372029960155, 0.020753249526023865, 0.028862735256552696, 0.02355852723121643, -0.0967654213309288, -0.0790117159485817, -0.08234913647174835, -0.018261661753058434, 0.004522170405834913, -0.05386947840452194, -0.051000285893678665, 0.06913502514362335, -0.03411095589399338, -0.0028548783157020807, -0.11177284270524979, 0.04773859307169914, -0.15122713148593903, -0.1894601285457611, -0.03700951486825943, -0.09448625147342682, -0.09031983464956284, -0.0907522514462471, 0.06259340792894363, 0.049286339432001114, -0.10082381963729858, 0.03183179348707199, -0.2421940714120865, -0.2419108748435974, 0.15037032961845398, -0.22807128727436066, 0.12813402712345123, -0.2049899697303772, 0.01411638967692852, 0.005682722665369511, -0.1323992758989334, 0.08238925784826279, 0.06958667188882828, -0.14281100034713745, 0.13323357701301575, -0.004307630937546492, -0.23637183010578156, -0.11512236297130585, 0.00904255360364914, 0.10477858036756516, -0.19676366448402405, -0.046275246888399124, -0.11236853897571564, -0.28766411542892456, -0.12298598140478134, 0.2824084758758545, 0.08446264266967773, -0.19429314136505127, -0.06710157543420792, -0.07452671229839325, -0.03367261961102486, -0.22761133313179016, 0.13541549444198608, -0.10208595544099808, -0.09498471766710281, 0.04316519945859909, 0.03169462829828262, 0.04447812959551811, 0.08277972787618637, 0.22419415414333344, -0.18415658175945282, -0.24383290112018585, -0.07924557477235794, 0.03956203535199165, -0.1151723861694336, 0.0967467650771141, 0.2245255559682846, -0.11843027919530869, -0.3488556146621704, -0.07046451419591904, -0.03141332045197487, -0.18635962903499603, -0.04004132002592087, 0.24565523862838745, 0.09906752407550812, 0.2868709862232208, -0.1664266735315323, -0.061513129621744156, -0.17435187101364136, -0.1885843575000763, 0.1858820617198944, 0.024585800245404243, 0.2573888301849365, -0.13389503955841064, -0.04392681270837784, -0.12920956313610077, -0.1368541717529297, 0.1365807205438614, 0.07016868889331818, 0.07333081215620041, -0.05875031650066376, 0.22046084702014923, -0.048827484250068665, -0.2327612340450287, 0.20967060327529907, 0.05995814874768257, -0.20396314561367035, -0.2517949938774109, 0.1809268295764923, -0.052094534039497375, -0.14447762072086334, 0.2792944610118866, 0.01809859275817871, 0.07256161421537399, -0.09988643229007721, 0.12250211834907532, -0.03244074061512947, -0.2320006787776947, 0.2433192878961563, 0.062062643468379974, -0.1288394182920456, -0.13464803993701935, 0.3505091965198517, 0.03127787634730339, -0.14883095026016235, 0.30096200108528137, -0.07792642712593079, -0.07058779150247574, -0.32675254344940186, 0.16163411736488342, 0.20076599717140198, 0.08057934790849686, 0.10666535049676895, 0.07163932174444199, -0.15663458406925201, -0.17135347425937653, 0.3814302682876587, 0.21536076068878174, -0.048684652894735336, 0.1920255869626999, -0.1262567788362503, -0.04384568706154823, 0.047928620129823685, 0.3292325735092163, 0.18093964457511902, 0.06946104019880295, 0.018003644421696663, -0.03648635745048523, -0.018385548144578934, -0.06783796846866608, 0.30110567808151245, -0.06562253832817078, -0.1425180584192276, -0.08867301791906357, 0.09923943877220154, 0.017345068976283073, -0.1018994003534317, 0.4256121814250946, -0.29662850499153137, 0.3299550414085388, -0.6929449439048767, 0.3850797712802887, -0.3662548065185547], [0.389193058013916, 0.006344684399664402, 0.21197518706321716, 0.010060099884867668, -0.2021269053220749, 0.04255565628409386, 0.0579066202044487, 0.1507188081741333, 0.052803315222263336, 0.15952815115451813, 0.043199822306632996, -0.1029227152466774, 0.03930645063519478, 0.00889267772436142, -0.20798654854297638, 0.07407593727111816, 0.15154872834682465, 0.06300079822540283, -0.12013851851224899, -0.09747514873743057, 0.1714254468679428, 0.05647020414471626, 0.09239032864570618, 0.006194193381816149, -0.1000923365354538, -0.05918541178107262, -0.06358066946268082, 0.014703599736094475, 0.14142204821109772, 0.1977791041135788, -0.18130917847156525, -0.07592672854661942, -0.25493910908699036, -0.15272752940654755, 0.07290857285261154, 0.21932469308376312, 0.05029352381825447, -0.28440579771995544, -0.12388496100902557, 0.028957821428775787, -0.13007637858390808, -0.17846357822418213, 0.23980556428432465, 0.0633854866027832, -0.05851257964968681, 0.10511364042758942, 0.03797054663300514, -0.04097913205623627, -0.07997648417949677, 0.2898137867450714, 0.1756591498851776, -0.1653352826833725, 0.08069762587547302, 0.007339415606111288, -0.11071984469890594, 0.10486703366041183, 0.06533494591712952, 0.07632479816675186, -0.19353051483631134, 0.06563236564397812, -0.07331687957048416, -0.006924963556230068, -0.09749900549650192, 0.16368894279003143, 0.05125301703810692, -0.13137468695640564, 0.13838455080986023, -0.08568675071001053, 0.03144414722919464, 0.033039942383766174, -0.016680192202329636, -0.02055087313055992, -0.10777579993009567, -0.009093906730413437, -0.11609005182981491, 0.03300236910581589, -0.02141033113002777, -0.017020797356963158, -0.09763913601636887, 0.3089064061641693, 0.05215265229344368, -0.2321087121963501, 0.02275075390934944, -0.09555283933877945, -0.028437940403819084, -0.19369059801101685, 0.5316633582115173, -0.09399597346782684, -0.05431486666202545, 0.016605719923973083, 0.026628077030181885, -0.15201447904109955, -0.171766459941864, 0.34581488370895386, -0.01493065431714058, 0.009160689078271389, -0.03504060208797455, -0.07212554663419724, -0.024543169885873795, -0.31365251541137695, 0.24444738030433655, -0.008998755365610123, -0.1172289326786995, 0.0177010390907526, -0.18566791713237762, -0.15484172105789185, -0.14612731337547302, 0.25597092509269714, 0.03250672295689583, -0.13469284772872925, 0.0007961132796481252, 0.019004222005605698, -0.2851119339466095, -0.26387307047843933, 0.4793558120727539, 0.03846248984336853, -0.0494224987924099, -0.02575067989528179, -0.385922908782959, -0.22724361717700958, -0.16128145158290863, 0.3328985869884491, -0.06178133189678192, -0.06669323891401291, -0.06491252034902573, -0.21395359933376312, -0.04715074598789215, -0.17962855100631714, 0.34392833709716797, 0.02578406035900116, 0.029729370027780533, -0.052288174629211426, -0.38864806294441223, -0.1628691852092743, -0.05476968735456467, 0.23912692070007324, 0.22949232161045074, -0.06922227144241333, -0.19625405967235565, -0.14211349189281464, -0.012879102490842342, -0.2141379863023758, 0.2158183753490448, 0.07602642476558685, -0.0037368859630078077, -0.06661681830883026, -0.0679078996181488, -0.1666683852672577, -0.26367607712745667, 0.08925758302211761, -0.15351128578186035, -0.13301163911819458, -0.1022113636136055, 0.0523434616625309, -0.11561176180839539, -0.272697389125824, 0.17108014225959778, 0.1259697526693344, -0.3660252094268799, -0.03563596308231354, 0.10257919877767563, -0.0222454983741045, -0.224604532122612, 0.10659373551607132, 0.053362809121608734, -0.25255849957466125, -0.04485953599214554, 0.15468482673168182, -0.1324683278799057, -0.2662351727485657, 0.33195358514785767, 0.06956405192613602, -0.30827584862709045, 0.03943788260221481, 0.0396781824529171, -0.22201761603355408, -0.4447942078113556, 0.15242739021778107, -0.09543885290622711, -0.40879112482070923, 0.13733036816120148, 0.02343079447746277, -0.36205682158470154, -0.243247851729393, 0.2628040015697479, -0.05343889445066452, -0.19545920193195343, -0.04384686052799225, -0.1245071217417717, -0.4058619737625122, -0.19032195210456848, 0.26772207021713257, 0.05372083559632301, -0.21018269658088684, -0.09140335023403168, -0.19828718900680542, -0.3047535717487335, -0.05083964020013809, 0.1845404952764511, 0.08371531963348389, -0.30862799286842346, -0.010821047239005566, -0.21580368280410767, -0.2158067673444748, -0.03279329463839531, 0.16453562676906586, 0.030053088441491127, -0.24768559634685516, -0.0024139033630490303, -0.17228208482265472, -0.14832957088947296, 0.134540855884552, 0.06844129413366318, -0.1313277781009674, -0.4351637661457062, -0.12437903881072998, -0.050906043499708176, 0.11264467984437943, 0.05923185497522354, 0.06383596360683441, -0.15654915571212769, -0.23283767700195312, -0.018558086827397346, -0.2819685935974121, 0.020179221406579018, -0.05550369247794151, 0.02189772017300129, -0.06603549420833588, -0.5382522344589233, -0.03206774592399597, 0.007378406822681427, 0.315606027841568, 0.24052084982395172, -0.23192444443702698, 0.06050267070531845, -0.0739569142460823, 0.03197348117828369, 0.07145993411540985, 0.19159185886383057, 0.16038966178894043, -0.28712329268455505, 0.08746787160634995, -0.1051194816827774, 0.12313564121723175, -0.2139192521572113, 0.07103794068098068, 0.050570785999298096, -0.35125410556793213, -0.0002421017998130992, -0.17795372009277344, -0.02307993732392788, -0.1475805938243866, 0.194889098405838, 0.2234848290681839, -0.2424895018339157, -0.05761312320828438, -0.17749027907848358, 0.11650674790143967, -0.11590863764286041, 0.05853104963898659, 0.28019610047340393, -0.08782076090574265, 0.00017581589054316282, -0.11550535261631012, -0.019957201555371284, -0.1329827904701233, -0.025125818327069283, 0.07658226788043976, -0.2572961449623108, 0.035207349807024, 0.10572841763496399, 0.09399130195379257, -0.04667380079627037, -0.12563210725784302, 0.023750875145196915, -0.03466203808784485, -0.12952381372451782, -0.11836569756269455, 0.21243606507778168, -0.0769062265753746, -0.04791450873017311, 0.07225420325994492, -0.24775615334510803, -0.15665893256664276, -0.1690220832824707, -0.027501624077558517, 0.00020648565259762108, -0.05526360496878624, -0.07629354298114777, -0.31463947892189026, 0.09803000837564468, -0.016164617612957954, -0.1254030019044876, 0.03305266797542572, 0.09604945778846741, -0.0038975998759269714, -0.036995962262153625, 0.09027538448572159, -0.10316271334886551, -0.01744619570672512, 0.17147094011306763, 0.00478817755356431, -0.14248178899288177, -0.2236858606338501, 0.1523560881614685, 0.015518596395850182, 0.04061241075396538, -0.030305642634630203, 0.2528948187828064, -0.11760522425174713, -0.17262670397758484, 0.15681235492229462, -0.06527794152498245, 0.13660655915737152, -0.031797491014003754, -0.043819360435009, -0.08164859563112259, -0.08866160362958908, -0.04540396109223366, -0.1753978580236435, 0.13901883363723755, -0.0971619188785553, 0.025725040584802628, -0.10648467391729355, 0.26790091395378113, 0.005014629103243351, -0.12725380063056946, 0.04423696547746658, -0.07083436101675034, 0.025037547573447227, 0.02675252966582775, 0.2187923789024353, 0.012528648599982262, -0.13282401859760284, -0.0713135153055191, 0.15843689441680908, -0.1523396074771881, 0.3794806897640228, 0.3277427852153778, -0.5299171805381775, -1.0019220113754272], [-0.23698993027210236, -0.09422453492879868, 0.06521330028772354, 0.02832574024796486, -0.14988575875759125, -0.06890878826379776, 0.052260641008615494, -0.16234111785888672, -0.11691447347402573, 0.019271245226264, -0.004895247519016266, -0.02066626586019993, -0.13425415754318237, 0.3941456973552704, -0.2512487769126892, 0.09694397449493408, 0.36329370737075806, -0.017490606755018234, -0.08132053166627884, -0.20811796188354492, 0.3732154369354248, -0.12727214395999908, -0.0670371800661087, 0.5167796015739441, -0.03964352235198021, -0.02695784904062748, -0.17432528734207153, 0.2190900444984436, -0.22874751687049866, -0.15942510962486267, 0.4161246418952942, 0.10312582552433014, -0.058167796581983566, 0.1758953481912613, 0.09738718718290329, 0.2556617558002472, -0.10591553151607513, 0.2849666476249695, 0.003385254880413413, -0.09478341042995453, -0.1392442286014557, 0.09836243093013763, 0.10975512117147446, -0.1100643128156662, 0.41257715225219727, -0.006958015263080597, 0.18939705193042755, 0.002123432233929634, 0.009172707796096802, 0.10254623740911484, -0.14032399654388428, 0.49539443850517273, 0.06865082681179047, 0.09994906932115555, -0.013177047483623028, -0.1627514362335205, 0.2952761948108673, -0.07032111287117004, 0.3676559031009674, 0.06610549241304398, 0.15795373916625977, -0.16106688976287842, -0.010270289145410061, 0.0811876431107521, -0.26381203532218933, 0.2739591598510742, -0.08276558667421341, 0.056689780205488205, 0.04279614984989166, -0.02372056059539318, 0.2985137104988098, -0.16300491988658905, 0.31381598114967346, 0.07209935784339905, 0.017048180103302002, -0.08033120632171631, 0.14726175367832184, 0.04917303845286369, -0.16721183061599731, 0.061393193900585175, 0.0736277848482132, 0.048397794365882874, -0.12839767336845398, 0.14447325468063354, 0.15140968561172485, -0.08686290681362152, 0.1699625700712204, -0.025585560128092766, 0.0018289167201146483, -0.14036200940608978, 0.04921595752239227, 0.0621749646961689, -0.02654300257563591, 0.06828872859477997, -0.041745901107788086, 0.09257105737924576, 0.06704799085855484, -0.027959700673818588, 0.0187454205006361, 0.021553676575422287, 0.11141809076070786, 0.005690598860383034, 0.0010151102906093001, -0.045253898948431015, 0.0011260275496169925, -0.05568607524037361, -0.1916813850402832, -0.12387757748365402, 0.0370979942381382, -0.11787942796945572, -0.051556430757045746, -0.052010439336299896, -0.01069620344787836, 0.08598741143941879, -0.1971694827079773, 0.09490296244621277, 0.013862534426152706, -0.02689126692712307, -0.01786714233458042, 0.06830838322639465, 0.06270086020231247, -0.18474601209163666, -0.09986358135938644, -0.01213020272552967, -0.061469703912734985, 0.07804673910140991, 0.07694531977176666, 0.12610137462615967, -0.29227563738822937, 0.1115085706114769, 0.06916345655918121, 0.05895059183239937, 0.040740661323070526, 0.12743504345417023, 0.0819103866815567, -0.6977396011352539, -0.05743371322751045, -0.014706107787787914, 0.1520782709121704, 0.17854703962802887, 0.21982111036777496, 0.10036763548851013, -0.5127651691436768, -0.08733256161212921, 0.07787463068962097, 0.1107926145195961, 0.16865797340869904, 0.19847995042800903, 0.06772775948047638, -0.5012744069099426, -0.07331470400094986, 0.1737474948167801, 0.1172947958111763, 0.24644865095615387, 0.17787177860736847, 0.2613596022129059, -0.35306456685066223, -0.06442153453826904, 0.03973666578531265, 0.0751599371433258, 0.2751827836036682, 0.17533890902996063, 0.26342782378196716, -0.29234233498573303, 0.17352250218391418, -0.025169359520077705, 0.035639725625514984, 0.20175804197788239, 0.050009727478027344, 0.2948048710823059, -0.36531051993370056, 0.07098957151174545, 0.05627283453941345, 0.06312936544418335, 0.07982278615236282, 0.1372232437133789, 0.28331124782562256, -0.1969815492630005, -0.05391520634293556, 0.019597971811890602, 0.12262453883886337, 0.17509792745113373, 0.09702691435813904, 0.16255925595760345, -0.32241928577423096, 0.0605519637465477, -0.010910012759268284, 0.023763909935951233, 0.087205670773983, 0.06693560630083084, 0.1587260216474533, -0.1840742975473404, -0.012231928296387196, -0.06173037737607956, -0.09952076524496078, 0.015559135936200619, -0.21208134293556213, 0.09247677773237228, -0.24961303174495697, 0.007894153706729412, -0.028046131134033203, 0.053602490574121475, 0.13136537373065948, -0.043908968567848206, 0.09751906245946884, -0.2392566204071045, 0.04373391717672348, -0.024266835302114487, 0.0028045489452779293, 0.07247720658779144, -0.23919671773910522, 0.04888300225138664, -0.12454580515623093, 0.12325693666934967, 0.008412888273596764, 0.07375626266002655, -0.03326311707496643, -0.2977978587150574, 0.12348192930221558, -0.15295928716659546, -0.01401201169937849, -0.01560247503221035, -0.002464854158461094, -0.08761655539274216, -0.1559867411851883, -0.05651890113949776, -0.12336613237857819, -0.037408821284770966, -0.07473447173833847, 0.2171596884727478, -0.1320953369140625, -0.13289891183376312, -0.011975502595305443, 0.016559438779950142, -0.07265857607126236, 0.022612372413277626, 0.400065153837204, 0.0011736812302842736, -0.1399824470281601, -0.07154613733291626, -0.13842713832855225, 0.10150512307882309, -0.051937129348516464, 0.46765217185020447, -0.0004962197272107005, -0.1071934849023819, 0.012735765427350998, 0.016341280192136765, -0.11968178302049637, -0.001098622684367001, 0.4458659887313843, 0.14669203758239746, -0.07565565407276154, -0.08501040935516357, -0.11704351007938385, 0.049319520592689514, 0.03461621701717377, 0.4905194342136383, 0.03919132798910141, -0.11624279618263245, -0.09080307930707932, -0.10986021161079407, 0.08680146932601929, 0.006611350458115339, 0.3877888023853302, -0.01539543829858303, -0.02759990468621254, -0.03199652582406998, 0.18390031158924103, 0.004757919814437628, 0.04306147247552872, 0.3212779462337494, -0.002020483370870352, 0.02195267379283905, -0.0009221690706908703, 0.14227181673049927, -0.1110849529504776, 0.0790397897362709, 0.1792728751897812, -0.13294652104377747, -0.08558029681444168, 0.007728174328804016, 0.5206182599067688, 0.0071242437697947025, 0.048210665583610535, 0.05411366745829582, -0.24773389101028442, -0.08698464184999466, -0.06961885839700699, 0.48570936918258667, 0.019863538444042206, 0.009951772168278694, 0.20026446878910065, -0.057130809873342514, -0.0028847521170973778, -0.13711263239383698, 0.4515053331851959, -0.08426429331302643, -0.03470630943775177, 0.18593072891235352, -0.08654340356588364, 0.009314955212175846, -0.2647607922554016, 0.5488905310630798, -0.00637812539935112, 0.00859207846224308, 0.20524771511554718, -0.031169524416327477, 0.0509658046066761, -0.3073245584964752, 0.4929198920726776, 0.027896730229258537, -0.00411010580137372, 0.4176233112812042, -0.15375083684921265, 0.19613295793533325, -0.4333688020706177, 0.34115180373191833, -0.005614932160824537, 0.12243884801864624, 0.14941439032554626, -0.026924408972263336, -0.17643830180168152, -0.0579361617565155, 0.4325922131538391, -0.07234316319227219, 0.021713687106966972, 0.12499504536390305, -0.09683437645435333, -0.1021067425608635, -0.22147461771965027, 0.4755919277667999, -0.11132608354091644, -0.1507926732301712, 0.021273018792271614, -0.06934785842895508, -0.1645561307668686, 0.1698135882616043, 0.22421833872795105, -0.5967453122138977, -0.19294343888759613], [-0.25951308012008667, 0.15656769275665283, 0.04705505073070526, 0.08534801006317139, -0.019028887152671814, 0.16218653321266174, -0.00586292240768671, -0.06850400567054749, 0.11544942855834961, 0.37669017910957336, 0.05821864679455757, 0.0038188588805496693, -0.2758851647377014, -0.1027018204331398, 0.17470449209213257, -0.16257540881633759, 0.07127584517002106, 0.12903854250907898, -0.048223044723272324, -0.02711208164691925, -0.10820923745632172, 0.14803700149059296, -0.16076403856277466, -0.09889180213212967, 0.1367024928331375, 0.0003181100473739207, 0.08254315704107285, 0.11917662620544434, 0.09651041775941849, -0.0685378685593605, 0.27107498049736023, 0.06165297329425812, 0.03620143234729767, 0.41528603434562683, -0.07893620431423187, -0.07631433010101318, -0.07492169737815857, 0.12661850452423096, -0.041632045060396194, 0.10479061305522919, 0.3519483804702759, -0.0805794969201088, -0.07188086956739426, -0.30027326941490173, 0.3695560693740845, -0.06548328697681427, 0.0838584154844284, 0.18585440516471863, -0.028644490987062454, -0.04473314806818962, 0.025796283036470413, 0.299771785736084, -0.02346479706466198, 0.04903801903128624, 0.00013113234308548272, -0.02186669409275055, -0.3443690240383148, -0.179866224527359, 0.18311400711536407, -0.024882201105356216, 0.24094851315021515, 0.2576320767402649, -0.06334982067346573, -0.22429926693439484, -0.16620990633964539, 0.14875124394893646, -0.0946199893951416, 0.5145915150642395, -0.16968676447868347, 0.1295182704925537, -0.3026115298271179, -0.011419367045164108, 0.09726013988256454, -0.027156198397278786, 0.28693145513534546, 0.10874195396900177, 0.15624575316905975, -0.2137317955493927, -0.11272937804460526, -0.17268842458724976, -0.000755309360101819, 0.2198394536972046, 0.15122532844543457, -0.05323845520615578, -0.051180023699998856, 0.12972703576087952, -0.09615589678287506, 0.05027681216597557, 0.34352800250053406, 0.2052975744009018, -0.09172477573156357, -0.03368459641933441, 0.16536842286586761, -0.12328783422708511, 0.11709010601043701, 0.07385784387588501, 0.1700051873922348, -0.0405481718480587, 0.03399435430765152, 0.235743448138237, -0.07865467667579651, -0.007647364865988493, -0.013057578355073929, 0.21601609885692596, -0.09595170617103577, 0.04336380213499069, 0.24898535013198853, -0.11533429473638535, -0.027183206751942635, -0.1064056009054184, -0.009579808451235294, -0.09437631815671921, 0.15224875509738922, 0.006093571428209543, 0.03488493710756302, 0.04527566581964493, 0.1037619411945343, -0.026819676160812378, -0.17981167137622833, 0.206999734044075, 0.20107632875442505, -0.00020752698765136302, -0.06655128300189972, 0.19759641587734222, -0.008261511102318764, -0.1588584929704666, 0.004977521952241659, 0.0938967615365982, -0.01275461446493864, -0.08307338505983353, 0.07258471101522446, 0.11369488388299942, -0.10685855150222778, 0.05119270086288452, 0.02962295152246952, 0.014178541488945484, -0.09747911244630814, 0.07190718501806259, 0.0100939329713583, -0.05701729655265808, -0.07403026521205902, 0.004366695880889893, 0.17438291013240814, -0.0012433797819539905, 0.2824276387691498, -0.09072361886501312, 0.05754765868186951, -0.0725121721625328, -0.11635170876979828, 0.02390730381011963, -0.050605881959199905, 0.34894299507141113, 0.0953814908862114, -0.0018464158056303859, -0.14711670577526093, 0.06971436738967896, 0.25006917119026184, -0.048669394105672836, 0.44520875811576843, -0.17043662071228027, 0.024626119062304497, -0.13295839726924896, 0.10911408811807632, -0.0333816334605217, 0.08628635853528976, 0.32968881726264954, 0.09331095218658447, -0.03463504835963249, -0.152062326669693, 0.13077373802661896, 0.0721946507692337, 0.053669918328523636, 0.3003179430961609, -0.1681424230337143, 0.04006415233016014, -0.15253785252571106, 0.012431984767317772, -0.0638173297047615, -0.00561728049069643, 0.4076809585094452, 0.0994255393743515, -0.0333724319934845, -0.19547483325004578, -0.04137061908841133, 0.041299983859062195, -0.09841921180486679, 0.13625508546829224, 0.10254158079624176, -0.08936534821987152, -0.2991620898246765, 0.05810096859931946, 0.08917032927274704, -0.017697378993034363, 0.02767438068985939, -0.07867971062660217, -0.011958170682191849, -0.40634649991989136, 0.17565329372882843, 0.05104752629995346, -0.0038977970834821463, 0.20799197256565094, 0.07967149466276169, -0.07618863880634308, -0.2512204349040985, -0.04845263063907623, 0.09716953337192535, -0.05656886100769043, 0.298924058675766, 0.14430245757102966, 0.05205879360437393, -0.1675557643175125, 0.07842382043600082, -0.0005076284287497401, -0.07960522174835205, 0.1548658162355423, 0.024876490235328674, 0.030466729775071144, -0.08915917575359344, 0.18292924761772156, 0.13979116082191467, -0.09752179682254791, 0.12048116326332092, 0.02400299720466137, -0.15151339769363403, -0.1678571105003357, 0.017821740359067917, 0.30709630250930786, -0.06686633080244064, 0.08330872654914856, -0.07348646968603134, -0.05025237426161766, -0.34665414690971375, 0.07310499995946884, 0.2144329845905304, 0.13499614596366882, 0.04765649884939194, 0.013301387429237366, -0.058350820094347, -0.35565853118896484, 0.006578325759619474, 0.1640595644712448, -0.0854724571108818, 0.11117400974035263, 0.24539899826049805, 0.014145922847092152, -0.3415582478046417, -0.0014653800753876567, 0.24802649021148682, -0.024996617808938026, 0.04564695432782173, -0.1436074823141098, 0.029855120927095413, -0.4800495505332947, -0.03634234890341759, 0.3330211341381073, -0.03832685947418213, 0.06407596915960312, -0.039407629519701004, 0.047029197216033936, -0.403485506772995, -0.11603847146034241, 0.3708406388759613, -0.04505737125873566, 0.009022654965519905, 0.023063603788614273, -0.045539405196905136, -0.17287014424800873, -0.12058914452791214, 0.23619720339775085, -0.022709593176841736, 0.13245880603790283, 0.03781181946396828, 0.05496552586555481, -0.09485169500112534, -0.2528626024723053, 0.24898190796375275, -0.0077186571434140205, 0.04547987878322601, 0.025890277698636055, 0.16337884962558746, -0.2688930630683899, -0.35547029972076416, 0.45086631178855896, -0.0714980736374855, 0.22276239097118378, -0.057047288864851, 0.22994190454483032, -0.13888861238956451, -0.2254040688276291, 0.49208903312683105, -0.030658166855573654, -0.23230300843715668, 0.0040779756382107735, 0.19816499948501587, -0.1952747255563736, -0.25376659631729126, 0.38775208592414856, 0.026323558762669563, -0.15467460453510284, -0.02724386192858219, 0.17740820348262787, 0.09232155233621597, -0.16967830061912537, 0.10792684555053711, 0.10341887921094894, -0.19640055298805237, 0.07581380754709244, 0.251244455575943, -0.14513397216796875, -0.12139692902565002, -0.045044369995594025, -0.20318268239498138, -0.0386173315346241, 0.1375643014907837, 0.2852049767971039, -0.10653191804885864, -0.5012703537940979, 0.9144219160079956, 0.0009014924289658666, -0.03711904585361481, 0.22063232958316803, 0.049065206199884415, -0.12439046055078506, -0.29707401990890503, -0.0702265128493309, 0.004071076866239309, 0.09717041999101639, 0.23754912614822388, 0.16178031265735626, -0.2558739483356476, 0.11737358570098877, 0.24398846924304962, -0.14064572751522064, 0.11231861263513565, -0.08287697285413742, -0.006558079272508621, 0.563676655292511, -0.06883244961500168, 0.42409566044807434, -0.07457105815410614, 0.1707978993654251], [0.08426646143198013, -0.02912117913365364, -0.4127178192138672, -0.024395296350121498, 0.0657544732093811, 0.1307506412267685, 0.05082102492451668, 0.15586736798286438, 0.09656646847724915, -0.12969915568828583, 0.04053729772567749, 0.03730413317680359, 0.1698584258556366, -0.0823785737156868, 0.041920918971300125, -0.0031993899028748274, -0.14044496417045593, 0.025366520509123802, 0.027579957619309425, 0.04820229113101959, -0.19480201601982117, -0.05093013867735863, 0.13720844686031342, 0.013014550320804119, 0.09102515131235123, 0.09636485576629639, 0.05882398784160614, -0.5736309885978699, 0.11187417060136795, 0.2654770612716675, -0.07888086140155792, -0.10748008638620377, 0.10000217705965042, 0.2835274636745453, -0.4933812618255615, -0.05946146324276924, 0.10023847222328186, 0.017100762575864792, -0.10194182395935059, 0.11089824885129929, 0.26567521691322327, -0.40242910385131836, 0.08640364557504654, 0.20229937136173248, -0.08521255850791931, 0.020449522882699966, 0.04545648396015167, 0.10181129723787308, -0.258370041847229, 0.022066054865717888, 0.279671311378479, 0.013431115075945854, -0.010029541328549385, 0.14509548246860504, 0.21485216915607452, -0.33932653069496155, -0.08876574784517288, -0.024956991896033287, 0.13938146829605103, 0.014937978237867355, 0.14751110970973969, 0.24833111464977264, -0.1329786777496338, -0.021823715418577194, 0.017817741259932518, -0.08844799548387527, -0.022905487567186356, 0.23095199465751648, 0.039033640176057816, -0.10238493233919144, 0.09254356473684311, 0.05275573581457138, -0.09776991605758667, -0.006797836162149906, 0.17685304582118988, 0.18530762195587158, -0.0421035997569561, 0.07374481111764908, 0.031946949660778046, -0.16763584315776825, 0.1334201693534851, 0.12420446425676346, -0.05730913579463959, 0.05602537468075752, 0.055645909160375595, 0.1154860332608223, -0.1231275200843811, -0.04082689806818962, 0.033281292766332626, 0.15107370913028717, 0.032896339893341064, 0.0896582081913948, 0.11290046572685242, -0.13095307350158691, -0.04532519355416298, -0.024292560294270515, 0.08609940856695175, 0.11435405164957047, 0.15036706626415253, 0.21159933507442474, -0.12354869395494461, 0.06348741054534912, 0.09618540853261948, 0.019064774736762047, -0.1558084636926651, 0.0804426372051239, 0.181624174118042, 0.006757372058928013, -0.018119968473911285, 0.030349867418408394, 0.0025742151774466038, -0.11455044895410538, 0.20313884317874908, 0.12797874212265015, -0.019700489938259125, 0.12587721645832062, 0.02349320612847805, -0.053328920155763626, -0.0672939345240593, 0.11890850961208344, 0.17093457281589508, -0.0166673231869936, 0.172159805893898, -0.028333719819784164, 0.0398440957069397, -0.06139635667204857, 0.08815918117761612, 0.06733572483062744, -0.16518038511276245, -0.05862515792250633, 0.2619870901107788, 0.20540861785411835, -0.13679508864879608, 0.10256754606962204, -0.11036109924316406, -0.0826193317770958, -0.024404767900705338, 0.1496804654598236, 0.031451500952243805, -0.0474192276597023, 0.08136212080717087, -0.03306090086698532, -0.07049872726202011, -0.008561881259083748, 0.008873295038938522, 0.02730340138077736, 0.0698496624827385, -0.015779340639710426, -0.03889454901218414, -0.0710688903927803, -0.010271027684211731, -0.08040159195661545, 0.15156158804893494, 0.05315384268760681, -0.00497102178633213, -0.06334996968507767, -0.08682844787836075, 0.02800983004271984, -0.0416780449450016, -0.2152843177318573, -0.08586672693490982, 0.17961065471172333, -0.04269126057624817, 0.08019666373729706, 0.056514956057071686, 0.12498738616704941, -0.11867183446884155, 0.10459502786397934, 0.0053928750567138195, -0.033915698528289795, -0.12289012968540192, -0.07480519264936447, -0.1044003814458847, -0.08676432073116302, 0.07802191376686096, -0.04589375853538513, 0.03843528777360916, 0.03411349281668663, 0.06839091330766678, 0.12069796770811081, -0.10026351362466812, -0.008557186461985111, 0.14000403881072998, -0.017965083941817284, -0.3370671570301056, 0.05247792601585388, 0.13388586044311523, -0.09596604108810425, -0.011798259802162647, 0.11037953197956085, 0.08057324588298798, -0.057543911039829254, 0.055855050683021545, -0.021272018551826477, -0.1455533802509308, 0.15121930837631226, 0.0037237191572785378, -0.05718157812952995, -0.16318722069263458, -0.024835938587784767, 0.007710122969001532, -0.19186127185821533, 0.13659997284412384, 0.06528185307979584, -0.00769407395273447, -0.12005968391895294, 0.041040923446416855, -0.30579090118408203, -0.1846463829278946, 0.10194826871156693, -0.046765558421611786, 0.10954208672046661, -0.16833806037902832, -0.017686033621430397, -0.2990007698535919, -0.10590262711048126, 0.10783247649669647, 0.016125058755278587, 0.07780522108078003, 0.017180632799863815, -0.006296026054769754, -0.5310572385787964, -0.24047736823558807, 0.09367983788251877, 0.03312778100371361, -0.07859516888856888, 0.020219700410962105, 0.1108042299747467, -0.37123483419418335, -0.15618851780891418, -0.01644923910498619, -0.06958398222923279, -0.10507681220769882, -0.0031177245546132326, 0.05346149206161499, -0.21250145137310028, -0.2725190818309784, -0.0026637688279151917, 0.018426189199090004, 0.016749052330851555, 0.026103226467967033, 0.05169151350855827, -0.29038989543914795, -0.3823840022087097, 0.11662103980779648, -0.06833591312170029, -0.03971121087670326, -0.053045593202114105, -0.007948535494506359, -0.34499290585517883, -0.3578755855560303, 0.18156151473522186, -0.0016637415392324328, -0.17235703766345978, -0.016397427767515182, -0.11690085381269455, -0.3217967748641968, -0.41016823053359985, 0.18531259894371033, 0.1260431557893753, -0.04704652354121208, -0.14483900368213654, 0.060942646116018295, -0.30415239930152893, -0.5912615060806274, 0.2139454334974289, -0.004960892256349325, -0.053901415318250656, -0.22037577629089355, -0.1355653703212738, -0.1968325674533844, -0.5687577724456787, 0.07173518091440201, 0.05219092592597008, -0.04041920602321625, -0.13968507945537567, 0.029350511729717255, -0.3031626343727112, -0.7654303312301636, 0.2258535921573639, 0.20628458261489868, 0.07428035885095596, -0.19850435853004456, -0.10040463507175446, -0.23140771687030792, -0.4532659649848938, 0.34279075264930725, 0.19679704308509827, -0.008336352184414864, -0.10127472132444382, 0.04284151643514633, -0.09430640190839767, -0.5127428770065308, 0.3120097815990448, 0.21080417931079865, -0.07166048139333725, -0.26193106174468994, 0.021392742171883583, 0.09660941362380981, -0.40535157918930054, 0.13141925632953644, 0.055831972509622574, 0.15045519173145294, -0.1741369515657425, -0.10095161199569702, 0.042069029062986374, -0.26353001594543457, 0.07900099456310272, 0.23591108620166779, -0.25256064534187317, -0.18034303188323975, -0.032958973199129105, 0.05126800760626793, -0.3191470503807068, 0.2892525792121887, 0.22529442608356476, 0.035136789083480835, -0.1770056039094925, -0.040520623326301575, 0.12464570254087448, -0.2650929093360901, 0.5048288702964783, 0.24745246767997742, 0.03357858955860138, -0.251605749130249, -0.04772628843784332, 0.11146073043346405, -0.1548856794834137, 0.31220123171806335, 0.2770518958568573, -0.01698128692805767, 0.26001790165901184, 0.12377573549747467, 0.06829140335321426, -0.21026691794395447, 0.12895573675632477, 0.03714023530483246, 0.33242619037628174, -0.32074326276779175, -0.17826434969902039, 0.49384987354278564], [0.40476495027542114, 0.00570725230500102, 0.17696867883205414, -0.10715664178133011, 0.03817015513777733, 0.11766213923692703, -0.02889004349708557, 0.3925834596157074, 0.10845184326171875, 0.1272856891155243, 0.13364556431770325, 0.17804332077503204, -0.07978637516498566, -0.021258870139718056, 0.38970017433166504, 0.166327565908432, 0.039973605424165726, -0.10971095412969589, 0.02923015132546425, 0.015799229964613914, 0.10092255473136902, -0.005496939644217491, 0.1334676891565323, -0.04608270153403282, -0.07870960980653763, 0.053511884063482285, -0.10452452301979065, 0.06578975915908813, 0.060809601098299026, -0.017220785841345787, 0.11553844064474106, -0.08808541297912598, 0.1124885231256485, -0.12472032755613327, 0.13445353507995605, 0.18053725361824036, -0.11991581320762634, -0.018490169197320938, -0.0010353303514420986, -0.035926032811403275, -0.10452184081077576, 0.05122413858771324, 0.1627877652645111, -0.0434526689350605, 0.12413741648197174, -0.1367052048444748, 0.054059237241744995, -0.07757873833179474, -0.05837282910943031, -0.00409987336024642, -0.1793598085641861, 0.20390677452087402, -0.057338226586580276, -0.057565219700336456, -0.0720052421092987, 0.11545808613300323, 0.05052370950579643, -0.39509814977645874, 0.16784720122814178, -0.009312999434769154, -0.07973893731832504, -0.08972824364900589, 0.19571781158447266, -0.007860287092626095, -0.23667651414871216, 0.3688455820083618, -0.05812497064471245, -0.052941448986530304, 0.06759240478277206, 0.02675836719572544, -0.09263882786035538, -0.4848477840423584, 0.40203964710235596, -0.09372811764478683, -0.2501501739025116, 0.3230014741420746, 0.10292476415634155, -0.1480647474527359, -0.43514740467071533, 0.3986281752586365, -0.042849406599998474, -0.035240042954683304, 0.27307766675949097, -0.0348004549741745, 0.045519884675741196, -0.3783423900604248, 0.4874339699745178, -0.0710792988538742, 0.054692622274160385, 0.07251745462417603, -0.06769668310880661, 0.016718463972210884, -0.22180208563804626, 0.24893179535865784, -0.05266072601079941, -0.11952464282512665, 0.13402411341667175, -0.04811925068497658, -0.033794838935136795, -0.1851651966571808, 0.21607200801372528, 0.1815701425075531, -0.1260886937379837, 0.09360230714082718, 0.004032851662486792, 0.07199110090732574, -0.15703777968883514, 0.19020769000053406, -0.04809761419892311, -0.2546714246273041, 0.06116074323654175, 0.052894026041030884, 0.04103735461831093, -0.29138362407684326, 0.1308538168668747, 0.04278464987874031, -0.06571788340806961, 0.010758050717413425, 0.05725258216261864, 0.09413924068212509, -0.2545727789402008, 0.28900018334388733, -0.08063725382089615, 0.03610076755285263, 0.010250808671116829, -0.16154126822948456, -0.0036553821992129087, -0.06509779393672943, 0.29532116651535034, -0.08149309456348419, 0.05864860117435455, -0.08726301044225693, -0.009696466848254204, 0.021384457126259804, -0.17018377780914307, 0.31057363748550415, 0.023698844015598297, -0.20364758372306824, -0.08001164346933365, -0.090119369328022, 0.03416137769818306, -0.09636706113815308, 0.22957804799079895, 0.014340369030833244, -0.019677914679050446, 0.03490358218550682, -0.13953006267547607, 0.04586883634328842, -0.22141282260417938, 0.40531447529792786, -0.01957758329808712, 0.06233150139451027, -0.12990613281726837, -0.16993547976016998, 0.08122209459543228, -0.09593655169010162, 0.3914536237716675, 0.00605013919994235, 0.1040852963924408, 0.14618219435214996, -0.08153194934129715, 0.04332009330391884, -0.16627871990203857, 0.3446674048900604, 0.03252868354320526, 0.1035744696855545, -0.092154860496521, -0.20348764955997467, -0.080609992146492, -0.1501588374376297, 0.30167242884635925, 0.0626070573925972, -0.23801568150520325, -0.05602826550602913, -0.1069316565990448, -0.009105691686272621, -0.11228645592927933, 0.5077564716339111, 0.026432564482092857, 0.046984270215034485, 0.10473108291625977, -0.23475007712841034, 0.06060073897242546, -0.01622013933956623, 0.340046226978302, -0.04294874519109726, -0.12251059710979462, 0.09978970140218735, -0.16158577799797058, 0.07368527352809906, -0.04120636731386185, 0.5436148047447205, -0.0542629137635231, -0.05054198578000069, 0.14795690774917603, -0.2306712567806244, -0.05906328186392784, 0.05999157577753067, 0.3513415455818176, -0.13394978642463684, -0.10824479907751083, 0.07972951978445053, -0.20625685155391693, 0.030294407159090042, -0.017126411199569702, 0.2806847095489502, -0.1492381989955902, -0.10752930492162704, 0.11618358641862869, -0.28891539573669434, -0.0115387924015522, -0.11083169281482697, 0.26792341470718384, 0.03306934982538223, 0.04037902504205704, 0.0358782559633255, -0.25042030215263367, 0.03248895704746246, 0.02525268867611885, 0.13775330781936646, 0.07364657521247864, -0.013507289811968803, -0.024133937433362007, -0.07669242471456528, -0.018806641921401024, 0.08257496356964111, 0.28806543350219727, -0.000556168844923377, -0.08052211254835129, -0.17376983165740967, -0.042718227952718735, 0.10525137186050415, 0.052587542682886124, 0.007661033887416124, 0.010140696540474892, -0.09589634090662003, -0.2157251536846161, -0.05189220979809761, -0.01629647985100746, -0.0012810160405933857, 0.023735858500003815, -0.11421236395835876, 0.09197008609771729, -0.2527194321155548, -0.10780251026153564, -0.010589035227894783, 0.20954746007919312, -0.14145371317863464, -0.004584458656609058, -0.1124374121427536, -0.23257064819335938, 0.09243659675121307, 0.22093252837657928, 0.15569882094860077, -0.4710497260093689, -0.05800517275929451, -0.1766819953918457, -0.16784906387329102, -0.0358901210129261, 0.07964135706424713, 0.11853908002376556, -0.19597172737121582, -0.004370563663542271, -0.04925597831606865, -0.20817868411540985, 0.10201828926801682, 0.07545604556798935, 0.10071151703596115, -0.03240104019641876, 0.04809611290693283, -0.030140509828925133, -0.3236182630062103, 0.21527256071567535, 0.07111182808876038, 0.09487076848745346, 0.06989409774541855, -0.15544384717941284, -0.044662512838840485, -0.10123450309038162, 0.13705076277256012, 0.03959839791059494, -0.05038934573531151, 0.154525026679039, -0.08635809272527695, -0.10141856968402863, 0.11858730763196945, 0.04077525436878204, -0.003372275037690997, -0.0015495064435526729, 0.12207015603780746, 0.060409631580114365, 0.0110485153272748, 0.028939539566636086, 0.030260909348726273, 0.2136233001947403, -0.0033212315756827593, -0.02385724149644375, -0.04671098291873932, 0.1029757559299469, 0.09708823263645172, 0.06002694368362427, -0.02079656720161438, -0.12318051606416702, 0.07242796570062637, -0.050524234771728516, -0.0666579008102417, 0.13030318915843964, -0.017094731330871582, -0.03120746836066246, 0.07064875960350037, -0.04175764322280884, -0.026664938777685165, 0.010234433226287365, 0.21710731089115143, 0.035138048231601715, 0.016505619511008263, 0.10688868165016174, -0.04961999133229256, -0.013057021424174309, 0.033593613654375076, 0.19309382140636444, 0.06749087572097778, 0.2022576630115509, -0.017826050519943237, 0.11019214242696762, 0.11812499910593033, 0.05723349004983902, 0.0305387694388628, -0.0018399048130959272, 0.4040106534957886, 0.024306945502758026, 0.21454781293869019, 0.044543348252773285, 0.0990707278251648, 0.05428916960954666, -0.043993737548589706, 0.4721977114677429, 0.29827767610549927, 0.9654761552810669, -0.11370224505662918, -0.08938903361558914], [0.10750225186347961, 0.04620112106204033, -0.01697184145450592, 0.0371127687394619, -0.11380227655172348, -0.0936703085899353, 0.1317770630121231, -0.10998382419347763, -0.09494611620903015, -0.1264951378107071, 0.09556414186954498, -0.05042429640889168, -0.14885291457176208, 0.2228039801120758, -0.1916734278202057, 0.0009984723292291164, -0.17128132283687592, 0.06524256616830826, 0.009273773990571499, -0.01477016881108284, 0.11386983096599579, 0.021314304322004318, -0.112916499376297, 0.04150550067424774, -0.2382652759552002, 0.15294082462787628, -0.10672551393508911, 0.1667773425579071, 0.19090139865875244, -0.3886938691139221, 0.3339061439037323, 0.05725677311420441, 0.20893517136573792, 0.01770174689590931, 0.17246155440807343, 0.11710815876722336, -0.3013950288295746, 0.2753233015537262, -0.015863852575421333, -0.05398879572749138, 0.07922056317329407, 0.20640622079372406, 0.14021779596805573, -0.24110013246536255, 0.22704242169857025, 0.07693330943584442, 0.17572078108787537, 0.1413899064064026, 0.13003237545490265, 0.1918075978755951, -0.14981533586978912, 0.0921349748969078, -0.06347469985485077, 0.07319103181362152, 0.17673799395561218, 0.1379360556602478, 0.13599981367588043, -0.23453401029109955, 0.2690368890762329, -0.05365399643778801, 0.27533790469169617, 0.13742759823799133, 0.0048436373472213745, 0.3186943829059601, -0.01541124191135168, 0.28642696142196655, 0.05319337919354439, 0.21966992318630219, -0.18971407413482666, -0.12112854421138763, 0.22140911221504211, -0.2460460513830185, 0.3120155334472656, 0.03449101373553276, 0.27667564153671265, -0.031177274882793427, -0.24328404664993286, 0.19576261937618256, -0.06677037477493286, 0.2155417799949646, -0.007119062822312117, 0.18379372358322144, 0.04776003584265709, -0.21403686702251434, 0.12201656401157379, -0.039213575422763824, 0.33232998847961426, 0.005480271298438311, 0.04397657513618469, -0.0021066199988126755, -0.24622322618961334, 0.0010942189255729318, 0.02540610171854496, -0.010748868808150291, 0.12077543884515762, 0.355191171169281, 0.17600998282432556, -0.10280513018369675, 0.023316875100135803, 0.07120499014854431, -0.08812160789966583, -0.07768435031175613, 0.14775778353214264, 0.15142209827899933, -0.19044612348079681, 0.004629158414900303, 0.14284543693065643, -0.14912469685077667, -0.041070133447647095, 0.029542973265051842, 0.10108885914087296, -0.16863632202148438, -0.01744222082197666, 0.031083883717656136, -0.07408209890127182, 0.033287592232227325, 0.23454484343528748, 0.22907336056232452, -0.010104808956384659, 0.14121456444263458, -0.06709118187427521, 0.02028307504951954, -0.014879687689244747, 0.01758992113173008, 0.09744032472372055, -0.10957373678684235, 0.017090419307351112, 0.08236918598413467, -0.05231329798698425, 0.06477535516023636, 0.133168026804924, -0.11170914769172668, -0.0636412501335144, 0.010748941451311111, -0.078226238489151, 0.4032514989376068, -0.14934255182743073, 0.07491162419319153, -0.0006294330814853311, -0.13555289804935455, -0.14974987506866455, -0.16371163725852966, 0.17331288754940033, -0.022886129096150398, 0.09625107049942017, -0.23006968200206757, -0.07422478497028351, -0.07059503346681595, -0.19850394129753113, 0.21377252042293549, 0.013195527717471123, 0.08503110706806183, -0.2159711867570877, -0.21094313263893127, -0.14513103663921356, -0.08437062799930573, 0.15659810602664948, -0.018660051748156548, 0.03954262286424637, 0.060157813131809235, -0.2069408893585205, -0.053305987268686295, -0.20040081441402435, 0.17668412625789642, 0.10900439321994781, -0.08480112254619598, 0.14135056734085083, -0.20246988534927368, -0.09125036001205444, -0.08778238296508789, 0.06730552762746811, 0.020606214180588722, 0.04650340601801872, 0.012753323651850224, -0.1450464278459549, -0.1777985394001007, -0.0847264900803566, -0.0035603337455540895, 0.024194395169615746, 0.12040866166353226, 0.10959096252918243, -0.18547150492668152, -0.055733710527420044, 0.013991507701575756, -0.07087430357933044, 0.06390977650880814, 0.039517465978860855, 0.06600505113601685, 0.014478226192295551, -0.13399790227413177, -0.12506085634231567, -0.08056344836950302, -0.060143258422613144, 0.2420235276222229, 0.0689663290977478, 0.2503397762775421, 0.09128809720277786, -0.16422802209854126, 0.06450927257537842, -0.025964558124542236, -0.06225557252764702, -0.024888232350349426, 0.17969512939453125, -0.08901964128017426, -0.03683316335082054, 0.09249119460582733, -0.01397579163312912, 0.023091280832886696, -0.033073656260967255, -0.01759975031018257, 0.029800252988934517, -0.1574210226535797, 0.1666603982448578, 0.06166485324501991, 0.05111384764313698, 0.16242627799510956, -0.036919694393873215, -0.14997410774230957, -0.24340108036994934, 0.2306295484304428, -0.03481534495949745, 0.009181096218526363, 0.3627859354019165, 0.1210351213812828, 0.0019498326582834125, -0.20014464855194092, 0.2611579895019531, -0.07118218392133713, -0.12349226325750351, 0.3418635129928589, 0.037620171904563904, 0.007616259623318911, -0.2962034046649933, 0.3753873407840729, -0.040078550577163696, -0.13449726998806, 0.4476943910121918, 0.01813652366399765, 0.1326889842748642, -0.14992378652095795, 0.27173998951911926, -0.10627443343400955, 0.007195718120783567, 0.2989625334739685, -0.05828995257616043, 0.13674314320087433, -0.2238539159297943, 0.3330990672111511, -0.010363866575062275, -0.02662068046629429, 0.3204895257949829, -0.04007862135767937, 0.09603966027498245, -0.24838057160377502, 0.201882466673851, -0.029989859089255333, -0.15676337480545044, 0.16206127405166626, 0.08411479741334915, 0.30167320370674133, -0.13275295495986938, 0.22195474803447723, -0.0231163389980793, -0.020281624048948288, 0.2902674376964569, -0.10271934419870377, 0.01458950899541378, -0.16117802262306213, 0.051465753465890884, -0.025737926363945007, -0.12617696821689606, 0.09434787184000015, 0.04962211474776268, 0.1680544763803482, 0.12185323983430862, 0.12261294573545456, -0.07588143646717072, -0.1564323455095291, -0.09039631485939026, 0.07803390920162201, 0.1352875679731369, -0.023404443636536598, -0.08353365957736969, -0.014340626075863838, 0.1458854377269745, -0.20778007805347443, 0.08153289556503296, 0.1852046251296997, 0.02115795947611332, -0.12735223770141602, -0.021291455253958702, 0.029291655868291855, -0.0642198771238327, -0.038973044604063034, 0.10614614188671112, -0.189178928732872, -0.19294892251491547, -0.06550580263137817, -0.08712740987539291, -0.017461741343140602, 0.08239378035068512, 0.3108786940574646, -0.13128405809402466, 0.0414237380027771, -0.007326758466660976, 0.019538352265954018, -0.008897650055587292, 0.12067445367574692, 0.08858292549848557, -0.12571705877780914, -0.4293164014816284, 0.1479383111000061, 0.035847775638103485, -0.0321718268096447, 0.35643598437309265, 0.012965170666575432, -0.09633216261863708, -0.5259547829627991, 0.01060508843511343, 0.10201536864042282, 0.023494869470596313, -0.03012336790561676, -0.03914984315633774, 0.05476834625005722, -0.13998709619045258, -0.1164533942937851, 0.07204502075910568, -0.08845238387584686, -0.24340952932834625, 0.1904730498790741, 0.12048669904470444, -0.21985943615436554, -0.04662632569670677, 0.06704709678888321, -0.1352609544992447, 0.193704292178154, 0.06355489790439606, 0.44125765562057495, 0.5846675634384155, 0.5622799396514893, 0.1498851180076599], [0.31384119391441345, 0.16631238162517548, 0.08618642389774323, 0.04895196855068207, -0.07346689701080322, -0.09470026195049286, 0.09422865509986877, 0.28842002153396606, 0.168275386095047, 0.039959296584129333, 0.05683976039290428, -0.0020777154713869095, -0.4392421841621399, 0.2676456868648529, 0.14653067290782928, 0.32112422585487366, 0.362570583820343, 0.07171106338500977, 0.0881713256239891, -0.5758387446403503, 0.13923212885856628, 0.08728225529193878, 0.06770852208137512, 0.22823171317577362, -0.09317982941865921, -0.02600158378481865, -0.5127369165420532, 0.2571972608566284, 0.014679561369121075, 0.0921361893415451, 0.18752893805503845, -0.03495442867279053, 0.025659430772066116, -0.4282684922218323, 0.27060383558273315, 0.04063362628221512, -0.26035964488983154, 0.1406795084476471, -0.06284534186124802, -0.12394151091575623, -0.14983029663562775, 0.11896128207445145, 0.2827337980270386, -0.15324904024600983, 0.21594485640525818, -0.02558440901339054, -0.00611563166603446, -0.16835542023181915, 0.06698285043239594, 0.2132837474346161, -0.12040276825428009, 0.11663331091403961, -0.17804482579231262, 0.019805409014225006, -0.01922501251101494, -0.011557001620531082, 0.019639739766716957, -0.1981104463338852, 0.18607716262340546, -0.07210757583379745, -0.15748664736747742, 0.03573049604892731, -0.04941798001527786, 0.028704160824418068, 0.010606158524751663, -0.10727006942033768, -0.04723432660102844, 0.004144566133618355, -0.04498579353094101, 0.08898662775754929, -0.12707829475402832, 0.15414009988307953, 0.011471112258732319, -0.015054295770823956, -0.02780986949801445, -0.2426355481147766, 0.06808299571275711, -0.23604029417037964, 0.24593621492385864, -0.07744869589805603, 0.024659285321831703, -0.10637810081243515, -0.07749056816101074, -0.11595424264669418, -0.15542984008789062, 0.0680842325091362, -0.05018213391304016, -0.07851579785346985, 0.07593422383069992, -0.08174417912960052, 0.032928332686424255, -0.21066339313983917, 0.1190379187464714, -0.10715273022651672, 0.008184378035366535, -0.07196611911058426, -0.22979341447353363, -0.030176671221852303, -0.12635622918605804, 0.2142707109451294, -0.09278248995542526, 0.06408476829528809, 0.040378645062446594, -0.14577467739582062, 0.03416794538497925, -0.18637701869010925, 0.18679136037826538, -0.10718156397342682, -0.03454158455133438, 0.016886619850993156, -0.010186495259404182, -0.046014219522476196, -0.0896114706993103, 0.13514791429042816, -0.027540842071175575, -0.03145741671323776, -0.016479862853884697, -0.1825544536113739, -0.02922285720705986, -0.09101064503192902, 0.13648472726345062, -0.17925134301185608, 0.035536229610443115, -0.12849900126457214, -0.16938292980194092, -0.1688205897808075, -0.027570689097046852, 0.11714240908622742, -0.013211637735366821, 0.07565685361623764, 0.03516266494989395, 0.032595839351415634, -0.09623456001281738, 0.08551514893770218, 0.1654980182647705, 0.10519115626811981, 0.03595449775457382, 0.08773618936538696, 0.1860937774181366, -0.19513684511184692, 0.054854974150657654, -0.12492334842681885, 0.044159840792417526, 0.051985155791044235, 0.037235140800476074, -0.02457227185368538, -0.22593173384666443, 0.014851846732199192, 0.1724884957075119, 0.11939722299575806, 0.09652361273765564, 0.19119735062122345, -0.07333673536777496, -0.20682105422019958, 0.012340376153588295, -0.0796913355588913, 0.17924681305885315, 0.16204088926315308, 0.1603720337152481, -0.0566563680768013, -0.046446193009614944, -0.01103176735341549, -0.12108098715543747, 0.033986110240221024, -0.0681479424238205, -0.005312628578394651, -0.03366491198539734, -0.2861468493938446, -0.052902951836586, 0.0040401918813586235, 0.01109105721116066, 0.1485854834318161, 0.0933229848742485, 0.10404506325721741, -0.027628451585769653, 0.11718644946813583, 0.018125446513295174, -0.1291561722755432, 0.012157240882515907, -0.004493760876357555, 0.22312289476394653, -0.2640647888183594, 0.10335496813058853, -0.03796282783150673, -0.0676577240228653, -0.07211992144584656, 0.013143278658390045, 0.19999468326568604, -0.052283309400081635, 0.025129644200205803, 0.008596506901085377, -0.07740664482116699, -0.07704531401395798, 0.0035162013955414295, 0.2628135681152344, -0.15136265754699707, 0.1286609023809433, 0.031130610033869743, -0.049017682671546936, -0.01573760062456131, -0.01750100962817669, 0.12437497824430466, -0.0847233459353447, -0.04162592068314552, -0.05395989492535591, 0.18977013230323792, 0.020053908228874207, -0.15399934351444244, 0.11591531336307526, -0.17215052247047424, 0.05328318476676941, 0.04188923537731171, -0.0015109238447621465, -0.105341337621212, -0.017935696989297867, 0.22397087514400482, -0.1444767713546753, 0.047038380056619644, -0.04557432234287262, -0.06248155236244202, -0.1619575470685959, 0.007898790761828423, 0.12109830975532532, 0.15958400070667267, 0.11763211339712143, -0.16579186916351318, 0.11596539616584778, -0.011783336289227009, 0.15778599679470062, 0.2384186089038849, 0.30305102467536926, -0.19712170958518982, -0.23301991820335388, -0.03479994460940361, -0.011826977133750916, 0.09114270657300949, 0.1548219621181488, -0.0005733968573622406, -0.28662195801734924, -0.10134384781122208, 0.08570219576358795, -0.053062111139297485, -0.0303290206938982, 0.35304421186447144, 0.06626980006694794, -0.07267692685127258, -0.2253667414188385, 0.06085088476538658, -0.00865509919822216, 0.05144941434264183, 0.44629329442977905, 0.04738989844918251, -0.2645234167575836, -0.11940574645996094, 0.024190571159124374, 0.030525265261530876, -0.3057290017604828, 0.4025554955005646, -0.10547303408384323, -0.47369757294654846, -0.14640699326992035, 0.19918499886989594, -0.046831924468278885, -0.17912864685058594, 0.33644142746925354, -0.023033032193779945, -0.2268059253692627, -0.3584253191947937, 0.20793269574642181, -0.06647323817014694, -0.14929981529712677, 0.35679128766059875, 0.25183507800102234, -0.1553766280412674, -0.22989405691623688, 0.02005118690431118, -0.011703774333000183, -0.10897605866193771, 0.4086916446685791, 0.06899823993444443, -0.007969624362885952, -0.19137345254421234, -0.15827514231204987, -0.030858388170599937, -0.1805320829153061, 0.5977255702018738, 0.12224189192056656, -0.11587191373109818, -0.10838554054498672, -0.2975912094116211, 0.12285050749778748, -0.10407683998346329, 0.33695849776268005, 0.20387645065784454, 0.026679296046495438, -0.0715659111738205, -0.15411074459552765, 0.03946896269917488, -0.11396067589521408, 0.3322533071041107, -0.021289018914103508, -0.11028971523046494, 0.08087338507175446, -0.13813398778438568, 0.08516053855419159, 0.03581325709819794, 0.3374331295490265, 0.22515186667442322, -0.12707069516181946, 0.009578156284987926, -0.33945992588996887, 0.007969248108565807, 0.038961853832006454, 0.2737688422203064, 0.09839488565921783, -0.06919977068901062, -0.12257024645805359, -0.13316181302070618, 0.15684857964515686, -0.16147060692310333, 0.36567652225494385, -0.26521703600883484, 0.15629757940769196, 0.003981857094913721, 0.10171376913785934, 0.06310340017080307, -0.16569101810455322, 0.1774224191904068, -0.5025845766067505, 0.11432986706495285, -0.09497040510177612, 0.28337201476097107, -0.04968995228409767, 0.08198685199022293, 0.0027777033392339945, -0.035991329699754715, 0.1412191390991211, 0.27637994289398193, -0.05779546499252319, -0.039581794291734695, -0.10709065198898315], [-0.34409523010253906, 0.033787090331315994, -0.01600668579339981, 0.06120535358786583, -0.19926965236663818, -0.08182589709758759, 0.00947173498570919, -0.36453673243522644, 0.15855078399181366, -0.05453084781765938, 0.043589022010564804, -0.1259925812482834, -0.10821538418531418, 0.032312214374542236, -0.30630776286125183, 0.23275327682495117, -0.1804962456226349, 0.04121038690209389, -0.033692143857479095, -0.14207573235034943, 0.18760548532009125, -0.14051373302936554, 0.023819461464881897, -0.2682472765445709, -0.024085957556962967, -0.03750719502568245, 0.2970501482486725, 0.007531017530709505, 0.2358105629682541, -0.017748745158314705, -0.17257626354694366, 0.012539969757199287, 0.18496742844581604, 0.31543928384780884, 0.12101040035486221, 0.09762987494468689, -0.05678682029247284, -0.11162205040454865, -0.03338618203997612, 0.0416286438703537, 0.1926303654909134, -0.04649743810296059, 0.11888571828603745, -0.11074274778366089, -0.03911389410495758, 0.1207413524389267, -0.028772739693522453, 0.006814233027398586, 0.007616466376930475, 0.1925577074289322, -0.18103182315826416, -0.11759238690137863, -0.14965572953224182, 0.1529594361782074, 0.22484493255615234, 0.06084348261356354, 0.19609059393405914, -0.09662651270627975, 0.00632694736123085, -0.005221257451921701, 0.0282610971480608, 0.26747986674308777, 0.03718738257884979, 0.31067997217178345, -0.18084104359149933, 0.004412822425365448, 0.029554449021816254, 0.11921828985214233, 0.21232737600803375, -0.006192677188664675, 0.1931595504283905, -0.04491878300905228, 0.1612452268600464, -0.06904802471399307, 0.13869324326515198, 0.1598152220249176, 0.019771037623286247, 0.02700985223054886, -0.0353151336312294, 0.14570003747940063, 0.031562063843011856, 0.0871386006474495, 0.12833252549171448, -0.06048894673585892, 0.04699881747364998, 0.022039217874407768, 0.1340949386358261, 0.007782788947224617, 0.0529140904545784, 0.05696122348308563, -0.04555763304233551, 0.17058518528938293, -0.009516734629869461, 0.11876621842384338, 0.09948264807462692, 0.05562007799744606, 0.08729303628206253, 0.07314938306808472, 0.11636725813150406, -0.04275034740567207, -0.004468897823244333, 0.017263447865843773, -0.039184898138046265, 0.12538915872573853, -0.0797560065984726, 0.021425846964120865, -0.0026593287475407124, -0.05462440848350525, -0.06918501108884811, -0.010457653552293777, 0.11498238146305084, -0.10614039748907089, 0.026813481003046036, -0.027140583842992783, 0.03255097195506096, 0.062488824129104614, -0.08930077403783798, 0.046845484524965286, -0.06465516239404678, 0.10706442594528198, 0.19273851811885834, -0.17698805034160614, 0.040543027222156525, 0.007742362562566996, 0.02048415318131447, -0.03053392842411995, 0.007290561217814684, 0.2660829424858093, -0.08114941418170929, -0.1275588870048523, -0.03279431536793709, -0.2799166142940521, 0.010255437344312668, 0.008614984340965748, 0.30185940861701965, -0.19715994596481323, 0.06885571777820587, -0.002840618370100856, -0.24763990938663483, -0.20108662545681, 0.1432391107082367, 0.3861829340457916, -0.20318378508090973, -0.010846883058547974, 0.042705293744802475, -0.1826111078262329, -0.30662891268730164, 0.14020010828971863, 0.38480809330940247, -0.057257164269685745, 0.16135120391845703, -0.08066537231206894, -0.14965537190437317, -0.15893474221229553, -0.04432075843214989, 0.2314162701368332, -0.12390970438718796, 0.09099503606557846, 0.027122817933559418, -0.43429940938949585, -0.1326785534620285, 0.07196278125047684, 0.03752576559782028, -0.02297470159828663, -0.020092127844691277, -0.021930335089564323, -0.43870019912719727, -0.1738802194595337, -0.008964858949184418, -0.06923756003379822, -0.06009005755186081, -0.050908830016851425, -0.06174091994762421, -0.45611265301704407, -0.05302148684859276, 0.09203558415174484, 0.028385406360030174, 0.11618708819150925, -0.048691052943468094, 0.030561912804841995, -0.39053481817245483, 0.021465197205543518, 0.1071992740035057, -0.09858808666467667, 0.044225264340639114, -0.0284801684319973, -0.06450662761926651, -0.05686977505683899, -0.11539676040410995, 0.13636000454425812, -0.10990984737873077, 0.18963482975959778, 0.021771904081106186, 0.02711477316915989, -0.2850766181945801, -0.09298878908157349, 0.0931478887796402, -0.1655985713005066, 0.17282463610172272, -0.02060380019247532, -0.06208350509405136, -0.45541852712631226, -0.09280943870544434, 0.2201656848192215, -0.11914662271738052, 0.2824881672859192, -0.05015771463513374, 0.02126450464129448, -0.46073177456855774, -0.13876430690288544, 0.08954621106386185, -0.015262407250702381, 0.0204827468842268, -0.07833567261695862, -0.0819847360253334, -0.32683587074279785, -0.1315041482448578, -0.14865189790725708, -0.04023285210132599, 0.00793720968067646, -0.08233983814716339, 0.02135276235640049, -0.33580514788627625, -0.08995508402585983, 0.0226096510887146, -0.05726930499076843, 0.10724519193172455, 0.03867023438215256, -0.023411182686686516, -0.29433202743530273, -0.11134865134954453, 0.04595537111163139, 0.07865559309720993, -0.026611147448420525, -0.03343730792403221, 0.0862438976764679, -0.029882119968533516, 0.12526260316371918, 0.15944764018058777, 0.05467157065868378, 0.1298929750919342, -0.02285672351717949, 0.0843324139714241, -0.05595380812883377, -0.11941797286272049, -0.03472605720162392, 0.08639353513717651, -0.13110500574111938, -0.030520768836140633, -0.049762316048145294, -0.0815587192773819, -0.11336812376976013, 0.014028960838913918, -0.06982321292161942, 0.018424954265356064, -0.007159760221838951, -0.003648374229669571, 0.1752588301897049, -0.12508289515972137, 0.13117682933807373, 0.29709485173225403, -0.2006947249174118, 0.01597564108669758, -0.16155751049518585, 0.26553717255592346, -0.14941109716892242, -0.15182209014892578, -0.052277930080890656, -0.4682006537914276, 0.14867688715457916, -0.2843071520328522, 0.248792365193367, -0.07876675575971603, 0.12515908479690552, 0.04512542113661766, -0.5124289393424988, -0.09863893687725067, -0.05230361595749855, 0.1771077662706375, -0.046674489974975586, 0.0918450579047203, -0.095493845641613, -0.3306901752948761, 0.16867081820964813, -0.04590994864702225, 0.1697985976934433, -0.10059258341789246, -0.1319684237241745, 0.07470974326133728, -0.3048860430717468, 0.046105511486530304, 0.05672013759613037, 0.3256779611110687, -0.015275193378329277, -0.01075705885887146, -0.04658311977982521, -0.3371659219264984, -0.03931322693824768, 0.06491272151470184, 0.30077239871025085, -0.053942736238241196, 0.02758713997900486, 0.09883800894021988, -0.33261701464653015, 0.04544850066304207, 0.03426211327314377, 0.24784454703330994, -0.18304875493049622, -0.09084002673625946, -0.3211877942085266, -0.36116716265678406, -0.007862437516450882, 0.16065658628940582, 0.4218074381351471, -0.06043100357055664, -0.29134026169776917, -0.08338858932256699, -0.31241515278816223, -0.08244140446186066, -0.01868542470037937, 0.05019592121243477, 0.16646312177181244, -0.09787347912788391, 0.04007488861680031, -0.2396189570426941, 0.007685094606131315, -0.08312146365642548, -0.04455571994185448, 0.10659296810626984, -0.20502188801765442, 0.07123080641031265, -0.10724049061536789, -0.04998984932899475, -0.09694217145442963, 0.02342771552503109, -0.09416289627552032, -0.24919238686561584, -0.048319898545742035, -0.06813472509384155, -0.06547576189041138, 0.15985728800296783], [-0.5803570747375488, -0.01807991787791252, 0.0866006389260292, -0.132051482796669, -0.033559318631887436, 0.061755333095788956, -0.39308515191078186, -0.45065829157829285, -0.049791477620601654, 0.11031148582696915, 0.013003733940422535, 0.053312648087739944, -0.049068186432123184, -0.1670273393392563, -0.12469063699245453, -0.04121451452374458, -0.038253821432590485, -0.004346203990280628, 0.08088795840740204, 0.05727801099419594, -0.05944278463721275, 0.2599877715110779, 0.07559739798307419, -0.015384809114038944, -0.008985265158116817, 0.2554394006729126, 0.17112307250499725, -0.23753862082958221, 0.1560910940170288, 0.10381242632865906, -0.2880192995071411, 0.05589209869503975, 0.14937953650951385, 0.07070475816726685, -0.23607458174228668, 0.06662066280841827, 0.0241533275693655, -0.1252119541168213, 0.03825794905424118, 0.2136847972869873, 0.08736531436443329, -0.06290816515684128, 0.3713405728340149, 0.01577811874449253, -0.21794858574867249, 0.007131881546229124, 0.12352409958839417, 0.08982023596763611, 0.02073727175593376, 0.18449483811855316, 0.025439497083425522, -0.1605188548564911, 0.12809151411056519, 0.3054053485393524, 0.057666853070259094, -0.011204625479876995, 0.2701358199119568, 0.09367726743221283, -0.3443533182144165, -0.17127856612205505, 0.2827760875225067, -0.041712772101163864, -0.13338638842105865, 0.10535766184329987, 0.07506994158029556, -0.4257453978061676, -0.00672520836815238, 0.40517982840538025, -0.06908051669597626, -0.045456402003765106, 0.1511119306087494, 0.030904969200491905, -0.476163774728775, -0.07080916315317154, 0.3618657886981964, -0.021996280178427696, 0.15538130700588226, 0.16331623494625092, 0.1842089295387268, -0.381195068359375, -0.05281566455960274, 0.5456727743148804, -0.08329157531261444, -0.015830885618925095, -0.09661687910556793, 0.21419523656368256, -0.5332292318344116, 0.10963883250951767, 0.1973448097705841, -0.13486778736114502, 0.07829108834266663, 0.0647323876619339, 0.09578867256641388, -0.18744012713432312, 0.07650325447320938, 0.2583327889442444, -0.16283342242240906, -0.030810412019491196, 0.03925440087914467, -0.003150712000206113, -0.2256302386522293, -0.024274084717035294, 0.10962486267089844, -0.2922220528125763, 0.10467313230037689, -0.08864013850688934, 0.020235292613506317, -0.3115856349468231, -0.023259343579411507, 0.020264413207769394, -0.0849815085530281, 0.23764902353286743, -0.0015909489011391997, -0.03261851519346237, -0.07341140508651733, 0.16511474549770355, 0.24591247737407684, -0.10673723369836807, 0.048531606793403625, -0.09957842528820038, 0.03287161886692047, 0.0418672040104866, 0.013004212640225887, 0.2011743038892746, -0.1775301992893219, -0.07996229827404022, -0.26067572832107544, -0.17710991203784943, -0.10747400671243668, -0.10987606644630432, 0.1663835346698761, -0.1215304285287857, 0.20771531760692596, -0.201467826962471, -0.09952784329652786, 0.15005475282669067, 0.10833609104156494, -0.2414173185825348, -0.05265301465988159, 0.1516568511724472, -0.21674726903438568, -0.06662237644195557, 0.18309776484966278, 0.13403113186359406, -0.1801816076040268, -0.09504052251577377, -0.05979423597455025, -0.08015098422765732, -0.020396636798977852, 0.13583900034427643, -0.08475860208272934, -0.1680833399295807, -0.053229160606861115, -0.07572279125452042, -0.15016703307628632, -0.05575845018029213, 0.18516935408115387, -0.014559773728251457, 0.1462758630514145, -0.25557926297187805, -0.08184122294187546, -0.12753397226333618, -0.060963768512010574, 0.11365287005901337, 0.047208599746227264, -0.04235750064253807, -0.16494883596897125, 0.06863585859537125, -0.012873359024524689, -0.1521025002002716, 0.17869217693805695, 0.05151735618710518, -0.09694351255893707, -0.21362830698490143, -0.08971119672060013, -0.10643366724252701, -0.014092194847762585, -0.051140569150447845, 0.04463774338364601, 0.011077133938670158, -0.2526818811893463, 0.24768148362636566, -0.05332937836647034, -0.18859322369098663, -0.061881572008132935, 0.07513672858476639, 0.020659994333982468, -0.1887599229812622, 0.12330802530050278, 0.01958250068128109, 0.024216916412115097, -0.030370106920599937, 0.031301457434892654, -0.02864757925271988, -0.18670983612537384, 0.14002501964569092, 0.00013629056047648191, -0.014958078041672707, -0.09439588338136673, -0.008932165801525116, 0.27848756313323975, -0.19156906008720398, 0.06701477617025375, -0.08968164771795273, -0.06402605772018433, 0.07566326856613159, -0.05220603942871094, 0.17554521560668945, -0.06370260566473007, 0.023958465084433556, -0.12743732333183289, -0.07384379208087921, 0.06925714761018753, 0.10404331982135773, 0.11127942055463791, -0.29289641976356506, -0.12924082577228546, -0.11976610869169235, -0.0617290697991848, 0.193892240524292, 0.05748196691274643, 0.004254336003214121, -0.18307730555534363, -0.024005787447094917, -0.06900207698345184, -0.0536469891667366, 0.06187375634908676, 0.030904939398169518, -0.10633602738380432, -0.09219242632389069, -0.15970918536186218, -0.19289925694465637, -0.034823860973119736, 0.019146520644426346, -0.07150859385728836, 0.025074565783143044, -0.08454092592000961, 0.07453370839357376, -0.014042464084923267, 0.1188863143324852, -0.0445198230445385, 0.031065819784998894, 0.011375424452126026, -0.1354915052652359, -0.11260192841291428, 0.062297746539115906, -0.0337066575884819, -0.03431319817900658, 0.15431299805641174, -0.05489370599389076, -0.28943100571632385, -0.02458472177386284, 0.04603281617164612, -0.03559890389442444, 0.08327845484018326, 0.07252504676580429, -0.11213541775941849, -0.2161366194486618, -0.15897221863269806, 0.2933151125907898, 0.21815188229084015, -0.2850891351699829, 0.07612371444702148, -0.08224401623010635, -0.15230616927146912, -0.14790014922618866, 0.11403236538171768, 0.15245100855827332, -0.24124886095523834, -0.0258848387748003, 0.0009889488574117422, -0.10209263861179352, 0.005295390263199806, 0.09414490312337875, 0.07985974103212357, -0.11753033101558685, -0.10616300255060196, 0.036629222333431244, 0.0906401202082634, -0.1070217713713646, 0.2183445543050766, -0.04074954614043236, -0.18019913136959076, 0.1131427213549614, 0.07648703455924988, 0.10574254393577576, 0.14412549138069153, 0.04980013892054558, -0.030018853023648262, -0.15200239419937134, -0.14196009933948517, 0.0649770125746727, -0.023377710953354836, -0.11793296039104462, 0.02671944908797741, 0.08058135211467743, -0.260903000831604, -0.11778654903173447, -0.04765067249536514, 0.0421125553548336, -0.005160133354365826, 0.07114383578300476, 0.008920077234506607, -0.15730124711990356, 0.05808774381875992, 0.08906669914722443, -0.029866157099604607, -0.11162052303552628, 0.16419333219528198, 0.09610690176486969, -0.1475851833820343, -0.020306287333369255, -0.05427265167236328, 0.11053204536437988, 0.0143414456397295, -0.05618937313556671, -0.23073692619800568, -0.03602120652794838, -0.0005785088869743049, -0.0702882707118988, 0.2642199993133545, 0.0014124548761174083, -0.3259410560131073, -0.015022596344351768, -0.04742565006017685, -0.011409332044422626, 0.04239923134446144, 0.21861286461353302, -0.12000211328268051, -0.5339863300323486, -0.13174328207969666, 0.11435800045728683, -0.0615692213177681, -0.06380432844161987, -0.04170236736536026, -0.3453604578971863, -0.10313468426465988, 0.05637013167142868, -0.16507300734519958, -0.3162135183811188, 1.0024019479751587], [0.12324484437704086, -0.16360928118228912, -0.07055187970399857, 0.014309829100966454, -0.03377576172351837, 0.17280572652816772, -0.2949986457824707, 0.009271437302231789, 0.023988686501979828, -0.20098400115966797, -0.041018128395080566, 0.012407585047185421, 0.054938022047281265, 0.12324965745210648, -0.05697918310761452, 0.07632966339588165, -0.3867407441139221, 0.12563660740852356, -0.006567790638655424, -0.0968448594212532, 0.0513971671462059, 0.10636887699365616, 0.18783925473690033, -0.6502735614776611, -0.018510963767766953, 0.06013781204819679, -0.09261871129274368, -0.08227977901697159, 0.05579696223139763, 0.15223029255867004, -0.5722929835319519, -0.0024668301921337843, 0.043806254863739014, -0.19986888766288757, 0.1549512892961502, 0.05972418189048767, 0.07224377244710922, -0.35980579257011414, 0.08550211787223816, 0.09610377252101898, -0.25929659605026245, 0.12345568090677261, 0.13467133045196533, 0.06595847755670547, -0.3019479215145111, -0.06109102442860603, 0.14813770353794098, -0.3998810350894928, 0.018119651824235916, 0.1757453978061676, 0.10121605545282364, -0.21751590073108673, -0.00487500848248601, 0.017056472599506378, -0.2944449782371521, 0.08192814886569977, 0.013861604034900665, -0.026565881446003914, -0.13302390277385712, 0.054563023149967194, -0.07670373469591141, -0.5270918607711792, 0.003825558116659522, -0.014165690168738365, 0.04399961978197098, -0.07881441712379456, 0.06645405292510986, 0.05238042771816254, -0.7232402563095093, 0.03282329812645912, -0.20899081230163574, 0.026037117466330528, -0.09011819213628769, -0.13768748939037323, -0.0049246083945035934, -0.5978444814682007, 0.02832574024796486, 0.025495756417512894, -0.11594974249601364, 0.07738368213176727, 0.008336341939866543, -0.06830696761608124, -0.5335767865180969, -0.023750683292746544, -0.12666091322898865, -0.04045642539858818, 0.21099965274333954, -0.043372951447963715, 0.050716932862997055, -0.5127529501914978, 0.0729994848370552, -0.01056346669793129, -0.0017872108146548271, 0.12459924817085266, 0.05992690101265907, -0.013938273303210735, -0.45241495966911316, -0.05921395868062973, 0.031652484089136124, -0.013709401711821556, 0.1616540402173996, -0.024275097995996475, -0.09720510244369507, -0.6343691349029541, -0.06728670001029968, 0.04254486411809921, -0.06175803020596504, 0.08046089857816696, 0.04897279292345047, 0.09848500788211823, -0.7675379514694214, -0.13788019120693207, 0.13685597479343414, -0.013577951118350029, 0.2741169333457947, -0.042447786778211594, -0.10545410215854645, -0.5642903447151184, -0.11242209374904633, 0.007561331149190664, -0.1912408322095871, 0.308251291513443, -0.05622945725917816, -0.047231629490852356, -0.545454204082489, -0.056421104818582535, -0.016769008710980415, -0.07310584932565689, 0.19382639229297638, 0.06490395218133926, 0.024349462240934372, -0.5111042261123657, -0.18011868000030518, -0.0071897380985319614, -0.15847347676753998, 0.2754559814929962, 0.08082278072834015, -0.01959344930946827, -0.37560397386550903, -0.18331195414066315, -0.012428670190274715, 0.10709205269813538, 0.3666408360004425, -0.0712660551071167, -0.01926218718290329, -0.5228909254074097, -0.14337605237960815, 0.030276067554950714, -0.1576894074678421, 0.2615218758583069, -0.10004714131355286, 0.06037098914384842, -0.4819263815879822, -0.13051466643810272, 8.55428515933454e-06, -0.12441350519657135, 0.18626077473163605, 0.028021471574902534, -0.10171401500701904, -0.30502375960350037, -0.3667360544204712, 0.02594159170985222, -0.000769376871176064, 0.3077687621116638, 0.04040323570370674, -0.12897993624210358, -0.5534390211105347, -0.1742566078901291, 0.011949777603149414, -0.10548311471939087, 0.24499768018722534, 0.058794014155864716, -0.04445495828986168, -0.5190932154655457, -0.08502277731895447, -0.02260516956448555, -0.15633399784564972, 0.45130205154418945, 0.05990703031420708, 0.1328878104686737, -0.5238752961158752, -0.09365340322256088, 0.04818147048354149, -0.12701131403446198, 0.264218807220459, 0.021397557109594345, -0.0723985880613327, -0.4240587651729584, -0.19982369244098663, -0.018014293164014816, -0.06192360445857048, 0.2763431668281555, -0.09968757629394531, -0.12528245151042938, -0.2793225049972534, -0.16161182522773743, 0.13902318477630615, -0.057720959186553955, 0.33422914147377014, -0.14809276163578033, -0.02554478496313095, -0.5023366808891296, 0.04980454593896866, 0.010498050600290298, -0.1166074275970459, 0.13099846243858337, 0.03787476569414139, 0.07206902652978897, -0.17059670388698578, -0.1488109529018402, 0.0022528565023094416, -0.12349256873130798, 0.10192538797855377, -0.03321355581283569, 0.13892124593257904, -0.28525426983833313, 0.04819181561470032, -0.12416805326938629, -0.019826536998152733, -0.0656898096203804, 0.11139614135026932, 0.019014542922377586, -0.27420008182525635, -0.013405677862465382, 0.008001581765711308, -0.04180237278342247, -0.06366313248872757, -0.16932694613933563, -0.23918147385120392, -0.2225162833929062, 0.1481989175081253, -0.09157932549715042, -0.013179641216993332, -0.10777673870325089, -0.04718584194779396, -0.18646809458732605, -0.15351471304893494, 0.07081156969070435, -0.11924457550048828, 0.06523796916007996, -0.035719212144613266, 0.13936494290828705, -0.4054197371006012, -0.19715219736099243, 0.18201720714569092, -0.11228738725185394, 0.13209855556488037, -0.17272549867630005, -0.09583338350057602, -0.5211391448974609, -0.4967755377292633, 0.17700597643852234, -0.05904615670442581, 0.11394406110048294, -0.17302797734737396, -0.05282916501164436, -0.34082716703414917, -0.4099307060241699, 0.2497239112854004, -0.09590008109807968, 0.20266537368297577, -0.25793346762657166, 0.01499740220606327, -0.17999319732189178, -0.23779326677322388, 0.1367911398410797, 0.029205191880464554, 0.12625518441200256, -0.30502960085868835, -0.056104108691215515, -0.030750205740332603, -0.2846725285053253, -0.02086677774786949, 0.05957600846886635, 0.06633111834526062, -0.5188351273536682, -0.07293474674224854, -0.020640896633267403, -0.20819857716560364, -0.09296373277902603, -0.0009282211540266871, 0.21435604989528656, -0.43779245018959045, 0.018106680363416672, -0.01144694909453392, 0.04116056114435196, -0.03734850883483887, 0.13032101094722748, 0.24013248085975647, -0.5999341011047363, -0.15628769993782043, 0.0836070328950882, -0.024353843182325363, -0.14008645713329315, 0.1256742775440216, 0.24991776049137115, -0.4471934139728546, -0.09936585277318954, 0.056675445288419724, 0.18940572440624237, -0.3467390537261963, -0.012800817377865314, 0.05187593773007393, -0.6076138019561768, 0.017133234068751335, 0.004671151749789715, 0.23948068916797638, -0.46468430757522583, 0.12842775881290436, 0.08813215047121048, -0.4227898418903351, 0.04553333297371864, 0.15139316022396088, 0.41509586572647095, -0.11983326822519302, 0.08023066073656082, -0.037568625062704086, -0.3715604841709137, -0.03675093874335289, -0.08316752314567566, 0.21622039377689362, -0.10008291900157928, 0.059579551219940186, -0.1998032033443451, -0.37223702669143677, -0.0436776764690876, -0.043408915400505066, 0.2888871133327484, -0.5678820610046387, 0.18096567690372467, -0.3157711327075958, -0.3198097050189972, 0.0005272062844596803, 0.017442330718040466, 0.327757865190506, -0.4781872630119324, 0.08720964938402176, 0.05421719327569008, -0.7154198884963989, 0.573429524898529, 0.339778333902359], [-0.32623809576034546, -0.05394180119037628, 0.1661776304244995, 0.005706602241843939, -0.15377728641033173, -0.011724134907126427, 0.3951576054096222, -0.31150153279304504, -0.025590552017092705, 0.3714105784893036, 0.10984671115875244, -0.14572016894817352, -0.043729547411203384, 0.33243003487586975, -0.2208992838859558, 0.09392143785953522, -0.08433189243078232, -0.0020995899103581905, -0.07287801057100296, -0.05296728014945984, 0.36408063769340515, -0.3524652123451233, 0.040553297847509384, -0.3233392834663391, 0.09892259538173676, -0.05490526929497719, -0.09785573184490204, 0.4278320074081421, -0.20342999696731567, -0.077362060546875, -0.28165677189826965, 0.009248294867575169, -0.06842392683029175, -0.2188444882631302, 0.16333962976932526, 0.00964252557605505, -0.073297418653965, -0.35146573185920715, -0.043180469423532486, -0.030956434085965157, -0.10715752840042114, 0.010069810785353184, -0.04840898886322975, -0.17806540429592133, -0.12355095893144608, 0.10880033671855927, -0.04720299318432808, 0.27462559938430786, -0.052685145288705826, -0.0657029002904892, -0.0889950841665268, -0.09708459675312042, 0.16016435623168945, -0.029692981392145157, 0.42114531993865967, 0.029840540140867233, 0.039689160883426666, -0.12082923948764801, -0.12237570434808731, -0.05781858041882515, 0.004201869945973158, 0.0473909005522728, -0.008425041101872921, 0.09975330531597137, -0.02132490649819374, -0.1716839075088501, -0.017082424834370613, 0.028004415333271027, 0.15673696994781494, 0.08132176101207733, 0.16354569792747498, 0.037550657987594604, -0.17962577939033508, -0.05523968115448952, 0.05936617776751518, 0.07849196344614029, 0.13017451763153076, -0.07494568079710007, 0.07592050731182098, -0.20965087413787842, 0.016633182764053345, -0.015870485454797745, 0.2549956142902374, 0.09656074643135071, -0.08034620434045792, -0.05831556022167206, -0.10989119857549667, 0.1361997276544571, -0.012073189951479435, 0.11866974085569382, -0.007489650510251522, 0.13391098380088806, -0.14237172901630402, -0.10638619214296341, -0.05778459087014198, -0.013170323334634304, 0.18227984011173248, -0.09761583060026169, -0.012120402418076992, -0.031173931434750557, -0.013291261158883572, -0.02263008803129196, -0.02356654591858387, 0.03865765780210495, 0.006408040877431631, -0.06466761231422424, -0.20601870119571686, -0.20188364386558533, 0.02237890101969242, -0.042667921632528305, 0.13272406160831451, -0.12380727380514145, 0.023922676220536232, -0.10654199123382568, -0.1174660325050354, 0.03334580734372139, -0.001597842201590538, 0.0680660828948021, -0.049335259944200516, 0.05375302955508232, 0.04609591141343117, 0.03593498840928078, 0.029748301953077316, 0.032428186386823654, 0.11510629206895828, 0.015280879102647305, 0.02437085472047329, -0.01850101724267006, -0.08291497081518173, 0.009763824753463268, 0.08398988842964172, 0.12984253466129303, -0.003386185271665454, -0.0502324216067791, -0.02350654825568199, -0.0415889210999012, 0.018341299146413803, 0.0629432275891304, -0.014217494986951351, -0.07668856531381607, -0.012944256886839867, 0.055719174444675446, -0.016397003084421158, 0.020234806463122368, -0.0005430163000710309, 0.15775516629219055, -0.01248541846871376, 0.0541999451816082, 0.025487767532467842, -0.04918399453163147, -0.09117282181978226, 0.047502823173999786, 0.05951419100165367, -0.03787326067686081, 0.01997879520058632, 0.1520700454711914, -0.04244748502969742, -0.10557921230792999, -0.0019422851037234068, -0.03345419839024544, -0.03077029436826706, -0.0190128143876791, 0.01320604421198368, -0.18187475204467773, 0.03323075920343399, 0.012728109955787659, 0.07908699661493301, -0.07236345112323761, 0.021740403026342392, 0.14680159091949463, -0.054721977561712265, 0.007897483184933662, 0.017426392063498497, 0.23987920582294464, -0.03383350744843483, 0.08338705450296402, 0.04570736736059189, -0.05737947300076485, -0.019933896139264107, 0.03203117474913597, 0.21024152636528015, -0.10477849841117859, 0.11359099298715591, 0.1332288533449173, 0.019869258627295494, -0.10053128749132156, 0.18085765838623047, 0.16559657454490662, -0.09786932170391083, -0.05499669164419174, 0.10974918305873871, -0.0948796272277832, -0.16172626614570618, 0.5135239362716675, 0.19419144093990326, -0.16294161975383759, 0.01815793476998806, 0.10559484362602234, -0.014712219126522541, -0.022168094292283058, 0.1592595875263214, 0.13858072459697723, -0.1496753841638565, -0.027519816532731056, 0.06313353776931763, -0.033460989594459534, 0.12317003309726715, 0.028577137738466263, 0.1743389219045639, -0.30521222949028015, 0.030696764588356018, 0.12183370441198349, 0.055133409798145294, 0.0032189039047807455, 0.1350182592868805, 0.18848887085914612, -0.20254912972450256, 0.008296586573123932, 0.08403792977333069, 0.06252371519804001, 0.017576755955815315, -0.12326404452323914, 0.2768416106700897, -0.21341894567012787, 0.014204547740519047, 0.10497020930051804, 0.06354042887687683, 0.009495159611105919, 0.10912211984395981, 0.08437389880418777, -0.24372979998588562, 0.017004255205392838, 0.10611160844564438, 0.07611433416604996, -0.14929825067520142, 0.07007276266813278, 0.2624712884426117, -0.24152302742004395, -0.030677558854222298, 0.2818565368652344, 0.09477317333221436, -0.10477662831544876, 0.0330376997590065, 0.12640728056430817, -0.27761590480804443, -0.1593017280101776, 0.1624675840139389, -0.0039888047613203526, -0.1408521980047226, -0.04658832773566246, 0.19036681950092316, -0.2761898338794708, -0.2141023576259613, 0.1750296950340271, 0.017164412885904312, -0.0793856605887413, 0.06956398487091064, 0.3378298878669739, -0.36383897066116333, -0.333991676568985, 0.25882625579833984, 0.04103211313486099, -0.007783021777868271, -0.10370596498250961, 0.36866798996925354, -0.33842724561691284, -0.3522224426269531, 0.13953731954097748, 0.03804447874426842, -0.08075825870037079, -0.12362061440944672, 0.4479500949382782, -0.17198865115642548, -0.34387847781181335, 0.04572877660393715, 0.009027136489748955, 0.020821625366806984, -0.07990698516368866, 0.3846176266670227, -0.09926734864711761, -0.33184680342674255, 0.089908167719841, 0.11747774481773376, -0.1606776863336563, -0.08865372091531754, 0.4416537880897522, -0.13135279715061188, -0.2304438352584839, 0.060568228363990784, -0.007521471939980984, -0.13532987236976624, -0.07951861619949341, 0.4591822028160095, -0.1551494598388672, -0.09668299555778503, -0.10538353025913239, -0.11879237741231918, -0.07348752021789551, -0.023380573838949203, 0.34941554069519043, -0.06122353672981262, -0.032745301723480225, -0.047485705465078354, -0.1952822506427765, -0.12285934388637543, -0.07272686809301376, 0.2595936357975006, 0.08786451071500778, 0.02896975912153721, -0.1905307024717331, -0.003198728896677494, -0.027677295729517937, -0.07656814903020859, 0.30175626277923584, 0.07768580317497253, 0.13768288493156433, -0.1439489871263504, 0.029822150245308876, 0.013967247679829597, 0.013913138769567013, 0.17860035598278046, 0.26408401131629944, -0.08885961025953293, -0.08373647183179855, 0.11840302497148514, -0.006666878703981638, 0.03089289925992489, 0.10939789563417435, 0.39018335938453674, -0.34819746017456055, 0.007464544381946325, 0.020384224131703377, -0.0071673146449029446, -0.06780201196670532, 0.1143677681684494, 0.3533231019973755, -0.34593841433525085, -0.07885555177927017, -0.009000546298921108, -0.24716638028621674, 0.3786984384059906], [0.039773691445589066, 0.07688956707715988, 0.5077974796295166, 0.0005003436817787588, -0.018187372013926506, -0.17385704815387726, 0.05711354687809944, -0.002600048203021288, 0.05470938980579376, 0.4064368009567261, 0.003889689454808831, -0.056316252797842026, -0.005178528372198343, -0.17715702950954437, -0.007346606347709894, 0.1294831484556198, 0.4583602547645569, -0.05260491371154785, -0.10279468446969986, -0.03286145254969597, -0.2070753425359726, 0.09960328042507172, 0.06465432792901993, 0.14081870019435883, -0.07514537125825882, -0.12938185036182404, 0.11837197840213776, -0.09303880482912064, -0.08262480795383453, 0.02159472554922104, 0.06149471551179886, 0.12374380975961685, -0.17035101354122162, 0.18939609825611115, -0.08540558069944382, -0.07055587321519852, -0.0397220142185688, -0.12131734192371368, 0.1247050017118454, -0.13986742496490479, -0.1369171440601349, 0.1066008061170578, -0.2505667209625244, -0.11272759735584259, 0.0009466350311413407, -0.05654953792691231, -0.23068074882030487, -0.014531745575368404, 0.06526760011911392, -0.21762461960315704, -0.05313640087842941, -0.13074888288974762, 0.008701655082404613, -0.2876127362251282, -0.14933906495571136, 0.12359841167926788, -0.15708471834659576, 0.0279465913772583, -0.1904841959476471, 0.0688990131020546, -0.13924793899059296, -0.094009168446064, 0.12826114892959595, -0.025223636999726295, -0.02560272440314293, -0.30259644985198975, 0.025936830788850784, -0.2521386444568634, -0.021240515634417534, 0.10811605304479599, -0.0551735982298851, 0.20304860174655914, -0.5117524266242981, 0.05131194740533829, -0.20841585099697113, -0.1016649603843689, 0.208598792552948, -0.0684875026345253, 0.23156346380710602, -0.783241331577301, -0.06196756288409233, -0.11756031215190887, 0.09393510222434998, 0.14038212597370148, 0.076971635222435, 0.3047257661819458, -0.8208335638046265, 0.04515593871474266, -0.06239696964621544, -0.01150448340922594, 0.18316040933132172, -0.019321225583553314, 0.29823288321495056, -0.43034088611602783, 0.022508487105369568, -0.19265933334827423, -0.04144281893968582, 0.11890693753957748, 0.09955962002277374, 0.07081572711467743, -0.20315700769424438, -0.09012763947248459, -0.02117251604795456, -0.12155862897634506, -0.09621954709291458, 0.08998142182826996, 0.15358039736747742, 0.20759131014347076, 0.009618065319955349, 0.09960095584392548, 0.01701408065855503, -0.17227695882320404, 0.06491632759571075, -0.04975271597504616, -0.12262772023677826, -0.07721178978681564, 0.21759779751300812, -0.022927310317754745, -0.05479270964860916, 0.034261349588632584, 0.196921706199646, -0.07379020750522614, 0.09338810294866562, -0.19022467732429504, -0.02755248174071312, 0.0460050106048584, -0.00245120981708169, 0.11483729630708694, -0.1600557416677475, 0.0319175198674202, -0.120761439204216, 0.11713897436857224, 0.01500210352241993, -0.05300382152199745, -0.013479088433086872, -0.1401025950908661, -0.06890397518873215, 0.06467748433351517, -0.0029882360249757767, 0.03268120065331459, 0.015889203175902367, 0.029038920998573303, -0.1784118413925171, -0.10677578300237656, -0.1814463585615158, -0.01627359539270401, 0.10837464034557343, -0.11154755204916, 0.19045235216617584, -0.3023803234100342, 0.0413295216858387, -0.12750126421451569, -0.08196555823087692, 0.023311102762818336, 0.15122544765472412, 0.08066752552986145, -0.3625098168849945, 0.09177370369434357, 0.04655285179615021, -0.021198656409978867, 0.08278146386146545, 0.030246486887335777, 0.14997658133506775, -0.12648990750312805, 0.1364205777645111, -0.05467994511127472, 0.055308181792497635, 0.06485021114349365, -0.03295513615012169, 0.0701030045747757, -0.2799240052700043, 0.05323532968759537, -0.16734199225902557, 0.0678769201040268, 0.03832709789276123, 0.049072518944740295, 0.03842594102025032, -0.05300605669617653, -0.09373114258050919, -0.07327160239219666, -0.19083534181118011, 0.2291172593832016, 0.13083110749721527, 0.0607517845928669, -0.1498343050479889, 0.09965454787015915, 0.002689892891794443, -0.06773730367422104, -0.032121460884809494, -0.014652296900749207, 0.012354095466434956, -0.09776398539543152, -0.01038067415356636, -0.06868952512741089, -0.010625364258885384, 0.16783979535102844, -0.007638522889465094, -0.153030663728714, -0.20562602579593658, 0.04500865936279297, 0.22915171086788177, 0.13990776240825653, 0.03428202494978905, -0.09909100830554962, 0.06486795097589493, -0.13462769985198975, -0.10837063193321228,