{"schema_version": 1, "metadata": {"global_step": 50001920, "run_name": "v102_b2beta", "obs_size": 341, "hidden_size": 64, "action_space_size": 18}, "weights": {"fc1.weight": [[0.2259771078824997, -0.09149311482906342, -0.009670897386968136, -0.054915718734264374, 0.06435693800449371, -0.01820714771747589, -0.0678999125957489, 0.1375056803226471, -0.012691808864474297, -0.24674060940742493, -0.01894732192158699, 0.04548119753599167, -0.07063421607017517, 0.02002752013504505, 0.09103874117136002, 0.1383325755596161, -0.0725446566939354, -0.10491219907999039, -0.009915170259773731, 0.00291230040602386, -0.49114587903022766, 0.2293408215045929, -0.10833007842302322, 0.0437595508992672, 0.044964734464883804, -0.0500459223985672, -0.04753835126757622, -0.18429231643676758, 0.22025002539157867, -0.034413766115903854, -0.1384183168411255, 0.21999728679656982, 0.04206041619181633, -0.15310990810394287, 0.012463603168725967, 0.16003814339637756, -0.03737609460949898, -0.11181626468896866, -0.037794485688209534, 0.15981370210647583, 0.12456589937210083, -0.07108589261770248, 0.18677997589111328, -0.08291343599557877, -0.11464275419712067, -0.09872739762067795, 0.08179762959480286, 0.17037490010261536, 0.011273340322077274, 0.05846811830997467, 0.138858363032341, -0.14204250276088715, -0.016150062903761864, 0.0513443797826767, 0.13993805646896362, -0.1156795471906662, 0.2310548573732376, 0.05433220416307449, -0.3628416955471039, 0.18757782876491547, -0.01639196090400219, 0.029753219336271286, -0.14689408242702484, 0.09408999234437943, -0.040322426706552505, -0.18963424861431122, -0.07957407832145691, 0.037192054092884064, 0.3098437786102295, 0.04236473888158798, 0.12436450272798538, -0.029722725972533226, -0.21845237910747528, 0.05782438814640045, -0.11017350107431412, 0.1291428953409195, -0.10507003962993622, 0.12678475677967072, 0.24688413739204407, -0.24867406487464905, -0.012726463377475739, 0.19748030602931976, 0.17397229373455048, 0.01976579986512661, 0.17207524180412292, -0.05990489199757576, -0.09860116988420486, -0.0410986989736557, -0.02048981562256813, -0.03616636246442795, 0.005129617173224688, 0.2235928773880005, -0.020319778472185135, -0.13393588364124298, 0.009255492128431797, 0.12022843956947327, 0.10977578908205032, 0.06503022462129593, 0.18469084799289703, -0.04474937170743942, -0.13648155331611633, 0.17201298475265503, 0.037156932055950165, 0.012230861000716686, 0.09705248475074768, -0.023978428915143013, -0.16735133528709412, -0.21342192590236664, -0.11867991834878922, -0.05627942085266113, 0.1093367487192154, 0.09231320768594742, -0.02867492288351059, -0.07750265300273895, -0.10041466355323792, 0.16302445530891418, 0.023336084559559822, -0.016979074105620384, -0.09241199493408203, 0.13167287409305573, -0.034876544028520584, 0.06160854175686836, -0.04967937991023064, -0.10527767241001129, 0.056259635835886, -0.06416146457195282, -0.002062481129541993, 0.04784183204174042, 0.11801761388778687, 0.028448719531297684, -0.01823662593960762, -0.13517814874649048, -0.052406150847673416, 0.046881359070539474, -0.26158174872398376, -0.0014387767296284437, -0.025379730388522148, -0.04346725717186928, -0.10050027072429657, -0.0011370480060577393, 0.059349026530981064, 0.018864048644900322, 0.040573589503765106, -0.048978857696056366, 0.003461346263065934, -0.07591298967599869, -0.10773470252752304, -0.016584457829594612, -0.08764559775590897, -0.0882532149553299, 0.1968642771244049, 0.01457175798714161, -0.3309764862060547, 0.06911210715770721, -0.00475270627066493, -0.10146404802799225, 0.11941099166870117, 0.14844629168510437, -0.13513001799583435, -0.33842140436172485, 0.13986872136592865, 0.15047866106033325, 0.052968356758356094, -0.08240959793329239, 0.037174053490161896, 0.0049683451652526855, -0.5577651262283325, 0.28021547198295593, -0.03849731385707855, -0.0449640229344368, -0.11113407462835312, 0.11063992977142334, -0.2390012890100479, -0.5173354744911194, 0.10598018020391464, 0.07726544141769409, -0.022515323013067245, -0.02635335735976696, 0.032530587166547775, -0.4812830686569214, -0.7554211616516113, 0.1290295273065567, -0.0963209867477417, 0.10123258084058762, -0.15986885130405426, 0.005515762604773045, -0.4796178340911865, -0.875729501247406, 0.10854912549257278, -0.02851756662130356, -0.09207256883382797, -0.13896284997463226, -0.008217346854507923, -0.050600480288267136, -0.8317800164222717, 0.15102599561214447, 0.04056112468242645, -0.10081162303686142, -0.08667878061532974, 0.025151744484901428, -0.1251121610403061, -0.8261715173721313, 0.1837330162525177, 0.01960940472781658, 0.08494032174348831, -0.16171084344387054, -0.03371693193912506, -0.38349229097366333, -0.785883367061615, 0.1888079196214676, 0.010815972462296486, 0.09628245234489441, -0.11786077916622162, -0.13780483603477478, -0.32325980067253113, -0.7054944038391113, 0.23747529089450836, 0.011024154722690582, 0.05892490968108177, -0.22119179368019104, -0.020384829491376877, -0.409394770860672, -0.4959897994995117, 0.2202233374118805, 0.018558723852038383, -0.005317217204719782, -0.19080156087875366, -0.07783439755439758, -0.47177374362945557, -0.56100994348526, 0.2291945070028305, 0.062261566519737244, 0.08828388154506683, -0.13776865601539612, -0.16065534949302673, -0.10976938158273697, -0.35952603816986084, 0.11504338681697845, 0.22702792286872864, -0.03300834074616432, -0.13823571801185608, -0.11362965404987335, -0.1378275454044342, -0.17272087931632996, 0.05132526904344559, -0.03659482300281525, 0.01738554798066616, -0.23977729678153992, 0.06540762633085251, 0.09457676112651825, -0.19187965989112854, 0.1868438422679901, 0.1758396029472351, 0.07299705594778061, -0.03532249853014946, 0.00810005608946085, -0.1881418526172638, -0.2008361518383026, 0.15386584401130676, 0.10512306541204453, 0.05265279486775398, -0.32341328263282776, -0.05229395255446434, -0.05879656597971916, -0.16678142547607422, 0.046778105199337006, 0.11481615900993347, -0.02199416421353817, -0.2901148498058319, -0.021722208708524704, -0.29026398062705994, -0.12355558574199677, 0.16649024188518524, 0.02322571724653244, 0.07124371826648712, -0.27236390113830566, -0.060309819877147675, -0.1847432255744934, 0.043593116104602814, 0.10746190696954727, 0.07315967231988907, -0.05028846859931946, -0.16300468146800995, 0.02495807595551014, -0.07055024802684784, 0.21879597008228302, -0.09709882736206055, 0.008592063561081886, 0.10128523409366608, -0.5728196501731873, 0.08462193608283997, -0.024296680465340614, 0.052563734352588654, -0.19835986196994781, -0.03467453643679619, 0.08671393990516663, -0.28110581636428833, 0.025898244231939316, 0.20430918037891388, 0.12482915818691254, -0.07825236022472382, 0.1703735888004303, 0.04105188697576523, -0.3311532735824585, 0.007818708196282387, -0.044223032891750336, 0.18146680295467377, 0.12049391120672226, 0.010193930007517338, -0.09308275580406189, -0.35388460755348206, 0.028095463290810585, 0.006440293975174427, 0.18161238729953766, 0.17268571257591248, -0.23257970809936523, -0.03423754498362541, -0.016676319763064384, -0.05780032277107239, -0.06837736815214157, 0.07255617529153824, 0.3621644973754883, 0.08382392674684525, 0.0224348995834589, -0.1215214729309082, -0.06586486846208572, 0.0850532129406929, 0.0591730996966362, -0.10869518667459488, 0.004572685807943344, -0.15605099499225616, -0.062403202056884766, 0.028232092037796974, 0.07089018076658249, 0.032962266355752945, -0.3160123825073242, -0.018574541434645653, 0.27470603585243225, 0.730603039264679, -0.19846761226654053, 0.7508431077003479], [-0.14652377367019653, 0.11470941454172134, -0.07408508658409119, -0.09144371002912521, 0.18359634280204773, -0.071772001683712, -0.22064150869846344, -0.17563080787658691, -0.08205889910459518, 0.009267075918614864, 0.08236707001924515, 0.04880497232079506, -0.10275281965732574, -0.07702109217643738, 0.027319839224219322, 0.14485406875610352, -0.05029893293976784, 0.026701979339122772, 0.1479729413986206, -0.12794342637062073, -0.10816381126642227, 0.07497730106115341, 0.20637322962284088, -0.1210201233625412, -0.07806600630283356, 0.1546851545572281, -0.09252889454364777, -0.19506555795669556, 0.13473694026470184, 0.25651276111602783, -0.09080293029546738, 0.047376859933137894, 0.12904664874076843, -0.03449920564889908, -0.07829571515321732, 0.021905705332756042, -0.050905924290418625, 0.007138769142329693, -0.029537495225667953, 0.0531332865357399, -0.0550302118062973, 0.004503000993281603, 0.19175219535827637, 0.08161472529172897, -0.19301992654800415, 0.04235531762242317, 0.017748020589351654, -0.1524278074502945, 0.035643767565488815, 0.16194064915180206, 0.2287324070930481, -0.21336542069911957, 0.06037486344575882, 0.03934961557388306, -0.04963444545865059, 0.019624538719654083, 0.2348814159631729, 0.13643915951251984, -0.4684002995491028, 0.01251243520528078, 0.01641584001481533, 0.012585928663611412, 0.10466539114713669, 0.07828578352928162, -0.08534233272075653, -0.3170594274997711, -0.046092402189970016, 0.14189918339252472, 0.29407787322998047, -0.09922357648611069, 0.056456513702869415, 0.02685607224702835, -0.5529377460479736, 0.02783999964594841, 0.1186516210436821, -0.05049874633550644, 0.16488993167877197, 0.10767874866724014, 0.05790404602885246, -0.5937297940254211, -0.028499219566583633, 0.1951373815536499, 0.18006230890750885, 0.17969372868537903, -0.14784903824329376, 0.11375598609447479, -0.4220271408557892, -0.005420919973403215, -0.05365784466266632, 0.30176204442977905, 0.13696414232254028, 0.06522087752819061, 0.05246340483427048, -0.5614722967147827, -0.1722412407398224, -0.11223844438791275, 0.13409173488616943, 0.1349859982728958, -0.036042798310518265, 0.2319188416004181, -0.4781862199306488, -0.03249431028962135, -0.17800237238407135, 0.05323170870542526, 0.04603635519742966, 0.04678204655647278, 0.008040803484618664, -0.5914095640182495, -0.014233698137104511, 0.10393369197845459, 0.23782184720039368, 0.1437343955039978, 0.09287023544311523, 0.30091461539268494, -0.5559477210044861, -0.02567887492477894, 0.008906597271561623, 0.03455983102321625, 0.09930416196584702, -0.10448849201202393, 0.04513702541589737, -0.45478591322898865, 0.1438455730676651, -0.08451228588819504, 0.1391075700521469, 0.24147973954677582, 0.041405051946640015, 0.03762110695242882, -0.45208483934402466, -0.14667335152626038, 0.062138624489307404, 0.10863637924194336, 0.2904100716114044, -0.0009577411110512912, 0.06774067133665085, -0.5301424860954285, -0.10775063931941986, 0.01896635815501213, 0.02517031505703926, 0.23396585881710052, -0.030905280262231827, 0.15053237974643707, -0.5521187782287598, -0.049182046204805374, 0.04233929514884949, 0.05230583995580673, 0.3657930791378021, -0.074726402759552, 0.059642624109983444, -0.3290891945362091, -0.053565409034490585, 0.1610323041677475, 0.013575209304690361, 0.2911190986633301, -0.06880000978708267, 0.08753904700279236, 0.010366183705627918, 0.00046894553815945983, -0.1427726447582245, 0.05441661551594734, 0.01663176529109478, 0.03162273019552231, 0.06847623735666275, -0.04507872089743614, 0.03143664449453354, -0.0043470715172588825, -0.2166556864976883, -0.19149388372898102, -0.09226948022842407, -0.11649057269096375, 0.26394277811050415, 0.0217220950871706, 0.024305012077093124, -0.26271313428878784, 0.06536761671304703, -0.08484403043985367, -0.21367880702018738, -0.01215471513569355, -0.05759405344724655, -0.14840272068977356, -0.02496677078306675, 0.037730731070041656, -0.08188938349485397, -0.20339958369731903, -0.04698050394654274, 0.020753249526023865, 0.06715305894613266, 0.026764407753944397, -0.0647239238023758, -0.04232688248157501, -0.0856374129652977, -0.03571219742298126, 0.004522170405834913, -0.044600170105695724, -0.06982319802045822, 0.09158086776733398, 0.00821696873754263, 0.007757155224680901, -0.1591852307319641, 0.04773859307169914, -0.13104017078876495, -0.22906556725502014, -0.009645866230130196, -0.09106867760419846, -0.10228949040174484, -0.07945753633975983, 0.06259340792894363, 0.037887852638959885, -0.1407199501991272, 0.060224153101444244, -0.239475280046463, -0.27357935905456543, 0.19468054175376892, -0.22807128727436066, 0.0929035171866417, -0.230528324842453, 0.050481535494327545, 0.008569462224841118, -0.15325473248958588, 0.15214523673057556, 0.06958667188882828, -0.164324089884758, 0.11879322677850723, -0.0027640152256935835, -0.2503197193145752, -0.1254824846982956, 0.07108481228351593, 0.10477858036756516, -0.21727389097213745, -0.0478798933327198, -0.11908497661352158, -0.2868053913116455, -0.11997122317552567, 0.33622413873672485, 0.08446264266967773, -0.2494814544916153, -0.08606777340173721, -0.0682082250714302, -0.02471078932285309, -0.23145152628421783, 0.1829167902469635, -0.10208595544099808, -0.12020397186279297, 0.02870653010904789, 0.03672405704855919, 0.05234567075967789, 0.0743192583322525, 0.28741928935050964, -0.18415658175945282, -0.2487647384405136, -0.07873407006263733, 0.03749536722898483, -0.09603753685951233, 0.07659423351287842, 0.24734807014465332, -0.11843027919530869, -0.3843249976634979, -0.06621715426445007, 0.0028315174859017134, -0.14711260795593262, -0.06401991099119186, 0.2592340409755707, 0.09906752407550812, 0.2396516501903534, -0.15475212037563324, -0.016609685495495796, -0.14915511012077332, -0.2134668081998825, 0.26640811562538147, 0.024585800245404243, 0.2353866547346115, -0.10637512803077698, -0.03821127116680145, -0.10415894538164139, -0.16442978382110596, 0.1876680552959442, 0.07016868889331818, 0.06457631289958954, -0.044093433767557144, 0.2354225516319275, -0.031389642506837845, -0.2992801070213318, 0.2735646665096283, 0.05995814874768257, -0.1946723908185959, -0.21396204829216003, 0.2250528335571289, -0.05013932287693024, -0.2003987580537796, 0.3322295546531677, 0.01809859275817871, 0.11459443718194962, -0.07306120544672012, 0.13616327941417694, -0.014425789006054401, -0.2808050811290741, 0.33396613597869873, 0.062062643468379974, -0.14116758108139038, -0.09896253794431686, 0.38648420572280884, 0.04597102105617523, -0.2276138961315155, 0.4001867473125458, -0.07792642712593079, -0.08121300488710403, -0.2608395218849182, 0.21023397147655487, 0.1996265947818756, -0.010624255053699017, 0.10039914399385452, 0.07163932174444199, -0.10339140892028809, -0.08412174135446548, 0.3916883170604706, 0.26278769969940186, -0.0041587320156395435, 0.2129332721233368, -0.1262567788362503, -0.025263702496886253, -0.016712775453925133, 0.31111109256744385, 0.2281012237071991, 0.04828302562236786, 0.032331518828868866, -0.03648635745048523, -0.07150452584028244, -0.026302967220544815, 0.354369580745697, -0.03574048727750778, -0.13022910058498383, -0.057591672986745834, 0.09923943877220154, 0.022140948101878166, -0.12425790727138519, 0.4232889413833618, -0.1820322722196579, 0.1432500183582306, -0.6096712350845337, 0.40016254782676697, -0.3371348977088928], [0.3336544632911682, -0.08264733850955963, 0.3291988670825958, 0.010060099884867668, -0.17564937472343445, 0.09925196319818497, 0.031980209052562714, 0.11773858964443207, -0.03685224801301956, 0.19961045682430267, 0.043199822306632996, -0.1667969971895218, 0.14104807376861572, 0.05280723795294762, -0.23153427243232727, 0.006898912135511637, 0.152899369597435, 0.06300079822540283, -0.19379065930843353, -0.0010308913188055158, 0.2021295130252838, 0.06875080615282059, 0.09113213419914246, -0.0631696805357933, -0.1000923365354538, -0.09268182516098022, -0.03796583414077759, 0.022550495341420174, 0.17590907216072083, 0.14299194514751434, -0.14547257125377655, -0.07592672854661942, -0.2105656862258911, -0.1308697909116745, 0.08186694234609604, 0.2615077495574951, 0.007450512610375881, -0.26692014932632446, -0.12388496100902557, 0.049452923238277435, -0.12351376563310623, -0.14068369567394257, 0.30062055587768555, 0.05133766680955887, -0.10317852348089218, 0.10511364042758942, 0.011430504731833935, -0.07810110598802567, -0.0025535565800964832, 0.33246463537216187, 0.1625921130180359, -0.13709354400634766, 0.08069762587547302, 0.026836993172764778, -0.1351374238729477, 0.12262751907110214, 0.1120791956782341, 0.050330642610788345, -0.11545959115028381, 0.06563236564397812, -0.07060656696557999, -0.06608250737190247, -0.06846912950277328, 0.21222129464149475, 0.06842049956321716, -0.10568021237850189, 0.13838455080986023, -0.07127267867326736, -0.06054452806711197, 0.029873859137296677, 0.010113959200680256, -0.012547883205115795, -0.056933436542749405, -0.009093906730413437, -0.09845802187919617, -0.05921941623091698, -0.03776843845844269, -0.0038241033907979727, -0.10055357962846756, 0.4081142544746399, 0.05215265229344368, -0.21369625627994537, -0.0684981718659401, -0.14704370498657227, -0.0005031664622947574, -0.16848525404930115, 0.5773316621780396, -0.09399597346782684, -0.121051125228405, -0.026910310611128807, -0.00011414469918236136, -0.1193971112370491, -0.1409616321325302, 0.3770941495895386, -0.01493065431714058, -0.04825678467750549, -0.07115141302347183, -0.10337430983781815, 0.01511380635201931, -0.2823249101638794, 0.23329365253448486, -0.008998755365610123, -0.16450737416744232, 0.004693690687417984, -0.1929895132780075, -0.1105893924832344, -0.07375416159629822, 0.2083759307861328, 0.03250672295689583, -0.1720796823501587, -0.0355701744556427, -0.005796633195132017, -0.2508920133113861, -0.24851571023464203, 0.40133363008499146, 0.03846248984336853, -0.007823129184544086, -0.025320202112197876, -0.34970206022262573, -0.20741896331310272, -0.14791102707386017, 0.26471248269081116, -0.06178133189678192, -0.042840659618377686, -0.03247885778546333, -0.18125563859939575, -0.05477309226989746, -0.19415386021137238, 0.29492491483688354, 0.02578406035900116, 0.060068387538194656, -0.035756561905145645, -0.3391006886959076, -0.20195263624191284, -0.09055936336517334, 0.22457239031791687, 0.22949232161045074, 0.008153901435434818, -0.17383882403373718, -0.11991817504167557, -0.0265320036560297, -0.22893868386745453, 0.20539943873882294, 0.07602642476558685, -0.004188749473541975, -0.05123426392674446, -0.04306626319885254, -0.21028490364551544, -0.32960233092308044, 0.1570965051651001, -0.15351128578186035, -0.13979002833366394, -0.08858437091112137, 0.05647225305438042, -0.12541718780994415, -0.32386574149131775, 0.21618953347206116, 0.1259697526693344, -0.3463541269302368, -0.028330964967608452, 0.1080951914191246, 0.006423361133784056, -0.24223104119300842, 0.11266495287418365, 0.053362809121608734, -0.2224244475364685, -0.03733831271529198, 0.15663185715675354, -0.06760700047016144, -0.2414567917585373, 0.30522146821022034, 0.06956405192613602, -0.33515697717666626, 0.03574081510305405, 0.04104208946228027, -0.1418611854314804, -0.4037110209465027, 0.12717141211032867, -0.09543885290622711, -0.4195113480091095, 0.16393090784549713, -0.004097913857549429, -0.27781057357788086, -0.19998861849308014, 0.2315380871295929, -0.05343889445066452, -0.2151549607515335, -0.025934407487511635, -0.14537300169467926, -0.35260123014450073, -0.16143319010734558, 0.2607608735561371, 0.05372083559632301, -0.20947116613388062, -0.07924744486808777, -0.22821059823036194, -0.2858835756778717, -0.06544963270425797, 0.20569808781147003, 0.08371531963348389, -0.2713172733783722, -0.014337856322526932, -0.22198358178138733, -0.19508789479732513, -0.05538966879248619, 0.18285377323627472, 0.030053088441491127, -0.21457286179065704, 0.0026058705989271402, -0.1668112725019455, -0.1190275028347969, 0.10749664902687073, 0.11156313866376877, -0.1313277781009674, -0.44733303785324097, -0.12077587097883224, -0.051985811442136765, 0.14021387696266174, 0.047603923827409744, 0.08455032855272293, -0.15654915571212769, -0.23353157937526703, -0.0193799939006567, -0.2812870740890503, 0.03511349484324455, -0.05666908621788025, 0.048320841044187546, -0.06603549420833588, -0.5180220007896423, -0.02605084888637066, -0.010412010364234447, 0.3403867781162262, 0.24365755915641785, -0.23236306011676788, 0.06050267070531845, -0.12174786627292633, 0.04029395058751106, 0.07603860646486282, 0.22185476124286652, 0.14839932322502136, -0.2676079571247101, 0.08746787160634995, -0.1944350004196167, 0.12948347628116608, -0.18785503506660461, 0.0979267880320549, 0.035585373640060425, -0.2976624667644501, -0.0002421017998130992, -0.22148674726486206, -0.016576524823904037, -0.13569402694702148, 0.22206981480121613, 0.21641631424427032, -0.18508966267108917, -0.05761312320828438, -0.20818346738815308, 0.13683468103408813, -0.1164509579539299, 0.06266044080257416, 0.2873065173625946, -0.0964355543255806, 0.00017581589054316282, -0.12300406396389008, -0.0076178135350346565, -0.1374405324459076, 0.009186722338199615, 0.09719449281692505, -0.25642791390419006, 0.035207349807024, 0.061872947961091995, 0.14121674001216888, -0.06058894470334053, -0.09969528019428253, 0.05910657346248627, -0.09805463254451752, -0.12952381372451782, -0.11030267179012299, 0.23263241350650787, -0.1137528270483017, -0.033571355044841766, 0.10038645565509796, -0.25423356890678406, -0.15665893256664276, -0.17424418032169342, 0.05252114310860634, -0.05898719280958176, -0.0351930595934391, -0.03017466701567173, -0.28436538577079773, 0.09803000837564468, -0.05203184112906456, -0.08232676237821579, -0.021610597148537636, 0.12810944020748138, 0.037482742220163345, -0.055037908256053925, 0.09027538448572159, -0.1898510754108429, -0.031995758414268494, 0.17907607555389404, 0.022299695760011673, -0.08499372005462646, -0.2316237986087799, 0.1523560881614685, -0.046893030405044556, 0.013856343924999237, -0.04639628902077675, 0.23954667150974274, -0.09800805151462555, -0.11259856075048447, 0.15681235492229462, -0.07802771776914597, 0.13316738605499268, -0.05377907678484917, -0.12725408375263214, -0.1322508603334427, -0.030783703550696373, -0.04540396109223366, -0.17950214445590973, 0.13193483650684357, -0.0342646948993206, -0.05392507463693619, -0.1216861829161644, 0.3736456632614136, 0.005014629103243351, -0.20099981129169464, 0.054366447031497955, -0.018653472885489464, -0.04089837148785591, 0.0029107299633324146, 0.3484075665473938, 0.012528648599982262, -0.12514907121658325, -0.08471757918596268, 0.1886046677827835, -0.21970589458942413, 0.27889251708984375, 0.2810916304588318, -0.5341205596923828, -0.8289017677307129], [-0.19238124787807465, -0.08687810599803925, 0.04537744075059891, 0.02832574024796486, -0.05313737317919731, -0.10576650500297546, 0.041400883346796036, -0.1383657157421112, -0.09443792700767517, -0.07756239175796509, -0.004895247519016266, -0.0033162583131343126, -0.10141558945178986, 0.360797256231308, -0.2989962697029114, 0.044826000928878784, 0.31106698513031006, -0.017490606755018234, -0.03293081000447273, -0.16668212413787842, 0.345721036195755, -0.1438552737236023, -0.0607386939227581, 0.43428972363471985, -0.03964352235198021, -0.011013304814696312, -0.20641069114208221, 0.35256442427635193, -0.27694201469421387, -0.1260577142238617, 0.42938485741615295, 0.10312582552433014, -0.001172778313048184, 0.0714983120560646, 0.13066644966602325, 0.18703816831111908, -0.1153850182890892, 0.3589095175266266, 0.003385254880413413, -0.04243629053235054, -0.1841408759355545, 0.10815366357564926, 0.05139361321926117, -0.06812991201877594, 0.3880730867385864, -0.006958015263080597, 0.15441769361495972, -0.042623359709978104, 0.012188629247248173, 0.0408177375793457, -0.1057274341583252, 0.44843006134033203, 0.06865082681179047, 0.06779421865940094, -0.04043944180011749, -0.17484261095523834, 0.2487505078315735, -0.03203928470611572, 0.3672141134738922, 0.06610549241304398, 0.15803396701812744, -0.17706097662448883, -0.06339972466230392, 0.06665723770856857, -0.165413036942482, 0.34851735830307007, -0.08276558667421341, -0.01629726216197014, 0.017511380836367607, -0.1451244354248047, 0.26726678013801575, -0.1238715648651123, 0.41841644048690796, 0.07209935784339905, 0.03896145522594452, -0.07927240431308746, 0.021485351026058197, 0.04151443392038345, -0.16332198679447174, 0.17770889401435852, 0.0736277848482132, 0.06989806145429611, -0.0728658139705658, 0.008277598768472672, 0.15897297859191895, -0.06687260419130325, 0.20003436505794525, -0.025585560128092766, -0.05278448760509491, -0.09729939699172974, -0.0023193375673145056, 0.08020548522472382, -0.028927387669682503, 0.06424985080957413, -0.041745901107788086, 0.04994721710681915, 0.10123669356107712, -0.028300302103161812, 0.026782751083374023, 0.008994994685053825, 0.11659640073776245, 0.005690598860383034, -0.020818419754505157, -0.017243005335330963, -0.0011056194780394435, -0.03941202908754349, -0.1818961203098297, -0.17591708898544312, 0.0370979942381382, -0.11077073961496353, -0.024671493098139763, -0.052951306104660034, 0.016487354412674904, 0.0768548995256424, -0.2644535303115845, 0.09490296244621277, 0.029692091047763824, -0.012960648164153099, 0.017662229016423225, 0.09400538355112076, 0.0615663006901741, -0.2680252492427826, -0.09986358135938644, 0.05089098960161209, -0.05696637183427811, 0.10225237905979156, 0.11110202968120575, 0.12122122198343277, -0.3642496168613434, 0.1115085706114769, 0.09082907438278198, 0.0063126846216619015, 0.09164552390575409, 0.1766180694103241, 0.10403379052877426, -0.8060967326164246, -0.05743371322751045, -0.008302317000925541, 0.08421323448419571, 0.22776100039482117, 0.25801119208335876, 0.1364186704158783, -0.6017798781394958, -0.08733256161212921, 0.06843702495098114, 0.03073480911552906, 0.19634458422660828, 0.2087634652853012, 0.12514011561870575, -0.5505117177963257, -0.07331470400094986, 0.17681142687797546, 0.05500097572803497, 0.21559379994869232, 0.1807064712047577, 0.28607380390167236, -0.4096662700176239, -0.06442153453826904, 0.042336318641901016, 0.04605313017964363, 0.27765506505966187, 0.17821349203586578, 0.26882556080818176, -0.33173394203186035, 0.17352250218391418, -0.018171750009059906, 0.004289249889552593, 0.21111083030700684, 0.028962941840291023, 0.2569977343082428, -0.3750333786010742, 0.07098957151174545, 0.06925095617771149, 0.047243036329746246, 0.11201877892017365, 0.0847359150648117, 0.2394060492515564, -0.1548033505678177, -0.05391520634293556, 0.022740837186574936, 0.12349214404821396, 0.1828661561012268, 0.050696223974227905, 0.11322853714227676, -0.2838834226131439, 0.0605519637465477, 0.008926485665142536, 0.02853921800851822, 0.09636242687702179, 0.056891895830631256, 0.11468831449747086, -0.16599079966545105, -0.012231928296387196, -0.047845665365457535, -0.08292233943939209, 0.03158731013536453, -0.21082982420921326, 0.10026136040687561, -0.2028225064277649, 0.007894153706729412, -0.018930329009890556, 0.04627808928489685, 0.08009041100740433, -0.05363386124372482, 0.11606521904468536, -0.19756704568862915, 0.04373391717672348, -0.004422245547175407, -0.012706099078059196, 0.00712133152410388, -0.2325284332036972, 0.07103900611400604, -0.1383882611989975, 0.12325693666934967, 0.004924381617456675, 0.031589239835739136, -0.05186853185296059, -0.28416675329208374, 0.12551569938659668, -0.17035739123821259, -0.01401201169937849, -0.03475697711110115, -0.007430857513099909, -0.07410913705825806, -0.14243848621845245, -0.024250885471701622, -0.15463343262672424, -0.037408821284770966, -0.10315822809934616, 0.17186309397220612, -0.1267242580652237, -0.1146286353468895, 0.05119920149445534, -0.006751417648047209, -0.07265857607126236, -0.004781992174685001, 0.3096732199192047, -0.02583225816488266, -0.11427941918373108, -0.0420168861746788, -0.1290895938873291, 0.10150512307882309, -0.06064905226230621, 0.4146933853626251, -0.034470945596694946, -0.08036789298057556, 0.07629523426294327, 0.052508022636175156, -0.11968178302049637, -0.027960464358329773, 0.39662519097328186, 0.06237483769655228, -0.02929975651204586, 0.002978704869747162, -0.1034032553434372, 0.049319520592689514, -0.04744602367281914, 0.46387946605682373, -0.023457655683159828, -0.09248962253332138, -0.050233665853738785, -0.08045092225074768, 0.08680146932601929, -0.07191803306341171, 0.3857787251472473, -0.04310508444905281, 0.000920343678444624, 0.012079267762601376, 0.12063446640968323, 0.004757919814437628, -0.07007569819688797, 0.3754732608795166, 0.04341822862625122, 0.05052165314555168, 0.014349664561450481, 0.0674557089805603, -0.1110849529504776, -0.05523107200860977, 0.2672055959701538, -0.058264728635549545, -0.06469497829675674, -0.02037440612912178, 0.4471842050552368, 0.0071242437697947025, -0.07485859096050262, 0.11155026406049728, -0.16509784758090973, -0.07859130948781967, -0.05249495804309845, 0.4462818503379822, 0.019863538444042206, -0.038932010531425476, 0.22374273836612701, -0.04939143359661102, 0.026464562863111496, -0.10852666199207306, 0.3884831964969635, -0.08426429331302643, -0.13424625992774963, 0.2342674285173416, -0.07153178751468658, 0.051117584109306335, -0.21869727969169617, 0.5087912082672119, -0.00637812539935112, -0.07565037161111832, 0.2662298083305359, -0.056525927037000656, 0.09916191548109055, -0.2591545283794403, 0.45489874482154846, 0.027896730229258537, -0.14457328617572784, 0.4578986167907715, -0.14588280022144318, 0.2618483901023865, -0.27861127257347107, 0.3316033184528351, -0.005614932160824537, -0.08443281799554825, 0.1077277734875679, -0.05691837519407272, -0.15592831373214722, -0.0011333450675010681, 0.3797425925731659, -0.07234316319227219, -0.0759575217962265, 0.1402953565120697, -0.15066106617450714, -0.06036663427948952, -0.12648020684719086, 0.4259428083896637, -0.11132608354091644, -0.15301696956157684, -0.04609670490026474, -0.1733904331922531, -0.13005009293556213, 0.11903264373540878, 0.154092475771904, -0.8089064955711365, -0.11322576552629471], [-0.36789417266845703, 0.1432850956916809, 0.07731077820062637, 0.08534801006317139, -0.00423077866435051, 0.15488944947719574, 0.006448061671108007, -0.12621301412582397, 0.030436763539910316, 0.39746883511543274, 0.05821864679455757, -0.04079636186361313, -0.15718567371368408, -0.10152296721935272, 0.12013660371303558, -0.22889092564582825, 0.04067857190966606, 0.12903854250907898, 0.00337289203889668, 0.046906039118766785, -0.12764644622802734, 0.09457539021968842, -0.13337047398090363, -0.12614113092422485, 0.1367024928331375, 0.030749328434467316, 0.03288719430565834, 0.11414483189582825, 0.027507944032549858, -0.08192524313926697, 0.23260267078876495, 0.06165297329425812, 0.023926474153995514, 0.47201791405677795, -0.06493367999792099, -0.15523947775363922, -0.1103985607624054, 0.15198971331119537, -0.041632045060396194, 0.13893479108810425, 0.4336005449295044, -0.09917659312486649, -0.13716956973075867, -0.3167838454246521, 0.37791287899017334, -0.06548328697681427, 0.08917845040559769, 0.17583179473876953, -0.0076063526794314384, -0.0952306017279625, 0.02736181765794754, 0.28904443979263306, -0.02346479706466198, 0.07999216020107269, 0.047076184302568436, -0.042058348655700684, -0.3880279064178467, -0.17499180138111115, 0.18177475035190582, -0.024882201105356216, 0.2779938280582428, 0.2699739933013916, -0.08623956143856049, -0.2580965459346771, -0.15935653448104858, 0.07990934699773788, -0.0946199893951416, 0.5622581839561462, -0.19993166625499725, 0.1491384208202362, -0.37252068519592285, -0.07899191975593567, 0.13409112393856049, -0.027156198397278786, 0.31568917632102966, 0.10062723606824875, 0.19922684133052826, -0.25109103322029114, -0.1575804501771927, -0.15187761187553406, -0.000755309360101819, 0.18053008615970612, 0.14951485395431519, -0.0049480353482067585, -0.057662565261125565, 0.14594589173793793, -0.11597850173711777, 0.05027681216597557, 0.3069111704826355, 0.19251970946788788, -0.07721206545829773, -0.026926923543214798, 0.18363383412361145, -0.13534924387931824, 0.11709010601043701, 0.03781247138977051, 0.11080430448055267, -0.027334870770573616, 0.037127330899238586, 0.24464885890483856, -0.06761910766363144, -0.007647364865988493, -0.006218230351805687, 0.18873664736747742, -0.10860887169837952, 0.035023804754018784, 0.23148362338542938, -0.06749376654624939, -0.027183206751942635, -0.09530817717313766, -0.037565551698207855, -0.10680055618286133, 0.17929448187351227, 0.02331719547510147, 0.029940495267510414, 0.04527566581964493, 0.07986903190612793, -0.04395068436861038, -0.1787746697664261, 0.22543025016784668, 0.22670772671699524, -0.03126906603574753, -0.06655128300189972, 0.18649916350841522, -0.030352678149938583, -0.1524997502565384, 0.029834574088454247, 0.18010780215263367, -0.07141614705324173, -0.08307338505983353, 0.05284338444471359, 0.10787881910800934, -0.14691480994224548, 0.08561781048774719, 0.11994336545467377, -0.04790765419602394, -0.09747911244630814, 0.06777084618806839, -0.01171816699206829, -0.09896605461835861, -0.01975014992058277, 0.0895162969827652, 0.1224239394068718, -0.0012433797819539905, 0.24565017223358154, -0.12174857407808304, 0.025805383920669556, -0.026650261133909225, -0.05660013109445572, -0.02108040452003479, -0.050605881959199905, 0.3471028506755829, 0.06566380709409714, -0.017573703080415726, -0.0999213233590126, 0.14030903577804565, 0.17548376321792603, -0.048669394105672836, 0.48424580693244934, -0.2266499549150467, 0.01685516908764839, -0.11343896389007568, 0.16700512170791626, -0.06775390356779099, 0.08628635853528976, 0.3530072867870331, 0.05377384275197983, -0.0678332969546318, -0.13563044369220734, 0.1608431041240692, 0.07051052153110504, 0.053669918328523636, 0.29590746760368347, -0.22849951684474945, 0.027453048154711723, -0.12827445566654205, 0.013120245188474655, -0.0516713447868824, -0.00561728049069643, 0.38709738850593567, 0.05418873950839043, -0.021706076338887215, -0.17998705804347992, -0.04655943065881729, 0.08613359928131104, -0.09841921180486679, 0.052755918353796005, 0.08200700581073761, -0.09247790277004242, -0.281787633895874, 0.043523937463760376, 0.15408895909786224, -0.017697378993034363, -0.051247961819171906, -0.07506172358989716, -0.032127853482961655, -0.39753487706184387, 0.1499272882938385, 0.13430748879909515, -0.0038977970834821463, 0.18728198111057281, 0.061308808624744415, -0.11048916727304459, -0.24319465458393097, -0.05731695145368576, 0.1824493259191513, -0.05656886100769043, 0.296694278717041, 0.12518368661403656, -0.0054529085755348206, -0.15233343839645386, 0.09186988323926926, 0.0719323456287384, -0.07960522174835205, 0.14668229222297668, -0.016160709783434868, -0.029932860285043716, -0.05059723183512688, 0.19221699237823486, 0.17333132028579712, -0.09752179682254791, 0.1006803959608078, -0.004180009942501783, -0.17149768769741058, -0.11280523985624313, 0.06399618089199066, 0.32842081785202026, -0.06686633080244064, 0.03817862644791603, -0.112491175532341, -0.08733469247817993, -0.2835744619369507, 0.11549907177686691, 0.19115474820137024, 0.13499614596366882, 0.08800952881574631, -0.017915435135364532, -0.0968785285949707, -0.27784264087677, 0.035914015024900436, 0.08048276603221893, -0.0854724571108818, 0.11261957883834839, 0.19822649657726288, 0.04276358708739281, -0.25488346815109253, 0.02924775891005993, 0.1724667251110077, -0.024996617808938026, 0.04267486557364464, -0.18132123351097107, 0.04559299349784851, -0.41284388303756714, -0.029204150661826134, 0.310794860124588, -0.03832685947418213, 0.061953265219926834, -0.07297960668802261, 0.06271357834339142, -0.33340197801589966, -0.08845145255327225, 0.3896354138851166, -0.04505737125873566, 0.022783663123846054, -0.041386932134628296, -0.05298008769750595, -0.105610691010952, -0.11414579302072525, 0.2505127489566803, -0.022709593176841736, 0.14867842197418213, -0.035077303647994995, 0.07213273644447327, -0.021637404337525368, -0.2508363127708435, 0.2661097049713135, -0.0077186571434140205, 0.03993095085024834, -0.02175021544098854, 0.19152134656906128, -0.17988817393779755, -0.3254660367965698, 0.5307170152664185, -0.0714980736374855, 0.22733350098133087, -0.1425131857395172, 0.24023863673210144, -0.06396173685789108, -0.2461342066526413, 0.599081814289093, -0.030658166855573654, -0.20847541093826294, -0.02095247432589531, 0.21112583577632904, -0.12652398645877838, -0.24225293099880219, 0.4404577910900116, 0.026323558762669563, -0.1449829488992691, -0.08155035227537155, 0.20560139417648315, 0.14739777147769928, -0.13725584745407104, 0.09591995179653168, 0.10341887921094894, -0.2019456923007965, 0.03719339519739151, 0.2685163915157318, -0.11477687209844589, -0.1468082070350647, -0.04144766926765442, -0.20318268239498138, -0.020168570801615715, 0.14198194444179535, 0.357376366853714, -0.07265312969684601, -0.49203070998191833, 0.9207253456115723, 0.0009014924289658666, -0.07462731003761292, 0.21939122676849365, 0.10330359637737274, -0.12254425138235092, -0.34130701422691345, 0.01425282284617424, 0.004071076866239309, 0.11622270196676254, 0.2578573226928711, 0.13946790993213654, -0.24915213882923126, 0.11167766153812408, 0.2673896849155426, -0.14064572751522064, -0.020207855850458145, -0.009066831320524216, -0.01764940470457077, 0.5611952543258667, -0.0322895273566246, 0.42490896582603455, -0.004675017204135656, 0.15048843622207642], [0.11383382976055145, -0.009024416096508503, -0.39162325859069824, -0.024395296350121498, 0.0058127352967858315, 0.13404303789138794, 0.10442648082971573, 0.1817062646150589, 0.07900266349315643, -0.1822112500667572, 0.04053729772567749, 0.009605412371456623, 0.24224965274333954, -0.11372329294681549, 0.03494996577501297, 0.0028740933630615473, -0.12572257220745087, 0.025366520509123802, -0.0041920701041817665, 0.06680898368358612, -0.30039259791374207, -0.06107762083411217, 0.18153707683086395, 0.0009040217264555395, 0.09102515131235123, 0.09693313390016556, 0.01169228833168745, -0.5917873382568359, 0.12974166870117188, 0.3079089820384979, -0.08355224877595901, -0.10748008638620377, 0.1012473776936531, 0.23713691532611847, -0.5694094300270081, -0.03876223415136337, 0.17788057029247284, -0.04594544693827629, -0.10194182395935059, 0.07967206835746765, 0.19761954247951508, -0.36655932664871216, 0.06895139813423157, 0.1648920625448227, -0.04533480480313301, 0.020449522882699966, 0.07507707923650742, 0.0761406198143959, -0.24335147440433502, 0.02706596814095974, 0.29405859112739563, -0.00019964383682236075, -0.010029541328549385, 0.09303883463144302, 0.15782727301120758, -0.2913646996021271, -0.08400488644838333, 0.00483052060008049, 0.13589131832122803, 0.014937978237867355, 0.07944469898939133, 0.18913233280181885, -0.11459671705961227, -0.011677452363073826, 0.0491749569773674, -0.04610123485326767, -0.022905487567186356, 0.1097026914358139, 0.031247342005372047, -0.1026991605758667, 0.10348795354366302, 0.09164071083068848, -0.09907137602567673, -0.006797836162149906, 0.11363500356674194, 0.14919298887252808, -0.05396367609500885, 0.06834785640239716, 0.021031033247709274, -0.09516111016273499, 0.1334201693534851, 0.034747712314128876, -0.05157431215047836, 0.056835439056158066, 0.04115867614746094, 0.11158759891986847, -0.06987674534320831, -0.04082689806818962, 0.020709693431854248, 0.16609419882297516, 0.00737396813929081, 0.09009583294391632, 0.09579344093799591, -0.1063041090965271, -0.04532519355416298, -0.031230907887220383, 0.09698651731014252, 0.1174299567937851, 0.1865198016166687, 0.21605032682418823, -0.14306628704071045, 0.06348741054534912, 0.05405452847480774, 0.06067740172147751, -0.13850297033786774, 0.12155216187238693, 0.18175651133060455, -0.02671106718480587, -0.018119968473911285, -0.00872516818344593, 0.014887171797454357, -0.08273299038410187, 0.23511232435703278, 0.1520451307296753, -0.004390235990285873, 0.12587721645832062, 0.030625097453594208, -0.02672782726585865, -0.10756351798772812, 0.1615384966135025, 0.1999954879283905, 0.006296300794929266, 0.172159805893898, -0.057344190776348114, 0.06869691610336304, -0.10258328914642334, 0.12015093117952347, 0.07118324190378189, -0.13859666883945465, -0.05862515792250633, 0.2046038955450058, 0.23021088540554047, -0.14730672538280487, 0.12650470435619354, -0.08036116510629654, -0.05556235462427139, -0.024404767900705338, 0.0812273696064949, 0.07572109252214432, -0.08276930451393127, 0.08651268482208252, -0.034022316336631775, -0.0390811450779438, -0.008561881259083748, 0.004123174585402012, 0.058044109493494034, 0.04180748388171196, -0.010491255670785904, -0.02183046005666256, -0.02289516292512417, -0.010271027684211731, -0.11372539401054382, 0.226089745759964, -0.003426649607717991, -0.019116828218102455, -0.061269719153642654, -0.03957107663154602, 0.02800983004271984, 0.006805809680372477, -0.13329896330833435, -0.1529553234577179, 0.16954617202281952, -0.006470441352576017, 0.11675067991018295, 0.056514956057071686, 0.1341533213853836, -0.04764201492071152, 0.025476975366473198, -0.015248728916049004, -0.042316023260354996, -0.07898887991905212, -0.07480519264936447, -0.10985273867845535, -0.012307039462029934, 0.041345179080963135, -0.06450839340686798, 0.041758954524993896, 0.07727153599262238, 0.06839091330766678, 0.10604371130466461, -0.017951076850295067, -0.053784944117069244, 0.11833281815052032, -0.03732091933488846, -0.30550050735473633, 0.05247792601585388, 0.12832781672477722, 0.0003324673743918538, -0.025036117061972618, 0.10648640990257263, 0.08742962777614594, -0.06613639742136002, 0.055855050683021545, -0.02994036301970482, -0.020053964108228683, 0.1431218534708023, 0.003880993463099003, -0.04638155549764633, -0.18349218368530273, -0.024835938587784767, -0.02724851295351982, -0.07396703958511353, 0.14392176270484924, 0.0388357937335968, -0.023751426488161087, -0.10832516103982925, 0.041040923446416855, -0.33347007632255554, -0.08665332943201065, 0.11123345792293549, -0.07147660851478577, 0.06517728418111801, -0.15828204154968262, -0.017686033621430397, -0.32068854570388794, -0.0003297237562946975, 0.1488392949104309, 0.003060385584831238, 0.04427618533372879, -0.009385259822010994, -0.006296026054769754, -0.5762072205543518, -0.12921199202537537, 0.15446633100509644, 0.01898016221821308, -0.11671608686447144, -0.01383630745112896, 0.1108042299747467, -0.3265629708766937, -0.05499740689992905, 0.041534651070833206, -0.08748084306716919, -0.11762570589780807, -0.023068776354193687, 0.05346149206161499, -0.22235676646232605, -0.20146238803863525, 0.027774788439273834, 0.011127352714538574, 0.0017759877955541015, 0.03371439501643181, 0.05169151350855827, -0.31903350353240967, -0.32561373710632324, 0.13565024733543396, -0.09094615280628204, -0.054051902145147324, -0.035948656499385834, -0.007948535494506359, -0.2918664216995239, -0.2911866009235382, 0.16064013540744781, -0.018209194764494896, -0.19307783246040344, -0.008426370099186897, -0.11690085381269455, -0.22509098052978516, -0.35858288407325745, 0.1567452847957611, 0.12169475853443146, -0.06064677610993385, -0.10305873304605484, 0.060942646116018295, -0.343069851398468, -0.5913584232330322, 0.2195291668176651, -0.004708417691290379, -0.08158478885889053, -0.1616487205028534, -0.1355653703212738, -0.2859739363193512, -0.5743570327758789, 0.12464126944541931, 0.024231581017374992, -0.056814923882484436, -0.07564405351877213, 0.029350511729717255, -0.3992806077003479, -0.7332063913345337, 0.26558566093444824, 0.182048037648201, 0.11919834464788437, -0.1709916591644287, -0.10040463507175446, -0.38158664107322693, -0.36629006266593933, 0.364685982465744, 0.16993971168994904, 0.042811084538698196, -0.1026405617594719, 0.04284151643514633, -0.19067880511283875, -0.4710102081298828, 0.3062670826911926, 0.16590972244739532, -0.03265657275915146, -0.2297459989786148, 0.021392742171883583, 0.0029025536496192217, -0.38851213455200195, 0.11303479969501495, -0.008277644403278828, 0.1632283478975296, -0.10735885053873062, -0.10095161199569702, -0.0026991269551217556, -0.2867545485496521, 0.06516523659229279, 0.17798587679862976, -0.17235006392002106, -0.16987906396389008, -0.032958973199129105, -0.011487873271107674, -0.3612906038761139, 0.20244480669498444, 0.21599501371383667, 0.11951760202646255, -0.2512287497520447, -0.040520623326301575, 0.048629164695739746, -0.2738111615180969, 0.4094444513320923, 0.25755903124809265, 0.09558212012052536, -0.31421759724617004, -0.04772628843784332, 0.09218636155128479, -0.18595413863658905, 0.2980189621448517, 0.2935950756072998, -0.019916905090212822, 0.24423430860042572, 0.12377573549747467, 0.06398141384124756, -0.20911522209644318, 0.17936812341213226, 0.024976298213005066, 0.2655841112136841, -0.3356325626373291, -0.3089756667613983, 0.4904222786426544], [0.4345203936100006, -0.02378079481422901, 0.12224312126636505, -0.10715664178133011, 0.10093500465154648, 0.1166556179523468, 0.01608789898455143, 0.3855263590812683, 0.06947232782840729, 0.1180487722158432, 0.13364556431770325, 0.18493196368217468, -0.05975122004747391, 0.05585058033466339, 0.3774240016937256, 0.11250325292348862, 0.11635313183069229, -0.10971095412969589, 0.05068876966834068, 0.001099752145819366, 0.17153151333332062, 0.006491216830909252, 0.09685108810663223, -0.025222590193152428, -0.07870960980653763, 0.03911123052239418, -0.10301510989665985, 0.13077674806118011, 0.09052882343530655, -0.027465423569083214, 0.05028953775763512, -0.08808541297912598, 0.0902397558093071, -0.10202232748270035, 0.18482699990272522, 0.2152441143989563, -0.12735804915428162, -0.0026495628990232944, -0.0010353303514420986, -0.07779896259307861, -0.1309705525636673, 0.11691175401210785, 0.1855740249156952, -0.1053045392036438, 0.15156488120555878, -0.1367052048444748, 0.03969728946685791, -0.04742586612701416, 0.01182792242616415, 0.02864009141921997, -0.1615331918001175, 0.18556582927703857, -0.057338226586580276, -0.07870374619960785, -0.09211701154708862, 0.13411733508110046, 0.09581337124109268, -0.34652426838874817, 0.1448202282190323, -0.009312999434769154, -0.08964917063713074, -0.11633903533220291, 0.170680969953537, 0.00020744600624311715, -0.2539125978946686, 0.3916493356227875, -0.05812497064471245, -0.03306771442294121, 0.017951002344489098, 0.04971807450056076, -0.07923146337270737, -0.472352534532547, 0.39601925015449524, -0.09372811764478683, -0.21498551964759827, 0.33310985565185547, 0.07591977715492249, -0.11463163048028946, -0.42875489592552185, 0.40939438343048096, -0.042849406599998474, -0.07502399384975433, 0.2994305491447449, -0.034977372735738754, 0.03071320243179798, -0.3473663032054901, 0.4700486958026886, -0.0710792988538742, 0.11041752249002457, 0.02063407190144062, -0.10257160663604736, 0.005863566882908344, -0.21237777173519135, 0.261464387178421, -0.05266072601079941, -0.07492223381996155, 0.09121186286211014, -0.07948674261569977, -0.04869408905506134, -0.20398686826229095, 0.2576301395893097, 0.1815701425075531, -0.08203519135713577, 0.10094770044088364, -0.03309590741991997, 0.08009032160043716, -0.17280463874340057, 0.23513102531433105, -0.04809761419892311, -0.2826648950576782, 0.07531391829252243, 0.03226286545395851, 0.04663103446364403, -0.2990286648273468, 0.16762462258338928, 0.04278464987874031, -0.10056978464126587, 0.03768018260598183, 0.03423866257071495, 0.11425373703241348, -0.24207419157028198, 0.29418569803237915, -0.08063725382089615, 0.02255645953118801, 0.03905939683318138, -0.18236061930656433, 0.017611907795071602, -0.05033743381500244, 0.2939804494380951, -0.08149309456348419, 0.05745813995599747, -0.05689864978194237, -0.032334018498659134, 0.042851611971855164, -0.18220669031143188, 0.32009604573249817, 0.023698844015598297, -0.1597549319267273, -0.05889785289764404, -0.10550817847251892, 0.05281303450465202, -0.1007542610168457, 0.20388653874397278, 0.014340369030833244, 0.053687795996665955, 0.03160034492611885, -0.13079696893692017, 0.04723915457725525, -0.22066649794578552, 0.37301310896873474, -0.01957758329808712, 0.12233367562294006, -0.1031176894903183, -0.16164380311965942, 0.08422494679689407, -0.06896539777517319, 0.33540862798690796, 0.00605013919994235, 0.1473664939403534, 0.16612151265144348, -0.06967535614967346, 0.07927349954843521, -0.1368160843849182, 0.28620392084121704, 0.03252868354320526, 0.13440081477165222, -0.06901409476995468, -0.1895303875207901, -0.04607291519641876, -0.12733161449432373, 0.25140854716300964, 0.0626070573925972, -0.21695727109909058, -0.025675976648926735, -0.08694589883089066, 0.028541171923279762, -0.07881993800401688, 0.4569031298160553, 0.026432564482092857, 0.011298593133687973, 0.12561672925949097, -0.2091182917356491, 0.07522813230752945, -0.020631873980164528, 0.3210678994655609, -0.04294874519109726, -0.1484019160270691, 0.12050888687372208, -0.13209225237369537, 0.09863840788602829, -0.02845808118581772, 0.5131315588951111, -0.0542629137635231, -0.06555595248937607, 0.1878298670053482, -0.21440309286117554, -0.04044175148010254, 0.050786007195711136, 0.3351987600326538, -0.13394978642463684, -0.11169858276844025, 0.10189206898212433, -0.18260926008224487, 0.04859381914138794, -0.03455905616283417, 0.27817603945732117, -0.1492381989955902, -0.10816711187362671, 0.16108518838882446, -0.2718522250652313, 0.003198634833097458, -0.1381545513868332, 0.2750784754753113, 0.03306934982538223, 0.012185654602944851, 0.07995489984750748, -0.22105219960212708, 0.03496078774333, 0.011694231070578098, 0.17276282608509064, 0.07364657521247864, -0.04604373499751091, 0.018381495028734207, -0.07866597920656204, -0.04167576879262924, 0.039403051137924194, 0.3610549867153168, -0.000556168844923377, -0.06422710418701172, -0.15879647433757782, -0.03935717046260834, 0.07468217611312866, -0.0011627663625404239, 0.08944720774888992, 0.010140696540474892, -0.07181455940008163, -0.23290608823299408, -0.03437064588069916, -0.03132861107587814, -0.03140769526362419, 0.13789109885692596, -0.11421236395835876, 0.08640315383672714, -0.24785830080509186, -0.11980704218149185, -0.015170568600296974, 0.20996908843517303, -0.10052561014890671, -0.004584458656609058, -0.08067642152309418, -0.259871244430542, 0.06999591737985611, 0.2239508181810379, 0.16085201501846313, -0.4689347743988037, -0.05800517275929451, -0.14090532064437866, -0.18262623250484467, -0.05272752791643143, 0.07861652225255966, 0.12619608640670776, -0.16578347980976105, -0.004370563663542271, -0.01922452263534069, -0.17723828554153442, 0.0680057555437088, 0.08347056061029434, 0.1250963807106018, -0.009625601582229137, 0.04809611290693283, -0.0071884579956531525, -0.2987409234046936, 0.1713762879371643, 0.08133221417665482, 0.12451918423175812, 0.08229459822177887, -0.15544384717941284, -0.04793672263622284, -0.09727886319160461, 0.10441136360168457, 0.03830893710255623, -0.043555762618780136, 0.16705092787742615, -0.08635809272527695, -0.08483171463012695, 0.09509234875440598, 0.034452080726623535, -0.010250876657664776, 0.019501347094774246, 0.12810812890529633, 0.060409631580114365, -0.006444018334150314, 0.006045589689165354, 0.030577581375837326, 0.19954051077365875, 0.017201321199536324, 0.008877689018845558, -0.04671098291873932, 0.07563411444425583, 0.08445141464471817, 0.055376164615154266, -0.032433271408081055, -0.11965475231409073, 0.14441046118736267, -0.050524234771728516, -0.10214404761791229, 0.10736594349145889, 0.004684505518525839, -0.04475453868508339, 0.08548077195882797, 0.013274483382701874, -0.026664938777685165, -0.010356458835303783, 0.18392309546470642, 0.054979246109724045, 0.05102373659610748, 0.09401269257068634, 0.017105283215641975, -0.013057021424174309, -0.04167972132563591, 0.24089159071445465, 0.11283459514379501, 0.22940044105052948, -0.03567236289381981, 0.097098708152771, 0.11812499910593033, 0.0424649752676487, 0.056648869067430496, 0.032512370496988297, 0.43156909942626953, 0.012127441354095936, 0.2460552304983139, 0.044543348252773285, 0.15102896094322205, 0.02914273552596569, -0.001355864224024117, 0.4377002716064453, 0.30551499128341675, 1.0813746452331543, -0.10150202363729477, -0.08765050768852234], [0.0877671167254448, 0.05317017063498497, -0.018958617001771927, 0.0371127687394619, -0.06995511054992676, -0.12299931049346924, 0.13360831141471863, -0.0827239528298378, -0.06613001227378845, -0.0868249461054802, 0.09556414186954498, -0.020892025902867317, -0.19269949197769165, 0.16462789475917816, -0.16553078591823578, -0.04470297694206238, -0.1349402517080307, 0.06524256616830826, -0.011198368854820728, 0.018390804529190063, 0.178166463971138, 0.02285301685333252, -0.06169549748301506, 0.032098785042762756, -0.2382652759552002, 0.1351240575313568, -0.18472759425640106, 0.2173481285572052, 0.18958556652069092, -0.28757116198539734, 0.32865050435066223, 0.05725677311420441, 0.14730916917324066, -0.06543294340372086, 0.1556713730096817, 0.1270853877067566, -0.2478051483631134, 0.29139065742492676, -0.015863852575421333, -0.12181848287582397, -0.015662677586078644, 0.2526299059391022, 0.1135084331035614, -0.24508221447467804, 0.25179246068000793, 0.07693330943584442, 0.20043832063674927, 0.06057374179363251, 0.17031361162662506, 0.21354730427265167, -0.13442690670490265, 0.09146589040756226, -0.06347469985485077, 0.07391070574522018, 0.15371403098106384, 0.1309974640607834, 0.19273941218852997, -0.1480974555015564, 0.24382933974266052, -0.05365399643778801, 0.22008554637432098, 0.12797978520393372, -0.05783664807677269, 0.36956262588500977, 0.020964784547686577, 0.3015221059322357, 0.05319337919354439, 0.21664713323116302, -0.20217546820640564, -0.1677008718252182, 0.28957101702690125, -0.21487389504909515, 0.27907630801200867, 0.03449101373553276, 0.34649598598480225, -0.01330022606998682, -0.29774510860443115, 0.221056267619133, -0.059687983244657516, 0.23961788415908813, -0.007119062822312117, 0.24093109369277954, 0.01671932451426983, -0.2591991424560547, 0.16252049803733826, -0.0057224091142416, 0.33473309874534607, 0.005480271298438311, 0.06340742856264114, -0.009120410308241844, -0.30097392201423645, 0.037464872002601624, 0.0598929189145565, -0.023419341072440147, 0.12077543884515762, 0.38872382044792175, 0.1643616408109665, -0.14815722405910492, 0.05451451987028122, 0.08913426846265793, -0.09718386083841324, -0.07768435031175613, 0.16499683260917664, 0.1702190637588501, -0.22704333066940308, 0.0210105087608099, 0.13829903304576874, -0.13026638329029083, -0.041070133447647095, 0.03024532087147236, 0.10322151333093643, -0.18942409753799438, 0.008948896080255508, 0.00869250949472189, -0.03296293690800667, 0.033287592232227325, 0.221156507730484, 0.24695929884910583, -0.02662569470703602, 0.1629788726568222, -0.09326627850532532, 0.07160495221614838, -0.014879687689244747, -0.002387563232332468, 0.09580718725919724, -0.11611602455377579, 0.048891808837652206, 0.06584659963846207, -0.017821667715907097, 0.06477535516023636, 0.09410852193832397, -0.11010432243347168, -0.06468566507101059, 0.05092169716954231, -0.07754524797201157, 0.4334883987903595, -0.14934255182743073, 0.01750127226114273, 0.0003565509105101228, -0.14844495058059692, -0.08830049633979797, -0.11562991142272949, 0.12221979349851608, -0.022886129096150398, 0.0776594951748848, -0.25654324889183044, -0.07800571620464325, -0.013346211984753609, -0.15314650535583496, 0.14760670065879822, 0.013195527717471123, 0.04201943427324295, -0.21641191840171814, -0.19788889586925507, -0.1004091426730156, -0.04816904664039612, 0.10556676983833313, -0.018660051748156548, 0.024245712906122208, 0.05412810295820236, -0.20527400076389313, -0.0064151776023209095, -0.13846178352832794, 0.10355184227228165, 0.10900439321994781, -0.08879351615905762, 0.11431743949651718, -0.21486042439937592, -0.050991740077733994, -0.043808866292238235, 0.013068889267742634, 0.020606214180588722, 0.04102557897567749, 0.003200610401108861, -0.15449309349060059, -0.15692314505577087, -0.06281804293394089, -0.028633730486035347, 0.024194395169615746, 0.12519702315330505, 0.1309986412525177, -0.19888971745967865, -0.041911426931619644, 0.0191760566085577, -0.038497816771268845, 0.06390977650880814, 0.042713191360235214, 0.06222112104296684, -0.012082560919225216, -0.11438535898923874, -0.12417152523994446, -0.0614711232483387, -0.060143258422613144, 0.2225531041622162, 0.05168537423014641, 0.24865102767944336, 0.09558891505002975, -0.17236514389514923, 0.1224360316991806, -0.025964558124542236, -0.06493604183197021, -0.03953910246491432, 0.1574299931526184, -0.07929186522960663, -0.04483785107731819, 0.1464344561100006, -0.01397579163312912, 0.038560643792152405, -0.07811121642589569, -0.042806677520275116, 0.024070847779512405, -0.16051121056079865, 0.1780039221048355, 0.06166485324501991, 0.10410647094249725, 0.07072264701128006, -0.05624016001820564, -0.16671152412891388, -0.24081352353096008, 0.2088266760110855, -0.03481534495949745, 0.06776177883148193, 0.30435171723365784, 0.10250649601221085, -0.02950342185795307, -0.20366138219833374, 0.19982050359249115, -0.07118218392133713, -0.0504130981862545, 0.2833736836910248, 0.03455527871847153, -0.03916142135858536, -0.286213755607605, 0.31866979598999023, -0.040078550577163696, -0.06663087010383606, 0.40245893597602844, -0.0015310181770473719, 0.1122337058186531, -0.09623146057128906, 0.2204171121120453, -0.10627443343400955, 0.01265556737780571, 0.2588014602661133, -0.09670580923557281, 0.11792052537202835, -0.19979578256607056, 0.2941433787345886, -0.010363866575062275, -0.03334205225110054, 0.31151553988456726, -0.047343697398900986, 0.06191666051745415, -0.27045321464538574, 0.22078055143356323, -0.029989859089255333, -0.14757607877254486, 0.0991143137216568, 0.10281579941511154, 0.2663050591945648, -0.16798719763755798, 0.26035210490226746, -0.0231163389980793, 0.03580502048134804, 0.302394837141037, -0.11801528930664062, -0.03174038603901863, -0.1749575287103653, 0.10043708980083466, -0.025737926363945007, -0.07566915452480316, 0.06886330991983414, 0.01045745424926281, 0.12151706218719482, 0.05567479878664017, 0.21672311425209045, -0.07588143646717072, -0.10782936960458755, -0.09270737320184708, 0.07456734031438828, 0.12298785895109177, -0.04477163776755333, -0.11546103656291962, -0.014340626075863838, 0.16673938930034637, -0.155569925904274, 0.07840170711278915, 0.16708701848983765, 0.005470247007906437, -0.1418185532093048, -0.021291455253958702, 0.04527538642287254, -0.07130935788154602, -0.008357841521501541, 0.06812937557697296, -0.2534244954586029, -0.21399672329425812, -0.06550580263137817, -0.009798743762075901, 0.005524612497538328, 0.1090158075094223, 0.2866227924823761, -0.1500149369239807, 0.040607668459415436, -0.007326758466660976, 0.07022356241941452, -0.024691792204976082, 0.1292039453983307, 0.07510869950056076, -0.1454545557498932, -0.4627472162246704, 0.1479383111000061, 0.08769036084413528, -0.024039816111326218, 0.33907854557037354, 0.03955264389514923, -0.1267646998167038, -0.5624555349349976, 0.01060508843511343, 0.07090643048286438, 0.0646078810095787, 0.0016061337664723396, 0.0018308759899809957, 0.05288498103618622, -0.18039964139461517, -0.1164533942937851, 0.0797543078660965, -0.09449432790279388, -0.20336182415485382, 0.21481145918369293, 0.11915117502212524, -0.23388418555259705, -0.04662632569670677, 0.055863019078969955, -0.14399755001068115, 0.23980914056301117, 0.06999099254608154, 0.5025330781936646, 0.504150927066803, 0.6904659867286682, 0.12733809649944305], [0.35691148042678833, 0.16938820481300354, 0.06055187061429024, 0.04895196855068207, -0.008678521029651165, -0.13813064992427826, 0.14426608383655548, 0.4298873543739319, 0.13390986621379852, -0.006995163857936859, 0.05683976039290428, -0.02297455072402954, -0.3816094696521759, 0.36733049154281616, 0.2327965795993805, 0.31028079986572266, 0.2899467349052429, 0.07171106338500977, 0.05682530254125595, -0.5487973093986511, 0.30324655771255493, 0.007745583541691303, 0.10142217576503754, 0.22419989109039307, -0.09317982941865921, -0.027252305299043655, -0.5597864389419556, 0.2840346693992615, -0.008577886037528515, 0.09774915128946304, 0.21987193822860718, -0.03495442867279053, 0.011387553997337818, -0.3757728934288025, 0.21616335213184357, 0.04866255819797516, -0.2540236711502075, 0.157272070646286, -0.06284534186124802, -0.10830879211425781, -0.16072429716587067, 0.09523245692253113, 0.3215825855731964, -0.14740176498889923, 0.2203141748905182, -0.02558440901339054, 0.01835058256983757, -0.1565934717655182, 0.03491976112127304, 0.2856161594390869, -0.10595682263374329, 0.11534787714481354, -0.17804482579231262, 0.043522048741579056, -0.012785093858838081, -0.04140656813979149, 0.09162652492523193, -0.14050786197185516, 0.08579295128583908, -0.07210757583379745, -0.10459605604410172, 0.0471632145345211, -0.10584591329097748, 0.06291961669921875, 0.012344221584498882, -0.13521450757980347, -0.04723432660102844, 0.05241475999355316, 0.04917348176240921, 0.05523419380187988, -0.12153442203998566, 0.16179536283016205, 0.024424465373158455, -0.015054295770823956, 0.0494699589908123, -0.14229756593704224, -0.00340201030485332, -0.25819268822669983, 0.24542336165905, -0.09777206927537918, 0.024659285321831703, 0.031141391023993492, -0.035306014120578766, -0.17048236727714539, -0.1521015465259552, 0.0834764689207077, -0.03706778213381767, -0.07851579785346985, 0.049650851637125015, -0.0058235726319253445, 0.00911511667072773, -0.20857375860214233, 0.09960942715406418, -0.07595715671777725, 0.008184378035366535, -0.09324841946363449, -0.15878872573375702, -0.022883931174874306, -0.13117900490760803, 0.16422027349472046, -0.04034974426031113, 0.06408476829528809, 0.02906922996044159, -0.0749552920460701, 0.054590560495853424, -0.1854947954416275, 0.1379636973142624, -0.06698480993509293, -0.03454158455133438, 0.00243053724989295, 0.05223226547241211, -0.012958218343555927, -0.07061795145273209, 0.124155193567276, -0.023237060755491257, -0.03145741671323776, -0.01186303235590458, -0.13747349381446838, -0.016294309869408607, -0.07149659842252731, 0.10674214363098145, -0.17631931602954865, 0.035536229610443115, -0.10571826249361038, -0.1479019969701767, -0.1358298659324646, 0.008792783133685589, 0.09574095159769058, -0.004027873277664185, 0.07565685361623764, 0.06610139459371567, 0.04421769455075264, -0.089586041867733, 0.13079440593719482, 0.13795404136180878, 0.11044493317604065, 0.03595449775457382, 0.11370279639959335, 0.18715812265872955, -0.17287804186344147, 0.11763396114110947, -0.13081097602844238, 0.05445164814591408, 0.051985155791044235, 0.01898571290075779, -0.006704383529722691, -0.2122199535369873, 0.06700291484594345, 0.17351830005645752, 0.1219477429986, 0.09652361273765564, 0.16644954681396484, -0.05760497599840164, -0.19045428931713104, 0.0686429962515831, -0.028631014749407768, 0.1430090367794037, 0.16204088926315308, 0.14627571403980255, -0.05065792426466942, -0.05534965917468071, 0.04218721389770508, -0.0928984060883522, -0.0025802887976169586, -0.0681479424238205, -0.008073288947343826, -0.028565064072608948, -0.27584004402160645, -0.040468040853738785, -0.006798668764531612, 0.055761583149433136, 0.1485854834318161, 0.0849359855055809, 0.10307501256465912, -0.05104244127869606, 0.10814832150936127, -0.019027357921004295, -0.06299261003732681, 0.012157240882515907, -0.0035128407180309296, 0.2517600953578949, -0.2811581790447235, 0.10648749768733978, -0.056523703038692474, -0.050979167222976685, -0.07211992144584656, 0.005023702047765255, 0.22455023229122162, -0.038064565509557724, 0.02805873565375805, -0.006154895760118961, -0.08038762211799622, -0.07704531401395798, -0.00689547648653388, 0.25950706005096436, -0.11846818774938583, 0.12910547852516174, 0.025760482996702194, -0.06649880856275558, -0.01573760062456131, -0.0535765066742897, 0.14988186955451965, -0.03979112580418587, 0.003819324541836977, -0.052417267113924026, 0.12547466158866882, 0.020053908228874207, -0.2114068865776062, 0.14757801592350006, -0.08842635154724121, 0.07895371317863464, 0.016118956729769707, -0.026083121076226234, -0.105341337621212, -0.08858636021614075, 0.2667318880558014, -0.06057479977607727, 0.047803644090890884, -0.051578108221292496, -0.06476709246635437, -0.1619575470685959, 0.015307024121284485, 0.17441286146640778, 0.1651492565870285, 0.12702421844005585, -0.16343136131763458, 0.15422014892101288, -0.011783336289227009, 0.16532398760318756, 0.2923029661178589, 0.2681519389152527, -0.14896823465824127, -0.22425778210163116, -0.0003154624137096107, -0.011826977133750916, 0.07435895502567291, 0.18061882257461548, -0.022731097415089607, -0.2247425764799118, -0.0677412673830986, 0.10783769935369492, -0.053062111139297485, -0.09680027514696121, 0.37769776582717896, 0.051481813192367554, -0.020108263939619064, -0.19252532720565796, 0.07263310998678207, -0.00865509919822216, -0.0048029739409685135, 0.4564351439476013, 0.033284854143857956, -0.2296489030122757, -0.07780370116233826, 0.01997283287346363, 0.030525265261530876, -0.3688467741012573, 0.40316659212112427, -0.11397483944892883, -0.4428122341632843, -0.08572963625192642, 0.1269216239452362, -0.046831924468278885, -0.24969373643398285, 0.3915576934814453, -0.02526668831706047, -0.20147393643856049, -0.23531624674797058, 0.10570061206817627, -0.06647323817014694, -0.20921988785266876, 0.44205668568611145, 0.16886992752552032, -0.16323892772197723, -0.18370282649993896, 0.02500811405479908, -0.011703774333000183, -0.14432352781295776, 0.42566779255867004, 0.02105853334069252, -0.0248988289386034, -0.215681791305542, -0.12703481316566467, -0.030858388170599937, -0.16812792420387268, 0.6146115064620972, 0.11799291521310806, -0.1417178511619568, -0.1692407876253128, -0.15495891869068146, 0.12285050749778748, -0.0860498920083046, 0.3480347990989685, 0.2111225724220276, 0.027430931106209755, -0.0832221508026123, -0.10351692885160446, 0.03946896269917488, -0.14464128017425537, 0.3320639431476593, 0.02273774892091751, -0.11640574038028717, 0.07641580700874329, -0.05495350435376167, 0.08516053855419159, 0.05054716765880585, 0.3086946904659271, 0.2186296284198761, -0.13344742357730865, -0.06058941408991814, -0.23257982730865479, 0.007969248108565807, 0.0282732080668211, 0.36114224791526794, 0.0950809046626091, -0.06317998468875885, -0.21924635767936707, -0.0639972910284996, 0.15684857964515686, -0.1224227249622345, 0.4049416482448578, -0.19957374036312103, 0.18122465908527374, -0.061574965715408325, 0.04772631451487541, 0.06310340017080307, -0.08880475908517838, 0.21642090380191803, -0.4779869019985199, 0.20144659280776978, -0.1218208447098732, 0.15837427973747253, -0.04968995228409767, 0.055241718888282776, 0.06615011394023895, -0.011087978258728981, 0.10829166322946548, 0.21352311968803406, -0.09744049608707428, -0.035262323915958405, -0.1213235855102539], [-0.321835994720459, -0.05472177267074585, 0.1156371608376503, 0.06120535358786583, -0.12425927817821503, -0.0505630224943161, 0.013446393422782421, -0.35003921389579773, 0.07984936237335205, -0.019472137093544006, 0.043589022010564804, -0.08853517472743988, -0.04628641903400421, -0.0001718552375677973, -0.37561097741127014, 0.11015892028808594, -0.04439054802060127, 0.04121038690209389, -0.06752348691225052, -0.024079129099845886, 0.15812815725803375, -0.2461232841014862, -0.009142432361841202, -0.1869894117116928, -0.024085957556962967, -0.029074382036924362, 0.2488705962896347, 0.07866127043962479, 0.19877390563488007, -0.08529049903154373, -0.08675650507211685, 0.012539969757199287, 0.11699181795120239, 0.49741968512535095, 0.14555567502975464, 0.08648703992366791, -0.12068568170070648, -0.01925411820411682, -0.03338618203997612, -0.00793217308819294, 0.3008834719657898, 0.0012308923760429025, 0.1472141593694687, -0.12421923875808716, 0.013949193991720676, 0.1207413524389267, -0.04380806162953377, 0.09778865426778793, -0.02040359564125538, 0.2419682741165161, -0.1596945822238922, -0.03954179957509041, -0.14965572953224182, 0.11920853704214096, 0.2653168737888336, 0.00238807313144207, 0.22177346050739288, -0.06300439685583115, 0.08411841094493866, -0.005221257451921701, -0.02362741529941559, 0.2740913927555084, -0.021144965663552284, 0.31936243176460266, -0.17081879079341888, 0.07376554608345032, 0.029554449021816254, 0.0710001140832901, 0.20598235726356506, -0.035691652446985245, 0.19978801906108856, -0.023419104516506195, 0.19605661928653717, -0.06904802471399307, 0.051697392016649246, 0.13772925734519958, 0.014551691710948944, 0.05393538996577263, 0.005753399804234505, 0.09220166504383087, 0.031562063843011856, 0.05247501656413078, 0.09955458343029022, -0.04948726296424866, 0.03879968822002411, 0.016626516357064247, 0.12854047119617462, 0.007782788947224617, 0.04252939671278, 0.07794276624917984, -0.043756794184446335, 0.11579414457082748, -0.01560007780790329, 0.12872320413589478, 0.09948264807462692, 0.0762900859117508, 0.08327874541282654, 0.04421669617295265, 0.0682871863245964, -0.03469577059149742, -0.01716403290629387, 0.017263447865843773, -0.012182056903839111, 0.13059023022651672, -0.10787934809923172, -0.017513485625386238, 0.01292358711361885, -0.08098166435956955, -0.06918501108884811, -0.032814644277095795, 0.10654988139867783, -0.0902724340558052, -0.039085663855075836, 0.002744643483310938, -0.0031249444000422955, 0.062488824129104614, -0.047149479389190674, 0.01821008510887623, -0.09462199360132217, 0.015094399452209473, 0.15062373876571655, -0.16868096590042114, 0.040543027222156525, 0.05235232785344124, -0.007612257730215788, -0.022643743082880974, -0.055078744888305664, 0.22274835407733917, -0.09880369156599045, -0.1275588870048523, 0.02605191059410572, -0.33724063634872437, 0.04624582827091217, -0.011401545256376266, 0.2870848774909973, -0.21883375942707062, 0.06885571777820587, 0.005841663107275963, -0.2952395975589752, -0.16037222743034363, 0.14051014184951782, 0.4018957018852234, -0.22125111520290375, -0.010846883058547974, 0.035709068179130554, -0.24022728204727173, -0.2948615849018097, 0.11088471114635468, 0.36677291989326477, -0.04475139081478119, 0.16135120391845703, -0.046941351145505905, -0.18626785278320312, -0.17643971741199493, -0.04157361760735512, 0.15841972827911377, -0.0805354118347168, 0.09099503606557846, -0.02548799104988575, -0.4718417525291443, -0.07388745248317719, 0.07909474521875381, -0.008935744874179363, -0.005094356834888458, -0.020092127844691277, -0.017275022342801094, -0.44747546315193176, -0.14594213664531708, 0.00907155591994524, -0.06678076833486557, -0.08461271971464157, -0.050908830016851425, -0.029975635930895805, -0.48802897334098816, -0.05003988370299339, 0.10561800003051758, 0.05220537260174751, 0.12605872750282288, -0.048691052943468094, 0.02152033895254135, -0.4823618233203888, -0.009382741525769234, 0.08588217943906784, -0.06928408145904541, 0.06447511911392212, -0.0284801684319973, -0.0748102143406868, -0.17037299275398254, -0.1554327756166458, 0.12572097778320312, -0.045444272458553314, 0.16837923228740692, 0.021771904081106186, -0.013172393664717674, -0.37501877546310425, -0.1197037324309349, 0.07143858075141907, -0.08607205003499985, 0.15789832174777985, -0.02060380019247532, -0.05726281926035881, -0.5297683477401733, -0.1659223735332489, 0.21365982294082642, -0.08948089927434921, 0.25678712129592896, -0.05015771463513374, 0.011877908371388912, -0.5622637867927551, -0.1307637095451355, 0.0870232880115509, -0.01985739730298519, -0.01725214533507824, -0.07833567261695862, -0.05525605380535126, -0.28798988461494446, -0.11066311597824097, -0.11786020547151566, -0.03611591458320618, -0.0213747750967741, -0.08233983814716339, 0.012637639418244362, -0.2983247637748718, -0.07111351191997528, 0.07805275171995163, -0.037071552127599716, 0.08264490962028503, 0.03867023438215256, -0.06803014874458313, -0.27790385484695435, -0.09103009849786758, 0.09144186228513718, 0.11148201674222946, 0.010000166483223438, -0.03343730792403221, 0.008274588733911514, -0.020702531561255455, 0.10510168969631195, 0.21005220711231232, 0.050700582563877106, 0.1686667799949646, -0.02285672351717949, 0.04990501329302788, -0.010126388631761074, -0.12729158997535706, 0.0009534460841678083, 0.06528890132904053, -0.07872545719146729, -0.030520768836140633, -0.036175429821014404, -0.038071680814027786, -0.13508538901805878, 0.06634237617254257, -0.04934462904930115, 0.04316294938325882, -0.007159760221838951, -0.010044217109680176, 0.21430173516273499, -0.16645868122577667, 0.1337907910346985, 0.24140135943889618, -0.11108393222093582, 0.01597564108669758, -0.12127833068370819, 0.3354395627975464, -0.162551149725914, -0.11882805079221725, -0.0475725457072258, -0.41680413484573364, 0.14867688715457916, -0.2349352091550827, 0.2793888449668884, -0.13738861680030823, 0.1542550027370453, 0.08108250796794891, -0.4734851121902466, -0.09863893687725067, -0.05782216042280197, 0.19437015056610107, -0.09307596832513809, 0.12710735201835632, -0.07047554105520248, -0.2514096796512604, 0.16867081820964813, -0.040060315281152725, 0.1599499136209488, -0.15192987024784088, -0.09801731258630753, 0.061478741466999054, -0.2014523297548294, 0.046105511486530304, 0.04289320856332779, 0.32024478912353516, -0.02221551351249218, 0.024521123617887497, -0.0842052549123764, -0.21774177253246307, -0.03931322693824768, 0.04103508219122887, 0.31173694133758545, -0.03565218672156334, 0.05885915830731392, 0.01571854017674923, -0.2346365749835968, 0.04544850066304207, -0.02729727141559124, 0.2688143253326416, -0.07470288127660751, -0.06524831056594849, -0.34631583094596863, -0.3393948972225189, -0.007862437516450882, 0.04279281198978424, 0.46856889128685, 0.047314271330833435, -0.2479873150587082, -0.07263453304767609, -0.20680496096611023, -0.08244140446186066, -0.041924696415662766, -0.02791683003306389, 0.26016461849212646, -0.07431837916374207, 0.0010155477793887258, -0.14466120302677155, 0.007685094606131315, -0.029887638986110687, -0.05418003350496292, 0.1071661114692688, -0.18057499825954437, 0.044068071991205215, -0.08196426182985306, -0.04998984932899475, -0.03663112595677376, 0.017500512301921844, -0.14601005613803864, -0.21463771164417267, -0.012594925239682198, 0.017992906272411346, 0.0791037380695343, -0.016487635672092438], [-0.4447697103023529, -0.09162542968988419, 0.05602370575070381, -0.132051482796669, 0.10743372142314911, 0.07098802179098129, -0.33483773469924927, -0.2881602644920349, -0.05312090739607811, -0.013884982094168663, 0.013003733940422535, 0.15548646450042725, -0.04945988953113556, -0.15096019208431244, -0.015445512719452381, -0.04494839161634445, -0.0716712474822998, -0.004346203990280628, 0.18806017935276031, 0.022167174145579338, -0.059296391904354095, 0.3064858615398407, 0.09389186650514603, -0.017258867621421814, -0.008985265158116817, 0.3312387764453888, 0.09605061262845993, -0.23513753712177277, 0.1361275017261505, 0.09330038726329803, -0.22149208188056946, 0.05589209869503975, 0.1860419511795044, -0.009653665125370026, -0.24279692769050598, 0.02643965743482113, 0.04454830661416054, -0.12980103492736816, 0.03825794905424118, 0.24138092994689941, 0.011997663415968418, -0.049587082117795944, 0.29282239079475403, -0.002423526020720601, -0.1768852323293686, 0.007131881546229124, 0.2221308797597885, 0.033262040466070175, 0.003788176691159606, 0.0929289162158966, -0.025825655087828636, -0.13185834884643555, 0.12809151411056519, 0.39545655250549316, 0.015636848285794258, 0.024162469431757927, 0.167119562625885, -0.008456110022962093, -0.24906577169895172, -0.17127856612205505, 0.40662676095962524, -0.05719442293047905, -0.08258134126663208, 0.017766332253813744, -0.01799096167087555, -0.3525545597076416, -0.00672520836815238, 0.5160312652587891, -0.04650423675775528, 0.0009039326687343419, 0.08121898025274277, -0.013172558508813381, -0.4437742531299591, -0.07080916315317154, 0.45636677742004395, -0.02199789695441723, 0.1760198026895523, 0.09129812568426132, 0.10074908286333084, -0.3218684196472168, -0.05281566455960274, 0.6566784381866455, -0.030134819447994232, 0.025545552372932434, -0.16961225867271423, 0.15257912874221802, -0.4895534813404083, 0.10963883250951767, 0.2663327157497406, -0.14802433550357819, 0.11155503243207932, -0.0018309393199160695, 0.06296820193529129, -0.15126390755176544, 0.07650325447320938, 0.37679776549339294, -0.18674612045288086, -0.031066007912158966, -0.010187034495174885, -0.03077365830540657, -0.19166843593120575, -0.024274084717035294, 0.19134604930877686, -0.2798716425895691, 0.10308883339166641, -0.12152497470378876, 0.02018851414322853, -0.27841439843177795, -0.023259343579411507, 0.07206381857395172, -0.0885828509926796, 0.20847652852535248, -0.020259706303477287, -0.015970002859830856, -0.04955107346177101, 0.16511474549770355, 0.2974591553211212, -0.09839510172605515, 0.0035719024017453194, -0.1234164834022522, 0.03851380571722984, 0.07716956734657288, 0.013004212640225887, 0.26704758405685425, -0.1986434906721115, -0.12645432353019714, -0.2701937258243561, -0.1410510092973709, -0.11388031393289566, -0.10987606644630432, 0.186191588640213, -0.11125706136226654, 0.16298292577266693, -0.19770413637161255, -0.06600364297628403, 0.1405208557844162, 0.10833609104156494, -0.23867963254451752, -0.030752355232834816, 0.11894184350967407, -0.209548220038414, -0.0321662612259388, 0.16529658436775208, 0.13403113186359406, -0.17421752214431763, -0.08979713916778564, -0.08414337038993835, -0.07077563554048538, 0.019973553717136383, 0.10026232898235321, -0.08475860208272934, -0.1463214010000229, -0.058019187301397324, -0.09791237115859985, -0.14026491343975067, -0.03888186067342758, 0.14345954358577728, -0.014559773728251457, 0.135777086019516, -0.2510623037815094, -0.059956442564725876, -0.11671638488769531, -0.038453634828329086, 0.08569846302270889, 0.047208599746227264, -0.06489994376897812, -0.16030234098434448, 0.07917177677154541, -0.01121722161769867, -0.1319178342819214, 0.18174806237220764, 0.05151735618710518, -0.13016529381275177, -0.19442665576934814, -0.09707951545715332, -0.10488787293434143, -0.0029604679439216852, -0.0008407303248532116, 0.04463774338364601, -0.06630370020866394, -0.24733184278011322, 0.23227055370807648, -0.052994001656770706, -0.17517419159412384, -0.007370603736490011, 0.07513672858476639, -0.012471863068640232, -0.1797022819519043, 0.08463972061872482, 0.01203167624771595, 0.05571277439594269, 0.013467139564454556, 0.031301457434892654, -0.028507698327302933, -0.1776086539030075, 0.077486053109169, -0.006301943212747574, 0.017703702673316002, -0.03184104338288307, -0.008932165801525116, 0.274047315120697, -0.15576040744781494, -0.005484534427523613, -0.08396127820014954, -0.043983254581689835, 0.08817379921674728, -0.05220603942871094, 0.1830877810716629, -0.045097775757312775, -0.008687781170010567, -0.1263512670993805, -0.07034117728471756, 0.07805781066417694, 0.10404331982135773, 0.13151586055755615, -0.283689945936203, -0.1430317908525467, -0.10274443030357361, -0.04912636801600456, 0.20245619118213654, 0.05748196691274643, -0.04463215544819832, -0.21615692973136902, -0.015921490266919136, -0.052045997232198715, -0.04923334717750549, 0.07029038667678833, 0.030904939398169518, -0.13948163390159607, -0.15691539645195007, -0.13861334323883057, -0.1635347157716751, -0.008010519668459892, 0.007082922384142876, -0.07150859385728836, -0.037259191274642944, -0.12668654322624207, 0.09138502180576324, 0.021548720076680183, 0.12314212322235107, -0.08165745437145233, 0.031065819784998894, -0.07880458235740662, -0.10854650288820267, -0.0607704222202301, 0.08711762726306915, -0.02778983861207962, -0.08023814111948013, 0.15431299805641174, -0.11116135120391846, -0.2540982961654663, 0.012289267033338547, 0.06268871575593948, -0.03126595541834831, 0.03677491098642349, 0.07252504676580429, -0.18824970722198486, -0.19105415046215057, -0.11155707389116287, 0.29094311594963074, 0.1779043972492218, -0.26592233777046204, 0.07612371444702148, -0.2438013106584549, -0.11391028761863708, -0.047703225165605545, 0.10387057065963745, 0.14930766820907593, -0.2912139892578125, -0.0258848387748003, -0.11320316046476364, -0.03965311124920845, 0.0677652582526207, 0.09315389394760132, 0.11914756149053574, -0.10867298394441605, -0.10616300255060196, -0.0860535129904747, 0.10804832726716995, -0.09394463896751404, 0.21225911378860474, 0.028206199407577515, -0.13120509684085846, 0.1131427213549614, -0.006082366220653057, 0.13852322101593018, 0.06307607144117355, 0.044488903135061264, 0.013097262009978294, -0.11411774903535843, -0.14196009933948517, -0.020550979301333427, 0.032078396528959274, -0.18200595676898956, 0.021702615544199944, 0.08757895976305008, -0.27936649322509766, -0.11778654903173447, -0.0754193663597107, 0.1148739606142044, -0.06059202551841736, 0.07485006749629974, 0.005086568649858236, -0.10534871369600296, 0.05808774381875992, 0.023428084328770638, 0.032820090651512146, -0.15316399931907654, 0.1360606551170349, 0.04748248681426048, -0.1267501711845398, -0.020306287333369255, -0.011819512583315372, 0.1688201129436493, -0.05184558406472206, -0.028808822855353355, -0.19175957143306732, -0.0885038897395134, -0.0005785088869743049, -0.07492085546255112, 0.28779172897338867, -0.1551428735256195, -0.2682487666606903, 0.05726705491542816, -0.14910228550434113, -0.011409332044422626, 0.026051197201013565, 0.20100976526737213, -0.21577581763267517, -0.48873865604400635, -0.10947852581739426, 0.028845855966210365, -0.0615692213177681, -0.021683355793356895, -0.054425206035375595, -0.4840673506259918, -0.049355294555425644, 0.07906429469585419, -0.26296520233154297, -0.3148413300514221, 1.106430172920227], [0.0321432463824749, -0.10551925748586655, -0.10861767828464508, 0.014309829100966454, -0.03499794006347656, 0.1210552453994751, -0.2013729363679886, -0.03784232586622238, 0.06825409084558487, -0.2880154252052307, -0.041018128395080566, -0.013658052310347557, 0.056508295238018036, 0.1162753477692604, -0.10053335875272751, 0.06623289734125137, -0.4315360486507416, 0.12563660740852356, -0.011041009798645973, -0.06664270162582397, 0.07899798452854156, 0.05436021462082863, 0.17506203055381775, -0.692789614200592, -0.018510963767766953, 0.003489760449156165, -0.03559871390461922, -0.041350677609443665, 0.028350520879030228, 0.19522452354431152, -0.600425124168396, -0.0024668301921337843, 0.021265128627419472, -0.1756393015384674, 0.11243844032287598, 0.027128348127007484, 0.11769402027130127, -0.4773004949092865, 0.08550211787223816, 0.07500486075878143, -0.2504779100418091, 0.1251775175333023, 0.11947333067655563, 0.06653156131505966, -0.4037996530532837, -0.06109102442860603, 0.1379445344209671, -0.3144181966781616, 0.05489891394972801, 0.18034310638904572, 0.125998392701149, -0.25658926367759705, -0.00487500848248601, 0.01765568181872368, -0.19499213993549347, 0.06400129199028015, 0.023701094090938568, 0.016208907589316368, -0.1624244600534439, 0.054563023149967194, -0.08494242280721664, -0.48484212160110474, -0.019980119541287422, -0.039231106638908386, 0.037839364260435104, -0.07579027116298676, 0.06645405292510986, 0.07299705594778061, -0.7231519222259521, 0.02513784170150757, -0.22290974855422974, -0.010868147015571594, -0.09099496901035309, -0.13768748939037323, 0.044391073286533356, -0.6282222270965576, 0.04355417937040329, 0.019750425592064857, -0.15525607764720917, 0.10654868930578232, 0.008336341939866543, -0.0432085357606411, -0.5563111305236816, -0.01070884708315134, -0.07191476225852966, -0.027141127735376358, 0.196478933095932, -0.043372951447963715, 0.037027567625045776, -0.5294765830039978, 0.07297534495592117, 0.026744168251752853, 0.0023699463345110416, 0.08507582545280457, 0.05992690101265907, -0.009106124751269817, -0.4453223943710327, -0.04442311078310013, 0.050664022564888, -0.005840730853378773, 0.16824457049369812, -0.024275097995996475, -0.08694715052843094, -0.635171115398407, -0.08415897190570831, 0.051231805235147476, -0.06110687926411629, 0.08635137230157852, 0.04897279292345047, 0.10331340879201889, -0.775073230266571, -0.1403765231370926, 0.12710969150066376, -0.04919782653450966, 0.2814253270626068, -0.042447786778211594, -0.05408265069127083, -0.5619759559631348, -0.10103991627693176, -0.011955518275499344, -0.2231365591287613, 0.32587847113609314, -0.05622945725917816, 0.02164982631802559, -0.5596005320549011, -0.06309033930301666, -0.018240317702293396, -0.09305000305175781, 0.19854594767093658, 0.06490395218133926, 0.0657636970281601, -0.5180541276931763, -0.17760072648525238, -0.006494726520031691, -0.16723494231700897, 0.2822238504886627, 0.08082278072834015, -0.003589513711631298, -0.3846930265426636, -0.18129897117614746, -0.00779825309291482, 0.11296519637107849, 0.3492986261844635, -0.0712660551071167, 0.026074619963765144, -0.5189905166625977, -0.15887080132961273, 0.03209218382835388, -0.14048908650875092, 0.26008808612823486, -0.10004714131355286, 0.10766696184873581, -0.4687305688858032, -0.17345991730690002, -0.009931608103215694, -0.13509799540042877, 0.1841222047805786, 0.028021471574902534, -0.029944876208901405, -0.3173087239265442, -0.3843950927257538, 0.020916718989610672, -0.0072817327454686165, 0.3103780448436737, 0.04040323570370674, -0.08814484626054764, -0.5662264227867126, -0.1833813488483429, 0.02607574313879013, -0.0993044376373291, 0.23282916843891144, 0.058794014155864716, -0.03990205004811287, -0.5073943734169006, -0.0802578553557396, 0.005105940625071526, -0.13482794165611267, 0.41976198554039, 0.05990703031420708, 0.10289531946182251, -0.5352780222892761, -0.07836323231458664, 0.07297064363956451, -0.12576165795326233, 0.2489435374736786, 0.021397557109594345, -0.11626642197370529, -0.4239951968193054, -0.1673882156610489, 0.015593006275594234, -0.07835088670253754, 0.23096932470798492, -0.09968757629394531, -0.17075331509113312, -0.2583036422729492, -0.09796332567930222, 0.15876905620098114, -0.05705370754003525, 0.3209882378578186, -0.14809276163578033, -0.04476651921868324, -0.4878198206424713, 0.06511639803647995, 0.02679460123181343, -0.10896888375282288, 0.08651135116815567, 0.03787476569414139, 0.08973339200019836, -0.15370529890060425, -0.13933728635311127, 0.015331290662288666, -0.07138804346323013, 0.07825012505054474, -0.03321355581283569, 0.08268444240093231, -0.2823266386985779, 0.028093060478568077, -0.10847906023263931, 0.04279501363635063, -0.13771410286426544, 0.11139614135026932, 0.004305518697947264, -0.2661316990852356, -0.030286630615592003, 0.015177637338638306, -0.005851811729371548, -0.11374498158693314, -0.16932694613933563, -0.2791714072227478, -0.24947334825992584, 0.15458539128303528, -0.09921620786190033, 0.013963412493467331, -0.1408064067363739, -0.04718584194779396, -0.21934038400650024, -0.17945802211761475, 0.0713232010602951, -0.12474329769611359, 0.07881400734186172, -0.026396920904517174, 0.13936494290828705, -0.43956246972084045, -0.2095135599374771, 0.16989119350910187, -0.11579915136098862, 0.12671072781085968, -0.18050917983055115, -0.09583338350057602, -0.5430467128753662, -0.47733718156814575, 0.19048532843589783, -0.045279163867235184, 0.12075915187597275, -0.23291076719760895, -0.05282916501164436, -0.37771230936050415, -0.39694008231163025, 0.2812734842300415, -0.0811627060174942, 0.17666855454444885, -0.30559179186820984, 0.01499740220606327, -0.16348502039909363, -0.16924487054347992, 0.17590545117855072, 0.03449338302016258, 0.08542831987142563, -0.3300970494747162, -0.056104108691215515, 0.0037611047737300396, -0.2166106104850769, 0.006139157805591822, 0.0765477865934372, 0.016565226018428802, -0.5531601905822754, -0.07293474674224854, -0.05239882320165634, -0.1251654177904129, -0.028980912640690804, 0.006423583719879389, 0.2394430786371231, -0.5457064509391785, 0.018106680363416672, -0.030486227944493294, 0.053183719515800476, -0.007883954793214798, 0.10058987885713577, 0.2018684297800064, -0.6515284776687622, -0.15628769993782043, 0.11868762969970703, 0.007743190508335829, -0.10322711616754532, 0.08513984084129333, 0.24050067365169525, -0.5015155076980591, -0.09936585277318954, 0.057289235293865204, 0.23128876090049744, -0.3438141942024231, -0.06377412378787994, 0.11796531081199646, -0.6056909561157227, 0.017133234068751335, -0.01069406233727932, 0.18172822892665863, -0.5056284666061401, 0.0881916880607605, 0.16071879863739014, -0.4808880090713501, 0.04553333297371864, 0.10201151669025421, 0.39089587330818176, -0.14337505400180817, 0.04537869617342949, -0.02533966302871704, -0.3622523546218872, -0.03675093874335289, -0.12731432914733887, 0.23255214095115662, -0.09596017748117447, 0.009470347315073013, -0.1989850401878357, -0.3525194227695465, -0.0436776764690876, -0.03356695547699928, 0.28377658128738403, -0.5932653546333313, 0.09475993365049362, -0.30572327971458435, -0.2511695623397827, 0.0005272062844596803, 0.019831469282507896, 0.2936168909072876, -0.45724520087242126, 0.0727650374174118, 0.08225137740373611, -0.6552419662475586, 0.4992695450782776, 0.34789180755615234], [-0.21070952713489532, -0.05450290068984032, 0.0977732315659523, 0.005706602241843939, -0.15205304324626923, -0.01124214380979538, 0.4102674424648285, -0.17128989100456238, -0.04632791131734848, 0.3637356758117676, 0.10984671115875244, -0.09034998714923859, -0.05681231617927551, 0.3633905351161957, -0.16141939163208008, 0.07418525964021683, -0.08879272639751434, -0.0020995899103581905, -0.04530547559261322, -0.04481196030974388, 0.4094659388065338, -0.3235350251197815, 0.01902480237185955, -0.22809095680713654, 0.09892259538173676, -0.10191620141267776, -0.08495483547449112, 0.47075170278549194, -0.1941193789243698, -0.09866417199373245, -0.2658247947692871, 0.009248294867575169, -0.06332960724830627, -0.19739122688770294, 0.13576501607894897, 0.05064307153224945, -0.060762807726860046, -0.38787850737571716, -0.043180469423532486, 0.005845800973474979, -0.1493493765592575, 0.026952385902404785, -0.027017081156373024, -0.13953109085559845, -0.17591968178749084, 0.10880033671855927, -0.05173514038324356, 0.20441290736198425, -0.015866531059145927, -0.06956826895475388, -0.07143121212720871, -0.13954119384288788, 0.16016435623168945, -0.021580146625638008, 0.4099125564098358, 0.037487324327230453, -0.00188910448923707, -0.11877728253602982, -0.09588249027729034, -0.05781858041882515, -0.03442163020372391, -0.007728965487331152, 0.004310993477702141, 0.07308395206928253, -0.025702668353915215, -0.15638837218284607, -0.017082424834370613, -0.010667592287063599, 0.17005997896194458, 0.08616381883621216, 0.12391103804111481, 0.027645178139209747, -0.15416420996189117, -0.05523968115448952, 0.04438779503107071, 0.07474508881568909, 0.1233564168214798, -0.09669270366430283, 0.05369608849287033, -0.2113109529018402, 0.016633182764053345, -0.024816740304231644, 0.2894052267074585, 0.11895538866519928, -0.07529422640800476, -0.05239991471171379, -0.11825287342071533, 0.1361997276544571, -0.03851668909192085, 0.10992104560136795, -0.0009146426455117762, 0.11363276094198227, -0.15345026552677155, -0.09536245465278625, -0.05778459087014198, -0.030340731143951416, 0.19435279071331024, -0.09381700307130814, -0.0012784898281097412, -0.03732263296842575, -0.02469361014664173, -0.02263008803129196, -0.04048870503902435, 0.049680810421705246, 0.02654297463595867, -0.08716925233602524, -0.20736902952194214, -0.19161424040794373, 0.02237890101969242, -0.05166735127568245, 0.14521461725234985, -0.1412445455789566, 0.0007063233060762286, -0.11097291857004166, -0.11314625293016434, 0.03334580734372139, -0.014424839057028294, 0.08547469973564148, -0.050022028386592865, 0.04656009003520012, 0.04333360120654106, 0.016876250505447388, 0.029748301953077316, 0.03540404513478279, 0.11518529802560806, 0.033103834837675095, 0.03375475853681564, 0.008991752751171589, -0.09397266060113907, 0.009763824753463268, 0.06685750931501389, 0.1478853076696396, -0.017463896423578262, -0.026509711518883705, -0.009602448903024197, -0.041085097938776016, 0.018341299146413803, 0.02542513608932495, 0.004195729736238718, -0.08133997023105621, 0.018968036398291588, 0.05917796865105629, -0.008540136739611626, 0.020234806463122368, -0.018051601946353912, 0.17141790688037872, -0.021522408351302147, 0.07127982378005981, 0.031773023307323456, -0.057070910930633545, -0.09117282181978226, 0.027667779475450516, 0.07279197871685028, -0.03330348804593086, 0.022195378318428993, 0.13720068335533142, -0.027617964893579483, -0.10557921230792999, -0.014218629337847233, -0.0019138813950121403, -0.029102303087711334, -0.03257562965154648, 0.013758542016148567, -0.1680765599012375, 0.03323075920343399, 0.0415896512567997, 0.0949249193072319, -0.09776908159255981, 0.007843486033380032, 0.15007315576076508, -0.06943994015455246, 0.007897483184933662, 0.07832672446966171, 0.25067761540412903, -0.04439837485551834, 0.047715526074171066, 0.030534522607922554, -0.030202073976397514, -0.019933896139264107, 0.08892083913087845, 0.222621351480484, -0.14230231940746307, 0.08595044910907745, 0.11823498457670212, 0.06400521844625473, -0.10053128749132156, 0.1524345576763153, 0.17811298370361328, -0.13078653812408447, -0.05155600607395172, 0.093459352850914, -0.029821310192346573, -0.16172626614570618, 0.537138044834137, 0.20468007028102875, -0.23057986795902252, 0.01835556887090206, 0.09896906465291977, 0.04694781452417374, -0.022168094292283058, 0.17201724648475647, 0.15001839399337769, -0.23383136093616486, -0.0040024700574576855, 0.06412803381681442, -0.010441026650369167, 0.12317003309726715, 0.07104374468326569, 0.19119411706924438, -0.36144745349884033, 0.06343911588191986, 0.12642449140548706, 0.06979605555534363, 0.0032189039047807455, 0.15631388127803802, 0.207225501537323, -0.24226243793964386, 0.020529665052890778, 0.05496444180607796, 0.07529479265213013, 0.017576755955815315, -0.0506243072450161, 0.2961004972457886, -0.2346029132604599, 0.051151029765605927, 0.11558473110198975, 0.07289594411849976, 0.009495159611105919, 0.08806032687425613, 0.0964718833565712, -0.26445746421813965, 0.06400029361248016, 0.1272767186164856, 0.07033997774124146, -0.14929825067520142, 0.06911994516849518, 0.2905728816986084, -0.2682996392250061, 0.000403587386244908, 0.2510456442832947, 0.10759647935628891, -0.10477662831544876, 0.08407418429851532, 0.15572549402713776, -0.2886793613433838, -0.1477968692779541, 0.09168356657028198, 0.014312121085822582, -0.1408521980047226, 0.04472450166940689, 0.21128211915493011, -0.2640167772769928, -0.19622455537319183, 0.13481032848358154, 0.0049516684375703335, -0.0793856605887413, 0.1483270227909088, 0.3465149998664856, -0.35319751501083374, -0.33256691694259644, 0.1688496619462967, -0.021261433139443398, -0.007783021777868271, 0.06151559203863144, 0.426035612821579, -0.30876797437667847, -0.3763887584209442, 0.02062961831688881, 0.006859326735138893, -0.08075825870037079, 0.06431180983781815, 0.4792540669441223, -0.15586845576763153, -0.3555338382720947, -0.042431510984897614, -0.07936450839042664, 0.020821625366806984, 0.0729924812912941, 0.39743027091026306, -0.07539781183004379, -0.32984912395477295, 0.006046681199222803, 0.0418822355568409, -0.1606776863336563, 0.012484120205044746, 0.4097832143306732, -0.07922841608524323, -0.22105522453784943, -0.015037097968161106, -0.010874222032725811, -0.13532987236976624, -0.04776280000805855, 0.43689867854118347, -0.09207955747842789, -0.06877652555704117, -0.12225703150033951, -0.08498485386371613, -0.07348752021789551, -0.005471436306834221, 0.2948762774467468, -0.05867736414074898, 0.01803259178996086, -0.0032491281162947416, -0.2040598839521408, -0.12285934388637543, -0.010930589400231838, 0.2085188329219818, -0.01156467106193304, 0.06645148247480392, -0.15256857872009277, -0.02614019438624382, -0.027677295729517937, 0.006778711918741465, 0.22255203127861023, -0.015668733045458794, 0.19442559778690338, -0.14798176288604736, -0.014747091569006443, 0.013967247679829597, 0.06322464346885681, 0.18648536503314972, 0.18683330714702606, -0.061109259724617004, -0.10796283185482025, 0.07320258021354675, -0.006666878703981638, 0.00806867703795433, 0.16087430715560913, 0.3893790543079376, -0.3153875470161438, -0.02388281747698784, -0.012414484284818172, -0.0071673146449029446, -0.06823989748954773, 0.15727806091308594, 0.3659689426422119, -0.29790207743644714, -0.07587341964244843, 0.010379170998930931, -0.1941148191690445, 0.4754102826118469], [0.04259978607296944, 0.025462672114372253, 0.6350004076957703, 0.0005003436817787588, 0.021593527868390083, -0.13528282940387726, 0.044533684849739075, -0.0096179423853755, 0.00852214265614748, 0.5474132895469666, 0.003889689454808831, -0.05207345262169838, -0.006117556244134903, -0.0895683541893959, -0.013945823535323143, 0.13760653138160706, 0.3901800811290741, -0.05260491371154785, -0.09597110003232956, -0.015019265934824944, -0.19331978261470795, 0.06439447402954102, 0.09451700747013092, 0.2166832983493805, -0.07514537125825882, -0.07571693509817123, 0.028469430282711983, -0.10808156430721283, -0.08023765683174133, 0.06203945726156235, 0.1573718786239624, 0.12374380975961685, -0.1452295482158661, 0.06955844908952713, -0.09431590884923935, -0.05886462330818176, -0.007472731173038483, -0.0384257510304451, 0.1247050017118454, -0.15966056287288666, -0.22579507529735565, 0.10588541626930237, -0.23342272639274597, -0.06052442640066147, 0.02222982607781887, -0.05654953792691231, -0.3029773235321045, -0.08476496487855911, 0.08182166516780853, -0.21405109763145447, -0.03165190666913986, -0.12888729572296143, 0.008701655082404613, -0.28842830657958984, -0.23498140275478363, 0.16718049347400665, -0.14854256808757782, -0.013962585479021072, -0.1783985048532486, 0.0688990131020546, -0.2133403718471527, -0.11087431013584137, 0.22968730330467224, 0.008122370578348637, -0.06611567735671997, -0.34555894136428833, 0.025936830788850784, -0.3456583321094513, -0.0011572252260521054, 0.21164461970329285, -0.035813912749290466, 0.15344011783599854, -0.5784343481063843, 0.05131194740533829, -0.3116890490055084, -0.060608550906181335, 0.3243595063686371, -0.07885900884866714, 0.1368042677640915, -0.7554379105567932, -0.06196756288409233, -0.15360593795776367, 0.11359664052724838, 0.24213479459285736, 0.049700479954481125, 0.15856227278709412, -0.7650307416915894, 0.04515593871474266, -0.014276277273893356, 0.009842007420957088, 0.2964440882205963, -0.03199971467256546, 0.20084676146507263, -0.42570266127586365, 0.022508487105369568, -0.1515207290649414, -0.03461361303925514, 0.21156935393810272, 0.10054467618465424, 0.017493298277258873, -0.22665126621723175, -0.09012763947248459, -0.04185306280851364, -0.09929274022579193, -0.02206609956920147, 0.10204003006219864, 0.1293732225894928, 0.16806308925151825, 0.009618065319955349, 0.07260915637016296, 0.046147655695676804, -0.12149438261985779, 0.06982922554016113, -0.05416813865303993, -0.14550654590129852, -0.07721178978681564, 0.2029310166835785, -0.0006181526696309447, -0.038688383996486664, 0.02613459900021553, 0.15503986179828644, -0.03695584833621979, 0.09338810294866562, -0.1965290904045105, -0.000718410243280232, 0.05389131233096123, -0.016694381833076477, 0.03299243375658989, -0.08245780318975449, 0.0319175198674202, -0.1479375660419464, 0.12935860455036163, 0.056967876851558685, -0.05773443728685379, -0.05068180710077286, -0.11058754473924637, -0.06890397518873215, 0.07512135803699493, -0.005819510202854872, 0.04930560290813446, -0.000683617137838155, -0.02510218881070614, -0.1199536919593811, -0.10677578300237656, -0.14785586297512054, -0.027015110477805138, 0.1166207492351532, -0.1346256285905838, 0.12860307097434998, -0.2385748028755188, 0.0413295216858387, -0.06012742593884468, -0.06854328513145447, 0.011630674824118614, 0.1357148289680481, 0.025845086202025414, -0.28885388374328613, 0.09177370369434357, 0.041123587638139725, -0.013252638280391693, 0.08800281584262848, 0.020653121173381805, 0.10429771989583969, -0.07801523059606552, 0.1364205777645111, -0.06031946465373039, 0.07229077816009521, 0.08001799881458282, -0.03485771268606186, 0.025357885286211967, -0.26154953241348267, 0.05323532968759537, -0.18943320214748383, 0.08877553790807724, 0.08438091725111008, 0.03331064432859421, 0.012887048535048962, -0.07065646350383759, -0.09373114258050919, -0.032309338450431824, -0.18472695350646973, 0.2533503472805023, 0.11603658646345139, 0.03138752654194832, -0.16870297491550446, 0.09965454787015915, 0.04982658103108406, -0.05642949044704437, -0.005716477520763874, -0.023611782118678093, 0.04400244727730751, -0.14134825766086578, -0.01038067415356636, -0.0625699833035469, -0.05141895264387131, 0.17586466670036316, 0.004752194508910179, -0.09981799870729446, -0.3019979000091553, 0.04500865936279297, 0.2131122201681137, 