{"schema_version": 1, "metadata": {"global_step": 3753984, "run_name": "v102_b2beta", "obs_size": 341, "hidden_size": 64, "action_space_size": 18}, "weights": {"fc1.weight": [[0.19210195541381836, -0.031012529507279396, -0.06257941573858261, -0.054915718734264374, -0.05109671875834465, 0.011434662155807018, -0.10186934471130371, 0.12660108506679535, -0.03835447132587433, 0.06223785877227783, -0.01894732192158699, -0.05420783534646034, -0.07310441136360168, 0.1436769813299179, -0.02001885697245598, 0.024012824520468712, -0.056370921432971954, -0.10491219907999039, -0.06260489672422409, 0.020519685000181198, -0.24292804300785065, 0.03767789900302887, -0.018067151308059692, -0.00629474688321352, 0.044964734464883804, -0.08435607701539993, -0.13054458796977997, -0.0491495244204998, -0.062879778444767, -0.061441048979759216, -0.049178916960954666, 0.21999728679656982, -0.021723547950387, -0.028199391439557076, 0.08826113492250443, -0.049240048974752426, -0.04196322709321976, -0.06297701597213745, -0.037794485688209534, 0.02188768982887268, 0.0932498574256897, 0.03115617111325264, 0.022396262735128403, -0.014437616802752018, 0.0025727932807058096, -0.09872739762067795, 0.01479939091950655, 0.034665800631046295, 0.06382597237825394, -0.0007386074867099524, 0.1316959708929062, -0.0814446359872818, -0.016150062903761864, -0.048261675983667374, 0.02064710110425949, 0.01820111647248268, 0.17216959595680237, -0.05761858448386192, -0.13747668266296387, 0.18757782876491547, -0.05047638341784477, -0.04734420031309128, -0.06798867881298065, 0.10483046621084213, 0.046465691179037094, -0.18773144483566284, -0.07957407832145691, -0.07127825915813446, 0.16724805533885956, 0.030808456242084503, 0.09509192407131195, -0.04083149880170822, -0.014818364754319191, 0.05782438814640045, -0.12400133162736893, 0.08917625993490219, -0.11291270703077316, 0.08696147054433823, 0.1684003621339798, 0.06370533257722855, -0.012726463377475739, -0.006282601039856672, -0.004950798582285643, 0.008836617693305016, 0.23824959993362427, 0.09694277495145798, -0.16997255384922028, -0.0410986989736557, -0.09030689299106598, 0.025622284039855003, -0.06808996200561523, 0.2948588728904724, 0.06861269474029541, -0.18059369921684265, 0.009255492128431797, 0.06339598447084427, 0.09215439856052399, 0.0458570271730423, 0.25231099128723145, -0.053174469619989395, -0.0925675630569458, 0.17201298475265503, -0.0039504216983914375, 0.012226853519678116, 0.07284285873174667, 0.013191689737141132, -0.0675399899482727, -0.1762973666191101, -0.11867991834878922, -0.016362397000193596, 0.06787481158971786, -0.06001193821430206, 0.025060825049877167, -0.10306893289089203, -0.0015270889271050692, 0.16302445530891418, -0.03059220314025879, -0.021119819954037666, -0.16568832099437714, 0.23253168165683746, 0.09117820113897324, 0.04998895153403282, -0.04967937991023064, -0.14199484884738922, 0.09451363980770111, -0.1542457640171051, 0.06462383270263672, 0.08784405142068863, 0.06773517280817032, 0.028448719531297684, -0.010151499882340431, -0.052773699164390564, -0.08561202138662338, 0.007849608547985554, -0.13916032016277313, 0.0006344196735881269, -0.025379730388522148, -0.01707383245229721, -0.04614352062344551, -0.12655259668827057, 0.04064659774303436, 0.1390373557806015, -0.05893300101161003, -0.048978857696056366, 0.01460045762360096, 0.013577034696936607, -0.09648314118385315, -0.0424506850540638, 0.11724753677845001, -0.07881428301334381, 0.1968642771244049, -0.008175449445843697, -0.14252828061580658, -0.11734066903591156, -0.041158527135849, 0.09252659976482391, 0.0800117701292038, 0.14844629168510437, -0.06163407117128372, -0.14886371791362762, -0.011538331396877766, 0.14726443588733673, 0.11738000810146332, -0.013751613907516003, 0.037174053490161896, -0.05427084490656853, -0.2373434454202652, 0.07712168246507645, -0.09791192412376404, 0.039588525891304016, -0.015622108243405819, 0.11063992977142334, -0.08505906909704208, -0.19589762389659882, -0.11530948430299759, 0.07758676260709763, 0.08701577037572861, -0.0542176328599453, 0.032530587166547775, -0.13460089266300201, -0.25470077991485596, -0.05756564438343048, -0.1386973261833191, 0.16249293088912964, -0.08007026463747025, 0.005515762604773045, -0.062396496534347534, -0.38707247376441956, -0.11488456279039383, -0.016459841281175613, 0.06071527302265167, 0.022465338930487633, -0.008217346854507923, 0.04458821564912796, -0.3429549038410187, -0.16084426641464233, -0.021568330004811287, -0.03844545781612396, 0.0816740021109581, 0.025151744484901428, 0.13574708998203278, -0.33506083488464355, -0.095683254301548, -0.014016621746122837, 0.1240341067314148, 0.052534155547618866, -0.03371693193912506, -0.018456924706697464, -0.3006209135055542, -0.14440889656543732, -0.012336542829871178, 0.08047565072774887, 0.1775302141904831, -0.13780483603477478, -0.0983271449804306, -0.22661635279655457, -0.07176902145147324, 0.05627649649977684, 0.10215948522090912, -0.0760820135474205, -0.020384829491376877, -0.08407963812351227, -0.2629026770591736, -0.02270856499671936, 0.10586074739694595, 0.06593450158834457, -0.00249956245534122, -0.07783439755439758, -0.3184427320957184, -0.3010641038417816, 0.004647208843380213, 0.08376814424991608, 0.1865786761045456, -0.08055730164051056, -0.16065534949302673, -0.1384791135787964, -0.21588146686553955, -0.009296747855842113, 0.2623816132545471, 0.08817462623119354, -0.0263095460832119, -0.11362965404987335, -0.12305774539709091, -0.25480082631111145, -0.1497814953327179, -0.03899811580777168, -0.009463624097406864, 0.03554927930235863, 0.06540762633085251, 0.06772736459970474, -0.20452621579170227, 0.045612748712301254, 0.140870600938797, 0.0815475732088089, 0.17134715616703033, 0.00810005608946085, -0.12624935805797577, -0.2189318835735321, 0.007124900817871094, 0.08854805678129196, -0.013096301816403866, -0.04747062921524048, -0.05229395255446434, -0.015398330986499786, -0.2212333232164383, -0.006119303405284882, 0.12501119077205658, 0.11556887626647949, -0.05858427286148071, -0.021722208708524704, -0.2561590373516083, -0.1891365647315979, -0.02523893304169178, -0.07295283675193787, -0.003926291596144438, -0.0495208241045475, -0.060309819877147675, 0.06850610673427582, -0.09759844094514847, 0.03564607724547386, 0.07420386373996735, -0.07766085863113403, -0.044632453471422195, 0.02495807595551014, -0.1416766196489334, -0.039071254432201385, -0.004456978756934404, 0.007134714629501104, 0.007636829745024443, -0.18800070881843567, 0.08462193608283997, -0.1327887773513794, -0.1681917905807495, -0.0937880203127861, -0.049953605979681015, -0.002059071557596326, -0.06668868660926819, 0.025898244231939316, 0.1333468109369278, 0.07759316265583038, 0.014410528354346752, 0.1177484542131424, 0.01550289336591959, -0.04617584869265556, 0.007818708196282387, -0.13720858097076416, 0.08356640487909317, 0.0186722781509161, -0.024622147902846336, -0.00041994426283054054, -0.02622954733669758, 0.028095463290810585, 0.00010269194171996787, 0.011099420487880707, -0.03794819489121437, -0.1671622395515442, 0.038237523287534714, 0.019906260073184967, -0.05780032277107239, 0.07139410823583603, 0.032994113862514496, 0.11846359819173813, 0.04554805904626846, 0.024250468239188194, -0.05745720863342285, -0.06586486846208572, 0.07248812168836594, 0.08018824458122253, -0.09477575123310089, -0.09397480636835098, 0.025752106681466103, -0.011125865392386913, 0.028232092037796974, -0.06974092870950699, -0.07039864361286163, -0.11018528044223785, -0.13676448166370392, -0.0296600554138422, 0.42236700654029846, -0.06197882816195488, -0.060061268508434296], [-0.0053136772476136684, 0.0999818667769432, -0.014034181833267212, -0.09144371002912521, 0.21294498443603516, -0.14333850145339966, -0.169843852519989, -0.053288355469703674, 0.1237737387418747, 0.018260277807712555, 0.08236707001924515, -0.14085829257965088, -0.24192965030670166, -0.016385694965720177, 0.04887312278151512, 0.2587145268917084, 0.021753663197159767, 0.026701979339122772, 0.21719270944595337, -0.2605802118778229, -0.2377825230360031, 0.1169649064540863, 0.04940327629446983, -0.1622103750705719, -0.07806600630283356, -0.0753537267446518, -0.018048962578177452, 0.11735466122627258, 0.14395269751548767, 0.017787141725420952, 0.08059435337781906, 0.047376859933137894, 0.2107446938753128, -0.11705166101455688, -0.021039197221398354, 0.086820088326931, -0.035831231623888016, -0.17729532718658447, -0.029537495225667953, 0.09417618811130524, -0.056802112609148026, 0.012048549018800259, 0.13478276133537292, -0.1015838086605072, -0.028653185814619064, 0.04235531762242317, -0.025455912575125694, 0.0004143395635765046, 0.08138754963874817, -0.0070008873008191586, -0.05727081000804901, 0.08360730111598969, 0.06037486344575882, 0.11246101558208466, -0.07183761149644852, 0.06998974829912186, 0.19533708691596985, 0.013468673452734947, -0.2533038258552551, 0.01251243520528078, -0.0009021994192153215, -0.03367118537425995, 0.16610492765903473, 0.04204968735575676, -0.16107791662216187, 0.004529810044914484, -0.046092402189970016, 0.03170166164636612, 0.1072009727358818, -0.1053394079208374, -0.007094083819538355, -0.05900467187166214, -0.12667573988437653, 0.02783999964594841, 0.0582604818046093, -0.04807710647583008, 0.09065098315477371, 0.09097231179475784, 0.06667190790176392, -0.14282839000225067, -0.028499219566583633, 0.10858503729104996, -0.07433298975229263, 0.02924160473048687, -0.23465792834758759, 0.0034554179292172194, -0.00801694393157959, -0.005420919973403215, -0.03565261885523796, 0.1933204084634781, 0.04424269497394562, -0.03283263370394707, -0.07396185398101807, -0.14330822229385376, -0.1722412407398224, 0.019537117332220078, 0.15186916291713715, 0.029865721240639687, -0.12007518112659454, 0.08086215704679489, -0.14080454409122467, -0.03249431028962135, -0.1302202194929123, 0.020383847877383232, 0.012555650435388088, -0.041735731065273285, -0.11950096487998962, -0.10565367341041565, -0.014233698137104511, 0.027178464457392693, 0.27380144596099854, -0.025979971513152122, 0.026053033769130707, 0.1265580803155899, -0.20817972719669342, -0.02567887492477894, -0.1454118937253952, 0.14001592993736267, -0.005105703603476286, -0.1503298133611679, -0.042127590626478195, -0.18058763444423676, 0.1438455730676651, -0.1316555291414261, 0.17661282420158386, 0.11184600740671158, 0.012731803581118584, -0.007256325799971819, -0.21203328669071198, -0.14667335152626038, 0.0325780063867569, 0.1644142121076584, 0.13773387670516968, -0.025170739740133286, 0.058615341782569885, -0.26082515716552734, -0.10775063931941986, -0.026809582486748695, -0.007945728488266468, 0.03762806951999664, -0.08853065967559814, 0.06022774055600166, -0.2162889838218689, -0.049182046204805374, -0.1089666560292244, 0.05979122966527939, 0.16475482285022736, -0.1017138808965683, -0.033284611999988556, -0.11378590017557144, -0.053565409034490585, -0.0638245940208435, 0.114222951233387, 0.18228673934936523, -0.0834961012005806, 0.02192946895956993, -0.006729427725076675, 0.00046894553815945983, -0.11674623191356659, 0.21055662631988525, 0.041447605937719345, 0.03753662109375, 0.02889425680041313, -0.1591757982969284, 0.03143664449453354, 0.00040101734339259565, 0.0020156006794422865, -0.07887978851795197, -0.02938927337527275, -0.045990630984306335, 0.011564904823899269, 0.0217220950871706, 0.06393855810165405, -0.04270095378160477, 0.19908905029296875, -0.054596126079559326, -0.13635599613189697, -0.13707716763019562, -0.05759405344724655, -0.11211074888706207, 0.14384184777736664, 0.09272977709770203, -0.10230305045843124, -0.12999945878982544, -0.10541524738073349, 0.020753249526023865, -0.022520815953612328, 0.08364362269639969, -0.005207236390560865, -0.053985897451639175, -0.045216310769319534, -0.09365926682949066, 0.004522170405834913, -0.040982138365507126, -0.04066099971532822, 0.15071652829647064, -0.013028942979872227, 0.055117689073085785, -0.2099979817867279, 0.04773859307169914, 0.052526235580444336, -0.04450514167547226, -0.02945033274590969, -0.04158887267112732, -0.08366819471120834, -0.15461696684360504, 0.06259340792894363, 0.14629629254341125, 0.04324180260300636, 0.04547036811709404, -0.12982450425624847, -0.17945195734500885, -0.013696239329874516, -0.22807128727436066, 0.012129602022469044, -0.08200666308403015, 0.1286795437335968, 0.10590498149394989, 0.004846269264817238, -0.19952140748500824, 0.06958667188882828, -0.14587204158306122, 0.1499078869819641, 0.08232113718986511, -0.1308242678642273, -0.005245259031653404, -0.23812751471996307, 0.10477858036756516, -0.019381118938326836, -0.040627043694257736, -0.02931280806660652, -0.2705531716346741, 0.01790342852473259, 0.1085161492228508, 0.08446264266967773, -0.024966098368167877, -0.08570132404565811, -0.12271039932966232, -0.05048252269625664, -0.10895106941461563, -0.001953329425305128, -0.10208595544099808, 0.04606861621141434, 0.008985167369246483, -0.03630940616130829, 0.015515144914388657, 0.16074053943157196, 0.009836203418672085, -0.18415658175945282, 0.04777190089225769, 0.001725996844470501, -0.013249970972537994, -0.15509529411792755, 0.1401030570268631, -0.08395146578550339, -0.11843027919530869, -0.050747357308864594, 0.05913630500435829, -0.04641250893473625, -0.1480296552181244, -0.0048976438120007515, 0.014021115377545357, 0.09906752407550812, 0.1561744213104248, 0.016518013551831245, -0.03887756168842316, -0.11168470233678818, -0.10388343781232834, -0.010984032414853573, 0.024585800245404243, 0.027203043922781944, 0.03134623169898987, -0.07796282321214676, -0.06647494435310364, 0.013172151520848274, -0.05263131111860275, 0.07016868889331818, -0.12153057008981705, 0.03118932992219925, 0.15767456591129303, -0.16703546047210693, -0.13117530941963196, -0.012145892716944218, 0.05995814874768257, -0.03017105534672737, -0.12690117955207825, -0.005943127442151308, -0.15477298200130463, -0.06918569654226303, -0.001160401850938797, 0.01809859275817871, 0.09132716059684753, 0.05891850218176842, -0.034369662404060364, -0.19546209275722504, -0.015407397411763668, -0.08915399014949799, 0.062062643468379974, 0.06303349137306213, -0.022654199972748756, -0.04278447851538658, -0.1759210228919983, -0.017512474209070206, 0.0243831779807806, -0.07792642712593079, 0.10195983201265335, -0.16145764291286469, -0.10339093208312988, -0.08346443623304367, 0.009831325151026249, -0.070282481610775, 0.07163932174444199, 0.10023442655801773, -0.027539003640413284, 0.14877623319625854, 0.05532575398683548, 0.052223581820726395, -0.08165185153484344, -0.1262567788362503, -0.019403520971536636, 0.07887721806764603, 0.17346258461475372, -0.006010002922266722, 0.008559546433389187, 0.01882755197584629, -0.03648635745048523, 0.01702234335243702, 0.03177667409181595, -0.057854361832141876, -0.031870752573013306, -0.203873410820961, -0.041243717074394226, 0.09923943877220154, -0.01284188311547041, 0.02594699151813984, 0.08918100595474243, 0.06296717375516891, 0.060452353209257126, -0.533966064453125, 0.1167725920677185, 0.13598574697971344], [0.1774749904870987, -0.064066581428051, -0.02936282940208912, 0.010060099884867668, 0.07435814291238785, -0.09425150603055954, 0.061574537307024, -0.05161621421575546, -0.07864437997341156, -0.025820637121796608, 0.043199822306632996, 0.07397322356700897, 0.07577028125524521, 0.0010612278711050749, -0.1546899378299713, -0.04361225292086601, 0.03653375059366226, 0.06300079822540283, -0.06502971053123474, 0.09045153111219406, 0.009891107678413391, 0.07015883922576904, 0.1078520342707634, 0.10170603543519974, -0.1000923365354538, -0.09420216828584671, -0.14265140891075134, -0.0601130835711956, 0.04185299947857857, 0.13670650124549866, -0.04666735976934433, -0.07592672854661942, -0.2835899293422699, -0.13408493995666504, -0.07399224489927292, 0.07616162300109863, -0.06934783607721329, -0.006536315660923719, -0.12388496100902557, -0.053898781538009644, -0.15205830335617065, -0.15308240056037903, 0.10019781440496445, -0.057202134281396866, 0.008549938909709454, 0.10511364042758942, 0.09479960054159164, -0.035899002104997635, -0.06410108506679535, 0.1704927235841751, 0.006345601752400398, -0.06358106434345245, 0.08069762587547302, 0.02663860283792019, -0.07665937393903732, 0.18081849813461304, 0.05005158483982086, -0.023248346522450447, -0.00600530207157135, 0.06563236564397812, -0.09334979206323624, -0.08021394163370132, -0.053384244441986084, 0.20497068762779236, 0.09715931117534637, -0.02556445635855198, 0.13838455080986023, -0.12593257427215576, -0.05625322833657265, -0.0853106901049614, 0.15871508419513702, 0.00237673451192677, -0.11526668071746826, -0.009093906730413437, -0.10357195138931274, 0.03538662567734718, -0.046181030571460724, 0.24472004175186157, 0.06424392759799957, 0.035861991345882416, 0.05215265229344368, -0.12789522111415863, -0.006448783446103334, -0.07844953238964081, 0.3051808774471283, 0.13567405939102173, 0.1184016540646553, -0.09399597346782684, -0.04315895587205887, 0.05687157064676285, -0.025269946083426476, 0.1686914712190628, 0.11908835917711258, -0.09460607916116714, -0.01493065431714058, 0.004370545502752066, -0.03606022521853447, -0.033665500581264496, 0.2573804557323456, -0.08400298655033112, -0.1795663982629776, -0.008998755365610123, 0.005225491244345903, -0.012068761512637138, -0.06599518656730652, 0.12363599985837936, 0.06939229369163513, -0.03420104831457138, 0.03250672295689583, 0.12789970636367798, 0.010976631194353104, -0.004255125764757395, -0.028848422691226006, -0.08838248997926712, 0.23771676421165466, 0.03846248984336853, 0.06242121756076813, -0.010222513228654861, -0.3610665500164032, 0.0056837680749595165, 0.04369761422276497, 0.04792024567723274, -0.06178133189678192, -0.03739636763930321, 0.04880482703447342, -0.17616607248783112, 0.11719106137752533, -0.007806785404682159, 0.02655033953487873, 0.02578406035900116, -0.023941602557897568, -0.0018266872502863407, -0.22324903309345245, -0.1504594385623932, 0.006106064189225435, 0.12372341752052307, 0.22949232161045074, 0.032145388424396515, -0.045083288103342056, -0.09891128540039062, 0.006634049583226442, -0.07824929803609848, 0.09741054475307465, 0.07602642476558685, 0.10730422288179398, -0.03041129931807518, -0.11330536007881165, -0.08601409196853638, 0.008893552236258984, -0.005314603913575411, -0.15351128578186035, 0.06889217346906662, -0.0570676326751709, -0.2453267127275467, -0.040820688009262085, 0.061602842062711716, -0.04353758320212364, 0.1259697526693344, -0.0014892080798745155, -0.07713524252176285, -0.15952032804489136, 0.08795583993196487, 0.08396852016448975, -0.07681643962860107, 0.053362809121608734, -0.013956759124994278, -0.08489737659692764, -0.05834478139877319, 0.13872390985488892, -0.009476635605096817, 0.1225653886795044, 0.06956405192613602, -0.0051514278165996075, 0.03050917387008667, -0.07280058413743973, 0.0889156237244606, -0.10194820910692215, 0.01575915515422821, -0.09543885290622711, -0.1627884954214096, 0.13088469207286835, -0.28147944808006287, 0.043239742517471313, 0.04860055819153786, -0.02013363689184189, -0.05343889445066452, 0.058038339018821716, -0.05785389617085457, -0.2167629599571228, -0.07589401304721832, 0.02075909823179245, 0.059056900441646576, 0.05372083559632301, 0.03455092012882233, -0.07650177925825119, -0.2552669048309326, -0.009355274960398674, 0.018600061535835266, -0.001048451871611178, 0.08371531963348389, 0.03292423114180565, -0.015886997804045677, -0.16149310767650604, -0.01642935909330845, -0.007540036924183369, 0.08284169435501099, 0.030053088441491127, 0.024515097960829735, -0.0296329315751791, -0.14294959604740143, -0.07522369921207428, 0.1242007240653038, 0.06018947437405586, -0.1313277781009674, -0.08184272050857544, -0.12296926230192184, -0.09391693025827408, 0.1734195202589035, 0.016808029264211655, 0.07329732179641724, -0.15654915571212769, 0.023821592330932617, -0.04408910498023033, -0.3072095215320587, 0.08077272027730942, -0.0385063961148262, -0.027296094223856926, -0.06603549420833588, -0.2679346799850464, -0.010805419646203518, -0.0596785731613636, 0.3080688714981079, 0.2059619426727295, -0.08566244691610336, 0.06050267070531845, 0.05092933401465416, -0.043296929448843, 0.028314847499132156, 0.15391772985458374, -0.007262003142386675, -0.08206308633089066, 0.08746787160634995, 0.09541361778974533, 0.05169094726443291, -0.1402585655450821, 0.05081245303153992, -0.1086166575551033, -0.19908294081687927, -0.0002421017998130992, 0.0180963184684515, -0.09701230376958847, -0.0739111378788948, 0.20584656298160553, 0.08148806542158127, -0.18275238573551178, -0.05761312320828438, 0.029070725664496422, -0.004079923965036869, -0.006227875594049692, 0.12046190351247787, 0.1411191076040268, -0.06897351890802383, 0.00017581589054316282, 0.03307769075036049, -0.04724455252289772, -0.08437321335077286, 0.06884929537773132, -0.03772902861237526, -0.05033827945590019, 0.035207349807024, 0.17582911252975464, 0.15045469999313354, -0.030390610918402672, 0.04281354695558548, 0.09530755877494812, 0.048314690589904785, -0.12952381372451782, -0.0742659866809845, 0.15675517916679382, -0.164371058344841, 0.08736874163150787, 0.09603433310985565, -0.119119793176651, -0.15665893256664276, -0.14630506932735443, 0.04763049632310867, -0.12271525710821152, 0.01635788381099701, -0.02859658934175968, -0.09810083359479904, 0.09803000837564468, 0.029067397117614746, 0.012660033069550991, -0.19698020815849304, 0.17989008128643036, 0.09417212009429932, 0.05099223554134369, 0.09027538448572159, -0.03995262086391449, -0.030855895951390266, -0.022656871005892754, 0.049847494810819626, -0.11860550940036774, 0.012148714624345303, 0.1523560881614685, -0.06513503938913345, 0.0384063646197319, -0.09537718445062637, 0.2481948733329773, -0.0919179618358612, 0.07003847509622574, 0.15681235492229462, 0.08778475970029831, -0.07023423910140991, -0.012077693827450275, -0.0158485509455204, 0.031504664570093155, 0.10110374540090561, -0.04540396109223366, -0.17450883984565735, -0.07251740992069244, -0.054350849241018295, -0.02113071084022522, -0.05076134204864502, 0.13003775477409363, 0.005014629103243351, -0.14232046902179718, 0.012892498634755611, -0.11155127733945847, -0.06382252275943756, -0.063960500061512, -0.09102371335029602, 0.012528648599982262, 0.04648406803607941, 0.0842156633734703, -0.3944198787212372, -0.015643956139683723, 0.12683328986167908, 0.2365272492170334, -0.1656891256570816, -0.17992590367794037], [-0.02060169167816639, -0.10203956067562103, 0.2532498240470886, 0.02832574024796486, -0.15706701576709747, 0.035778045654296875, -0.22103016078472137, 0.04038015380501747, -0.11505527794361115, -0.04405580833554268, -0.004895247519016266, -0.08362112939357758, -0.08622688055038452, 0.09054074436426163, -0.024632029235363007, -0.08123444765806198, 0.10480544716119766, -0.017490606755018234, 0.12010200321674347, -0.03009544126689434, 0.23715905845165253, 0.10733393579721451, -0.075747549533844, 0.19841121137142181, -0.03964352235198021, -0.10493075102567673, 0.02753252536058426, 0.039377059787511826, -0.11853804439306259, 0.0010688297916203737, 0.17414455115795135, 0.10312582552433014, -0.03102104924619198, -0.027806464582681656, 0.16031332314014435, 0.23233304917812347, 0.004568462260067463, -0.1916562020778656, 0.003385254880413413, 0.046619027853012085, -0.19715222716331482, 0.15199682116508484, 2.7221038180869073e-05, -0.10517226159572601, 0.024275265634059906, -0.006958015263080597, 0.13602253794670105, 0.04186372458934784, 0.05734310671687126, -0.0440976656973362, -0.17984925210475922, 0.21776503324508667, 0.06865082681179047, 0.1307847797870636, -0.0015691741136834025, -0.017769830301404, 0.10177312046289444, 0.06911701709032059, -0.0363624133169651, 0.06610549241304398, -0.08230478316545486, -0.0879833847284317, -0.032863881438970566, -0.12038830667734146, -0.17292699217796326, 0.1973942518234253, -0.08276558667421341, -0.05763557180762291, 0.038652658462524414, -0.026205999776721, 0.09268142282962799, 0.07800120115280151, 0.2287297248840332, 0.07209935784339905, -0.1040596216917038, -0.04180357605218887, -0.041192226111888885, -0.0833190530538559, 0.06278492510318756, 0.10742553323507309, 0.0736277848482132, -0.09981852024793625, -0.11467832326889038, -0.08371684700250626, 0.14434756338596344, 0.09988562762737274, 0.044643331319093704, -0.025585560128092766, 0.01856193132698536, -0.13015300035476685, -0.02583068609237671, 0.07683128863573074, 0.05329594761133194, 0.09226835519075394, -0.041745901107788086, 0.06863827258348465, 0.010467302054166794, -0.05408803001046181, 0.03598301485180855, 0.1344505101442337, 0.23548604547977448, 0.005690598860383034, -0.041033536195755005, -0.0728231817483902, -0.08493302017450333, 0.03440910205245018, -0.12230675667524338, -0.023313002660870552, 0.0370979942381382, -0.19383391737937927, -0.16706353425979614, -0.028990982100367546, 0.06951088458299637, 0.22378721833229065, -0.08098319172859192, 0.09490296244621277, -0.054603055119514465, -0.1746440976858139, -0.09040108323097229, 0.11415085196495056, 0.18791019916534424, -0.027272868901491165, -0.09986358135938644, -0.0262269489467144, -0.16306185722351074, -0.007699959445744753, 0.05608890950679779, 0.05181277543306351, 0.025577081367373466, 0.1115085706114769, -0.0019362226594239473, -0.11777550727128983, 0.018801910802721977, 0.05782175809144974, 0.04906172305345535, -0.22547848522663116, -0.05743371322751045, -0.03946755826473236, -0.010003416799008846, -0.05942939594388008, 0.1888751983642578, 0.1993708312511444, -0.18107149004936218, -0.08733256161212921, -0.004967987071722746, -0.0981883779168129, -0.13694193959236145, 0.014094997197389603, 0.07546306401491165, -0.15560056269168854, -0.07331470400094986, 0.04195123165845871, -0.12208841741085052, -0.04172835499048233, 0.05847785994410515, 0.18783952295780182, -0.09210600703954697, -0.06442153453826904, 0.006189956795424223, -0.09784973412752151, 0.12330538034439087, 0.03804769366979599, 0.0562320202589035, 0.04706307128071785, 0.17352250218391418, -0.05021866038441658, -0.08911995589733124, 0.06450678408145905, -0.02070121467113495, 0.08493959158658981, -0.11639192700386047, 0.07098957151174545, 0.07819937914609909, -0.02727610245347023, -0.032274890691041946, 0.10938455909490585, 0.19752053916454315, -0.06682435423135757, -0.05391520634293556, 0.08449260145425797, 0.12456024438142776, 0.04405517876148224, 0.05770401656627655, -0.03480219095945358, -0.10018979012966156, 0.0605519637465477, -0.05815235525369644, 0.02765660360455513, -0.01460540946573019, 0.13787230849266052, 0.10418534278869629, 0.02942797541618347, -0.012231928296387196, -0.1242259293794632, -0.11486462503671646, -0.040511731058359146, -0.06957772374153137, 0.0986190065741539, -0.03489922359585762, 0.007894153706729412, 0.04315686970949173, 0.12781120836734772, 0.02687089890241623, 0.2098333090543747, 0.12279647588729858, -0.06482622772455215, 0.04373391717672348, 0.043777234852313995, 0.02873389609158039, 0.013864652253687382, 0.003184582805261016, 0.0015722287353128195, -0.00947263278067112, 0.12325693666934967, 0.09078696370124817, 0.0789279192686081, 0.017877627164125443, 0.09242472052574158, 0.1970721036195755, -0.014635453931987286, -0.01401201169937849, -0.002950703725218773, 0.04735089838504791, -0.12801074981689453, 0.2737305760383606, 0.09520212560892105, -0.06878434121608734, -0.037408821284770966, -0.23126868903636932, 0.2370975911617279, -0.11367364972829819, 0.15954945981502533, 0.08672179281711578, 0.12807363271713257, -0.07265857607126236, 0.024676784873008728, 0.3082636594772339, -0.10734932869672775, 0.04934941977262497, -0.004469607956707478, -0.08009815961122513, 0.10150512307882309, -0.014336404390633106, 0.24368682503700256, -0.06410057097673416, 0.07071880996227264, 0.12298855930566788, 0.12704035639762878, -0.11968178302049637, -0.06632813811302185, 0.3302820324897766, -0.004075027536600828, 0.0486651286482811, 0.07535792887210846, -0.009069500491023064, 0.049319520592689514, 0.04521442949771881, 0.4378850758075714, -0.21489249169826508, 0.050582773983478546, 0.07528165727853775, 0.013777032494544983, 0.08680146932601929, 0.05396869033575058, 0.36861154437065125, -0.23777839541435242, 0.04124464467167854, -0.07635119557380676, 0.16134363412857056, 0.004757919814437628, 0.06712145358324051, 0.2925225496292114, 0.012434881180524826, 0.09269864857196808, 0.03549349680542946, 0.11628030240535736, -0.1110849529504776, 0.09402219206094742, 0.19383950531482697, -0.16898475587368011, 0.06922716647386551, 0.04638899490237236, 0.10035639256238937, 0.0071242437697947025, 0.10862470418214798, 0.1532205492258072, -0.1780020296573639, 0.047117095440626144, 0.06447191536426544, 0.10329082608222961, 0.019863538444042206, 0.0529923215508461, 0.10224281251430511, -0.07925982028245926, 0.03851839154958725, -0.03469507023692131, 0.16285103559494019, -0.08426429331302643, 0.02583414688706398, 0.09780751168727875, -0.12780897319316864, 0.04646044969558716, -0.06620585918426514, 0.022450612857937813, -0.00637812539935112, -0.05397545173764229, 0.05928614363074303, -0.009123756550252438, -0.011929339729249477, -0.1222933903336525, 0.11850324273109436, 0.027896730229258537, 0.08286156505346298, 0.007539639249444008, -0.08960064500570297, 0.07000388950109482, -0.24998939037322998, 0.22776983678340912, -0.005614932160824537, 0.09327628463506699, -0.047588322311639786, -0.04071221873164177, -0.039708204567432404, 0.10793504118919373, 0.1941632330417633, -0.07234316319227219, -0.008552283979952335, -0.039792027324438095, 0.012581863440573215, 0.0027399747632443905, -0.11694047600030899, 0.10133837908506393, -0.11132608354091644, -0.037875790148973465, -0.040757786482572556, -0.17010954022407532, -0.030233008787035942, 0.02525513246655464, -0.10978422313928604, -0.05151301249861717, -0.055875714868307114], [-0.09165871888399124, 0.16324393451213837, 0.11985700577497482, 0.08534801006317139, -0.0273588877171278, 0.12435654550790787, 0.011885695159435272, -0.0035315288696438074, -0.07112254202365875, 0.11729705333709717, 0.05821864679455757, -0.07046234607696533, -0.02551456168293953, 0.04873869940638542, -0.058924946933984756, -0.2517302632331848, 0.011955502443015575, 0.12903854250907898, 0.01565781980752945, -0.08947806805372238, 0.1720675528049469, -0.1171058937907219, -0.18696320056915283, 0.08128218352794647, 0.1367024928331375, 0.09919830411672592, -0.02995399385690689, 0.011272779665887356, 0.0043624406680464745, -0.05274926498532295, 0.162168487906456, 0.06165297329425812, 0.006805913522839546, 0.143107071518898, 0.024791784584522247, -0.1740400344133377, -0.06673206388950348, 0.097237728536129, -0.041632045060396194, 0.14179112017154694, 0.14588454365730286, -0.056522972881793976, -0.09632913023233414, -0.258924663066864, 0.24890804290771484, -0.06548328697681427, -0.07692669332027435, 0.196033775806427, 0.02514011040329933, -0.05852845311164856, -0.05169127136468887, 0.21971404552459717, -0.02346479706466198, 0.10469569265842438, 0.0019016093574464321, 0.10014068335294724, -0.3197060525417328, -0.10484404861927032, 0.06274472177028656, -0.024882201105356216, 0.12033119052648544, 0.11404360085725784, -0.04570334777235985, -0.1697877049446106, -0.08538294583559036, 0.26180675625801086, -0.0946199893951416, 0.09128682315349579, -0.046184588223695755, 0.057797979563474655, -0.1975499838590622, 0.10024996846914291, 0.25001680850982666, -0.027156198397278786, -0.08755051344633102, 0.10074598342180252, 0.021962326020002365, -0.15417857468128204, -0.21465103328227997, 0.16347333788871765, -0.000755309360101819, 0.11114086955785751, 0.10181086510419846, -0.10077208280563354, -0.10721666365861893, -0.057720694690942764, 0.13830043375492096, 0.05027681216597557, 0.15817922353744507, 0.12676100432872772, 0.02443612553179264, -0.13658171892166138, -0.04293455183506012, 0.06775502115488052, 0.11709010601043701, 0.10286086797714233, 0.04514676705002785, 0.0464860163629055, -0.07700785249471664, 0.003984984941780567, 0.15115463733673096, -0.007647364865988493, -0.04247375205159187, 0.09832508862018585, -0.046690430492162704, 0.0036903265863656998, 0.027755599468946457, -0.03198907896876335, -0.027183206751942635, 0.09642235934734344, -0.026056600734591484, 0.0050521367229521275, 0.2009672075510025, -0.026425864547491074, -0.1134517639875412, 0.04527566581964493, 0.165268212556839, 0.009125633165240288, -0.028847908601164818, 0.20528842508792877, 0.09201343357563019, -0.1257181465625763, -0.06655128300189972, 0.2193177491426468, -0.006095151416957378, 0.059527695178985596, 0.02406875416636467, -0.07715301215648651, -0.03749965503811836, -0.08307338505983353, 0.16406475007534027, 0.030744405463337898, 0.10175686329603195, 0.12189437448978424, 0.016920845955610275, -0.11139440536499023, -0.09747911244630814, 0.11846248060464859, -0.03649185970425606, 0.08836561441421509, 0.08859166502952576, 0.1314767450094223, -0.023594139143824577, -0.0012433797819539905, 0.013995879329741001, -0.10673840343952179, 0.12299634516239166, 0.06490430980920792, -0.04634085297584534, -0.06609810888767242, -0.050605881959199905, 0.045604072511196136, 0.11145500838756561, 0.0553378202021122, 0.04234156012535095, 0.16512034833431244, 0.19352422654628754, -0.048669394105672836, -0.05809980258345604, -0.06412601470947266, 0.06560948491096497, 0.09612543135881424, 0.14167653024196625, -0.1443542242050171, 0.08628635853528976, 0.03871862590312958, 0.14670832455158234, 0.10514043271541595, 0.0467541478574276, 0.08331968635320663, 0.06366202980279922, 0.053669918328523636, 0.05975143611431122, -0.0664157047867775, 0.11731065809726715, 0.03661114349961281, -0.04409295693039894, -0.06434305012226105, -0.00561728049069643, 0.30047839879989624, 0.1063167005777359, 0.04134872555732727, 0.020557817071676254, -0.04628702253103256, -0.0718565434217453, -0.09841921180486679, 0.11532643437385559, 0.14865326881408691, 0.014024976640939713, -0.08299271017313004, 0.09798404574394226, -0.037685293704271317, -0.017697378993034363, 0.08063764125108719, 0.07428354024887085, 0.015048514120280743, -0.26472675800323486, 0.17030639946460724, 0.1378546804189682, -0.0038977970834821463, 0.17481166124343872, 0.1260962188243866, -0.1506582349538803, -0.1150490865111351, -0.06701555848121643, 0.23076172173023224, -0.05656886100769043, 0.07727406919002533, 0.287055104970932, -0.05392816290259361, -0.0030399819370359182, 0.06605291366577148, 0.059262119233608246, -0.07960522174835205, -0.020143302157521248, 0.0859215036034584, 0.02581482008099556, 0.09880031645298004, 0.09685865789651871, 0.13010716438293457, -0.09752179682254791, 0.052391014993190765, 0.21482597291469574, -0.05869131162762642, -0.0010363699402660131, -0.09915288537740707, 0.2037789225578308, -0.06686633080244064, 0.06250142306089401, 0.07267792522907257, 0.08525793999433517, -0.1930815428495407, -0.040045857429504395, 0.16182692348957062, 0.13499614596366882, 0.02787674590945244, 0.010814860463142395, 0.07821615785360336, -0.20724520087242126, 0.0460633859038353, 0.1296061873435974, -0.0854724571108818, 0.0015085483901202679, 0.20602375268936157, -0.0212289709597826, -0.1629256308078766, 0.027110297232866287, 0.22954988479614258, -0.024996617808938026, 0.05275944620370865, -0.08267779648303986, -0.03300032764673233, -0.28895294666290283, 0.021490374580025673, 0.19223877787590027, -0.03832685947418213, 0.0497438870370388, 0.04678026959300041, 0.008573018945753574, -0.23218020796775818, -0.06645219027996063, 0.2948298454284668, -0.04505737125873566, 0.01635138690471649, 0.04627174511551857, -0.03776675835251808, -0.11260957270860672, -0.0019261616980656981, 0.130604088306427, -0.022709593176841736, 0.09924725443124771, 0.08406723290681839, -0.008831494487822056, -0.08643223345279694, -0.10208196192979813, 0.16920919716358185, -0.0077186571434140205, 0.14550131559371948, 0.14153961837291718, 0.029680753126740456, -0.26026177406311035, -0.10425371676683426, 0.311221182346344, -0.0714980736374855, 0.14550510048866272, -0.00612530717626214, -0.011007309891283512, -0.1852933019399643, -0.13312941789627075, 0.160732239484787, -0.030658166855573654, 0.12434922903776169, 0.1255658119916916, -0.021573806181550026, -0.2257295846939087, -0.1451197862625122, 0.20781654119491577, 0.026323558762669563, 0.12561501562595367, 0.026083434000611305, 0.0282302126288414, 0.011459914967417717, -0.005190615076571703, 0.08738107979297638, 0.10341887921094894, 0.10201600939035416, -0.08754105865955353, 0.013095925562083721, -0.1917451024055481, 0.03332027792930603, 0.00841577909886837, -0.20318268239498138, 0.19033405184745789, 0.026705950498580933, 0.1686178594827652, -0.02938995324075222, -0.027220651507377625, 0.195377379655838, 0.0009014924289658666, -0.0496504008769989, -0.05602201074361801, 0.06763272732496262, 0.007154854480177164, -0.11131235212087631, 0.09463385492563248, 0.004071076866239309, 0.05816912651062012, 0.05723784863948822, 0.15643198788166046, -0.07568982243537903, -0.03378584608435631, 0.15310029685497284, -0.14064572751522064, 0.08996973186731339, 0.08252608776092529, 0.047567564994096756, -0.05940058082342148, -0.05843494087457657, 0.22523270547389984, 0.021771397441625595, -0.3220060169696808], [0.08650416135787964, 0.10129369050264359, -0.23815900087356567, -0.024395296350121498, 0.027310261502861977, 0.05131245404481888, -0.09130899608135223, -0.057271696627140045, 0.10297191143035889, -0.1344391256570816, 0.04053729772567749, 0.07441163063049316, 0.17285071313381195, -0.18947377800941467, 0.046656284481287, -0.013935921713709831, -0.28009822964668274, 0.025366520509123802, 0.024262933060526848, -0.014323350042104721, -0.059068623930215836, 0.09691367298364639, -0.021284030750393867, -0.18757866322994232, 0.09102515131235123, -0.06541057676076889, 0.2851830720901489, -0.10268867015838623, 0.19843243062496185, 0.17980851233005524, -0.056735847145318985, -0.10748008638620377, 0.10628391802310944, 0.18206886947155, -0.032871313393116, 0.008317219093441963, 0.060540057718753815, -0.13749344646930695, -0.10194182395935059, 0.06826364248991013, 0.08927208185195923, 0.026347564533352852, 0.09731950610876083, 0.03336154669523239, -0.11076465994119644, 0.020449522882699966, -0.14184123277664185, -0.057236310094594955, 0.10887216031551361, 0.07875160872936249, 0.16717945039272308, -0.1754458099603653, -0.010029541328549385, -0.0036631908733397722, 0.009386423975229263, 0.10499086230993271, 0.017122168093919754, 0.04156961664557457, -0.1382627785205841, 0.014937978237867355, 0.03513099625706673, -0.038991037756204605, 0.09962942451238632, 0.10969296097755432, 0.026187874376773834, -0.3152323365211487, -0.022905487567186356, 0.17387917637825012, -0.14685621857643127, 0.08728306740522385, 0.11500052362680435, 0.024379419162869453, -0.1691121906042099, -0.006797836162149906, 0.20029284060001373, -0.06267935782670975, 0.0725940465927124, 0.10432098805904388, 0.1076679453253746, -0.32197105884552, 0.1334201693534851, -0.013490768149495125, -0.13192316889762878, 0.14957548677921295, -0.0017790542915463448, 0.031179597601294518, -0.0986769050359726, -0.04082689806818962, -0.0645027831196785, 0.08111381530761719, 0.12793205678462982, 0.011823667213320732, -0.07854457199573517, -0.1388995498418808, -0.04532519355416298, 0.04511437565088272, -0.015622731298208237, 0.29476043581962585, 0.05385984480381012, -0.08780839294195175, -0.056025177240371704, 0.06348741054534912, 0.052022919058799744, -0.07939299196004868, 0.11680186539888382, 0.020826205611228943, -0.01832311786711216, 0.021553924307227135, -0.018119968473911285, -0.08733278512954712, -0.01217632181942463, 0.09936428815126419, 0.11405918747186661, -0.07451559603214264, 0.01175844855606556, 0.12587721645832062, 0.013986830599606037, -0.09696906059980392, 0.0900484025478363, 0.02961328811943531, 0.04995818808674812, 0.0017427736893296242, 0.172159805893898, 0.043024249374866486, -0.0411459244787693, 0.060837697237730026, -0.01912819966673851, -0.00366599322296679, -0.09907963126897812, -0.05862515792250633, 0.09826027601957321, 0.12119888514280319, -0.06042712926864624, 0.020253637805581093, -0.09486880898475647, -0.005494333803653717, -0.024404767900705338, -0.003939209505915642, -0.022337475791573524, -0.02861882746219635, -0.013424688950181007, 0.005107274744659662, 0.04775907099246979, -0.008561881259083748, -0.014305668883025646, 0.05991609767079353, -0.010834019631147385, -0.1338733583688736, -0.012553989887237549, 0.007365688215941191, -0.010271027684211731, -0.18365447223186493, 0.13593313097953796, 0.009619244374334812, -0.09413197636604309, -0.12407737970352173, -0.08091850578784943, 0.02800983004271984, -0.05735213682055473, -0.11308195441961288, -0.06222742050886154, 0.1177077665925026, 0.0024613377172499895, 0.09597642719745636, 0.056514956057071686, 0.13315501809120178, -0.04250499606132507, -0.020610764622688293, -0.051933448761701584, -0.09463167935609818, -0.041111722588539124, -0.07480519264936447, -0.07234858721494675, 0.03434985131025314, 0.010438322089612484, -0.08670347183942795, -0.01847974769771099, 0.059172116219997406, 0.06839091330766678, 0.1205986887216568, 0.10825790464878082, -0.02866053581237793, 0.053665969520807266, -0.08947551995515823, -0.2173536717891693, 0.05247792601585388, 0.1484602838754654, 0.05125131085515022, -0.11114048957824707, -0.01742592453956604, 0.04659780114889145, -0.03545188531279564, 0.055855050683021545, 0.08321219682693481, -0.03847694769501686, 0.06058968976140022, -0.11033809185028076, -0.11853572726249695, -0.06862325221300125, -0.024835938587784767, 0.06045487895607948, -0.028214849531650543, 0.11028814315795898, -0.01563146524131298, -0.0965907871723175, -0.0469810925424099, 0.041040923446416855, 0.023235319182276726, -0.019890472292900085, 0.056645460426807404, -0.11254098266363144, -0.11707708984613419, -0.08527928590774536, -0.017686033621430397, 0.03811190277338028, 0.0889233648777008, 0.19362713396549225, -0.019296865910291672, -0.0827823281288147, 0.06419298052787781, -0.006296026054769754, -0.08022642880678177, -0.004232826642692089, 0.12694428861141205, 0.004470482002943754, -0.19508777558803558, 0.0873308852314949, 0.1108042299747467, -0.08676701784133911, 0.06805170327425003, 0.040836725383996964, -0.08122088015079498, -0.09685354679822922, -0.046987857669591904, 0.05346149206161499, 0.05278145894408226, 0.03609928861260414, -0.029209144413471222, 0.01784629374742508, -0.062455352395772934, -0.021824242547154427, 0.05169151350855827, 0.1277359277009964, 0.0017892492469400167, 0.11080311983823776, -0.07698741555213928, -0.03251877427101135, -0.060794271528720856, -0.007948535494506359, -0.019003216177225113, -0.004818727262318134, 0.09263487160205841, -0.034655049443244934, -0.1452854424715042, -0.029079463332891464, -0.11690085381269455, -0.0515313483774662, -0.01999504119157791, 0.07957775145769119, 0.0064796945080161095, -0.002587738446891308, -0.06446191668510437, 0.060942646116018295, -0.009480741806328297, -0.20411254465579987, 0.009950906038284302, -0.14027704298496246, -0.10048112273216248, -0.10120273381471634, -0.1355653703212738, 0.02722468413412571, -0.13695423305034637, -0.025123821571469307, -0.06853127479553223, -0.005279234144836664, -0.1585685908794403, 0.029350511729717255, -0.1456523835659027, -0.15851753950119019, 0.05165726691484451, 0.03688722848892212, 0.10361570119857788, -0.13487939536571503, -0.10040463507175446, 0.052828099578619, 0.08282940089702606, 0.08122703433036804, 0.11689602583646774, 0.1489977389574051, -0.10968213528394699, 0.04284151643514633, -0.10833968222141266, -0.19560606777668, 0.0794951543211937, 0.12646715342998505, 0.040544699877500534, -0.21436402201652527, 0.021392742171883583, -0.062686987221241, -0.056136999279260635, -0.017666596919298172, -0.06448618322610855, 0.15018786489963531, -0.1735384166240692, -0.10095161199569702, -0.09617865830659866, 0.051611341536045074, 0.052887141704559326, 0.04679630696773529, -0.10641016066074371, -0.09061873704195023, -0.032958973199129105, -0.25197792053222656, 0.04312537610530853, 0.05358126387000084, -0.010737841948866844, 0.0281588863581419, 0.043587230145931244, -0.040520623326301575, -0.03466104716062546, -0.0852946937084198, 0.2466832399368286, 0.04059738665819168, -0.031577374786138535, -0.0023029190488159657, -0.04772628843784332, -0.03348113223910332, 0.010136771015822887, 0.06756444275379181, 0.1990169882774353, 0.0021165204234421253, 0.005446972791105509, 0.12377573549747467, 0.05331782251596451, -0.12413693964481354, 0.005042367149144411, 0.11707994341850281, 0.08997689932584763, -0.33531054854393005, 0.07131735980510712, 0.17117004096508026], [-0.04160623997449875, 0.06361208111047745, 0.12091324478387833, -0.10715664178133011, -0.00570343155413866, 0.04846625030040741, -0.08394597470760345, -0.030710598453879356, 0.12418923527002335, -0.17710517346858978, 0.13364556431770325, 0.056042712181806564, -0.020940184593200684, -0.1181066557765007, 0.04722046107053757, 0.14889995753765106, -0.05538390576839447, -0.10971095412969589, 0.023539120331406593, 0.024489525705575943, 0.06893391907215118, -0.17341360449790955, 0.09648965299129486, -0.12312450259923935, -0.07870960980653763, -0.09652620553970337, -0.004330565687268972, 0.018155168741941452, -0.004980886355042458, 0.05536260828375816, 0.11877522617578506, -0.08808541297912598, 0.2170124500989914, -0.19366766512393951, -0.03367996960878372, 0.1302526742219925, -0.10712633281946182, 0.011636138893663883, -0.0010353303514420986, 0.1250694990158081, -0.0024116162676364183, -0.10889218002557755, 0.08998490124940872, -0.10703575611114502, 0.2022201120853424, -0.1367052048444748, -0.253287672996521, 0.09990321099758148, -0.15125754475593567, 0.06920140236616135, -0.10550224781036377, -0.02034422755241394, -0.057338226586580276, -0.23499995470046997, 0.02665078639984131, 0.09458864480257034, 0.12017130106687546, -0.07719674706459045, -0.12832997739315033, -0.009312999434769154, -0.10465680807828903, -0.09028056263923645, -0.021957939490675926, 0.11751396954059601, 0.04890955239534378, 0.013003721833229065, -0.05812497064471245, -0.05171845853328705, -0.005548455286771059, -0.1045009046792984, 0.01193605363368988, -0.09630128741264343, 0.04995829239487648, -0.09372811764478683, 0.02373046614229679, 0.1112215518951416, -0.08162073791027069, -0.09619522839784622, -0.10716766864061356, 0.1790829300880432, -0.042849406599998474, -0.06540674716234207, 0.08331573009490967, -0.13000519573688507, 0.088020920753479, -0.0746954083442688, 0.20426689088344574, -0.0710792988538742, 0.012512000277638435, -0.0628223791718483, -0.15532265603542328, -0.04608291760087013, -0.106756791472435, 0.032749515026807785, -0.05266072601079941, -0.07993355393409729, -0.024103237316012383, -0.014973612502217293, -0.17430315911769867, -0.10865842550992966, 0.13108029961585999, 0.1815701425075531, -0.06474632024765015, -0.04642103239893913, -0.06728111207485199, -0.0010101408697664738, -0.005459146108478308, 0.04432627558708191, -0.04809761419892311, -0.13962522149085999, -0.05978337302803993, -0.02135944925248623, -0.016443125903606415, -0.055584125220775604, 0.0024161911569535732, 0.04278464987874031, -0.007885728031396866, -0.053814638406038284, -0.11035098135471344, 0.018361959606409073, -0.05281874164938927, 0.02651444636285305, -0.08063725382089615, -0.03758867084980011, 0.0703178122639656, -0.16449740529060364, -0.160177543759346, 0.08473580330610275, -0.021229689940810204, -0.08149309456348419, 0.073635034263134, -0.031170953065156937, 0.04343455284833908, -0.1612698882818222, -0.09014953672885895, 0.07498100399971008, 0.023698844015598297, -0.08740337938070297, -0.017536943778395653, -0.051040343940258026, -0.16281947493553162, -0.11862565577030182, 0.05525192990899086, 0.014340369030833244, 0.043561890721321106, 0.0418168343603611, 0.026719586923718452, -0.09449909627437592, -0.20016898214817047, 0.1674881875514984, -0.01957758329808712, 0.0017791829304769635, -0.08296313136816025, 0.012515533715486526, -0.11325103044509888, -0.015901895239949226, 0.12302716076374054, 0.00605013919994235, 0.08039745688438416, 0.07961556315422058, 0.011474794708192348, -0.15618836879730225, -0.26215946674346924, 0.13741804659366608, 0.03252868354320526, 0.1298770159482956, -0.14179804921150208, -0.02618608996272087, -0.14606571197509766, -0.15048952400684357, 0.12526781857013702, 0.0626070573925972, -0.22401700913906097, -0.1202305257320404, -0.03990668058395386, -0.059271495789289474, -0.09026376903057098, 0.24783967435359955, 0.026432564482092857, -0.030524685978889465, 0.03363552689552307, -0.047905925661325455, 0.02114829607307911, 0.022478368133306503, 0.04470393806695938, -0.04294874519109726, -0.1752922087907791, -0.015443818643689156, 0.025349000468850136, 0.06855127215385437, 0.01948264241218567, 0.23071451485157013, -0.0542629137635231, -0.06257352977991104, -0.006812903564423323, -0.05146172270178795, -0.08516113460063934, 0.03488146513700485, 0.12425599247217178, -0.13394978642463684, 0.00974094495177269, 0.021641168743371964, -0.06722624599933624, -0.0431530736386776, -0.10881674289703369, 0.17710275948047638, -0.1492381989955902, -0.019672174006700516, -0.042480818927288055, -0.19535709917545319, -0.016725588589906693, -0.14798493683338165, 0.0986340120434761, 0.03306934982538223, 0.03679525479674339, -0.05094822496175766, -0.14406532049179077, 0.014599891379475594, 0.09157736599445343, 0.05513013154268265, 0.07364657521247864, 0.00381826632656157, -0.0558757521212101, -0.15691612660884857, 0.013141142204403877, 0.20116598904132843, 0.12895467877388, -0.000556168844923377, 0.04962868615984917, -0.12727321684360504, -0.1403140425682068, 0.10942486673593521, 0.07524367421865463, -0.04741019755601883, 0.010140696540474892, 0.006818877067416906, -0.1551670879125595, -0.09825620800256729, -0.058325622230768204, -0.10912015289068222, 0.0830613449215889, -0.11421236395835876, 0.249234139919281, -0.09890830516815186, -0.09053237736225128, -0.0908074676990509, 0.1276787370443344, 0.03402550145983696, -0.004584458656609058, -0.09281191229820251, -0.11369265615940094, 0.07969534397125244, 0.10693851858377457, -0.01953822560608387, -0.07415685057640076, -0.05800517275929451, -0.17741651833057404, -0.05718917027115822, 0.014756793156266212, 0.010487639345228672, 0.047816138714551926, -0.0005480442778207362, -0.004370563663542271, 0.19196008145809174, 0.046984270215034485, -0.03923943638801575, 0.08791609853506088, -0.04238744080066681, 0.08771060407161713, 0.04809611290693283, -0.03537065535783768, -0.15357382595539093, 0.16868309676647186, 0.047002147883176804, -0.022583603858947754, 0.1638961136341095, -0.15544384717941284, 0.033847685903310776, -0.22057248651981354, 0.17365242540836334, -0.021145235747098923, -0.06434262543916702, 0.20692826807498932, -0.08635809272527695, -0.08303900808095932, -0.15652720630168915, 0.06048025190830231, -0.06446725130081177, 0.008867946453392506, 0.09593077003955841, 0.060409631580114365, -0.019100679084658623, -0.20820586383342743, -0.005657662637531757, 0.132662832736969, -0.00793224386870861, -0.1007913276553154, -0.04671098291873932, 0.01978699490427971, -0.03000807575881481, 0.0608079694211483, -0.09402801841497421, -0.03394853323698044, 0.20725546777248383, -0.050524234771728516, -0.20090177655220032, 0.024356883019208908, -0.11739031225442886, -0.06138436123728752, 0.11471901834011078, 0.044410694390535355, -0.026664938777685165, 0.004524256102740765, 0.15368907153606415, -0.11101429909467697, -0.058198779821395874, 0.05575421825051308, -0.09966394305229187, -0.013057021424174309, 0.06467904150485992, 0.18357080221176147, -0.04559226706624031, 0.07279466837644577, -0.014902583323419094, 0.048797380179166794, 0.11812499910593033, 0.03157595917582512, -0.036782726645469666, 0.0950002372264862, 0.0032991445623338223, 0.0641254261136055, 0.09609698504209518, 0.044543348252773285, -0.06087927892804146, 0.08631669729948044, -0.057622943073511124, -0.2248169630765915, -0.0855427011847496, 0.6162378191947937, 0.024887466803193092, -0.0026337821036577225], [0.09869854152202606, -0.1752837896347046, -0.061537113040685654, 0.0371127687394619, -0.001512475311756134, 0.08337843418121338, 0.15206171572208405, -0.035199474543333054, -0.17796221375465393, -0.09351909160614014, 0.09556414186954498, -0.0068682096898555756, -0.030240777879953384, 0.09397877752780914, -0.05993713438510895, 0.12972259521484375, -0.23457375168800354, 0.06524256616830826, -0.02608410455286503, -0.09125931560993195, -0.12354463338851929, 0.012981082312762737, 0.03846467658877373, -0.022731417790055275, -0.2382652759552002, 0.03687361255288124, -0.0787971019744873, -0.10966531187295914, 0.11347341537475586, -0.03487151861190796, 0.13869117200374603, 0.05725677311420441, 0.05199423059821129, -0.17547889053821564, -0.010641914792358875, 0.029108386486768723, -0.021264707669615746, -0.03842998668551445, -0.015863852575421333, -0.1476045846939087, -0.03106958419084549, 0.0669158548116684, 0.03911168873310089, 0.03913023695349693, 0.19432389736175537, 0.07693330943584442, 0.08177408576011658, -0.050871171057224274, -0.06086862087249756, 0.1294826716184616, 0.0720297321677208, -0.035274747759103775, -0.06347469985485077, -0.008271261118352413, -0.0818573608994484, 0.10021443665027618, 0.09598620235919952, 0.028142200782895088, 0.13091051578521729, -0.05365399643778801, 0.12934541702270508, 0.047033488750457764, -0.11983700096607208, 0.18881769478321075, 0.0296860933303833, 0.16955621540546417, 0.05319337919354439, 0.077368825674057, -0.1356751024723053, -0.08738283067941666, 0.16202662885189056, -0.11003992706537247, 0.09955443441867828, 0.03449101373553276, 0.1076548621058464, -0.021069182083010674, -0.15647132694721222, 0.14605163037776947, -0.05259738862514496, 0.04775359481573105, -0.007119062822312117, 0.015076879411935806, -0.012502525933086872, 0.009747399017214775, 0.12389658391475677, 0.040028274059295654, 0.1093800738453865, 0.005480271298438311, -0.07193701714277267, -0.018389077857136726, -0.11957394331693649, -0.003461971413344145, -0.08043231815099716, -0.01543058454990387, 0.12077543884515762, 0.24769297242164612, 0.08169429749250412, 0.1160377785563469, -0.03476332873106003, -0.020974062383174896, 0.027390357106924057, -0.07768435031175613, 0.04385180026292801, 0.062151774764060974, -0.06442612409591675, -0.09123208373785019, 0.08536133915185928, 0.01854691095650196, -0.041070133447647095, -0.11787085980176926, 0.10593670606613159, -0.15158483386039734, -0.03462656959891319, 0.03279764950275421, -0.024479122832417488, 0.033287592232227325, 0.01097262091934681, 0.24099832773208618, 0.002893289551138878, 0.04686557501554489, -0.11488982290029526, 0.03443848714232445, -0.014879687689244747, 0.1105828732252121, 0.21193261444568634, -0.1286659985780716, -0.08563780039548874, -0.02257910743355751, -0.02748013474047184, 0.06477535516023636, 0.15884250402450562, 0.05310116708278656, 0.007195926271378994, -0.02803918719291687, 0.015236655250191689, 0.29535576701164246, -0.14934255182743073, -0.08409219235181808, 0.14431628584861755, -0.09666607528924942, -0.12936931848526, -0.03553200885653496, -0.01360198576003313, -0.022886129096150398, -0.1494627296924591, -0.09728383272886276, 0.03774071857333183, -0.07697191089391708, -0.07992476969957352, 0.09679460525512695, 0.013195527717471123, -0.23419272899627686, -0.06616751104593277, -0.12827429175376892, -0.14397916197776794, -0.06628727912902832, 0.08125299215316772, -0.018660051748156548, -0.16435542702674866, 0.13033659756183624, -0.11712867766618729, -0.05626469478011131, -0.15515445172786713, 0.10940472781658173, 0.10900439321994781, -0.08220800012350082, 0.21576307713985443, -0.1749906837940216, -0.03834228590130806, -0.09306319802999496, -0.019225681200623512, 0.020606214180588722, -0.07622205466032028, 0.17756712436676025, -0.06745688617229462, -0.1311826854944229, -0.02864391729235649, -0.0671335905790329, 0.024194395169615746, -0.0457482673227787, 0.24333493411540985, -0.1775978058576584, -0.06262387335300446, -0.02325751632452011, 0.05758800730109215, 0.06390977650880814, -0.18748503923416138, 0.11387434601783752, -0.03707247972488403, -0.1400994509458542, -0.20183531939983368, 0.14564497768878937, -0.060143258422613144, -0.0262403916567564, 0.14579680562019348, 0.12904751300811768, 0.1522700935602188, -0.14325480163097382, 0.07681377232074738, -0.025964558124542236, 0.024346139281988144, 0.07620467245578766, 0.042185716331005096, -0.07236369699239731, -0.0720435306429863, 0.1366068422794342, -0.01397579163312912, 0.13875359296798706, 0.11972759664058685, -0.11408772319555283, 0.10290442407131195, -0.05279875174164772, 0.07642026990652084, 0.06166485324501991, 0.0694575160741806, 0.15537358820438385, -0.11465247720479965, 0.002444236073642969, -0.03645521402359009, 0.0162042323499918, -0.03481534495949745, -0.08132581412792206, 0.13903772830963135, 0.06252776086330414, 0.10746079683303833, 0.03794057294726372, -0.04743591323494911, -0.07118218392133713, -0.1592658907175064, -0.05051979050040245, 0.04731496796011925, 0.028100982308387756, -0.10619550943374634, 0.20532649755477905, -0.040078550577163696, -0.026063673198223114, 0.03665127605199814, -0.0195919219404459, 0.10876022279262543, -0.027765469625592232, 0.2328522950410843, -0.10627443343400955, 0.12175566703081131, -0.040660422295331955, -0.11944490671157837, 0.14222167432308197, -0.04080682620406151, 0.1698833554983139, -0.010363866575062275, 0.044131845235824585, -0.02259647101163864, -0.09097573906183243, 0.04346632584929466, -0.13119083642959595, 0.09901157766580582, -0.029989859089255333, -0.024108627811074257, 0.0632367953658104, 0.05055471509695053, 0.2682080864906311, -0.1426369696855545, 0.17115525901317596, -0.0231163389980793, 0.0047309002839028835, 0.0041893646121025085, -0.02114008739590645, 0.08119968324899673, -0.1660662591457367, -0.14032596349716187, -0.025737926363945007, -0.0654807984828949, 0.03624438866972923, 0.10638263076543808, 0.12736442685127258, 0.11859434843063354, 0.0006291726022027433, -0.07588143646717072, -0.0010705034947022796, -0.12421881407499313, 0.03702320531010628, 0.09656894207000732, -0.07047294080257416, -0.06922221183776855, -0.014340626075863838, 0.1769738793373108, -0.04789626970887184, 0.04971286654472351, 0.12200949341058731, 0.1114797368645668, -0.1570504903793335, -0.021291455253958702, 0.029023414477705956, 0.05133604258298874, -0.14347277581691742, -0.03415368124842644, -0.04981571435928345, 0.07566192001104355, -0.06550580263137817, -0.07483011484146118, -0.15880270302295685, -0.0667746514081955, 0.14759548008441925, -0.003818703582510352, 0.1984311193227768, -0.007326758466660976, -0.07829607278108597, -0.0012323654955253005, -0.07815086841583252, -0.06417994946241379, 0.14205949008464813, 0.047925692051649094, 0.1479383111000061, -0.10380882769823074, -0.09070127457380295, -0.02134568803012371, 0.04767599701881409, 0.03547661006450653, -0.07357954233884811, 0.01060508843511343, -0.024060867726802826, -0.04007305949926376, -0.15390662848949432, 0.025450026616454124, 0.0233241505920887, 0.002780613023787737, -0.1164533942937851, -0.07775524258613586, 0.0037303457502275705, -0.038510750979185104, 0.08529551327228546, 0.05007360875606537, -0.09471680223941803, -0.04662632569670677, 0.051846183836460114, 0.0034822053276002407, -0.006399964913725853, -0.08548841625452042, -0.17581027746200562, 0.38776272535324097, 0.1457434743642807, -0.16895237565040588], [-0.05374559015035629, -0.0056582554243505, 0.10325182229280472, 0.04895196855068207, 0.008238461799919605, 0.023542843759059906, 0.03357739746570587, -0.04446160048246384, -0.011011135764420033, 0.07491999119520187, 0.05683976039290428, -0.07322730123996735, -0.16887587308883667, 0.05381610989570618, -0.049139782786369324, 0.1197579950094223, 0.13379813730716705, 0.07171106338500977, 0.0399727001786232, -0.11314717680215836, -0.0175493024289608, 0.07647809386253357, 0.06566009670495987, -0.02008085697889328, -0.09317982941865921, -0.09341300278902054, -0.03116774931550026, -0.012678958475589752, -0.0710044652223587, 0.01885671354830265, 0.016139863058924675, -0.03495442867279053, 0.0897916778922081, -0.022900022566318512, 0.05271580442786217, -0.04213731363415718, -0.11259093880653381, -0.040901534259319305, -0.06284534186124802, -0.09338825196027756, 0.07450256496667862, -0.08519195765256882, 0.06591267883777618, -0.07911001890897751, 0.07318919897079468, -0.02558440901339054, 0.017784586176276207, -0.04826534166932106, -0.1120324581861496, -0.01089314091950655, -0.11823204159736633, -0.05543658509850502, -0.17804482579231262, 0.22240202128887177, -0.013068447820842266, -0.14135663211345673, -0.07813341170549393, -0.12644672393798828, 0.16442568600177765, -0.07210757583379745, -0.10143875330686569, 0.010441857390105724, -0.0741976946592331, -0.11736966669559479, -0.04546316713094711, -0.047456901520490646, -0.04723432660102844, 0.007061818148940802, -0.052492495626211166, 0.035273440182209015, -0.040880896151065826, 0.07087482511997223, -0.04370816797018051, -0.015054295770823956, -0.10719315707683563, -0.17808277904987335, 0.12215515971183777, -0.204727441072464, 0.05709874629974365, 0.0670422613620758, 0.024659285321831703, 0.024700816720724106, -0.19890715181827545, -0.06691896170377731, -0.11341892182826996, 0.05645293369889259, -0.009282982908189297, -0.07851579785346985, -0.1444977968931198, -0.15183229744434357, -0.005603577010333538, -0.14732562005519867, 0.07094860821962357, 0.01780817285180092, 0.008184378035366535, -0.3249165117740631, -0.1914423555135727, -0.05682583153247833, -0.10543988645076752, 0.17294512689113617, 0.052599355578422546, 0.06408476829528809, -0.19642697274684906, -0.13400907814502716, -0.0491306446492672, -0.16016675531864166, 0.11009614914655685, -0.018558897078037262, -0.03454158455133438, -0.1516783982515335, 0.02138422057032585, -0.08009238541126251, -0.04104352369904518, 0.09506064653396606, -0.10091546177864075, -0.03145741671323776, -0.29462260007858276, -0.13436084985733032, 0.07312911003828049, -0.13213273882865906, -0.00881658773869276, -0.1722259223461151, 0.035536229610443115, -0.1665392816066742, -0.1171838715672493, -0.04466621205210686, -0.09526355564594269, -0.016494108363986015, 0.010008130222558975, 0.07565685361623764, -0.08787470310926437, 0.032079268246889114, -0.00012727660941891372, -0.05838001146912575, 0.1209375262260437, 0.16133150458335876, 0.03595449775457382, -0.16128911077976227, 0.15137559175491333, -0.21216723322868347, -0.010686058551073074, -0.15261444449424744, -0.015407813712954521, 0.051985155791044235, -0.16369201242923737, -0.06282693147659302, -0.10288894176483154, -0.029985906556248665, 0.2290559709072113, 0.040223877876996994, 0.09652361273765564, -0.02823716402053833, -0.129872128367424, -0.1909024566411972, -0.059292271733284, 0.02723945677280426, 0.0755351111292839, 0.16204088926315308, -0.11014312505722046, -0.06922943890094757, -0.021833619102835655, -0.08297207206487656, -0.10419483482837677, -0.02018502913415432, -0.0681479424238205, -0.22307167947292328, -0.08627256751060486, -0.21612657606601715, -0.10888595134019852, -0.02866639569401741, -0.05191934108734131, 0.1485854834318161, -0.14140968024730682, -0.051801588386297226, 0.0797167494893074, 0.02694247104227543, -0.0717494785785675, -0.2009269744157791, 0.012157240882515907, -0.20855017006397247, 0.07223250716924667, -0.09548445791006088, 0.004023076966404915, -0.12204956263303757, -0.10109759867191315, -0.07211992144584656, -0.16770285367965698, 0.023686649277806282, 0.06856688112020493, -0.08205505460500717, -0.0666218101978302, -0.10578358918428421, -0.07704531401395798, -0.07524044811725616, 0.0441126674413681, -0.036698777228593826, 0.03975185379385948, -0.06383810192346573, -0.11823931336402893, -0.01573760062456131, -0.1276804506778717, -0.08953811228275299, 0.0664641335606575, -0.08504509180784225, -0.11169550567865372, -0.02137819677591324, 0.020053908228874207, -0.22079184651374817, -0.07169182598590851, -0.004983820952475071, -0.08337362855672836, -0.06616105884313583, -0.06728652119636536, -0.105341337621212, -0.1237202137708664, 0.07214346528053284, -0.07070182263851166, -0.023548152297735214, -0.025441572070121765, -0.132217139005661, -0.1619575470685959, -0.2972995638847351, 0.05203067883849144, 0.24743308126926422, 0.12797647714614868, -0.013213309459388256, -0.022600991651415825, -0.011783336289227009, -0.107877217233181, 0.12934522330760956, 0.3006651997566223, -0.19047732651233673, -0.201557457447052, -0.0952286347746849, -0.011826977133750916, -0.1061222180724144, 0.024576697498559952, 0.02617332898080349, -0.2566399872303009, -0.03394736722111702, -0.02159937471151352, -0.053062111139297485, -0.11109539866447449, 0.09233280271291733, 0.0969926118850708, -0.026674669235944748, -0.11548610031604767, -0.009059959091246128, -0.00865509919822216, -0.11771455407142639, 0.25836673378944397, 0.0033268250990659, -0.18718765676021576, -0.02780151180922985, -0.07629550993442535, 0.030525265261530876, -0.44941678643226624, 0.1929970234632492, -0.09515325725078583, -0.30407974123954773, -0.026185154914855957, -0.046200476586818695, -0.046831924468278885, 0.00974846351891756, 0.24906018376350403, -0.07210635393857956, -0.0954543948173523, -0.06497112661600113, 0.17666538059711456, -0.06647323817014694, -0.061085816472768784, 0.20524387061595917, -0.1026437059044838, -0.0925210565328598, -0.05465097725391388, -0.07109159231185913, -0.011703774333000183, 0.04644071310758591, 0.1099163293838501, -0.1411418318748474, 0.08857639878988266, -0.028268994763493538, 0.09186052531003952, -0.030858388170599937, 0.03848399966955185, 0.029634617269039154, -0.06624311953783035, -0.056790512055158615, 0.0384526252746582, -0.059348635375499725, 0.12285050749778748, -0.046345293521881104, -0.01675449125468731, -0.0516810342669487, 0.04574446380138397, -0.12352243810892105, -0.0495145320892334, 0.03946896269917488, 0.11367826908826828, 0.1076149269938469, -0.14886344969272614, 0.010065780952572823, 0.10777293890714645, 0.05660087987780571, 0.08516053855419159, 0.08772356808185577, 0.1486581414937973, 0.1465289145708084, -0.05063503980636597, 0.01985909789800644, 0.15751025080680847, 0.007969248108565807, 0.11411741375923157, -0.09030023217201233, 0.09634359180927277, 0.004204250872135162, -0.08995246142148972, -0.04256196320056915, 0.15684857964515686, 0.026974428445100784, 0.09570825845003128, -0.07927695661783218, 0.0604294016957283, 0.07675877958536148, 0.022249488160014153, 0.06310340017080307, -0.0021177297458052635, -0.10612925887107849, -0.08793602883815765, 0.0043931701220571995, -0.007798479404300451, 0.03641778975725174, -0.04968995228409767, 0.057985082268714905, -0.08231395483016968, -0.016272196546196938, -0.12428930401802063, 0.08418558537960052, 0.20940527319908142, -0.18355105817317963, -0.15639188885688782], [0.022893313318490982, -0.0871315747499466, -0.11136800795793533, 0.06120535358786583, 0.0016335111577063799, 0.011264042928814888, 0.10633470863103867, -0.05650043115019798, 0.0172136053442955, -0.10767430812120438, 0.043589022010564804, -0.019684934988617897, 0.008116048760712147, 0.019152311608195305, -0.07162044942378998, -0.09455064684152603, -0.0411902591586113, 0.04121038690209389, 0.14556434750556946, 0.11327050626277924, 0.17466986179351807, 0.01742488704621792, 0.1840047538280487, -0.0900907963514328, -0.024085957556962967, -0.046169254928827286, -0.07569434493780136, 0.03986914083361626, 0.14505280554294586, 0.09863927215337753, -0.05564281716942787, 0.012539969757199287, 0.05722583085298538, 0.054760150611400604, -0.00720410468056798, 0.0020071205217391253, -0.020339149981737137, -0.12788452208042145, -0.03338618203997612, 0.03566620498895645, 0.06464305520057678, -0.0594487227499485, -0.007249999325722456, -0.004601009655743837, -0.11494522541761398, 0.1207413524389267, -0.02229883149266243, -0.16273969411849976, -0.0293715950101614, 0.09378855675458908, -0.03378809615969658, -0.1330971121788025, -0.14965572953224182, -0.016443965956568718, 0.02610476128757, -0.07225445657968521, 0.1577129065990448, -0.03378385305404663, -0.06371863186359406, -0.005221257451921701, -0.0208762064576149, 0.11029015481472015, -0.005247978959232569, 0.18827645480632782, -0.0807582288980484, 0.00622371444478631, 0.029554449021816254, -0.03867201507091522, 0.06540590524673462, -0.13451513648033142, 0.12781624495983124, 0.07191968709230423, -0.015012228861451149, -0.06904802471399307, -0.05189993977546692, 0.04074778035283089, 0.02545010857284069, 0.19966180622577667, 0.1301923543214798, -0.2379227578639984, 0.031562063843011856, -0.165359765291214, 0.04063032940030098, 0.05263078585267067, 0.16698379814624786, 0.032150935381650925, 0.07313995063304901, 0.007782788947224617, -0.047932300716638565, -0.0836566910147667, 0.028221370652318, 0.3640700578689575, 0.19969110190868378, -0.010584205389022827, 0.09948264807462692, 0.056103989481925964, -0.06251147389411926, -0.0421447679400444, 0.22894251346588135, 0.14131252467632294, -0.0746607780456543, 0.017263447865843773, -0.12967269122600555, -0.11178126186132431, -0.14218835532665253, 0.1326439380645752, 0.06187671795487404, -0.24004517495632172, -0.06918501108884811, 0.015403610654175282, -0.032915182411670685, -0.018806662410497665, 0.1192244365811348, 0.05525696650147438, -0.015620078891515732, 0.062488824129104614, -0.04629717394709587, -0.012247066013514996, -0.0847742110490799, 0.16299358010292053, 0.08549323678016663, -0.013765767216682434, 0.040543027222156525, 0.058969300240278244, -0.028461715206503868, -0.10772939026355743, 0.012200938537716866, 0.13418368995189667, 0.17144352197647095, -0.1275588870048523, -0.101348377764225, -0.21121419966220856, -0.14384250342845917, -0.07019340991973877, 0.06162647157907486, 0.042118825018405914, 0.06885571777820587, -0.0682603195309639, -0.13199393451213837, -0.2906244099140167, 0.07071086019277573, 0.08357444405555725, -0.05188419297337532, -0.010846883058547974, -0.07397259771823883, -0.03817812353372574, -0.2054169923067093, 0.06020631268620491, 0.0563507117331028, 0.09591115266084671, 0.16135120391845703, -0.20667481422424316, -0.14142118394374847, -0.047778595238924026, -0.057098276913166046, -0.022864501923322678, -0.010412885807454586, 0.09099503606557846, -0.046996213495731354, -0.2605007588863373, -0.09866049140691757, 0.07175914198160172, 0.05500311031937599, 0.05691540613770485, -0.020092127844691277, -0.2090635448694229, -0.20462538301944733, -0.2818485200405121, 0.058495234698057175, 0.1518891155719757, -0.037493035197257996, -0.050908830016851425, -0.1892455667257309, -0.16779080033302307, -0.22840966284275055, -0.0010165958665311337, 0.13144201040267944, 0.2352011352777481, -0.048691052943468094, 0.09766563028097153, -0.22472438216209412, -0.19105497002601624, 0.1399962306022644, 0.1270008683204651, 0.02205098792910576, -0.0284801684319973, -0.07379832118749619, 0.00911024585366249, -0.28961801528930664, 0.07350099831819534, 0.021036148071289062, 0.15991009771823883, 0.021771904081106186, 0.07620462775230408, -0.06921601295471191, -0.2733822464942932, 0.033320121467113495, 0.005348424892872572, 0.0447947196662426, -0.02060380019247532, -0.05639020726084709, -0.12608680129051208, -0.22846052050590515, 0.16705600917339325, -0.02855117805302143, 0.21454040706157684, -0.05015771463513374, -0.004210946150124073, -0.02356378361582756, -0.2685529887676239, 0.02553984709084034, -0.06142284721136093, 0.09402401745319366, -0.07833567261695862, 0.046043816953897476, -0.019336968660354614, -0.21588493883609772, -0.14129087328910828, 0.07549001276493073, -0.032561045140028, -0.08233983814716339, -0.024428481236100197, -0.04919690266251564, -0.19935764372348785, 0.06609145551919937, 0.003579293377697468, 0.05000518262386322, 0.03867023438215256, -0.0818696916103363, 0.0692427009344101, -0.17174696922302246, 0.121487095952034, -0.0015475560212507844, -0.1355893611907959, -0.03343730792403221, -0.007423248142004013, 0.2956686019897461, 0.2603713274002075, 0.18537048995494843, 0.014694666489958763, -0.009353246539831161, -0.02285672351717949, 0.033245619386434555, 0.14603260159492493, -0.03268687054514885, 0.030849669128656387, -0.0042387256398797035, -0.2328081578016281, -0.030520768836140633, -0.07666419446468353, 0.06288433820009232, 0.02959759160876274, 0.057041216641664505, -0.03398602828383446, -0.1585303694009781, -0.007159760221838951, 0.006935925222933292, 0.23279280960559845, -0.049621522426605225, 0.19057628512382507, 0.2363625019788742, -0.15622104704380035, 0.01597564108669758, -0.05054831877350807, 0.08587849140167236, -0.041403450071811676, -0.023449797183275223, -0.10701222717761993, -0.10081065446138382, 0.14867688715457916, -0.15252470970153809, 0.0635126605629921, -0.030168987810611725, 0.26466694474220276, -0.017297914251685143, -0.11686405539512634, -0.09863893687725067, 0.03415190055966377, 0.04928768426179886, -0.05994275212287903, 0.24590018391609192, -0.06717260181903839, -0.18251565098762512, 0.16867081820964813, -0.0877130851149559, 0.08201734721660614, -0.08782044053077698, -0.03849859535694122, 0.17091768980026245, -0.11921229213476181, 0.046105511486530304, -0.0803687572479248, 0.052946995943784714, -0.02974521368741989, 0.002978825243189931, -0.06433246284723282, -0.11956192553043365, -0.03931322693824768, 0.009515071287751198, 0.054605331271886826, 0.018291523680090904, 0.052552614361047745, 0.08850573748350143, -0.05221741646528244, 0.04544850066304207, -0.007377708330750465, -0.025775836780667305, -0.00591543922200799, -0.053913164883852005, -0.13270030915737152, 0.059222035109996796, -0.007862437516450882, 0.17156924307346344, -0.0239412821829319, -0.08260409533977509, -0.16364732384681702, -0.04613129794597626, -0.18846802413463593, -0.08244140446186066, 0.1189618781208992, -0.017145683988928795, -0.015724927186965942, 0.029362937435507774, 0.006165441125631332, -0.18058006465435028, 0.007685094606131315, 0.002376425778493285, -0.029921770095825195, -0.0015146974474191666, -0.05177360028028488, 0.022680027410387993, 0.07357092946767807, -0.04998984932899475, 0.022244103252887726, -0.0021115115378051996, 0.07230500131845474, -0.233296200633049, 0.052078183740377426, 0.39164501428604126, 0.07352935522794724, -0.20065438747406006], [-0.1666901856660843, -0.01563047058880329, 0.06866882741451263, -0.132051482796669, 0.04592481628060341, -0.0116343405097723, 0.00067334552295506, -0.1305195838212967, -0.01637948490679264, 0.010343419387936592, 0.013003733940422535, -0.09060519933700562, -0.019783709198236465, 0.09813838452100754, 0.07660898566246033, -0.05750059708952904, 0.053423233330249786, -0.004346203990280628, 0.07207988202571869, 0.027789510786533356, 0.1458953320980072, 0.18636982142925262, 0.0728202685713768, 0.07134327292442322, -0.008985265158116817, 0.12242545187473297, -0.03417924791574478, 0.13734170794487, 0.0193518977612257, 0.20522697269916534, -0.06725940108299255, 0.05589209869503975, -0.13700154423713684, -0.08250103890895844, -0.2125491350889206, -0.012221820652484894, 0.16691233217716217, 0.038773369044065475, 0.03825794905424118, -0.043449871242046356, -0.018432704731822014, -0.18670250475406647, 0.2628175914287567, 0.2631271481513977, -0.13014298677444458, 0.007131881546229124, -0.20522379875183105, -0.20794300734996796, -0.0913904681801796, 0.050788119435310364, 0.24073432385921478, -0.15557746589183807, 0.12809151411056519, 0.20764490962028503, -0.1421128660440445, -0.1696150302886963, 0.13468100130558014, 0.1075669676065445, -0.1935955435037613, -0.17127856612205505, 0.09812348335981369, -0.0427962988615036, -0.14906300604343414, -0.014025204814970493, -0.008183605968952179, -0.11896687746047974, -0.00672520836815238, 0.14116007089614868, 0.027752641588449478, -0.08053036779165268, 0.11460256576538086, 0.04084021970629692, -0.10958065837621689, -0.07080916315317154, -0.1581796407699585, 0.08125442266464233, 0.03351321443915367, 0.10032960772514343, 0.14089421927928925, -0.09334266185760498, -0.05281566455960274, 0.02549268677830696, 0.025783462449908257, -0.06102346256375313, -0.0838918387889862, 0.10728493332862854, -0.38132578134536743, 0.10963883250951767, 0.1983763575553894, 0.07088083773851395, 0.015026218257844448, 0.14665129780769348, 0.10902473330497742, -0.0819922611117363, 0.07650325447320938, 0.14566992223262787, -0.016752764582633972, -0.15403932332992554, 0.1022990271449089, 0.028514200821518898, -0.13187101483345032, -0.024274084717035294, 0.06830836087465286, -0.14387665688991547, -0.0018415723461657763, 0.04251205548644066, 0.14739297330379486, -0.281004399061203, -0.023259343579411507, 0.05352472886443138, 0.017927071079611778, 0.07285502552986145, 0.144416943192482, 0.12170347571372986, -0.10659803450107574, 0.16511474549770355, 0.17189961671829224, 0.05579466372728348, -0.07954227924346924, 0.10800951719284058, 0.07123973965644836, -0.025344757363200188, 0.013004212640225887, 0.16974195837974548, -0.0463380441069603, -0.08670900017023087, -0.0429285429418087, -0.15845835208892822, -0.1683836430311203, -0.10987606644630432, 0.08977743238210678, -0.03540579602122307, 0.19424773752689362, -0.021442392840981483, -0.025284871459007263, 0.04842308908700943, 0.10833609104156494, -0.02021578699350357, 0.11418091505765915, 0.07352084666490555, 0.004967107903212309, 0.07621931284666061, -0.008815017528831959, 0.13403113186359406, -0.03517020493745804, 0.035387493669986725, -0.04604051262140274, 0.10060162842273712, 0.05184520035982132, 0.00821172259747982, -0.08475860208272934, -0.15277965366840363, 0.07719798386096954, -0.028905116021633148, -0.09372427314519882, -0.08966508507728577, 0.07185448706150055, -0.014559773728251457, 0.26314109563827515, -0.0370861180126667, 0.0006969324313104153, -0.019554005935788155, -0.052973423153162, -0.0026293962728232145, 0.047208599746227264, 0.16872374713420868, -0.08072233200073242, 0.10614451766014099, 0.08631343394517899, -0.18845389783382416, 0.142256960272789, 0.05151735618710518, 0.0110327722504735, 0.01318036112934351, -0.06872567534446716, -0.07349839806556702, -0.02702813409268856, -0.07635612040758133, 0.04463774338364601, 0.009894070215523243, 0.10971301048994064, 0.21003620326519012, -0.00837362464517355, -0.18457749485969543, 0.023515649139881134, 0.07513672858476639, -0.01907285861670971, 0.13562870025634766, 0.0014073847560212016, 0.030943969264626503, -0.029416712000966072, 0.10063193738460541, 0.031301457434892654, -0.07825208455324173, 0.045506738126277924, 0.061634086072444916, 0.02200324274599552, -0.06290478259325027, -0.02920686826109886, -0.008932165801525116, 0.14292939007282257, 0.011588775552809238, 0.08723236620426178, -0.03746148571372032, -0.030030783265829086, 0.10243723541498184, -0.05220603942871094, 0.050727054476737976, 0.10432330518960953, -0.044968392699956894, -0.012023466639220715, -0.006410907953977585, 0.01163932029157877, 0.10404331982135773, -0.10592593997716904, -0.0021258757915347815, -0.19235841929912567, 0.007620235439389944, 0.002837803680449724, 0.029498254880309105, 0.05748196691274643, -0.14336535334587097, 0.1932438611984253, -0.026834720745682716, 0.011849865317344666, -0.012443537823855877, 0.03174914792180061, 0.030904939398169518, -0.15261958539485931, 0.2442813217639923, -0.18587613105773926, -0.1298968493938446, -0.11491801589727402, -0.017001142725348473, -0.07150859385728836, 0.12727685272693634, 0.15963438153266907, 0.10916732251644135, -0.04014962166547775, 0.06170804053544998, 0.004775680135935545, 0.031065819784998894, 0.18460029363632202, 0.11745167523622513, -0.19654600322246552, 0.04318731650710106, -0.10861046612262726, 0.13238874077796936, 0.15431299805641174, 0.0016647707670927048, 0.022086327895522118, -0.12369263917207718, 0.036005809903144836, -0.20974141359329224, 0.24134211242198944, 0.07252504676580429, -0.14539498090744019, 0.19592946767807007, -0.08501256257295609, 0.1078047901391983, 0.10009327530860901, -0.005440597888082266, 0.07612371444702148, -0.11353502422571182, -0.017198309302330017, -0.1428888887166977, -0.03486480563879013, 0.10533684492111206, 0.07467348873615265, -0.0258848387748003, -0.33922260999679565, 0.12332537025213242, -0.005349336192011833, -0.12463893741369247, 0.0942322239279747, 0.06777925044298172, -0.10616300255060196, -0.0037592861335724592, 0.06246946379542351, -0.11579451709985733, -0.02249966748058796, 0.10036627948284149, -0.14368845522403717, 0.1131427213549614, 0.09912890195846558, 0.02138032764196396, 0.030439218506217003, -0.17461133003234863, 0.035206105560064316, -0.053652770817279816, -0.14196009933948517, 0.03589707240462303, -0.06575573235750198, -0.22873486578464508, -0.16198651492595673, 0.07429144531488419, 0.1352904736995697, -0.11778654903173447, -0.07810638844966888, -0.03178372234106064, -0.04952368885278702, -0.1314384788274765, 0.10037443041801453, -0.012193475849926472, 0.05808774381875992, -0.0411096066236496, -0.08545579016208649, -0.18147101998329163, -0.05035950616002083, 0.08406860381364822, -0.10699401795864105, -0.020306287333369255, 0.18610061705112457, -0.04441225156188011, -0.053452543914318085, -0.13044413924217224, 0.030211955308914185, -0.2165921926498413, -0.0005785088869743049, -0.023997340351343155, 0.0355551652610302, -0.15152758359909058, -0.23061086237430573, 0.16086606681346893, 0.10321761667728424, -0.011409332044422626, -0.134033203125, -0.016505340114235878, 0.09022252261638641, -0.1314992606639862, -0.04441903531551361, -0.07487546652555466, -0.0615692213177681, -0.05866141617298126, -0.17583811283111572, 0.003944935277104378, 0.050580933690071106, -0.04406776279211044, 0.21489636600017548, -0.11005793511867523, 0.056583549827337265], [0.02264244109392166, -0.08880522847175598, 0.002001945860683918, 0.014309829100966454, -0.022491978481411934, 0.032401662319898605, -0.11641453206539154, 0.014904838055372238, -0.004221281036734581, 0.14719724655151367, -0.041018128395080566, 0.01644740253686905, -0.03306226804852486, 0.028170449659228325, -0.024749260395765305, 0.020470431074500084, -0.016718104481697083, 0.12563660740852356, -0.013449336402118206, -0.10952308028936386, 0.010759428143501282, 0.12335153669118881, -0.03779162839055061, 0.02675497904419899, -0.018510963767766953, 0.10162356495857239, -0.03905195742845535, -0.014197254553437233, -0.043369751423597336, 0.044624146074056625, -0.11428438872098923, -0.0024668301921337843, -0.009606683626770973, 0.042612090706825256, 0.04584439471364021, -0.047994714230298996, 0.017025288194417953, 0.06358665972948074, 0.08550211787223816, -0.004146026447415352, -0.18719935417175293, 0.06633015722036362, 0.016476651653647423, -0.0109397042542696, 0.05372573435306549, -0.06109102442860603, -0.07828081399202347, -0.1255996972322464, -0.019580531865358353, 0.026054056361317635, -0.1034509465098381, 0.052897367626428604, -0.00487500848248601, 0.06403221189975739, 0.0005384812830016017, 0.13631664216518402, -0.05117398127913475, -0.13729721307754517, -0.049331147223711014, 0.054563023149967194, -0.04404307156801224, -0.17834778130054474, 0.1058616116642952, -0.07708398997783661, -0.04756583645939827, 0.07873877882957458, 0.06645405292510986, -0.0068538254126906395, -0.2925935983657837, 0.029624227434396744, -0.16263701021671295, -0.1125260517001152, -0.02070266380906105, -0.13768748939037323, -0.01959647424519062, -0.1731686294078827, 0.15121319890022278, 0.035574108362197876, -0.05762089043855667, -0.07882463932037354, 0.008336341939866543, -0.17820823192596436, -0.1313314586877823, 0.03338990733027458, -0.06344238668680191, 0.001979309134185314, 0.017627447843551636, -0.043372951447963715, -0.25936925411224365, -0.14411842823028564, 0.19891022145748138, -0.04760739579796791, -0.03608999028801918, 0.02366263046860695, 0.05992690101265907, -0.069546639919281, -0.11813249439001083, 0.027150848880410194, 0.07067903876304626, 0.04079558700323105, -0.0939212366938591, -0.024275097995996475, -0.26663461327552795, -0.27811959385871887, 0.12155526876449585, -0.0005539917619898915, -0.041645873337984085, -0.08043983578681946, 0.04897279292345047, -0.08510375767946243, -0.417022168636322, 0.03784395381808281, 0.06410418450832367, -0.006633002310991287, 0.17104628682136536, -0.042447786778211594, -0.18110118806362152, -0.17608177661895752, 0.0907362625002861, -0.05388987809419632, -0.17800968885421753, 0.13979344069957733, -0.05622945725917816, -0.2676258981227875, -0.18804141879081726, 0.1464795619249344, -0.1036950945854187, -0.10783414542675018, 0.13738374412059784, 0.06490395218133926, -0.016961418092250824, -0.14696216583251953, -0.124066561460495, -0.09356284141540527, -0.14779694378376007, 0.19349615275859833, 0.08082278072834015, 0.05486137047410011, -0.07754083722829819, -0.11004391312599182, -0.07584967464208603, 0.10554855316877365, 0.25556817650794983, -0.0712660551071167, 0.05690786987543106, -0.1524640917778015, 4.930734939989634e-05, -0.04587988555431366, -0.22197972238063812, 0.17894385755062103, -0.10004714131355286, 0.18127833306789398, -0.13829612731933594, 0.03489178791642189, -0.1199716180562973, -0.32138189673423767, 0.13763074576854706, 0.028021471574902534, 0.06062285974621773, 0.0775149017572403, -0.11556937545537949, -0.08874830603599548, -0.14869536459445953, 0.17046228051185608, 0.04040323570370674, 0.01936836540699005, -0.06343280524015427, 0.045483216643333435, -0.06221001222729683, -0.2188693732023239, 0.035491012036800385, 0.058794014155864716, -0.008081660605967045, -0.03472060337662697, 0.14771327376365662, -0.04495125636458397, -0.05793530121445656, 0.16670849919319153, 0.05990703031420708, -0.022621216252446175, -0.04853019490838051, 0.055958349257707596, 0.007540851831436157, -0.18004369735717773, -0.05707172676920891, 0.021397557109594345, -0.0971163809299469, 0.06070996820926666, 0.09894289821386337, -0.0476539172232151, -0.11653964966535568, 0.009607045911252499, -0.09968757629394531, 0.046553581953048706, 0.16251155734062195, -5.148546915734187e-05, 0.11591297388076782, -0.10992606729269028, 0.21496157348155975, -0.14809276163578033, 0.2248585969209671, -0.09646163135766983, 0.06677908450365067, -0.018038621172308922, -0.2134438306093216, 0.16652965545654297, 0.03787476569414139, 0.057139016687870026, 0.10844497382640839, -0.16647861897945404, 0.015431981533765793, -0.34205853939056396, 0.0971624031662941, -0.03321355581283569, 0.04417986422777176, -0.013173415325582027, 0.15516029298305511, -0.09074396640062332, -0.27351516485214233, -0.05078943818807602, 0.11139614135026932, 0.010886282660067081, -0.0006552836275659502, 0.1337605118751526, 0.09164288640022278, -0.16393178701400757, -0.04162615165114403, -0.16932694613933563, -0.14711767435073853, 0.01693241484463215, 0.18190869688987732, -0.02609162963926792, -0.06217663735151291, -0.08631522208452225, -0.04718584194779396, -0.13212205469608307, 0.06117557734251022, 0.07268176227807999, -0.10968898236751556, -0.013057049363851547, 0.22427034378051758, 0.13936494290828705, -0.07076554000377655, 0.030078517273068428, 0.024094514548778534, -0.01959848217666149, 0.0713534727692604, -0.004389724228531122, -0.09583338350057602, -0.2380678951740265, -0.12859176099300385, 0.061327192932367325, -0.011998740024864674, 0.0950780138373375, 0.05437585338950157, -0.05282916501164436, -0.23266905546188354, 0.025730151683092117, 0.03125794604420662, -0.0128927081823349, 0.060873568058013916, 0.016884030774235725, 0.01499740220606327, 0.04162144288420677, 0.018942393362522125, 0.061244454234838486, 0.07062787562608719, -0.012832237407565117, 0.0876709446310997, -0.056104108691215515, -0.17702743411064148, -0.14611150324344635, 0.01580646075308323, 0.06853201240301132, -0.04983612149953842, -0.1548701822757721, -0.07293474674224854, -0.12709417939186096, -0.15564411878585815, -0.0072281863540410995, -0.1772099733352661, -0.09697458893060684, 0.2255902886390686, 0.018106680363416672, 0.07851780205965042, 0.14295771718025208, -0.05405355989933014, -0.023198846727609634, -0.08859764039516449, 0.021515149623155594, -0.15628769993782043, -0.04602012410759926, -0.0024889030028134584, 0.014706957153975964, 0.010898986831307411, -0.0029632088262587786, -0.06277996301651001, -0.09936585277318954, 0.02312198095023632, 0.10084593296051025, -0.03092235140502453, -0.1469225287437439, -0.014592107385396957, -0.011286706663668156, 0.017133234068751335, -0.06971410661935806, 0.004136978182941675, -0.15338772535324097, 0.021876057609915733, 0.11563622951507568, 0.03342246636748314, 0.04553333297371864, 0.05894787982106209, 0.1468593329191208, 0.1561000496149063, 0.07911372184753418, 0.027904119342565536, 0.06037153676152229, -0.03675093874335289, -0.08096165955066681, -0.07539784908294678, 0.06361906975507736, 0.02674807421863079, 0.001911274390295148, -0.0509672611951828, -0.0436776764690876, -0.01502044778317213, -0.02665496990084648, -0.19198112189769745, 0.04246716946363449, -0.14888767898082733, -0.11747455596923828, 0.0005272062844596803, 0.021319322288036346, 0.08974747359752655, -0.08826950937509537, 0.0104612335562706, 0.03730102255940437, 0.028724845498800278, 0.15411683917045593, -0.0192690622061491], [-0.12814341485500336, 0.022327231243252754, -0.037346865981817245, 0.005706602241843939, -0.13225741684436798, -0.030313685536384583, -0.011846935376524925, -0.1647525280714035, -0.04946836084127426, 0.0698724240064621, 0.10984671115875244, -0.13472455739974976, 0.04253338277339935, -0.000805045710876584, 0.008019821718335152, 0.0323869027197361, 0.08961416035890579, -0.0020995899103581905, -0.15770430862903595, 0.16353316605091095, -0.1728227585554123, -0.19108693301677704, -0.12230776995420456, -0.04233540967106819, 0.09892259538173676, 0.012062141671776772, 0.034328754991292953, 0.14544299244880676, -0.13939854502677917, -0.24855384230613708, 0.029921691864728928, 0.009248294867575169, -0.04897889122366905, -0.10383463650941849, 0.1977899819612503, -0.01266822125762701, -0.16364434361457825, 0.1078047975897789, -0.043180469423532486, -0.05541045963764191, -0.12005440145730972, 0.10153937339782715, -0.04289306327700615, -0.15785235166549683, 0.011913260444998741, 0.10880033671855927, 0.0858781486749649, -0.002443667035549879, 0.045715950429439545, 0.07311353087425232, -0.003809283720329404, 0.056811101734638214, 0.16016435623168945, 0.013137719593942165, 0.07552795857191086, 0.04814174398779869, 0.11560146510601044, -0.050327450037002563, -0.025070076808333397, -0.05781858041882515, -0.020565470680594444, -0.10979469120502472, -0.05731329321861267, 0.1412513554096222, 0.05427372828125954, 0.04991175979375839, -0.017082424834370613, -0.0409376285970211, -0.08178329467773438, 0.009919368661940098, 0.07772126793861389, 0.1579180806875229, 0.04821193218231201, -0.05523968115448952, 0.05265085771679878, -0.13505762815475464, -0.0870213732123375, -0.10028057545423508, 0.3040669858455658, -0.12348323315382004, 0.016633182764053345, -0.08287910372018814, -0.07169882208108902, -0.07484762370586395, -0.09110350906848907, -0.09982647746801376, -0.05925010144710541, 0.1361997276544571, -0.08511888235807419, -0.06734851747751236, 0.07786627113819122, 0.15912960469722748, -0.05183471739292145, -0.0977151021361351, -0.05778459087014198, 0.06684991717338562, 0.005454584490507841, -0.11458076536655426, -0.027095597237348557, 0.01239538099616766, 0.04634605348110199, -0.02263008803129196, 0.07069837301969528, -0.07473956048488617, 0.04361386597156525, -0.17494544386863708, -0.23305214941501617, -0.06878446787595749, 0.02237890101969242, 0.15228308737277985, 0.011379833333194256, -0.11295706033706665, -0.035963479429483414, -0.20089471340179443, 0.05955444648861885, 0.03334580734372139, 0.09416643530130386, -0.049411121755838394, -0.04039657488465309, 0.02082815393805504, 0.05021445080637932, 0.20204304158687592, 0.029748301953077316, 0.048387523740530014, -0.10501950979232788, -0.06027401611208916, 0.06584518402814865, 0.00010235165245831013, -0.04520531743764877, 0.009763824753463268, 0.23473043739795685, -0.03295355662703514, -0.040855247527360916, -0.1319114863872528, 0.060127124190330505, 0.025351231917738914, 0.018341299146413803, 0.1370583325624466, -0.0890626385807991, -0.21113809943199158, -0.07920083403587341, 0.04460425674915314, -0.04287944361567497, 0.020234806463122368, -0.10385756194591522, 0.103889100253582, 0.08738899976015091, -0.03347459062933922, 0.07970432937145233, 0.038189440965652466, -0.09117282181978226, -0.14856551587581635, -0.020768143236637115, -0.09982888400554657, 0.019914714619517326, 0.17146044969558716, 0.09004804491996765, -0.10557921230792999, -0.31185826659202576, -0.1915339082479477, -0.03910176828503609, -0.026130829006433487, 0.007686447352170944, -0.014708876609802246, 0.03323075920343399, -0.18906711041927338, -0.06508992612361908, -0.13396555185317993, 0.05129970982670784, 0.21916016936302185, 0.014824958518147469, 0.007897483184933662, -0.0839139074087143, 0.15754283964633942, -0.0940675213932991, 0.08902439475059509, 0.09413546323776245, 0.006192454602569342, -0.019933896139264107, 0.04136192426085472, 0.06553059816360474, -0.0968736931681633, 0.0614616721868515, 0.0860649049282074, 0.11471663415431976, -0.10053128749132156, 0.12358827888965607, -0.0009967494988813996, -0.05529695004224777, -0.19126763939857483, 0.08569827675819397, -0.04291791468858719, -0.16172626614570618, 0.3442119061946869, 0.048655521124601364, -0.1387343406677246, -0.14470930397510529, 0.057859987020492554, 0.01294515747576952, -0.022168094292283058, 0.14005203545093536, 0.06103905290365219, -0.15163640677928925, -0.07343282550573349, 0.11482826620340347, -0.15310075879096985, 0.12317003309726715, 0.049111850559711456, 0.0717615857720375, -0.2597443163394928, 0.023069167509675026, 0.2062498927116394, -0.0012988568050786853, 0.0032189039047807455, 0.024581585079431534, 0.10149386525154114, -0.21886233985424042, 0.008245842531323433, 0.09593269973993301, 0.06948001682758331, 0.017576755955815315, -0.36292198300361633, 0.23221604526042938, -0.14416803419589996, 0.046737030148506165, 0.15961651504039764, 0.00543757900595665, 0.009495159611105919, -0.07889195531606674, -0.023831376805901527, -0.22020791471004486, 0.08163849264383316, 0.10034114122390747, -0.16396021842956543, -0.14929825067520142, 0.06489156931638718, 0.1952131688594818, 0.00983697921037674, 0.04954482242465019, 0.2176058143377304, -0.07631563395261765, -0.10477662831544876, 0.041158951818943024, 0.10676251351833344, -0.045525725930929184, -0.008336412720382214, 0.08044587820768356, -0.2202279269695282, -0.1408521980047226, -0.010035334154963493, 0.13803710043430328, -0.02975234016776085, -0.03480226546525955, 0.0775974690914154, -0.2079889327287674, -0.0793856605887413, 0.1345270872116089, 0.23471587896347046, -0.11819259822368622, 0.061001233756542206, 0.09097704291343689, -0.2516549527645111, -0.007783021777868271, -0.10857021063566208, 0.1321314573287964, 0.08157005161046982, -0.021119074895977974, 0.0651969388127327, -0.13468608260154724, -0.08075825870037079, -0.06911682337522507, 0.1168796718120575, -0.05715564638376236, 0.010807997547090054, 0.001762990141287446, -0.045082662254571915, 0.020821625366806984, 0.0032005496323108673, 0.03172028437256813, -0.10919370502233505, 0.11358561366796494, 0.1256447583436966, -0.022646073251962662, -0.1606776863336563, -0.041727758944034576, 0.09507933259010315, -0.07630706578493118, 0.1467483788728714, 0.07446210831403732, -0.08473660796880722, -0.13532987236976624, 0.06521604210138321, 0.02829233929514885, -0.03808125853538513, 0.22972482442855835, -0.04107774794101715, -0.02363409847021103, -0.07348752021789551, -0.013764779083430767, 0.005003124941140413, 0.019839081913232803, 0.16841748356819153, -0.019505949690937996, 0.012283507734537125, -0.12285934388637543, 0.005139760207384825, 0.045870810747146606, 0.04831293597817421, 0.17776133120059967, -0.15662580728530884, 0.13247951865196228, -0.027677295729517937, 0.018101593479514122, 0.20813170075416565, -0.0391051284968853, 0.20326772332191467, 0.08810658007860184, 0.0475049763917923, 0.013967247679829597, -0.04769525304436684, 0.11977355927228928, 0.03333885222673416, -0.02779412642121315, -0.03420157730579376, 0.17883184552192688, -0.006666878703981638, 0.18621936440467834, -0.02245282381772995, -0.07274896651506424, -0.08070827275514603, 0.21812516450881958, -0.07473227381706238, -0.0071673146449029446, -0.0064499699510633945, -0.1348745971918106, -0.09894315898418427, 0.15222398936748505, -0.03515219688415527, -0.2960417568683624, 0.07787435501813889, 0.1447400599718094], [0.02375585027039051, 0.28758105635643005, -0.04783809930086136, 0.0005003436817787588, -0.3215133547782898, -0.16610002517700195, 0.06700102239847183, -0.15155424177646637, -0.008525506593286991, 0.12309957295656204, 0.003889689454808831, -0.006808451842516661, -0.012206681072711945, 0.06992501020431519, -0.13244394958019257, 0.05977505445480347, 0.1565096229314804, -0.05260491371154785, -0.02884332276880741, 0.012437501922249794, -0.07028613984584808, 0.021569933742284775, 0.107075534760952, -0.0478140264749527, -0.07514537125825882, -0.09464014321565628, 0.11746199429035187, -0.04957816004753113, -0.1034720167517662, 0.06317313015460968, 0.08929657191038132, 0.12374380975961685, -0.007840551435947418, 0.05188309773802757, -0.1797647923231125, -0.07778415828943253, -0.015749448910355568, 0.007729655131697655, 0.1247050017118454, -0.10543107986450195, 0.0010931980796158314, -0.02454434707760811, -0.2015107423067093, -0.05569947138428688, 0.1703926920890808, -0.05654953792691231, -0.041939876973629, 0.011895242147147655, -0.052295178174972534, -0.12791301310062408, 0.08354471623897552, 0.04745185375213623, 0.008701655082404613, -0.032601408660411835, -0.15046115219593048, -0.09206210821866989, -0.030984049662947655, 0.005739153828471899, -0.045727767050266266, 0.0688990131020546, 0.21684332191944122, 0.09531858563423157, -0.07732316851615906, 0.09639756381511688, -0.13327772915363312, 0.038368601351976395, 0.025936830788850784, 0.17034286260604858, 0.1772337704896927, -0.07846313714981079, -0.005213651340454817, -0.0280001237988472, -0.035285238176584244, 0.05131194740533829, 0.032196011394262314, 0.12608465552330017, 0.0668652206659317, 0.012438619509339333, 0.020145563408732414, -0.0984354242682457, -0.06196756288409233, -0.07968208938837051, 0.1396998018026352, -0.004114089068025351, 0.09584733843803406, 0.04733695834875107, -0.2457066923379898, 0.04515593871474266, 0.20482392609119415, 0.06969256699085236, -0.0016911625862121582, 0.008695317432284355, 0.0865580216050148, -0.08838531374931335, 0.022508487105369568, -0.0810718983411789, 0.03357550874352455, 0.11108970642089844, 0.15497642755508423, -0.061278119683265686, -0.13907158374786377, -0.09012763947248459, -0.03980742394924164, -0.03431709483265877, -0.015223725698888302, 0.23833595216274261, 0.02012348361313343, 0.09212679415941238, 0.009618065319955349, 0.1090790331363678, -0.015169953927397728, 0.03957120701670647, 0.22869540750980377, -0.13911686837673187, -0.18876345455646515, -0.07721178978681564, 0.31053128838539124, -0.05794369801878929, 0.08030548691749573, 0.2392864227294922, 0.14248210191726685, -0.09966669976711273, 0.09338810294866562, -0.15238775312900543, -0.10990824550390244, 0.15791098773479462, 0.12436321377754211, 0.02218201942741871, -0.11806021630764008, 0.0319175198674202, 0.048165034502744675, 0.043672021478414536, 0.08826036751270294, 0.08072423189878464, -0.040628768503665924, -0.05981642007827759, -0.06890397518873215, 0.2458450049161911, -0.12375807017087936, 0.033908411860466, 0.11949757486581802, -0.015720780938863754, 0.0006420306744985282, -0.10677578300237656, -0.13837255537509918, -0.14182260632514954, 0.07415004819631577, -0.0034593974705785513, 0.1125110536813736, -0.12022663652896881, 0.0413295216858387, -0.05918307974934578, -0.1970241665840149, 0.03963347524404526, 0.1806742399930954, -0.1167118176817894, -0.058365967124700546, 0.09177370369434357, 0.07772243022918701, -0.10163354128599167, 0.08655358850955963, 0.045064348727464676, -0.05526662990450859, 0.17539530992507935, 0.1364205777645111, -0.06179973855614662, 0.028111480176448822, 0.03258926421403885, 0.04247330129146576, -0.0743320882320404, -0.10646158456802368, 0.05323532968759537, -0.0464782789349556, 0.038499969989061356, 0.05831107124686241, 0.11014226824045181, -0.10582282394170761, 0.044901181012392044, -0.09373114258050919, 