{"schema_version": 1, "metadata": {"global_step": 46299136, "run_name": "v102_b2beta", "obs_size": 341, "hidden_size": 64, "action_space_size": 18}, "weights": {"fc1.weight": [[0.22919338941574097, -0.09290991723537445, -0.01022584829479456, -0.054915718734264374, 0.06825797259807587, -0.019978590309619904, -0.057568568736314774, 0.1402200311422348, -0.010675102472305298, -0.24318420886993408, -0.01894732192158699, 0.04549184441566467, -0.07305897772312164, 0.014218118973076344, 0.09539251029491425, 0.1447259932756424, -0.0732647255063057, -0.10491219907999039, -0.012845913879573345, -0.0012162193888798356, -0.4952482581138611, 0.2328307181596756, -0.10359479486942291, 0.043635230511426926, 0.044964734464883804, -0.06050831824541092, -0.04903606325387955, -0.1791275292634964, 0.22155316174030304, -0.0323270745575428, -0.135872021317482, 0.21999728679656982, 0.03685414418578148, -0.1562289148569107, 0.01445794478058815, 0.1615794152021408, -0.04066977649927139, -0.1094040498137474, -0.037794485688209534, 0.16071541607379913, 0.12584517896175385, -0.06821469217538834, 0.19056189060211182, -0.0785321369767189, -0.11541580408811569, -0.09872739762067795, 0.0802069678902626, 0.16861818730831146, 0.0088663250207901, 0.06169239804148674, 0.1433265060186386, -0.14310434460639954, -0.016150062903761864, 0.050179623067379, 0.13495369255542755, -0.11787935346364975, 0.2339465469121933, 0.059221819043159485, -0.36736249923706055, 0.18757782876491547, -0.01484170462936163, 0.024540258571505547, -0.14898788928985596, 0.09550634026527405, -0.03949464485049248, -0.1904008835554123, -0.07957407832145691, 0.041211728006601334, 0.3125709891319275, 0.039363205432891846, 0.12493026256561279, -0.03204092010855675, -0.21766553819179535, 0.05782438814640045, -0.10825064033269882, 0.13146904110908508, -0.10398034751415253, 0.12393228709697723, 0.24350616335868835, -0.2462468445301056, -0.012726463377475739, 0.19902682304382324, 0.17521078884601593, 0.02124626375734806, 0.17020800709724426, -0.059877146035432816, -0.09657736867666245, -0.0410986989736557, -0.020973095670342445, -0.03752238303422928, 0.0038282587192952633, 0.22300133109092712, -0.020685533061623573, -0.13520196080207825, 0.009255492128431797, 0.12315789610147476, 0.10671298950910568, 0.06623050570487976, 0.18562671542167664, -0.045665908604860306, -0.13648462295532227, 0.17201298475265503, 0.03843088448047638, 0.008186530321836472, 0.09834276884794235, -0.022763758897781372, -0.16837859153747559, -0.21335086226463318, -0.11867991834878922, -0.05614336580038071, 0.10495981574058533, 0.09422274678945541, -0.02528960257768631, -0.07805198431015015, -0.10186122357845306, 0.16302445530891418, 0.022909056395292282, -0.019519386813044548, -0.08962216228246689, 0.13639889657497406, -0.03261847048997879, 0.05869245529174805, -0.04967937991023064, -0.10702475160360336, 0.05226407200098038, -0.06296705454587936, 0.0034877473954111338, 0.05005183443427086, 0.11595308780670166, 0.028448719531297684, -0.01619746722280979, -0.14238646626472473, -0.052570492029190063, 0.05157207325100899, -0.2598596513271332, -0.0031534191220998764, -0.025379730388522148, -0.04222214221954346, -0.10559768974781036, -0.0011448226869106293, 0.06390416622161865, 0.019108643755316734, 0.03961151838302612, -0.048978857696056366, 0.005805271677672863, -0.07925431430339813, -0.10735117644071579, -0.01395780872553587, -0.08924391865730286, -0.0892929956316948, 0.1968642771244049, 0.017523445188999176, -0.33228620886802673, 0.07085958868265152, -0.001997745828703046, -0.1018720492720604, 0.11623027920722961, 0.14844629168510437, -0.1305522471666336, -0.34245699644088745, 0.1419348418712616, 0.15152141451835632, 0.05074736848473549, -0.0831664577126503, 0.037174053490161896, 0.007664617151021957, -0.5607566833496094, 0.2827330231666565, -0.03762273117899895, -0.04587864875793457, -0.11469083279371262, 0.11063992977142334, -0.23648720979690552, -0.5187618136405945, 0.10992731899023056, 0.07945285737514496, -0.021236194297671318, -0.0319972038269043, 0.032530587166547775, -0.47972211241722107, -0.7586981654167175, 0.13236384093761444, -0.09532404690980911, 0.10159499943256378, -0.16283418238162994, 0.005515762604773045, -0.48120659589767456, -0.8790257573127747, 0.11148501187562943, -0.028885915875434875, -0.08853317052125931, -0.14289012551307678, -0.008217346854507923, -0.04718033969402313, -0.8352109789848328, 0.1493404656648636, 0.03945688158273697, -0.09656298160552979, -0.09048962593078613, 0.025151744484901428, -0.11898647993803024, -0.8291540145874023, 0.17990541458129883, 0.019688842818140984, 0.08865971118211746, -0.16456981003284454, -0.03371693193912506, -0.38076305389404297, -0.7891941666603088, 0.18604746460914612, 0.01129393745213747, 0.10253457725048065, -0.120491161942482, -0.13780483603477478, -0.3238164484500885, -0.7089134454727173, 0.23202075064182281, 0.012367264367640018, 0.06361398100852966, -0.22541576623916626, -0.020384829491376877, -0.4074153006076813, -0.4995517432689667, 0.21772311627864838, 0.022372666746377945, -0.0005053234053775668, -0.19630269706249237, -0.07783439755439758, -0.47250306606292725, -0.5651574730873108, 0.22839434444904327, 0.0636681318283081, 0.08870885521173477, -0.13687728345394135, -0.16065534949302673, -0.11047721654176712, -0.366372674703598, 0.11481734365224838, 0.2275296449661255, -0.03159430995583534, -0.1337459832429886, -0.11362965404987335, -0.13842126727104187, -0.17756007611751556, 0.0470539890229702, -0.03676598146557808, 0.01671312190592289, -0.23272033035755157, 0.06540762633085251, 0.09050352871417999, -0.1959499716758728, 0.18523021042346954, 0.17491811513900757, 0.07453160732984543, -0.02927565388381481, 0.00810005608946085, -0.18924261629581451, -0.20947475731372833, 0.15054000914096832, 0.10137492418289185, 0.05612344294786453, -0.320710152387619, -0.05229395255446434, -0.05802885815501213, -0.16916969418525696, 0.041304558515548706, 0.11020974069833755, -0.016990218311548233, -0.2892884314060211, -0.021722208708524704, -0.289859414100647, -0.13040989637374878, 0.16307024657726288, 0.015564101748168468, 0.07456860691308975, -0.27004340291023254, -0.060309819877147675, -0.18201081454753876, 0.03698856011033058, 0.10386741906404495, 0.06763079017400742, -0.04552150517702103, -0.16389606893062592, 0.02495807595551014, -0.06996814161539078, 0.21026889979839325, -0.09855345636606216, 0.0046119242906570435, 0.10565876215696335, -0.5743305087089539, 0.08462193608283997, -0.025079065933823586, 0.044850386679172516, -0.19757996499538422, -0.037708576768636703, 0.08566631376743317, -0.2811645269393921, 0.025898244231939316, 0.20531636476516724, 0.12362731993198395, -0.07632100582122803, 0.16926580667495728, 0.043054692447185516, -0.3285285234451294, 0.007818708196282387, -0.04980573058128357, 0.18208986520767212, 0.12029895931482315, 0.010812122374773026, -0.09360592812299728, -0.34787997603416443, 0.028095463290810585, -0.0016335865948349237, 0.18334592878818512, 0.17668184638023376, -0.2331257462501526, -0.03450945392251015, -0.010113896802067757, -0.05780032277107239, -0.06832893937826157, 0.07122423499822617, 0.3575308322906494, 0.0818500816822052, 0.021342897787690163, -0.12300615012645721, -0.06586486846208572, 0.08543434739112854, 0.06110240891575813, -0.11114202439785004, 0.0007850712281651795, -0.15961329638957977, -0.06254307180643082, 0.028232092037796974, 0.07369745522737503, 0.036185372620821, -0.3173341155052185, -0.019773313775658607, 0.2658427357673645, 0.7309231758117676, -0.1997620314359665, 0.7449984550476074], [-0.1433684378862381, 0.11601519584655762, -0.06715094298124313, -0.09144371002912521, 0.18479445576667786, -0.07479985058307648, -0.22220447659492493, -0.1737128496170044, -0.08182913064956665, 0.010409935377538204, 0.08236707001924515, 0.04888112470507622, -0.10331973433494568, -0.07477951049804688, 0.02435065433382988, 0.1471598744392395, -0.04703441262245178, 0.026701979339122772, 0.14271464943885803, -0.13020582497119904, -0.10521578043699265, 0.07038741558790207, 0.20894020795822144, -0.12241272628307343, -0.07806600630283356, 0.1544044464826584, -0.09450540691614151, -0.19553031027317047, 0.13477911055088043, 0.25902441143989563, -0.08369103819131851, 0.047376859933137894, 0.12546207010746002, -0.03912490978837013, -0.08027098327875137, 0.022053303197026253, -0.05470273643732071, 0.010038666427135468, -0.029537495225667953, 0.05228925868868828, -0.05578136444091797, 0.011361731216311455, 0.19242450594902039, 0.08235780894756317, -0.19563673436641693, 0.04235531762242317, 0.016671255230903625, -0.15597112476825714, 0.03914319723844528, 0.16160675883293152, 0.22731375694274902, -0.209776371717453, 0.06037486344575882, 0.03633791580796242, -0.04865036532282829, 0.021979283541440964, 0.2335823029279709, 0.134384885430336, -0.46583861112594604, 0.01251243520528078, 0.016098355874419212, 0.016945306211709976, 0.10516415536403656, 0.07427030801773071, -0.09078977257013321, -0.3127913475036621, -0.046092402189970016, 0.1482228934764862, 0.29970306158065796, -0.09961791336536407, 0.05205578729510307, 0.026297064498066902, -0.5461729168891907, 0.02783999964594841, 0.12403968721628189, -0.055082906037569046, 0.16164492070674896, 0.10438089817762375, 0.0587267205119133, -0.5914080142974854, -0.028499219566583633, 0.1977366805076599, 0.1804753988981247, 0.176504984498024, -0.15103916823863983, 0.11330153793096542, -0.42310860753059387, -0.005420919973403215, -0.050858378410339355, 0.29774144291877747, 0.1375625729560852, 0.06262823939323425, 0.05215267091989517, -0.5614382028579712, -0.1722412407398224, -0.111537866294384, 0.12869490683078766, 0.13626565039157867, -0.03817160055041313, 0.22670717537403107, -0.47710126638412476, -0.03249431028962135, -0.17840197682380676, 0.048202745616436005, 0.05235081538558006, 0.0455622673034668, 0.003324150573462248, -0.5912375450134277, -0.014233698137104511, 0.10136079788208008, 0.23292911052703857, 0.1507628709077835, 0.09207354485988617, 0.29720085859298706, -0.5549917817115784, -0.02567887492477894, 0.0038627642206847668, 0.029864514246582985, 0.10601576417684555, -0.10351260751485825, 0.040745217353105545, -0.45507603883743286, 0.1438455730676651, -0.08697652071714401, 0.1356169730424881, 0.24880298972129822, 0.04291077330708504, 0.036195069551467896, -0.4535564184188843, -0.14667335152626038, 0.0628679171204567, 0.10557719320058823, 0.2937433421611786, 0.0009696682100184262, 0.06387818604707718, -0.5296840667724609, -0.10775063931941986, 0.01685616932809353, 0.024461574852466583, 0.2395448088645935, -0.02861136384308338, 0.14956386387348175, -0.5527421236038208, -0.049182046204805374, 0.03656070679426193, 0.05209052935242653, 0.37051403522491455, -0.07121579349040985, 0.06007179617881775, -0.3293941915035248, -0.053565409034490585, 0.1521037071943283, 0.012697105295956135, 0.2958214581012726, -0.06553091108798981, 0.08846642822027206, 0.011761614121496677, 0.00046894553815945983, -0.1513105034828186, 0.053788959980010986, 0.018889479339122772, 0.033232543617486954, 0.06635703891515732, -0.04397030174732208, 0.03143664449453354, -0.008913776837289333, -0.21755020320415497, -0.18734686076641083, -0.09203828871250153, -0.12244217842817307, 0.26681551337242126, 0.0217220950871706, 0.022945327684283257, -0.263126015663147, 0.07157113403081894, -0.08534462749958038, -0.21951495110988617, -0.006432358641177416, -0.05759405344724655, -0.15071572363376617, -0.02718680538237095, 0.042099479585886, -0.08049044013023376, -0.20829446613788605, -0.044993896037340164, 0.020753249526023865, 0.06618122011423111, 0.02408447302877903, -0.05902388319373131, -0.03920935094356537, -0.08854154497385025, -0.03565173223614693, 0.004522170405834913, -0.04925762489438057, -0.0694705918431282, 0.09747488051652908, 0.012341250665485859, 0.003286425257101655, -0.15974828600883484, 0.04773859307169914, -0.13388822972774506, -0.2288566380739212, -0.0019883892964571714, -0.08838564902544022, -0.10881207883358002, -0.07797207683324814, 0.06259340792894363, 0.038959238678216934, -0.14052504301071167, 0.06707455962896347, -0.23733802139759064, -0.2778853476047516, 0.197509765625, -0.22807128727436066, 0.09296363592147827, -0.2315426617860794, 0.05404368415474892, 0.010690771974623203, -0.15743961930274963, 0.15012282133102417, 0.06958667188882828, -0.15708285570144653, 0.11777504533529282, 0.0002618286816868931, -0.24778997898101807, -0.13046187162399292, 0.06995370239019394, 0.10477858036756516, -0.21026495099067688, -0.047978345304727554, -0.1154327392578125, -0.285075306892395, -0.1245252788066864, 0.3362341523170471, 0.08446264266967773, -0.24497337639331818, -0.08600608259439468, -0.06494799256324768, -0.023160627111792564, -0.2341260313987732, 0.1833774894475937, -0.10208595544099808, -0.1169799417257309, 0.025602636858820915, 0.03926653787493706, 0.05454874411225319, 0.07579994946718216, 0.28963419795036316, -0.18415658175945282, -0.24723371863365173, -0.0812804102897644, 0.03542497009038925, -0.09362565726041794, 0.07989729940891266, 0.2479504942893982, -0.11843027919530869, -0.3847738802433014, -0.0665523037314415, -0.0008871054742485285, -0.14680176973342896, -0.05923280119895935, 0.263427734375, 0.09906752407550812, 0.23829683661460876, -0.15518443286418915, -0.02251831814646721, -0.14958623051643372, -0.2115408182144165, 0.2703133821487427, 0.024585800245404243, 0.22952504456043243, -0.1052892729640007, -0.03788205236196518, -0.1070675253868103, -0.16320496797561646, 0.18865695595741272, 0.07016868889331818, 0.06307791918516159, -0.04284517467021942, 0.23402316868305206, -0.03374682739377022, -0.293838769197464, 0.27621889114379883, 0.05995814874768257, -0.19817399978637695, -0.21313165128231049, 0.2183789312839508, -0.05452393367886543, -0.20143656432628632, 0.3308611214160919, 0.01809859275817871, 0.11613035202026367, -0.06905332207679749, 0.131125807762146, -0.01911773532629013, -0.28379085659980774, 0.3375236690044403, 0.062062643468379974, -0.13790343701839447, -0.09659025073051453, 0.3829984962940216, 0.04321061074733734, -0.23204165697097778, 0.4015659689903259, -0.07792642712593079, -0.08146438747644424, -0.25700080394744873, 0.21327760815620422, 0.19810202717781067, -0.009875433519482613, 0.10259118676185608, 0.07163932174444199, -0.10928621888160706, -0.08063695579767227, 0.38732919096946716, 0.25935134291648865, -0.00687048677355051, 0.21821455657482147, -0.1262567788362503, -0.026580069214105606, -0.014076797291636467, 0.3081168532371521, 0.23122353851795197, 0.04714977368712425, 0.02655348926782608, -0.03648635745048523, -0.07586892694234848, -0.021389517933130264, 0.3551132380962372, -0.030157379806041718, -0.13074085116386414, -0.06066661700606346, 0.09923943877220154, 0.028382565826177597, -0.1259937584400177, 0.4257875382900238, -0.18359114229679108, 0.1475820392370224, -0.6173847913742065, 0.4005019962787628, -0.3303540349006653], [0.33198830485343933, -0.0771855041384697, 0.3228779733181, 0.010060099884867668, -0.17117366194725037, 0.09198691695928574, 0.03133106604218483, 0.11439412087202072, -0.033329203724861145, 0.18895624577999115, 0.043199822306632996, -0.16170980036258698, 0.13804763555526733, 0.05283897742629051, -0.23522570729255676, 0.005223840940743685, 0.15627256035804749, 0.06300079822540283, -0.18931496143341064, -0.004101241007447243, 0.20194706320762634, 0.0682210847735405, 0.09296313673257828, -0.06491408497095108, -0.1000923365354538, -0.08973001688718796, -0.04071562737226486, 0.020204339176416397, 0.17818456888198853, 0.14779497683048248, -0.158935084939003, -0.07592672854661942, -0.21273505687713623, -0.1343202292919159, 0.08417727053165436, 0.2625778913497925, 0.0027890217024832964, -0.27525976300239563, -0.12388496100902557, 0.049760837107896805, -0.11922416090965271, -0.13616305589675903, 0.3014744818210602, 0.04516713321208954, -0.10813642293214798, 0.10511364042758942, 0.009411362931132317, -0.06878236681222916, 0.001533410046249628, 0.3318273425102234, 0.15782202780246735, -0.1384543627500534, 0.08069762587547302, 0.02094181627035141, -0.1254662722349167, 0.12609641253948212, 0.11276228725910187, 0.04571167007088661, -0.11805632710456848, 0.06563236564397812, -0.0804792270064354, -0.056845057755708694, -0.060848962515592575, 0.2119857221841812, 0.06489267945289612, -0.10701403766870499, 0.13838455080986023, -0.07551608234643936, -0.05145968124270439, 0.03292788565158844, 0.010987426154315472, -0.008747805841267109, -0.062144771218299866, -0.009093906730413437, -0.09844934940338135, -0.059323158115148544, -0.03946058452129364, -0.0006599820917472243, -0.09197869151830673, 0.4019293487071991, 0.05215265229344368, -0.21990090608596802, -0.07000845670700073, -0.1493496298789978, 0.002662233542650938, -0.16559083759784698, 0.5745787620544434, -0.09399597346782684, -0.12602707743644714, -0.028630169108510017, 0.002137409057468176, -0.11680669337511063, -0.14086942374706268, 0.37894317507743835, -0.01493065431714058, -0.052809350192546844, -0.07130127400159836, -0.1019454151391983, 0.01701153628528118, -0.2837192714214325, 0.23445533215999603, -0.008998755365610123, -0.16589245200157166, -0.0003460496081970632, -0.18985870480537415, -0.1080114021897316, -0.07603975385427475, 0.21167002618312836, 0.03250672295689583, -0.17682936787605286, -0.04087426885962486, -0.002073145005851984, -0.2504534125328064, -0.253732293844223, 0.4046599566936493, 0.03846248984336853, -0.005795500706881285, -0.03035391867160797, -0.345864474773407, -0.20829622447490692, -0.15413795411586761, 0.2701479494571686, -0.06178133189678192, -0.03732526674866676, -0.0393451452255249, -0.1797068566083908, -0.05439518392086029, -0.19678616523742676, 0.29614779353141785, 0.02578406035900116, 0.06778404861688614, -0.0372135192155838, -0.33997586369514465, -0.1984698325395584, -0.09041155129671097, 0.22472582757472992, 0.22949232161045074, 0.014104072004556656, -0.17341969907283783, -0.12306110560894012, -0.019716747105121613, -0.23056814074516296, 0.20352225005626678, 0.07602642476558685, 0.003165626898407936, -0.050194151699543, -0.04220530390739441, -0.2043008953332901, -0.3294183313846588, 0.1531372219324112, -0.15351128578186035, -0.13982413709163666, -0.08798466622829437, 0.060219425708055496, -0.12327230721712112, -0.32306692004203796, 0.21540673077106476, 0.1259697526693344, -0.3514995574951172, -0.029399720951914787, 0.10911378264427185, 0.004732655361294746, -0.2455788552761078, 0.11743224412202835, 0.053362809121608734, -0.2225046008825302, -0.03509977087378502, 0.15498751401901245, -0.06961003690958023, -0.2480270117521286, 0.31024983525276184, 0.06956405192613602, -0.3379535675048828, 0.03912011533975601, 0.043015290051698685, -0.14447449147701263, -0.4108559489250183, 0.13221421837806702, -0.09543885290622711, -0.41210153698921204, 0.16716499626636505, -0.0028029168024659157, -0.2759381830692291, -0.2044134885072708, 0.23139981925487518, -0.05343889445066452, -0.2100536823272705, -0.024247007444500923, -0.14109085500240326, -0.3506171703338623, -0.16263829171657562, 0.26131147146224976, 0.05372083559632301, -0.20716199278831482, -0.07616288959980011, -0.22817735373973846, -0.28167086839675903, -0.06513066589832306, 0.2051585614681244, 0.08371531963348389, -0.2666977345943451, -0.014034150168299675, -0.22259782254695892, -0.19318383932113647, -0.055347565561532974, 0.18671643733978271, 0.030053088441491127, -0.21234066784381866, 0.0007393865380436182, -0.1694583147764206, -0.1174527257680893, 0.10562644153833389, 0.11528287827968597, -0.1313277781009674, -0.4524666965007782, -0.12124830484390259, -0.05070854723453522, 0.14245103299617767, 0.046476468443870544, 0.08700460195541382, -0.15654915571212769, -0.235245019197464, -0.020535271614789963, -0.2805449366569519, 0.03760069981217384, -0.05406762659549713, 0.05006594955921173, -0.06603549420833588, -0.5211461186408997, -0.028759054839611053, -0.012127524241805077, 0.34212085604667664, 0.24535204470157623, -0.22865265607833862, 0.06050267070531845, -0.12184872478246689, 0.03909120708703995, 0.07306321710348129, 0.22422002255916595, 0.1547514945268631, -0.266813725233078, 0.08746787160634995, -0.1921403706073761, 0.1253679096698761, -0.19411300122737885, 0.10094912350177765, 0.03940041363239288, -0.2980027198791504, -0.0002421017998130992, -0.22073742747306824, -0.020705917850136757, -0.1382378786802292, 0.2246854156255722, 0.22183717787265778, -0.18713629245758057, -0.05761312320828438, -0.2097453474998474, 0.13150013983249664, -0.11941985785961151, 0.06051621958613396, 0.28811460733413696, -0.09059615433216095, 0.00017581589054316282, -0.11716394126415253, -0.011756300926208496, -0.14018608629703522, 0.0064272284507751465, 0.09474792331457138, -0.25611016154289246, 0.035207349807024, 0.06486214697360992, 0.13766565918922424, -0.05807437375187874, -0.10301396250724792, 0.05655210092663765, -0.09506833553314209, -0.12952381372451782, -0.10915613919496536, 0.23214511573314667, -0.11173941195011139, -0.037952277809381485, 0.09891541302204132, -0.25993382930755615, -0.15665893256664276, -0.16988308727741241, 0.049236081540584564, -0.058228932321071625, -0.04022183269262314, -0.035075634717941284, -0.2837226092815399, 0.09803000837564468, -0.04704292491078377, -0.08447755873203278, -0.018265770748257637, 0.12162436544895172, 0.031053591519594193, -0.05575157701969147, 0.09027538448572159, -0.1824485808610916, -0.02860162779688835, 0.17984463274478912, 0.018007351085543633, -0.08998063206672668, -0.23139554262161255, 0.1523560881614685, -0.046838320791721344, 0.01936063915491104, -0.04388830438256264, 0.2363235354423523, -0.10269420593976974, -0.11774061620235443, 0.15681235492229462, -0.080271415412426, 0.1376660317182541, -0.04821481555700302, -0.12875980138778687, -0.135751411318779, -0.035453811287879944, -0.04540396109223366, -0.17496462166309357, 0.1329084038734436, -0.032146770507097244, -0.0514683723449707, -0.12088528275489807, 0.36932647228240967, 0.005014629103243351, -0.198677197098732, 0.05332617834210396, -0.01802120730280876, -0.03705824911594391, -0.001674759667366743, 0.34636685252189636, 0.012528648599982262, -0.12790319323539734, -0.07978061586618423, 0.19636483490467072, -0.2154974341392517, 0.2787231206893921, 0.28246939182281494, -0.5376454591751099, -0.8323679566383362], [-0.19543392956256866, -0.08072292059659958, 0.04462448135018349, 0.02832574024796486, -0.051588088274002075, -0.11268516629934311, 0.03994625434279442, -0.13881254196166992, -0.09158969670534134, -0.0795920193195343, -0.004895247519016266, -0.000997132738120854, -0.10443767160177231, 0.3684047758579254, -0.29900577664375305, 0.04403744265437126, 0.3080590069293976, -0.017490606755018234, -0.03182604908943176, -0.16725651919841766, 0.3529794216156006, -0.1391451209783554, -0.05633820965886116, 0.4375033676624298, -0.03964352235198021, -0.01678561605513096, -0.20841644704341888, 0.34889569878578186, -0.2701979875564575, -0.12404181808233261, 0.4364786744117737, 0.10312582552433014, -0.0097717409953475, 0.06844066083431244, 0.14010673761367798, 0.19390109181404114, -0.11787110567092896, 0.3662254810333252, 0.003385254880413413, -0.05038922280073166, -0.18388240039348602, 0.11629828065633774, 0.057728491723537445, -0.0704752504825592, 0.3904128670692444, -0.006958015263080597, 0.15093430876731873, -0.04280300438404083, 0.01770162396132946, 0.045845258980989456, -0.10558207333087921, 0.44998836517333984, 0.06865082681179047, 0.06458213925361633, -0.04387999325990677, -0.1701004058122635, 0.2500348687171936, -0.037898797541856766, 0.3755922019481659, 0.06610549241304398, 0.1604783833026886, -0.1764747053384781, -0.05976559966802597, 0.06493953615427017, -0.17055225372314453, 0.3480345904827118, -0.08276558667421341, -0.011150967329740524, 0.018489688634872437, -0.14147444069385529, 0.2679991126060486, -0.12462230026721954, 0.41186803579330444, 0.07209935784339905, 0.04425631836056709, -0.07912284880876541, 0.02382444031536579, 0.043385475873947144, -0.1609227955341339, 0.17015933990478516, 0.0736277848482132, 0.06671174615621567, -0.07180800288915634, 0.011332771740853786, 0.1588696539402008, -0.06618758291006088, 0.1997610330581665, -0.025585560128092766, -0.05691269412636757, -0.09698960930109024, -0.001199470367282629, 0.08092566579580307, -0.028476277366280556, 0.06373687833547592, -0.041745901107788086, 0.04399138689041138, 0.10129939764738083, -0.026044784113764763, 0.027310647070407867, 0.00849159900099039, 0.11812495440244675, 0.005690598860383034, -0.02926492691040039, -0.01653316058218479, 0.0016789536457508802, -0.04070834070444107, -0.18566381931304932, -0.17243167757987976, 0.0370979942381382, -0.11632496863603592, -0.023808788508176804, -0.048780664801597595, 0.015718575567007065, 0.07189763337373734, -0.26164576411247253, 0.09490296244621277, 0.023441718891263008, -0.012754288502037525, 0.024446286261081696, 0.09482741355895996, 0.05858966335654259, -0.266815185546875, -0.09986358135938644, 0.04341372102499008, -0.05745061859488487, 0.10896159708499908, 0.11102499812841415, 0.11859411746263504, -0.35987576842308044, 0.1115085706114769, 0.08525467664003372, 0.003960371017456055, 0.09531228244304657, 0.1765110045671463, 0.10501306504011154, -0.8055088520050049, -0.05743371322751045, -0.012757024727761745, 0.08317641913890839, 0.22904524207115173, 0.2569781541824341, 0.13712605834007263, -0.5975903272628784, -0.08733256161212921, 0.06442403793334961, 0.029563670977950096, 0.19528460502624512, 0.20632459223270416, 0.12488551437854767, -0.5451365113258362, -0.07331470400094986, 0.17301876842975616, 0.05253623425960541, 0.21512292325496674, 0.17614145576953888, 0.28599852323532104, -0.40535813570022583, -0.06442153453826904, 0.04137008637189865, 0.04287414997816086, 0.27664294838905334, 0.17546319961547852, 0.26967760920524597, -0.32792964577674866, 0.17352250218391418, -0.019592002034187317, 0.0007397369481623173, 0.2097875475883484, 0.027024388313293457, 0.2579125165939331, -0.3731822371482849, 0.07098957151174545, 0.06842001527547836, 0.042796049267053604, 0.11173645406961441, 0.08376993983983994, 0.24121719598770142, -0.1549760103225708, -0.05391520634293556, 0.025330396369099617, 0.11977138370275497, 0.18099091947078705, 0.05026660114526749, 0.11261649429798126, -0.288929283618927, 0.0605519637465477, 0.01604333706200123, 0.025644734501838684, 0.09691596031188965, 0.05530593916773796, 0.11478907614946365, -0.1721276044845581, -0.012231928296387196, -0.03902522474527359, -0.08470450341701508, 0.03111119382083416, -0.21457970142364502, 0.10136959701776505, -0.20866598188877106, 0.007894153706729412, -0.014449132606387138, 0.04730815067887306, 0.07992252707481384, -0.060078542679548264, 0.11386526376008987, -0.19982501864433289, 0.04373391717672348, 0.006296384148299694, -0.015998585149645805, 0.005430294666439295, -0.239500492811203, 0.07302045822143555, -0.14006111025810242, 0.12325693666934967, 0.013690229505300522, 0.030753692612051964, -0.057367391884326935, -0.29089364409446716, 0.12766116857528687, -0.17363767325878143, -0.01401201169937849, -0.027408696711063385, -0.007269248366355896, -0.0782897025346756, -0.14731451869010925, -0.022211113944649696, -0.15566296875476837, -0.037408821284770966, -0.10229901969432831, 0.17003652453422546, -0.12882007658481598, -0.1191604807972908, 0.05018235743045807, -0.008187334053218365, -0.07265857607126236, -0.0046068886294960976, 0.31033846735954285, -0.02332361787557602, -0.11788617819547653, -0.04147897660732269, -0.12839742004871368, 0.10150512307882309, -0.06453415751457214, 0.4141215682029724, -0.03258182108402252, -0.08302787691354752, 0.0745011493563652, 0.05319596081972122, -0.11968178302049637, -0.031473319977521896, 0.3970990478992462, 0.06644193083047867, -0.031008334830403328, 0.006086581852287054, -0.10542695969343185, 0.049319520592689514, -0.04977431520819664, 0.46332380175590515, -0.02350364252924919, -0.09541095793247223, -0.04195047542452812, -0.08016575872898102, 0.08680146932601929, -0.06865920126438141, 0.3892141878604889, -0.05539626255631447, -0.0048391008749604225, 0.01576416939496994, 0.13385067880153656, 0.004757919814437628, -0.06805875897407532, 0.38117435574531555, 0.02778109535574913, 0.047758735716342926, 0.017594261094927788, 0.06915600597858429, -0.1110849529504776, -0.051488619297742844, 0.2698665261268616, -0.06682984530925751, -0.07000153511762619, -0.01916993409395218, 0.4581719934940338, 0.0071242437697947025, -0.07165823876857758, 0.1146937906742096, -0.17045080661773682, -0.08171375095844269, -0.04954513534903526, 0.4512888789176941, 0.019863538444042206, -0.039672937244176865, 0.22648020088672638, -0.05275050178170204, 0.023723473772406578, -0.10652752965688705, 0.39706534147262573, -0.08426429331302643, -0.13274508714675903, 0.23676982522010803, -0.07619132101535797, 0.047932859510183334, -0.21853378415107727, 0.5144339799880981, -0.00637812539935112, -0.07000724971294403, 0.2645256817340851, -0.06039789319038391, 0.09644759446382523, -0.2610211968421936, 0.45522648096084595, 0.027896730229258537, -0.1364198625087738, 0.4588894844055176, -0.14862336218357086, 0.2573760747909546, -0.2867223620414734, 0.33498701453208923, -0.005614932160824537, -0.07065878063440323, 0.10460808128118515, -0.0556335374712944, -0.15994806587696075, -0.0044853575527668, 0.3832174241542816, -0.07234316319227219, -0.07086276262998581, 0.1452748030424118, -0.1578986644744873, -0.06392417848110199, -0.12288624048233032, 0.434647798538208, -0.11132608354091644, -0.1487017124891281, -0.05252901464700699, -0.17249341309070587, -0.13206134736537933, 0.11132191121578217, 0.14572076499462128, -0.8025690317153931, -0.11885667592287064], [-0.3741489052772522, 0.1391294002532959, 0.0774562880396843, 0.08534801006317139, -0.007602379657328129, 0.1614377349615097, 0.005840587895363569, -0.1277257353067398, 0.033778123557567596, 0.3941660225391388, 0.05821864679455757, -0.0437929704785347, -0.15984781086444855, -0.09771161526441574, 0.11870862543582916, -0.23812876641750336, 0.03619455546140671, 0.12903854250907898, 0.01074262149631977, 0.05569642409682274, -0.12746195495128632, 0.09825244545936584, -0.13023823499679565, -0.12823884189128876, 0.1367024928331375, 0.03330792486667633, 0.030955009162425995, 0.1093214824795723, 0.030658965930342674, -0.0870380848646164, 0.23362018167972565, 0.06165297329425812, 0.0279170460999012, 0.47992539405822754, -0.0651426836848259, -0.15117408335208893, -0.1105395257472992, 0.14608053863048553, -0.041632045060396194, 0.1397511065006256, 0.4362426996231079, -0.09792160242795944, -0.1324043869972229, -0.3143330514431, 0.3708503246307373, -0.06548328697681427, 0.0883009061217308, 0.17595627903938293, -0.007448038551956415, -0.09204771369695663, 0.02536204271018505, 0.28902214765548706, -0.02346479706466198, 0.08124005049467087, 0.045181095600128174, -0.04007335752248764, -0.3830778896808624, -0.17134130001068115, 0.18170569837093353, -0.024882201105356216, 0.27008533477783203, 0.2670636773109436, -0.08742906153202057, -0.25477835536003113, -0.1594192087650299, 0.08737063407897949, -0.0946199893951416, 0.5610718131065369, -0.1989871710538864, 0.14630462229251862, -0.36720341444015503, -0.07854046672582626, 0.13675913214683533, -0.027156198397278786, 0.31669101119041443, 0.10589171200990677, 0.1957147866487503, -0.24580813944339752, -0.15267135202884674, -0.15614180266857147, -0.000755309360101819, 0.18378038704395294, 0.15258243680000305, -0.009632227011024952, -0.05277486890554428, 0.14652740955352783, -0.11814707517623901, 0.05027681216597557, 0.3111844062805176, 0.19311174750328064, -0.07777506113052368, -0.02367940917611122, 0.18544632196426392, -0.13760487735271454, 0.11709010601043701, 0.04294322431087494, 0.11099830269813538, -0.029091015458106995, 0.041398778557777405, 0.2491154968738556, -0.07342731207609177, -0.007647364865988493, -0.0010280447313562036, 0.18746279180049896, -0.11025099456310272, 0.03938520327210426, 0.23862390220165253, -0.07534792274236679, -0.027183206751942635, -0.0904909148812294, -0.04220810905098915, -0.10945029556751251, 0.18094812333583832, 0.028770437464118004, 0.02365177869796753, 0.04527566581964493, 0.08713459223508835, -0.04647299274802208, -0.18182045221328735, 0.22629491984844208, 0.22901850938796997, -0.0345505028963089, -0.06655128300189972, 0.19415363669395447, -0.030688045546412468, -0.15456007421016693, 0.030882949009537697, 0.1789049357175827, -0.07190101593732834, -0.08307338505983353, 0.06015576794743538, 0.11014636605978012, -0.14750690758228302, 0.08812721073627472, 0.1186644434928894, -0.051232341676950455, -0.09747911244630814, 0.07051091641187668, -0.01116250455379486, -0.09574933350086212, -0.016417594626545906, 0.08981108665466309, 0.11951876431703568, -0.0012433797819539905, 0.24970325827598572, -0.12140531092882156, 0.026432756334543228, -0.023821087554097176, -0.054686300456523895, -0.022131294012069702, -0.050605881959199905, 0.35401177406311035, 0.06404762715101242, -0.020649036392569542, -0.09659334272146225, 0.1435338705778122, 0.17421886324882507, -0.048669394105672836, 0.48398807644844055, -0.22887751460075378, 0.01445088256150484, -0.11089231073856354, 0.1682286262512207, -0.06462510675191879, 0.08628635853528976, 0.35460951924324036, 0.050081945955753326, -0.07174988090991974, -0.13284505903720856, 0.1615581065416336, 0.07338796555995941, 0.053669918328523636, 0.2947644889354706, -0.2295304536819458, 0.024159010499715805, -0.12442571669816971, 0.01607443392276764, -0.05192917212843895, -0.00561728049069643, 0.383206307888031, 0.052414845675230026, -0.024369722232222557, -0.17681077122688293, -0.04217710345983505, 0.08426494151353836, -0.09841921180486679, 0.0505230650305748, 0.0778571367263794, -0.09482276439666748, -0.27771732211112976, 0.04891468212008476, 0.14850479364395142, -0.017697378993034363, -0.05048274248838425, -0.07663879543542862, -0.033607423305511475, -0.3936690390110016, 0.15278685092926025, 0.13043910264968872, -0.0038977970834821463, 0.18968980014324188, 0.06079612672328949, -0.11161403357982635, -0.24027778208255768, -0.055552683770656586, 0.17981012165546417, -0.05656886100769043, 0.2962629795074463, 0.12329623103141785, -0.004433020018041134, -0.15156783163547516, 0.09254171699285507, 0.0725267082452774, -0.07960522174835205, 0.15028724074363708, -0.023499995470046997, -0.03098408877849579, -0.05172362178564072, 0.1942576915025711, 0.17725533246994019, -0.09752179682254791, 0.0983923003077507, -0.013563391752541065, -0.17397934198379517, -0.11401816457509995, 0.06547583639621735, 0.3350982964038849, -0.06686633080244064, 0.03448830544948578, -0.1196175366640091, -0.09076951444149017, -0.2852519452571869, 0.11719965934753418, 0.19703303277492523, 0.13499614596366882, 0.08418625593185425, -0.02465384639799595, -0.09935186058282852, -0.27986377477645874, 0.035524170845746994, 0.0845058485865593, -0.0854724571108818, 0.10912388563156128, 0.19435395300388336, 0.043549761176109314, -0.25749102234840393, 0.029355352744460106, 0.17434048652648926, -0.024996617808938026, 0.039610255509614944, -0.18684852123260498, 0.04790206998586655, -0.417420893907547, -0.02775973454117775, 0.31288135051727295, -0.03832685947418213, 0.06577570736408234, -0.07960232347249985, 0.060135044157505035, -0.33806636929512024, -0.08675086498260498, 0.3915002942085266, -0.04505737125873566, 0.029078684747219086, -0.04509994015097618, -0.057399991899728775, -0.10775820910930634, -0.11229986697435379, 0.2550871670246124, -0.022709593176841736, 0.148012176156044, -0.0378626324236393, 0.0701766237616539, -0.0214543379843235, -0.24550950527191162, 0.2678079307079315, -0.0077186571434140205, 0.036870602518320084, -0.027626890689134598, 0.18958976864814758, -0.181152805685997, -0.32578161358833313, 0.5288251638412476, -0.0714980736374855, 0.22879482805728912, -0.1390886902809143, 0.2360677421092987, -0.06480631232261658, -0.2477646768093109, 0.5964212417602539, -0.030658166855573654, -0.2079150378704071, -0.018366966396570206, 0.21041931211948395, -0.13041278719902039, -0.2463752180337906, 0.4419320523738861, 0.026323558762669563, -0.14068351686000824, -0.08118318766355515, 0.20446962118148804, 0.14460398256778717, -0.13699445128440857, 0.09539186954498291, 0.10341887921094894, -0.20055392384529114, 0.033473677933216095, 0.27218228578567505, -0.11799483746290207, -0.14180432260036469, -0.042864322662353516, -0.20318268239498138, -0.01909504644572735, 0.13349492847919464, 0.36067989468574524, -0.07143919169902802, -0.48552200198173523, 0.9142355918884277, 0.0009014924289658666, -0.07813399285078049, 0.21613465249538422, 0.1078762486577034, -0.12222794443368912, -0.3457968235015869, 0.013080828823149204, 0.004071076866239309, 0.11516773700714111, 0.26381731033325195, 0.14288075268268585, -0.24962301552295685, 0.10752806067466736, 0.27357205748558044, -0.14064572751522064, -0.017817659303545952, -0.00791554618626833, -0.014516834169626236, 0.5601263046264648, -0.030408145859837532, 0.4210553467273712, -0.007198442239314318, 0.1556849628686905], [0.12049133330583572, -0.0069024753756821156, -0.3981439173221588, -0.024395296350121498, 0.008176509290933609, 0.1300172358751297, 0.11340152472257614, 0.1872980296611786, 0.0735345184803009, -0.18414011597633362, 0.04053729772567749, 0.012705598026514053, 0.24738037586212158, -0.11268146336078644, 0.04040034860372543, 0.0019292349461466074, -0.12639592587947845, 0.025366520509123802, -0.0030196818988770247, 0.06792213767766953, -0.3029809594154358, -0.055955011397600174, 0.1838066726922989, -0.0033933173399418592, 0.09102515131235123, 0.09189235419034958, 0.012783311307430267, -0.5816354155540466, 0.1335517317056656, 0.3100448548793793, -0.08671373873949051, -0.10748008638620377, 0.10049053281545639, 0.23700423538684845, -0.5678285360336304, -0.034511126577854156, 0.18131713569164276, -0.0448930561542511, -0.10194182395935059, 0.06934431195259094, 0.19461244344711304, -0.3592292368412018, 0.0734424963593483, 0.16933922469615936, -0.04991764947772026, 0.020449522882699966, 0.06677762418985367, 0.07636145502328873, -0.23923169076442719, 0.030639758333563805, 0.29643288254737854, 0.0014532492496073246, -0.010029541328549385, 0.08085542172193527, 0.16373014450073242, -0.2911437153816223, -0.0814775675535202, 0.006867575459182262, 0.13623525202274323, 0.014937978237867355, 0.06929516792297363, 0.19528977572917938, -0.11424610018730164, -0.01232359278947115, 0.047319862991571426, -0.044496774673461914, -0.022905487567186356, 0.10473871231079102, 0.03584592044353485, -0.10128549486398697, 0.10140620172023773, 0.09114932268857956, -0.09918109327554703, -0.006797836162149906, 0.10970425605773926, 0.1490691602230072, -0.052566736936569214, 0.06335892528295517, 0.02034115046262741, -0.09203963726758957, 0.1334201693534851, 0.03324895724654198, -0.055339958518743515, 0.05636286735534668, 0.034997086971998215, 0.11050146818161011, -0.0656324252486229, -0.04082689806818962, 0.014162694104015827, 0.16736048460006714, 0.008377919904887676, 0.08311507850885391, 0.09262360632419586, -0.10141359269618988, -0.04532519355416298, -0.036337386816740036, 0.0982372909784317, 0.11965318024158478, 0.17970368266105652, 0.21322599053382874, -0.13806989789009094, 0.06348741054534912, 0.05077381804585457, 0.06337663531303406, -0.1377134770154953, 0.11269525438547134, 0.1792847365140915, -0.020973708480596542, -0.018119968473911285, -0.010659054853022099, 0.01641671545803547, -0.08329051733016968, 0.22720564901828766, 0.1504460722208023, -0.002036904450505972, 0.12587721645832062, 0.027662768959999084, -0.029220040887594223, -0.1065855547785759, 0.15423010289669037, 0.19883140921592712, 0.00833521131426096, 0.172159805893898, -0.060463596135377884, 0.06899955123662949, -0.10205312818288803, 0.11325385421514511, 0.07036151736974716, -0.1390916258096695, -0.05862515792250633, 0.20309685170650482, 0.23101277649402618, -0.14606434106826782, 0.1199737936258316, -0.08052188903093338, -0.05642125755548477, -0.024404767900705338, 0.0779833197593689, 0.07686899602413177, -0.08143796026706696, 0.07956086844205856, -0.033188965171575546, -0.03996516764163971, -0.008561881259083748, -0.0002993352245539427, 0.05946086719632149, 0.04253944382071495, -0.016756661236286163, -0.019814331084489822, -0.026807500049471855, -0.010271027684211731, -0.11679888516664505, 0.22720161080360413, -0.0020423801615834236, -0.02474907785654068, -0.05750497430562973, -0.044071264564991, 0.02800983004271984, 0.003751668380573392, -0.13466356694698334, -0.15298067033290863, 0.16424353420734406, -0.004692310467362404, 0.11064162105321884, 0.056514956057071686, 0.1312049925327301, -0.05069516971707344, 0.029033077880740166, -0.020245786756277084, -0.04021124914288521, -0.08565632253885269, -0.07480519264936447, -0.11272034049034119, -0.015211643651127815, 0.045282866805791855, -0.07147286832332611, 0.0440191812813282, 0.07420707494020462, 0.06839091330766678, 0.10698384791612625, -0.01961888186633587, -0.05420982092618942, 0.11059118062257767, -0.03557385131716728, -0.3054180443286896, 0.05247792601585388, 0.1252705305814743, -0.0016344863688573241, -0.02597585879266262, 0.09912148118019104, 0.08706102520227432, -0.06510012596845627, 0.055855050683021545, -0.03020331636071205, -0.022797731682658195, 0.14277587831020355, -0.003740571206435561, -0.046675894409418106, -0.1820140779018402, -0.024835938587784767, -0.030072616413235664, -0.0799407958984375, 0.14475123584270477, 0.03201679885387421, -0.022821642458438873, -0.10673002898693085, 0.041040923446416855, -0.3408277928829193, -0.09037046879529953, 0.11203521490097046, -0.07735544443130493, 0.06577081233263016, -0.1575166881084442, -0.017686033621430397, -0.32917219400405884, -0.004543539602309465, 0.15137338638305664, -0.0027190344408154488, 0.04357297718524933, -0.010905464179813862, -0.006296026054769754, -0.5759449601173401, -0.13270874321460724, 0.15755914151668549, 0.013404657132923603, -0.11672680824995041, -0.015818361192941666, 0.1108042299747467, -0.32815036177635193, -0.054590918123722076, 0.0437781885266304, -0.09213770180940628, -0.11784644424915314, -0.025805924087762833, 0.05346149206161499, -0.22259241342544556, -0.19861194491386414, 0.029854342341423035, 0.005276218988001347, -0.0014345662202686071, 0.03408566489815712, 0.05169151350855827, -0.3208514451980591, -0.3215978443622589, 0.13936474919319153, -0.09588883072137833, -0.05748944357037544, -0.03521570563316345, -0.007948535494506359, -0.29763489961624146, -0.2864695191383362, 0.16657239198684692, -0.022359639406204224, -0.19724272191524506, -0.00644342228770256, -0.11690085381269455, -0.23055106401443481, -0.3550141155719757, 0.16246548295021057, 0.11918140202760696, -0.061257120221853256, -0.10793137550354004, 0.060942646116018295, -0.3480483591556549, -0.5849441885948181, 0.2270684689283371, -0.007858912460505962, -0.08574499934911728, -0.16288302838802338, -0.1355653703212738, -0.28918880224227905, -0.5695344805717468, 0.13426882028579712, 0.021451542153954506, -0.060043759644031525, -0.07961834967136383, 0.029350511729717255, -0.39776918292045593, -0.7279022932052612, 0.272206574678421, 0.18065303564071655, 0.11511056125164032, -0.1744382381439209, -0.10040463507175446, -0.3779214918613434, -0.36421436071395874, 0.37144458293914795, 0.16747130453586578, 0.037811290472745895, -0.10407036542892456, 0.04284151643514633, -0.18854297697544098, -0.4685747027397156, 0.31393516063690186, 0.16469906270503998, -0.036112137138843536, -0.23021063208580017, 0.021392742171883583, 0.0037114948499947786, -0.3861525058746338, 0.1187065988779068, -0.009245501831173897, 0.15898780524730682, -0.10192104429006577, -0.10095161199569702, -0.006835905369371176, -0.2803419530391693, 0.06871393322944641, 0.17604011297225952, -0.17880184948444366, -0.16121222078800201, -0.032958973199129105, -0.012979178689420223, -0.35973531007766724, 0.20970459282398224, 0.21483147144317627, 0.1190873384475708, -0.24093393981456757, -0.040520623326301575, 0.04430341720581055, -0.277457058429718, 0.4148115813732147, 0.255705326795578, 0.09779596328735352, -0.325818806886673, -0.04772628843784332, 0.08872177451848984, -0.18314145505428314, 0.30723851919174194, 0.29339373111724854, -0.01413611602038145, 0.24226465821266174, 0.12377573549747467, 0.06337334215641022, -0.2154504358768463, 0.1835668832063675, 0.02663816325366497, 0.26562315225601196, -0.3389076590538025, -0.3043130934238434, 0.48802533745765686], [0.42992129921913147, -0.025248529389500618, 0.12308617681264877, -0.10715664178133011, 0.10316168516874313, 0.11671814322471619, 0.017479117959737778, 0.3832312822341919, 0.069671131670475, 0.1136256605386734, 0.13364556431770325, 0.19147248566150665, -0.06256414204835892, 0.05595909059047699, 0.3788783848285675, 0.11882605403661728, 0.11795017123222351, -0.10971095412969589, 0.048844944685697556, -0.004681356716901064, 0.1678200662136078, 0.011137774214148521, 0.09912249445915222, -0.02391199953854084, -0.07870960980653763, 0.0390813983976841, -0.10515528172254562, 0.1281171590089798, 0.09496564418077469, -0.03190511092543602, 0.05206917226314545, -0.08808541297912598, 0.09540266543626785, -0.09876652806997299, 0.1822994202375412, 0.22024883329868317, -0.13045692443847656, 0.0020685894414782524, -0.0010353303514420986, -0.07761305570602417, -0.12618355453014374, 0.11430849134922028, 0.19060099124908447, -0.10427964478731155, 0.15463866293430328, -0.1367052048444748, 0.03476840257644653, -0.041812703013420105, 0.0073560681194067, 0.03355016931891441, -0.16088704764842987, 0.18662579357624054, -0.057338226586580276, -0.0833185538649559, -0.08409607410430908, 0.12968571484088898, 0.10086684674024582, -0.34579524397850037, 0.14202165603637695, -0.009312999434769154, -0.09185776114463806, -0.10703150182962418, 0.16743598878383636, 0.0056073954328894615, -0.2538330852985382, 0.38943174481391907, -0.05812497064471245, -0.036406032741069794, 0.024131663143634796, 0.049641456454992294, -0.07352977991104126, -0.4718112051486969, 0.3937194347381592, -0.09372811764478683, -0.21635377407073975, 0.33517903089523315, 0.07628869265317917, -0.10878690332174301, -0.42036813497543335, 0.4030842185020447, -0.042849406599998474, -0.07791854441165924, 0.30175843834877014, -0.038864120841026306, 0.03466026112437248, -0.34785422682762146, 0.4712837040424347, -0.0710792988538742, 0.11323492974042892, 0.019142670556902885, -0.1038835272192955, 0.008139929734170437, -0.2130243182182312, 0.2640071511268616, -0.05266072601079941, -0.07172298431396484, 0.0920136421918869, -0.08265478909015656, -0.046145614236593246, -0.20625390112400055, 0.26004305481910706, 0.1815701425075531, -0.07911650836467743, 0.10306768119335175, -0.03411281108856201, 0.08138680458068848, -0.17556755244731903, 0.24017801880836487, -0.04809761419892311, -0.28244078159332275, 0.07694662362337112, 0.030004199594259262, 0.04834293574094772, -0.30393415689468384, 0.17001798748970032, 0.04278464987874031, -0.0988914743065834, 0.03939249366521835, 0.036794278770685196, 0.11514073610305786, -0.24857813119888306, 0.29546451568603516, -0.08063725382089615, 0.02679910883307457, 0.0407349169254303, -0.17749585211277008, 0.01828758418560028, -0.054294273257255554, 0.29392769932746887, -0.08149309456348419, 0.0649196207523346, -0.055563706904649734, -0.03062453679740429, 0.043318603187799454, -0.18198393285274506, 0.32118043303489685, 0.023698844015598297, -0.15599893033504486, -0.058275386691093445, -0.10867796093225479, 0.053440846502780914, -0.10041317343711853, 0.2036724090576172, 0.014340369030833244, 0.05568939819931984, 0.03400352969765663, -0.13239304721355438, 0.04856954887509346, -0.22065511345863342, 0.37241271138191223, -0.01957758329808712, 0.11920828372240067, -0.09800522029399872, -0.16093096137046814, 0.08761513233184814, -0.06708134710788727, 0.3340282142162323, 0.00605013919994235, 0.14390838146209717, 0.17052364349365234, -0.07002441585063934, 0.07924306392669678, -0.135770782828331, 0.28692638874053955, 0.03252868354320526, 0.13388580083847046, -0.06646816432476044, -0.19223354756832123, -0.045263759791851044, -0.12297716736793518, 0.2520524561405182, 0.0626070573925972, -0.21771636605262756, -0.022814981639385223, -0.09344471991062164, 0.027926813811063766, -0.07785855233669281, 0.46125638484954834, 0.026432564482092857, 0.008245397359132767, 0.1275535225868225, -0.21467168629169464, 0.08002205938100815, -0.018145309761166573, 0.32069435715675354, -0.04294874519109726, -0.1589600145816803, 0.12270602583885193, -0.1325211077928543, 0.1038793995976448, -0.02425537072122097, 0.511448085308075, -0.0542629137635231, -0.07280623912811279, 0.1882091909646988, -0.21600615978240967, -0.03342122584581375, 0.05543794110417366, 0.3294273018836975, -0.13394978642463684, -0.11935292929410934, 0.100344218313694, -0.18050365149974823, 0.0531834214925766, -0.03517632186412811, 0.2761351764202118, -0.1492381989955902, -0.11493649333715439, 0.1594858318567276, -0.267221599817276, 0.006815947592258453, -0.14146624505519867, 0.27307403087615967, 0.03306934982538223, 0.009432070888578892, 0.07656911015510559, -0.21409645676612854, 0.03749572113156319, 0.008122969418764114, 0.16981849074363708, 0.07364657521247864, -0.04832666367292404, 0.0154494009912014, -0.07097606360912323, -0.04049452394247055, 0.03610716015100479, 0.3562360405921936, -0.000556168844923377, -0.06475146859884262, -0.16011688113212585, -0.03226443752646446, 0.07572569698095322, -0.004067057278007269, 0.0853913202881813, 0.010140696540474892, -0.07373926043510437, -0.23224475979804993, -0.028533633798360825, -0.029616277664899826, -0.03160674497485161, 0.13352882862091064, -0.11421236395835876, 0.08254285901784897, -0.24377307295799255, -0.11700306087732315, -0.013479506596922874, 0.208477184176445, -0.1067175418138504, -0.004584458656609058, -0.08216129243373871, -0.2568924129009247, 0.07428134232759476, 0.2246668040752411, 0.16033373773097992, -0.4740143120288849, -0.05800517275929451, -0.13960300385951996, -0.18199624121189117, -0.050961386412382126, 0.07713288068771362, 0.12594002485275269, -0.16992110013961792, -0.004370563663542271, -0.01533993799239397, -0.1783493310213089, 0.06738634407520294, 0.08339617401361465, 0.1214505061507225, -0.014715638011693954, 0.04809611290693283, -0.004781870171427727, -0.3048689663410187, 0.17588545382022858, 0.08152707666158676, 0.12199021130800247, 0.08398178219795227, -0.15544384717941284, -0.04772762954235077, -0.10251520574092865, 0.1078656017780304, 0.03982244431972504, -0.04576559737324715, 0.16866783797740936, -0.08635809272527695, -0.08707123249769211, 0.09082729369401932, 0.03916594013571739, -0.006820655427873135, 0.018613439053297043, 0.13122530281543732, 0.060409631580114365, -0.012199480086565018, 0.0030904768500477076, 0.03613990545272827, 0.2018129676580429, 0.01484808512032032, 0.008242384530603886, -0.04671098291873932, 0.07492873817682266, 0.08604876697063446, 0.05838034301996231, -0.03321495279669762, -0.1255687177181244, 0.14847424626350403, -0.050524234771728516, -0.10324586182832718, 0.11301536858081818, 0.008287722244858742, -0.04562787339091301, 0.08238019794225693, 0.012175868265330791, -0.026664938777685165, -0.012115532532334328, 0.1857593059539795, 0.06024226173758507, 0.04865958169102669, 0.09784822165966034, 0.006942788138985634, -0.013057021424174309, -0.04058823361992836, 0.23478756844997406, 0.11687424033880234, 0.22410599887371063, -0.036330051720142365, 0.09548298269510269, 0.11812499910593033, 0.0427035428583622, 0.055312082171440125, 0.03990691900253296, 0.4281120300292969, 0.013576769270002842, 0.24301373958587646, 0.044543348252773285, 0.1475657820701599, 0.03072604537010193, -0.0020994723308831453, 0.4393954277038574, 0.30546244978904724, 1.0825555324554443, -0.10286077111959457, -0.08747029304504395], [0.08573997765779495, 0.05338345840573311, -0.020492814481258392, 0.0371127687394619, -0.0735803097486496, -0.11908488720655441, 0.1258189082145691, -0.08431622385978699, -0.07143520563840866, -0.0843428447842598, 0.09556414186954498, -0.02699190378189087, -0.18652743101119995, 0.17010855674743652, -0.16491995751857758, -0.0427754707634449, -0.1364293396472931, 0.06524256616830826, -0.009228531271219254, 0.01717449352145195, 0.17523090541362762, 0.025983290746808052, -0.057932041585445404, 0.03086092881858349, -0.2382652759552002, 0.1342490017414093, -0.1872905194759369, 0.21577350795269012, 0.1936044991016388, -0.2890583872795105, 0.33052530884742737, 0.05725677311420441, 0.14887583255767822, -0.06563802808523178, 0.15558774769306183, 0.13167499005794525, -0.2485051453113556, 0.2951735854148865, -0.015863852575421333, -0.11766253411769867, -0.018201421946287155, 0.2511545717716217, 0.11911134421825409, -0.24916529655456543, 0.25522640347480774, 0.07693330943584442, 0.20891225337982178, 0.05895312875509262, 0.17027547955513, 0.21835428476333618, -0.13824544847011566, 0.095797598361969, -0.06347469985485077, 0.07840903848409653, 0.15383967757225037, 0.131290465593338, 0.19762356579303741, -0.15191321074962616, 0.2455352395772934, -0.05365399643778801, 0.2254355400800705, 0.12659874558448792, -0.05588153749704361, 0.3739493191242218, 0.016445141285657883, 0.3003220558166504, 0.05319337919354439, 0.21940398216247559, -0.20006346702575684, -0.16320361196994781, 0.2916894555091858, -0.22030965983867645, 0.28469422459602356, 0.03449101373553276, 0.3470308780670166, -0.01146791037172079, -0.29693612456321716, 0.22360874712467194, -0.0648970678448677, 0.24370931088924408, -0.007119062822312117, 0.23833858966827393, 0.018686557188630104, -0.2566138803958893, 0.16301853954792023, -0.011099993251264095, 0.34269195795059204, 0.005480271298438311, 0.06267997622489929, -0.010026060044765472, -0.3020372688770294, 0.036019034683704376, 0.05634037032723427, -0.01625267043709755, 0.12077543884515762, 0.39348241686820984, 0.1637517362833023, -0.15308339893817902, 0.05366704240441322, 0.08540663868188858, -0.08933886140584946, -0.07768435031175613, 0.16565193235874176, 0.1705295443534851, -0.23154908418655396, 0.02309231273829937, 0.1368652731180191, -0.12583619356155396, -0.041070133447647095, 0.02791244350373745, 0.10402461141347885, -0.19219833612442017, 0.012704504653811455, 0.009902268648147583, -0.03213811293244362, 0.033287592232227325, 0.2200671136379242, 0.24718144536018372, -0.02960219420492649, 0.16897641122341156, -0.08673889935016632, 0.06837436556816101, -0.014879687689244747, -0.003834460861980915, 0.09559199213981628, -0.12187051773071289, 0.05564943701028824, 0.0743667259812355, -0.020547449588775635, 0.06477535516023636, 0.09177150577306747, -0.1116395816206932, -0.07275163382291794, 0.05680302903056145, -0.06955011934041977, 0.43127813935279846, -0.14934255182743073, 0.018770691007375717, -0.0024695193860679865, -0.15733285248279572, -0.08207064867019653, -0.10887064039707184, 0.12033796310424805, -0.022886129096150398, 0.07505346834659576, -0.25712764263153076, -0.08483880758285522, -0.005881716031581163, -0.14442650973796844, 0.14558830857276917, 0.013195527717471123, 0.03439425304532051, -0.21658870577812195, -0.20472198724746704, -0.09238254278898239, -0.038750018924474716, 0.0998908206820488, -0.018660051748156548, 0.01781378872692585, 0.053137052804231644, -0.20995241403579712, 0.0013629777822643518, -0.1323605477809906, 0.0994226485490799, 0.10900439321994781, -0.0957687571644783, 0.11517438292503357, -0.21698765456676483, -0.044470615684986115, -0.03796234726905823, 0.009979919530451298, 0.020606214180588722, 0.03789930418133736, 0.002542430767789483, -0.1583976447582245, -0.14816616475582123, -0.05603332445025444, -0.03376885876059532, 0.024194395169615746, 0.12169644236564636, 0.13037696480751038, -0.202616348862648, -0.034747734665870667, 0.026417337357997894, -0.044760916382074356, 0.06390977650880814, 0.043578170239925385, 0.061152976006269455, -0.017621131613850594, -0.10711247473955154, -0.11873070150613785, -0.06630875170230865, -0.060143258422613144, 0.22388356924057007, 0.05296215042471886, 0.2434675097465515, 0.10166408866643906, -0.1711660921573639, 0.11552323400974274, -0.025964558124542236, -0.05734097212553024, -0.03849269822239876, 0.155238538980484, -0.07468295842409134, -0.04298589751124382, 0.14000652730464935, -0.01397579163312912, 0.044337909668684006, -0.07808047533035278, -0.044949859380722046, 0.027259714901447296, -0.15851779282093048, 0.17199616134166718, 0.06166485324501991, 0.11104186624288559, 0.06886671483516693, -0.05884590372443199, -0.1646813005208969, -0.24052008986473083, 0.20186246931552887, -0.03481534495949745, 0.0775303989648819, 0.3003506362438202, 0.10026943683624268, -0.027842970564961433, -0.20652525126934052, 0.19249919056892395, -0.07118218392133713, -0.040248360484838486, 0.2794211804866791, 0.035545799881219864, -0.039802320301532745, -0.29052677750587463, 0.31343019008636475, -0.040078550577163696, -0.0537366047501564, 0.39883869886398315, -0.0020029719453305006, 0.11172644048929214, -0.09596741199493408, 0.21380868554115295, -0.10627443343400955, 0.021333353593945503, 0.25425779819488525, -0.09963364899158478, 0.11861895769834518, -0.19482651352882385, 0.28526997566223145, -0.010363866575062275, -0.029516473412513733, 0.3076833188533783, -0.05195373296737671, 0.06296367943286896, -0.2650600075721741, 0.2125265896320343, -0.029989859089255333, -0.14880810678005219, 0.09871431440114975, 0.10018479079008102, 0.26725223660469055, -0.16296204924583435, 0.2531391680240631, -0.0231163389980793, 0.03233015537261963, 0.30689167976379395, -0.12032196670770645, -0.03355007618665695, -0.16926206648349762, 0.1013169214129448, -0.025737926363945007, -0.07498542964458466, 0.06800729036331177, 0.0022009280510246754, 0.12057482451200485, 0.062086205929517746, 0.21365506947040558, -0.07588143646717072, -0.10974599421024323, -0.09219864755868912, 0.06805303692817688, 0.12092556804418564, -0.04522370919585228, -0.11754865199327469, -0.014340626075863838, 0.1680496633052826, -0.15515905618667603, 0.07937353849411011, 0.16525526344776154, 0.005793888587504625, -0.14323125779628754, -0.021291455253958702, 0.042242106050252914, -0.06887853145599365, -0.007906779646873474, 0.06534163653850555, -0.2541573643684387, -0.2159697413444519, -0.06550580263137817, -0.01258232444524765, 0.013426007702946663, 0.10592860728502274, 0.2828271985054016, -0.1592535525560379, 0.04071972891688347, -0.007326758466660976, 0.06989181786775589, -0.013321220874786377, 0.1329224556684494, 0.06895392388105392, -0.15668058395385742, -0.4598461389541626, 0.1479383111000061, 0.09187131375074387, -0.016451578587293625, 0.3448242247104645, 0.033379483968019485, -0.1273781955242157, -0.5589013695716858, 0.01060508843511343, 0.06929474323987961, 0.06457524746656418, 0.0029547472950071096, -0.006720841396600008, 0.049903545528650284, -0.17384862899780273, -0.1164533942937851, 0.08371230959892273, -0.09733357280492783, -0.19718363881111145, 0.20936797559261322, 0.11470735818147659, -0.2354116290807724, -0.04662632569670677, 0.0492524690926075, -0.13527336716651917, 0.24019597470760345, 0.06569068878889084, 0.5035728216171265, 0.5085319876670837, 0.6871898174285889, 0.12517890334129333], [0.34507742524147034, 0.1793869137763977, 0.06472110748291016, 0.04895196855068207, -0.022015396505594254, -0.14346277713775635, 0.14189709722995758, 0.41470879316329956, 0.1361185908317566, 0.004980452824383974, 0.05683976039290428, -0.025119563564658165, -0.3883008658885956, 0.3694417476654053, 0.22589054703712463, 0.31486061215400696, 0.2959769070148468, 0.07171106338500977, 0.05963512882590294, -0.560573935508728, 0.3024328947067261, 0.011169138364493847, 0.0984228253364563, 0.22567105293273926, -0.09317982941865921, -0.025546034798026085, -0.5583755970001221, 0.2856151759624481, -0.003666104283183813, 0.0896073579788208, 0.22068044543266296, -0.03495442867279053, 0.017516719177365303, -0.371705561876297, 0.21895873546600342, 0.0525871142745018, -0.259648859500885, 0.162113219499588, -0.06284534186124802, -0.10404016822576523, -0.15678249299526215, 0.09387829899787903, 0.3240707218647003, -0.14974042773246765, 0.2259732037782669, -0.02558440901339054, 0.02362239360809326, -0.1562798172235489, 0.03079952858388424, 0.29013791680336, -0.10746979713439941, 0.11691340804100037, -0.17804482579231262, 0.0436704196035862, -0.008797401562333107, -0.04272598773241043, 0.09608941525220871, -0.1395406275987625, 0.08829856663942337, -0.07210757583379745, -0.10664233565330505, 0.05230206251144409, -0.10932829231023788, 0.06942607462406158, 0.014006356708705425, -0.13476061820983887, -0.04723432660102844, 0.053304996341466904, 0.05599817633628845, 0.04985503479838371, -0.11371259391307831, 0.16704796254634857, 0.026326293125748634, -0.015054295770823956, 0.04692044481635094, -0.1417207568883896, -0.008990787900984287, -0.24735040962696075, 0.2543824315071106, -0.09765660762786865, 0.024659285321831703, 0.026439959183335304, -0.03499291092157364, -0.17843016982078552, -0.1401713341474533, 0.09489095956087112, -0.04187357425689697, -0.07851579785346985, 0.0535309761762619, -0.007828802801668644, -0.0024389263708144426, -0.1971442550420761, 0.11203744262456894, -0.08009835332632065, 0.008184378035366535, -0.09081845730543137, -0.16146312654018402, -0.03575728088617325, -0.11985626071691513, 0.1766214668750763, -0.04415666684508324, 0.06408476829528809, 0.028667695820331573, -0.07885363698005676, 0.04302321746945381, -0.17279812693595886, 0.15331192314624786, -0.07153070718050003, -0.03454158455133438, -0.001191598130390048, 0.05014609545469284, -0.026247842237353325, -0.0598747581243515, 0.13651974499225616, -0.02920541912317276, -0.03145741671323776, -0.012825810350477695, -0.14121496677398682, -0.026045938953757286, -0.058985624462366104, 0.12313570082187653, -0.18638378381729126, 0.035536229610443115, -0.10588442534208298, -0.1493520736694336, -0.14773651957511902, 0.020892690867185593, 0.1122775673866272, -0.01494652684777975, 0.07565685361623764, 0.06547079980373383, 0.043637897819280624, -0.1007474735379219, 0.14005494117736816, 0.15241967141628265, 0.10255233198404312, 0.03595449775457382, 0.1170491948723793, 0.1843063235282898, -0.18582062423229218, 0.12503644824028015, -0.12017346918582916, 0.04790479317307472, 0.051985155791044235, 0.02396709844470024, -0.010606411844491959, -0.22210392355918884, 0.07423117011785507, 0.18438367545604706, 0.11926150321960449, 0.09652361273765564, 0.1650552600622177, -0.0620519258081913, -0.20129302144050598, 0.07362166792154312, -0.02210029400885105, 0.14101801812648773, 0.16204088926315308, 0.14779220521450043, -0.053344860672950745, -0.06307997554540634, 0.04832538962364197, -0.08612994849681854, -0.005024659913033247, -0.0681479424238205, -0.0068085091188549995, -0.03162369877099991, -0.2829952836036682, -0.02949083223938942, 0.0017314436845481396, 0.04897801950573921, 0.1485854834318161, 0.08602160215377808, 0.09703052788972855, -0.055032867938280106, 0.12059226632118225, -0.00837939977645874, -0.07075554877519608, 0.012157240882515907, -0.005306555889546871, 0.24514105916023254, -0.2856486439704895, 0.11758425831794739, -0.049327362328767776, -0.05314766243100166, -0.07211992144584656, 0.002849891083315015, 0.21758140623569489, -0.04365648701786995, 0.03965664654970169, 0.0007167189032770693, -0.08182846754789352, -0.07704531401395798, -0.009591279551386833, 0.253278911113739, -0.12387385219335556, 0.13914600014686584, 0.0303163081407547, -0.06708075851202011, -0.01573760062456131, -0.053146857768297195, 0.14080588519573212, -0.04444077983498573, 0.01270343828946352, -0.04573950171470642, 0.12319309264421463, 0.020053908228874207, -0.21261033415794373, 0.1380530297756195, -0.09365136176347733, 0.085642971098423, 0.02011667937040329, -0.02496224083006382, -0.105341337621212, -0.08365204930305481, 0.25891825556755066, -0.06797754019498825, 0.05504617840051651, -0.04603130370378494, -0.07185276597738266, -0.1619575470685959, 0.02372591756284237, 0.16617794334888458, 0.1601635366678238, 0.13254499435424805, -0.1618468016386032, 0.14853473007678986, -0.011783336289227009, 0.17251192033290863, 0.28529462218284607, 0.26655301451683044, -0.14617951214313507, -0.2232615053653717, -0.00504129147157073, -0.011826977133750916, 0.07904553413391113, 0.1708962321281433, -0.023010700941085815, -0.22299489378929138, -0.06465473026037216, 0.1041877269744873, -0.053062111139297485, -0.0940522626042366, 0.36696332693099976, 0.049487221986055374, -0.019431792199611664, -0.18813394010066986, 0.07092256844043732, -0.00865509919822216, -0.0029278998263180256, 0.4449935853481293, 0.029240962117910385, -0.23011094331741333, -0.0720180794596672, 0.018439756706357002, 0.030525265261530876, -0.3643830418586731, 0.3913867771625519, -0.12116682529449463, -0.444607675075531, -0.08262240141630173, 0.1277623325586319, -0.046831924468278885, -0.24526380002498627, 0.3850683867931366, -0.031068328768014908, -0.20512698590755463, -0.23854780197143555, 0.10945463180541992, -0.06647323817014694, -0.2008240520954132, 0.4321434497833252, 0.16650903224945068, -0.16457721590995789, -0.17380283772945404, 0.013285038992762566, -0.011703774333000183, -0.13969825208187103, 0.4158053994178772, 0.011446412652730942, -0.028375595808029175, -0.21243824064731598, -0.12997081875801086, -0.030858388170599937, -0.16172312200069427, 0.6065219640731812, 0.11124393343925476, -0.1460576206445694, -0.1684078425168991, -0.1563565582036972, 0.12285050749778748, -0.08173473179340363, 0.342522531747818, 0.20852427184581757, 0.021335097029805183, -0.08584584295749664, -0.10837079584598541, 0.03946896269917488, -0.13485904037952423, 0.3270566463470459, 0.021286124363541603, -0.12028176337480545, 0.07523282617330551, -0.05619807168841362, 0.08516053855419159, 0.05250178277492523, 0.3066119849681854, 0.22101877629756927, -0.1384855955839157, -0.060513801872730255, -0.2359447032213211, 0.007969248108565807, 0.03300714120268822, 0.35825714468955994, 0.0934167355298996, -0.06571648269891739, -0.21621757745742798, -0.06419859826564789, 0.15684857964515686, -0.12118679285049438, 0.40328213572502136, -0.20757870376110077, 0.17500828206539154, -0.059200581163167953, 0.047455042600631714, 0.06310340017080307, -0.08866334706544876, 0.21580509841442108, -0.48712158203125, 0.19154128432273865, -0.12132635712623596, 0.15974678099155426, -0.04968995228409767, 0.05255206674337387, 0.0681300088763237, -0.015055621042847633, 0.10310222208499908, 0.2127000242471695, -0.1002943366765976, -0.0424514040350914, -0.12166918069124222], [-0.32564157247543335, -0.047297485172748566, 0.10444201529026031, 0.06120535358786583, -0.1267794519662857, -0.05590594932436943, 0.014079327695071697, -0.3510505259037018, 0.07803469151258469, -0.027166593819856644, 0.043589022010564804, -0.08926986157894135, -0.04243675246834755, 0.0015812425408512354, -0.3724576234817505, 0.11160577833652496, -0.04915911331772804, 0.04121038690209389, -0.06485866010189056, -0.027366425842046738, 0.16572576761245728, -0.2440224438905716, -0.01392799336463213, -0.193642720580101, -0.024085957556962967, -0.0280365701764822, 0.250839501619339, 0.09260495007038116, 0.1982390433549881, -0.09523937106132507, -0.08207804709672928, 0.012539969757199287, 0.11959398537874222, 0.5017821788787842, 0.15532003343105316, 0.08429345488548279, -0.12452248483896255, -0.01766331121325493, -0.03338618203997612, -0.009641127660870552, 0.3027227222919464, 0.008768037892878056, 0.1436987966299057, -0.12880834937095642, 0.016933105885982513, 0.1207413524389267, -0.04441140964627266, 0.09987236559391022, -0.015125622041523457, 0.24009022116661072, -0.15962806344032288, -0.03967876359820366, -0.14965572953224182, 0.11247149109840393, 0.26995137333869934, 0.007721669971942902, 0.2204461395740509, -0.05940886214375496, 0.08677070587873459, -0.005221257451921701, -0.033160608261823654, 0.27323049306869507, -0.019018705934286118, 0.3171039819717407, -0.16985200345516205, 0.07677115499973297, 0.029554449021816254, 0.0681828111410141, 0.20661431550979614, -0.03533903509378433, 0.1955338418483734, -0.022665956988930702, 0.19727586209774017, -0.06904802471399307, 0.05027780309319496, 0.14073458313941956, 0.013766111806035042, 0.045656491070985794, 0.0018140356987714767, 0.09595426172018051, 0.031562063843011856, 0.05235202983021736, 0.09880602359771729, -0.046818800270557404, 0.027646437287330627, 0.011364290490746498, 0.131654754281044, 0.007782788947224617, 0.04234711825847626, 0.07561498880386353, -0.03954694792628288, 0.10344798862934113, -0.022022051736712456, 0.1328240931034088, 0.09948264807462692, 0.07903940975666046, 0.08045381307601929, 0.04662778228521347, 0.0569739006459713, -0.0381225161254406, -0.014307612553238869, 0.017263447865843773, -0.007804057560861111, 0.12859565019607544, -0.1093718633055687, -0.02790406346321106, 0.012406048364937305, -0.07876720279455185, -0.06918501108884811, -0.02642335370182991, 0.10473023355007172, -0.0962723046541214, -0.0483950674533844, 0.0019804600160568953, -0.0013627539156004786, 0.062488824129104614, -0.0413297601044178, 0.014859359711408615, -0.09905374050140381, 0.0047514112666249275, 0.15279673039913177, -0.16582167148590088, 0.040543027222156525, 0.054843559861183167, -0.012144971638917923, -0.029532810673117638, -0.06454463303089142, 0.22423437237739563, -0.09510466456413269, -0.1275588870048523, 0.025580894201993942, -0.33830076456069946, 0.04094446823000908, -0.02172725461423397, 0.28449803590774536, -0.21223317086696625, 0.06885571777820587, 0.005910160019993782, -0.29425522685050964, -0.16481180489063263, 0.12945568561553955, 0.3945189118385315, -0.21381287276744843, -0.010846883058547974, 0.035848263651132584, -0.23918695747852325, -0.29493942856788635, 0.09962654858827591, 0.36178654432296753, -0.036766476929187775, 0.16135120391845703, -0.047600600868463516, -0.18674315512180328, -0.17898651957511902, -0.05212634429335594, 0.1587081104516983, -0.07804802805185318, 0.09099503606557846, -0.022214839234948158, -0.46682265400886536, -0.07878533005714417, 0.07047510892152786, -0.008041654713451862, -0.0014149966882541776, -0.020092127844691277, -0.017469825223088264, -0.44649022817611694, -0.15082788467407227, 0.002830848563462496, -0.06483541429042816, -0.08326715230941772, -0.050908830016851425, -0.03198164328932762, -0.48748111724853516, -0.05241737514734268, 0.10188205540180206, 0.05665897950530052, 0.12554006278514862, -0.048691052943468094, 0.018694084137678146, -0.4779411256313324, -0.01262351218611002, 0.08566674590110779, -0.06261266767978668, 0.06424717605113983, -0.0284801684319973, -0.0809415802359581, -0.16670149564743042, -0.15986958146095276, 0.1238613948225975, -0.043241798877716064, 0.1727406084537506, 0.021771904081106186, -0.017267988994717598, -0.3708392083644867, -0.12460964173078537, 0.06853737682104111, -0.08586759120225906, 0.16230933368206024, -0.02060380019247532, -0.056334059685468674, -0.5263582468032837, -0.17132465541362762, 0.21234546601772308, -0.08849138766527176, 0.2598164975643158, -0.05015771463513374, 0.014109044335782528, -0.5600186586380005, -0.13631661236286163, 0.08722901344299316, -0.01831742189824581, -0.016370277851819992, -0.07833567261695862, -0.052307143807411194, -0.28635820746421814, -0.11556875705718994, -0.11887845396995544, -0.03185903653502464, -0.017979687079787254, -0.08233983814716339, 0.013706423342227936, -0.30110689997673035, -0.07988234609365463, 0.07949918508529663, -0.034333933144807816, 0.08821067214012146, 0.03867023438215256, -0.07169461995363235, -0.2828454077243805, -0.09609844535589218, 0.09572125226259232, 0.1183152049779892, 0.010619272477924824, -0.03343730792403221, 0.0011906350264325738, -0.023631172254681587, 0.10078683495521545, 0.21398942172527313, 0.06022676080465317, 0.1688169538974762, -0.02285672351717949, 0.04192313551902771, -0.012599471025168896, -0.13345317542552948, 0.004230115097016096, 0.07276152819395065, -0.08032628148794174, -0.030520768836140633, -0.042222760617733, -0.03996632993221283, -0.13896746933460236, 0.06959842890501022, -0.04205166921019554, 0.04160420596599579, -0.007159760221838951, -0.016877079382538795, 0.21333181858062744, -0.169595405459404, 0.1386464387178421, 0.24798794090747833, -0.11514758318662643, 0.01597564108669758, -0.13147291541099548, 0.3317435681819916, -0.16043530404567719, -0.11449082940816879, -0.04419904947280884, -0.41786810755729675, 0.14867688715457916, -0.24370214343070984, 0.2793263792991638, -0.13439612090587616, 0.15576645731925964, 0.07633285969495773, -0.4772600829601288, -0.09863893687725067, -0.05840732529759407, 0.19174087047576904, -0.08516322076320648, 0.12938383221626282, -0.07737988233566284, -0.26397353410720825, 0.16867081820964813, -0.03904170170426369, 0.16044148802757263, -0.1403714269399643, -0.09644177556037903, 0.052679985761642456, -0.2110707312822342, 0.046105511486530304, 0.04544501379132271, 0.32267865538597107, -0.00946351233869791, 0.0261263158172369, -0.08729253709316254, -0.21707071363925934, -0.03931322693824768, 0.0397198460996151, 0.313081294298172, -0.03174383565783501, 0.06181333586573601, 0.014266201294958591, -0.23414617776870728, 0.04544850066304207, -0.026297181844711304, 0.27469563484191895, -0.07683967053890228, -0.06133037060499191, -0.35105961561203003, -0.33998990058898926, -0.007862437516450882, 0.04885480925440788, 0.4704446792602539, 0.04731977730989456, -0.24337796866893768, -0.07101189345121384, -0.21614377200603485, -0.08244140446186066, -0.041298989206552505, -0.026989243924617767, 0.2608286142349243, -0.07300084829330444, -0.0036660691257566214, -0.15480510890483856, 0.007685094606131315, -0.028972214087843895, -0.04725939407944679, 0.10932449996471405, -0.18683142960071564, 0.03812257945537567, -0.08899492770433426, -0.04998984932899475, -0.030532412230968475, 0.02275610715150833, -0.14536239206790924, -0.2135433703660965, -0.016001319512724876, 0.019880494102835655, 0.08170352876186371, -0.010804946534335613], [-0.4512304961681366, -0.08966763317584991, 0.07009493559598923, -0.132051482796669, 0.1072385311126709, 0.06415019184350967, -0.3338944911956787, -0.29390501976013184, -0.05282989516854286, -0.00740267476066947, 0.013003733940422535, 0.15359939634799957, -0.05199066549539566, -0.1557212620973587, -0.021351782605051994, -0.04576288163661957, -0.07228592783212662, -0.004346203990280628, 0.18473109602928162, 0.026119790971279144, -0.05883154645562172, 0.3020947277545929, 0.09803985059261322, -0.019407110288739204, -0.008985265158116817, 0.3313594162464142, 0.09453348815441132, -0.23948000371456146, 0.13391897082328796, 0.09347458928823471, -0.22111521661281586, 0.05589209869503975, 0.18556742370128632, -0.007857481949031353, -0.24396930634975433, 0.023497173562645912, 0.036996446549892426, -0.12461016327142715, 0.03825794905424118, 0.24587178230285645, 0.01270175538957119, -0.045051004737615585, 0.2923569679260254, -0.0027283341623842716, -0.17740671336650848, 0.007131881546229124, 0.22951671481132507, 0.03248588368296623, 0.0024078297428786755, 0.09432781487703323, -0.026329223066568375, -0.13198676705360413, 0.12809151411056519, 0.392384797334671, 0.014055546373128891, 0.02646421641111374, 0.17036445438861847, -0.002394728362560272, -0.2602999806404114, -0.17127856612205505, 0.4031793177127838, -0.05670200660824776, -0.08405948430299759, 0.021057825535535812, -0.01206532958894968, -0.3625319302082062, -0.00672520836815238, 0.5095968246459961, -0.04293060302734375, -0.0011843846878036857, 0.0863042101264, -0.009569179266691208, -0.4485144317150116, -0.07080916315317154, 0.4413074254989624, -0.01616974174976349, 0.17590774595737457, 0.09401781111955643, 0.10733585059642792, -0.32736843824386597, -0.05281566455960274, 0.6489779949188232, -0.027887189760804176, 0.022609133273363113, -0.1652761697769165, 0.16068020462989807, -0.4986632168292999, 0.10963883250951767, 0.2610744833946228, -0.1418031007051468, 0.10887928307056427, 0.0030367986764758825, 0.06848986446857452, -0.16041047871112823, 0.07650325447320938, 0.36740267276763916, -0.18321414291858673, -0.030196933075785637, -0.005527081433683634, -0.027164168655872345, -0.1998143494129181, -0.024274084717035294, 0.1839207410812378, -0.2827730178833008, 0.10621855407953262, -0.11718770116567612, 0.019681939855217934, -0.2853548228740692, -0.023259343579411507, 0.0679028332233429, -0.08924691379070282, 0.21476201713085175, -0.017705155536532402, -0.02025463990867138, -0.051447171717882156, 0.16511474549770355, 0.2967514395713806, -0.09901250153779984, 0.010199661366641521, -0.12040526419878006, 0.034254658967256546, 0.07626298069953918, 0.013004212640225887, 0.26614853739738464, -0.20028232038021088, -0.1205192506313324, -0.26728641986846924, -0.14598020911216736, -0.11135450750589371, -0.10987606644630432, 0.17803268134593964, -0.11480050534009933, 0.16952016949653625, -0.19500575959682465, -0.07364695519208908, 0.14370644092559814, 0.10833609104156494, -0.24509060382843018, -0.0311873946338892, 0.12791194021701813, -0.20629893243312836, -0.03910765424370766, 0.17047733068466187, 0.13403113186359406, -0.180294468998909, -0.09050221741199493, -0.07764744013547897, -0.0658513680100441, 0.01732013002038002, 0.10409657657146454, -0.08475860208272934, -0.15575683116912842, -0.05939998850226402, -0.09385816752910614, -0.13643501698970795, -0.03836102411150932, 0.14666219055652618, -0.014559773728251457, 0.1326351910829544, -0.2518695592880249, -0.06144758686423302, -0.11409556120634079, -0.04041947424411774, 0.09255137294530869, 0.047208599746227264, -0.06952198594808578, -0.16350489854812622, 0.07853702455759048, -0.006611973512917757, -0.13226039707660675, 0.183969184756279, 0.05151735618710518, -0.13638344407081604, -0.197685107588768, -0.09570460766553879, -0.10030464828014374, -0.001958525972440839, -0.000884805980604142, 0.04463774338364601, -0.0720284953713417, -0.24753069877624512, 0.23322626948356628, -0.04996071755886078, -0.17899973690509796, -0.003713415702804923, 0.07513672858476639, -0.018591318279504776, -0.1836714893579483, 0.08932292461395264, 0.015983551740646362, 0.051708582788705826, 0.017992530018091202, 0.031301457434892654, -0.03560512512922287, -0.18178224563598633, 0.08228644728660583, -0.0010405645007267594, 0.013154317624866962, -0.031674690544605255, -0.008932165801525116, 0.2684236466884613, -0.16137439012527466, 0.0022844162303954363, -0.07839355617761612, -0.044821325689554214, 0.08761382848024368, -0.05220603942871094, 0.17473380267620087, -0.04974276199936867, -0.003651804756373167, -0.12190146744251251, -0.07113576680421829, 0.0766640231013298, 0.10404331982135773, 0.12667173147201538, -0.2858552634716034, -0.13916945457458496, -0.09757371991872787, -0.05084135755896568, 0.19595447182655334, 0.05748196691274643, -0.04590744897723198, -0.21796314418315887, -0.009947954677045345, -0.048167165368795395, -0.05105636268854141, 0.06907688826322556, 0.030904939398169518, -0.14255958795547485, -0.15715688467025757, -0.13436003029346466, -0.16113778948783875, -0.009874599985778332, 0.011076604947447777, -0.07150859385728836, -0.03691890463232994, -0.1296960711479187, 0.09275362640619278, 0.02287346124649048, 0.1228158250451088, -0.0772026777267456, 0.031065819784998894, -0.07551903277635574, -0.1168094128370285, -0.061605002731084824, 0.08825861662626266, -0.02750295214354992, -0.0767604187130928, 0.15431299805641174, -0.10941246151924133, -0.26208117604255676, 0.011874346062541008, 0.06376224756240845, -0.02721504308283329, 0.038285303860902786, 0.07252504676580429, -0.18510401248931885, -0.19756253063678741, -0.1163216233253479, 0.29113948345184326, 0.1816708892583847, -0.2680925130844116, 0.07612371444702148, -0.23666803538799286, -0.1207299754023552, -0.051728904247283936, 0.10393347591161728, 0.15275073051452637, -0.2919893264770508, -0.0258848387748003, -0.11457261443138123, -0.04889737442135811, 0.06872300058603287, 0.09366118907928467, 0.11981881409883499, -0.11308024823665619, -0.10616300255060196, -0.08892901986837387, 0.10104797035455704, -0.08686323463916779, 0.21158747375011444, 0.02936331182718277, -0.13979323208332062, 0.1131427213549614, -0.00474249804392457, 0.13726592063903809, 0.06560830026865005, 0.04120991751551628, 0.01601272262632847, -0.10921920835971832, -0.14196009933948517, -0.015506253577768803, 0.023270288482308388, -0.18516968190670013, 0.01981920190155506, 0.09178183227777481, -0.27306944131851196, -0.11778654903173447, -0.07373727113008499, 0.10790690779685974, -0.06522542983293533, 0.07261841744184494, 0.010491804219782352, -0.09549369663000107, 0.05808774381875992, 0.021705342456698418, 0.025899501517415047, -0.15934805572032928, 0.13365431129932404, 0.05244608595967293, -0.12754788994789124, -0.020306287333369255, -0.012929857708513737, 0.16440962255001068, -0.054018501192331314, -0.029728975147008896, -0.19270198047161102, -0.09338188171386719, -0.0005785088869743049, -0.07378319650888443, 0.2903274893760681, -0.15240612626075745, -0.2689153850078583, 0.05263495072722435, -0.1474197506904602, -0.011409332044422626, 0.02681071124970913, 0.20522403717041016, -0.20824956893920898, -0.48767510056495667, -0.1019010990858078, 0.02953660860657692, -0.0615692213177681, -0.02117888629436493, -0.06266320496797562, -0.48367220163345337, -0.04315658658742905, 0.0755392462015152, -0.25936564803123474, -0.3171195983886719, 1.1025569438934326], [0.03414740040898323, -0.11167579889297485, -0.10472914576530457, 0.014309829100966454, -0.02764882892370224, 0.1236601322889328, -0.2079319953918457, -0.03643779084086418, 0.06292852014303207, -0.28465819358825684, -0.041018128395080566, -0.004957224242389202, 0.05897979065775871, 0.1090119257569313, -0.09581208974123001, 0.07124043256044388, -0.42247265577316284, 0.12563660740852356, -0.012503429315984249, -0.07341700047254562, 0.07234691828489304, 0.05684058368206024, 0.17901022732257843, -0.6860173344612122, -0.018510963767766953, 0.006467982195317745, -0.042300790548324585, -0.045899707823991776, 0.03354725241661072, 0.1945163607597351, -0.5985303521156311, -0.0024668301921337843, 0.017159441486001015, -0.17547549307346344, 0.11582770943641663, 0.03403564915060997, 0.11437579244375229, -0.4728315770626068, 0.08550211787223816, 0.07132110744714737, -0.2466515600681305, 0.12989191710948944, 0.12873055040836334, 0.06794171035289764, -0.4050951898097992, -0.06109102442860603, 0.12969249486923218, -0.30971866846084595, 0.058800630271434784, 0.18944427371025085, 0.12417342513799667, -0.24754725396633148, -0.00487500848248601, 0.006860025227069855, -0.19120946526527405, 0.06872840225696564, 0.02948850579559803, 0.013226021081209183, -0.15156051516532898, 0.054563023149967194, -0.09337733685970306, -0.48437967896461487, -0.018034661188721657, -0.035821426659822464, 0.03617990016937256, -0.06664280593395233, 0.06645405292510986, 0.06686586141586304, -0.7261760234832764, 0.024833982810378075, -0.22198759019374847, -0.0136328786611557, -0.08008083701133728, -0.13768748939037323, 0.03995922580361366, -0.6310374140739441, 0.04253348335623741, 0.019000258296728134, -0.15874530375003815, 0.1117299348115921, 0.008336341939866543, -0.046147387474775314, -0.5611268877983093, -0.007002906873822212, -0.07845279574394226, -0.03460618853569031, 0.20403926074504852, -0.043372951447963715, 0.03859679400920868, -0.5291725397109985, 0.0769895389676094, 0.018626723438501358, -0.004197694361209869, 0.08915882557630539, 0.05992690101265907, -0.004801797680556774, -0.44394436478614807, -0.041815418750047684, 0.04235340654850006, -0.013590579852461815, 0.17101532220840454, -0.024275097995996475, -0.08114723861217499, -0.6353515982627869, -0.08011413365602493, 0.04283490777015686, -0.06625178456306458, 0.08787932991981506, 0.04897279292345047, 0.10763854533433914, -0.775671660900116, -0.13797007501125336, 0.12112985551357269, -0.05128323659300804, 0.28108638525009155, -0.042447786778211594, -0.0535212941467762, -0.5627667903900146, -0.09866780787706375, -0.017856689170002937, -0.22349530458450317, 0.32557666301727295, -0.05622945725917816, 0.020511876791715622, -0.5608540773391724, -0.061920974403619766, -0.02604585513472557, -0.09503103047609329, 0.196449875831604, 0.06490395218133926, 0.06658829748630524, -0.5174537301063538, -0.17476707696914673, -0.01359876524657011, -0.16860894858837128, 0.2837696969509125, 0.08082278072834015, -0.003845264669507742, -0.3840986490249634, -0.1804942488670349, -0.014463819563388824, 0.11153578758239746, 0.34961605072021484, -0.0712660551071167, 0.024698972702026367, -0.5202731490135193, -0.15641969442367554, 0.024910537526011467, -0.14440853893756866, 0.25981584191322327, -0.10004714131355286, 0.10910443216562271, -0.46850183606147766, -0.1693476140499115, -0.016148045659065247, -0.13823795318603516, 0.18293538689613342, 0.028021471574902534, -0.03328467905521393, -0.3143724203109741, -0.3783518373966217, 0.014125988818705082, -0.010291233658790588, 0.3080068826675415, 0.04040323570370674, -0.08922301977872849, -0.5658632516860962, -0.1778145432472229, 0.018703166395425797, -0.10364118963479996, 0.23039178550243378, 0.058794014155864716, -0.04010866582393646, -0.5073473453521729, -0.07402056455612183, -0.0020715577993541956, -0.14078819751739502, 0.41811302304267883, 0.05990703031420708, 0.10149604082107544, -0.5343022346496582, -0.07075025886297226, 0.06618862599134445, -0.12827347218990326, 0.2470877766609192, 0.021397557109594345, -0.11794586479663849, -0.4235656261444092, -0.16318434476852417, 0.008083896711468697, -0.0785486251115799, 0.23087790608406067, -0.09968757629394531, -0.1692858189344406, -0.25666919350624084, -0.09871178865432739, 0.1504281461238861, -0.060806307941675186, 0.32071009278297424, -0.14809276163578033, -0.04167536646127701, -0.48898133635520935, 0.06793852150440216, 0.02022707276046276, -0.11151957511901855, 0.08268816024065018, 0.03787476569414139, 0.09094403684139252, -0.1549503207206726, -0.1347677856683731, 0.00993947684764862, -0.07450814545154572, 0.07440502196550369, -0.03321355581283569, 0.07984324544668198, -0.2831820249557495, 0.03480030968785286, -0.1131073385477066, 0.042721621692180634, -0.14312757551670074, 0.11139614135026932, 0.002500568050891161, -0.26547837257385254, -0.026949580758810043, 0.011003478430211544, -0.009548281319439411, -0.11764415353536606, -0.16932694613933563, -0.27962934970855713, -0.24734584987163544, 0.16029587388038635, -0.10249543935060501, 0.010725879110395908, -0.14475256204605103, -0.04718584194779396, -0.22284920513629913, -0.17847469449043274, 0.0777113288640976, -0.12628108263015747, 0.07835158705711365, -0.03508548438549042, 0.13936494290828705, -0.4462570250034332, -0.20937451720237732, 0.1764671355485916, -0.11767133325338364, 0.13025644421577454, -0.19204382598400116, -0.09583338350057602, -0.5456504225730896, -0.4789923429489136, 0.1934545636177063, -0.04886519908905029, 0.12119176238775253, -0.23977796733379364, -0.05282916501164436, -0.3773585557937622, -0.40168213844299316, 0.2849073112010956, -0.08591227233409882, 0.17935018241405487, -0.3062976598739624, 0.01499740220606327, -0.1645226627588272, -0.1693636029958725, 0.17325939238071442, 0.02828976698219776, 0.08670583367347717, -0.3279931843280792, -0.056104108691215515, 0.005683985538780689, -0.22060346603393555, 0.0036064335145056248, 0.07089439034461975, 0.015965228900313377, -0.5482774972915649, -0.07293474674224854, -0.0479663647711277, -0.1294790506362915, -0.03162386268377304, 0.0013731489889323711, 0.23798087239265442, -0.542011559009552, 0.018106680363416672, -0.026110460981726646, 0.050204478204250336, -0.008599032647907734, 0.09638716280460358, 0.20640453696250916, -0.6559244394302368, -0.15628769993782043, 0.11887387186288834, 0.0033107311464846134, -0.10626014322042465, 0.08176393061876297, 0.24492187798023224, -0.5043193101882935, -0.09936585277318954, 0.05535612627863884, 0.22825944423675537, -0.3454776704311371, -0.0681360736489296, 0.11619026213884354, -0.6000970602035522, 0.017133234068751335, -0.005007354076951742, 0.17680595815181732, -0.5031881928443909, 0.0849948599934578, 0.1592935025691986, -0.4821054935455322, 0.04553333297371864, 0.10532388836145401, 0.38856881856918335, -0.1375821828842163, 0.04717393219470978, -0.01786593720316887, -0.37022438645362854, -0.03675093874335289, -0.1265140026807785, 0.22470612823963165, -0.09045518934726715, 0.013041866011917591, -0.19798631966114044, -0.3516092300415039, -0.0436776764690876, -0.038132794201374054, 0.284591406583786, -0.5932796597480774, 0.09866363555192947, -0.31454071402549744, -0.2513948082923889, 0.0005272062844596803, 0.02182290516793728, 0.301999032497406, -0.45182380080223083, 0.05995582416653633, 0.08093634247779846, -0.6519789099693298, 0.5078644156455994, 0.34423890709877014], [-0.21782897412776947, -0.05124543979763985, 0.09950707107782364, 0.005706602241843939, -0.15194040536880493, -0.014876370318233967, 0.40850332379341125, -0.17642125487327576, -0.04781486839056015, 0.3648461401462555, 0.10984671115875244, -0.08928335458040237, -0.055158164352178574, 0.3616013824939728, -0.16115489602088928, 0.07721295207738876, -0.08685658127069473, -0.0020995899103581905, -0.05459897965192795, -0.04366785287857056, 0.40606093406677246, -0.3223913013935089, 0.021532412618398666, -0.22927972674369812, 0.09892259538173676, -0.10844407975673676, -0.08429870754480362, 0.47487562894821167, -0.1943977326154709, -0.09665405005216599, -0.2712905704975128, 0.009248294867575169, -0.06311719864606857, -0.19829846918582916, 0.136923685669899, 0.05002325028181076, -0.05853715538978577, -0.3909362852573395, -0.043180469423532486, 0.004187894519418478, -0.14820000529289246, 0.025195980444550514, -0.02473214827477932, -0.13499607145786285, -0.1805242896080017, 0.10880033671855927, -0.05499035492539406, 0.20599785447120667, -0.018053367733955383, -0.06588732451200485, -0.06980572640895844, -0.14259564876556396, 0.16016435623168945, -0.020239217206835747, 0.40834859013557434, 0.03600870445370674, 0.002098724478855729, -0.11766708642244339, -0.09867522120475769, -0.05781858041882515, -0.034109484404325485, -0.00308621977455914, 0.003005853621289134, 0.0762118399143219, -0.02385149523615837, -0.15685558319091797, -0.017082424834370613, -0.012528786435723305, 0.17499488592147827, 0.08430015295743942, 0.12718725204467773, 0.02688097022473812, -0.15379853546619415, -0.05523968115448952, 0.046759650111198425, 0.07369568943977356, 0.1218733862042427, -0.09161567687988281, 0.05608595535159111, -0.21415816247463226, 0.016633182764053345, -0.026451868936419487, 0.28887489438056946, 0.1204669326543808, -0.0766264945268631, -0.053176578134298325, -0.11985466629266739, 0.1361997276544571, -0.04146719351410866, 0.10708586126565933, 0.004522738512605429, 0.11033299565315247, -0.15580600500106812, -0.09288772195577621, -0.05778459087014198, -0.034102048724889755, 0.19190385937690735, -0.09067919850349426, -0.006045150104910135, -0.03700261190533638, -0.022316379472613335, -0.02263008803129196, -0.043458499014377594, 0.04920603334903717, 0.025625312700867653, -0.09106948226690292, -0.20605893433094025, -0.19196772575378418, 0.02237890101969242, -0.051268070936203, 0.14409250020980835, -0.14282375574111938, -0.0037378144916146994, -0.10935679823160172, -0.11252512037754059, 0.03334580734372139, -0.01915583945810795, 0.08366373181343079, -0.05016893148422241, 0.0408891923725605, 0.04366321116685867, 0.02000538818538189, 0.029748301953077316, 0.03477897867560387, 0.11280594021081924, 0.02986214868724346, 0.029152007773518562, 0.007595234550535679, -0.09194634109735489, 0.009763824753463268, 0.06493593007326126, 0.14629213511943817, -0.016755158081650734, -0.0308085810393095, -0.011725557036697865, -0.039567191153764725, 0.018341299146413803, 0.021990474313497543, 0.0023742627818137407, -0.07894134521484375, 0.013936460949480534, 0.056988272815942764, -0.0065780687145888805, 0.020234806463122368, -0.023653365671634674, 0.17011241614818573, -0.01882106065750122, 0.065687395632267, 0.02858653850853443, -0.05568188801407814, -0.09117282181978226, 0.02909841202199459, 0.07097485661506653, -0.03206775337457657, 0.018601050600409508, 0.13567470014095306, -0.027860604226589203, -0.10557921230792999, -0.013146225363016129, -0.0036066595930606127, -0.027794668450951576, -0.03340395912528038, 0.014691876247525215, -0.1715621054172516, 0.03323075920343399, 0.04473695158958435, 0.09307032823562622, -0.09608238935470581, 0.004246729891747236, 0.14809587597846985, -0.06983443349599838, 0.007897483184933662, 0.08130640536546707, 0.24929556250572205, -0.04282175377011299, 0.04478341341018677, 0.028477443382143974, -0.029309257864952087, -0.019933896139264107, 0.09341010451316833, 0.22040607035160065, -0.14210939407348633, 0.08344734460115433, 0.11409804224967957, 0.06449871510267258, -0.10053128749132156, 0.15612252056598663, 0.17645974457263947, -0.12714922428131104, -0.05491390451788902, 0.09227161109447479, -0.02953220345079899, -0.16172626614570618, 0.5365291833877563, 0.2031041532754898, -0.2289823293685913, 0.013964899815618992, 0.09819923341274261, 0.04716544598340988, -0.022168094292283058, 0.16974924504756927, 0.14846549928188324, -0.23199066519737244, -0.009263815358281136, 0.06099770963191986, -0.007358690723776817, 0.12317003309726715, 0.07052507996559143, 0.18960823118686676, -0.3613499104976654, 0.059770483523607254, 0.12209934741258621, 0.07299770414829254, 0.0032189039047807455, 0.1509251743555069, 0.20566758513450623, -0.23801469802856445, 0.01729457825422287, 0.05513901263475418, 0.07836629450321198, 0.017576755955815315, -0.06267368048429489, 0.29438516497612, -0.23233965039253235, 0.0500551275908947, 0.11761092394590378, 0.07328076660633087, 0.009495159611105919, 0.08498948067426682, 0.09435659646987915, -0.26546603441238403, 0.063127800822258, 0.12801134586334229, 0.06965100020170212, -0.14929825067520142, 0.07194752246141434, 0.28876543045043945, -0.2697005569934845, -0.0026137379463762045, 0.2519121766090393, 0.10913483798503876, -0.10477662831544876, 0.0881628766655922, 0.1538246124982834, -0.29429760575294495, -0.14962278306484222, 0.09529854357242584, 0.013898950070142746, -0.1408521980047226, 0.04935957491397858, 0.20940016210079193, -0.2716312110424042, -0.197882279753685, 0.13757619261741638, 0.0053683738224208355, -0.0793856605887413, 0.15068230032920837, 0.3446151912212372, -0.35909971594810486, -0.33063802123069763, 0.18261520564556122, -0.031401265412569046, -0.007783021777868271, 0.052972786128520966, 0.42256399989128113, -0.3131946921348572, -0.3745841085910797, 0.02999129518866539, 0.0023786728270351887, -0.08075825870037079, 0.053356412798166275, 0.47838789224624634, -0.15787652134895325, -0.3547990620136261, -0.034369319677352905, -0.08931861817836761, 0.020821625366806984, 0.06523379683494568, 0.39992251992225647, -0.07718638330698013, -0.32885271310806274, 0.013145976699888706, 0.0400739386677742, -0.1606776863336563, 0.0026258141733705997, 0.41279613971710205, -0.0811309963464737, -0.22210513055324554, -0.01245757844299078, -0.0069060008972883224, -0.13532987236976624, -0.04878294840455055, 0.43279969692230225, -0.09444214403629303, -0.06849180161952972, -0.12625722587108612, -0.08725304901599884, -0.07348752021789551, -0.00966451596468687, 0.2983807623386383, -0.05086638778448105, 0.018142718821763992, -0.00958680547773838, -0.20285780727863312, -0.12285934388637543, -0.014896237291395664, 0.21163755655288696, -0.000780566013418138, 0.06841373443603516, -0.15159890055656433, -0.025408117100596428, -0.027677295729517937, 0.00540505163371563, 0.21961911022663116, -0.013934846967458725, 0.19590811431407928, -0.1496105194091797, -0.009404964745044708, 0.013967247679829597, 0.06073152646422386, 0.18803870677947998, 0.18989063799381256, -0.06057325378060341, -0.10680977255105972, 0.07684388756752014, -0.006666878703981638, 0.011435471475124359, 0.1571040004491806, 0.389373779296875, -0.3180359899997711, -0.02130035124719143, -0.008426841348409653, -0.0071673146449029446, -0.0678609311580658, 0.15390756726264954, 0.36663463711738586, -0.2922476828098297, -0.07602515071630478, 0.008372342213988304, -0.18698972463607788, 0.4836353361606598], [0.043261028826236725, 0.026152824983000755, 0.6316594481468201, 0.0005003436817787588, 0.022051149979233742, -0.13449575006961823, 0.04063922166824341, -0.007650395855307579, 0.007765771821141243, 0.547523558139801, 0.003889689454808831, -0.04822586849331856, -0.00777500169351697, -0.0876493901014328, -0.013072265312075615, 0.13664549589157104, 0.39032697677612305, -0.05260491371154785, -0.09699566662311554, -0.015009707771241665, -0.19043976068496704, 0.06391855329275131, 0.09357781708240509, 0.2163771241903305, -0.07514537125825882, -0.07451194524765015, 0.032330047339200974, -0.11255722492933273, -0.08105289936065674, 0.06397505104541779, 0.16306686401367188, 0.12374380975961685, -0.14574505388736725, 0.06680279225111008, -0.09829998016357422, -0.05837603285908699, -0.0027413617353886366, -0.03708711639046669, 0.1247050017118454, -0.15385322272777557, -0.23425428569316864, 0.10185336321592331, -0.23333796858787537, -0.057480212301015854, 0.030110368505120277, -0.05654953792691231, -0.2972196638584137, -0.09265114367008209, 0.07553713023662567, -0.21161291003227234, -0.025623342022299767, -0.12483716011047363, 0.008701655082404613, -0.28596895933151245, -0.2424963414669037, 0.16100569069385529, -0.14643259346485138, -0.007619339972734451, -0.180495023727417, 0.0688990131020546, -0.20350804924964905, -0.11490008980035782, 0.22136694192886353, 0.011510645039379597, -0.05886995047330856, -0.3485438823699951, 0.025936830788850784, -0.3400787115097046, -0.005408186465501785, 0.20513030886650085, -0.030667493119835854, 0.15755081176757812, -0.5843650102615356, 0.05131194740533829, -0.30853843688964844, -0.06439320743083954, 0.3231704831123352, -0.07341767102479935, 0.1371505707502365, -0.759833574295044, -0.06196756288409233, -0.1530781388282776, 0.11174142360687256, 0.24462200701236725, 0.056865569204092026, 0.15887537598609924, -0.772685706615448, 0.04515593871474266, -0.012223709374666214, 0.010552449151873589, 0.2987045645713806, -0.022953690961003304, 0.20154181122779846, -0.4318767488002777, 0.022508487105369568, -0.1580430567264557, -0.031290628015995026, 0.215162992477417, 0.10978558659553528, 0.015702277421951294, -0.2298581898212433, -0.09012763947248459, -0.049145784229040146, -0.09734074771404266, -0.016132771968841553, 0.11003058403730392, 0.12343830615282059, 0.17033109068870544, 0.009618065319955349, 0.07124099880456924, 0.04847875237464905, -0.11629343777894974, 0.07829052209854126, -0.05953734368085861, -0.1467287689447403, -0.07721178978681564, 0.20527637004852295, 0.00202983058989048, -0.03299049660563469, 0.03354727476835251, 0.15317074954509735, -0.039656735956668854, 0.09338810294866562, -0.19434066116809845, 0.0012502303579822183, 0.057025305926799774, -0.010072623379528522, 0.029886065050959587, -0.08516121655702591, 0.0319175198674202, -0.1450595110654831, 0.13193318247795105, 0.06129669025540352, -0.05107368901371956, -0.057584017515182495, -0.11188147217035294, -0.06890397518873215, 0.07882644236087799, -0.0018438741099089384, 0.05608754977583885, 0.006170866545289755, -0.03288504481315613, -0.11997940391302109, -0.10677578300237656, -0.14518603682518005, -0.022456320002675056, 0.12366119772195816, -0.1255820393562317, 0.12372638285160065, -0.2443903386592865, 0.0413295216858387, -0.06347114592790604, -0.06408046931028366, 0.021954884752631187, 0.14437969028949738, 0.02328548952937126, -0.29528018832206726, 0.09177370369434357, 0.04097588732838631, -0.009314239956438541, 0.09468629211187363, 0.029851961880922318, 0.1013285368680954, -0.08269067853689194, 0.1364205777645111, -0.06373308598995209, 0.07575073838233948, 0.08726769685745239, -0.024662239477038383, 0.02401609905064106, -0.2661689221858978, 0.05323532968759537, -0.1982482373714447, 0.09016718715429306, 0.09289730340242386, 0.04386947676539421, 0.009826462715864182, -0.07094431668519974, -0.09373114258050919, -0.041534725576639175, -0.1847090721130371, 0.26179954409599304, 0.12636151909828186, 0.027570072561502457, -0.16886088252067566, 0.09965454787015915, 0.04328068345785141, -0.054608073085546494, 0.0019172918982803822, -0.015295393764972687, 0.03932444751262665, -0.13408297300338745, -0.01038067415356636, -0.06813520938158035, -0.05059368163347244, 0.17938271164894104, 0.014933504164218903, -0.1024443581700325, -0.29719477891921997, 0.04500865936279297, 0.2057243436574936, 