{"schema_version": 1, "metadata": {"global_step": 42545152, "run_name": "v102_b2beta", "obs_size": 341, "hidden_size": 64, "action_space_size": 18}, "weights": {"fc1.weight": [[0.23608478903770447, -0.0990370512008667, 0.00808687787503004, -0.054915718734264374, 0.05872485414147377, -0.011631932109594345, -0.06146940216422081, 0.15054944157600403, -0.004735804628580809, -0.22974394261837006, -0.01894732192158699, 0.0225631482899189, -0.07459580898284912, 0.01337185688316822, 0.09815991669893265, 0.1472872942686081, -0.06159882992506027, -0.10491219907999039, -0.0023820383939892054, -0.021473873406648636, -0.49128109216690063, 0.2292126566171646, -0.1009778380393982, 0.04330992326140404, 0.044964734464883804, -0.06395857781171799, -0.056034307926893234, -0.16914302110671997, 0.21709564328193665, -0.017072215676307678, -0.1408989429473877, 0.21999728679656982, 0.03310469537973404, -0.1803281605243683, 0.017020465806126595, 0.15891021490097046, -0.03705541044473648, -0.11706101894378662, -0.037794485688209534, 0.1645618975162506, 0.11510492861270905, -0.06376499682664871, 0.18911212682724, -0.0756833404302597, -0.11423654854297638, -0.09872739762067795, 0.07756547629833221, 0.1605907380580902, 0.010108450427651405, 0.06180393323302269, 0.15381069481372833, -0.13592937588691711, -0.016150062903761864, 0.036492668092250824, 0.12852253019809723, -0.12551799416542053, 0.22916749119758606, 0.06027868017554283, -0.3647163510322571, 0.18757782876491547, -0.015123000368475914, 0.030691752210259438, -0.15408867597579956, 0.08551514148712158, -0.04450589045882225, -0.1887238770723343, -0.07957407832145691, 0.04839096963405609, 0.30957671999931335, 0.04026106745004654, 0.12023092806339264, -0.03017863817512989, -0.22038117051124573, 0.05782438814640045, -0.10386110097169876, 0.13088582456111908, -0.1080106645822525, 0.12398711591959, 0.24214473366737366, -0.25972214341163635, -0.012726463377475739, 0.19671747088432312, 0.1628102958202362, 0.034775082021951675, 0.17321732640266418, -0.045160915702581406, -0.11552558094263077, -0.0410986989736557, -0.019801277667284012, -0.04348784685134888, 0.0025419830344617367, 0.22024065256118774, -0.009579858742654324, -0.14042504131793976, 0.009255492128431797, 0.12240104377269745, 0.09806410223245621, 0.05834932625293732, 0.1753658801317215, -0.03686528280377388, -0.13417267799377441, 0.17201298475265503, 0.04580195993185043, -0.003522781888023019, 0.0842069536447525, -0.03439510986208916, -0.16477954387664795, -0.20427297055721283, -0.11867991834878922, -0.05017096921801567, 0.09659966081380844, 0.08030126988887787, -0.03524697944521904, -0.07036373764276505, -0.0953686535358429, 0.16302445530891418, 0.019819824025034904, -0.02454431541264057, -0.10351543128490448, 0.1227850615978241, -0.023885438218712807, 0.0618225559592247, -0.04967937991023064, -0.10383092612028122, 0.05278853699564934, -0.07699063420295715, -0.008302086032927036, 0.06517883390188217, 0.11127612739801407, 0.028448719531297684, -0.004687107168138027, -0.14313115179538727, -0.06981611996889114, 0.04375584051012993, -0.2401476949453354, -0.013932335190474987, -0.025379730388522148, -0.021112287417054176, -0.1055176854133606, -0.020973579958081245, 0.054327744990587234, 0.03875604271888733, 0.0313158817589283, -0.048978857696056366, 0.02223418466746807, -0.0796976089477539, -0.12851206958293915, -0.02370503917336464, -0.0722656399011612, -0.09757006168365479, 0.1968642771244049, 0.03298564255237579, -0.3354027569293976, 0.05368581414222717, -0.009535868652164936, -0.08413459360599518, 0.105650894343853, 0.14844629168510437, -0.1269417405128479, -0.35181984305381775, 0.12902498245239258, 0.144774928689003, 0.06946262717247009, -0.10022158175706863, 0.037174053490161896, 0.007291030138731003, -0.5671669840812683, 0.27576589584350586, -0.04861944541335106, -0.028819000348448753, -0.12489129602909088, 0.11063992977142334, -0.23714296519756317, -0.5257354378700256, 0.09832105040550232, 0.06822209060192108, -0.009955200366675854, -0.03342678025364876, 0.032530587166547775, -0.48913636803627014, -0.7676371932029724, 0.1216864362359047, -0.10678781569004059, 0.11523076891899109, -0.15957535803318024, 0.005515762604773045, -0.5008350610733032, -0.886565625667572, 0.095931276679039, -0.047034796327352524, -0.0786438062787056, -0.13317374885082245, -0.008217346854507923, -0.038115762174129486, -0.8427430987358093, 0.1249697357416153, 0.023818431422114372, -0.08284338563680649, -0.08585122227668762, 0.025151744484901428, -0.09138336032629013, -0.8371644020080566, 0.14944452047348022, 0.01008386630564928, 0.11018777638673782, -0.16823697090148926, -0.03371693193912506, -0.34825262427330017, -0.79673171043396, 0.15199953317642212, 0.008821934461593628, 0.1270354986190796, -0.13201288878917694, -0.13780483603477478, -0.31688636541366577, -0.7164729237556458, 0.2096082866191864, 0.01572469063103199, 0.0837676152586937, -0.2362118810415268, -0.020384829491376877, -0.4101160764694214, -0.5071377158164978, 0.20228096842765808, 0.02843770943582058, 0.019118711352348328, -0.21072280406951904, -0.07783439755439758, -0.46350833773612976, -0.5716444253921509, 0.21493251621723175, 0.07271002978086472, 0.10564041137695312, -0.15544553101062775, -0.16065534949302673, -0.11410610377788544, -0.37176844477653503, 0.11201176047325134, 0.23199640214443207, -0.027854010462760925, -0.14658044278621674, -0.11362965404987335, -0.13460257649421692, -0.18639808893203735, 0.05157473683357239, -0.03246086835861206, 0.01331684086471796, -0.24258209764957428, 0.06540762633085251, 0.10139166563749313, -0.19955945014953613, 0.1897803246974945, 0.18191686272621155, 0.07085525989532471, -0.040879879146814346, 0.00810005608946085, -0.17854613065719604, -0.20682527124881744, 0.15478140115737915, 0.12055753171443939, 0.04938915744423866, -0.3332259953022003, -0.05229395255446434, -0.06197148934006691, -0.15466634929180145, 0.05331549420952797, 0.12609465420246124, -0.024318238720297813, -0.2911052703857422, -0.021722208708524704, -0.30166390538215637, -0.12847170233726501, 0.178925022482872, 0.03097897581756115, 0.061317238956689835, -0.28296035528182983, -0.060309819877147675, -0.18410874903202057, 0.04355157911777496, 0.12399525195360184, 0.08531162887811661, -0.0544719360768795, -0.16898925602436066, 0.02495807595551014, -0.08025410771369934, 0.21849820017814636, -0.08186772465705872, 0.021315019577741623, 0.09097056090831757, -0.5835199356079102, 0.08462193608283997, -0.029992304742336273, 0.05644574388861656, -0.17697784304618835, -0.025345416739583015, 0.07859835773706436, -0.29866108298301697, 0.025898244231939316, 0.20070786774158478, 0.13170181214809418, -0.05738256126642227, 0.17918279767036438, 0.0324745737016201, -0.3306768238544464, 0.007818708196282387, -0.050056420266628265, 0.19715264439582825, 0.1283719539642334, 0.020176459103822708, -0.10866870731115341, -0.3358877897262573, 0.028095463290810585, -0.007400311063975096, 0.1954212486743927, 0.19152124226093292, -0.2281867265701294, -0.007220149040222168, -0.017280759289860725, -0.05780032277107239, -0.07763826102018356, 0.05008130148053169, 0.34588387608528137, 0.08623220771551132, 0.035319648683071136, -0.132221058011055, -0.06586486846208572, 0.09806890785694122, 0.04486285522580147, -0.13082166016101837, 0.006472387816756964, -0.17619481682777405, -0.05343378335237503, 0.028232092037796974, 0.071174755692482, 0.05558224022388458, -0.3244858384132385, -0.02175111137330532, 0.2570808231830597, 0.7254313230514526, -0.1977323740720749, 0.7349288463592529], [-0.15056635439395905, 0.11114081740379333, -0.06107184663414955, -0.09144371002912521, 0.18974669277668, -0.0780101865530014, -0.2158045619726181, -0.18690557777881622, -0.0904584601521492, 0.010496838018298149, 0.08236707001924515, 0.054712869226932526, -0.09478641301393509, -0.09445317834615707, 0.007914740592241287, 0.14221550524234772, -0.04328194260597229, 0.026701979339122772, 0.15130165219306946, -0.13442279398441315, -0.10570146143436432, 0.059560298919677734, 0.19889959692955017, -0.10195326805114746, -0.07806600630283356, 0.16086246073246002, -0.10726051032543182, -0.20287422835826874, 0.131520614027977, 0.25090864300727844, -0.07301191240549088, 0.047376859933137894, 0.13906937837600708, -0.04893198236823082, -0.08278150856494904, 0.02065710723400116, -0.05970213934779167, 0.014638668857514858, -0.029537495225667953, 0.06458880752325058, -0.06591673940420151, 0.011355212889611721, 0.1905324012041092, 0.0778270959854126, -0.19238723814487457, 0.04235531762242317, 0.0261091236025095, -0.1593744456768036, 0.036871980875730515, 0.16132983565330505, 0.2355928122997284, -0.21817392110824585, 0.06037486344575882, 0.044723521918058395, -0.05647383630275726, 0.011718478053808212, 0.2322372943162918, 0.1507958471775055, -0.4734162986278534, 0.01251243520528078, 0.02022651582956314, 0.010481193661689758, 0.08801422268152237, 0.07075827568769455, -0.08311121165752411, -0.31055596470832825, -0.046092402189970016, 0.1481156051158905, 0.2969326972961426, -0.10898482799530029, 0.039228711277246475, 0.023465104401111603, -0.5322185158729553, 0.02783999964594841, 0.13412682712078094, -0.07046251744031906, 0.1595180481672287, 0.08956336975097656, 0.05736194923520088, -0.5774490237236023, -0.028499219566583633, 0.2019883543252945, 0.1772516369819641, 0.17226579785346985, -0.15967538952827454, 0.11627745628356934, -0.4308164119720459, -0.005420919973403215, -0.052748024463653564, 0.3023785650730133, 0.13764367997646332, 0.053715795278549194, 0.05203605443239212, -0.5646089911460876, -0.1722412407398224, -0.11080069839954376, 0.13896360993385315, 0.13578364253044128, -0.04731442779302597, 0.23099973797798157, -0.4812571108341217, -0.03249431028962135, -0.17731381952762604, 0.05448282137513161, 0.04781321808695793, 0.034886009991168976, 0.01528297271579504, -0.5975855588912964, -0.014233698137104511, 0.10174361616373062, 0.23886708915233612, 0.13935372233390808, 0.08274533599615097, 0.3058674931526184, -0.5579037070274353, -0.02567887492477894, -0.00461325328797102, 0.035860151052474976, 0.10058682411909103, -0.11335289478302002, 0.05238831043243408, -0.45254209637641907, 0.1438455730676651, -0.0939163938164711, 0.1438954472541809, 0.23540891706943512, 0.03711478039622307, 0.039977092295885086, -0.4538353681564331, -0.14667335152626038, 0.059588950127363205, 0.12097007036209106, 0.28839561343193054, -0.007638126611709595, 0.07268159836530685, -0.5343735814094543, -0.10775063931941986, 0.01734413020312786, 0.038933172821998596, 0.23026242852210999, -0.034905582666397095, 0.15384536981582642, -0.5593500137329102, -0.049182046204805374, 0.04008994996547699, 0.06624361872673035, 0.366061806678772, -0.07409389317035675, 0.0657254308462143, -0.33804386854171753, -0.053565409034490585, 0.14692562818527222, 0.029218727722764015, 0.2952413856983185, -0.06784290820360184, 0.09674646705389023, -0.0011272026458755136, 0.00046894553815945983, -0.15255199372768402, 0.07039808481931686, 0.01605578139424324, 0.036228276789188385, 0.07002931833267212, -0.05909925326704979, 0.03143664449453354, -0.016920560970902443, -0.20269273221492767, -0.17938564717769623, -0.08809980750083923, -0.12016794085502625, 0.25947901606559753, 0.0217220950871706, 0.0050661698915064335, -0.25386619567871094, 0.079042449593544, -0.08575259149074554, -0.21403415501117706, -0.017453188076615334, -0.05759405344724655, -0.15362495183944702, -0.019304268062114716, 0.04284028336405754, -0.08820898085832596, -0.20659343898296356, -0.03951327130198479, 0.020753249526023865, 0.05293816700577736, 0.03248026967048645, -0.062131285667419434, -0.046541400253772736, -0.08208814263343811, -0.03820054233074188, 0.004522170405834913, -0.05861666053533554, -0.062189728021621704, 0.09252196550369263, 0.005803800653666258, 0.012719908729195595, -0.15469615161418915, 0.04773859307169914, -0.1454891413450241, -0.22163870930671692, -0.015569050796329975, -0.09434577822685242, -0.09841670840978622, -0.07588857412338257, 0.06259340792894363, 0.03819441795349121, -0.1326027661561966, 0.04996762052178383, -0.2390693575143814, -0.2634086310863495, 0.19277448952198029, -0.22807128727436066, 0.09009987860918045, -0.22561177611351013, 0.03840523213148117, 0.005493965465575457, -0.15284669399261475, 0.15309478342533112, 0.06958667188882828, -0.16236063838005066, 0.11994777619838715, -0.006444799713790417, -0.2502782642841339, -0.13148537278175354, 0.0646880641579628, 0.10477858036756516, -0.20254097878932953, -0.05308375880122185, -0.11418359726667404, -0.282794326543808, -0.12351525574922562, 0.31970685720443726, 0.08446264266967773, -0.24699907004833221, -0.09501755237579346, -0.05709969997406006, -0.019157683476805687, -0.2351614385843277, 0.1597394347190857, -0.10208595544099808, -0.11951707303524017, 0.016326332464814186, 0.0501774363219738, 0.0589132085442543, 0.07394608855247498, 0.2797432839870453, -0.18415658175945282, -0.25477632880210876, -0.09506969898939133, 0.04694308713078499, -0.08858135342597961, 0.0761745423078537, 0.22938962280750275, -0.11843027919530869, -0.386024534702301, -0.07563166320323944, 0.010378033854067326, -0.14105826616287231, -0.06457790732383728, 0.26193028688430786, 0.09906752407550812, 0.2414722889661789, -0.1652393937110901, -0.012875162065029144, -0.13942022621631622, -0.2204183042049408, 0.27290254831314087, 0.024585800245404243, 0.22692711651325226, -0.1283121556043625, -0.014749388210475445, -0.09357141703367233, -0.16287903487682343, 0.187312051653862, 0.07016868889331818, 0.05405910313129425, -0.0538901761174202, 0.24662192165851593, -0.01789206825196743, -0.2775339186191559, 0.26997697353363037, 0.05995814874768257, -0.21858513355255127, -0.22118408977985382, 0.21799254417419434, -0.038776181638240814, -0.18274441361427307, 0.32674095034599304, 0.01809859275817871, 0.09514816105365753, -0.07212819904088974, 0.1251835972070694, -0.005865475162863731, -0.2688921093940735, 0.3284960091114044, 0.062062643468379974, -0.1516609936952591, -0.09830555319786072, 0.3750208616256714, 0.05394637957215309, -0.21878565847873688, 0.38767296075820923, -0.07792642712593079, -0.07937856018543243, -0.2661083936691284, 0.19266556203365326, 0.2075691670179367, 0.011990572325885296, 0.0955183357000351, 0.07163932174444199, -0.11476724594831467, -0.10251082479953766, 0.3831997513771057, 0.25127291679382324, -0.01860964670777321, 0.21529749035835266, -0.1262567788362503, -0.009749861434102058, -0.01251094602048397, 0.31687039136886597, 0.22208507359027863, 0.034771453589200974, 0.03956323489546776, -0.03648635745048523, -0.07729077339172363, -0.011651740409433842, 0.35587626695632935, -0.02636452578008175, -0.14840306341648102, -0.08229433745145798, 0.09923943877220154, 0.029631003737449646, -0.10035963356494904, 0.4203833341598511, -0.18492744863033295, 0.16727954149246216, -0.6286367177963257, 0.3981243968009949, -0.3227889835834503], [0.3387833833694458, -0.06340788304805756, 0.3188702464103699, 0.010060099884867668, -0.1768645942211151, 0.07699540257453918, 0.02990918979048729, 0.11326086521148682, -0.03167622536420822, 0.18859604001045227, 0.043199822306632996, -0.14259761571884155, 0.12785816192626953, 0.04740208387374878, -0.23302416503429413, 0.016548778861761093, 0.15786445140838623, 0.06300079822540283, -0.18558834493160248, -0.01957682892680168, 0.20059828460216522, 0.06665258854627609, 0.10333186388015747, -0.07515618950128555, -0.1000923365354538, -0.0824781134724617, -0.05042609944939613, 0.009541272185742855, 0.17686793208122253, 0.16383185982704163, -0.16069813072681427, -0.07592672854661942, -0.2100030928850174, -0.15869250893592834, 0.07976771891117096, 0.2617828845977783, 0.01637350581586361, -0.27684321999549866, -0.12388496100902557, 0.04940272122621536, -0.13272283971309662, -0.1458551585674286, 0.2890830338001251, 0.042462751269340515, -0.11201183497905731, 0.10511364042758942, 0.031081898137927055, -0.07877878844738007, -0.0027225676458328962, 0.3244621157646179, 0.15272265672683716, -0.14547468721866608, 0.08069762587547302, 0.017237205058336258, -0.12554119527339935, 0.133815735578537, 0.10291937738656998, 0.025931254029273987, -0.11623900383710861, 0.06563236564397812, -0.07646875828504562, -0.04576151818037033, -0.047223735600709915, 0.20370417833328247, 0.04915781691670418, -0.10336562246084213, 0.13838455080986023, -0.08223813027143478, -0.03017459623515606, 0.04395054280757904, 0.007806721143424511, -0.006940195802599192, -0.07295229285955429, -0.009093906730413437, -0.1138124167919159, -0.04922296851873398, -0.03258412703871727, -0.0012147866655141115, -0.08840911835432053, 0.37693530321121216, 0.05215265229344368, -0.23235869407653809, -0.06469690054655075, -0.13252854347229004, 0.006010545417666435, -0.1653701215982437, 0.5537278056144714, -0.09399597346782684, -0.1282462775707245, -0.022848935797810555, 0.01730828545987606, -0.10940878838300705, -0.14083565771579742, 0.3641180396080017, -0.01493065431714058, -0.06365512311458588, -0.06660544127225876, -0.08594415336847305, 0.024457603693008423, -0.2740808427333832, 0.2136983424425125, -0.008998755365610123, -0.172979474067688, 0.003377397544682026, -0.18150022625923157, -0.10276273638010025, -0.07057584822177887, 0.19488482177257538, 0.03250672295689583, -0.18135148286819458, -0.03523586690425873, 0.007291130255907774, -0.24473614990711212, -0.24861668050289154, 0.3962140679359436, 0.03846248984336853, -0.01628679595887661, -0.028133226558566093, -0.33914506435394287, -0.2073613852262497, -0.15559393167495728, 0.2781931459903717, -0.06178133189678192, -0.050452664494514465, -0.0315396785736084, -0.18233846127986908, -0.0565011128783226, -0.20189255475997925, 0.3064715266227722, 0.02578406035900116, 0.05678918957710266, -0.03249368071556091, -0.340783953666687, -0.1954754889011383, -0.08986499905586243, 0.22645407915115356, 0.22949232161045074, 0.0013728508492931724, -0.16612644493579865, -0.12050414830446243, -0.031057439744472504, -0.2394178807735443, 0.2191121131181717, 0.07602642476558685, -0.0056134476326406, -0.041149210184812546, -0.04507462680339813, -0.22201789915561676, -0.3401598632335663, 0.17379386723041534, -0.15351128578186035, -0.15364059805870056, -0.08121450990438461, 0.05465368181467056, -0.1500963717699051, -0.3512553870677948, 0.24243521690368652, 0.1259697526693344, -0.3472711741924286, -0.018395939841866493, 0.1108512431383133, -0.01968066766858101, -0.26745644211769104, 0.1373925507068634, 0.053362809121608734, -0.23223669826984406, -0.02303549274802208, 0.15856342017650604, -0.0938849151134491, -0.2709084153175354, 0.3301350474357605, 0.06956405192613602, -0.3248688876628876, 0.052520301192998886, 0.0438169464468956, -0.168585866689682, -0.4374505281448364, 0.1543843001127243, -0.09543885290622711, -0.4130863845348358, 0.1827848255634308, 0.0024059496354311705, -0.2914476990699768, -0.21299618482589722, 0.23956067860126495, -0.05343889445066452, -0.20677806437015533, -0.018006082624197006, -0.14016085863113403, -0.3551740348339081, -0.15972159802913666, 0.2591628432273865, 0.05372083559632301, -0.21953335404396057, -0.06800676882266998, -0.22950373589992523, -0.2791481912136078, -0.056331466883420944, 0.2012174129486084, 0.08371531963348389, -0.29521170258522034, -0.001897722133435309, -0.22806541621685028, -0.20201240479946136, -0.05349784716963768, 0.20286835730075836, 0.030053088441491127, -0.23579728603363037, 0.0033822704572230577, -0.18098483979701996, -0.12386661767959595, 0.10442177951335907, 0.12713775038719177, -0.1313277781009674, -0.4595719873905182, -0.1236385703086853, -0.05711629241704941, 0.13551947474479675, 0.04790803790092468, 0.09870965033769608, -0.15654915571212769, -0.23677189648151398, -0.020728865638375282, -0.29042544960975647, 0.03565782681107521, -0.05026966333389282, 0.0556553490459919, -0.06603549420833588, -0.5367406010627747, -0.032420266419649124, -0.017366759479045868, 0.3375476002693176, 0.2397659718990326, -0.21452388167381287, 0.06050267070531845, -0.11756843328475952, 0.03457750752568245, 0.07279852032661438, 0.2168356478214264, 0.14671994745731354, -0.25086572766304016, 0.08746787160634995, -0.17580531537532806, 0.12882040441036224, -0.1973927766084671, 0.09410827606916428, 0.023448893800377846, -0.2848258912563324, -0.0002421017998130992, -0.21239766478538513, -0.012020441703498363, -0.13211752474308014, 0.22070270776748657, 0.20076684653759003, -0.18036313354969025, -0.05761312320828438, -0.1951073408126831, 0.13942934572696686, -0.10781987756490707, 0.06177354231476784, 0.2787335515022278, -0.0914238691329956, 0.00017581589054316282, -0.12635113298892975, 0.003776420373469591, -0.13352084159851074, 5.236142533249222e-05, 0.0711526870727539, -0.24093186855316162, 0.035207349807024, 0.062291234731674194, 0.14569927752017975, -0.037915103137493134, -0.10726000368595123, 0.0364752858877182, -0.08311742544174194, -0.12952381372451782, -0.12048450112342834, 0.24738097190856934, -0.092351533472538, -0.036113191395998, 0.09071719646453857, -0.2619113326072693, -0.15665893256664276, -0.19037750363349915, 0.050813015550374985, -0.04011239483952522, -0.04124265909194946, -0.03854852542281151, -0.2793332040309906, 0.09803000837564468, -0.055175863206386566, -0.07896781712770462, -0.014232059940695763, 0.11847536265850067, 0.032520394772291183, -0.05034160241484642, 0.09027538448572159, -0.1924305111169815, -0.02514922060072422, 0.17932695150375366, 0.016691094264388084, -0.0911213755607605, -0.22658191621303558, 0.1523560881614685, -0.06736713647842407, 0.03419899195432663, -0.04089391976594925, 0.2375999540090561, -0.10807139426469803, -0.1415925770998001, 0.15681235492229462, -0.08799166232347488, 0.14844799041748047, -0.04061954468488693, -0.11503466963768005, -0.13504493236541748, -0.04667271301150322, -0.04540396109223366, -0.1837880164384842, 0.13040128350257874, -0.016916541382670403, -0.042120929807424545, -0.123688705265522, 0.3608981668949127, 0.005014629103243351, -0.188752219080925, 0.0507877953350544, -0.011890389956533909, -0.02983691915869713, -0.010139518417418003, 0.3406592309474945, 0.012528648599982262, -0.11437917500734329, -0.07413133978843689, 0.18360866606235504, -0.18780077993869781, 0.27869752049446106, 0.2787288725376129, -0.5295015573501587, -0.8308994770050049], [-0.1891055554151535, -0.07228000462055206, 0.057125866413116455, 0.02832574024796486, -0.061502255499362946, -0.12561853229999542, 0.03311505541205406, -0.13603974878787994, -0.10124509781599045, -0.07006239891052246, -0.004895247519016266, -0.01159778330475092, -0.0949961468577385, 0.3623819351196289, -0.30383574962615967, 0.04650704190135002, 0.3148025572299957, -0.017490606755018234, -0.03146849200129509, -0.16896967589855194, 0.3378351926803589, -0.14661991596221924, -0.03809830918908119, 0.44956859946250916, -0.03964352235198021, -0.023831870406866074, -0.21866364777088165, 0.32053348422050476, -0.28358983993530273, -0.12277168035507202, 0.4291982650756836, 0.10312582552433014, -0.010860851965844631, 0.0704340860247612, 0.1400422602891922, 0.18553797900676727, -0.12497824430465698, 0.3704114556312561, 0.003385254880413413, -0.047623950988054276, -0.1804695427417755, 0.11982489377260208, 0.05690033361315727, -0.07776999473571777, 0.38726839423179626, -0.006958015263080597, 0.15741264820098877, -0.03399308770895004, 0.016601838171482086, 0.04412858560681343, -0.11460226774215698, 0.45100048184394836, 0.06865082681179047, 0.07130515575408936, -0.03504588082432747, -0.16898435354232788, 0.2498614341020584, -0.057416509836912155, 0.3579223155975342, 0.06610549241304398, 0.1696920394897461, -0.1536891609430313, -0.0514397919178009, 0.0647086426615715, -0.1900358647108078, 0.32799333333969116, -0.08276558667421341, -0.0010872790589928627, 0.03749051317572594, -0.12620246410369873, 0.2742433249950409, -0.13896812498569489, 0.4111076295375824, 0.07209935784339905, 0.04508954659104347, -0.07147464901208878, 0.03789933770895004, 0.044092416763305664, -0.1734427511692047, 0.14717024564743042, 0.0736277848482132, 0.09507061541080475, -0.06687220185995102, 0.029583433642983437, 0.16035306453704834, -0.07534246891736984, 0.19188952445983887, -0.025585560128092766, -0.03899349644780159, -0.08961435407400131, 0.007491409312933683, 0.08202523738145828, -0.037565700709819794, 0.0604848638176918, -0.041745901107788086, 0.0633561760187149, 0.1042991578578949, -0.01934824325144291, 0.027078382670879364, 0.005755985621362925, 0.1106015220284462, 0.005690598860383034, -0.013397886417806149, -0.009430441074073315, 0.0041438802145421505, -0.04602983593940735, -0.19363637268543243, -0.17598380148410797, 0.0370979942381382, -0.08831276744604111, -0.020229561254382133, -0.046270906925201416, 0.011071018874645233, 0.062250230461359024, -0.26527726650238037, 0.09490296244621277, 0.042665962129831314, -0.013341274112462997, 0.03420373052358627, 0.09139535576105118, 0.04458479955792427, -0.27157652378082275, -0.09986358135938644, 0.051792748272418976, -0.05186045169830322, 0.12710583209991455, 0.10927971452474594, 0.1155431792140007, -0.366649329662323, 0.1115085706114769, 0.09600277245044708, 0.017239805310964584, 0.09646634757518768, 0.17086844146251678, 0.09914083778858185, -0.8099974393844604, -0.05743371322751045, 0.0065925996750593185, 0.10020343959331512, 0.22928749024868011, 0.25080668926239014, 0.12428920716047287, -0.6002256274223328, -0.08733256161212921, 0.08077877014875412, 0.04552694782614708, 0.20432353019714355, 0.20122501254081726, 0.11258849501609802, -0.5460579991340637, -0.07331470400094986, 0.18940086662769318, 0.06594737619161606, 0.22336791455745697, 0.16878642141819, 0.2744467556476593, -0.3978935182094574, -0.06442153453826904, 0.0555666945874691, 0.05398787558078766, 0.28004971146583557, 0.1739039272069931, 0.26537540555000305, -0.3268289566040039, 0.17352250218391418, -0.01944841258227825, 0.014837734401226044, 0.21303027868270874, 0.028979092836380005, 0.26167014241218567, -0.3898722231388092, 0.07098957151174545, 0.08372790366411209, 0.04989612475037575, 0.11248821020126343, 0.0872032567858696, 0.2463519424200058, -0.18298202753067017, -0.05391520634293556, 0.048702895641326904, 0.12422860413789749, 0.18469898402690887, 0.050185658037662506, 0.11871359497308731, -0.3056876063346863, 0.0605519637465477, 0.02763397991657257, 0.03242167830467224, 0.09679506719112396, 0.051416438072919846, 0.12684373557567596, -0.1881827414035797, -0.012231928296387196, -0.02787676639854908, -0.08201371878385544, 0.02621936798095703, -0.22015522420406342, 0.11581475287675858, -0.22464558482170105, 0.007894153706729412, -0.014143615029752254, 0.047907665371894836, 0.07710006088018417, -0.062365081161260605, 0.12412475049495697, -0.22212351858615875, 0.04373391717672348, 0.013041188940405846, -0.013711855746805668, 0.007994348183274269, -0.24500006437301636, 0.0817842185497284, -0.1491246372461319, 0.12325693666934967, 0.017294375225901604, 0.02749278023838997, -0.05926504731178284, -0.29777538776397705, 0.145611971616745, -0.18083006143569946, -0.01401201169937849, -0.02913212589919567, -0.012327553704380989, -0.09001578390598297, -0.15352804958820343, -0.014767298474907875, -0.15224500000476837, -0.037408821284770966, -0.10431943833827972, 0.17649434506893158, -0.13864745199680328, -0.12133420258760452, 0.05242184177041054, -0.003626852296292782, -0.07265857607126236, -0.004300609230995178, 0.30688580870628357, -0.028999757021665573, -0.12150237709283829, -0.04241623729467392, -0.12855233252048492, 0.10150512307882309, -0.05866463482379913, 0.4181906580924988, -0.035749468952417374, -0.0884845033288002, 0.0718809962272644, 0.053968846797943115, -0.11968178302049637, -0.01896483451128006, 0.3946000337600708, 0.06072527542710304, -0.03211095184087753, 0.0005761427455581725, -0.10511937737464905, 0.049319520592689514, -0.04139365628361702, 0.4583287239074707, -0.02185233123600483, -0.09114986658096313, -0.0417235791683197, -0.08312273770570755, 0.08680146932601929, -0.06690943241119385, 0.3765120208263397, -0.05253788083791733, 0.0024283293168991804, 0.02588684670627117, 0.12394174933433533, 0.004757919814437628, -0.06873159855604172, 0.3658067286014557, 0.025989174842834473, 0.0468280166387558, 0.019991621375083923, 0.059005528688430786, -0.1110849529504776, -0.03514345362782478, 0.2481827586889267, -0.07259950786828995, -0.06837144494056702, -0.022277984768152237, 0.46133649349212646, 0.0071242437697947025, -0.05523449555039406, 0.09107274562120438, -0.1743447482585907, -0.07705892622470856, -0.06209997460246086, 0.43552619218826294, 0.019863538444042206, -0.01959552802145481, 0.2140718251466751, -0.04910373315215111, 0.026462534442543983, -0.11601363867521286, 0.39857345819473267, -0.08426429331302643, -0.11863359063863754, 0.2214156687259674, -0.07341128587722778, 0.04823466017842293, -0.22417083382606506, 0.5006539821624756, -0.00637812539935112, -0.05149044841527939, 0.24481524527072906, -0.059752535074949265, 0.09403762221336365, -0.27078211307525635, 0.43790575861930847, 0.027896730229258537, -0.1018306314945221, 0.45835354924201965, -0.15941287577152252, 0.25350311398506165, -0.3082204759120941, 0.31347694993019104, -0.005614932160824537, -0.04479697719216347, 0.11520007252693176, -0.04916901886463165, -0.1586826592683792, 0.0067528728395700455, 0.3690967559814453, -0.07234316319227219, -0.045402273535728455, 0.12204192578792572, -0.1628674566745758, -0.06083337590098381, -0.12276191264390945, 0.430450439453125, -0.11132608354091644, -0.16043736040592194, -0.0487186498939991, -0.16301241517066956, -0.1273403912782669, 0.09410718828439713, 0.16905319690704346, -0.775898814201355, -0.1474415808916092], [-0.38377079367637634, 0.15521971881389618, 0.07712996751070023, 0.08534801006317139, -0.0066277626901865005, 0.14190705120563507, 0.0057241409085690975, -0.1408018320798874, 0.08122038096189499, 0.38706162571907043, 0.05821864679455757, -0.04430587962269783, -0.21022044122219086, -0.10368127375841141, 0.10853385180234909, -0.2333044558763504, 0.027301769703626633, 0.12903854250907898, -0.012136507779359818, 0.06373705714941025, -0.11927244067192078, 0.0991419330239296, -0.14700330793857574, -0.13024333119392395, 0.1367024928331375, 0.01911715790629387, 0.048925235867500305, 0.13293132185935974, 0.03659924492239952, -0.10528458654880524, 0.24452416598796844, 0.06165297329425812, 0.035627610981464386, 0.4911922216415405, -0.05700722336769104, -0.14566047489643097, -0.11106742918491364, 0.1510172039270401, -0.041632045060396194, 0.15972380340099335, 0.42149731516838074, -0.10291603207588196, -0.12509657442569733, -0.3090667128562927, 0.36467641592025757, -0.06548328697681427, 0.1017117127776146, 0.17530427873134613, -0.015678640455007553, -0.0864543616771698, 0.02804870903491974, 0.2848699986934662, -0.02346479706466198, 0.08815287053585052, 0.046567585319280624, -0.043814923614263535, -0.376207172870636, -0.17201219499111176, 0.16712430119514465, -0.024882201105356216, 0.26728856563568115, 0.278890997171402, -0.0815359428524971, -0.25293463468551636, -0.1531802862882614, 0.0891651138663292, -0.0946199893951416, 0.5586191415786743, -0.19178079068660736, 0.13761302828788757, -0.3640768527984619, -0.07189933955669403, 0.14882589876651764, -0.027156198397278786, 0.30258721113204956, 0.11744104325771332, 0.1834372729063034, -0.24218909442424774, -0.14561842381954193, -0.13841497898101807, -0.000755309360101819, 0.1718340516090393, 0.1593600958585739, -0.025524942204356194, -0.05837171897292137, 0.14245940744876862, -0.10731209069490433, 0.05027681216597557, 0.32720670104026794, 0.19477854669094086, -0.08759696036577225, -0.030362028628587723, 0.1805432140827179, -0.13626083731651306, 0.11709010601043701, 0.0519181564450264, 0.11289869248867035, -0.028766905888915062, 0.03431694954633713, 0.24362865090370178, -0.0733909159898758, -0.007647364865988493, -0.0022712917998433113, 0.19589026272296906, -0.10548589378595352, 0.03343934565782547, 0.23507633805274963, -0.08069874346256256, -0.027183206751942635, -0.0843568742275238, -0.034642741084098816, -0.10473931580781937, 0.17281320691108704, 0.026652606204152107, 0.017578482627868652, 0.04527566581964493, 0.10701295733451843, -0.04276242479681969, -0.18063566088676453, 0.21597999334335327, 0.21793456375598907, -0.0384921133518219, -0.06655128300189972, 0.2077299803495407, -0.02644260972738266, -0.14185179769992828, 0.022323990240693092, 0.1592925488948822, -0.07261264324188232, -0.08307338505983353, 0.05454215034842491, 0.1117902547121048, -0.12157618254423141, 0.07734999060630798, 0.08889532089233398, -0.04731006920337677, -0.09747911244630814, 0.07159975916147232, -0.004167028237134218, -0.06368708610534668, -0.027277471497654915, 0.06161261349916458, 0.1210765391588211, -0.0012433797819539905, 0.24375970661640167, -0.11546158045530319, 0.06061083450913429, -0.03377404436469078, -0.08435634523630142, -0.017803600057959557, -0.050605881959199905, 0.35007521510124207, 0.06936816871166229, 0.01149629708379507, -0.10922025889158249, 0.11301947385072708, 0.1815427839756012, -0.048669394105672836, 0.4851350486278534, -0.21525904536247253, 0.0421648733317852, -0.12287016212940216, 0.14018210768699646, -0.04841344803571701, 0.08628635853528976, 0.3587084710597992, 0.06084667891263962, -0.05403725802898407, -0.14048616588115692, 0.13447429239749908, 0.08125146478414536, 0.053669918328523636, 0.28714892268180847, -0.21404407918453217, 0.04917207732796669, -0.127651184797287, -0.00653615640476346, -0.05331575497984886, -0.00561728049069643, 0.37295809388160706, 0.05872071161866188, 0.005120349582284689, -0.17729049921035767, -0.06411830335855484, 0.0735061839222908, -0.09841921180486679, 0.053039707243442535, 0.08903825283050537, -0.06131401285529137, -0.2816513180732727, 0.03232913836836815, 0.14296962320804596, -0.017697378993034363, -0.03709464147686958, -0.0743359848856926, -0.012785573489964008, -0.3990544080734253, 0.13174445927143097, 0.12748399376869202, -0.0038977970834821463, 0.2056085467338562, 0.06377118825912476, -0.08693838119506836, -0.254306435585022, -0.07943989336490631, 0.18418048322200775, -0.05656886100769043, 0.31227588653564453, 0.1264195740222931, 0.01353308092802763, -0.16401571035385132, 0.0668468028306961, 0.08546730130910873, -0.07960522174835205, 0.15459588170051575, -0.018787862733006477, -0.014481965452432632, -0.06317819654941559, 0.17503832280635834, 0.1913251429796219, -0.09752179682254791, 0.1045624241232872, -0.009782146662473679, -0.16605201363563538, -0.12510836124420166, 0.0539211742579937, 0.3434204161167145, -0.06686633080244064, 0.04029933363199234, -0.11928822100162506, -0.08453607559204102, -0.28704357147216797, 0.10699323564767838, 0.19085441529750824, 0.13499614596366882, 0.07621285319328308, -0.023202672600746155, -0.07812096178531647, -0.280687540769577, 0.028737178072333336, 0.08505985140800476, -0.0854724571108818, 0.10348600149154663, 0.19718234241008759, 0.056109681725502014, -0.2574186623096466, 0.024097241461277008, 0.17407888174057007, -0.024996617808938026, 0.02856428734958172, -0.18683624267578125, 0.06263794004917145, -0.4140414893627167, -0.02529337629675865, 0.31224942207336426, -0.03832685947418213, 0.03507522866129875, -0.07089877128601074, 0.07296949625015259, -0.3397635817527771, -0.08700193464756012, 0.3931698501110077, -0.04505737125873566, 0.014574415050446987, -0.04270956665277481, -0.05018455907702446, -0.10940790921449661, -0.10683842748403549, 0.251515656709671, -0.022709593176841736, 0.14550992846488953, -0.02158849500119686, 0.05842963606119156, -0.021634794771671295, -0.245698481798172, 0.2762634754180908, -0.0077186571434140205, 0.03123847208917141, -0.015475303865969181, 0.18474140763282776, -0.18230529129505157, -0.3321813941001892, 0.5349059700965881, -0.0714980736374855, 0.2232816517353058, -0.1214376837015152, 0.23317153751850128, -0.061436254531145096, -0.24730020761489868, 0.596286952495575, -0.030658166855573654, -0.2230088710784912, -0.008305255323648453, 0.21829862892627716, -0.12877510488033295, -0.26678287982940674, 0.45486846566200256, 0.026323558762669563, -0.14414995908737183, -0.06405096501111984, 0.23158447444438934, 0.15261118113994598, -0.14656852185726166, 0.10869438201189041, 0.10341887921094894, -0.21068157255649567, 0.04221068322658539, 0.2934091091156006, -0.10572963207960129, -0.15234453976154327, -0.03610533848404884, -0.20318268239498138, -0.03446738049387932, 0.15368326008319855, 0.38076668977737427, -0.057928431779146194, -0.49208709597587585, 0.9288203120231628, 0.0009014924289658666, -0.07425752282142639, 0.22019676864147186, 0.10787153989076614, -0.1059444323182106, -0.3367772400379181, 0.0035963160917162895, 0.004071076866239309, 0.11967561393976212, 0.25109362602233887, 0.15760578215122223, -0.25345566868782043, 0.10369513928890228, 0.2829184830188751, -0.14064572751522064, -0.003195039462298155, -0.018183579668402672, -0.000966537045314908, 0.5594024658203125, -0.019578678533434868, 0.41455891728401184, -0.0022108033299446106, 0.15586112439632416], [0.12455553561449051, -0.0032992290798574686, -0.4044577479362488, -0.024395296350121498, 0.023781323805451393, 0.12247154116630554, 0.09989899396896362, 0.19785305857658386, 0.06725621223449707, -0.17190204560756683, 0.04053729772567749, -0.0012461240403354168, 0.2573312520980835, -0.1193525642156601, 0.03963316231966019, -0.010677247308194637, -0.11815863102674484, 0.025366520509123802, 0.009912152774631977, 0.06839767098426819, -0.2869246006011963, -0.06171310693025589, 0.1729128211736679, 0.011669587343931198, 0.09102515131235123, 0.09408479928970337, 0.009497624821960926, -0.564651608467102, 0.13059602677822113, 0.30825015902519226, -0.07189450412988663, -0.10748008638620377, 0.08075316995382309, 0.2333415150642395, -0.5582430958747864, -0.03572870045900345, 0.1818624585866928, -0.046099867671728134, -0.10194182395935059, 0.0597367063164711, 0.19642722606658936, -0.3487837314605713, 0.07432123273611069, 0.18066971004009247, -0.051587630063295364, 0.020449522882699966, 0.044684648513793945, 0.07068811357021332, -0.2374875843524933, 0.029382402077317238, 0.3051808774471283, -0.00041604056605137885, -0.010029541328549385, 0.08124127984046936, 0.16185452044010162, -0.3022781312465668, -0.08319898694753647, 0.013800137676298618, 0.12834414839744568, 0.014937978237867355, 0.07194282859563828, 0.1781279295682907, -0.11650414764881134, -0.012016617693006992, 0.055247265845537186, -0.06716541200876236, -0.022905487567186356, 0.11201245337724686, 0.025856249034404755, -0.09914186596870422, 0.0945337787270546, 0.09934994578361511, -0.11510413885116577, -0.006797836162149906, 0.11622816324234009, 0.144540473818779, -0.05504339188337326, 0.06325773894786835, 0.017070041969418526, -0.1149388775229454, 0.1334201693534851, 0.032645244151353836, -0.052254512906074524, 0.07354388386011124, 0.0350458063185215, 0.11343198269605637, -0.08542488515377045, -0.04082689806818962, -0.0017432378372177482, 0.17456850409507751, 0.0244672279804945, 0.0844249352812767, 0.09507959336042404, -0.11363866925239563, -0.04532519355416298, -0.05453607067465782, 0.10818894952535629, 0.13237713277339935, 0.17549023032188416, 0.21169769763946533, -0.14592723548412323, 0.06348741054534912, 0.039177048951387405, 0.06517421454191208, -0.12677007913589478, 0.11119164526462555, 0.18133097887039185, -0.029432708397507668, -0.018119968473911285, -0.02614019438624382, 0.01537915226072073, -0.07389418035745621, 0.2251036912202835, 0.14631113409996033, -0.009961605072021484, 0.12587721645832062, -0.004616157617419958, -0.04176007956266403, -0.08358580619096756, 0.1513247787952423, 0.19601550698280334, 0.0035281660966575146, 0.172159805893898, -0.08785448968410492, 0.05649189278483391, -0.08474484831094742, 0.11547131091356277, 0.07942694425582886, -0.1605970710515976, -0.05862515792250633, 0.1888359785079956, 0.21211068332195282, -0.1330239176750183, 0.12343112379312515, -0.06593518704175949, -0.08025164157152176, -0.024404767900705338, 0.06601954996585846, 0.04905534163117409, -0.07125738263130188, 0.08071081340312958, -0.02707703784108162, -0.05291350930929184, -0.008561881259083748, -0.017077341675758362, 0.03277091309428215, 0.05445735901594162, -0.019355792552232742, -0.011035538278520107, -0.04797277972102165, -0.010271027684211731, -0.12281890213489532, 0.19989250600337982, 0.010534752160310745, -0.023726966232061386, -0.037579141557216644, -0.0577206164598465, 0.02800983004271984, -0.017534790560603142, -0.16905435919761658, -0.15039390325546265, 0.16870032250881195, 0.008795193396508694, 0.09387040138244629, 0.056514956057071686, 0.11622684448957443, -0.08567407727241516, 0.03797135874629021, -0.019345324486494064, -0.01895279437303543, -0.10407394170761108, -0.07480519264936447, -0.11661993712186813, -0.051995862275362015, 0.044091880321502686, -0.06638431549072266, 0.06634443998336792, 0.05421288311481476, 0.06839091330766678, 0.1020488440990448, -0.05383198335766792, -0.05457064136862755, 0.11255264282226562, -0.011139776557683945, -0.32630231976509094, 0.05247792601585388, 0.12247377634048462, -0.02942550741136074, -0.02974669821560383, 0.09328780323266983, 0.10523195564746857, -0.07140747457742691, 0.055855050683021545, -0.028132522478699684, -0.047379523515701294, 0.13127636909484863, -0.010663113556802273, -0.02859465777873993, -0.18542303144931793, -0.024835938587784767, -0.0240462739020586, -0.10899680107831955, 0.12890788912773132, 0.02135959453880787, -0.01765402965247631, -0.09800038486719131, 0.041040923446416855, -0.33512863516807556, -0.1226438358426094, 0.10075917840003967, -0.08110686391592026, 0.07532623410224915, -0.1520242989063263, -0.017686033621430397, -0.33432236313819885, -0.03135961666703224, 0.13965129852294922, -0.005154868587851524, 0.05364077165722847, 0.003617615904659033, -0.006296026054769754, -0.5952034592628479, -0.1554899662733078, 0.13803978264331818, 0.011715704575181007, -0.11093927919864655, -0.006786125246435404, 0.1108042299747467, -0.33662596344947815, -0.07524023205041885, 0.0337173230946064, -0.08877943456172943, -0.11268699169158936, -0.016899924725294113, 0.05346149206161499, -0.24064260721206665, -0.21368570625782013, 0.023583073168992996, 0.007314260583370924, -0.0042306226678192616, 0.03683474659919739, 0.05169151350855827, -0.3273307681083679, -0.32979464530944824, 0.144404798746109, -0.09653110057115555, -0.062377236783504486, -0.027994947507977486, -0.007948535494506359, -0.2978217303752899, -0.28776878118515015, 0.16576221585273743, -0.022986697033047676, -0.209936261177063, 0.006725626531988382, -0.11690085381269455, -0.22871308028697968, -0.3507540225982666, 0.16521309316158295, 0.12650413811206818, -0.07435861974954605, -0.09956137835979462, 0.060942646116018295, -0.3342514932155609, -0.5864093899726868, 0.2292977273464203, 0.0009595650481060147, -0.09504304826259613, -0.16137954592704773, -0.1355653703212738, -0.27834489941596985, -0.5654313564300537, 0.1380891054868698, 0.03913923352956772, -0.06511209905147552, -0.08699118345975876, 0.029350511729717255, -0.3874710500240326, -0.7212196588516235, 0.27781152725219727, 0.19163961708545685, 0.11055031418800354, -0.18330730497837067, -0.10040463507175446, -0.3542856276035309, -0.35772189497947693, 0.3627277910709381, 0.17924928665161133, 0.031704340130090714, -0.11377420276403427, 0.04284151643514633, -0.17842546105384827, -0.46181851625442505, 0.3245225250720978, 0.1785033494234085, -0.03684047609567642, -0.24874067306518555, 0.021392742171883583, 0.006983306258916855, -0.3825860023498535, 0.13886800408363342, 0.0018494251416996121, 0.1448473334312439, -0.10227727890014648, -0.10095161199569702, -0.0022637739311903715, -0.27136746048927307, 0.09182830899953842, 0.18528661131858826, -0.1887473315000534, -0.1454477608203888, -0.032958973199129105, -0.00621917936950922, -0.37032172083854675, 0.2304886281490326, 0.22823801636695862, 0.1163325160741806, -0.23311112821102142, -0.040520623326301575, 0.044766951352357864, -0.2802202105522156, 0.4197472333908081, 0.27580296993255615, 0.08860442042350769, -0.3206908404827118, -0.04772628843784332, 0.08219503611326218, -0.16885358095169067, 0.30458879470825195, 0.31386515498161316, -0.028394201770424843, 0.2532421350479126, 0.12377573549747467, 0.0689624547958374, -0.20387089252471924, 0.17646022140979767, 0.03599271550774574, 0.27727651596069336, -0.3300205171108246, -0.2856871783733368, 0.5044110417366028], [0.4046914279460907, -0.020744746550917625, 0.12817955017089844, -0.10715664178133011, 0.09548313915729523, 0.11472539603710175, 0.02326543629169464, 0.36245056986808777, 0.07690232247114182, 0.12459100037813187, 0.13364556431770325, 0.20393921434879303, -0.07423799484968185, 0.03601126745343208, 0.37304767966270447, 0.12406925112009048, 0.0923197790980339, -0.10971095412969589, 0.054159145802259445, -0.0005522838910110295, 0.15831786394119263, 0.016486918553709984, 0.09118528664112091, -0.03351457789540291, -0.07870960980653763, 0.04505331441760063, -0.08895785361528397, 0.11892342567443848, 0.09853020310401917, -0.0449102446436882, 0.050290945917367935, -0.08808541297912598, 0.10917295515537262, -0.09422057867050171, 0.1877986341714859, 0.22753040492534637, -0.145498126745224, -0.003850970882922411, -0.0010353303514420986, -0.07243404537439346, -0.10840800404548645, 0.11896417289972305, 0.198161318898201, -0.10627245903015137, 0.15077410638332367, -0.1367052048444748, 0.04041288048028946, -0.03609812632203102, 0.0014163979794830084, 0.03981100767850876, -0.17508751153945923, 0.1982305943965912, -0.057338226586580276, -0.07819978147745132, -0.07278699427843094, 0.12890839576721191, 0.10356976091861725, -0.35731935501098633, 0.17072251439094543, -0.009312999434769154, -0.09601268172264099, -0.10265631973743439, 0.16196569800376892, 0.009695104323327541, -0.2660375237464905, 0.41613706946372986, -0.05812497064471245, -0.049085699021816254, 0.03614457696676254, 0.04454389214515686, -0.07620052993297577, -0.49137377738952637, 0.42266646027565, -0.09372811764478683, -0.22009703516960144, 0.3363924026489258, 0.07609623670578003, -0.10802820324897766, -0.429423451423645, 0.4178389012813568, -0.042849406599998474, -0.07860712707042694, 0.30730435252189636, -0.041707247495651245, 0.04238839074969292, -0.3309772312641144, 0.46521008014678955, -0.0710792988538742, 0.10836250334978104, 0.019493287429213524, -0.11510306596755981, 0.014088873751461506, -0.20183733105659485, 0.2622971534729004, -0.05266072601079941, -0.07380200177431107, 0.08948110044002533, -0.09218490868806839, -0.04151935130357742, -0.19465824961662292, 0.25615158677101135, 0.1815701425075531, -0.07436206936836243, 0.09998905658721924, -0.0457562580704689, 0.08738388121128082, -0.14908038079738617, 0.22783726453781128, -0.04809761419892311, -0.27330589294433594, 0.0725763589143753, 0.007357909344136715, 0.05679366737604141, -0.28472593426704407, 0.15849661827087402, 0.04278464987874031, -0.09370453655719757, 0.03745744749903679, 0.023091865703463554, 0.12088318914175034, -0.23618923127651215, 0.2925346791744232, -0.08063725382089615, 0.03292642906308174, 0.04785069078207016, -0.19427020847797394, 0.02332889474928379, -0.04404657706618309, 0.28625112771987915, -0.08149309456348419, 0.06435375660657883, -0.04218607395887375, -0.03832026943564415, 0.048246268182992935, -0.16996775567531586, 0.3100927472114563, 0.023698844015598297, -0.15317091345787048, -0.057544559240341187, -0.11315935850143433, 0.047555405646562576, -0.0977427139878273, 0.20670540630817413, 0.014340369030833244, 0.06095530465245247, 0.039859529584646225, -0.14280693233013153, 0.04719730094075203, -0.21140573918819427, 0.3714297115802765, -0.01957758329808712, 0.11598009616136551, -0.09584728628396988, -0.17011161148548126, 0.0833553746342659, -0.06267830729484558, 0.34084752202033997, 0.00605013919994235, 0.15091243386268616, 0.16845649480819702, -0.08605771511793137, 0.08784735202789307, -0.12253325432538986, 0.2736518085002899, 0.03252868354320526, 0.1360415518283844, -0.06707139313220978, -0.19376686215400696, -0.04025436192750931, -0.11695587635040283, 0.2530149221420288, 0.0626070573925972, -0.2207014113664627, -0.022467754781246185, -0.10194571316242218, 0.03811251372098923, -0.0707831084728241, 0.45632874965667725, 0.026432564482092857, 0.0016000844771042466, 0.1305629312992096, -0.21732962131500244, 0.09475265443325043, -0.010500016622245312, 0.3081338405609131, -0.04294874519109726, -0.15205144882202148, 0.12959174811840057, -0.13186311721801758, 0.1271177977323532, -0.016296498477458954, 0.4891226291656494, -0.0542629137635231, -0.06672700494527817, 0.20030874013900757, -0.2076108157634735, -0.009262128733098507, 0.06818562000989914, 0.29842260479927063, -0.13394978642463684, -0.11429544538259506, 0.11053568124771118, -0.17070750892162323, 0.07213644683361053, -0.03174690529704094, 0.25375646352767944, -0.1492381989955902, -0.10766685009002686, 0.15992774069309235, -0.25438183546066284, 0.02231953851878643, -0.14318889379501343, 0.256909042596817, 0.03306934982538223, 0.016292741522192955, 0.07432456314563751, -0.20157571136951447, 0.05565689876675606, 0.015164836309850216, 0.15036895871162415, 0.07364657521247864, -0.052073363214731216, 0.011646493338048458, -0.06474699825048447, -0.016581067815423012, 0.04179460555315018, 0.3263922333717346, -0.000556168844923377, -0.07272740453481674, -0.16645309329032898, -0.018209271132946014, 0.09941582381725311, 0.0034691602922976017, 0.06095564365386963, 0.010140696540474892, -0.09667457640171051, -0.24074110388755798, -0.016526563093066216, -0.01056059543043375, -0.02384488843381405, 0.11055673658847809, -0.11421236395835876, 0.06370557099580765, -0.2537968158721924, -0.10687488317489624, 0.005289620254188776, 0.22003334760665894, -0.11497694253921509, -0.004584458656609058, -0.10280467569828033, -0.2720504403114319, 0.07596469670534134, 0.24325382709503174, 0.16606298089027405, -0.4786812663078308, -0.05800517275929451, -0.15247848629951477, -0.19350825250148773, -0.04646831750869751, 0.09450934082269669, 0.1299373060464859, -0.16939839720726013, -0.004370563663542271, -0.020934687927365303, -0.19122062623500824, 0.06939574331045151, 0.10190295428037643, 0.12151583284139633, -0.002796552376821637, 0.04809611290693283, -0.01792941801249981, -0.30541369318962097, 0.1815892457962036, 0.10534064471721649, 0.14016450941562653, 0.06890669465065002, -0.15544384717941284, -0.0645233616232872, -0.10521154850721359, 0.10077869147062302, 0.06398212909698486, -0.030770421028137207, 0.16393312811851501, -0.08635809272527695, -0.09551192075014114, 0.08251505345106125, 0.03179468214511871, 0.01893823780119419, 0.03911416605114937, 0.1176857054233551, 0.060409631580114365, -0.021131431683897972, -0.002343361731618643, 0.022083798423409462, 0.2267935425043106, 0.03390403464436531, -0.010682802647352219, -0.04671098291873932, 0.05801960825920105, 0.09858137369155884, 0.04283297806978226, -0.019062193110585213, -0.13335423171520233, 0.12811312079429626, -0.050524234771728516, -0.10863310098648071, 0.12910345196723938, 0.011253018863499165, -0.04367766156792641, 0.060386259108781815, 0.015507192350924015, -0.026664938777685165, 0.0022659716196358204, 0.18952812254428864, 0.07403319329023361, 0.05220814794301987, 0.10433206707239151, -0.004083340521901846, -0.013057021424174309, -0.03173462674021721, 0.22628138959407806, 0.10928567498922348, 0.22245918214321136, -0.055302705615758896, 0.0949898213148117, 0.11812499910593033, 0.050900135189294815, 0.06804993748664856, 0.06083488091826439, 0.4291920065879822, -0.007063617929816246, 0.22751855850219727, 0.044543348252773285, 0.14575190842151642, 0.05545997992157936, 0.01870003715157509, 0.4418015480041504, 0.291363000869751, 1.0965466499328613, -0.10727208107709885, -0.09055532515048981], [0.10957157611846924, 0.054205264896154404, -0.02053273655474186, 0.0371127687394619, -0.08515676856040955, -0.12086506932973862, 0.1467682272195816, -0.07672856003046036, -0.08045124262571335, -0.09864864498376846, 0.09556414186954498, -0.011662970297038555, -0.1837950348854065, 0.19159074127674103, -0.1448344588279724, -0.04507050663232803, -0.12345093488693237, 0.06524256616830826, -0.004071624483913183, 0.012412985786795616, 0.17183716595172882, 0.04763903468847275, -0.07419544458389282, 0.019784383475780487, -0.2382652759552002, 0.15595009922981262, -0.17523899674415588, 0.21936915814876556, 0.20771965384483337, -0.30012983083724976, 0.3256984353065491, 0.05725677311420441, 0.1536434441804886, -0.07478661835193634, 0.17902307212352753, 0.14134937524795532, -0.24711456894874573, 0.28697988390922546, -0.015863852575421333, -0.1111559048295021, -0.022925034165382385, 0.25462284684181213, 0.1304451823234558, -0.23237742483615875, 0.24242214858531952, 0.07693330943584442, 0.19820871949195862, 0.05892477184534073, 0.1616063266992569, 0.2244415581226349, -0.1258905827999115, 0.0797848254442215, -0.06347469985485077, 0.0777028501033783, 0.15779852867126465, 0.124220110476017, 0.20064550638198853, -0.15122514963150024, 0.24130778014659882, -0.05365399643778801, 0.22289671003818512, 0.12977208197116852, -0.0540931336581707, 0.3781307339668274, 0.025674007833003998, 0.29168620705604553, 0.05319337919354439, 0.21517719328403473, -0.1974925696849823, -0.16739793121814728, 0.2944886088371277, -0.21389959752559662, 0.2637712061405182, 0.03449101373553276, 0.34164801239967346, -0.016804717481136322, -0.28043240308761597, 0.22141683101654053, -0.058685511350631714, 0.22581611573696136, -0.007119062822312117, 0.24764905869960785, 0.015773000195622444, -0.24838824570178986, 0.15215714275836945, -0.02328343316912651, 0.34173938632011414, 0.005480271298438311, 0.05968420207500458, -0.011715230531990528, -0.2798052728176117, 0.022614389657974243, 0.04732866585254669, -0.011042186059057713, 0.12077543884515762, 0.390760600566864, 0.15887857973575592, -0.14094051718711853, 0.044537413865327835, 0.08616405725479126, -0.09330872446298599, -0.07768435031175613, 0.15976430475711823, 0.16725791990756989, -0.2223319709300995, 0.010892979800701141, 0.13626039028167725, -0.1286356896162033, -0.041070133447647095, 0.030819883570075035, 0.10604637116193771, -0.1879076063632965, -0.00029919875669293106, 0.000790913007222116, -0.03534575179219246, 0.033287592232227325, 0.22632253170013428, 0.25224292278289795, -0.015202426351606846, 0.14857062697410583, -0.09941054880619049, 0.07674142718315125, -0.014879687689244747, 0.004720902536064386, 0.09729628264904022, -0.11616876721382141, 0.029295586049556732, 0.0618424154818058, -0.011099271476268768, 0.06477535516023636, 0.10032722353935242, -0.10923343151807785, -0.06935041397809982, 0.029703417792916298, -0.08033693581819534, 0.4435240626335144, -0.14934255182743073, 0.018746260553598404, -0.001675694016739726, -0.1558191180229187, -0.11108572781085968, -0.11842446029186249, 0.13248349726200104, -0.022886129096150398, 0.0831434577703476, -0.25418776273727417, -0.0889517217874527, -0.03573014214634895, -0.15085478127002716, 0.1514928936958313, 0.013195527717471123, 0.05027218535542488, -0.21516868472099304, -0.2094774842262268, -0.12505066394805908, -0.04557626694440842, 0.11431890726089478, -0.018660051748156548, 0.02524436078965664, 0.05556941404938698, -0.21819379925727844, -0.02809634432196617, -0.13436201214790344, 0.10860445350408554, 0.10900439321994781, -0.08873075246810913, 0.11596465110778809, -0.22602921724319458, -0.07679549604654312, -0.0405278280377388, 0.01868266426026821, 0.020606214180588722, 0.053238578140735626, 0.00316242640838027, -0.16996361315250397, -0.18315716087818146, -0.06477517634630203, -0.02653265930712223, 0.024194395169615746, 0.13382023572921753, 0.1348763406276703, -0.20561446249485016, -0.06837350130081177, 0.013753681443631649, -0.03991726040840149, 0.06390977650880814, 0.05097745358943939, 0.0689145103096962, -0.012716828845441341, -0.1399545669555664, -0.13503961265087128, -0.05900030583143234, -0.060143258422613144, 0.23428590595722198, 0.06430985033512115, 0.2500971853733063, 0.07028572261333466, -0.18274915218353271, 0.11777729541063309, -0.025964558124542236, -0.04911485314369202, -0.026679212227463722, 0.16089573502540588, -0.10352624952793121, -0.0495465062558651, 0.14337114989757538, -0.01397579163312912, 0.05185193568468094, -0.06910178810358047, -0.044282712042331696, 0.0016796552808955312, -0.17205125093460083, 0.17243023216724396, 0.06166485324501991, 0.11949068307876587, 0.08416340500116348, -0.050462279468774796, -0.187405526638031, -0.2529146671295166, 0.2016070932149887, -0.03481534495949745, 0.0792325958609581, 0.30847448110580444, 0.11293156445026398, -0.04947981610894203, -0.2137249857187271, 0.19912882149219513, -0.07118218392133713, -0.04592907428741455, 0.2737356722354889, 0.04507356882095337, -0.05469118058681488, -0.2925957441329956, 0.30804190039634705, -0.040078550577163696, -0.06237078458070755, 0.3908986747264862, 0.007611526641994715, 0.09794311970472336, -0.09513429552316666, 0.20278771221637726, -0.10627443343400955, 0.018406858667731285, 0.24328015744686127, -0.09334154427051544, 0.10114675760269165, -0.19775661826133728, 0.28879833221435547, -0.010363866575062275, -0.028556186705827713, 0.3000270128250122, -0.04972606524825096, 0.04289560765028, -0.2746850252151489, 0.2217046469449997, -0.029989859089255333, -0.14442726969718933, 0.12126263976097107, 0.10164399445056915, 0.2516063153743744, -0.16472220420837402, 0.24821411073207855, -0.0231163389980793, 0.025357408449053764, 0.31909242272377014, -0.11450564116239548, -0.04885299131274223, -0.16789482533931732, 0.09279540181159973, -0.025737926363945007, -0.09083840996026993, 0.07989268749952316, 0.011703583411872387, 0.09616459906101227, 0.06789501011371613, 0.21419045329093933, -0.07588143646717072, -0.11938117444515228, -0.09200098365545273, 0.06738459318876266, 0.09577719867229462, -0.03984203189611435, -0.1260625422000885, -0.014340626075863838, 0.16967889666557312, -0.16027489304542542, 0.07862485945224762, 0.1445150524377823, 0.015626363456249237, -0.14957673847675323, -0.021291455253958702, 0.04367770254611969, -0.07041805237531662, -0.01776052638888359, 0.04802430048584938, -0.2454400658607483, -0.23167628049850464, -0.06550580263137817, -0.0203612819314003, 0.018853506073355675, 0.1021735668182373, 0.25937896966934204, -0.17902955412864685, 0.039053719490766525, -0.007326758466660976, 0.07870177924633026, -0.0008225655765272677, 0.14357732236385345, 0.04638104885816574, -0.15373817086219788, -0.46452927589416504, 0.1479383111000061, 0.10621142387390137, -0.03879726678133011, 0.35274335741996765, 0.02103208191692829, -0.10496801137924194, -0.5509738326072693, 0.01060508843511343, 0.0757213905453682, 0.04058646038174629, -0.018261408433318138, -0.0108075812458992, 0.05153303220868111, -0.1635737419128418, -0.1164533942937851, 0.08588907122612, -0.09893472492694855, -0.21006973087787628, 0.2173706591129303, 0.09652455151081085, -0.23554982244968414, -0.04662632569670677, 0.046897608786821365, -0.11512573808431625, 0.2421240210533142, 0.054249782115221024, 0.4954759478569031, 0.5157241225242615, 0.6578159928321838, 0.12572252750396729], [0.3552328050136566, 0.17947597801685333, 0.06680513173341751, 0.04895196855068207, -0.043414801359176636, -0.12890997529029846, 0.11392877995967865, 0.40297767519950867, 0.13600660860538483, 0.014553653076291084, 0.05683976039290428, -0.023046355694532394, -0.39003559947013855, 0.36117589473724365, 0.22326815128326416, 0.31423214077949524, 0.2993718385696411, 0.07171106338500977, 0.07088763266801834, -0.569446861743927, 0.29485756158828735, 0.020906709134578705, 0.1044643297791481, 0.21475116908550262, -0.09317982941865921, -0.02086716704070568, -0.5612771511077881, 0.28049033880233765, 0.0008030573953874409, 0.10057006031274796, 0.20718683302402496, -0.03495442867279053, 0.014203723520040512, -0.38392481207847595, 0.22550037503242493, 0.05133652687072754, -0.24917542934417725, 0.16149480640888214, -0.06284534186124802, -0.11729732900857925, -0.16510340571403503, 0.0973479375243187, 0.3202257752418518, -0.13880491256713867, 0.2333892285823822, -0.02558440901339054, 0.013269844464957714, -0.17326146364212036, 0.03011510707437992, 0.2765287458896637, -0.10810982435941696, 0.1294597089290619, -0.17804482579231262, 0.04921276867389679, -0.007576689589768648, -0.051761284470558167, 0.08269386738538742, -0.13945229351520538, 0.10588465631008148, -0.07210757583379745, -0.10589373111724854, 0.047863490879535675, -0.11493145674467087, 0.056392792612314224, 0.0027177631855010986, -0.11434978991746902, -0.04723432660102844, 0.055585190653800964, 0.05414460226893425, 0.05191268026828766, -0.11750064045190811, 0.15865017473697662, 0.035139862447977066, -0.015054295770823956, 0.042899660766124725, -0.15044426918029785, 2.8752550861099735e-05, -0.24692663550376892, 0.2514418959617615, -0.09666737914085388, 0.024659285321831703, 0.029846444725990295, -0.02837607078254223, -0.1791708767414093, -0.1403529942035675, 0.08606460690498352, -0.046095941215753555, -0.07851579785346985, 0.06275856494903564, -0.009882919490337372, 0.006870252545922995, -0.18961626291275024, 0.11589568108320236, -0.09805981069803238, 0.008184378035366535, -0.08583489805459976, -0.1652079075574875, -0.028470950201153755, -0.11019549518823624, 0.1835024207830429, -0.06852003931999207, 0.06408476829528809, 0.033185891807079315, -0.08324991166591644, 0.05349862203001976, -0.17588602006435394, 0.15283802151679993, -0.088680200278759, -0.03454158455133438, 0.010643133893609047, 0.04203297942876816, -0.015490004792809486, -0.07111776620149612, 0.12475523352622986, -0.03434791788458824, -0.03145741671323776, 0.004711607005447149, -0.14806678891181946, -0.01411114726215601, -0.07199078053236008, 0.10821675509214401, -0.18643443286418915, 0.035536229610443115, -0.0958174392580986, -0.15618425607681274, -0.13182063400745392, 0.0003410916542634368, 0.08986242860555649, -0.009153353981673717, 0.07565685361623764, 0.07872281968593597, 0.0419638454914093, -0.08400243520736694, 0.11488522589206696, 0.1193828210234642, 0.11751937121152878, 0.03595449775457382, 0.13543185591697693, 0.18137095868587494, -0.16801433265209198, 0.09830964356660843, -0.14395934343338013, 0.06076037511229515, 0.051985155791044235, 0.03926772624254227, -0.01997297629714012, -0.21282713115215302, 0.0502384789288044, 0.16715244948863983, 0.12383775413036346, 0.09652361273765564, 0.18292362987995148, -0.06534606218338013, -0.1937638819217682, 0.055550385266542435, -0.030248412862420082, 0.13616935908794403, 0.16204088926315308, 0.15978935360908508, -0.0598030611872673, -0.052608951926231384, 0.04008973389863968, -0.0797540619969368, -0.022254539653658867, -0.0681479424238205, 0.0022048908285796642, -0.0339839868247509, -0.2765239179134369, -0.033709488809108734, 0.006554300896823406, 0.02974453568458557, 0.1485854834318161, 0.09012952446937561, 0.09606271237134933, -0.041616041213274, 0.11848268657922745, -0.005240932106971741, -0.09694718569517136, 0.012157240882515907, -0.0028658027295023203, 0.24762913584709167, -0.2637242078781128, 0.11148178577423096, -0.051753390580415726, -0.06510235369205475, -0.07211992144584656, 0.016877833753824234, 0.22719454765319824, -0.03559407591819763, 0.03188221901655197, -3.3285465178778395e-05, -0.0907050222158432, -0.07704531401395798, 0.010885724797844887, 0.257335901260376, -0.12327369302511215, 0.13229618966579437, 0.026815399527549744, -0.07394219934940338, -0.01573760062456131, -0.03694164752960205, 0.13478557765483856, -0.040469713509082794, 0.00218275492079556, -0.041534047573804855, 0.11939052492380142, 0.020053908228874207, -0.1948939859867096, 0.13586877286434174, -0.10181645303964615, 0.0793519839644432, 0.028175441548228264, -0.0275279488414526, -0.105341337621212, -0.07393159717321396, 0.24974705278873444, -0.07852286100387573, 0.05055573210120201, -0.041011959314346313, -0.07367900758981705, -0.1619575470685959, 0.013186543248593807, 0.16618137061595917, 0.1611722856760025, 0.1273568719625473, -0.15612657368183136, 0.1415793001651764, -0.011783336289227009, 0.16187545657157898, 0.2866063117980957, 0.27079129219055176, -0.15116755664348602, -0.21767131984233856, -0.021913815289735794, -0.011826977133750916, 0.06950259953737259, 0.17810937762260437, -0.01286841556429863, -0.2280661165714264, -0.05456875264644623, 0.08778128772974014, -0.053062111139297485, -0.09886351972818375, 0.375864714384079, 0.051509957760572433, -0.02935648523271084, -0.18219825625419617, 0.07128474116325378, -0.00865509919822216, -0.010504884645342827, 0.4624869227409363, 0.02541731670498848, -0.24063745141029358, -0.07625595480203629, 0.02214648202061653, 0.030525265261530876, -0.36417269706726074, 0.4105883836746216, -0.12034406512975693, -0.4559580981731415, -0.0957307294011116, 0.14024700224399567, -0.046831924468278885, -0.2503356337547302, 0.37902477383613586, -0.019858013838529587, -0.21273450553417206, -0.25563570857048035, 0.12598222494125366, -0.06647323817014694, -0.21248911321163177, 0.4241127371788025, 0.1899682730436325, -0.1778203397989273, -0.19378677010536194, 0.022770049050450325, -0.011703774333000183, -0.13773949444293976, 0.42192232608795166, 0.030850423499941826, -0.03841422125697136, -0.212520569562912, -0.14208710193634033, -0.030858388170599937, -0.15742924809455872, 0.5959973931312561, 0.11701197922229767, -0.15071943402290344, -0.16549092531204224, -0.17384302616119385, 0.12285050749778748, -0.0835377499461174, 0.3428843915462494, 0.21542398631572723, 0.016823559999465942, -0.08638681471347809, -0.13292914628982544, 0.03946896269917488, -0.1315629780292511, 0.32372337579727173, 0.03418360650539398, -0.12765200436115265, 0.07606081664562225, -0.0733872503042221, 0.08516053855419159, 0.04902712255716324, 0.30472326278686523, 0.23460426926612854, -0.14539462327957153, -0.057925742119550705, -0.25986579060554504, 0.007969248108565807, 0.0399065837264061, 0.3522038161754608, 0.09906575828790665, -0.07582147419452667, -0.20875908434391022, -0.055496398359537125, 0.15684857964515686, -0.12338975816965103, 0.394351065158844, -0.2143685519695282, 0.17482890188694, -0.061419207602739334, 0.06452382355928421, 0.06310340017080307, -0.0954919084906578, 0.21800358593463898, -0.4881206452846527, 0.18495528399944305, -0.13136808574199677, 0.17136602103710175, -0.04968995228409767, 0.07290708273649216, 0.06650390475988388, -0.016533179208636284, 0.09026367217302322, 0.2479875236749649, -0.11621587723493576, -0.05288168042898178, -0.12332671135663986], [-0.34308579564094543, -0.037979621440172195, 0.0900665745139122, 0.06120535358786583, -0.13416250050067902, -0.059722624719142914, 0.01100640743970871, -0.36385610699653625, 0.08964025229215622, -0.02709171362221241, 0.043589022010564804, -0.11008229106664658, -0.044878873974084854, 0.00038440595380961895, -0.374045729637146, 0.1373882293701172, -0.07483449578285217, 0.04121038690209389, -0.07451772689819336, -0.03905150294303894, 0.15721140801906586, -0.24993321299552917, -0.017665138468146324, -0.20646172761917114, -0.024085957556962967, -0.01986442133784294, 0.2638868987560272, 0.08150744438171387, 0.192326158285141, -0.07882650941610336, -0.0738285705447197, 0.012539969757199287, 0.11385224759578705, 0.474998414516449, 0.1408756971359253, 0.08110394328832626, -0.10584616661071777, -0.02475445531308651, -0.03338618203997612, -0.02157624065876007, 0.29390645027160645, -0.001006586360745132, 0.13919036090373993, -0.11197362840175629, 0.017594562843441963, 0.1207413524389267, -0.06505866348743439, 0.09670217335224152, -0.019500363618135452, 0.23882479965686798, -0.14428117871284485, -0.03728529438376427, -0.14965572953224182, 0.09330665320158005, 0.27407801151275635, 0.001461133942939341, 0.22202029824256897, -0.041349414736032486, 0.08774807304143906, -0.005221257451921701, -0.05636276677250862, 0.28653961420059204, -0.027898743748664856, 0.310862272977829, -0.16345378756523132, 0.07825309783220291, 0.029554449021816254, 0.06390910595655441, 0.21911855041980743, -0.04412497952580452, 0.18825706839561462, -0.02880624122917652, 0.2023865431547165, -0.06904802471399307, 0.06260299682617188, 0.15255704522132874, 0.00884630624204874, 0.04578288644552231, -0.01111035980284214, 0.1000262051820755, 0.031562063843011856, 0.061955615878105164, 0.11386717110872269, -0.0409156009554863, 0.03675490990281105, 0.009342076256871223, 0.12552881240844727, 0.007782788947224617, 0.03869366645812988, 0.0845622569322586, -0.026536229997873306, 0.10983078926801682, -0.029823020100593567, 0.13178201019763947, 0.09948264807462692, 0.07729923725128174, 0.09055935591459274, 0.060577262192964554, 0.06715929508209229, -0.0408170185983181, -0.019010044634342194, 0.017263447865843773, -0.012306807562708855, 0.12882888317108154, -0.09617619216442108, -0.023107917979359627, 0.008846640586853027, -0.07692907750606537, -0.06918501108884811, -0.023122703656554222, 0.1072445958852768, -0.09507883340120316, -0.044235214591026306, -0.003269152482971549, 0.0035104744601994753, 0.062488824129104614, -0.044337160885334015, 0.023612402379512787, -0.09580004215240479, 0.010142121464014053, 0.1544213593006134, -0.16508987545967102, 0.040543027222156525, 0.05984137952327728, -0.006345931440591812, -0.034775443375110626, -0.05704636499285698, 0.23511695861816406, -0.09366945177316666, -0.1275588870048523, 0.025392675772309303, -0.3245495557785034, 0.025919217616319656, -0.013109459541738033, 0.29406487941741943, -0.2085994929075241, 0.06885571777820587, 0.003394507570192218, -0.2846527099609375, -0.17817026376724243, 0.14130118489265442, 0.3961378335952759, -0.21312451362609863, -0.010846883058547974, 0.035895850509405136, -0.22900839149951935, -0.2982061803340912, 0.110857293009758, 0.3663090765476227, -0.038168273866176605, 0.16135120391845703, -0.05295684188604355, -0.1779720038175583, -0.1793355941772461, -0.0438317209482193, 0.16385464370250702, -0.08065250515937805, 0.09099503606557846, -0.02531200461089611, -0.45969706773757935, -0.07901213318109512, 0.08387622982263565, 0.0023226882331073284, -0.007307483348995447, -0.020092127844691277, -0.0259644016623497, -0.4512569308280945, -0.14930735528469086, 0.014216659590601921, -0.0666477233171463, -0.08509410172700882, -0.050908830016851425, -0.033453717827796936, -0.4798564016819, -0.0450732484459877, 0.09754614531993866, 0.048659998923540115, 0.13748332858085632, -0.048691052943468094, 0.03218996524810791, -0.4717830717563629, -0.022528573870658875, 0.07357781380414963, -0.0713835060596466, 0.08628618717193604, -0.0284801684319973, -0.07088165730237961, -0.15146306157112122, -0.1779591292142868, 0.11360418796539307, -0.04601284861564636, 0.19076332449913025, 0.021771904081106186, -0.009175799787044525, -0.36489060521125793, -0.14323675632476807, 0.06098206713795662, -0.08929689228534698, 0.18054871261119843, -0.02060380019247532, -0.045579198747873306, -0.5394144654273987, -0.18882323801517487, 0.20779262483119965, -0.09380359202623367, 0.27259472012519836, -0.05015771463513374, 0.028804194182157516, -0.5696225166320801, -0.14770248532295227, 0.08658277243375778, -0.027822980657219887, -0.01102534867823124, -0.07833567261695862, -0.03604741021990776, -0.29958608746528625, -0.11518729478120804, -0.12135257571935654, -0.039012376219034195, -0.01314106211066246, -0.08233983814716339, 0.027599303051829338, -0.3226436674594879, -0.07821132242679596, 0.08031415194272995, -0.03683832287788391, 0.08713553845882416, 0.03867023438215256, -0.05927949398756027, -0.30510011315345764, -0.09431623667478561, 0.09427525103092194, 0.11098416149616241, 0.006202437914907932, -0.03343730792403221, 0.017298784106969833, -0.039664752781391144, 0.10755109041929245, 0.21106421947479248, 0.05619904398918152, 0.15921252965927124, -0.02285672351717949, 0.05781438201665878, -0.028555842116475105, -0.1268988400697708, 0.0025419662706553936, 0.07590719312429428, -0.09725850820541382, -0.030520768836140633, -0.022735681384801865, -0.056034576147794724, -0.13894136250019073, 0.06391319632530212, -0.04253028705716133, 0.025749152526259422, -0.007159760221838951, 0.006781253032386303, 0.20066605508327484, -0.17012785375118256, 0.13285551965236664, 0.2473985254764557, -0.13193894922733307, 0.01597564108669758, -0.11076177656650543, 0.3152911365032196, -0.16245383024215698, -0.12103947252035141, -0.05532883480191231, -0.437045156955719, 0.14867688715457916, -0.2215663194656372, 0.2624417841434479, -0.1270550638437271, 0.15646983683109283, 0.07237494736909866, -0.4820815920829773, -0.09863893687725067, -0.04702730476856232, 0.17333756387233734, -0.08433347195386887, 0.13164688646793365, -0.0814502164721489, -0.28581586480140686, 0.16867081820964813, -0.028458641842007637, 0.15200747549533844, -0.13525834679603577, -0.0958646833896637, 0.049609389156103134, -0.23138703405857086, 0.046105511486530304, 0.057162635028362274, 0.3223316967487335, -0.009819664992392063, 0.026904158294200897, -0.08679628372192383, -0.23738481104373932, -0.03931322693824768, 0.05677573010325432, 0.3129245936870575, -0.040416229516267776, 0.061621252447366714, 0.02108023688197136, -0.22702284157276154, 0.04544850066304207, -0.019871624186635017, 0.2773250937461853, -0.09569550305604935, -0.05736597254872322, -0.3511572778224945, -0.34280475974082947, -0.007862437516450882, 0.057942066341638565, 0.48155641555786133, 0.034175749868154526, -0.24361811578273773, -0.07697336375713348, -0.23898431658744812, -0.08244140446186066, -0.029671773314476013, -0.015112941153347492, 0.25861454010009766, -0.06939717382192612, -1.0306272088200785e-05, -0.16051967442035675, 0.007685094606131315, -0.019452879205346107, -0.04961053282022476, 0.08693385869264603, -0.1884177029132843, 0.029320767149329185, -0.10559367388486862, -0.04998984932899475, -0.022375132888555527, 0.032587211579084396, -0.13423244655132294, -0.2388201802968979, -0.01126156933605671, 0.02346659265458584, 0.05922183394432068, 0.022460609674453735], [-0.46408921480178833, -0.09294092655181885, 0.08626403659582138, -0.132051482796669, 0.10943388938903809, 0.06339799612760544, -0.36024796962738037, -0.31144648790359497, -0.061299778521060944, 0.020749252289533615, 0.013003733940422535, 0.14054879546165466, -0.050043895840644836, -0.15593944489955902, -0.03541252762079239, -0.04528661444783211, -0.06295663118362427, -0.004346203990280628, 0.1830875277519226, 0.016076693311333656, -0.05421671271324158, 0.2870113253593445, 0.10328587889671326, -0.0034562533255666494, -0.008985265158116817, 0.32095739245414734, 0.08737518638372421, -0.257051020860672, 0.13433627784252167, 0.10397898405790329, -0.22384941577911377, 0.05589209869503975, 0.17449939250946045, -0.004717111587524414, -0.25434792041778564, 0.03497394174337387, 0.04050898924469948, -0.12612994015216827, 0.03825794905424118, 0.22095920145511627, 0.02223214879631996, -0.04437200352549553, 0.3066630959510803, 0.012951071374118328, -0.1934482753276825, 0.007131881546229124, 0.1987914741039276, 0.03319550305604935, 0.005656894762068987, 0.10147020220756531, -0.02030719257891178, -0.12215092033147812, 0.12809151411056519, 0.377142071723938, 0.01556833740323782, 0.018756991252303123, 0.17264215648174286, 0.000678190728649497, -0.26385247707366943, -0.17127856612205505, 0.4002947509288788, -0.05292576923966408, -0.08597066253423691, 0.020153718069195747, -0.006588662043213844, -0.36911332607269287, -0.00672520836815238, 0.4981673061847687, -0.047252826392650604, -0.001240357174538076, 0.08381438255310059, -0.0004241438873577863, -0.4636106789112091, -0.07080916315317154, 0.4398331642150879, -0.016446121037006378, 0.17214205861091614, 0.09493288397789001, 0.1195744201540947, -0.3444819152355194, -0.05281566455960274, 0.6282663345336914, -0.027915555983781815, 0.020666014403104782, -0.16607311367988586, 0.1664467453956604, -0.5103647112846375, 0.10963883250951767, 0.25411316752433777, -0.13896097242832184, 0.11053643375635147, 0.0006707168067805469, 0.07240122556686401, -0.16553938388824463, 0.07650325447320938, 0.3506094217300415, -0.1850924789905548, -0.02910400927066803, -0.009185955859720707, -0.01699858531355858, -0.21027898788452148, -0.024274084717035294, 0.1823689192533493, -0.28866633772850037, 0.10255131125450134, -0.12497133761644363, 0.02211080864071846, -0.2918166518211365, -0.023259343579411507, 0.07024326920509338, -0.09259312599897385, 0.2162615954875946, -0.028531894087791443, -0.023974735289812088, -0.05165178328752518, 0.16511474549770355, 0.29316607117652893, -0.09961926937103271, 0.015651214867830276, -0.13369831442832947, 0.02420809492468834, 0.08776754885911942, 0.013004212640225887, 0.26568344235420227, -0.1898360252380371, -0.11882016062736511, -0.2773101031780243, -0.15922380983829498, -0.10354134440422058, -0.10987606644630432, 0.1859007179737091, -0.10352315753698349, 0.17611241340637207, -0.20466919243335724, -0.08859802782535553, 0.15280725061893463, 0.10833609104156494, -0.23196712136268616, -0.018203921616077423, 0.13389380276203156, -0.2163556069135666, -0.04780486598610878, 0.18178346753120422, 0.13403113186359406, -0.1744958460330963, -0.08466024696826935, -0.07824550569057465, -0.07340503484010696, 0.016610508784651756, 0.11129700392484665, -0.08475860208272934, -0.1533837914466858, -0.061296235769987106, -0.0999806746840477, -0.1442990005016327, -0.03439765051007271, 0.15267764031887054, -0.014559773728251457, 0.13622623682022095, -0.2568669021129608, -0.07228689640760422, -0.12129336595535278, -0.040709514170885086, 0.10247544199228287, 0.047208599746227264, -0.0751618966460228, -0.1699020117521286, 0.07277791202068329, -0.014855376444756985, -0.14225730299949646, 0.19152067601680756, 0.05151735618710518, -0.13822117447853088, -0.20401638746261597, -0.08961576223373413, -0.10806187987327576, -0.009807706810534, 0.003608034923672676, 0.04463774338364601, -0.07115492969751358, -0.25053590536117554, 0.2383299171924591, -0.05693913251161575, -0.18434149026870728, -0.006631841417402029, 0.07513672858476639, -0.018180057406425476, -0.18695412576198578, 0.09671758115291595, 0.011481637135148048, 0.04857466369867325, 0.003874734975397587, 0.031301457434892654, -0.030843472108244896, -0.18639200925827026, 0.0915793851017952, -0.003913805820047855, 0.01815076544880867, -0.05005940422415733, -0.008932165801525116, 0.26843178272247314, -0.16988223791122437, 0.006335375364869833, -0.08197423815727234, -0.040540169924497604, 0.07930346578359604, -0.05220603942871094, 0.165314182639122, -0.05070820450782776, -0.0015832080971449614, -0.12641876935958862, -0.06946307420730591, 0.07052823156118393, 0.10404331982135773, 0.11352457106113434, -0.2874235510826111, -0.13361519575119019, -0.102291040122509, -0.04725661128759384, 0.19573427736759186, 0.05748196691274643, -0.04387997090816498, -0.2212386280298233, -0.014880779199302197, -0.04901888221502304, -0.04948026314377785, 0.07202959060668945, 0.030904939398169518, -0.14870049059391022, -0.16050949692726135, -0.13457196950912476, -0.16302132606506348, -0.0044958642683923244, 0.012764331884682178, -0.07150859385728836, -0.04569616913795471, -0.13869330286979675, 0.09030098468065262, 0.022547617554664612, 0.13833479583263397, -0.07847538590431213, 0.031065819784998894, -0.08606763184070587, -0.13813920319080353, -0.07149086892604828, 0.0863681361079216, -0.011657766066491604, -0.084529809653759, 0.15431299805641174, -0.1167527362704277, -0.281045526266098, 0.002077219309285283, 0.06130070239305496, -0.020510341972112656, 0.036218930035829544, 0.07252504676580429, -0.18624964356422424, -0.2040606588125229, -0.12209797650575638, 0.2893615663051605, 0.18904754519462585, -0.2655278146266937, 0.07612371444702148, -0.22933632135391235, -0.12497605383396149, -0.06223162263631821, 0.10226284712553024, 0.1493549346923828, -0.2901257276535034, -0.0258848387748003, -0.11825651675462723, -0.05820448324084282, 0.07693375647068024, 0.09329342842102051, 0.1250598132610321, -0.12602873146533966, -0.10616300255060196, -0.0958608016371727, 0.09412611275911331, -0.0824749618768692, 0.21048033237457275, 0.02940140850841999, -0.13367438316345215, 0.1131427213549614, -0.018802650272846222, 0.12327593564987183, 0.08080735802650452, 0.03709644079208374, 0.018213044852018356, -0.11824588477611542, -0.14196009933948517, -0.01501653715968132, 0.007944860495626926, -0.17155158519744873, 0.012425332330167294, 0.08439938724040985, -0.28820160031318665, -0.11778654903173447, -0.06953274458646774, 0.10621414333581924, -0.04863935336470604, 0.06252946704626083, 0.00571439927443862, -0.08732101321220398, 0.05808774381875992, 0.03697223588824272, 0.009263269603252411, -0.1547994762659073, 0.14019465446472168, 0.06274595111608505, -0.1394743025302887, -0.020306287333369255, -0.015199529938399792, 0.14669057726860046, -0.03657393157482147, -0.031203890219330788, -0.20575788617134094, -0.09276149421930313, -0.0005785088869743049, -0.06699322909116745, 0.29224318265914917, -0.1288977563381195, -0.27018481492996216, 0.038932494819164276, -0.12601040303707123, -0.011409332044422626, 0.027659036219120026, 0.20818713307380676, -0.17643828690052032, -0.49029436707496643, -0.11547690629959106, 0.0403401143848896, -0.0615692213177681, -0.03440701961517334, -0.04513249546289444, -0.4526715576648712, -0.043916553258895874, 0.06627790629863739, -0.24994592368602753, -0.29752764105796814, 1.0786553621292114], [0.058199211955070496, -0.11577685177326202, -0.1158190369606018, 0.014309829100966454, -0.024890994653105736, 0.12662744522094727, -0.19863712787628174, -0.016583357006311417, 0.04766338691115379, -0.27692022919654846, -0.041018128395080566, 0.009202249348163605, 0.06146266683936119, 0.1214306578040123, -0.08025724440813065, 0.05974945053458214, -0.39815014600753784, 0.12563660740852356, -0.003214579541236162, -0.07506680488586426, 0.0724070817232132, 0.05941293016076088, 0.16630220413208008, -0.6976194977760315, -0.018510963767766953, 0.033508870750665665, -0.04668574035167694, -0.04294344782829285, 0.02958635613322258, 0.1876952350139618, -0.5951635241508484, -0.0024668301921337843, 0.03459196537733078, -0.18476663529872894, 0.1131131574511528, 0.02595873735845089, 0.11131643503904343, -0.45726531744003296, 0.08550211787223816, 0.08805322647094727, -0.2609817683696747, 0.12050355225801468, 0.12194810062646866, 0.07687992602586746, -0.39864030480384827, -0.06109102442860603, 0.14292502403259277, -0.32693028450012207, 0.03747119754552841, 0.18688152730464935, 0.12712424993515015, -0.25169453024864197, -0.00487500848248601, 0.0184633731842041, -0.21618515253067017, 0.06388163566589355, 0.024393221363425255, 0.014241551049053669, -0.13830089569091797, 0.054563023149967194, -0.08988166600465775, -0.4878944456577301, -0.03239291161298752, -0.033146705478429794, 0.04247044399380684, -0.05556517094373703, 0.06645405292510986, 0.062365926802158356, -0.7299665212631226, 0.01144994143396616, -0.22047288715839386, 0.0028304876759648323, -0.07025118917226791, -0.13768748939037323, 0.028404545038938522, -0.6290401220321655, 0.023165106773376465, 0.01046229898929596, -0.1538527011871338, 0.1260833591222763, 0.008336341939866543, -0.049116138368844986, -0.5565766096115112, -0.01855912245810032, -0.0865853875875473, -0.017957862466573715, 0.19982394576072693, -0.043372951447963715, 0.03255867213010788, -0.5378490090370178, 0.06382448226213455, 0.012660380452871323, 0.021082645282149315, 0.09011378139257431, 0.05992690101265907, -0.014483952894806862, -0.45476216077804565, -0.06537045538425446, 0.042277395725250244, 0.013055122457444668, 0.17342285811901093, -0.024275097995996475, -0.09584717452526093, -0.6428132057189941, -0.10300024598836899, 0.04458426311612129, -0.036959290504455566, 0.08527539670467377, 0.04897279292345047, 0.10090813040733337, -0.7820494771003723, -0.16702120006084442, 0.1269722431898117, -0.02482573501765728, 0.277718186378479, -0.042447786778211594, -0.06839092820882797, -0.5707159042358398, -0.12009073793888092, -0.010265708900988102, -0.19922538101673126, 0.32016414403915405, -0.05622945725917816, 0.0015356219373643398, -0.5656213164329529, -0.07777377963066101, -0.022062430158257484, -0.06788118928670883, 0.19265064597129822, 0.06490395218133926, 0.054326131939888, -0.521460235118866, -0.19884854555130005, -0.010671712458133698, -0.14513517916202545, 0.28162723779678345, 0.08082278072834015, -0.016580913215875626, -0.38906365633010864, -0.20121248066425323, -0.015867380425333977, 0.1269855797290802, 0.3443525731563568, -0.0712660551071167, 0.011738227680325508, -0.5240198969841003, -0.16441377997398376, 0.02310367301106453, -0.12951795756816864, 0.2507745921611786, -0.10004714131355286, 0.08966967463493347, -0.4685423970222473, -0.1710433065891266, -0.017829570919275284, -0.12473119050264359, 0.17519217729568481, 0.028021471574902534, -0.05441763252019882, -0.3127734363079071, -0.37920376658439636, 0.013297836296260357, -0.00434377696365118, 0.2916712164878845, 0.04040323570370674, -0.10164128243923187, -0.5718622803688049, -0.16820140182971954, 0.01786998100578785, -0.10060633718967438, 0.22178548574447632, 0.058794014155864716, -0.05319879949092865, -0.5150909423828125, -0.06578736752271652, -0.003546889405697584, -0.14211775362491608, 0.41086074709892273, 0.05990703031420708, 0.09500987827777863, -0.5392982959747314, -0.06169700250029564, 0.06395160406827927, -0.12896771728992462, 0.2390686422586441, 0.021397557109594345, -0.12244364619255066, -0.428638756275177, -0.15578942000865936, 0.009867112152278423, -0.07565560191869736, 0.22661346197128296, -0.09968757629394531, -0.185630664229393, -0.2652725279331207, -0.09206755459308624, 0.15376292169094086, -0.05911046266555786, 0.31968581676483154, -0.14809276163578033, -0.05468740686774254, -0.49271661043167114, 0.07269388437271118, 0.02374088764190674, -0.10085263848304749, 0.07964669167995453, 0.03787476569414139, 0.06743456423282623, -0.16785761713981628, -0.13480731844902039, 0.010799373500049114, -0.0621970035135746, 0.07757765799760818, -0.03321355581283569, 0.0819295272231102, -0.29173266887664795, 0.0192053634673357, -0.11160611361265182, 0.055340662598609924, -0.13390754163265228, 0.11139614135026932, -0.013883237726986408, -0.2769586741924286, -0.040318939834833145, 0.011932164430618286, 0.003922692034393549, -0.12048489600419998, -0.16932694613933563, -0.28580614924430847, -0.2596778869628906, 0.15029345452785492, -0.10066825896501541, 0.019732734188437462, -0.15421679615974426, -0.04718584194779396, -0.22495730221271515, -0.18644960224628448, 0.0740540623664856, -0.12668576836585999, 0.08972983062267303, -0.04920144006609917, 0.13936494290828705, -0.4488682746887207, -0.2190302461385727, 0.17224113643169403, -0.11982686072587967, 0.1409589946269989, -0.19964075088500977, -0.09583338350057602, -0.5410833954811096, -0.49408280849456787, 0.18533627688884735, -0.05312955379486084, 0.11947067826986313, -0.23917342722415924, -0.05282916501164436, -0.3723496198654175, -0.4046427011489868, 0.28514841198921204, -0.09060272574424744, 0.17927618324756622, -0.3182204067707062, 0.01499740220606327, -0.17806501686573029, -0.15039224922657013, 0.17928177118301392, 0.0223517045378685, 0.08849119395017624, -0.33154410123825073, -0.056104108691215515, -0.0042505874298512936, -0.2121487557888031, 0.0075798360630869865, 0.06715714931488037, 0.014403385110199451, -0.5358620285987854, -0.07293474674224854, -0.06296449154615402, -0.12240210175514221, -0.028609726577997208, -0.0009112675907090306, 0.23645368218421936, -0.5455570220947266, 0.018106680363416672, -0.026044748723506927, 0.05206642299890518, -0.00814579427242279, 0.09664898365736008, 0.2051316499710083, -0.68010014295578, -0.15628769993782043, 0.12317875772714615, 0.002139544812962413, -0.09892194718122482, 0.0840299129486084, 0.24473322927951813, -0.5257525444030762, -0.09936585277318954, 0.06547772884368896, 0.22369667887687683, -0.34268292784690857, -0.06331321597099304, 0.10700950026512146, -0.6017760634422302, 0.017133234068751335, -0.0006672400049865246, 0.18537063896656036, -0.4975472092628479, 0.08936227113008499, 0.157508984208107, -0.467909038066864, 0.04553333297371864, 0.11072596162557602, 0.37943553924560547, -0.13388095796108246, 0.04841553047299385, -0.02175213396549225, -0.36130836606025696, -0.03675093874335289, -0.11684688180685043, 0.21546298265457153, -0.07591480761766434, 0.024484990164637566, -0.18984153866767883, -0.34886273741722107, -0.0436776764690876, -0.049840591847896576, 0.2805209159851074, -0.5962481498718262, 0.10874603688716888, -0.32042792439460754, -0.27461689710617065, 0.0005272062844596803, 0.04359250143170357, 0.3059774935245514, -0.4595073461532593, 0.04439352825284004, 0.06647701561450958, -0.6726240515708923, 0.5065271258354187, 0.33858293294906616], [-0.22408559918403625, -0.05841873586177826, 0.1045084223151207, 0.005706602241843939, -0.14672330021858215, -0.008363877423107624, 0.4049645662307739, -0.19285492599010468, -0.04349250718951225, 0.3567921817302704, 0.10984671115875244, -0.09035125374794006, -0.05596638843417168, 0.3569082021713257, -0.17936258018016815, 0.09218389540910721, -0.07220591604709625, -0.0020995899103581905, -0.0660388395190239, -0.05800361931324005, 0.40093523263931274, -0.34350499510765076, 0.021986639127135277, -0.23210503160953522, 0.09892259538173676, -0.09991582483053207, -0.08885479718446732, 0.4791162610054016, -0.20588362216949463, -0.09149506688117981, -0.2708371877670288, 0.009248294867575169, -0.0706121176481247, -0.19955755770206451, 0.140863835811615, 0.03579510375857353, -0.05594423785805702, -0.393903911113739, -0.043180469423532486, -0.006609587464481592, -0.14310193061828613, 0.03118877112865448, -0.04221362993121147, -0.13907235860824585, -0.17122849822044373, 0.10880033671855927, -0.05668722465634346, 0.20364584028720856, -0.01314685307443142, -0.08049404621124268, -0.06338414549827576, -0.1569889336824417, 0.16016435623168945, -0.023119760677218437, 0.3977696895599365, 0.051017459481954575, -0.011000523343682289, -0.11676601320505142, -0.10811740905046463, -0.05781858041882515, -0.03374437615275383, -0.004874113481491804, 0.014753804542124271, 0.060937751084566116, -0.02900495007634163, -0.16284964978694916, -0.017082424834370613, 0.005659799557179213, 0.1715526431798935, 0.08462157100439072, 0.1202692911028862, 0.02379528060555458, -0.15396958589553833, -0.05523968115448952, 0.061359796673059464, 0.07704812288284302, 0.11523720622062683, -0.09491623193025589, 0.05452456697821617, -0.21697713434696198, 0.016633182764053345, -0.01956324651837349, 0.29414108395576477, 0.1221163347363472, -0.07278506457805634, -0.05112462863326073, -0.1255464255809784, 0.1361997276544571, -0.034595195204019547, 0.10913331061601639, 0.004702473990619183, 0.11320104449987411, -0.1637801229953766, -0.09273122251033783, -0.05778459087014198, -0.030917420983314514, 0.1842813342809677, -0.08132711052894592, -0.003916515503078699, -0.034989308565855026, -0.024118542671203613, -0.02263008803129196, -0.04077150672674179, 0.04202849045395851, 0.024687018245458603, -0.08664555102586746, -0.19845885038375854, -0.1966630220413208, 0.02237890101969242, -0.053396642208099365, 0.14120307564735413, -0.14515843987464905, -0.004076000303030014, -0.10373282432556152, -0.1084531769156456, 0.03334580734372139, -0.021881652995944023, 0.08081643283367157, -0.059104159474372864, 0.040305379778146744, 0.046046242117881775, 0.022251460701227188, 0.029748301953077316, 0.03239814192056656, 0.1139606460928917, 0.027541808784008026, 0.029288778081536293, 0.007327426690608263, -0.09858321398496628, 0.009763824753463268, 0.06995578855276108, 0.14077802002429962, -0.010566864162683487, -0.03506365418434143, -0.01081906072795391, -0.04647371917963028, 0.018341299146413803, 0.029119987040758133, -1.706592593109235e-05, -0.07449081540107727, 0.011915554292500019, 0.06100925803184509, -0.018630901351571083, 0.020234806463122368, -0.018858423456549644, 0.1678360402584076, -0.01134237926453352, 0.062397588044404984, 0.033167459070682526, -0.05890680104494095, -0.09117282181978226, 0.01823195070028305, 0.0665256679058075, -0.028868963941931725, 0.01761932112276554, 0.136864572763443, -0.032462723553180695, -0.10557921230792999, -0.03131899982690811, -0.009527199901640415, -0.01724538393318653, -0.032435864210128784, 0.010717886500060558, -0.17850936949253082, 0.03323075920343399, 0.036059312522411346, 0.08720701932907104, -0.0806455910205841, 0.008791875094175339, 0.15014399588108063, -0.07694189995527267, 0.007897483184933662, 0.08108256757259369, 0.24479280412197113, -0.03691022843122482, 0.053123582154512405, 0.04529832303524017, -0.042866047471761703, -0.019933896139264107, 0.09784293174743652, 0.21791841089725494, -0.14585860073566437, 0.08656873553991318, 0.12825940549373627, 0.060675229877233505, -0.10053128749132156, 0.14564210176467896, 0.17356997728347778, -0.13699069619178772, -0.05388140305876732, 0.10511142015457153, -0.03074687533080578, -0.16172626614570618, 0.5345535278320312, 0.1976882517337799, -0.24258945882320404, 0.014372586272656918, 0.0971231609582901, 0.0510338619351387, -0.022168094292283058, 0.16136716306209564, 0.14546963572502136, -0.23335684835910797, -0.0029931715689599514, 0.06340564042329788, -0.006373619195073843, 0.12317003309726715, 0.06632962822914124, 0.18646956980228424, -0.36406224966049194, 0.06002674251794815, 0.11774560064077377, 0.0729350671172142, 0.0032189039047807455, 0.1468629240989685, 0.2011648714542389, -0.22940443456172943, 0.011326219886541367, 0.0450209304690361, 0.0830339565873146, 0.017576755955815315, -0.05789050832390785, 0.28867849707603455, -0.2268998920917511, 0.04488305002450943, 0.1074141338467598, 0.07134798914194107, 0.009495159611105919, 0.10398899018764496, 0.08965078741312027, -0.25866785645484924, 0.05770036578178406, 0.12294244766235352, 0.06690522283315659, -0.14929825067520142, 0.08931784331798553, 0.28433310985565186, -0.26860311627388, -0.005764145404100418, 0.2562122642993927, 0.10562039911746979, -0.10477662831544876, 0.09342101216316223, 0.14770746231079102, -0.29670438170433044, -0.15015959739685059, 0.10627982765436172, 0.012722281739115715, -0.1408521980047226, 0.03823159262537956, 0.2022504061460495, -0.27585604786872864, -0.19795891642570496, 0.1409619003534317, 0.006916936486959457, -0.0793856605887413, 0.14161208271980286, 0.3409275710582733, -0.35767385363578796, -0.33419445157051086, 0.18615484237670898, -0.029772458598017693, -0.007783021777868271, 0.041472483426332474, 0.41538092494010925, -0.30959591269493103, -0.37999364733695984, 0.03561101481318474, -0.0007783647743053734, -0.08075825870037079, 0.048576176166534424, 0.4748493731021881, -0.16014473140239716, -0.3572753965854645, -0.025772742927074432, -0.09424564987421036, 0.020821625366806984, 0.060215894132852554, 0.40405237674713135, -0.08243346959352493, -0.3320373296737671, 0.013249904848635197, 0.04905281960964203, -0.1606776863336563, 0.01202392764389515, 0.42785894870758057, -0.08999355882406235, -0.22533343732357025, -0.016469432041049004, 0.004403396043926477, -0.13532987236976624, -0.033939164131879807, 0.4400019645690918, -0.10260885208845139, -0.0711621418595314, -0.13246029615402222, -0.08605389297008514, -0.07348752021789551, 0.00013920117635279894, 0.315223753452301, -0.0541243813931942, 0.01489354483783245, -0.024690577760338783, -0.18849821388721466, -0.12285934388637543, -0.016800465062260628, 0.23272627592086792, 0.008349459618330002, 0.07242126762866974, -0.16072608530521393, -0.005703320726752281, -0.027677295729517937, -0.008249057456851006, 0.23940353095531464, -0.008201804012060165, 0.19113489985466003, -0.1628054529428482, 0.002175426110625267, 0.013967247679829597, 0.06273127347230911, 0.1954054981470108, 0.20271724462509155, -0.048609208315610886, -0.0996219664812088, 0.07426617294549942, -0.006666878703981638, -0.0027763964608311653, 0.15739206969738007, 0.3877364695072174, -0.3136807978153229, -0.034904927015304565, 0.0007585836574435234, -0.0071673146449029446, -0.056248631328344345, 0.16418308019638062, 0.36114802956581116, -0.31324949860572815, -0.07873639464378357, -0.0021472761873155832, -0.1905403882265091, 0.4875657558441162], [0.047213729470968246, 0.015679022297263145, 0.6248931288719177, 0.0005003436817787588, 0.024278707802295685, -0.12224790453910828, 0.018685122951865196, -0.004040348343551159, -0.0012558045564219356, 0.5389974117279053, 0.003889689454808831, -0.0411844365298748, 5.633476030197926e-05, -0.10132929682731628, -0.01178045105189085, 0.13377156853675842, 0.40318799018859863, -0.05260491371154785, -0.09321702271699905, -0.028641805052757263, -0.18594209849834442, 0.07553225755691528, 0.09830010682344437, 0.20811504125595093, -0.07514537125825882, -0.08886899799108505, 0.03725004941225052, -0.12054365128278732, -0.0683949813246727, 0.07427926361560822, 0.14931346476078033, 0.12374380975961685, -0.17600610852241516, 0.07946126908063889, -0.1070721223950386, -0.05171729624271393, 0.0072522247210145, -0.052353546023368835, 0.1247050017118454, -0.1523851603269577, -0.23134766519069672, 0.08358822762966156, -0.22851820290088654, -0.05867485702037811, 0.025446906685829163, -0.05654953792691231, -0.295597642660141, -0.08102048933506012, 0.06683862209320068, -0.20968294143676758, -0.03576124086976051, -0.13035784661769867, 0.008701655082404613, -0.28540685772895813, -0.22541426122188568, 0.16383662819862366, -0.15018798410892487, -0.014521175064146519, -0.18640434741973877, 0.0688990131020546, -0.19878223538398743, -0.09761486947536469, 0.21855606138706207, 0.007750038988888264, -0.04101995378732681, -0.36800000071525574, 0.025936830788850784, -0.352200448513031, -0.0024667312391102314, 0.19512297213077545, -0.04276435077190399, 0.1668802946805954, -0.58400958776474, 0.05131194740533829, -0.32481253147125244, -0.06427144259214401, 0.31547632813453674, -0.08304328471422195, 0.14925777912139893, -0.7733875513076782, -0.06196756288409233, -0.17590630054473877, 0.11434955149888992, 0.2431728094816208, 0.047022148966789246, 0.18457922339439392, -0.7910183668136597, 0.04515593871474266, -0.04377131909132004, 0.022008050233125687, 0.28388598561286926, -0.03357623144984245, 0.2193664312362671, -0.4333637058734894, 0.022508487105369568, -0.17921152710914612, -0.02161530777812004, 0.19762083888053894, 0.09796903282403946, 0.02972382865846157, -0.2293729931116104, -0.09012763947248459, -0.058926500380039215, -0.08861517161130905, -0.03314211592078209, 0.09446203708648682, 0.1359902173280716, 0.17945292592048645, 0.009618065319955349, 0.07080293446779251, 0.05972905084490776, -0.14252421259880066, 0.06601663678884506, -0.038009487092494965, -0.15110105276107788, -0.07721178978681564, 0.19921979308128357, 0.010994787327945232, -0.058826692402362823, 0.02265867218375206, 0.17588815093040466, -0.05006049945950508, 0.09338810294866562, -0.19193953275680542, 0.0153562156483531, 0.02964683622121811, -0.02092624641954899, 0.06416989117860794, -0.09602513164281845, 0.0319175198674202, -0.13822506368160248, 0.1417585015296936, 0.01989724114537239, -0.05965825542807579, -0.02622431516647339, -0.12237097322940826, -0.06890397518873215, 0.06708117574453354, 0.008920498192310333, 0.023853851482272148, -0.0017246551578864455, -0.002568628638982773, -0.13686874508857727, -0.10677578300237656, -0.1623990684747696, -0.012322665192186832, 0.09967334568500519, -0.13822577893733978, 0.15002061426639557, -0.25638553500175476, 0.0413295216858387, -0.07169489562511444, -0.05280443653464317, -0.003537154523655772, 0.1298852264881134, 0.041139669716358185, -0.3029792308807373, 0.09177370369434357, 0.03945017606019974, 0.0023043458350002766, 0.0746697261929512, 0.014290682040154934, 0.11739085614681244, -0.08576938509941101, 0.1364205777645111, -0.06100820004940033, 0.08615477383136749, 0.06466807425022125, -0.04145082086324692, 0.03425285592675209, -0.2580573856830597, 0.05323532968759537, -0.19207045435905457, 0.09867744892835617, 0.06863085925579071, 0.029055841267108917, 0.017561545595526695, -0.05798638239502907, -0.09373114258050919, -0.05064554139971733, -0.17508894205093384, 0.24266991019248962, 0.1124424859881401, 0.03526228666305542, -0.1588152050971985, 0.09965454787015915, 0.027103394269943237, -0.048085082322359085, -0.009383445605635643, -0.03138298541307449, 0.03957687318325043, -0.12183553725481033, -0.01038067415356636, -0.07223432511091232, -0.04794127866625786, 0.17172588407993317, -0.0034644699189811945, -0.10335271060466766, -0.270989328622818, 0.04500865936279297, 0.20072942972183228, 0.10915787518024445, 