{"schema_version": 1, "metadata": {"global_step": 48801792, "run_name": "v102_b2beta", "obs_size": 341, "hidden_size": 64, "action_space_size": 18}, "weights": {"fc1.weight": [[0.22761321067810059, -0.0906112790107727, -0.010274008847773075, -0.054915718734264374, 0.06367412954568863, -0.018922938033938408, -0.06651721149682999, 0.1381775587797165, -0.012894382700324059, -0.24661096930503845, -0.01894732192158699, 0.046462155878543854, -0.07094080001115799, 0.019957685843110085, 0.0915008932352066, 0.13820607960224152, -0.07209328562021255, -0.10491219907999039, -0.008711381815373898, 0.0020253006368875504, -0.49112269282341003, 0.22883062064647675, -0.10863403975963593, 0.043472107499837875, 0.044964734464883804, -0.05058826878666878, -0.04696610942482948, -0.183632031083107, 0.2195422649383545, -0.03499888628721237, -0.1380743682384491, 0.21999728679656982, 0.04156968742609024, -0.15268366038799286, 0.013157356530427933, 0.15960319340229034, -0.03792024403810501, -0.11170079559087753, -0.037794485688209534, 0.1596781313419342, 0.1256243735551834, -0.07096158713102341, 0.1860494762659073, -0.08343872427940369, -0.11514221876859665, -0.09872739762067795, 0.08295803517103195, 0.17198652029037476, 0.010812223888933659, 0.05765051022171974, 0.13868112862110138, -0.14247827231884003, -0.016150062903761864, 0.05264504998922348, 0.14152783155441284, -0.11659998446702957, 0.23036538064479828, 0.05420996993780136, -0.3629879057407379, 0.18757782876491547, -0.015571881085634232, 0.03095657005906105, -0.14755646884441376, 0.09326671063899994, -0.04018201306462288, -0.1897808462381363, -0.07957407832145691, 0.038440804928541183, 0.3117022216320038, 0.04113079234957695, 0.12387433648109436, -0.029545336961746216, -0.21832570433616638, 0.05782438814640045, -0.10980921238660812, 0.13082870841026306, -0.10599765181541443, 0.1261739283800125, 0.24772177636623383, -0.24825704097747803, -0.012726463377475739, 0.19747664034366608, 0.17491525411605835, 0.01835968904197216, 0.1713942140340805, -0.05952580273151398, -0.09840554744005203, -0.0410986989736557, -0.019903169944882393, -0.0350472554564476, 0.0041375914588570595, 0.222745880484581, -0.01990775391459465, -0.13343310356140137, 0.009255492128431797, 0.12124323099851608, 0.11051220446825027, 0.06366096436977386, 0.18407928943634033, -0.044214654713869095, -0.13609053194522858, 0.17201298475265503, 0.03811810910701752, 0.012508226558566093, 0.09573501348495483, -0.02449960820376873, -0.16626299917697906, -0.2132384479045868, -0.11867991834878922, -0.055049970746040344, 0.1097843125462532, 0.09047707915306091, -0.02940145507454872, -0.0767047256231308, -0.09981899708509445, 0.16302445530891418, 0.024513348937034607, -0.016228744760155678, -0.09427203238010406, 0.13131465017795563, -0.03371066227555275, 0.06219611316919327, -0.04967937991023064, -0.10533077269792557, 0.05717571824789047, -0.0661298930644989, -0.0024832338094711304, 0.04903966560959816, 0.11850585788488388, 0.028448719531297684, -0.01834811270236969, -0.13498686254024506, -0.05423467978835106, 0.046730346977710724, -0.2601221799850464, -0.001175289391539991, -0.025379730388522148, -0.04406855255365372, -0.10082526504993439, -0.0029280686285346746, 0.05915861576795578, 0.019956743344664574, 0.040709927678108215, -0.048978857696056366, 0.0030759060755372047, -0.07673324644565582, -0.10901711136102676, -0.01684992015361786, -0.08673956245183945, -0.08832769840955734, 0.1968642771244049, 0.01373665127903223, -0.33113861083984375, 0.0682872012257576, -0.005323055665940046, -0.10068310052156448, 0.11947889626026154, 0.14844629168510437, -0.13562896847724915, -0.33875879645347595, 0.13896605372428894, 0.15006601810455322, 0.053702495992183685, -0.08275239169597626, 0.037174053490161896, 0.00438595749437809, -0.5571143627166748, 0.27970078587532043, -0.0385640524327755, -0.04421348124742508, -0.11214916408061981, 0.11063992977142334, -0.23902440071105957, -0.5166173577308655, 0.10592477023601532, 0.07704544812440872, -0.021544847637414932, -0.026987193152308464, 0.032530587166547775, -0.48025164008140564, -0.7554608583450317, 0.1280786544084549, -0.0960414856672287, 0.10208217799663544, -0.16070988774299622, 0.005515762604773045, -0.47969263792037964, -0.8757190108299255, 0.10820704698562622, -0.02809523604810238, -0.09152776002883911, -0.1397528350353241, -0.008217346854507923, -0.05079634487628937, -0.8317691683769226, 0.15110443532466888, 0.041027773171663284, -0.09997691214084625, -0.08796750754117966, 0.025151744484901428, -0.126573845744133, -0.8261608481407166, 0.1843058317899704, 0.019851846620440483, 0.08567405492067337, -0.16262950003147125, -0.03371693193912506, -0.3847441077232361, -0.7858728766441345, 0.18905435502529144, 0.011139091104269028, 0.09731127321720123, -0.11884833127260208, -0.13780483603477478, -0.3227740228176117, -0.7054831981658936, 0.23693464696407318, 0.011460892856121063, 0.059911251068115234, -0.2226063758134842, -0.020384829491376877, -0.4079723358154297, -0.4959831237792969, 0.21996451914310455, 0.019586779177188873, -0.004162643104791641, -0.19263172149658203, -0.07783439755439758, -0.4718676209449768, -0.5608348846435547, 0.22939789295196533, 0.06266440451145172, 0.08892913162708282, -0.138998880982399, -0.16065534949302673, -0.10954310745000839, -0.3599969744682312, 0.11526330560445786, 0.22705741226673126, -0.03249022364616394, -0.13900397717952728, -0.11362965404987335, -0.137192040681839, -0.17307411134243011, 0.05103754997253418, -0.03707893192768097, 0.017464058473706245, -0.23978421092033386, 0.06540762633085251, 0.09635553508996964, -0.1922411471605301, 0.18593887984752655, 0.17536690831184387, 0.07301727682352066, -0.03538006171584129, 0.00810005608946085, -0.18662849068641663, -0.2010606825351715, 0.15316787362098694, 0.10441192239522934, 0.05187222734093666, -0.32349449396133423, -0.05229395255446434, -0.05762264505028725, -0.16653648018836975, 0.04702609032392502, 0.11434831470251083, -0.02288128435611725, -0.290380597114563, -0.021722208708524704, -0.28945720195770264, -0.12382648885250092, 0.1672356128692627, 0.02260969765484333, 0.06990551203489304, -0.27203449606895447, -0.060309819877147675, -0.18308453261852264, 0.04367997124791145, 0.1077367290854454, 0.07290785014629364, -0.05127755180001259, -0.16384199261665344, 0.02495807595551014, -0.06964575499296188, 0.21897758543491364, -0.09625934064388275, 0.008889946155250072, 0.10110660642385483, -0.5740149021148682, 0.08462193608283997, -0.023945603519678116, 0.052224256098270416, -0.19772370159626007, -0.03419903293251991, 0.08639812469482422, -0.281832218170166, 0.025898244231939316, 0.20516809821128845, 0.12464138120412827, -0.078098826110363, 0.1711471676826477, 0.04110923781991005, -0.3310692012310028, 0.007818708196282387, -0.04376419633626938, 0.18136395514011383, 0.11997700482606888, 0.011084724217653275, -0.09401220083236694, -0.3536219596862793, 0.028095463290810585, 0.006204159464687109, 0.18202900886535645, 0.17389215528964996, -0.23188768327236176, -0.03553420305252075, -0.015511870384216309, -0.05780032277107239, -0.06928045302629471, 0.07342860102653503, 0.36453044414520264, 0.08427999913692474, 0.0219783466309309, -0.12127605080604553, -0.06586486846208572, 0.08427859842777252, 0.05983687937259674, -0.10845105350017548, 0.005188101436942816, -0.15625378489494324, -0.06268183141946793, 0.028232092037796974, 0.07077957689762115, 0.03313949331641197, -0.3150213360786438, -0.018132667988538742, 0.27390220761299133, 0.7311886548995972, -0.1983635574579239, 0.7498130798339844], [-0.14638547599315643, 0.11498254537582397, -0.07322961091995239, -0.09144371002912521, 0.18300019204616547, -0.07186859101057053, -0.2207632064819336, -0.1758972406387329, -0.0818367749452591, 0.00920139905065298, 0.08236707001924515, 0.04855029657483101, -0.10297873616218567, -0.07632935792207718, 0.025928961113095284, 0.14484578371047974, -0.049667466431856155, 0.026701979339122772, 0.1476971060037613, -0.1281851977109909, -0.10843969136476517, 0.07285838574171066, 0.20473286509513855, -0.12007850408554077, -0.07806600630283356, 0.15557417273521423, -0.09198692440986633, -0.1942375898361206, 0.13406868278980255, 0.25620192289352417, -0.09144166857004166, 0.047376859933137894, 0.13033156096935272, -0.03422887623310089, -0.07856527715921402, 0.02131746895611286, -0.0514635369181633, 0.007125962525606155, -0.029537495225667953, 0.05418405681848526, -0.05490061640739441, 0.00452613178640604, 0.1917935162782669, 0.08217426389455795, -0.1938147395849228, 0.04235531762242317, 0.017795762047171593, -0.15262141823768616, 0.03534300997853279, 0.16245099902153015, 0.22994744777679443, -0.21365946531295776, 0.06037486344575882, 0.0384347103536129, -0.049312807619571686, 0.018636049702763557, 0.23508933186531067, 0.13732193410396576, -0.4691582918167114, 0.01251243520528078, 0.015964871272444725, 0.013526828028261662, 0.10383976995944977, 0.07797542214393616, -0.08583641052246094, -0.3167002499103546, -0.046092402189970016, 0.14164835214614868, 0.29488831758499146, -0.09886404126882553, 0.05583634227514267, 0.025547539815306664, -0.5520630478858948, 0.02783999964594841, 0.11914479732513428, -0.05065644904971123, 0.16580620408058167, 0.10703077167272568, 0.056984588503837585, -0.5936479568481445, -0.028499219566583633, 0.1963677853345871, 0.17986975610256195, 0.1801305115222931, -0.14840205013751984, 0.11406340450048447, -0.4224964678287506, -0.005420919973403215, -0.052445150911808014, 0.30258214473724365, 0.1361365169286728, 0.06484386324882507, 0.05243375524878502, -0.561627209186554, -0.1722412407398224, -0.11080627143383026, 0.13450677692890167, 0.13445189595222473, -0.03618234395980835, 0.23196984827518463, -0.47810205817222595, -0.03249431028962135, -0.17757707834243774, 0.053660955280065536, 0.04566532000899315, 0.04673454165458679, 0.007861478254199028, -0.5911383032798767, -0.014233698137104511, 0.10421814024448395, 0.23787876963615417, 0.1436404138803482, 0.09289504587650299, 0.3012814223766327, -0.5556870698928833, -0.02567887492477894, 0.009030085988342762, 0.03470534458756447, 0.09863566607236862, -0.10431507974863052, 0.04527433216571808, -0.45497360825538635, 0.1438455730676651, -0.08414842188358307, 0.13917982578277588, 0.2412295937538147, 0.04147147014737129, 0.03783527389168739, -0.4527239501476288, -0.14667335152626038, 0.06250563263893127, 0.10881077498197556, 0.29039841890335083, -0.0009838939877226949, 0.06737061589956284, -0.5304824113845825, -0.10775063931941986, 0.01948806829750538, 0.025200705975294113, 0.23444227874279022, -0.031133631244301796, 0.15011464059352875, -0.5518123507499695, -0.049182046204805374, 0.04290991649031639, 0.052196938544511795, 0.365816205739975, -0.07520179450511932, 0.05952703207731247, -0.32855477929115295, -0.053565409034490585, 0.16182830929756165, 0.013535896316170692, 0.29050108790397644, -0.06941546499729156, 0.0880536213517189, 0.011108353734016418, 0.00046894553815945983, -0.1423138678073883, 0.05444706976413727, 0.015163728967308998, 0.03095768578350544, 0.0681718960404396, -0.044420018792152405, 0.03143664449453354, -0.0045217047445476055, -0.21636764705181122, -0.19170649349689484, -0.09266343712806702, -0.11686909943819046, 0.2639343738555908, 0.0217220950871706, 0.024226617068052292, -0.26229557394981384, 0.06580421328544617, -0.08501390367746353, -0.21424049139022827, -0.012056021019816399, -0.05759405344724655, -0.1479485034942627, -0.024769818410277367, 0.038193993270397186, -0.08217468857765198, -0.2041052281856537, -0.047104571014642715, 0.020753249526023865, 0.06832766532897949, 0.027027534320950508, -0.0642876997590065, -0.04297051206231117, -0.08654319494962692, -0.03510738164186478, 0.004522170405834913, -0.043609075248241425, -0.06902501732110977, 0.09168119728565216, 0.00786721520125866, 0.007374657317996025, -0.15851446986198425, 0.04773859307169914, -0.1303921788930893, -0.228193998336792, -0.010159233585000038, -0.09137459844350815, -0.10272216796875, -0.07891637831926346, 0.06259340792894363, 0.03852883726358414, -0.13993197679519653, 0.059843096882104874, -0.23989789187908173, -0.2747144401073456, 0.19533997774124146, -0.22807128727436066, 0.09390780329704285, -0.2299126833677292, 0.05086202546954155, 0.008449186570942402, -0.15422771871089935, 0.1524495631456375, 0.06958667188882828, -0.16305293142795563, 0.1189950704574585, -0.002370658563449979, -0.24995720386505127, -0.12566441297531128, 0.07072115689516068, 0.10477858036756516, -0.21692679822444916, -0.04767635092139244, -0.11885173618793488, -0.28662341833114624, -0.12075237929821014, 0.3359987735748291, 0.08446264266967773, -0.2492697536945343, -0.0856047123670578, -0.06742426753044128, -0.024753674864768982, -0.23220394551753998, 0.1833128184080124, -0.10208595544099808, -0.11978764086961746, 0.029066774994134903, 0.03723818063735962, 0.05238272622227669, 0.07412584871053696, 0.2883702516555786, -0.18415658175945282, -0.24908918142318726, -0.07844837009906769, 0.037594038993120193, -0.09602029621601105, 0.07631567865610123, 0.2481178194284439, -0.11843027919530869, -0.38504156470298767, -0.06563182920217514, 0.0032136859372258186, -0.14695774018764496, -0.0645759254693985, 0.25942787528038025, 0.09906752407550812, 0.2388366460800171, -0.15370382368564606, -0.01594216376543045, -0.1487465351819992, -0.2137787938117981, 0.26691314578056335, 0.024585800245404243, 0.2341809719800949, -0.10506761074066162, -0.03779622167348862, -0.10363461077213287, -0.16451075673103333, 0.1883583962917328, 0.07016868889331818, 0.06302928924560547, -0.04296405613422394, 0.23578622937202454, -0.030590474605560303, -0.29891133308410645, 0.273750364780426, 0.05995814874768257, -0.1962624490261078, -0.21220071613788605, 0.2246399223804474, -0.04927968233823776, -0.20012277364730835, 0.3335472345352173, 0.01809859275817871, 0.11333667486906052, -0.07212312519550323, 0.13569104671478271, -0.013577310368418694, -0.2806258797645569, 0.3338804244995117, 0.062062643468379974, -0.14152395725250244, -0.09876807779073715, 0.38610655069351196, 0.047073353081941605, -0.22724510729312897, 0.4011365473270416, -0.07792642712593079, -0.08199047297239304, -0.26104485988616943, 0.21036657691001892, 0.20091386139392853, -0.01010893564671278, 0.10017802566289902, 0.07163932174444199, -0.10421758145093918, -0.0837196484208107, 0.3907332718372345, 0.26320457458496094, -0.005380233749747276, 0.21308204531669617, -0.1262567788362503, -0.02399912290275097, -0.016029946506023407, 0.3102920949459076, 0.22918404638767242, 0.048323921859264374, 0.03148415684700012, -0.03648635745048523, -0.07161228358745575, -0.02598864957690239, 0.35398051142692566, -0.034977205097675323, -0.13053449988365173, -0.05756717920303345, 0.09923943877220154, 0.022706788033246994, -0.12426606565713882, 0.42345768213272095, -0.18174567818641663, 0.1415765881538391, -0.6083571910858154, 0.40150323510169983, -0.33736711740493774], [0.3342454135417938, -0.08339069038629532, 0.329614520072937, 0.010060099884867668, -0.17596614360809326, 0.1001339852809906, 0.03177760913968086, 0.11773465573787689, -0.037335991859436035, 0.20022250711917877, 0.043199822306632996, -0.16596096754074097, 0.14089274406433105, 0.05281275510787964, -0.23182553052902222, 0.006792144384235144, 0.1529213935136795, 0.06300079822540283, -0.19280828535556793, -0.0011523575522005558, 0.20140387117862701, 0.06779149174690247, 0.09111293405294418, -0.0623001828789711, -0.1000923365354538, -0.09150232374668121, -0.03811732307076454, 0.02129368856549263, 0.17611438035964966, 0.14507363736629486, -0.14760860800743103, -0.07592672854661942, -0.21104292571544647, -0.13156713545322418, 0.0804007276892662, 0.26167425513267517, 0.007659400347620249, -0.267911434173584, -0.12388496100902557, 0.04995705559849739, -0.12333841621875763, -0.14116960763931274, 0.3010026216506958, 0.05065855383872986, -0.102999247610569, 0.10511364042758942, 0.011323551647365093, -0.07747562974691391, -0.002030623145401478, 0.33296480774879456, 0.16171951591968536, -0.13700658082962036, 0.08069762587547302, 0.026547670364379883, -0.13421887159347534, 0.12349501997232437, 0.11258131265640259, 0.04976591095328331, -0.11549481004476547, 0.06563236564397812, -0.07037780433893204, -0.06570369005203247, -0.0679502785205841, 0.21324333548545837, 0.06875345855951309, -0.10672169178724289, 0.13838455080986023, -0.07185777276754379, -0.059994976967573166, 0.03014744259417057, 0.011063073761761189, -0.011958588846027851, -0.05818109214305878, -0.009093906730413437, -0.09912833571434021, -0.06006510555744171, -0.03692290931940079, -0.0025998330675065517, -0.09973397105932236, 0.4070161283016205, 0.05215265229344368, -0.21409206092357635, -0.06923867017030716, -0.14668400585651398, 0.001275049289688468, -0.16765961050987244, 0.5763813853263855, -0.09399597346782684, -0.12190404534339905, -0.026876837015151978, 0.00016086296818684787, -0.11805570870637894, -0.14069035649299622, 0.3777325749397278, -0.01493065431714058, -0.04949804022908211, -0.07124116271734238, -0.10350485891103745, 0.016567479819059372, -0.2814967930316925, 0.23423567414283752, -0.008998755365610123, -0.16588598489761353, 0.004237666726112366, -0.19391004741191864, -0.10924623161554337, -0.073325976729393, 0.20924165844917297, 0.03250672295689583, -0.17272213101387024, -0.03604171797633171, -0.006558074615895748, -0.2495211660861969, -0.24791033565998077, 0.4018876552581787, 0.03846248984336853, -0.008144624531269073, -0.025883862748742104, -0.3506731688976288, -0.20631475746631622, -0.14717672765254974, 0.26464009284973145, -0.06178133189678192, -0.042880650609731674, -0.03287391737103462, -0.1819283813238144, -0.053984321653842926, -0.19320020079612732, 0.29477280378341675, 0.02578406035900116, 0.06049775332212448, -0.03625344857573509, -0.34008100628852844, -0.20088788866996765, -0.08911918848752975, 0.22448168694972992, 0.22949232161045074, 0.007884275168180466, -0.17470616102218628, -0.12117813527584076, -0.025481583550572395, -0.22846518456935883, 0.20568351447582245, 0.07602642476558685, -0.003551095025613904, -0.05206843093037605, -0.04392340034246445, -0.20943842828273773, -0.3299427926540375, 0.15760016441345215, -0.15351128578186035, -0.13964636623859406, -0.08928849548101425, 0.05648563802242279, -0.12500131130218506, -0.3241593837738037, 0.21727293729782104, 0.1259697526693344, -0.3475305140018463, -0.029162289574742317, 0.10778219997882843, 0.006704125087708235, -0.2425447553396225, 0.1132199838757515, 0.053362809121608734, -0.22153545916080475, -0.037776798009872437, 0.15643057227134705, -0.06781915575265884, -0.24186982214450836, 0.3054359555244446, 0.06956405192613602, -0.33564749360084534, 0.03545690327882767, 0.0414314828813076, -0.14186164736747742, -0.40413275361061096, 0.127030149102211, -0.09543885290622711, -0.4189971089363098, 0.16349217295646667, -0.0034369041677564383, -0.2774300277233124, -0.20043766498565674, 0.2307961881160736, -0.05343889445066452, -0.2148139625787735, -0.026362862437963486, -0.14407551288604736, -0.3524906039237976, -0.16188116371631622, 0.26115161180496216, 0.05372083559632301, -0.20834310352802277, -0.07919053733348846, -0.22831100225448608, -0.28567683696746826, -0.06574113667011261, 0.2060522586107254, 0.08371531963348389, -0.270681232213974, -0.014708985574543476, -0.22199012339115143, -0.194954052567482, -0.05527402088046074, 0.1832057237625122, 0.030053088441491127, -0.21301311254501343, 0.0017768862890079618, -0.16732197999954224, -0.11867141723632812, 0.10817117989063263, 0.11114136129617691, -0.1313277781009674, -0.4460044205188751, -0.1214417889714241, -0.05244075506925583, 0.14073136448860168, 0.04828358814120293, 0.08391348272562027, -0.15654915571212769, -0.23346123099327087, -0.01998629979789257, -0.28143510222435, 0.0356592983007431, -0.055706437677145004, 0.04773520678281784, -0.06603549420833588, -0.5186589360237122, -0.026804089546203613, -0.010699238628149033, 0.3408013880252838, 0.2442709058523178, -0.2331339716911316, 0.06050267070531845, -0.12139963358640671, 0.039952296763658524, 0.07584559172391891, 0.22231394052505493, 0.14947576820850372, -0.2683391869068146, 0.08746787160634995, -0.19483530521392822, 0.12933266162872314, -0.18844294548034668, 0.09822618961334229, 0.03617832437157631, -0.2984079122543335, -0.0002421017998130992, -0.22200781106948853, -0.01730518788099289, -0.13559983670711517, 0.22232748568058014, 0.2170868068933487, -0.18546490371227264, -0.05761312320828438, -0.2084342986345291, 0.13579078018665314, -0.11660522222518921, 0.062276557087898254, 0.28733184933662415, -0.09702087193727493, 0.00017581589054316282, -0.12173524498939514, -0.00855607446283102, -0.13759413361549377, 0.008483321405947208, 0.09688398241996765, -0.2573590576648712, 0.035207349807024, 0.06257308274507523, 0.13992199301719666, -0.05996604263782501, -0.10029174387454987, 0.0593782514333725, -0.09915187209844589, -0.12952381372451782, -0.11033699661493301, 0.23129211366176605, -0.1133636012673378, -0.03460020571947098, 0.10039146989583969, -0.2550208866596222, -0.15665893256664276, -0.17410026490688324, 0.05102977901697159, -0.0583462193608284, -0.036230042576789856, -0.030762946233153343, -0.28520119190216064, 0.09803000837564468, -0.051678769290447235, -0.08344770967960358, -0.02053982764482498, 0.12702544033527374, 0.03714212402701378, -0.05419337376952171, 0.09027538448572159, -0.18974395096302032, -0.032685477286577225, 0.17956659197807312, 0.021736063063144684, -0.08500037342309952, -0.23087628185749054, 0.1523560881614685, -0.04755961149930954, 0.01332208700478077, -0.04574122279882431, 0.23900185525417328, -0.09901834279298782, -0.11341299116611481, 0.15681235492229462, -0.07874827086925507, 0.13417883217334747, -0.05234561860561371, -0.12798543274402618, -0.1325487196445465, -0.029608018696308136, -0.04540396109223366, -0.17902295291423798, 0.1314108520746231, -0.034035563468933105, -0.054151300340890884, -0.12158267945051193, 0.3726528584957123, 0.005014629103243351, -0.2001085728406906, 0.05449797213077545, -0.01992020010948181, -0.04038289561867714, 0.0038879907224327326, 0.3474200665950775, 0.012528648599982262, -0.12574385106563568, -0.08514510095119476, 0.18878085911273956, -0.21858234703540802, 0.2779806852340698, 0.28173914551734924, -0.5331811904907227, -0.8301568627357483], [-0.19153770804405212, -0.08563029766082764, 0.044459521770477295, 0.02832574024796486, -0.05293234810233116, -0.10679465532302856, 0.0421992652118206, -0.13773538172245026, -0.09402849525213242, -0.07843387126922607, -0.004895247519016266, -0.002885188441723585, -0.101430743932724, 0.3617408275604248, -0.2981257438659668, 0.04570551961660385, 0.3098475933074951, -0.017490606755018234, -0.0319899283349514, -0.1679929792881012, 0.34705331921577454, -0.14315414428710938, -0.06061604991555214, 0.4349878430366516, -0.03964352235198021, -0.009943634271621704, -0.2071666717529297, 0.35234910249710083, -0.2755334675312042, -0.12597207725048065, 0.43030792474746704, 0.10312582552433014, -0.0006904959445819259, 0.07044871151447296, 0.13165710866451263, 0.1885368525981903, -0.11507906764745712, 0.3592528700828552, 0.003385254880413413, -0.042564757168293, -0.18559563159942627, 0.10983387380838394, 0.05256488174200058, -0.0671493411064148, 0.38616514205932617, -0.006958015263080597, 0.15458621084690094, -0.04425094276666641, 0.013012703508138657, 0.04193434864282608, -0.10477163642644882, 0.44911012053489685, 0.06865082681179047, 0.06703968346118927, -0.04240035265684128, -0.17387190461158752, 0.24933157861232758, -0.03234700858592987, 0.3688422739505768, 0.06610549241304398, 0.1585225760936737, -0.17868469655513763, -0.06230788305401802, 0.06692644208669662, -0.16517551243305206, 0.34827330708503723, -0.08276558667421341, -0.016571521759033203, 0.01661890372633934, -0.14430436491966248, 0.2672887444496155, -0.12388525903224945, 0.4189334809780121, 0.07209935784339905, 0.03847210109233856, -0.07965250313282013, 0.02186782844364643, 0.04137207195162773, -0.16313211619853973, 0.17796991765499115, 0.0736277848482132, 0.06957249343395233, -0.07340843230485916, 0.008379664272069931, 0.15865018963813782, -0.0670846700668335, 0.20192766189575195, -0.025585560128092766, -0.05343842878937721, -0.0975392758846283, -0.0029647296760231256, 0.08019955456256866, -0.029011521488428116, 0.06582914292812347, -0.041745901107788086, 0.04802835360169411, 0.10184676945209503, -0.028683386743068695, 0.026765530928969383, 0.009084650315344334, 0.118370920419693, 0.005690598860383034, -0.02283499203622341, -0.016813283786177635, -0.0017510554753243923, -0.03945557400584221, -0.1816072314977646, -0.17537617683410645, 0.0370979942381382, -0.1115141287446022, -0.024396605789661407, -0.053497955203056335, 0.016180559992790222, 0.07686770707368851, -0.2639913260936737, 0.09490296244621277, 0.02937609702348709, -0.012619556859135628, 0.01730187050998211, 0.09360039979219437, 0.061843737959861755, -0.2675595283508301, -0.09986358135938644, 0.050639547407627106, -0.05673721060156822, 0.10160905122756958, 0.11057828366756439, 0.12109457701444626, -0.3627682030200958, 0.1115085706114769, 0.09064611047506332, 0.006661838851869106, 0.09072630107402802, 0.17590545117855072, 0.10387179255485535, -0.8045122027397156, -0.05743371322751045, -0.008306246250867844, 0.0848359540104866, 0.22669050097465515, 0.2569974660873413, 0.13637091219425201, -0.6002809405326843, -0.08733256161212921, 0.06881481409072876, 0.03081989847123623, 0.19515441358089447, 0.2078227996826172, 0.12492559105157852, -0.5492545366287231, -0.07331470400094986, 0.17661349475383759, 0.05501915141940117, 0.21502813696861267, 0.17987215518951416, 0.28633353114128113, -0.4087413549423218, -0.06442153453826904, 0.04204826056957245, 0.04583631828427315, 0.276900053024292, 0.17736227810382843, 0.2686102092266083, -0.33091291785240173, 0.17352250218391418, -0.018297741189599037, 0.004614375531673431, 0.2107473462820053, 0.02796533703804016, 0.2564285397529602, -0.37396010756492615, 0.07098957151174545, 0.06943713128566742, 0.047552917152643204, 0.11173513531684875, 0.08363990485668182, 0.23934662342071533, -0.15426716208457947, -0.05391520634293556, 0.022984569892287254, 0.12383542954921722, 0.1823531687259674, 0.049789879471063614, 0.11302215605974197, -0.28421100974082947, 0.0605519637465477, 0.009884445928037167, 0.029148487374186516, 0.09613002836704254, 0.0560528002679348, 0.1148795336484909, -0.16643212735652924, -0.012231928296387196, -0.047255199402570724, -0.08211758732795715, 0.031210141256451607, -0.2118748277425766, 0.09972040355205536, -0.20345884561538696, 0.007894153706729412, -0.017680484801530838, 0.047264594584703445, 0.08019224554300308, -0.05493548512458801, 0.11579620838165283, -0.1980770081281662, 0.04373391717672348, -0.0036276543978601694, -0.011326530948281288, 0.007099971175193787, -0.23373709619045258, 0.07098257541656494, -0.13899366557598114, 0.12325693666934967, 0.005646322388201952, 0.03283087909221649, -0.05194012075662613, -0.2852908968925476, 0.12638702988624573, -0.17167776823043823, -0.01401201169937849, -0.03425781801342964, -0.006280433852225542, -0.07460177689790726, -0.14389373362064362, -0.02408416010439396, -0.1551332324743271, -0.037408821284770966, -0.10293020308017731, 0.17328138649463654, -0.12690214812755585, -0.11619292199611664, 0.05058782547712326, -0.006805073469877243, -0.07265857607126236, -0.004286166280508041, 0.3104965090751648, -0.025588927790522575, -0.11609435081481934, -0.04291633889079094, -0.1287536323070526, 0.10150512307882309, -0.06000542268157005, 0.4154090881347656, -0.03423437103629112, -0.08228125423192978, 0.07537247240543365, 0.05305181443691254, -0.11968178302049637, -0.027439745143055916, 0.39755979180336, 0.06254809349775314, -0.030903765931725502, 0.002048059366643429, -0.10339134186506271, 0.049319520592689514, -0.047645799815654755, 0.46426355838775635, -0.02234441041946411, -0.09429942071437836, -0.05055723711848259, -0.08048300445079803, 0.08680146932601929, -0.07153376936912537, 0.3866202235221863, -0.043035201728343964, -0.0003998634056188166, 0.012753419578075409, 0.12082327157258987, 0.004757919814437628, -0.06962190568447113, 0.3760666847229004, 0.04206990450620651, 0.04845694452524185, 0.014256737194955349, 0.0689966008067131, -0.1110849529504776, -0.05440600961446762, 0.2677060067653656, -0.059678204357624054, -0.06649215519428253, -0.020035918802022934, 0.44875940680503845, 0.0071242437697947025, -0.0741780549287796, 0.11234815418720245, -0.16626155376434326, -0.08016133308410645, -0.05216166749596596, 0.44638440012931824, 0.019863538444042206, -0.03786957636475563, 0.22352588176727295, -0.050555065274238586, 0.025208380073308945, -0.10915102064609528, 0.38831400871276855, -0.08426429331302643, -0.1332537978887558, 0.23490634560585022, -0.07162889093160629, 0.049947235733270645, -0.21930694580078125, 0.509421169757843, -0.00637812539935112, -0.07503402978181839, 0.26632803678512573, -0.056396059691905975, 0.09815670549869537, -0.2595188021659851, 0.4558483362197876, 0.027896730229258537, -0.14413946866989136, 0.45813223719596863, -0.1459120213985443, 0.2611085772514343, -0.27905046939849854, 0.3315700590610504, -0.005614932160824537, -0.08318930119276047, 0.10810421407222748, -0.05769811570644379, -0.15620727837085724, -0.0006421193829737604, 0.37921154499053955, -0.07234316319227219, -0.075843945145607, 0.14059950411319733, -0.15226423740386963, -0.061020996421575546, -0.12673097848892212, 0.4266386032104492, -0.11132608354091644, -0.1523565649986267, -0.04637132212519646, -0.17294035851955414, -0.13002057373523712, 0.11822734028100967, 0.15400563180446625, -0.8085176348686218, -0.11357710510492325], [-0.36785343289375305, 0.14363470673561096, 0.07580842077732086, 0.08534801006317139, -0.00440293038263917, 0.1550411731004715, 0.005675391759723425, -0.12665171921253204, 0.031860850751399994, 0.39726558327674866, 0.05821864679455757, -0.04149002209305763, -0.15806932747364044, -0.10238280147314072, 0.11955800652503967, -0.2296695113182068, 0.04061557352542877, 0.12903854250907898, 0.003031752770766616, 0.0478798970580101, -0.12731212377548218, 0.09465640038251877, -0.13328523933887482, -0.1245374083518982, 0.1367024928331375, 0.029670991003513336, 0.032972533255815506, 0.11387083679437637, 0.02751423418521881, -0.08263828605413437, 0.23385779559612274, 0.06165297329425812, 0.023895157501101494, 0.4738703966140747, -0.0658593699336052, -0.15513046085834503, -0.1100267842411995, 0.15140898525714874, -0.041632045060396194, 0.1389327049255371, 0.4344327747821808, -0.09972918033599854, -0.13726724684238434, -0.31751754879951477, 0.37879446148872375, -0.06548328697681427, 0.08877458423376083, 0.17671646177768707, -0.007420226000249386, -0.09518849104642868, 0.026603497564792633, 0.28984344005584717, -0.02346479706466198, 0.07938652485609055, 0.04753896966576576, -0.04154837504029274, -0.38763830065727234, -0.17537792026996613, 0.18292765319347382, -0.024882201105356216, 0.2778923213481903, 0.27107059955596924, -0.08658597618341446, -0.25754231214523315, -0.1596655696630478, 0.08032770454883575, -0.0946199893951416, 0.5632132291793823, -0.19867819547653198, 0.14874383807182312, -0.37190020084381104, -0.07901527732610703, 0.1333024799823761, -0.027156198397278786, 0.31653904914855957, 0.10141533613204956, 0.1991761475801468, -0.25112250447273254, -0.15784138441085815, -0.15313877165317535, -0.000755309360101819, 0.18182261288166046, 0.15050868690013885, -0.004694987554103136, -0.05791113153100014, 0.14528626203536987, -0.11723315715789795, 0.05027681216597557, 0.3080695569515228, 0.19361062347888947, -0.07635229080915451, -0.027262458577752113, 0.18246479332447052, -0.1363227665424347, 0.11709010601043701, 0.03852083906531334, 0.11147212237119675, -0.025799091905355453, 0.03689960017800331, 0.24389979243278503, -0.06863751262426376, -0.007647364865988493, -0.005633506458252668, 0.18915708363056183, -0.10731145739555359, 0.03476526960730553, 0.23066727817058563, -0.06854499876499176, -0.027183206751942635, -0.09473495930433273, -0.03748998045921326, -0.10530289262533188, 0.17908993363380432, 0.022261720150709152, 0.029259948059916496, 0.04527566581964493, 0.08035323023796082, -0.0440354086458683, -0.17714880406856537, 0.22550050914287567, 0.2260778546333313, -0.03234038129448891, -0.06655128300189972, 0.18734025955200195, -0.03083307482302189, -0.15100039541721344, 0.029827535152435303, 0.1795285940170288, -0.0720285028219223, -0.08307338505983353, 0.05391092970967293, 0.10770327597856522, -0.14592981338500977, 0.08560936152935028, 0.11940265446901321, -0.0483001209795475, -0.09747911244630814, 0.06746343523263931, -0.011719617992639542, -0.09794534742832184, -0.019849993288517, 0.08909942954778671, 0.12224788963794708, -0.0012433797819539905, 0.2458830624818802, -0.12086070328950882, 0.026177948340773582, -0.026741942390799522, -0.05659004673361778, -0.02128463052213192, -0.050605881959199905, 0.3475848138332367, 0.06661282479763031, -0.017788296565413475, -0.09998299181461334, 0.14017128944396973, 0.17538174986839294, -0.048669394105672836, 0.48392796516418457, -0.2265380471944809, 0.017093872651457787, -0.11325125396251678, 0.1671217679977417, -0.06796131283044815, 0.08628635853528976, 0.35387998819351196, 0.05421389266848564, -0.06811707466840744, -0.13565495610237122, 0.1605190932750702, 0.07039177417755127, 0.053669918328523636, 0.2976342737674713, -0.22810496389865875, 0.02739046886563301, -0.127486914396286, 0.013344180770218372, -0.0524609349668026, -0.00561728049069643, 0.386320561170578, 0.0547478124499321, -0.021220045164227486, -0.17896711826324463, -0.04647836089134216, 0.08543138951063156, -0.09841921180486679, 0.05054163932800293, 0.08312318474054337, -0.09159451723098755, -0.28099244832992554, 0.04339258372783661, 0.15376561880111694, -0.017697378993034363, -0.05335783213376999, -0.07319030165672302, -0.03148123249411583, -0.39662349224090576, 0.14959651231765747, 0.13441722095012665, -0.0038977970834821463, 0.1849297732114792, 0.06258605420589447, -0.10970617085695267, -0.24225839972496033, -0.05743013322353363, 0.18253910541534424, -0.05656886100769043, 0.2945431172847748, 0.1259191930294037, -0.004766622558236122, -0.15177476406097412, 0.09148459881544113, 0.07172627747058868, -0.07960522174835205, 0.14577633142471313, -0.01544981636106968, -0.02909836545586586, -0.05019193887710571, 0.19162896275520325, 0.17354916036128998, -0.09752179682254791, 0.10008148103952408, -0.003941315691918135, -0.17079174518585205, -0.1127394437789917, 0.06324133276939392, 0.3288286030292511, -0.06686633080244064, 0.038618143647909164, -0.11249282211065292, -0.08697115629911423, -0.2836713492870331, 0.11559493839740753, 0.19083523750305176, 0.13499614596366882, 0.08852711319923401, -0.01814034767448902, -0.09688983112573624, -0.2779199182987213, 0.035816267132759094, 0.0802670568227768, -0.0854724571108818, 0.11297990381717682, 0.1975359320640564, 0.04310091957449913, -0.2548745572566986, 0.02961048111319542, 0.17258933186531067, -0.024996617808938026, 0.04224449023604393, -0.18223696947097778, 0.04564553499221802, -0.4126286208629608, -0.028487104922533035, 0.3108731508255005, -0.03832685947418213, 0.0620700940489769, -0.07360249012708664, 0.06186741963028908, -0.3331189751625061, -0.0878688246011734, 0.3911268413066864, -0.04505737125873566, 0.022790346294641495, -0.04224780201911926, -0.053885530680418015, -0.10566579550504684, -0.11423568427562714, 0.25209173560142517, -0.022709593176841736, 0.14885453879833221, -0.035192690789699554, 0.07169065624475479, -0.02169984020292759, -0.25063514709472656, 0.2664766013622284, -0.0077186571434140205, 0.03895707055926323, -0.02172636240720749, 0.19190089404582977, -0.18000951409339905, -0.32557010650634766, 0.5309275388717651, -0.0714980736374855, 0.22656719386577606, -0.14161454141139984, 0.2403697967529297, -0.06415435671806335, -0.2459823042154312, 0.5992401242256165, -0.030658166855573654, -0.20909807085990906, -0.021183617413043976, 0.21192552149295807, -0.1269455999135971, -0.2421199232339859, 0.4397967755794525, 0.026323558762669563, -0.14632324874401093, -0.0802731066942215, 0.20560351014137268, 0.14668729901313782, -0.13708293437957764, 0.09513253718614578, 0.10341887921094894, -0.20232845842838287, 0.03752756118774414, 0.2685393691062927, -0.11548474431037903, -0.14635244011878967, -0.04231702908873558, -0.20318268239498138, -0.02091902866959572, 0.1423015296459198, 0.3581107556819916, -0.07300787419080734, -0.49178287386894226, 0.9206263422966003, 0.0009014924289658666, -0.07573962211608887, 0.21983863413333893, 0.1039176881313324, -0.12223221361637115, -0.34098073840141296, 0.014874777756631374, 0.004071076866239309, 0.1164587214589119, 0.25716015696525574, 0.1392718255519867, -0.24871499836444855, 0.11049153655767441, 0.26898518204689026, -0.14064572751522064, -0.020215729251503944, -0.008225493133068085, -0.017273075878620148, 0.5600118637084961, -0.03147280961275101, 0.4251810610294342, -0.00470380624756217, 0.1491331309080124], [0.11448852717876434, -0.009439429268240929, -0.39132291078567505, -0.024395296350121498, 0.006021913606673479, 0.13427627086639404, 0.10469389706850052, 0.18274036049842834, 0.07895474880933762, -0.18164384365081787, 0.04053729772567749, 0.008899682201445103, 0.242496058344841, -0.1133454442024231, 0.03581948205828667, 0.0032762757036834955, -0.12555597722530365, 0.025366520509123802, -0.004953479859977961, 0.06674928218126297, -0.30094385147094727, -0.06091653183102608, 0.18146775662899017, 0.0003676809137687087, 0.09102515131235123, 0.09685748815536499, 0.012236019596457481, -0.5918517708778381, 0.12993866205215454, 0.30838263034820557, -0.08471018075942993, -0.10748008638620377, 0.10136155039072037, 0.2373276948928833, -0.5695257782936096, -0.03903145343065262, 0.17644333839416504, -0.04491366073489189, -0.10194182395935059, 0.07992624491453171, 0.19780053198337555, -0.36535462737083435, 0.06890248507261276, 0.1646694839000702, -0.045225612819194794, 0.020449522882699966, 0.07522781938314438, 0.07596590369939804, -0.24325895309448242, 0.027042206376791, 0.2940358817577362, -0.0006276835920289159, -0.010029541328549385, 0.09312550723552704, 0.15821294486522675, -0.29124918580055237, -0.08388003706932068, 0.005270184949040413, 0.13448117673397064, 0.014937978237867355, 0.07950018346309662, 0.19062042236328125, -0.11454340070486069, -0.011941828764975071, 0.048246659338474274, -0.04695260524749756, -0.022905487567186356, 0.11059561371803284, 0.03206172212958336, -0.10174605250358582, 0.10349190980195999, 0.09087736159563065, -0.10000614076852798, -0.006797836162149906, 0.11268952488899231, 0.14941219985485077, -0.05208050087094307, 0.0680840015411377, 0.0206803809851408, -0.09576240926980972, 0.1334201693534851, 0.03388896584510803, -0.051658179610967636, 0.057903796434402466, 0.04100634530186653, 0.11104277521371841, -0.07012132555246353, -0.04082689806818962, 0.019924765452742577, 0.1664162427186966, 0.008358677849173546, 0.08972769975662231, 0.09499837458133698, -0.10641930997371674, -0.04532519355416298, -0.03130730241537094, 0.09715976566076279, 0.11831050366163254, 0.18593905866146088, 0.2156556099653244, -0.14254765212535858, 0.06348741054534912, 0.05409131944179535, 0.060453664511442184, -0.13840024173259735, 0.12101829051971436, 0.1813037395477295, -0.02610883116722107, -0.018119968473911285, -0.008999229408800602, 0.015289279632270336, -0.08260799199342728, 0.23435844480991364, 0.1513311117887497, -0.004461522214114666, 0.12587721645832062, 0.030525192618370056, -0.026307309046387672, -0.10688026249408722, 0.1612592488527298, 0.19992132484912872, 0.005376187153160572, 0.172159805893898, -0.05767163261771202, 0.06932681798934937, -0.10189789533615112, 0.11971867829561234, 0.07056000828742981, -0.1399768888950348, -0.05862515792250633, 0.2052842527627945, 0.2307116985321045, -0.14605014026165009, 0.1261727511882782, -0.08138202875852585, -0.05674440786242485, -0.024404767900705338, 0.08219655603170395, 0.07588490843772888, -0.08127737045288086, 0.08611264824867249, -0.03548528999090195, -0.0398515984416008, -0.008561881259083748, 0.004784711636602879, 0.05787254497408867, 0.0436275452375412, -0.011351755820214748, -0.02358364872634411, -0.02303226850926876, -0.010271027684211731, -0.11286477744579315, 0.22601214051246643, -0.0017813004087656736, -0.01992449350655079, -0.0626613199710846, -0.03946216031908989, 0.02800983004271984, 0.006600632797926664, -0.13300566375255585, -0.15167857706546783, 0.1682836264371872, -0.008034532889723778, 0.11671694368124008, 0.056514956057071686, 0.1349981725215912, -0.047645971179008484, 0.026821328327059746, -0.016391316428780556, -0.04368237033486366, -0.07956065982580185, -0.07480519264936447, -0.10913575440645218, -0.012548569589853287, 0.043070051819086075, -0.06613583862781525, 0.04041734337806702, 0.07749278098344803, 0.06839091330766678, 0.10736165195703506, -0.018042724579572678, -0.05280296504497528, 0.11685214191675186, -0.038831550627946854, -0.3056235909461975, 0.05247792601585388, 0.13001152873039246, 0.0003724433481693268, -0.02366093546152115, 0.10516203194856644, 0.08651674538850784, -0.06635816395282745, 0.055855050683021545, -0.028749540448188782, -0.020127015188336372, 0.1441170573234558, 0.002568024443462491, -0.04735749959945679, -0.18337003886699677, -0.024835938587784767, -0.02616031840443611, -0.07444725185632706, 0.1447579562664032, 0.0374956913292408, -0.024097846820950508, -0.10775334388017654, 0.041040923446416855, -0.3334566652774811, -0.08724956959486008, 0.11123025417327881, -0.07242141664028168, 0.06554151326417923, -0.15822751820087433, -0.017686033621430397, -0.32090938091278076, -0.0008501350530423224, 0.14854928851127625, 0.002695761388167739, 0.04468294233083725, -0.01047083642333746, -0.006296026054769754, -0.5767461061477661, -0.12987060844898224, 0.15527263283729553, 0.018666591495275497, -0.11635522544384003, -0.014617412351071835, 0.1108042299747467, -0.3277643024921417, -0.05526800453662872, 0.04228154569864273, -0.08783560991287231, -0.1173311099410057, -0.023728568106889725, 0.05346149206161499, -0.22309273481369019, -0.20120303332805634, 0.02825605496764183, 0.010319404304027557, 0.0021959326695650816, 0.033548615872859955, 0.05169151350855827, -0.3198102116584778, -0.325531005859375, 0.1355823576450348, -0.0918920710682869, -0.05388768017292023, -0.03605319559574127, -0.007948535494506359, -0.2923218011856079, -0.2906675338745117, 0.16073907911777496, -0.019411789253354073, -0.19302323460578918, -0.008111572824418545, -0.11690085381269455, -0.2249048948287964, -0.3586450517177582, 0.15628135204315186, 0.12067411839962006, -0.060577642172575, -0.10300162434577942, 0.060942646116018295, -0.3428959250450134, -0.5919212698936462, 0.2194085270166397, -0.005147448740899563, -0.08116837590932846, -0.16195090115070343, -0.1355653703212738, -0.28658127784729004, -0.5751045346260071, 0.12497583031654358, 0.023801051080226898, -0.05624248832464218, -0.07552705705165863, 0.029350511729717255, -0.39896348118782043, -0.7331864237785339, 0.264207661151886, 0.1814102828502655, 0.11955282092094421, -0.1718446910381317, -0.10040463507175446, -0.3804708421230316, -0.3664659857749939, 0.3638996481895447, 0.16907227039337158, 0.04259366914629936, -0.10361731797456741, 0.04284151643514633, -0.18885420262813568, -0.47105127573013306, 0.3056372404098511, 0.1649613082408905, -0.03300739824771881, -0.23034606873989105, 0.021392742171883583, 0.0045906249433755875, -0.3887920379638672, 0.1124909520149231, -0.008910244330763817, 0.16297547519207, -0.1062396839261055, -0.10095161199569702, -0.0025300795678049326, -0.2869907319545746, 0.06453707069158554, 0.1774565726518631, -0.1728178709745407, -0.16919419169425964, -0.032958973199129105, -0.011461404152214527, -0.3615027070045471, 0.20299924910068512, 0.21576517820358276, 0.11960253864526749, -0.2496194839477539, -0.040520623326301575, 0.04707498475909233, -0.27417492866516113, 0.4103732109069824, 0.2582615315914154, 0.09589692950248718, -0.3150099515914917, -0.04772628843784332, 0.09112375974655151, -0.18561209738254547, 0.29890552163124084, 0.29454362392425537, -0.019396236166357994, 0.24397042393684387, 0.12377573549747467, 0.06479625403881073, -0.21006827056407928, 0.17958374321460724, 0.0255014356225729, 0.26585546135902405, -0.33633139729499817, -0.3084821105003357, 0.4906176030635834], [0.43419149518013, -0.023431947454810143, 0.12289433926343918, -0.10715664178133011, 0.09950052946805954, 0.11641130596399307, 0.01790543459355831, 0.38472408056259155, 0.06819484382867813, 0.11804469674825668, 0.13364556431770325, 0.18579061329364777, -0.058948397636413574, 0.056605979800224304, 0.3770066499710083, 0.11228444427251816, 0.1159733384847641, -0.10971095412969589, 0.051701609045267105, 0.00041187801980413496, 0.1727277934551239, 0.005125369410961866, 0.09596671909093857, -0.025783415883779526, -0.07870960980653763, 0.04140538349747658, -0.10338261723518372, 0.130961075425148, 0.08980121463537216, -0.02768019400537014, 0.05054496228694916, -0.08808541297912598, 0.09045256674289703, -0.10092134028673172, 0.18347394466400146, 0.2144920974969864, -0.12870565056800842, -0.0008163198945112526, -0.0010353303514420986, -0.0775797888636589, -0.13021433353424072, 0.11700990796089172, 0.1851857751607895, -0.10562826693058014, 0.15176965296268463, -0.1367052048444748, 0.03913218155503273, -0.04712454602122307, 0.012365763075649738, 0.028357693925499916, -0.16142041981220245, 0.18553712964057922, -0.057338226586580276, -0.07916546612977982, -0.0916360542178154, 0.13394568860530853, 0.0953475758433342, -0.34709882736206055, 0.14487847685813904, -0.009312999434769154, -0.08861108124256134, -0.11577755957841873, 0.1703413724899292, -0.00010764587932499126, -0.25409868359565735, 0.39144226908683777, -0.05812497064471245, -0.033017732203006744, 0.018562311306595802, 0.04974948614835739, -0.07927718758583069, -0.47252726554870605, 0.39549440145492554, -0.09372811764478683, -0.21533118188381195, 0.33377763628959656, 0.07657477259635925, -0.1149703711271286, -0.4294203817844391, 0.40943142771720886, -0.042849406599998474, -0.07434147596359253, 0.29917585849761963, -0.03453831374645233, 0.03160594776272774, -0.3476364314556122, 0.4699000120162964, -0.0710792988538742, 0.11002222448587418, 0.020381445065140724, -0.10189878195524216, 0.006701513659209013, -0.21265944838523865, 0.26143768429756165, -0.05266072601079941, -0.07545291632413864, 0.09176518023014069, -0.0791357234120369, -0.04763330519199371, -0.20346298813819885, 0.2574852406978607, 0.1815701425075531, -0.08326025307178497, 0.10165400803089142, -0.033354371786117554, 0.08109214901924133, -0.17197361588478088, 0.23464298248291016, -0.04809761419892311, -0.2829466462135315, 0.07574491202831268, 0.03164421394467354, 0.047774165868759155, -0.2980453670024872, 0.1670151948928833, 0.04278464987874031, -0.10122904926538467, 0.03844161331653595, 0.03359820321202278, 0.11491937935352325, -0.24114009737968445, 0.2938598096370697, -0.08063725382089615, 0.022226743400096893, 0.03939056396484375, -0.18317385017871857, 0.01808558776974678, -0.049126069992780685, 0.29327160120010376, -0.08149309456348419, 0.05742695555090904, -0.056656934320926666, -0.03322422131896019, 0.04314601421356201, -0.1811089664697647, 0.3199510872364044, 0.023698844015598297, -0.16034400463104248, -0.05906379222869873, -0.10650308430194855, 0.053357355296611786, -0.1000402644276619, 0.20430657267570496, 0.014340369030833244, 0.05290927737951279, 0.031539712101221085, -0.13187748193740845, 0.047933533787727356, -0.22011974453926086, 0.37353515625, -0.01957758329808712, 0.12132717669010162, -0.10303191095590591, -0.1625775694847107, 0.08502475172281265, -0.06842874735593796, 0.3360268175601959, 0.00605013919994235, 0.14649389684200287, 0.16628195345401764, -0.07064351439476013, 0.07996080070734024, -0.13646265864372253, 0.28710219264030457, 0.03252868354320526, 0.1340370923280716, -0.06923262774944305, -0.1908017247915268, -0.04525018483400345, -0.12678328156471252, 0.2518850564956665, 0.0626070573925972, -0.2175576537847519, -0.02593766711652279, -0.08793464303016663, 0.02924417518079281, -0.0790809839963913, 0.45792046189308167, 0.026432564482092857, 0.011879054829478264, 0.12530222535133362, -0.2101244032382965, 0.07585927844047546, -0.02096710167825222, 0.3218849301338196, -0.04294874519109726, -0.14688275754451752, 0.12027597427368164, -0.13295038044452667, 0.09916307032108307, -0.028569083660840988, 0.5140177607536316, -0.0542629137635231, -0.06439391523599625, 0.1877034306526184, -0.21557028591632843, -0.03951195627450943, 0.05054536089301109, 0.33537936210632324, -0.13394978642463684, -0.11064664274454117, 0.10186351090669632, -0.18287894129753113, 0.0497412234544754, -0.03481603413820267, 0.2779117524623871, -0.1492381989955902, -0.10732796788215637, 0.16102400422096252, -0.2716194689273834, 0.004358135163784027, -0.13823187351226807, 0.2741377353668213, 0.03306934982538223, 0.011914229020476341, 0.07959755510091782, -0.22016963362693787, 0.035878412425518036, 0.01189763005822897, 0.1715676337480545, 0.07364657521247864, -0.045690953731536865, 0.017651526257395744, -0.07813023775815964, -0.04098130762577057, 0.03989992290735245, 0.3603154122829437, -0.000556168844923377, -0.06380072236061096, -0.15915316343307495, -0.03966683894395828, 0.07527367770671844, -0.0009869696805253625, 0.08871320635080338, 0.010140696540474892, -0.07142665982246399, -0.2325895130634308, -0.034541431814432144, -0.030743621289730072, -0.03156030550599098, 0.13712504506111145, -0.11421236395835876, 0.08637303113937378, -0.24732007086277008, -0.11955217272043228, -0.014498129487037659, 0.20953921973705292, -0.10103527456521988, -0.004584458656609058, -0.08074473589658737, -0.2598392069339752, 0.07056459039449692, 0.22480668127536774, 0.16085536777973175, -0.46899881958961487, -0.05800517275929451, -0.14114739000797272, -0.18264932930469513, -0.05264848470687866, 0.07913476973772049, 0.1264776736497879, -0.16639448702335358, -0.004370563663542271, -0.018469693139195442, -0.1772729754447937, 0.06739034503698349, 0.08444202691316605, 0.1253545880317688, -0.010703952983021736, 0.04809611290693283, -0.006775548215955496, -0.29895520210266113, 0.17111124098300934, 0.08238137513399124, 0.12488429248332977, 0.08065015077590942, -0.15544384717941284, -0.04811151325702667, -0.09712225943803787, 0.10444266349077225, 0.038863275200128555, -0.04347550868988037, 0.16629144549369812, -0.08635809272527695, -0.08371884375810623, 0.09439799189567566, 0.03407755494117737, -0.009454043582081795, 0.019859908148646355, 0.12764453887939453, 0.060409631580114365, -0.005660354159772396, 0.004639255348592997, 0.030348066240549088, 0.20032742619514465, 0.01782052591443062, 0.009053003042936325, -0.04671098291873932, 0.07652849704027176, 0.08327863365411758, 0.05448251962661743, -0.03167392313480377, -0.11973138898611069, 0.14520376920700073, -0.050524234771728516, -0.10169360041618347, 0.10752518475055695, 0.00402420898899436, -0.04410359263420105, 0.08558300137519836, 0.012814054265618324, -0.026664938777685165, -0.009613607078790665, 0.18403874337673187, 0.05414837971329689, 0.052086688578128815, 0.09595346450805664, 0.016846226528286934, -0.013057021424174309, -0.042597267776727676, 0.24009764194488525, 0.11123351752758026, 0.22950415313243866, -0.03710239753127098, 0.09742690622806549, 0.11812499910593033, 0.04346761852502823, 0.05788233503699303, 0.03138513118028641, 0.43163424730300903, 0.012520015239715576, 0.2449398785829544, 0.044543348252773285, 0.1507481187582016, 0.028973810374736786, -0.0005285536753945053, 0.43888694047927856, 0.3056292235851288, 1.0818402767181396, -0.10105428844690323, -0.08770525455474854], [0.08807861059904099, 0.05181664973497391, -0.018768558278679848, 0.0371127687394619, -0.0705353319644928, -0.12111116945743561, 0.1329895257949829, -0.0821598544716835, -0.06675098836421967, -0.08694188296794891, 0.09556414186954498, -0.021661426872015, -0.1915808916091919, 0.16489344835281372, -0.16448642313480377, -0.04557769373059273, -0.13546122610569, 0.06524256616830826, -0.011650783009827137, 0.01935197412967682, 0.17945370078086853, 0.024146758019924164, -0.06300996989011765, 0.031838346272706985, -0.2382652759552002, 0.1359558403491974, -0.1836833506822586, 0.21769095957279205, 0.19105038046836853, -0.28898170590400696, 0.3282158374786377, 0.05725677311420441, 0.14784270524978638, -0.06334364414215088, 0.15554948151111603, 0.1284601390361786, -0.2496209293603897, 0.2916558086872101, -0.015863852575421333, -0.12024261057376862, -0.014404530636966228, 0.2528674602508545, 0.11496826261281967, -0.24598735570907593, 0.25053393840789795, 0.07693330943584442, 0.2017458975315094, 0.06202992424368858, 0.17029784619808197, 0.2146734595298767, -0.1346394121646881, 0.09057456254959106, -0.06347469985485077, 0.07424234598875046, 0.15519066154956818, 0.13070610165596008, 0.19372276961803436, -0.14878839254379272, 0.24256551265716553, -0.05365399643778801, 0.22059734165668488, 0.12899456918239594, -0.056901492178440094, 0.36998772621154785, 0.02030925080180168, 0.3004850447177887, 0.05319337919354439, 0.21689480543136597, -0.20092961192131042, -0.1667925864458084, 0.2902180254459381, -0.21518345177173615, 0.27863073348999023, 0.03449101373553276, 0.3457130491733551, -0.01186202373355627, -0.29722028970718384, 0.22132016718387604, -0.06116218864917755, 0.24052514135837555, -0.007119062822312117, 0.24030280113220215, 0.01771552674472332, -0.2583520710468292, 0.1625107228755951, -0.006387048866599798, 0.3358006775379181, 0.005480271298438311, 0.06294001638889313, -0.008715741336345673, -0.30141308903694153, 0.03750041499733925, 0.06010652333498001, -0.022894442081451416, 0.12077543884515762, 0.38906747102737427, 0.1643012911081314, -0.14924676716327667, 0.054744355380535126, 0.08951298147439957, -0.0968320369720459, -0.07768435031175613, 0.1651296615600586, 0.17004388570785522, -0.22796009480953217, 0.021252466365695, 0.13896912336349487, -0.12967124581336975, -0.041070133447647095, 0.02949455752968788, 0.10276449471712112, -0.19045382738113403, 0.009208223782479763, 0.009543265216052532, -0.03264732286334038, 0.033287592232227325, 0.2212970107793808, 0.24648916721343994, -0.02807997167110443, 0.1632900983095169, -0.09269210696220398, 0.07200758904218674, -0.014879687689244747, -0.0024363924749195576, 0.09503548592329025, -0.11702276021242142, 0.049536604434251785, 0.06718775629997253, -0.018191402778029442, 0.06477535516023636, 0.09414801001548767, -0.11141914129257202, -0.0656421110033989, 0.051688894629478455, -0.07587365061044693, 0.43250495195388794, -0.14934255182743073, 0.018084226176142693, -0.0007156295469030738, -0.149505615234375, -0.08763964474201202, -0.11370999366044998, 0.12152556329965591, -0.022886129096150398, 0.0777762234210968, -0.25748300552368164, -0.07958638668060303, -0.01278749667108059, -0.15191076695919037, 0.1469903290271759, 0.013195527717471123, 0.0425901859998703, -0.217373326420784, -0.19880852103233337, -0.10019565373659134, -0.0472964309155941, 0.10520083457231522, -0.018660051748156548, 0.024536404758691788, 0.05288137122988701, -0.20568430423736572, -0.006228737533092499, -0.13821941614151, 0.10385417193174362, 0.10900439321994781, -0.08919493854045868, 0.11318504065275192, -0.2147563397884369, -0.050761859863996506, -0.043423429131507874, 0.013114700093865395, 0.020606214180588722, 0.041006945073604584, 0.0020635013934224844, -0.1545286774635315, -0.15703295171260834, -0.06279195845127106, -0.028139056637883186, 0.024194395169615746, 0.12505333125591278, 0.13017113506793976, -0.19891560077667236, -0.04213066026568413, 0.019466595724225044, -0.03846951946616173, 0.06390977650880814, 0.04289979860186577, 0.061482496559619904, -0.012296008877456188, -0.11481760442256927, -0.12415886670351028, -0.06047465279698372, -0.060143258422613144, 0.2222818285226822, 0.05132557824254036, 0.24815335869789124, 0.0950358435511589, -0.17273318767547607, 0.12310054153203964, -0.025964558124542236, -0.06507750600576401, -0.03939922899007797, 0.15744218230247498, -0.08006550371646881, -0.04521414637565613, 0.14678794145584106, -0.01397579163312912, 0.03838304802775383, -0.07862385362386703, -0.0424041822552681, 0.02282468043267727, -0.16112008690834045, 0.178733691573143, 0.06166485324501991, 0.1042972207069397, 0.07108097523450851, -0.05610724166035652, -0.16815420985221863, -0.24083611369132996, 0.20936048030853271, -0.03481534495949745, 0.06766613572835922, 0.304342120885849, 0.10230813920497894, -0.031135356053709984, -0.20424650609493256, 0.2008814513683319, -0.07118218392133713, -0.05023664981126785, 0.283169686794281, 0.034660086035728455, -0.040926478803157806, -0.2866777181625366, 0.3194935917854309, -0.040078550577163696, -0.06608351320028305, 0.40244197845458984, -0.0016332779778167605, 0.11081888526678085, -0.09623934328556061, 0.22154304385185242, -0.10627443343400955, 0.012917593121528625, 0.2585271894931793, -0.09727726876735687, 0.11656877398490906, -0.19963115453720093, 0.294605553150177, -0.010363866575062275, -0.03303871676325798, 0.3111463189125061, -0.04789868742227554, 0.060788437724113464, -0.26988130807876587, 0.22028860449790955, -0.029989859089255333, -0.14779381453990936, 0.0988842248916626, 0.10253437608480453, 0.26478520035743713, -0.16844694316387177, 0.2609651982784271, -0.0231163389980793, 0.035317178815603256, 0.30282750725746155, -0.11760231107473373, -0.03322216868400574, -0.17635084688663483, 0.10147298127412796, -0.025737926363945007, -0.07664623856544495, 0.06849606335163116, 0.012425398454070091, 0.12022045254707336, 0.054802898317575455, 0.21753354370594025, -0.07588143646717072, -0.10875767469406128, -0.09267345070838928, 0.07608463615179062, 0.12169802933931351, -0.04556287080049515, -0.11400829255580902, -0.014340626075863838, 0.16636469960212708, -0.15544752776622772, 0.07889994233846664, 0.16599155962467194, 0.0052825636230409145, -0.14051902294158936, -0.021291455253958702, 0.04529615864157677, -0.07209732383489609, -0.008080324158072472, 0.06691106408834457, -0.25257378816604614, -0.2114180028438568, -0.06550580263137817, -0.010552707128226757, 0.0047522615641355515, 0.10749942064285278, 0.2853202223777771, -0.14994335174560547, 0.0416213758289814, -0.007326758466660976, 0.06973104923963547, -0.023990336805582047, 0.12804453074932098, 0.0737525075674057, -0.14544902741909027, -0.46265357732772827, 0.1479383111000061, 0.08693505823612213, -0.02331406995654106, 0.33877360820770264, 0.038084354251623154, -0.12532731890678406, -0.5626592040061951, 0.01060508843511343, 0.06883504986763, 0.06404893845319748, 0.0018065216718241572, 0.00034650583984330297, 0.05238113924860954, -0.1797780990600586, -0.1164533942937851, 0.07961861044168472, -0.094075508415699, -0.20325569808483124, 0.21434006094932556, 0.11803562194108963, -0.23436608910560608, -0.04662632569670677, 0.056004639714956284, -0.1427103579044342, 0.23995409905910492, 0.07014235109090805, 0.50179523229599, 0.5049546957015991, 0.6909594535827637, 0.12676911056041718], [0.3558180332183838, 0.17010152339935303, 0.06097016483545303, 0.04895196855068207, -0.01013941504061222, -0.1383150815963745, 0.14395228028297424, 0.4284399151802063, 0.13450615108013153, -0.005845303647220135, 0.05683976039290428, -0.024148400872945786, -0.3821468949317932, 0.36767715215682983, 0.2322087585926056, 0.3104628622531891, 0.29085224866867065, 0.07171106338500977, 0.05631936714053154, -0.5490055084228516, 0.3028557002544403, 0.008272063918411732, 0.10091117769479752, 0.22523678839206696, -0.09317982941865921, -0.02575879544019699, -0.5602974891662598, 0.28288549184799194, -0.00748005835339427, 0.09721722453832626, 0.21909300982952118, -0.03495442867279053, 0.012002317234873772, -0.3745515048503876, 0.21555554866790771, 0.04993635416030884, -0.255115270614624, 0.1576760858297348, -0.06284534186124802, -0.1082463264465332, -0.15891990065574646, 0.0953029990196228, 0.3229862153530121, -0.14748412370681763, 0.220125213265419, -0.02558440901339054, 0.01853174902498722, -0.1559673249721527, 0.03457063063979149, 0.2871986925601959, -0.10548649728298187, 0.11397933214902878, -0.17804482579231262, 0.04347550496459007, -0.012548533268272877, -0.0414309985935688, 0.09295238554477692, -0.13987836241722107, 0.08566635102033615, -0.07210757583379745, -0.10384499281644821, 0.04753488674759865, -0.10724366456270218, 0.06428258866071701, 0.012346906587481499, -0.13523556292057037, -0.04723432660102844, 0.05346161499619484, 0.04936925694346428, 0.054536741226911545, -0.11983581632375717, 0.16226011514663696, 0.024075862020254135, -0.015054295770823956, 0.050265077501535416, -0.1419478803873062, -0.004343152046203613, -0.2559835910797119, 0.2466609925031662, -0.09824369847774506, 0.024659285321831703, 0.031093299388885498, -0.0341828279197216, -0.17184773087501526, -0.14985576272010803, 0.08481276035308838, -0.03707970306277275, -0.07851579785346985, 0.049904320389032364, -0.005210378207266331, 0.007256118580698967, -0.20654083788394928, 0.10101202130317688, -0.07577639073133469, 0.008184378035366535, -0.09248744696378708, -0.15891414880752563, -0.025057673454284668, -0.12929317355155945, 0.1658373922109604, -0.0405423603951931, 0.06408476829528809, 0.029582401737570763, -0.0759095624089241, 0.05265834555029869, -0.18302924931049347, 0.14068603515625, -0.06840885430574417, -0.03454158455133438, 0.0030851499177515507, 0.05099887400865555, -0.015152373351156712, -0.06812494248151779, 0.12703798711299896, -0.025386996567249298, -0.03145741671323776, -0.011008468456566334, -0.138279527425766, -0.01820947416126728, -0.0687069520354271, 0.10982967168092728, -0.17869745194911957, 0.035536229610443115, -0.10555671900510788, -0.14871889352798462, -0.13745422661304474, 0.010757628828287125, 0.09774939715862274, -0.005385159980505705, 0.07565685361623764, 0.06707022339105606, 0.04351527988910675, -0.0912550538778305, 0.1324847936630249, 0.14019635319709778, 0.10905139893293381, 0.03595449775457382, 0.11467950791120529, 0.18629616498947144, -0.1747133731842041, 0.11838818341493607, -0.12915243208408356, 0.05374479666352272, 0.051985155791044235, 0.020678570494055748, -0.007963377982378006, -0.21441619098186493, 0.06754395365715027, 0.17494705319404602, 0.12183957546949387, 0.09652361273765564, 0.16793200373649597, -0.058910876512527466, -0.1929614096879959, 0.0693657174706459, -0.026743978261947632, 0.1426433026790619, 0.16204088926315308, 0.14680778980255127, -0.05206511542201042, -0.057650741189718246, 0.04292241111397743, -0.09150753170251846, -0.002711201785132289, -0.0681479424238205, -0.0069165779277682304, -0.029055899009108543, -0.278136670589447, -0.03979598730802536, -0.005270061083137989, 0.055034685879945755, 0.1485854834318161, 0.0860404372215271, 0.10250008851289749, -0.05275968462228775, 0.10895269364118576, -0.01751967892050743, -0.0633913204073906, 0.012157240882515907, -0.002891442272812128, 0.25170451402664185, -0.2829701006412506, 0.10709869861602783, -0.05588448792695999, -0.050812721252441406, -0.07211992144584656, 0.005613251589238644, 0.22401566803455353, -0.03928427770733833, 0.028048185631632805, -0.006150017958134413, -0.07901731878519058, -0.07704531401395798, -0.00614882679656148, 0.25960439443588257, -0.12006825953722, 0.1291263848543167, 0.025823166593909264, -0.06527545303106308, -0.01573760062456131, -0.05337522178888321, 0.14954432845115662, -0.04099603369832039, 0.004046626389026642, -0.05213934928178787, 0.1260208636522293, 0.020053908228874207, -0.2115195393562317, 0.14669013023376465, -0.08914496004581451, 0.07867126911878586, 0.0162813663482666, -0.02519608847796917, -0.105341337621212, -0.08836153149604797, 0.266062468290329, -0.06154501065611839, 0.04756239801645279, -0.051463160663843155, -0.06445270776748657, -0.1619575470685959, 0.015437761321663857, 0.1732538789510727, 0.16471540927886963, 0.12683497369289398, -0.16251227259635925, 0.15402919054031372, -0.011783336289227009, 0.1649446189403534, 0.29123395681381226, 0.2674652636051178, -0.14951348304748535, -0.22356335818767548, 0.00019185645214747638, -0.011826977133750916, 0.07431768625974655, 0.1793302446603775, -0.023838084191083908, -0.2255064696073532, -0.06739313900470734, 0.10900285094976425, -0.053062111139297485, -0.09666468948125839, 0.37631767988204956, 0.050239019095897675, -0.020595356822013855, -0.19190464913845062, 0.07368990778923035, -0.00865509919822216, -0.004458132199943066, 0.4551061689853668, 0.03177603334188461, -0.2300877422094345, -0.07714839279651642, 0.02065102569758892, 0.030525265261530876, -0.3678297698497772, 0.40197011828422546, -0.11555806547403336, -0.44345542788505554, -0.08584284782409668, 0.1263905167579651, -0.046831924468278885, -0.24737823009490967, 0.3901510536670685, -0.02600974217057228, -0.20269903540611267, -0.23641538619995117, 0.106409452855587, -0.06647323817014694, -0.2075325846672058, 0.4401111900806427, 0.16901859641075134, -0.1645740419626236, -0.18507638573646545, 0.025206586346030235, -0.011703774333000183, -0.14230990409851074, 0.4247291088104248, 0.021443363279104233, -0.025986595079302788, -0.2169053852558136, -0.12613530457019806, -0.030858388170599937, -0.16639699041843414, 0.612524151802063, 0.11831551790237427, -0.14264100790023804, -0.1697726845741272, -0.1538633108139038, 0.12285050749778748, -0.0848500058054924, 0.3464878797531128, 0.21090489625930786, 0.026426658034324646, -0.08389229327440262, -0.10296182334423065, 0.03946896269917488, -0.14325591921806335, 0.33141422271728516, 0.022398199886083603, -0.11720561236143112, 0.07585269957780838, -0.05556856840848923, 0.08516053855419159, 0.05137782543897629, 0.30927759408950806, 0.2183958739042282, -0.13416315615177155, -0.060485806316137314, -0.233215793967247, 0.007969248108565807, 0.02903066761791706, 0.3616187274456024, 0.09351018816232681, -0.06354047358036041, -0.21839693188667297, -0.06307650357484818, 0.15684857964515686, -0.12260568886995316, 0.4040849506855011, -0.20042113959789276, 0.18043197691440582, -0.06092274188995361, 0.04877765104174614, 0.06310340017080307, -0.08917026966810226, 0.21603214740753174, -0.4802399277687073, 0.19956406950950623, -0.1218821257352829, 0.15733280777931213, -0.04968995228409767, 0.05571438744664192, 0.06596215069293976, -0.010467392392456532, 0.10743442922830582, 0.21161776781082153, -0.0960783064365387, -0.03549917787313461, -0.12255506217479706], [-0.3220895528793335, -0.05251532793045044, 0.11429676413536072, 0.06120535358786583, -0.12655264139175415, -0.051314517855644226, 0.011997061781585217, -0.3492181599140167, 0.07922689616680145, -0.019687330350279808, 0.043589022010564804, -0.09004035592079163, -0.0448516383767128, 0.0001762101601343602, -0.37401625514030457, 0.1096372902393341, -0.04417390003800392, 0.04121038690209389, -0.06858719885349274, -0.022659335285425186, 0.15780077874660492, -0.2439219355583191, -0.009784546680748463, -0.18642877042293549, -0.024085957556962967, -0.03040599636733532, 0.24937577545642853, 0.08073236048221588, 0.2007366120815277, -0.0862477645277977, -0.08629310131072998, 0.012539969757199287, 0.11790728569030762, 0.49746209383010864, 0.1458263248205185, 0.08830632269382477, -0.12075694650411606, -0.01874280907213688, -0.03338618203997612, -0.008269429206848145, 0.30084991455078125, 0.0014414835022762418, 0.14837230741977692, -0.12488420307636261, 0.014399132691323757, 0.1207413524389267, -0.04323166236281395, 0.09806669503450394, -0.02027934230864048, 0.2431097775697708, -0.15981441736221313, -0.04004344716668129, -0.14965572953224182, 0.11962443590164185, 0.2656222879886627, 0.002410291461274028, 0.22279559075832367, -0.06311187148094177, 0.08409164845943451, -0.005221257451921701, -0.023356426507234573, 0.2737935781478882, -0.02124427817761898, 0.3198980689048767, -0.17106589674949646, 0.07393426448106766, 0.029554449021816254, 0.07168884575366974, 0.2063441425561905, -0.036010436713695526, 0.20013591647148132, -0.023215163499116898, 0.19718977808952332, -0.06904802471399307, 0.05108969658613205, 0.13729150593280792, 0.014080529101192951, 0.05373886227607727, 0.005677524022758007, 0.09400468319654465, 0.031562063843011856, 0.05135370418429375, 0.09982192516326904, -0.050210822373628616, 0.03766888007521629, 0.015989715233445168, 0.13068225979804993, 0.007782788947224617, 0.04101491719484329, 0.0781264677643776, -0.04410990700125694, 0.11431702226400375, -0.01597759686410427, 0.13070060312747955, 0.09948264807462692, 0.07534733414649963, 0.08305352926254272, 0.04321041330695152, 0.06698307394981384, -0.03477310761809349, -0.015366042032837868, 0.017263447865843773, -0.013756781816482544, 0.13030478358268738, -0.10880180448293686, -0.018413763493299484, 0.013159212656319141, -0.07989653199911118, -0.06918501108884811, -0.0337650366127491, 0.10616883635520935, -0.09112773090600967, -0.0403907485306263, 0.0028696495573967695, -0.0020621507428586483, 0.062488824129104614, -0.047487132251262665, 0.016751563176512718, -0.09553179889917374, 0.013262481428682804, 0.15032726526260376, -0.16764356195926666, 0.040543027222156525, 0.05238964036107063, -0.008835491724312305, -0.023285293951630592, -0.05666196346282959, 0.22304026782512665, -0.09827129542827606, -0.1275588870048523, 0.02555369958281517, -0.3380493223667145, 0.04572746530175209, -0.012904468923807144, 0.28717324137687683, -0.2182149887084961, 0.06885571777820587, 0.005336069967597723, -0.29581186175346375, -0.16076962649822235, 0.13891859352588654, 0.4015280604362488, -0.2204083651304245, -0.010846883058547974, 0.035900019109249115, -0.23962140083312988, -0.2954971194267273, 0.10916991531848907, 0.3661913573741913, -0.043494392186403275, 0.16135120391845703, -0.04718911275267601, -0.18606077134609222, -0.17702576518058777, -0.04317769035696983, 0.15764592587947845, -0.07946360111236572, 0.09099503606557846, -0.0254330076277256, -0.4713665246963501, -0.07424678653478622, 0.07733328640460968, -0.009361691772937775, -0.0037625522818416357, -0.020092127844691277, -0.017246507108211517, -0.4477047324180603, -0.1468985229730606, 0.007695456501096487, -0.06774039566516876, -0.08310730010271072, -0.050908830016851425, -0.03028310090303421, -0.48794087767601013, -0.050461314618587494, 0.10466397553682327, 0.05162973701953888, 0.12672938406467438, -0.048691052943468094, 0.021700583398342133, -0.4826054871082306, -0.009498745203018188, 0.08559048920869827, -0.06929324567317963, 0.06439091265201569, -0.0284801684319973, -0.07386873662471771, -0.1706647127866745, -0.15570324659347534, 0.12549792230129242, -0.04559360444545746, 0.16799208521842957, 0.021771904081106186, -0.012165343388915062, -0.375639945268631, -0.11953960359096527, 0.07171358913183212, -0.08623423427343369, 0.1576666682958603, -0.02060380019247532, -0.05705615133047104, -0.530462384223938, -0.16554810106754303, 0.21311576664447784, -0.08999567478895187, 0.2573411762714386, -0.05015771463513374, 0.012890295125544071, -0.5622801184654236, -0.13116000592708588, 0.08605217188596725, -0.020214462652802467, -0.015895025804638863, -0.07833567261695862, -0.05463484302163124, -0.288676917552948, -0.11162102967500687, -0.11912871897220612, -0.0364048071205616, -0.019467445090413094, -0.08233983814716339, 0.013055582530796528, -0.2992224395275116, -0.07245231419801712, 0.07651370763778687, -0.037922848016023636, 0.08443700522184372, 0.03867023438215256, -0.06741232424974442, -0.27859655022621155, -0.09159580618143082, 0.08992162346839905, 0.11053691059350967, 0.011270597577095032, -0.03343730792403221, 0.008337223902344704, -0.021277597174048424, 0.10540323704481125, 0.208305224776268, 0.05021384358406067, 0.16975045204162598, -0.02285672351717949, 0.05024932697415352, -0.01065544132143259, -0.12750104069709778, -0.0008998911362141371, 0.064592644572258, -0.07746049761772156, -0.030520768836140633, -0.03642912581562996, -0.03833719342947006, -0.13485299050807953, 0.06419637054204941, -0.05034755542874336, 0.04450645297765732, -0.007159760221838951, -0.010116716846823692, 0.21346095204353333, -0.16585882008075714, 0.13169842958450317, 0.24115213751792908, -0.11080238968133926, 0.01597564108669758, -0.12228915840387344, 0.33523795008659363, -0.16162297129631042, -0.12118170410394669, -0.04878858104348183, -0.4161117970943451, 0.14867688715457916, -0.23433412611484528, 0.27993300557136536, -0.13660141825675964, 0.15253275632858276, 0.08069370687007904, -0.473714143037796, -0.09863893687725067, -0.0579310804605484, 0.19505420327186584, -0.09266495704650879, 0.12549369037151337, -0.07081293314695358, -0.25344303250312805, 0.16867081820964813, -0.03986597806215286, 0.16071316599845886, -0.15135233104228973, -0.09994061291217804, 0.061491578817367554, -0.2032112330198288, 0.046105511486530304, 0.04369893670082092, 0.32074713706970215, -0.022434992715716362, 0.022970205172896385, -0.08335993438959122, -0.21977771818637848, -0.03931322693824768, 0.0413130559027195, 0.31226810812950134, -0.03662480413913727, 0.05716472119092941, 0.016349095851182938, -0.2356768250465393, 0.04544850066304207, -0.026916958391666412, 0.2687596082687378, -0.07559433579444885, -0.06695308536291122, -0.34663599729537964, -0.340310662984848, -0.007862437516450882, 0.04376773163676262, 0.468975692987442, 0.046980418264865875, -0.2491750866174698, -0.07178281247615814, -0.20628224313259125, -0.08244140446186066, -0.04212576523423195, -0.028978440910577774, 0.2602871060371399, -0.07641380280256271, 0.001364796538837254, -0.14513057470321655, 0.007685094606131315, -0.03038233146071434, -0.054171446710824966, 0.10759981721639633, -0.18324905633926392, 0.04504939913749695, -0.08166373521089554, -0.04998984932899475, -0.03631940484046936, 0.016386978328227997, -0.14710761606693268, -0.2134944200515747, -0.01339725125581026, 0.016484620049595833, 0.0804620236158371, -0.015385591425001621], [-0.4441809058189392, -0.09165703505277634, 0.056631624698638916, -0.132051482796669, 0.10658677667379379, 0.07106824964284897, -0.33300653100013733, -0.2880811095237732, -0.0522538423538208, -0.013888738118112087, 0.013003733940422535, 0.15596579015254974, -0.0508183091878891, -0.15177541971206665, -0.0159749798476696, -0.04466795176267624, -0.07108736783266068, -0.004346203990280628, 0.18771396577358246, 0.021216120570898056, -0.05843441188335419, 0.3061680495738983, 0.09463978558778763, -0.017439471557736397, -0.008985265158116817, 0.33119529485702515, 0.09537237137556076, -0.23565201461315155, 0.13650627434253693, 0.09435734897851944, -0.22230051457881927, 0.05589209869503975, 0.18516752123832703, -0.009274888783693314, -0.24334651231765747, 0.026631539687514305, 0.044510263949632645, -0.1284942775964737, 0.03825794905424118, 0.24116593599319458, 0.011803188361227512, -0.05021337792277336, 0.29323911666870117, -0.001857792609371245, -0.1770184487104416, 0.007131881546229124, 0.222371906042099, 0.0334041491150856, 0.002926887944340706, 0.09316737949848175, -0.02528599090874195, -0.13159702718257904, 0.12809151411056519, 0.3938398063182831, 0.015670621767640114, 0.023852797225117683, 0.1673145890235901, -0.008250631392002106, -0.24944768846035004, -0.17127856612205505, 0.40545278787612915, -0.05674412101507187, -0.08250109106302261, 0.017806144431233406, -0.017725246027112007, -0.35353779792785645, -0.00672520836815238, 0.5153318047523499, -0.04559070244431496, 0.0008585703326389194, 0.08107059448957443, -0.013351831585168839, -0.44443267583847046, -0.07080916315317154, 0.45571762323379517, -0.02144041657447815, 0.17646802961826324, 0.09069661796092987, 0.10042672604322433, -0.32156944274902344, -0.05281566455960274, 0.6556364893913269, -0.03037869557738304, 0.025884881615638733, -0.170242577791214, 0.15297789871692657, -0.48956334590911865, 0.10963883250951767, 0.26663392782211304, -0.14833056926727295, 0.11107926815748215, -0.002636612392961979, 0.06277008354663849, -0.1507108062505722, 0.07650325447320938, 0.3772708475589752, -0.1868901252746582, -0.03127666562795639, -0.011006200686097145, -0.0307289008051157, -0.19102731347084045, -0.024274084717035294, 0.19059321284294128, -0.2805531322956085, 0.10265684872865677, -0.12229669094085693, 0.02019200101494789, -0.27812498807907104, -0.023259343579411507, 0.07129491120576859, -0.08873935043811798, 0.2083204835653305, -0.021065494045615196, -0.015755143016576767, -0.04924165830016136, 0.16511474549770355, 0.29704082012176514, -0.09857092797756195, 0.0030657523311674595, -0.1242717057466507, 0.03857739269733429, 0.0776350200176239, 0.013004212640225887, 0.2667772173881531, -0.19899514317512512, -0.12690240144729614, -0.27144113183021545, -0.14098452031612396, -0.11319060623645782, -0.10987606644630432, 0.1855825036764145, -0.11192307621240616, 0.16248255968093872, -0.19906185567378998, -0.06645194441080093, 0.14147378504276276, 0.10833609104156494, -0.2399919331073761, -0.03148772567510605, 0.11905328929424286, -0.21095073223114014, -0.032292354851961136, 0.16633306443691254, 0.13403113186359406, -0.17502668499946594, -0.09054384380578995, -0.08460167795419693, -0.07212012261152267, 0.019549692049622536, 0.10135290026664734, -0.08475860208272934, -0.14715661108493805, -0.05858413502573967, -0.09801827371120453, -0.14175273478031158, -0.03952934965491295, 0.14415858685970306, -0.014559773728251457, 0.13574452698230743, -0.251288503408432, -0.05975378677248955, -0.11817321926355362, -0.039225704967975616, 0.08649801462888718, 0.047208599746227264, -0.0647846907377243, -0.16067902743816376, 0.07943632453680038, -0.012479767203330994, -0.13263314962387085, 0.18229694664478302, 0.05151735618710518, -0.1302245408296585, -0.1943233609199524, -0.09663791209459305, -0.10627874732017517, -0.003212339710444212, -0.00011611168156377971, 0.04463774338364601, -0.06643573939800262, -0.2476470172405243, 0.23215769231319427, -0.05420937016606331, -0.1753712147474289, -0.0071949465200304985, 0.07513672858476639, -0.012412222102284431, -0.18029125034809113, 0.0847642794251442, 0.010951672680675983, 0.05564631521701813, 0.01359662227332592, 0.031301457434892654, -0.027932079508900642, -0.17812304198741913, 0.07729429006576538, -0.007355305831879377, 0.01809878647327423, -0.032321248203516006, -0.008932165801525116, 0.27486351132392883, -0.1566009670495987, -0.005912591703236103, -0.08520638942718506, -0.04351787269115448, 0.08780660480260849, -0.05220603942871094, 0.18404869735240936, -0.0452045202255249, -0.009326999075710773, -0.1276000589132309, -0.07038236409425735, 0.07819641381502151, 0.10404331982135773, 0.1318836510181427, -0.2841626703739166, -0.143133744597435, -0.10378704965114594, -0.049235712736845016, 0.20264320075511932, 0.05748196691274643, -0.045012690126895905, -0.21684210002422333, -0.01565985195338726, -0.053098466247320175, -0.0498649962246418, 0.07080375403165817, 0.030904939398169518, -0.14011771976947784, -0.15707927942276, -0.13780494034290314, -0.16478095948696136, -0.008911598473787308, 0.008296135812997818, -0.07150859385728836, -0.03750187158584595, -0.12615762650966644, 0.09201330691576004, 0.02033107727766037, 0.12267428636550903, -0.08166633546352386, 0.031065819784998894, -0.07858499139547348, -0.10832672566175461, -0.06036684662103653, 0.0857875794172287, -0.02817658893764019, -0.08049710839986801, 0.15431299805641174, -0.11047109961509705, -0.25460362434387207, 0.012648938223719597, 0.06127547845244408, -0.03177477791905403, 0.03647569194436073, 0.07252504676580429, -0.18742765486240387, -0.19140133261680603, -0.11108989268541336, 0.2897630035877228, 0.1777624785900116, -0.26587730646133423, 0.07612371444702148, -0.24323944747447968, -0.11425457894802094, -0.04764149338006973, 0.10295955091714859, 0.14887559413909912, -0.2911214828491211, -0.0258848387748003, -0.11270610243082047, -0.04102268069982529, 0.06857338547706604, 0.09233524650335312, 0.11857842653989792, -0.10912616550922394, -0.10616300255060196, -0.0842045322060585, 0.10769069939851761, -0.09382589161396027, 0.2116069793701172, 0.02745089679956436, -0.1321483999490738, 0.1131427213549614, -0.004811002407222986, 0.13839897513389587, 0.06395727396011353, 0.04399171844124794, 0.013207835145294666, -0.11429505795240402, -0.14196009933948517, -0.019788915291428566, 0.03108484111726284, -0.18175402283668518, 0.02121599018573761, 0.08834724873304367, -0.28026723861694336, -0.11778654903173447, -0.07463472336530685, 0.11343411356210709, -0.06071988120675087, 0.07462165504693985, 0.006165860686451197, -0.10452281683683395, 0.05808774381875992, 0.023027896881103516, 0.03117375075817108, -0.15338954329490662, 0.1363833099603653, 0.04897964745759964, -0.12748126685619354, -0.020306287333369255, -0.01283697783946991, 0.16744494438171387, -0.051207706332206726, -0.029092727228999138, -0.19227585196495056, -0.08837490528821945, -0.0005785088869743049, -0.07420507073402405, 0.28752803802490234, -0.15467527508735657, -0.26747727394104004, 0.05797603726387024, -0.14777697622776031, -0.011409332044422626, 0.02523687854409218, 0.20035699009895325, -0.21614208817481995, -0.48812028765678406, -0.1090027317404747, 0.0284042377024889, -0.0615692213177681, -0.02139921486377716, -0.05494057759642601, -0.4839823544025421, -0.049969181418418884, 0.07920670509338379, -0.2622596323490143, -0.31541135907173157, 1.1058753728866577], [0.03224940598011017, -0.10724468529224396, -0.10816791653633118, 0.014309829100966454, -0.03444328531622887, 0.12260904908180237, -0.20184431970119476, -0.03723333403468132, 0.06707347184419632, -0.28673675656318665, -0.041018128395080566, -0.013886876404285431, 0.05787239596247673, 0.11572461575269699, -0.09942805022001266, 0.06582359224557877, -0.4310079514980316, 0.12563660740852356, -0.011441776528954506, -0.06594490259885788, 0.07859456539154053, 0.05546454340219498, 0.17529001832008362, -0.6918476819992065, -0.018510963767766953, 0.0036654213909059763, -0.03592477738857269, -0.042003728449344635, 0.029177257791161537, 0.1954193264245987, -0.5999047160148621, -0.0024668301921337843, 0.020769178867340088, -0.17593084275722504, 0.11242265999317169, 0.028473982587456703, 0.11845940351486206, -0.47817549109458923, 0.08550211787223816, 0.07477114349603653, -0.25048020482063293, 0.12451919913291931, 0.1208975687623024, 0.06843027472496033, -0.40454065799713135, -0.06109102442860603, 0.1375672072172165, -0.315171480178833, 0.05303627997636795, 0.1817212700843811, 0.12763521075248718, -0.2564399838447571, -0.00487500848248601, 0.016783274710178375, -0.19497224688529968, 0.06235617771744728, 0.02448912337422371, 0.01605495996773243, -0.16276000440120697, 0.054563023149967194, -0.0852583795785904, -0.48451054096221924, -0.019335508346557617, -0.03902577981352806, 0.03693080693483353, -0.07563260197639465, 0.06645405292510986, 0.07346473634243011, -0.7229340672492981, 0.025784766301512718, -0.22274240851402283, -0.011502545326948166, -0.09040002524852753, -0.13768748939037323, 0.04433948174118996, -0.6278721690177917, 0.043903157114982605, 0.020202534273266792, -0.15499180555343628, 0.10585394501686096, 0.008336341939866543, -0.04296841844916344, -0.5560007691383362, -0.010783540084958076, -0.07150323688983917, -0.026426592841744423, 0.19604483246803284, -0.043372951447963715, 0.03704683110117912, -0.529096245765686, 0.07236653566360474, 0.02694942057132721, 0.0028194093611091375, 0.08473029732704163, 0.05992690101265907, -0.008805757388472557, -0.4450240135192871, -0.04503385350108147, 0.05088257044553757, -0.005429741460829973, 0.1684367060661316, -0.024275097995996475, -0.08665597438812256, -0.6348016858100891, -0.08491635322570801, 0.05142134428024292, -0.06082603335380554, 0.08644300699234009, 0.04897279292345047, 0.10379351675510406, -0.7747149467468262, -0.1410338133573532, 0.1271904706954956, -0.04905182123184204, 0.28215500712394714, -0.042447786778211594, -0.053449973464012146, -0.5615928769111633, -0.10194116085767746, -0.011839695274829865, -0.22286365926265717, 0.32652223110198975, -0.05622945725917816, 0.02229170687496662, -0.5593782663345337, -0.06410613656044006, -0.018203888088464737, -0.09301391243934631, 0.1991027593612671, 0.06490395218133926, 0.0666966363787651, -0.5178312659263611, -0.17842379212379456, -0.006450340151786804, -0.16722285747528076, 0.28301650285720825, 0.08082278072834015, -0.0030975572299212217, -0.3844282329082489, -0.18197739124298096, -0.007861459627747536, 0.1130680963397026, 0.3501615524291992, -0.0712660551071167, 0.026471365243196487, -0.5189269781112671, -0.15970680117607117, 0.031986869871616364, -0.14046333730220795, 0.2608458995819092, -0.10004714131355286, 0.10800141096115112, -0.46798446774482727, -0.17411792278289795, -0.01002364419400692, -0.13511215150356293, 0.18492214381694794, 0.028021471574902534, -0.029841626062989235, -0.31653302907943726, -0.38491708040237427, 0.021081959828734398, -0.007004540879279375, 0.31100699305534363, 0.04040323570370674, -0.08883847296237946, -0.5656678676605225, -0.18368424475193024, 0.02613753452897072, -0.09947436302900314, 0.23343653976917267, 0.058794014155864716, -0.040519919246435165, -0.5065454244613647, -0.08011458069086075, 0.005022336728870869, -0.13513478636741638, 0.42049551010131836, 0.05990703031420708, 0.10239218920469284, -0.5349641442298889, -0.07821419090032578, 0.07268553972244263, -0.1261436492204666, 0.24937935173511505, 0.021397557109594345, -0.11562773585319519, -0.42350783944129944, -0.16749539971351624, 0.015218565240502357, -0.07885872572660446, 0.23194843530654907, -0.09968757629394531, -0.17010818421840668, -0.258002370595932, -0.09820586442947388, 0.15842363238334656, -0.057990290224552155, 0.3214290142059326, -0.14809276163578033, -0.043634284287691116, -0.4875495135784149, 0.06541558355093002, 0.026328736916184425, -0.11007952690124512, 0.0869808942079544, 0.03787476569414139, 0.09117046743631363, -0.15332448482513428, -0.13898353278636932, 0.014943327754735947, -0.07188007235527039, 0.07812345772981644, -0.03321355581283569, 0.08399096876382828, -0.2820873260498047, 0.028155868873000145, -0.10876211524009705, 0.04288380220532417, -0.1380513459444046, 0.11139614135026932, 0.005430667661130428, -0.26579925417900085, -0.030692894011735916, 0.014916466549038887, -0.005531153175979853, -0.11388503760099411, -0.16932694613933563, -0.2779925465583801, -0.2487126588821411, 0.15376949310302734, -0.09930450469255447, 0.014355523511767387, -0.1411864459514618, -0.04718584194779396, -0.21890053153038025, -0.17870187759399414, 0.07087580114603043, -0.12430944293737411, 0.07999070733785629, -0.02732875384390354, 0.13936494290828705, -0.4403627812862396, -0.20886746048927307, 0.1692049205303192, -0.11521722376346588, 0.12798112630844116, -0.18226975202560425, -0.09583338350057602, -0.543829619884491, -0.47595158219337463, 0.19002102315425873, -0.045028429478406906, 0.12201856076717377, -0.23401182889938354, -0.05282916501164436, -0.3776392936706543, -0.3960569500923157, 0.2803051173686981, -0.0817055031657219, 0.17624153196811676, -0.30439817905426025, 0.01499740220606327, -0.16316798329353333, -0.16840502619743347, 0.17555265128612518, 0.03383674845099449, 0.08447611331939697, -0.32971590757369995, -0.056104108691215515, 0.004071407951414585, -0.21610406041145325, 0.006797587964683771, 0.07586310803890228, 0.016615338623523712, -0.5539559125900269, -0.07293474674224854, -0.05351942032575607, -0.12410364300012589, -0.02878592349588871, 0.005381124559789896, 0.2388213574886322, -0.5460952520370483, 0.018106680363416672, -0.030104108154773712, 0.05343296751379967, -0.007374889217317104, 0.0993676483631134, 0.20188602805137634, -0.6511001586914062, -0.15628769993782043, 0.11960931867361069, 0.006984090432524681, -0.10343434661626816, 0.08429544419050217, 0.24109959602355957, -0.5028294324874878, -0.09936585277318954, 0.057324159890413284, 0.230485737323761, -0.3436354100704193, -0.06481058895587921, 0.11776278913021088, -0.6049091815948486, 0.017133234068751335, -0.010267598554491997, 0.1810484230518341, -0.5048412680625916, 0.08729780465364456, 0.1605401188135147, -0.47998976707458496, 0.04553333297371864, 0.10182509571313858, 0.3907018303871155, -0.14199292659759521, 0.044347770512104034, -0.025564951822161674, -0.36115768551826477, -0.03675093874335289, -0.12754300236701965, 0.2324438840150833, -0.09446355700492859, 0.00850222259759903, -0.20051711797714233, -0.35228076577186584, -0.0436776764690876, -0.0318790003657341, 0.2844819724559784, -0.5932897329330444, 0.09484212845563889, -0.305804967880249, -0.2504136860370636, 0.0005272062844596803, 0.020104942843317986, 0.29327183961868286, -0.4559139013290405, 0.0729222223162651, 0.08303116261959076, -0.6541253924369812, 0.5003334879875183, 0.3482270836830139], [-0.212211012840271, -0.05362994968891144, 0.09735842049121857, 0.005706602241843939, -0.15245121717453003, -0.011912419460713863, 0.4099896252155304, -0.1728384792804718, -0.047454118728637695, 0.3648068606853485, 0.10984671115875244, -0.08956421166658401, -0.05604035407304764, 0.36296507716178894, -0.16197437047958374, 0.07509414106607437, -0.08831952512264252, -0.0020995899103581905, -0.04664326086640358, -0.04511628672480583, 0.4089248478412628, -0.32352492213249207, 0.019981175661087036, -0.22824543714523315, 0.09892259538173676, -0.10329842567443848, -0.08514080196619034, 0.4705684781074524, -0.19352734088897705, -0.0980338379740715, -0.2666478157043457, 0.009248294867575169, -0.06475302577018738, -0.19634932279586792, 0.1352500170469284, 0.05117781460285187, -0.05940157547593117, -0.38822290301322937, -0.043180469423532486, 0.00393963186070323, -0.14868789911270142, 0.02586345560848713, -0.026400845497846603, -0.13832804560661316, -0.17605900764465332, 0.10880033671855927, -0.05309775844216347, 0.20476683974266052, -0.016919197514653206, -0.06890938431024551, -0.0703001320362091, -0.13941305875778198, 0.16016435623168945, -0.022543352097272873, 0.4092505872249603, 0.03699162229895592, -0.0009004685562103987, -0.11819492280483246, -0.09651482850313187, -0.05781858041882515, -0.03427460417151451, -0.007452121004462242, 0.0036303168162703514, 0.07426406443119049, -0.024941565468907356, -0.1570235639810562, -0.017082424834370613, -0.010758067481219769, 0.17142631113529205, 0.08541106432676315, 0.1239413172006607, 0.027430638670921326, -0.15399006009101868, -0.05523968115448952, 0.04530071094632149, 0.07490462809801102, 0.12273906171321869, -0.09652992337942123, 0.05469726026058197, -0.21205811202526093, 0.016633182764053345, -0.024327334016561508, 0.28908607363700867, 0.11809554696083069, -0.07591018825769424, -0.05239397659897804, -0.11921890825033188, 0.1361997276544571, -0.03744054213166237, 0.10984140634536743, -0.0005356611800380051, 0.11297636479139328, -0.15331298112869263, -0.09605121612548828, -0.05778459087014198, -0.029354792088270187, 0.19412194192409515, -0.0938296914100647, -0.00233862386085093, -0.03702878952026367, -0.02550320513546467, -0.02263008803129196, -0.03841375559568405, 0.049362052232027054, 0.02591054141521454, -0.08792321383953094, -0.20702539384365082, -0.19286131858825684, 0.02237890101969242, -0.0496489554643631, 0.14480838179588318, -0.14132213592529297, 4.569653174257837e-05, -0.11047543585300446, -0.11420609056949615, 0.03334580734372139, -0.013042117469012737, 0.08415061980485916, -0.05006113275885582, 0.046345315873622894, 0.04370690882205963, 0.015741782262921333, 0.029748301953077316, 0.03635510802268982, 0.11461508274078369, 0.033547498285770416, 0.033856093883514404, 0.009226679801940918, -0.09508150815963745, 0.009763824753463268, 0.06746087223291397, 0.14763446152210236, -0.016662636771798134, -0.026795653626322746, -0.009552559815347195, -0.04191576689481735, 0.018341299146413803, 0.026593437418341637, 0.004089536610990763, -0.08090830594301224, 0.01873287372291088, 0.05875832214951515, -0.009144783951342106, 0.020234806463122368, -0.017085328698158264, 0.1711864471435547, -0.020672593265771866, 0.07116174697875977, 0.03173775225877762, -0.058038484305143356, -0.09117282181978226, 0.02853231690824032, 0.07239940762519836, -0.03246823325753212, 0.0225751381367445, 0.13755479454994202, -0.02878742106258869, -0.10557921230792999, -0.013397292234003544, -0.0023791457060724497, -0.028497891500592232, -0.032124750316143036, 0.013676726259291172, -0.16946649551391602, 0.03323075920343399, 0.04177866503596306, 0.09454542398452759, -0.09616882354021072, 0.008334101177752018, 0.15001006424427032, -0.07023902982473373, 0.007897483184933662, 0.07785279303789139, 0.2504097521305084, -0.0431060828268528, 0.04862300306558609, 0.030801348388195038, -0.03157682344317436, -0.019933896139264107, 0.08837127685546875, 0.22232700884342194, -0.14065386354923248, 0.08658517152070999, 0.11837383359670639, 0.06291991472244263, -0.10053128749132156, 0.1531791239976883, 0.17784735560417175, -0.12968622148036957, -0.05087469890713692, 0.09400492161512375, -0.031256478279829025, -0.16172626614570618, 0.5387169122695923, 0.20441213250160217, -0.22960969805717468, 0.019124291837215424, 0.099696084856987, 0.04569028690457344, -0.022168094292283058, 0.1720583587884903, 0.14977945387363434, -0.2329762578010559, -0.003684408962726593, 0.0643768236041069, -0.01068602129817009, 0.12317003309726715, 0.0716484859585762, 0.19099381566047668, -0.3615676164627075, 0.06372260302305222, 0.126127690076828, 0.07025877386331558, 0.0032189039047807455, 0.15693573653697968, 0.20696118474006653, -0.242784321308136, 0.021042153239250183, 0.05507099628448486, 0.07549547404050827, 0.017576755955815315, -0.05098382756114006, 0.295835018157959, -0.2347993552684784, 0.051886700093746185, 0.11549395322799683, 0.07311243563890457, 0.009495159611105919, 0.08803395181894302, 0.09579357504844666, -0.26451629400253296, 0.0649418979883194, 0.12722933292388916, 0.07045713812112808, -0.14929825067520142, 0.06912891566753387, 0.2900598347187042, -0.26830950379371643, 0.0008725004154257476, 0.25150468945503235, 0.10773550719022751, -0.10477662831544876, 0.08407304435968399, 0.15545572340488434, -0.28937360644340515, -0.14752978086471558, 0.09204617142677307, 0.014607854187488556, -0.1408521980047226, 0.04477555677294731, 0.2110574096441269, -0.2648380398750305, -0.1958918571472168, 0.13562266528606415, 0.004730090033262968, -0.0793856605887413, 0.14874933660030365, 0.34635111689567566, -0.35428091883659363, -0.3320240378379822, 0.16978250443935394, -0.022587737068533897, -0.007783021777868271, 0.06160374730825424, 0.4257868230342865, -0.3090251386165619, -0.3755415380001068, 0.02144995890557766, 0.005124929826706648, -0.08075825870037079, 0.0638699010014534, 0.47868603467941284, -0.15571926534175873, -0.3547259271144867, -0.04227053001523018, -0.08052567392587662, 0.020821625366806984, 0.07283500581979752, 0.3969436585903168, -0.07504108548164368, -0.3288988173007965, 0.006795015186071396, 0.04140089824795723, -0.1606776863336563, 0.011901232413947582, 0.4100504517555237, -0.07964223623275757, -0.2199593037366867, -0.01430024765431881, -0.010593865998089314, -0.13532987236976624, -0.04802734777331352, 0.43753573298454285, -0.09294596314430237, -0.06756468862295151, -0.12120664864778519, -0.08557544648647308, -0.07348752021789551, -0.0063979108817875385, 0.29433366656303406, -0.0589900016784668, 0.01886848546564579, -0.0032382227946072817, -0.20468734204769135, -0.12285934388637543, -0.01136393565684557, 0.20905612409114838, -0.011263925582170486, 0.06694067269563675, -0.15384159982204437, -0.025635777041316032, -0.027677295729517937, 0.006943439599126577, 0.22341516613960266, -0.014606869779527187, 0.1945936381816864, -0.14733394980430603, -0.014938698150217533, 0.013967247679829597, 0.06382720917463303, 0.18554963171482086, 0.18563829362392426, -0.062083616852760315, -0.10820377618074417, 0.0744912326335907, -0.006666878703981638, 0.008848153054714203, 0.16061174869537354, 0.38858285546302795, -0.31684768199920654, -0.02378072589635849, -0.010996450670063496, -0.0071673146449029446, -0.0678263008594513, 0.1569415181875229, 0.36525753140449524, -0.2966774106025696, -0.07455173134803772, 0.008449606597423553, -0.19408462941646576, 0.4755377173423767], [0.04383973404765129, 0.027533767744898796, 0.6347452998161316, 0.0005003436817787588, 0.021878691390156746, -0.13722755014896393, 0.043436095118522644, -0.008223575539886951, 0.009071682579815388, 0.5469317436218262, 0.003889689454808831, -0.05213984102010727, -0.006543735973536968, -0.08950070291757584, -0.013329158537089825, 0.13708536326885223, 0.39076298475265503, -0.05260491371154785, -0.09529630839824677, -0.014931321144104004, -0.19318971037864685, 0.06478119641542435, 0.09434156864881516, 0.21693338453769684, -0.07514537125825882, -0.075944684445858, 0.029751800000667572, -0.10899106413125992, -0.07965310662984848, 0.06313714385032654, 0.15710186958312988, 0.12374380975961685, -0.14521341025829315, 0.06893633306026459, -0.09499937295913696, -0.05859577655792236, -0.007463778369128704, -0.038332585245370865, 0.1247050017118454, -0.15962114930152893, -0.225815087556839, 0.10592905431985855, -0.2332523912191391, -0.06005202233791351, 0.022287901490926743, -0.05654953792691231, -0.30225345492362976, -0.08619626611471176, 0.08208587765693665, -0.21359622478485107, -0.030591556802392006, -0.12951889634132385, 0.008701655082404613, -0.2881285548210144, -0.23617331683635712, 0.167070209980011, -0.14863617718219757, -0.013575924560427666, -0.17894305288791656, 0.0688990131020546, -0.2127693146467209, -0.11209341138601303, 0.23007555305957794, 0.007877982221543789, -0.0649506226181984, -0.3457028865814209, 0.025936830788850784, -0.3456559479236603, -0.002596477046608925, 0.21122756600379944, -0.03590152785181999, 0.15392795205116272, -0.5789814591407776, 0.05131194740533829, -0.31122732162475586, -0.06205874681472778, 0.3246864080429077, -0.07860668748617172, 0.13833236694335938, -0.7557222247123718, -0.06196756288409233, -0.15395650267601013, 0.11136198788881302, 0.24174004793167114, 0.04987913742661476, 0.16044160723686218, -0.7656815648078918, 0.04515593871474266, -0.013707718811929226, 0.007606289815157652, 0.2953748404979706, -0.03169788792729378, 0.20286162197589874, -0.4264644980430603, 0.022508487105369568, -0.1517774760723114, -0.03631938621401787, 0.21049684286117554, 0.10114653408527374, 0.019437506794929504, -0.22798417508602142, -0.09012763947248459, -0.04167840629816055, -0.10095720738172531, -0.02291879430413246, 0.10257462412118912, 0.13063591718673706, 0.16763757169246674, 0.009618065319955349, 0.07338710129261017, 0.04494635388255119, -0.12256964296102524, 0.07036880403757095, -0.0533292256295681, -0.14592555165290833, -0.07721178978681564, 0.20401424169540405, -0.0016823516925796866, -0.03939031809568405, 0.026777571067214012, 0.15607501566410065, -0.03796342760324478, 0.09338810294866562, -0.19570878148078918, -0.0014848820865154266, 0.05341087281703949, -0.016345351934432983, 0.03325411677360535, -0.08303344249725342, 0.0319175198674202, -0.14704489707946777, 0.1285816729068756, 0.05708802118897438, -0.05744420364499092, -0.05105789378285408, -0.11130209267139435, -0.06890397518873215, 0.07621157914400101, -0.006387572735548019, 0.05017005652189255, -0.0005323958466760814, -0.026057641953229904, -0.12058921158313751, -0.10677578300237656, -0.1456831395626068, -0.027490515261888504, 0.11771870404481888, -0.13446016609668732, 0.12751127779483795, -0.2388771027326584, 0.0413295216858387, -0.058623410761356354, -0.06953389197587967, 0.013043763116002083, 0.13586902618408203, 0.024661444127559662, -0.28903111815452576, 0.09177370369434357, 0.04227735474705696, -0.01433216966688633, 0.08960791677236557, 0.020808489993214607, 0.10251380503177643, -0.07806261628866196, 0.1364205777645111, -0.05877694487571716, 0.07163917273283005, 0.08188197761774063, -0.03459630161523819, 0.02302689664065838, -0.26086172461509705, 0.05323532968759537, -0.18821915984153748, 0.08767634630203247, 0.08665011823177338, 0.033381253480911255, 0.009625674225389957, -0.06924609839916229, -0.09373114258050919, -0.03041183017194271, -0.18583332002162933, 0.25594383478164673, 0.11605491489171982, 0.028144994750618935, -0.16745495796203613, 0.09965454787015915, 0.05169404670596123, -0.05696038529276848, -0.003284009639173746, -0.023118140175938606, 0.041440170258283615, -0.1402057409286499, -0.01038067415356636, -0.060805544257164, -0.05224575474858284, 0.1775520294904709, 0.005280289798974991, -0.10150890052318573, -0.30166879296302795, 0.04500865936279297, 0.21476499736309052, 0.10910757631063461, 