{"schema_version": 1, "metadata": {"global_step": 35037184, "run_name": "v102_b2beta", "obs_size": 341, "hidden_size": 64, "action_space_size": 18}, "weights": {"fc1.weight": [[0.2534743845462799, -0.06291364878416061, -0.01700913906097412, -0.054915718734264374, 0.07534857094287872, -0.039392780512571335, -0.12719321250915527, 0.14848515391349792, 0.02095627970993519, -0.18370744585990906, -0.01894732192158699, 0.06293563544750214, -0.13577735424041748, -0.028653975576162338, 0.13001853227615356, 0.16125084459781647, -0.039564795792102814, -0.10491219907999039, -0.028892477974295616, -0.04547008499503136, -0.462090402841568, 0.24474984407424927, -0.13115496933460236, -0.031294241547584534, 0.044964734464883804, -0.03767958655953407, -0.015149302780628204, -0.13418200612068176, 0.24706119298934937, -0.030742153525352478, -0.16055554151535034, 0.21999728679656982, 0.0022171777673065662, -0.13422125577926636, 0.03987964615225792, 0.1999521106481552, -0.042667269706726074, -0.11393803358078003, -0.037794485688209534, 0.16262146830558777, 0.10298341512680054, -0.0515088215470314, 0.2400292605161667, -0.09565198421478271, -0.15907201170921326, -0.09872739762067795, 0.07080548256635666, 0.19429554045200348, 0.05264117568731308, 0.11115816980600357, 0.14766427874565125, -0.14453206956386566, -0.016150062903761864, -0.008382732979953289, 0.15125080943107605, -0.09961333870887756, 0.27157485485076904, 0.09716091305017471, -0.4241331219673157, 0.18757782876491547, -0.00997230689972639, 0.02004508674144745, -0.1642540544271469, 0.1304391622543335, -0.02780572883784771, -0.2336473912000656, -0.07957407832145691, 0.08189249783754349, 0.2590935528278351, 0.043805625289678574, 0.13289381563663483, -0.06183333694934845, -0.17415843904018402, 0.05782438814640045, -0.08331944793462753, 0.12237980216741562, -0.11171942949295044, 0.12508925795555115, 0.23876434564590454, -0.2456969916820526, -0.012726463377475739, 0.19649359583854675, 0.18763279914855957, 0.02429002709686756, 0.17430740594863892, -0.024111086502671242, -0.12776392698287964, -0.0410986989736557, -0.002102367579936981, -0.02260691486299038, -0.020394403487443924, 0.23624801635742188, 0.018850533291697502, -0.16139309108257294, 0.009255492128431797, 0.13394547998905182, 0.1318732500076294, 0.03587266430258751, 0.20122511684894562, 0.0053779506124556065, -0.17382334172725677, 0.17201298475265503, 0.07485061138868332, 0.021297689527273178, 0.05912088230252266, -0.015307944267988205, -0.13500387966632843, -0.21974420547485352, -0.11867991834878922, -0.05822712555527687, 0.12877728044986725, 0.058245670050382614, -0.005502261687070131, -0.06964551657438278, -0.12595616281032562, 0.16302445530891418, 0.03217453137040138, 0.009129282087087631, -0.08222945779561996, 0.150782972574234, -0.011184610426425934, 0.018473325297236443, -0.04967937991023064, -0.08873037993907928, 0.11304327845573425, -0.06328334659337997, 0.009309913963079453, 0.0914730578660965, 0.059188663959503174, 0.028448719531297684, 0.030378000810742378, -0.07651596516370773, -0.0721864253282547, 0.056045323610305786, -0.21469463407993317, -0.051463305950164795, -0.025379730388522148, -0.01145466323941946, -0.03404155373573303, -0.028831077739596367, 0.06078210473060608, 0.06298983097076416, -0.004703466314822435, -0.048978857696056366, 0.05892998352646828, -0.004709247965365648, -0.14213533699512482, -0.017473271116614342, -0.04025590047240257, -0.13109420239925385, 0.1968642771244049, 0.07617000490427017, -0.23598216474056244, 0.027008693665266037, -0.013075063936412334, -0.04727267473936081, 0.0753583312034607, 0.14844629168510437, -0.09814013540744781, -0.30804261565208435, 0.10214272886514664, 0.12943533062934875, 0.10739763081073761, -0.1242872029542923, 0.037174053490161896, 0.05147504061460495, -0.5462030172348022, 0.24017485976219177, -0.06501670926809311, 0.0014586879406124353, -0.1492820829153061, 0.11063992977142334, -0.21724486351013184, -0.5349180698394775, 0.0810793787240982, 0.05321856960654259, 0.00041351639083586633, -0.04890771955251694, 0.032530587166547775, -0.45722758769989014, -0.7678692936897278, 0.11789176613092422, -0.1362183690071106, 0.12189770489931107, -0.14837077260017395, 0.005515762604773045, -0.4582184851169586, -0.8905848860740662, 0.06904025375843048, -0.0906703844666481, -0.085039421916008, -0.10208331793546677, -0.008217346854507923, -0.0008950005867518485, -0.8419862985610962, 0.09731392562389374, -0.01996564492583275, -0.09149259328842163, -0.057828400284051895, 0.025151744484901428, -0.03975440561771393, -0.8347576260566711, 0.12395286560058594, -0.03168107569217682, 0.10609211772680283, -0.1321948766708374, -0.03371693193912506, -0.27743464708328247, -0.7943684458732605, 0.10264979302883148, -0.02816556766629219, 0.1198204904794693, -0.09975700080394745, -0.13780483603477478, -0.24618953466415405, -0.7148744463920593, 0.16930030286312103, -0.01991339586675167, 0.07674223929643631, -0.20759977400302887, -0.020384829491376877, -0.3223972022533417, -0.5141991376876831, 0.168007031083107, 0.016275908797979355, 0.03520791232585907, -0.21489979326725006, -0.07783439755439758, -0.4685213267803192, -0.5638294816017151, 0.2003394514322281, 0.07380732148885727, 0.13729138672351837, -0.1738637089729309, -0.16065534949302673, -0.16198959946632385, -0.37179216742515564, 0.10648036748170853, 0.23975108563899994, -0.007159661967307329, -0.1612195372581482, -0.11362965404987335, -0.2073296159505844, -0.2051803171634674, 0.07583268731832504, -0.021964164450764656, 0.03179896995425224, -0.27049848437309265, 0.06540762633085251, 0.04193183779716492, -0.23984384536743164, 0.22780074179172516, 0.1899697333574295, 0.11481333523988724, -0.08032868802547455, 0.00810005608946085, -0.23391439020633698, -0.25650152564048767, 0.17255434393882751, 0.09683910012245178, 0.085987389087677, -0.3582751154899597, -0.05229395255446434, -0.0824347510933876, -0.2314690351486206, 0.06350266188383102, 0.08458147197961807, 0.005327112507075071, -0.3202679753303528, -0.021722208708524704, -0.29546183347702026, -0.1907956600189209, 0.1832495778799057, -0.012554185464978218, 0.06421690434217453, -0.28556522727012634, -0.060309819877147675, -0.1391630917787552, 0.01548696868121624, 0.10258567333221436, 0.04484456777572632, -0.06245574355125427, -0.13757531344890594, 0.02495807595551014, -0.0807018131017685, 0.16092771291732788, -0.049268901348114014, -0.02213338576257229, 0.05240350961685181, -0.5192825794219971, 0.08462193608283997, -0.031411003321409225, 0.02540193498134613, -0.12985645234584808, -0.06613591313362122, 0.06235005706548691, -0.288942813873291, 0.025898244231939316, 0.23510724306106567, 0.09899497777223587, -0.02904769591987133, 0.160108745098114, 0.04341769590973854, -0.3408302664756775, 0.007818708196282387, -0.04572993889451027, 0.13885663449764252, 0.18500500917434692, 0.027728524059057236, -0.04234286770224571, -0.36647528409957886, 0.028095463290810585, -0.02739175595343113, 0.14351403713226318, 0.19108250737190247, -0.22335544228553772, -0.035312846302986145, -0.015753701329231262, -0.05780032277107239, -0.026752285659313202, 0.046760763972997665, 0.36085015535354614, 0.08867982774972916, -0.025611432269215584, -0.11911366134881973, -0.06586486846208572, 0.13562367856502533, 0.10560862720012665, -0.20336011052131653, -0.018142957240343094, -0.16291163861751556, -0.07234768569469452, 0.028232092037796974, 0.09954459220170975, 0.04048342630267143, -0.35373979806900024, -0.04403071478009224, 0.2308632880449295, 0.7217797636985779, -0.18846628069877625, 0.7193757891654968], [-0.13518014550209045, 0.0591893270611763, -0.029817353934049606, -0.09144371002912521, 0.14206551015377045, -0.02078741416335106, -0.17845776677131653, -0.16110168397426605, -0.11156655848026276, 0.019611496478319168, 0.08236707001924515, 0.00814204104244709, -0.06441260874271393, -0.04951070621609688, -0.005517390090972185, 0.06975951045751572, -0.02865336835384369, 0.026701979339122772, 0.15199808776378632, -0.067206472158432, -0.06521105021238327, 0.042970892041921616, 0.1780538260936737, -0.09269801527261734, -0.07806600630283356, 0.16806556284427643, -0.13110369443893433, -0.1451580822467804, 0.10858755558729172, 0.2066415250301361, -0.033616453409194946, 0.047376859933137894, 0.18159791827201843, -0.04884226247668266, -0.09604828804731369, -0.001318454509600997, -0.08042211085557938, 0.013137376867234707, -0.029537495225667953, 0.08889000117778778, -0.07380329817533493, 0.021186381578445435, 0.17611908912658691, 0.07997412979602814, -0.20682558417320251, 0.04235531762242317, 0.0041185710579156876, -0.09946281462907791, 0.013696609996259212, 0.16432222723960876, 0.2449493706226349, -0.20952031016349792, 0.06037486344575882, 0.040757518261671066, -0.04510640352964401, -0.013067000545561314, 0.24471618235111237, 0.1630631387233734, -0.410021036863327, 0.01251243520528078, -0.0058523849584162235, 0.02393309585750103, 0.05310859531164169, 0.07800955325365067, -0.10361818969249725, -0.216470405459404, -0.046092402189970016, 0.14573141932487488, 0.2841174006462097, -0.12044413387775421, 0.059578415006399155, 0.01239917241036892, -0.4563629925251007, 0.02783999964594841, 0.1198730394244194, -0.01264896523207426, 0.1394074261188507, 0.11935147643089294, 0.07143907994031906, -0.5273756980895996, -0.028499219566583633, 0.1883988231420517, 0.22524037957191467, 0.13473454117774963, -0.13285019993782043, 0.12873275578022003, -0.4241190254688263, -0.005420919973403215, -0.0556865856051445, 0.33233749866485596, 0.11783827841281891, 0.07543469220399857, 0.05403495207428932, -0.5661294460296631, -0.1722412407398224, -0.10937555879354477, 0.17848768830299377, 0.1270293891429901, -0.03428247198462486, 0.24078400433063507, -0.4724354147911072, -0.03249431028962135, -0.15460024774074554, 0.10512654483318329, 0.016796782612800598, 0.039640333503484726, 0.017134500667452812, -0.5935731530189514, -0.014233698137104511, 0.15442289412021637, 0.3001956343650818, 0.10346436500549316, 0.08073905110359192, 0.3046083450317383, -0.5424665808677673, -0.02567887492477894, 0.05597439780831337, 0.10482247173786163, 0.05814037472009659, -0.1103656217455864, 0.0460355170071125, -0.45069417357444763, 0.1438455730676651, -0.05130769684910774, 0.22883613407611847, 0.21044301986694336, 0.04323599860072136, 0.03843451663851738, -0.4489903151988983, -0.14667335152626038, 0.08054199069738388, 0.20646120607852936, 0.26769930124282837, -0.005752103868871927, 0.057089898735284805, -0.5112404823303223, -0.10775063931941986, 0.010942336171865463, 0.10857483744621277, 0.22613577544689178, -0.02898848056793213, 0.12144552916288376, -0.5460631847381592, -0.049182046204805374, 0.04281565546989441, 0.1354047656059265, 0.3815259337425232, -0.0746760442852974, 0.024385234341025352, -0.32081300020217896, -0.053565409034490585, 0.17913676798343658, 0.09258239716291428, 0.3030831813812256, -0.075410395860672, 0.06892231106758118, 0.013845537789165974, 0.00046894553815945983, -0.11278937011957169, 0.10191624611616135, 0.012878037989139557, 0.02225741744041443, 0.0657849907875061, -0.04927326366305351, 0.03143664449453354, 0.012777017429471016, -0.1837940365076065, -0.20183826982975006, -0.09796564280986786, -0.10188992321491241, 0.25740036368370056, 0.0217220950871706, 0.032175906002521515, -0.2361288219690323, 0.03985036909580231, -0.09879422932863235, -0.21990710496902466, 0.019989920780062675, -0.05759405344724655, -0.1784234344959259, 0.0031134311575442553, 0.02082963101565838, -0.10071369260549545, -0.21566012501716614, 0.0006658523925580084, 0.020753249526023865, 0.008905990049242973, 0.05456912890076637, -0.0723794624209404, -0.059435389935970306, -0.08502316474914551, -0.028102198615670204, 0.004522170405834913, -0.0864681825041771, -0.034713391214609146, 0.0899069532752037, -0.025438565760850906, 0.002904445631429553, -0.12082628905773163, 0.04773859307169914, -0.16082127392292023, -0.1958514004945755, -0.0311286561191082, -0.10367096215486526, -0.09498070180416107, -0.09239310771226883, 0.06259340792894363, 0.03433174639940262, -0.10437754541635513, 0.04772692173719406, -0.253307044506073, -0.26327937841415405, 0.15972426533699036, -0.22807128727436066, 0.10176198929548264, -0.1935950070619583, 0.043577224016189575, -0.016681542620062828, -0.14374050498008728, 0.10530620068311691, 0.06958667188882828, -0.15868207812309265, 0.1443074643611908, -0.0018911963561549783, -0.2551826536655426, -0.12007088959217072, 0.028407344594597816, 0.10477858036756516, -0.2314745932817459, -0.02794109284877777, -0.10789478570222855, -0.301430344581604, -0.11166103184223175, 0.29616421461105347, 0.08446264266967773, -0.238368958234787, -0.060359060764312744, -0.07765544950962067, -0.03730675205588341, -0.22789020836353302, 0.15759097039699554, -0.10208595544099808, -0.1478138118982315, 0.0627465546131134, 0.040599461644887924, 0.04300544783473015, 0.09074351191520691, 0.2505338788032532, -0.18415658175945282, -0.28470075130462646, -0.07047566771507263, 0.03784069046378136, -0.1109519824385643, 0.10241564363241196, 0.2185654640197754, -0.11843027919530869, -0.3884041905403137, -0.07499941438436508, -0.018135027959942818, -0.1772882342338562, -0.03638940304517746, 0.2335871011018753, 0.09906752407550812, 0.2438092976808548, -0.15683613717556, -0.04450259730219841, -0.1805574744939804, -0.20282326638698578, 0.20498177409172058, 0.024585800245404243, 0.2617555558681488, -0.12070368975400925, -0.044799041002988815, -0.12223230302333832, -0.138475239276886, 0.15250010788440704, 0.07016868889331818, 0.05613943561911583, -0.05311240255832672, 0.22786568105220795, -0.04478061944246292, -0.2419688105583191, 0.22604337334632874, 0.05995814874768257, -0.22412097454071045, -0.2283012568950653, 0.18908818066120148, -0.04859156534075737, -0.1483328640460968, 0.29405951499938965, 0.01809859275817871, 0.06726036220788956, -0.08255457878112793, 0.1142229214310646, -0.02448931522667408, -0.24536199867725372, 0.24254865944385529, 0.062062643468379974, -0.14276528358459473, -0.10603415966033936, 0.3581865131855011, 0.03532964736223221, -0.16658401489257812, 0.32058185338974, -0.07792642712593079, -0.09032406657934189, -0.2943336069583893, 0.16407740116119385, 0.19717060029506683, 0.040749747306108475, 0.0982581153512001, 0.07163932174444199, -0.14587561786174774, -0.12639808654785156, 0.3901419937610626, 0.22622211277484894, -0.03783019259572029, 0.20212407410144806, -0.1262567788362503, -0.03940771520137787, 0.023680435493588448, 0.356270432472229, 0.19120994210243225, 0.04824897274374962, 0.012349531054496765, -0.03648635745048523, -0.05005338415503502, -0.03383776918053627, 0.3345390558242798, -0.04822974652051926, -0.13585977256298065, -0.07128863036632538, 0.09923943877220154, 0.026439161971211433, -0.12720876932144165, 0.42984244227409363, -0.21991726756095886, 0.25971660017967224, -0.6571352481842041, 0.4158376455307007, -0.34518948197364807], [0.38580697774887085, -0.042646586894989014, 0.2768706977367401, 0.010060099884867668, -0.17994625866413116, 0.07028508186340332, 0.02887718938291073, 0.13967517018318176, -0.007251373957842588, 0.18395279347896576, 0.043199822306632996, -0.10499031841754913, 0.09419574588537216, 0.015189507976174355, -0.23240822553634644, 0.022846821695566177, 0.16355305910110474, 0.06300079822540283, -0.08167792856693268, -0.06309438496828079, 0.15595704317092896, 0.035924121737480164, 0.09080541133880615, -0.023925308138132095, -0.1000923365354538, -0.00041691979276947677, -0.09535740315914154, -0.001301440759561956, 0.1456509530544281, 0.19330759346485138, -0.20048795640468597, -0.07592672854661942, -0.22716239094734192, -0.16200286149978638, 0.06526944786310196, 0.22408464550971985, 0.02752065844833851, -0.2954641878604889, -0.12388496100902557, 0.07900460809469223, -0.14928780496120453, -0.16922053694725037, 0.2633797824382782, 0.0667363777756691, -0.13156263530254364, 0.10511364042758942, 0.048251327127218246, -0.08175785094499588, -0.045374032109975815, 0.31529927253723145, 0.15337097644805908, -0.22606556117534637, 0.08069762587547302, 0.035156670957803726, -0.11632388830184937, 0.1348138451576233, 0.08996371179819107, 0.029977289959788322, -0.17977051436901093, 0.06563236564397812, -0.03508438169956207, -0.0291631817817688, -0.05997338518500328, 0.18438035249710083, 0.00890976283699274, -0.10695131868124008, 0.13838455080986023, -0.038145843893289566, 0.004168476443737745, 0.05427221953868866, -0.0025310951750725508, -0.0363197885453701, -0.06815524399280548, -0.009093906730413437, -0.09722043573856354, 0.00920734740793705, -0.0324581041932106, -0.0020929970778524876, -0.12642459571361542, 0.35739779472351074, 0.05215265229344368, -0.21080723404884338, -0.018308186903595924, -0.09816839545965195, 0.0021657447796314955, -0.19173774123191833, 0.5401777029037476, -0.09399597346782684, -0.07130695879459381, -0.011781851761043072, 0.030307935550808907, -0.1259123682975769, -0.16754287481307983, 0.3571852147579193, -0.01493065431714058, 0.002314754528924823, -0.06449539959430695, -0.07785126566886902, 0.009172680787742138, -0.2908903956413269, 0.2304777354001999, -0.008998755365610123, -0.13610734045505524, -0.0038163710851222277, -0.19017228484153748, -0.11507049947977066, -0.10943113267421722, 0.2241104692220688, 0.03250672295689583, -0.14730443060398102, -0.03319275379180908, 0.0140464399009943, -0.25913524627685547, -0.2688768804073334, 0.4589535593986511, 0.03846248984336853, -0.026672791689634323, -0.04894963651895523, -0.3673839271068573, -0.20926682651042938, -0.17314361035823822, 0.32350483536720276, -0.06178133189678192, -0.05964477360248566, -0.06476432830095291, -0.19498202204704285, -0.047662682831287384, -0.20485298335552216, 0.33526620268821716, 0.02578406035900116, 0.036206990480422974, -0.05415666103363037, -0.3549439013004303, -0.17036792635917664, -0.08532282710075378, 0.25037628412246704, 0.22949232161045074, -0.048075370490550995, -0.1938045471906662, -0.12745726108551025, -0.008750014938414097, -0.23140467703342438, 0.22173607349395752, 0.07602642476558685, -0.01896410807967186, -0.06081831455230713, -0.05127447471022606, -0.18579590320587158, -0.29047998785972595, 0.1237262636423111, -0.15351128578186035, -0.1640281230211258, -0.11018113791942596, 0.05761381983757019, -0.11615275591611862, -0.28937646746635437, 0.18823085725307465, 0.1259697526693344, -0.37652021646499634, -0.06152770668268204, 0.11276701092720032, -0.012040521018207073, -0.23571480810642242, 0.10145801305770874, 0.053362809121608734, -0.23971232771873474, -0.06748110055923462, 0.17897166311740875, -0.10251065343618393, -0.2518264353275299, 0.29953041672706604, 0.06956405192613602, -0.33889126777648926, 0.013699828647077084, 0.07155453413724899, -0.1834474802017212, -0.43768298625946045, 0.13832256197929382, -0.09543885290622711, -0.41899532079696655, 0.12593479454517365, 0.038185231387615204, -0.30854102969169617, -0.22186847031116486, 0.24559500813484192, -0.05343889445066452, -0.19017626345157623, -0.061667874455451965, -0.12454268336296082, -0.36388784646987915, -0.15129734575748444, 0.2531343698501587, 0.05372083559632301, -0.2114352583885193, -0.1225794106721878, -0.21770113706588745, -0.2811802327632904, -0.03225133940577507, 0.20679160952568054, 0.08371531963348389, -0.29984933137893677, -0.05440216138958931, -0.24467463791370392, -0.20564232766628265, -0.025081099942326546, 0.2041568160057068, 0.030053088441491127, -0.23371873795986176, -0.04939877241849899, -0.1998559832572937, -0.1310337483882904, 0.13931819796562195, 0.10002148896455765, -0.1313277781009674, -0.4358903765678406, -0.17010709643363953, -0.06505414098501205, 0.1324431598186493, 0.07029270380735397, 0.08253605663776398, -0.15654915571212769, -0.2357131689786911, -0.05467693880200386, -0.2935608923435211, 0.03771236911416054, -0.03787782043218613, 0.04132656753063202, -0.06603549420833588, -0.5492156147956848, -0.06916036456823349, -0.007884962484240532, 0.3355606198310852, 0.2560173273086548, -0.2296936810016632, 0.06050267070531845, -0.10895928740501404, 0.0017353832954540849, 0.0708983764052391, 0.20263700187206268, 0.16504070162773132, -0.26514825224876404, 0.08746787160634995, -0.13096383213996887, 0.09180144965648651, -0.21094545722007751, 0.083592988550663, 0.045313429087400436, -0.3159363567829132, -0.0002421017998130992, -0.21385596692562103, -0.045109279453754425, -0.13495796918869019, 0.20946817100048065, 0.23378467559814453, -0.21889694035053253, -0.05761312320828438, -0.2155555784702301, 0.1040463075041771, -0.11458615213632584, 0.05716141313314438, 0.26399925351142883, -0.08573494106531143, 0.00017581589054316282, -0.12174401432275772, -0.03165826201438904, -0.10895048826932907, -0.02779141068458557, 0.058466773480176926, -0.23162908852100372, 0.035207349807024, 0.10482683032751083, 0.08851542323827744, -0.028476262465119362, -0.12964613735675812, 0.002854457823559642, -0.034239668399095535, -0.12952381372451782, -0.11276639252901077, 0.22093985974788666, -0.0581156350672245, -0.0492924302816391, 0.06047984957695007, -0.2691100835800171, -0.15665893256664276, -0.18983182311058044, 0.0014440977247431874, 0.010137406177818775, -0.053349897265434265, -0.06715031713247299, -0.32955625653266907, 0.09803000837564468, -0.04669133201241493, -0.10329987108707428, 0.02561631053686142, 0.10455464571714401, 0.009428846649825573, -0.06874064356088638, 0.09027538448572159, -0.16263876855373383, 0.005863985978066921, 0.17282436788082123, -0.0038683207239955664, -0.12699490785598755, -0.2371857613325119, 0.1523560881614685, -0.020732322707772255, 0.05878368392586708, -0.041208479553461075, 0.22567878663539886, -0.1343759149312973, -0.169681578874588, 0.15681235492229462, -0.06918320804834366, 0.1682245284318924, -0.03541310131549835, -0.0959601178765297, -0.07938297092914581, -0.09260468184947968, -0.04540396109223366, -0.19482001662254333, 0.13312050700187683, -0.0859818235039711, -0.03398233279585838, -0.10656832903623581, 0.3195386826992035, 0.005014629103243351, -0.16110339760780334, 0.039589907974004745, -0.041648417711257935, -0.005786853842437267, 0.04392390698194504, 0.2240709513425827, 0.012528648599982262, -0.12012866884469986, -0.11168279498815536, 0.20698684453964233, -0.14358340203762054, 0.38978010416030884, 0.2974424958229065, -0.5380288362503052, -0.914838433265686], [-0.18915016949176788, -0.10219059884548187, 0.07354646176099777, 0.02832574024796486, -0.1281837671995163, -0.07643639296293259, 0.05963137000799179, -0.14894472062587738, -0.12359877675771713, -0.021881600841879845, -0.004895247519016266, -0.02018905058503151, -0.1019226461648941, 0.38394278287887573, -0.2800469696521759, 0.09555799514055252, 0.3324201703071594, -0.017490606755018234, -0.03543770685791969, -0.22072361409664154, 0.3287253677845001, -0.15912747383117676, -0.05028045177459717, 0.5108411908149719, -0.03964352235198021, 0.0023106674198061228, -0.22237196564674377, 0.2793097198009491, -0.25535598397254944, -0.11645939201116562, 0.4120640754699707, 0.10312582552433014, -0.07957211881875992, 0.11967809498310089, 0.11732646077871323, 0.2316828817129135, -0.07187981903553009, 0.30655163526535034, 0.003385254880413413, -0.13660141825675964, -0.1688014268875122, 0.10345903038978577, 0.0967748612165451, -0.06632096320390701, 0.3686204254627228, -0.006958015263080597, 0.11660367250442505, -0.012449418194591999, 0.007219009101390839, 0.09042029827833176, -0.10603384673595428, 0.47708144783973694, 0.06865082681179047, 0.038151815533638, -0.032761212438344955, -0.16462387144565582, 0.2897549867630005, -0.046909037977457047, 0.3635163903236389, 0.06610549241304398, 0.13430942595005035, -0.16142094135284424, -0.03788680583238602, 0.08719833195209503, -0.2229214459657669, 0.2849653661251068, -0.08276558667421341, 0.02557305246591568, 0.040045365691185, -0.0742858424782753, 0.2993599772453308, -0.15185335278511047, 0.35793372988700867, 0.07209935784339905, 0.024421095848083496, -0.07802639901638031, 0.09784473478794098, 0.04624689742922783, -0.2080230414867401, 0.14494824409484863, 0.0736277848482132, 0.06314053386449814, -0.11514773219823837, 0.1188695952296257, 0.1434427797794342, -0.12712521851062775, 0.23369890451431274, -0.025585560128092766, 0.01701822131872177, -0.12065576761960983, 0.03669257089495659, 0.06118851155042648, -0.060091692954301834, 0.09633269906044006, -0.041745901107788086, 0.10069875419139862, 0.09307295083999634, -0.0234043151140213, 0.010534107685089111, -0.01360063161700964, 0.1276959776878357, 0.005690598860383034, 0.03765001520514488, -0.023471472784876823, 0.0029109616298228502, -0.06835222244262695, -0.21240316331386566, -0.14092405140399933, 0.0370979942381382, -0.06353620439767838, -0.04416504129767418, -0.04921504110097885, -0.01170054730027914, 0.05335358902812004, -0.22594588994979858, 0.09490296244621277, 0.06694624572992325, -0.0315190888941288, 0.011820481158792973, 0.07639425247907639, 0.051766734570264816, -0.24174101650714874, -0.09986358135938644, 0.03515269607305527, -0.04998860880732536, 0.09988842159509659, 0.08731966465711594, 0.1276700347661972, -0.3479278087615967, 0.1115085706114769, 0.11182539165019989, 0.04242993891239166, 0.0563964918255806, 0.1414504051208496, 0.09255050122737885, -0.7552525401115417, -0.05743371322751045, 0.029254775494337082, 0.12148537486791611, 0.1868939995765686, 0.24105170369148254, 0.1170162558555603, -0.5667335987091064, -0.08733256161212921, 0.10006875544786453, 0.06991906464099884, 0.18092086911201477, 0.21540984511375427, 0.10231457650661469, -0.5359926223754883, -0.07331470400094986, 0.17649908363819122, 0.09693894535303116, 0.2289886325597763, 0.19133320450782776, 0.2865597605705261, -0.37819886207580566, -0.06442153453826904, 0.03856990858912468, 0.06802020221948624, 0.2605076730251312, 0.19060729444026947, 0.278695672750473, -0.30505505204200745, 0.17352250218391418, -0.025067908689379692, 0.04096762835979462, 0.1863434612751007, 0.051535844802856445, 0.2865961790084839, -0.37078338861465454, 0.07098957151174545, 0.07655325531959534, 0.06465926766395569, 0.0767865926027298, 0.12354399263858795, 0.28303417563438416, -0.21084751188755035, -0.05391520634293556, 0.04346228390932083, 0.12081003934144974, 0.16889628767967224, 0.09362829476594925, 0.14852741360664368, -0.3456015884876251, 0.0605519637465477, 0.028202027082443237, 0.024214956909418106, 0.09378396719694138, 0.08067202568054199, 0.15288777649402618, -0.21877095103263855, -0.012231928296387196, -0.026483284309506416, -0.08793415874242783, 0.01908448152244091, -0.20441123843193054, 0.09807071089744568, -0.2642980217933655, 0.007894153706729412, -0.003074596170336008, 0.05618569999933243, 0.11632584035396576, -0.04141482710838318, 0.10306592285633087, -0.2401779741048813, 0.04373391717672348, -0.002528333105146885, 0.00218952470459044, 0.04880084469914436, -0.2318153828382492, 0.05614209920167923, -0.13300342857837677, 0.12325693666934967, 0.01841682195663452, 0.05250288546085358, -0.042358655482530594, -0.28711801767349243, 0.14085566997528076, -0.17729537189006805, -0.01401201169937849, -0.028297370299696922, 0.013720128685235977, -0.09186311066150665, -0.13501180708408356, -0.03366554528474808, -0.16047413647174835, -0.037408821284770966, -0.08589857071638107, 0.20828087627887726, -0.12908264994621277, -0.11173206567764282, 0.01599809154868126, -0.01064007356762886, -0.07265857607126236, 0.005437599960714579, 0.363604873418808, 0.0018626607488840818, -0.11066512018442154, -0.06708871573209763, -0.13810700178146362, 0.10150512307882309, -0.08331646770238876, 0.4419384002685547, 0.008787221275269985, -0.07702182233333588, 0.0326404795050621, 0.0357636958360672, -0.11968178302049637, -0.01614234410226345, 0.39655324816703796, 0.11954037100076675, -0.041669681668281555, -0.05983194336295128, -0.12529271841049194, 0.049319520592689514, 0.01052566897124052, 0.45119309425354004, 0.033380381762981415, -0.1082322746515274, -0.0996822938323021, -0.08441726863384247, 0.08680146932601929, -0.00010660188127076253, 0.3519500494003296, -0.016629643738269806, -0.033569686114788055, -0.0573081411421299, 0.1828387826681137, 0.004757919814437628, 0.04187769070267677, 0.31340914964675903, 0.026462597772479057, 0.020357050001621246, -0.013784279115498066, 0.10142802447080612, -0.1110849529504776, 0.05590316653251648, 0.19431103765964508, -0.09899818897247314, -0.0910632386803627, -0.004047716036438942, 0.4993891417980194, 0.0071242437697947025, 0.0028992220759391785, 0.0392351858317852, -0.21758012473583221, -0.09842380881309509, -0.056906577199697495, 0.4729647636413574, 0.019863538444042206, 0.01206648163497448, 0.1847517341375351, -0.06975161284208298, -0.0112747298553586, -0.12185361981391907, 0.4232198894023895, -0.08426429331302643, -0.06266607344150543, 0.16770784556865692, -0.08451932668685913, 0.004047556314617395, -0.2401333600282669, 0.5176068544387817, -0.00637812539935112, -0.018102405592799187, 0.18628950417041779, -0.03932473063468933, 0.04530404508113861, -0.2765071988105774, 0.464452862739563, 0.027896730229258537, -0.04164797440171242, 0.4425100088119507, -0.1793350875377655, 0.2109060287475586, -0.3655031621456146, 0.340481162071228, -0.005614932160824537, 0.05615559220314026, 0.10371840745210648, -0.04141029343008995, -0.1642826497554779, -0.022883867844939232, 0.38360992074012756, -0.07234316319227219, -0.007092711981385946, 0.10919301956892014, -0.12019531428813934, -0.07842640578746796, -0.17545440793037415, 0.4593673050403595, -0.11132608354091644, -0.1633642613887787, -0.012190836481750011, -0.10798271745443344, -0.13386978209018707, 0.14886581897735596, 0.21571359038352966, -0.6420949101448059, -0.1826394647359848], [-0.32753297686576843, 0.12799181044101715, 0.07066260278224945, 0.08534801006317139, -0.007032231893390417, 0.17580945789813995, 0.00019177593640051782, -0.09412172436714172, 0.12141811847686768, 0.3822932243347168, 0.05821864679455757, -0.03496033325791359, -0.2557413876056671, -0.11448006331920624, 0.13987790048122406, -0.19277068972587585, 0.03138594701886177, 0.12903854250907898, -0.04018593579530716, 0.026442809030413628, -0.11618582159280777, 0.11799930781126022, -0.1765795648097992, -0.12108520418405533, 0.1367024928331375, 0.005084008909761906, 0.09144233167171478, 0.14604629576206207, 0.054062992334365845, -0.1259957104921341, 0.2818141281604767, 0.06165297329425812, 0.04960968345403671, 0.44584715366363525, -0.036779701709747314, -0.12211558222770691, -0.11626947671175003, 0.1667374223470688, -0.041632045060396194, 0.10955630242824554, 0.3807302713394165, -0.06614580005407333, -0.10532911121845245, -0.32644808292388916, 0.3904743194580078, -0.06548328697681427, 0.06353595107793808, 0.18966640532016754, -0.00022689785691909492, -0.07538578659296036, 0.012502921745181084, 0.3008018434047699, -0.02346479706466198, 0.05389304831624031, 0.023527752608060837, -0.017214590683579445, -0.3749103546142578, -0.1883276104927063, 0.20004186034202576, -0.024882201105356216, 0.22973482310771942, 0.2576148509979248, -0.05906161293387413, -0.26210278272628784, -0.1712944507598877, 0.12411860376596451, -0.0946199893951416, 0.550001859664917, -0.16656608879566193, 0.13882479071617126, -0.35917729139328003, -0.05995996668934822, 0.1320454478263855, -0.027156198397278786, 0.3070526123046875, 0.10756123065948486, 0.18212071061134338, -0.24429269134998322, -0.10348057001829147, -0.1890150010585785, -0.000755309360101819, 0.18655845522880554, 0.12096673250198364, -0.03362834081053734, -0.07596796005964279, 0.15238504111766815, -0.13339650630950928, 0.05027681216597557, 0.3281098008155823, 0.1884799748659134, -0.07884801924228668, -0.04830026626586914, 0.21093399822711945, -0.1687704175710678, 0.11709010601043701, 0.04981047287583351, 0.12778881192207336, -0.03880933299660683, 0.012533195316791534, 0.27641284465789795, -0.1055944487452507, -0.007647364865988493, -0.006186553742736578, 0.17032139003276825, -0.11350370943546295, 0.011097944341599941, 0.2716693580150604, -0.11897727102041245, -0.027183206751942635, -0.09276343882083893, -0.04690743610262871, -0.11349038034677505, 0.13572575151920319, 0.04331617057323456, 0.009767680428922176, 0.04527566581964493, 0.10447175055742264, -0.0494924895465374, -0.19669301807880402, 0.18665052950382233, 0.22772496938705444, -0.04338295757770538, -0.06655128300189972, 0.19353288412094116, -0.04167277738451958, -0.14608865976333618, -0.010779925622045994, 0.13074350357055664, -0.05366256460547447, -0.08307338505983353, 0.03619501739740372, 0.09003260731697083, -0.09984005242586136, 0.045708417892456055, 0.072466179728508, -0.04597378522157669, -0.09747911244630814, 0.05368896201252937, -0.017629291862249374, -0.04320192709565163, -0.06817802041769028, 0.04275142773985863, 0.12323684245347977, -0.0012433797819539905, 0.2595674395561218, -0.13231514394283295, 0.07440225034952164, -0.06339149922132492, -0.09532302618026733, -0.02709050662815571, -0.050605881959199905, 0.33554136753082275, 0.06685874611139297, 0.03113628923892975, -0.13072973489761353, 0.09676621109247208, 0.1846534013748169, -0.048669394105672836, 0.4363998472690582, -0.19911067187786102, 0.06374174356460571, -0.13095401227474213, 0.12819118797779083, -0.06151803582906723, 0.08628635853528976, 0.3432637155056, 0.07600502669811249, -0.030430953949689865, -0.14600874483585358, 0.1573648750782013, 0.04169413074851036, 0.053669918328523636, 0.3049668073654175, -0.19431808590888977, 0.04609197750687599, -0.1361120343208313, 0.03355050086975098, -0.09067981690168381, -0.00561728049069643, 0.3939529359340668, 0.07141473144292831, -0.02046872116625309, -0.18638435006141663, -0.03299655392765999, 0.0435483418405056, -0.09841921180486679, 0.08368279784917831, 0.07463566213846207, -0.07791056483983994, -0.2919533848762512, 0.06648898124694824, 0.09591860324144363, -0.017697378993034363, -0.05248229578137398, -0.09985294938087463, 0.0008086856687441468, -0.3932722210884094, 0.17188458144664764, 0.07539279758930206, -0.0038977970834821463, 0.16212409734725952, 0.05199388787150383, -0.07032269239425659, -0.23928073048591614, -0.048034340143203735, 0.12270954251289368, -0.05656886100769043, 0.2724725902080536, 0.11559706181287766, 0.04969160258769989, -0.15170232951641083, 0.08932816237211227, 0.018521560356020927, -0.07960522174835205, 0.13279950618743896, -0.022074736654758453, 0.02540074661374092, -0.06672937422990799, 0.18242083489894867, 0.14850614964962006, -0.09752179682254791, 0.1150871217250824, -0.01617397367954254, -0.14189143478870392, -0.14414410293102264, 0.03249824047088623, 0.31304702162742615, -0.06686633080244064, 0.08007878065109253, -0.12055572867393494, -0.05242202803492546, -0.3182026147842407, 0.07972829788923264, 0.20618152618408203, 0.13499614596366882, 0.08027931302785873, -0.02057744190096855, -0.05772887542843819, -0.31306132674217224, 0.009976588189601898, 0.12294663488864899, -0.0854724571108818, 0.1371447592973709, 0.21940676867961884, 0.03383560851216316, -0.29693111777305603, 0.0006735485512763262, 0.20869947969913483, -0.024996617808938026, 0.06823768466711044, -0.17986750602722168, 0.04935520142316818, -0.43415871262550354, -0.04244600236415863, 0.302552193403244, -0.03832685947418213, 0.08220858871936798, -0.07358130812644958, 0.07074657082557678, -0.3481489419937134, -0.10929568111896515, 0.37072277069091797, -0.04505737125873566, 0.05324796959757805, -0.020166249945759773, -0.05168953165411949, -0.10379680246114731, -0.11434942483901978, 0.23853908479213715, -0.022709593176841736, 0.14249607920646667, 0.029277652502059937, 0.04497465118765831, -0.011688941158354282, -0.2757071256637573, 0.2618776261806488, -0.0077186571434140205, 0.03831744194030762, 0.031686801463365555, 0.18787193298339844, -0.18265169858932495, -0.3956262171268463, 0.4651496410369873, -0.0714980736374855, 0.2691223919391632, -0.05757516995072365, 0.24742412567138672, -0.06090979650616646, -0.2761442959308624, 0.5289860367774963, -0.030658166855573654, -0.1768534928560257, 0.019062601029872894, 0.2066933810710907, -0.12269176542758942, -0.2990635335445404, 0.42120563983917236, 0.026323558762669563, -0.11073106527328491, -0.004789068829268217, 0.16692450642585754, 0.1640128642320633, -0.20206983387470245, 0.10840428620576859, 0.10341887921094894, -0.16911236941814423, 0.09725344926118851, 0.2441605031490326, -0.07789167761802673, -0.12221142649650574, -0.05604038015007973, -0.20318268239498138, -0.02985740266740322, 0.13021330535411835, 0.30683016777038574, -0.05332154035568237, -0.5012810826301575, 0.941765546798706, 0.0009014924289658666, -0.04636469855904579, 0.21844764053821564, 0.04304056242108345, -0.10103067755699158, -0.3254410922527313, -0.05413970351219177, 0.004071076866239309, 0.12307441234588623, 0.2542951703071594, 0.14771150052547455, -0.25078412890434265, 0.1273604929447174, 0.2741371989250183, -0.14064572751522064, 0.06653476506471634, -0.07910630106925964, -0.014746987260878086, 0.5573729276657104, -0.04667302966117859, 0.409430593252182, -0.06019246578216553, 0.15624985098838806], [0.08074628561735153, -0.037588104605674744, -0.3887319266796112, -0.024395296350121498, 0.04004080593585968, 0.14633937180042267, 0.0970601737499237, 0.15484128892421722, 0.05901523679494858, -0.12232696264982224, 0.04053729772567749, 0.03736889734864235, 0.20958828926086426, -0.08727243542671204, 0.03837395831942558, -0.016949722543358803, -0.1474079042673111, 0.025366520509123802, 0.05748213082551956, 0.05615062266588211, -0.2359767109155655, -0.05733998492360115, 0.14910368621349335, 0.017523083835840225, 0.09102515131235123, 0.12599362432956696, 0.024474726989865303, -0.6102475523948669, 0.12083227187395096, 0.27848291397094727, -0.070115827023983, -0.10748008638620377, 0.0942331999540329, 0.2738530933856964, -0.5507392287254333, -0.03307157754898071, 0.13229712843894958, 0.010091605596244335, -0.10194182395935059, 0.07123788446187973, 0.22931838035583496, -0.393842488527298, 0.10087313503026962, 0.1983693540096283, -0.05808531492948532, 0.020449522882699966, 0.032751161605119705, 0.07218877226114273, -0.2605435252189636, 0.04529397189617157, 0.29183587431907654, 0.004262222442775965, -0.010029541328549385, 0.11141659319400787, 0.16598856449127197, -0.3162604868412018, -0.08047668635845184, -0.004874604754149914, 0.12192294746637344, 0.014937978237867355, 0.11628224700689316, 0.20591026544570923, -0.1235876977443695, -0.019774775952100754, 0.024119727313518524, -0.0897512286901474, -0.022905487567186356, 0.19091704487800598, 0.03525735065340996, -0.09092636406421661, 0.10556133091449738, 0.07879846543073654, -0.11590705811977386, -0.006797836162149906, 0.13526639342308044, 0.16496656835079193, -0.04237779229879379, 0.07914254069328308, 0.0280862245708704, -0.15488234162330627, 0.1334201693534851, 0.07494444400072098, -0.06118730455636978, 0.06928974390029907, 0.04493048042058945, 0.11978648602962494, -0.0945650115609169, -0.04082689806818962, 0.032155316323041916, 0.17018260061740875, 0.010629579424858093, 0.07901827991008759, 0.10968200117349625, -0.11061657220125198, -0.04532519355416298, -0.0360909067094326, 0.09090821444988251, 0.10970711708068848, 0.14737625420093536, 0.22258664667606354, -0.12827320396900177, 0.06348741054534912, 0.07776401937007904, 0.02716272510588169, -0.15929284691810608, 0.0861068069934845, 0.19152326881885529, 0.0007910691201686859, -0.018119968473911285, 0.0006034994730725884, -0.006078277714550495, -0.11175860464572906, 0.21392856538295746, 0.14146609604358673, -0.03203628584742546, 0.12587721645832062, 0.002205783501267433, -0.06248585507273674, -0.06637848168611526, 0.13707292079925537, 0.18385188281536102, -0.02099418081343174, 0.172159805893898, -0.05927855148911476, 0.046379636973142624, -0.06486891210079193, 0.09791334718465805, 0.07264825701713562, -0.15684658288955688, -0.05862515792250633, 0.23542165756225586, 0.21409399807453156, -0.14267362654209137, 0.11345601081848145, -0.10529666393995285, -0.08256485313177109, -0.024404767900705338, 0.11208084225654602, 0.04082085192203522, -0.04439190775156021, 0.08514811098575592, -0.046776898205280304, -0.06021226570010185, -0.008561881259083748, -0.0022002020850777626, 0.030636586248874664, 0.07467048615217209, -0.025983866304159164, -0.04829809069633484, -0.03056616522371769, -0.010271027684211731, -0.10033880919218063, 0.16819941997528076, 0.029339447617530823, -0.02051219530403614, -0.062455058097839355, -0.04805126413702965, 0.02800983004271984, -0.03741390258073807, -0.19304455816745758, -0.12439347803592682, 0.17098310589790344, -0.04998873174190521, 0.10623566806316376, 0.056514956057071686, 0.11995350569486618, -0.09814431518316269, 0.08855501562356949, -0.008830126374959946, -0.058640219271183014, -0.10424546897411346, -0.07480519264936447, -0.11681734770536423, -0.06777192652225494, 0.08775653690099716, -0.06396238505840302, 0.0036145916674286127, 0.0634710043668747, 0.06839091330766678, 0.10409928113222122, -0.0782177671790123, 0.006251952610909939, 0.1275671124458313, -0.05580710247159004, -0.32132837176322937, 0.05247792601585388, 0.1326812505722046, -0.06427865475416183, 0.014068683609366417, 0.10892792046070099, 0.06400640308856964, -0.064797043800354, 0.055855050683021545, -0.008726416155695915, -0.09306979924440384, 0.16751715540885925, 0.007121419068425894, -0.060529448091983795, -0.1922626495361328, -0.024835938587784767, 0.0017521368572488427, -0.15510408580303192, 0.1654665321111679, 0.05702713876962662, -0.023756803944706917, -0.1253938376903534, 0.041040923446416855, -0.31363773345947266, -0.16063450276851654, 0.12753072381019592, -0.05474979802966118, 0.09236054867506027, -0.16885507106781006, -0.017686033621430397, -0.3060559630393982, -0.07611571997404099, 0.13019828498363495, 0.009878192096948624, 0.07618799060583115, 0.012659051455557346, -0.006296026054769754, -0.540568470954895, -0.20252054929733276, 0.10010388493537903, 0.03450152277946472, -0.07540407031774521, -0.006578267551958561, 0.1108042299747467, -0.3402438759803772, -0.1290091723203659, -0.006423165090382099, -0.07346242666244507, -0.09166304767131805, -0.025212466716766357, 0.05346149206161499, -0.2082151472568512, -0.25857970118522644, -0.0018961986061185598, 0.009712330996990204, 0.01955454982817173, 0.017817441374063492, 0.05169151350855827, -0.3025822937488556, -0.40836358070373535, 0.12603402137756348, -0.09102436155080795, -0.030592285096645355, -0.0618819035589695, -0.007948535494506359, -0.3159949481487274, -0.3605146110057831, 0.16805000603199005, -0.016828875988721848, -0.15762895345687866, -0.0262737013399601, -0.11690085381269455, -0.3034438192844391, -0.41554710268974304, 0.1691390872001648, 0.09999217838048935, -0.025518326088786125, -0.13990695774555206, 0.060942646116018295, -0.3199259042739868, -0.6242062449455261, 0.191091388463974, -0.04135621339082718, -0.08141215890645981, -0.177122101187706, -0.1355653703212738, -0.21575088798999786, -0.5964680910110474, 0.08527308702468872, 0.010384253226220608, -0.04075920581817627, -0.11429151147603989, 0.029350511729717255, -0.33625298738479614, -0.787636399269104, 0.22844593226909637, 0.1722419410943985, 0.09221905469894409, -0.18344242870807648, -0.10040463507175446, -0.2709997296333313, -0.45606255531311035, 0.33617615699768066, 0.16826073825359344, 0.016619691625237465, -0.09215898811817169, 0.04284151643514633, -0.1185254156589508, -0.5515652298927307, 0.2998676896095276, 0.1877574473619461, -0.03949684277176857, -0.27571359276771545, 0.021392742171883583, 0.07644201815128326, -0.428810179233551, 0.12606431543827057, 0.036846667528152466, 0.1804138571023941, -0.16553637385368347, -0.10095161199569702, 0.025399163365364075, -0.303078830242157, 0.08386406302452087, 0.23515082895755768, -0.17769770324230194, -0.19500990211963654, -0.032958973199129105, 0.0005242469487711787, -0.3699861168861389, 0.26425275206565857, 0.24264441430568695, 0.0579652413725853, -0.19392196834087372, -0.040520623326301575, 0.0808880478143692, -0.25443607568740845, 0.4690938889980316, 0.27417510747909546, 0.06418951600790024, -0.2798662781715393, -0.04772628843784332, 0.07385250180959702, -0.16136838495731354, 0.34373995661735535, 0.28016167879104614, 0.004812723957002163, 0.2547904849052429, 0.12377573549747467, 0.06259989738464355, -0.23844470083713531, 0.17109142243862152, 0.05907726287841797, 0.33158689737319946, -0.3208301365375519, -0.20928481221199036, 0.4820166230201721], [0.42918556928634644, -0.019500643014907837, 0.14869552850723267, -0.10715664178133011, 0.05479566007852554, 0.13873010873794556, -0.017139490693807602, 0.40644001960754395, 0.10846304893493652, 0.11637980490922928, 0.13364556431770325, 0.1943415403366089, -0.08848953247070312, -0.02664567157626152, 0.37504875659942627, 0.12990517914295197, 0.05024681240320206, -0.10971095412969589, 0.07931423932313919, 0.01613849587738514, 0.11409497261047363, -0.0169097688049078, 0.11839978396892548, -0.04439665004611015, -0.07870960980653763, 0.07850667834281921, -0.13053472340106964, 0.10445322841405869, 0.06547991931438446, -0.037591058760881424, 0.06791543960571289, -0.08808541297912598, 0.09943272173404694, -0.08286290615797043, 0.15921689569950104, 0.176578551530838, -0.15649515390396118, -0.009189611300826073, -0.0010353303514420986, -0.02550561912357807, -0.09107933938503265, 0.08198266476392746, 0.16329772770404816, -0.08185038715600967, 0.1426468789577484, -0.1367052048444748, 0.06229753792285919, -0.06334135681390762, -0.02684696763753891, 0.01699651964008808, -0.20389975607395172, 0.18878833949565887, -0.057338226586580276, -0.07813810557126999, -0.05326063185930252, 0.16143061220645905, 0.08838696032762527, -0.3697099983692169, 0.126974955201149, -0.009312999434769154, -0.10705852508544922, -0.08574122935533524, 0.20463716983795166, 0.017192771658301353, -0.25002506375312805, 0.36934351921081543, -0.05812497064471245, -0.09435687959194183, 0.07968363910913467, 0.06130867078900337, -0.07675150781869888, -0.48390087485313416, 0.405844122171402, -0.09372811764478683, -0.24706093966960907, 0.33085113763809204, 0.09856752306222916, -0.13539238274097443, -0.4438343942165375, 0.42066311836242676, -0.042849406599998474, -0.04960983246564865, 0.297509104013443, -0.042611125856637955, 0.06460515409708023, -0.34069734811782837, 0.456583708524704, -0.0710792988538742, 0.07247578352689743, 0.0720018595457077, -0.09351278841495514, 0.03182072192430496, -0.17672307789325714, 0.21962286531925201, -0.05266072601079941, -0.11832395941019058, 0.12130895256996155, -0.07233310490846634, -0.015230050310492516, -0.16244125366210938, 0.2043759524822235, 0.1815701425075531, -0.14339026808738708, 0.1088925376534462, -0.012127584777772427, 0.09125390648841858, -0.13868549466133118, 0.19510327279567719, -0.04809761419892311, -0.2927916944026947, 0.07704918086528778, 0.03147915005683899, 0.053872618824243546, -0.28303995728492737, 0.1434989869594574, 0.04278464987874031, -0.08789171278476715, 0.030502615496516228, 0.03654695302248001, 0.10162653774023056, -0.24802806973457336, 0.2906945049762726, -0.08063725382089615, 0.03278370946645737, 0.046006716787815094, -0.1774885207414627, -0.008343396708369255, -0.07125547528266907, 0.30793920159339905, -0.08149309456348419, 0.061366692185401917, -0.05522602051496506, -0.023889517411589622, 0.02267587184906006, -0.19033187627792358, 0.3246433138847351, 0.023698844015598297, -0.17245550453662872, -0.05035199224948883, -0.09600552916526794, 0.04974300041794777, -0.1050877496600151, 0.21656659245491028, 0.014340369030833244, 0.018609341233968735, 0.05667682737112045, -0.13098345696926117, 0.05168921500444412, -0.22067460417747498, 0.3913203179836273, -0.01957758329808712, 0.09591598063707352, -0.10932054370641708, -0.17147263884544373, 0.09643292427062988, -0.055655427277088165, 0.35263970494270325, 0.00605013919994235, 0.12718278169631958, 0.16033953428268433, -0.0990505963563919, 0.07442314177751541, -0.12548476457595825, 0.3094066381454468, 0.03252868354320526, 0.11006279289722443, -0.06484774500131607, -0.22259776294231415, -0.05257255211472511, -0.11183169484138489, 0.2679813504219055, 0.0626070573925972, -0.24346844851970673, -0.013684837147593498, -0.12388770282268524, 0.026093464344739914, -0.0769231766462326, 0.4673807621002197, 0.026432564482092857, 0.03702149540185928, 0.14013025164604187, -0.23659388720989227, 0.10242056846618652, 0.009398524649441242, 0.29431959986686707, -0.04294874519109726, -0.13339763879776, 0.14368346333503723, -0.15064065158367157, 0.11733099818229675, -0.020032351836562157, 0.49655449390411377, -0.0542629137635231, -0.04095984622836113, 0.19460506737232208, -0.21779905259609222, -0.017504941672086716, 0.05484182387590408, 0.3254666030406952, -0.13394978642463684, -0.08526889979839325, 0.12322142720222473, -0.1887493133544922, 0.0679478719830513, -0.023999113589525223, 0.2625163793563843, -0.1492381989955902, -0.08172063529491425, 0.1684461385011673, -0.280864953994751, 0.0281671229749918, -0.1438312530517578, 0.2661459147930145, 0.03306934982538223, 0.04246572405099869, 0.0754387378692627, -0.2171439528465271, 0.057001810520887375, -0.003069838508963585, 0.1447097510099411, 0.07364657521247864, -0.01473725400865078, 0.008610744960606098, -0.05413293093442917, -0.00974526721984148, 0.0561169870197773, 0.2964285910129547, -0.000556168844923377, -0.03605320304632187, -0.16955964267253876, -0.030892042443156242, 0.10872798413038254, 0.025912441313266754, 0.006095736287534237, 0.010140696540474892, -0.043490730226039886, -0.23180310428142548, -0.03528519719839096, -0.017686333507299423, -0.02736372873187065, 0.05259701982140541, -0.11421236395835876, 0.1362190991640091, -0.24765226244926453, -0.10581407696008682, -0.008715169504284859, 0.19490380585193634, -0.13425207138061523, -0.004584458656609058, -0.06557650119066238, -0.23391996324062347, 0.09137056767940521, 0.23280495405197144, 0.1426217406988144, -0.48287445306777954, -0.05800517275929451, -0.14193403720855713, -0.13770470023155212, -0.033978886902332306, 0.09982670843601227, 0.09845839440822601, -0.16835124790668488, -0.004370563663542271, -0.055588264018297195, -0.15487532317638397, 0.11160839349031448, 0.08362225443124771, 0.0798085629940033, 0.025885242968797684, 0.04809611290693283, -0.020753910765051842, -0.3040315508842468, 0.21861393749713898, 0.07628053426742554, 0.08277741074562073, 0.10915467143058777, -0.15544384717941284, -0.031749628484249115, -0.10304483026266098, 0.13532038033008575, 0.03836783394217491, -0.08382400870323181, 0.18394479155540466, -0.08635809272527695, -0.07072840631008148, 0.13029071688652039, 0.050328146666288376, -0.0029956239741295576, -0.0312616266310215, 0.1319388896226883, 0.060409631580114365, 0.018132919445633888, 0.04744519665837288, 0.05151209980249405, 0.21177701652050018, -0.007416578009724617, -0.0007984440308064222, -0.04671098291873932, 0.09650201350450516, 0.11893289536237717, 0.049949780106544495, -0.02164497599005699, -0.13480764627456665, 0.10742805153131485, -0.050524234771728516, -0.07859038561582565, 0.13401885330677032, -0.005487342365086079, -0.03306128829717636, 0.058000821620225906, -0.01854405365884304, -0.026664938777685165, -0.012821300886571407, 0.21187558770179749, 0.07327152788639069, 0.052393388003110886, 0.1175035834312439, -0.006036674603819847, -0.013057021424174309, -0.04142346605658531, 0.23745879530906677, 0.06545525789260864, 0.21638420224189758, -0.04070884734392166, 0.1028560996055603, 0.11812499910593033, 0.05654378980398178, 0.05214887857437134, 0.03746143728494644, 0.43643856048583984, 0.028864454478025436, 0.19570980966091156, 0.044543348252773285, 0.11365432292222977, 0.04299343749880791, -0.004799509886652231, 0.4674570560455322, 0.3063085079193115, 1.0444679260253906, -0.15516948699951172, -0.0910102054476738], [0.08055989444255829, 0.003923885989934206, -0.023409686982631683, 0.0371127687394619, -0.07727784663438797, -0.06302396953105927, 0.1338128000497818, -0.11398248374462128, -0.08985532820224762, -0.1150425598025322, 0.09556414186954498, -0.023748628795146942, -0.169287770986557, 0.21131771802902222, -0.19508692622184753, -0.053707610815763474, -0.18561910092830658, 0.06524256616830826, 0.009461301378905773, 0.03900846466422081, 0.15695662796497345, 0.007862982340157032, -0.13959980010986328, 0.031853675842285156, -0.2382652759552002, 0.14791922271251678, -0.10231193155050278, 0.22896304726600647, 0.1962575614452362, -0.3681114614009857, 0.356771320104599, 0.05725677311420441, 0.1752503663301468, 0.005354186054319143, 0.16728799045085907, 0.13133478164672852, -0.2866961359977722, 0.28658348321914673, -0.015863852575421333, -0.08130324631929398, 0.0558154359459877, 0.21623173356056213, 0.1461576670408249, -0.2499808371067047, 0.24864867329597473, 0.07693330943584442, 0.17644843459129333, 0.13222849369049072, 0.1382291167974472, 0.2092323899269104, -0.1545221209526062, 0.098116435110569, -0.06347469985485077, 0.05331316962838173, 0.18646563589572906, 0.14591877162456512, 0.1801092028617859, -0.1870328038930893, 0.2500438392162323, -0.05365399643778801, 0.2224128544330597, 0.13902920484542847, -0.018183564767241478, 0.3584953546524048, -0.0012728876899927855, 0.3095681667327881, 0.05319337919354439, 0.17024770379066467, -0.17729870975017548, -0.13938115537166595, 0.25958406925201416, -0.2322131246328354, 0.31139102578163147, 0.03449101373553276, 0.2926347553730011, -0.012665705755352974, -0.27868205308914185, 0.2351069301366806, -0.026003029197454453, 0.19028320908546448, -0.007119062822312117, 0.21470040082931519, 0.0401492677628994, -0.2490963190793991, 0.16853800415992737, 0.006546281278133392, 0.2890874147415161, 0.005480271298438311, 0.09208404272794724, -0.009033828042447567, -0.27727189660072327, 0.047418490052223206, 0.07194919884204865, -0.0594433918595314, 0.12077543884515762, 0.40228942036628723, 0.16561071574687958, -0.12816981971263885, 0.07072045654058456, 0.1137220561504364, -0.13501834869384766, -0.07768435031175613, 0.1681848168373108, 0.14441485702991486, -0.20738454163074493, 0.041444744914770126, 0.16961826384067535, -0.1661553978919983, -0.041070133447647095, 0.04363706335425377, 0.09861720353364944, -0.1930740922689438, 0.03368028625845909, 0.046868156641721725, -0.07902760803699493, 0.033287592232227325, 0.22472940385341644, 0.23627302050590515, -0.024094490334391594, 0.1804744005203247, -0.049009039998054504, 0.02925609052181244, -0.014879687689244747, 0.0003963614290114492, 0.09267473220825195, -0.1315203309059143, 0.0544644258916378, 0.09350741654634476, -0.04696514084935188, 0.06477535516023636, 0.10431072860956192, -0.10641390830278397, -0.07736081629991531, 0.039723459631204605, -0.06047394499182701, 0.4139840006828308, -0.14934255182743073, 0.04080837219953537, -0.0035741906613111496, -0.16026455163955688, -0.1123538464307785, -0.11654403805732727, 0.14343416690826416, -0.022886129096150398, 0.08135375380516052, -0.2454962432384491, -0.10322435945272446, -0.041475068777799606, -0.14473268389701843, 0.16556094586849213, 0.013195527717471123, 0.058627188205718994, -0.22369186580181122, -0.22924722731113434, -0.1261037439107895, -0.039629966020584106, 0.12961965799331665, -0.018660051748156548, 0.011643345467746258, 0.041900385171175, -0.22919295728206635, -0.02683229185640812, -0.1548495888710022, 0.13978563249111176, 0.10900439321994781, -0.10631030797958374, 0.11141010373830795, -0.2141435295343399, -0.0682629644870758, -0.04651573672890663, 0.04468011111021042, 0.020606214180588722, 0.017564725130796432, -0.018058039247989655, -0.15903592109680176, -0.14941847324371338, -0.05175987258553505, -0.029922574758529663, 0.024194395169615746, 0.08460776507854462, 0.11207769811153412, -0.1926351934671402, -0.02120397239923477, 0.04385384917259216, -0.07917904853820801, 0.06390977650880814, 0.0038505292031913996, 0.06278472393751144, -0.001654797699302435, -0.10771473497152328, -0.11991328746080399, -0.06316377967596054, -0.060143258422613144, 0.22439418733119965, 0.07182621210813522, 0.23740048706531525, 0.1060280129313469, -0.16301341354846954, 0.09934338182210922, -0.025964558124542236, -0.08049817383289337, -0.022272570058703423, 0.160112664103508, -0.0735403522849083, -0.04697929322719574, 0.12259585410356522, -0.01397579163312912, 0.02358422428369522, -0.04258543998003006, -0.02576182782649994, 0.042431700974702835, -0.18029926717281342, 0.15955513715744019, 0.06166485324501991, 0.07566099613904953, 0.12739813327789307, -0.01731937564909458, -0.1417980045080185, -0.26877471804618835, 0.21146754920482635, -0.03481534495949745, 0.04102057218551636, 0.34333592653274536, 0.14324213564395905, -0.0032472622115164995, -0.22572354972362518, 0.21206676959991455, -0.07118218392133713, -0.06275737285614014, 0.319170743227005, 0.06083301827311516, -0.0065553938038647175, -0.31084516644477844, 0.328127384185791, -0.040078550577163696, -0.06814160943031311, 0.4459471106529236, 0.02103627286851406, 0.12885616719722748, -0.15045690536499023, 0.24279116094112396, -0.10627443343400955, 0.04077703505754471, 0.29478004574775696, -0.06283259391784668, 0.12771236896514893, -0.24166353046894073, 0.3214918076992035, -0.010363866575062275, 0.006057138554751873, 0.3261968195438385, -0.03411693871021271, 0.08605391532182693, -0.2804632782936096, 0.22617924213409424, -0.029989859089255333, -0.13793708384037018, 0.14528678357601166, 0.10109677165746689, 0.30435553193092346, -0.13627998530864716, 0.2331727147102356, -0.0231163389980793, -0.011682532727718353, 0.276955783367157, -0.10655661672353745, 0.007868919521570206, -0.13797232508659363, 0.07977768778800964, -0.025737926363945007, -0.13512815535068512, 0.06768389791250229, 0.020765090361237526, 0.14869987964630127, 0.10768541693687439, 0.17651958763599396, -0.07588143646717072, -0.14353446662425995, -0.103938028216362, 0.06461845338344574, 0.12666338682174683, -0.04948342218995094, -0.11129414290189743, -0.014340626075863838, 0.15271611511707306, -0.16700510680675507, 0.10274125635623932, 0.16926820576190948, 0.014876636676490307, -0.11653129011392593, -0.021291455253958702, 0.02604803256690502, -0.06486260145902634, -0.028822068125009537, 0.07642292231321335, -0.207459956407547, -0.20443539321422577, -0.06550580263137817, -0.05424703285098076, -0.0055013382807374, 0.08102618157863617, 0.27201229333877563, -0.15626485645771027, 0.06874178349971771, -0.007326758466660976, 0.06837032735347748, -0.015523198992013931, 0.10621515661478043, 0.059540752321481705, -0.1472008377313614, -0.4378121495246887, 0.1479383111000061, 0.08451329171657562, -0.035977620631456375, 0.3514332175254822, 0.002501892624422908, -0.10803407430648804, -0.5369309782981873, 0.01060508843511343, 0.08019715547561646, 0.04238014295697212, -0.021145639941096306, -0.056378986686468124, 0.054668720811605453, -0.17301607131958008, -0.1164533942937851, 0.0859360322356224, -0.09579235315322876, -0.22440002858638763, 0.1749442219734192, 0.12542122602462769, -0.23276083171367645, -0.04662632569670677, 0.049797240644693375, -0.13100634515285492, 0.202630877494812, 0.023156920447945595, 0.478376567363739, 0.5738399624824524, 0.5976630449295044, 0.1481231302022934], [0.3448514938354492, 0.16028113663196564, 0.0483320988714695, 0.04895196855068207, -0.05575302988290787, -0.1012754887342453, 0.13876985013484955, 0.34420010447502136, 0.18197329342365265, 0.02168549969792366, 0.05683976039290428, -0.04166620597243309, -0.4311058819293976, 0.2926664352416992, 0.17319995164871216, 0.2823164761066437, 0.35153961181640625, 0.07171106338500977, 0.07437360286712646, -0.5415374636650085, 0.22943241894245148, 0.048875048756599426, 0.10239030420780182, 0.217432901263237, -0.09317982941865921, -0.035702455788850784, -0.562067449092865, 0.2833135724067688, 0.00366592057980597, 0.10834997892379761, 0.15335409343242645, -0.03495442867279053, 0.016812697052955627, -0.41590702533721924, 0.26169830560684204, 0.033902134746313095, -0.2387164980173111, 0.12345948815345764, -0.06284534186124802, -0.11476892977952957, -0.15860885381698608, 0.09034153074026108, 0.2924104928970337, -0.14655978977680206, 0.2098434567451477, -0.02558440901339054, 0.002219374990090728, -0.1952665001153946, 0.06660541146993637, 0.23562046885490417, -0.148606538772583, 0.12809789180755615, -0.17804482579231262, 0.03940221667289734, -0.0027016804087907076, 0.0002722383360378444, 0.04216235503554344, -0.2067406326532364, 0.13274039328098297, -0.07210757583379745, -0.10188756138086319, 0.06038742884993553, -0.05641726776957512, 0.051730167120695114, -0.0023692569229751825, -0.13703475892543793, -0.04723432660102844, 0.02988291159272194, -0.014689475297927856, 0.09719585627317429, -0.12110449373722076, 0.1447446346282959, 0.028545141220092773, -0.015054295770823956, -0.004055139143019915, -0.20869122445583344, 0.05329136550426483, -0.2334994226694107, 0.2571701407432556, -0.06820115447044373, 0.024659285321831703, -0.07238593697547913, -0.06271287053823471, -0.151138037443161, -0.14855961501598358, 0.08601902425289154, -0.03734581544995308, -0.07851579785346985, 0.04147512838244438, -0.038902513682842255, 0.011879117228090763, -0.21713928878307343, 0.13059821724891663, -0.09202029556035995, 0.008184378035366535, -0.10128886997699738, -0.2071816325187683, -0.04398511350154877, -0.1382192224264145, 0.21854521334171295, -0.06914693117141724, 0.06408476829528809, 0.023171676322817802, -0.1150883361697197, 0.016410691663622856, -0.1958136260509491, 0.19277410209178925, -0.09504149109125137, -0.03454158455133438, 0.013391648419201374, 0.016753237694501877, -0.06212542951107025, -0.09677359461784363, 0.1395798772573471, -0.03788834810256958, -0.03145741671323776, -0.006947911344468594, -0.16695113480091095, -0.02686415985226631, -0.09997913241386414, 0.12661798298358917, -0.1815018653869629, 0.035536229610443115, -0.10971538722515106, -0.16273744404315948, -0.15990233421325684, -0.034041646867990494, 0.09261424839496613, 0.0050267367623746395, 0.07565685361623764, 0.052765168249607086, 0.03882059454917908, -0.0929483026266098, 0.07547751814126968, 0.14252088963985443, 0.12438633292913437, 0.03595449775457382, 0.11194423586130142, 0.1857786327600479, -0.1975027620792389, 0.05735853314399719, -0.11811356991529465, 0.0427803099155426, 0.051985155791044235, 0.042778417468070984, -0.028604580089449883, -0.2342771738767624, 0.020380036905407906, 0.18359346687793732, 0.1110864132642746, 0.09652361273765564, 0.19392985105514526, -0.07037482410669327, -0.2122902125120163, 0.03379308804869652, -0.05004117265343666, 0.14667947590351105, 0.16204088926315308, 0.17371641099452972, -0.05355994030833244, -0.05149656906723976, 0.020815081894397736, -0.09695777297019958, -0.010964262299239635, -0.0681479424238205, 0.014883935451507568, -0.020626164972782135, -0.27594611048698425, -0.03360260650515556, 0.007212688215076923, -0.0057975007221102715, 0.1485854834318161, 0.09934895485639572, 0.11586716026067734, -0.015160256065428257, 0.11176194995641708, -0.012813776731491089, -0.10593704879283905, 0.012157240882515907, 0.01375947892665863, 0.2400989830493927, -0.2562271058559418, 0.0995686799287796, -0.06334900110960007, -0.04837788641452789, -0.07211992144584656, 0.02997327782213688, 0.21145634353160858, -0.04692945256829262, 0.016454389318823814, -0.010585403069853783, -0.06131165474653244, -0.07704531401395798, 0.016233542934060097, 0.2543109953403473, -0.14504115283489227, 0.1228252425789833, 0.019430628046393394, -0.04406435787677765, -0.01573760062456131, -0.025944985449314117, 0.12187246978282928, -0.06881377100944519, -0.04076787084341049, -0.06690286844968796, 0.18895532190799713, 0.020053908228874207, -0.1789785921573639, 0.1180727630853653, -0.14541563391685486, 0.04268386960029602, 0.008594507351517677, 0.019226690754294395, -0.105341337621212, -0.031240098178386688, 0.22842659056186676, -0.11538124829530716, 0.034006379544734955, -0.08156879246234894, -0.03644943609833717, -0.1619575470685959, 0.0005569296190515161, 0.13764441013336182, 0.18276527523994446, 0.10922731459140778, -0.18473196029663086, 0.13125380873680115, -0.011783336289227009, 0.17490282654762268, 0.26674744486808777, 0.30205395817756653, -0.17826791107654572, -0.22633077204227448, -0.043102335184812546, -0.011826977133750916, 0.0922054722905159, 0.17118880152702332, -0.004883705172687769, -0.26522430777549744, -0.0957658588886261, 0.09404627978801727, -0.053062111139297485, -0.05211033672094345, 0.3720119893550873, 0.06391582638025284, -0.04495435953140259, -0.21267743408679962, 0.07017503678798676, -0.00865509919822216, 0.036940522491931915, 0.45651736855506897, 0.034613389521837234, -0.2371595948934555, -0.10594206303358078, 0.027903418987989426, 0.030525265261530876, -0.33604857325553894, 0.409932941198349, -0.10819610953330994, -0.45270755887031555, -0.13584056496620178, 0.18608546257019043, -0.046831924468278885, -0.20005737245082855, 0.35809728503227234, -0.020810654386878014, -0.20930135250091553, -0.3373052477836609, 0.19751191139221191, -0.06647323817014694, -0.17965923249721527, 0.39370089769363403, 0.2461361289024353, -0.15616020560264587, -0.2163282185792923, 0.02897823601961136, -0.011703774333000183, -0.13011585175991058, 0.4190506935119629, 0.061067789793014526, -0.030049290508031845, -0.2126753032207489, -0.1545145958662033, -0.030858388170599937, -0.15593190491199493, 0.5944008827209473, 0.1297280639410019, -0.14515255391597748, -0.1550731211900711, -0.2504843771457672, 0.12285050749778748, -0.07856819778680801, 0.3678387403488159, 0.2128930538892746, 0.007171178236603737, -0.07212729007005692, -0.18433676660060883, 0.03946896269917488, -0.09835481643676758, 0.31272149085998535, -9.26341162994504e-05, -0.1337605118751526, 0.06798409670591354, -0.12115973234176636, 0.08516053855419159, 0.04712444543838501, 0.3166700601577759, 0.2513629198074341, -0.1520450860261917, -0.01362865511327982, -0.29804283380508423, 0.007969248108565807, 0.04418523237109184, 0.2731705605983734, 0.11573198437690735, -0.08246981352567673, -0.18083064258098602, -0.08720158785581589, 0.15684857964515686, -0.12586909532546997, 0.3722909986972809, -0.21607258915901184, 0.15794019401073456, -0.04799157381057739, 0.06326271593570709, 0.06310340017080307, -0.15798194706439972, 0.23170967400074005, -0.47360169887542725, 0.12786324322223663, -0.10633695870637894, 0.25359275937080383, -0.04968995228409767, 0.07547461241483688, 0.021484196186065674, -0.015652809292078018, 0.09135933220386505, 0.24660943448543549, -0.08762184530496597, -0.034825388342142105, -0.14394117891788483], [-0.33898288011550903, -0.044331520795822144, 0.05351633578538895, 0.06120535358786583, -0.15516632795333862, -0.034677654504776, 0.022095423191785812, -0.3605148196220398, 0.12850086390972137, -0.023619897663593292, 0.043589022010564804, -0.10085781663656235, -0.09939654916524887, 0.033804040402173996, -0.32276344299316406, 0.19331197440624237, -0.11346999555826187, 0.04121038690209389, -0.06237014755606651, -0.10009375214576721, 0.18187250196933746, -0.2058781385421753, -0.033973224461078644, -0.21980716288089752, -0.024085957556962967, -0.017276721075177193, 0.32880541682243347, 0.023339683189988136, 0.21132881939411163, -0.05114671215415001, -0.11365077644586563, 0.012539969757199287, 0.15781646966934204, 0.3651566207408905, 0.13072630763053894, 0.08912031352519989, -0.08313339203596115, -0.04918349161744118, -0.03338618203997612, 0.0021780519746243954, 0.23777249455451965, -0.029942773282527924, 0.12202319502830505, -0.12315087765455246, 0.013459336943924427, 0.1207413524389267, -0.04307358339428902, 0.05046464130282402, -0.008069043979048729, 0.2059881091117859, -0.18390654027462006, -0.06266753375530243, -0.14965572953224182, 0.14420022070407867, 0.24183176457881927, 0.03790741786360741, 0.20425963401794434, -0.07929559051990509, 0.028629262000322342, -0.005221257451921701, 0.006356736645102501, 0.2828120291233063, 0.013765658251941204, 0.32586416602134705, -0.1652085781097412, 0.026690063998103142, 0.029554449021816254, 0.084506094455719, 0.19910243153572083, -0.0172109417617321, 0.2225906401872635, -0.009548027999699116, 0.1670341044664383, -0.06904802471399307, 0.08217605203390121, 0.14622847735881805, 0.005223989021033049, 0.07421056181192398, 0.0036132517270743847, 0.11589014530181885, 0.031562063843011856, 0.056007448583841324, 0.11239646375179291, -0.06430169194936752, 0.06468155980110168, 0.03325651213526726, 0.12073533236980438, 0.007782788947224617, 0.047498669475317, 0.06384259462356567, -0.05091198533773422, 0.1572420448064804, -0.012863591313362122, 0.1219421923160553, 0.09948264807462692, 0.07109153270721436, 0.08166548609733582, 0.059398144483566284, 0.10776729881763458, -0.0329868383705616, -0.021875696256756783, 0.017263447865843773, -0.020360950380563736, 0.12196578085422516, -0.09160012751817703, 0.011865651234984398, 0.01335322018712759, -0.07394573092460632, -0.06918501108884811, -0.005226088687777519, 0.11109866946935654, -0.11341344565153122, 0.014722469262778759, -0.0022927909158170223, 0.013549196533858776, 0.062488824129104614, -0.08200785517692566, 0.031271982938051224, -0.08110425621271133, 0.0804297924041748, 0.19871792197227478, -0.18238240480422974, 0.040543027222156525, 0.032388124614953995, -0.0028096081223338842, -0.049860306084156036, -0.003515537129715085, 0.3013790249824524, -0.09748698770999908, -0.1275588870048523, -0.017659028992056847, -0.30614256858825684, -0.01889183558523655, 0.011667423881590366, 0.33132123947143555, -0.20262493193149567, 0.06885571777820587, -0.017096951603889465, -0.27008676528930664, -0.21737495064735413, 0.14388738572597504, 0.40044334530830383, -0.20811161398887634, -0.010846883058547974, 0.06537099182605743, -0.20412400364875793, -0.32878029346466064, 0.1425287127494812, 0.39163315296173096, -0.056365933269262314, 0.16135120391845703, -0.05392972007393837, -0.17154736816883087, -0.183346688747406, -0.03065834939479828, 0.2054998129606247, -0.09798146039247513, 0.09099503606557846, 0.0249998327344656, -0.4549995958805084, -0.13329234719276428, 0.10101433843374252, 0.029821110889315605, -0.007574195507913828, -0.020092127844691277, -0.02382487617433071, -0.46925660967826843, -0.18195796012878418, 0.015555033460259438, -0.07120174169540405, -0.06808266043663025, -0.050908830016851425, -0.04500872641801834, -0.47847500443458557, -0.053856026381254196, 0.10570379346609116, 0.053391702473163605, 0.12103055417537689, -0.048691052943468094, 0.02143428847193718, -0.4257882237434387, -0.010554158128798008, 0.10941044986248016, -0.09618574380874634, 0.05471095070242882, -0.0284801684319973, -0.08114786446094513, -0.08494305610656738, -0.12240105122327805, 0.1554582118988037, -0.08397874981164932, 0.18758633732795715, 0.021771904081106186, -0.015207606367766857, -0.3010098934173584, -0.10188771039247513, 0.0954655259847641, -0.12646155059337616, 0.17519426345825195, -0.02060380019247532, -0.0813797116279602, -0.4573739469051361, -0.13087031245231628, 0.22323375940322876, -0.11015111953020096, 0.27188050746917725, -0.05015771463513374, 0.025620780885219574, -0.48771294951438904, -0.13646315038204193, 0.0979391410946846, -0.019901076331734657, -0.009240957908332348, -0.07833567261695862, -0.06493186950683594, -0.3026781380176544, -0.11047755926847458, -0.1368599683046341, -0.03832521662116051, -6.608273542951792e-05, -0.08233983814716339, 0.020780649036169052, -0.33556145429611206, -0.08532216399908066, 0.04129534587264061, -0.029141010716557503, 0.10608475655317307, 0.03867023438215256, -0.0437222383916378, -0.3020998239517212, -0.13227126002311707, 0.06432315707206726, 0.1267760992050171, -0.02543952502310276, -0.03343730792403221, 0.04864224046468735, -0.04202597215771675, 0.09347343444824219, 0.1727115958929062, 0.07816452533006668, 0.13379794359207153, -0.02285672351717949, 0.07529772818088531, -0.0553986094892025, -0.1411774605512619, -0.03388692066073418, 0.1065848246216774, -0.1470850259065628, -0.030520768836140633, -0.022764010354876518, -0.07691168785095215, -0.13939137756824493, 0.020362425595521927, -0.03805965185165405, -0.009606240317225456, -0.007159760221838951, 0.01845838688313961, 0.17587251961231232, -0.15794000029563904, 0.10932944715023041, 0.28900811076164246, -0.18849705159664154, 0.01597564108669758, -0.1317421942949295, 0.2774762809276581, -0.1660194844007492, -0.16859537363052368, -0.06463875621557236, -0.45203641057014465, 0.14867688715457916, -0.24326197803020477, 0.264116495847702, -0.09809357672929764, 0.11243069171905518, 0.07064377516508102, -0.48079657554626465, -0.09863893687725067, -0.04117240011692047, 0.18826675415039062, -0.09054936468601227, 0.09548170864582062, -0.09543842077255249, -0.30927175283432007, 0.16867081820964813, -0.021599678322672844, 0.17752428352832794, -0.12351828813552856, -0.11720722168684006, 0.0643925741314888, -0.26391738653182983, 0.046105511486530304, 0.05169590190052986, 0.3522360324859619, -0.025745078921318054, 0.0009220190695486963, -0.07543361186981201, -0.28715622425079346, -0.03931322693824768, 0.043913282454013824, 0.34764155745506287, -0.04225704073905945, 0.042400579899549484, 0.08581478148698807, -0.29254451394081116, 0.04544850066304207, -0.03302384167909622, 0.2850709855556488, -0.1555510014295578, -0.07749121636152267, -0.29864245653152466, -0.35097619891166687, -0.007862437516450882, 0.08004608005285263, 0.4450690448284149, -0.04363022744655609, -0.2826996445655823, -0.08876723051071167, -0.2906755208969116, -0.08244140446186066, -0.009631899185478687, 0.032523322850465775, 0.1941962093114853, -0.10418498516082764, 0.0016566469566896558, -0.23385246098041534, 0.007685094606131315, -0.06866080313920975, -0.004015765152871609, 0.08425768464803696, -0.20783957839012146, 0.04245910793542862, -0.09937317669391632, -0.04998984932899475, -0.07080316543579102, 0.03974851593375206, -0.10092957317829132, -0.2779635787010193, -0.04607934504747391, -0.028639154508709908, 0.035544056445360184, 0.0843210369348526], [-0.5294599533081055, -0.06672554463148117, 0.04425281286239624, -0.132051482796669, 0.008549373596906662, 0.10862846672534943, -0.4029698073863983, -0.373399943113327, -0.07616417109966278, 0.09877770394086838, 0.013003733940422535, 0.06389201432466507, -0.026237379759550095, -0.15669453144073486, -0.07596012204885483, -0.07168366014957428, -0.029263721778988838, -0.004346203990280628, 0.1298319548368454, 0.054180264472961426, -0.042380835860967636, 0.2603384554386139, 0.07013045251369476, 0.020804695785045624, -0.008985265158116817, 0.3050658702850342, 0.11235987395048141, -0.23088757693767548, 0.16615572571754456, 0.09576679021120071, -0.2738327383995056, 0.05589209869503975, 0.1576445996761322, 0.07374399155378342, -0.2477569282054901, 0.07686781138181686, 0.012780715711414814, -0.13020318746566772, 0.03825794905424118, 0.22455812990665436, 0.08958161622285843, -0.05253450572490692, 0.3673049807548523, -0.023818951100111008, -0.18529431521892548, 0.007131881546229124, 0.1666375994682312, 0.09220900386571884, 0.029405834153294563, 0.17598356306552887, -0.00564250722527504, -0.13411906361579895, 0.12809151411056519, 0.36033445596694946, 0.04514771327376366, 0.001066531054675579, 0.2501014173030853, 0.05115475878119469, -0.31035980582237244, -0.17127856612205505, 0.3514403998851776, -0.047727517783641815, -0.11390364170074463, 0.08546572923660278, 0.059837620705366135, -0.3843991160392761, -0.00672520836815238, 0.436503142118454, -0.06839711219072342, -0.04770724102854729, 0.1332031637430191, 0.020779503509402275, -0.45533061027526855, -0.07080916315317154, 0.37534716725349426, -0.0025412722025066614, 0.15231937170028687, 0.14246706664562225, 0.16389934718608856, -0.3375571668148041, -0.05281566455960274, 0.5509160757064819, -0.06392403692007065, -0.018397603183984756, -0.12933386862277985, 0.19045518338680267, -0.49522143602371216, 0.10963883250951767, 0.20776309072971344, -0.1528405249118805, 0.0825841948390007, 0.03414075821638107, 0.07376307249069214, -0.171042338013649, 0.07650325447320938, 0.2841377258300781, -0.186020627617836, -0.018031064420938492, 0.008903016336262226, -0.023036396130919456, -0.20690007507801056, -0.024274084717035294, 0.14989498257637024, -0.30685868859291077, 0.11065597087144852, -0.11657632142305374, 0.008380437269806862, -0.2885269820690155, -0.023259343579411507, 0.04233359917998314, -0.10867812484502792, 0.2336128205060959, -0.023606257513165474, -0.0592598058283329, -0.057443030178546906, 0.16511474549770355, 0.2549443244934082, -0.11361321061849594, 0.06711103022098541, -0.12987445294857025, 0.003137769177556038, 0.0642736628651619, 0.013004212640225887, 0.24302691221237183, -0.181195467710495, -0.07211092114448547, -0.28764215111732483, -0.1972143054008484, -0.08332158625125885, -0.10987606644630432, 0.1658957153558731, -0.11429990828037262, 0.21264350414276123, -0.22381456196308136, -0.12068229168653488, 0.17292124032974243, 0.10833609104156494, -0.24356023967266083, -0.040892183780670166, 0.16140151023864746, -0.23458975553512573, -0.06467501819133759, 0.1878983974456787, 0.13403113186359406, -0.1779516339302063, -0.09247437864542007, -0.0640692263841629, -0.08634356409311295, 0.0003352526109665632, 0.1164797767996788, -0.08475860208272934, -0.189952090382576, -0.0473691001534462, -0.07419488579034805, -0.16212336719036102, -0.055701613426208496, 0.18461330235004425, -0.014559773728251457, 0.11673807352781296, -0.25421997904777527, -0.06620403379201889, -0.13437138497829437, -0.06459248065948486, 0.11481845378875732, 0.047208599746227264, -0.08600130677223206, -0.17184902727603912, 0.09491462260484695, -0.027430841699242592, -0.15825770795345306, 0.19310711324214935, 0.05151735618710518, -0.14268875122070312, -0.2129216194152832, -0.07042554020881653, -0.1213189959526062, -0.016840239986777306, -0.028318749740719795, 0.04463774338364601, -0.06624048948287964, -0.24156703054904938, 0.26713091135025024, -0.06080636382102966, -0.17954927682876587, -0.07692986726760864, 0.07513672858476639, -0.028060320764780045, -0.1930505931377411, 0.14288252592086792, 0.01213271263986826, 0.03740775212645531, -0.07454712688922882, 0.031301457434892654, -0.04536541923880577, -0.19608339667320251, 0.16284266114234924, -0.0015088467625901103, 0.012412943877279758, -0.13996030390262604, -0.008932165801525116, 0.25892308354377747, -0.17098581790924072, 0.07061708718538284, -0.08147891610860825, -0.036417365074157715, 0.038963351398706436, -0.05220603942871094, 0.12990802526474, -0.03328612074255943, 0.02896883711218834, -0.1239941194653511, -0.06873375177383423, 0.047743458300828934, 0.10404331982135773, 0.09902139008045197, -0.28786608576774597, -0.11670026928186417, -0.11626233905553818, -0.05432628095149994, 0.20382638275623322, 0.05748196691274643, -0.05597827956080437, -0.19953356683254242, -0.008264404721558094, -0.06275792419910431, -0.04728708788752556, 0.06313569843769073, 0.030904939398169518, -0.16941294074058533, -0.10794048011302948, -0.1351257711648941, -0.18624888360500336, -0.010554936714470387, 0.0017479241359978914, -0.07150859385728836, -0.027512865141034126, -0.11056946963071823, 0.08509086072444916, -0.003704496892169118, 0.14244061708450317, -0.0739930123090744, 0.031065819784998894, -0.058357998728752136, -0.14882904291152954, -0.08929718285799026, 0.06536438316106796, -0.02008066698908806, -0.064741350710392, 0.15431299805641174, -0.10233747959136963, -0.2869035601615906, -0.0030677171889692545, 0.04582652449607849, -0.03548760712146759, 0.06283845752477646, 0.07252504676580429, -0.16197983920574188, -0.23083923757076263, -0.12379121780395508, 0.2712536156177521, 0.19064894318580627, -0.3061966896057129, 0.07612371444702148, -0.10265974700450897, -0.13257093727588654, -0.10086505115032196, 0.08368273079395294, 0.14419715106487274, -0.27997586131095886, -0.0258848387748003, -0.011822231113910675, -0.09044519811868668, 0.03725266084074974, 0.0788421779870987, 0.10815855860710144, -0.09594942629337311, -0.10616300255060196, -0.006202140357345343, 0.0716986209154129, -0.11403302848339081, 0.20670542120933533, 0.00028662587283179164, -0.15350550413131714, 0.1131427213549614, 0.03816543519496918, 0.10050256550312042, 0.10665227472782135, 0.03796183317899704, -0.028920451179146767, -0.08047983050346375, -0.14196009933948517, 0.034311942756175995, -0.01775323413312435, -0.13465504348278046, 0.028203032910823822, 0.07445020973682404, -0.25662779808044434, -0.11778654903173447, -0.08279652148485184, 0.083369679749012, -0.0010589653393253684, 0.06610134243965149, -0.001999728614464402, -0.12616358697414398, 0.05808774381875992, 0.06909560412168503, -0.016223516315221786, -0.11275353282690048, 0.1617909073829651, 0.08710747957229614, -0.1465001106262207, -0.020306287333369255, -0.06289060413837433, 0.1453162282705307, -0.008326461538672447, -0.05367041006684303, -0.20794269442558289, -0.07067577540874481, -0.0005785088869743049, -0.08128249645233154, 0.27482208609580994, -0.0418960303068161, -0.3332826495170593, 0.008503059856593609, -0.062698133289814, -0.011409332044422626, 0.035709697753190994, 0.20449967682361603, -0.12803630530834198, -0.5414819121360779, -0.11215358972549438, 0.08013330399990082, -0.0615692213177681, -0.03538297489285469, -0.06598936021327972, -0.3744692802429199, -0.08386081457138062, 0.0027186491061002016, -0.1909988671541214, -0.28914788365364075, 1.0296630859375], [0.08640893548727036, -0.15705031156539917, -0.06263025104999542, 0.014309829100966454, -0.01140204444527626, 0.15496574342250824, -0.2807905972003937, -0.006226995028555393, 0.006850245874375105, -0.2192080169916153, -0.041018128395080566, 0.05666781961917877, 0.061321865767240524, 0.11294443160295486, -0.05409807339310646, 0.08378186821937561, -0.40233907103538513, 0.12563660740852356, -0.020212296396493912, -0.08746515214443207, 0.06315066665410995, 0.09066812694072723, 0.18470817804336548, -0.6715856194496155, -0.018510963767766953, 0.026484135538339615, -0.08462977409362793, -0.03414754942059517, 0.051275648176670074, 0.1693541258573532, -0.5618683695793152, -0.0024668301921337843, 0.019970078021287918, -0.20576059818267822, 0.14565883576869965, 0.054298024624586105, 0.08270931243896484, -0.4095984697341919, 0.08550211787223816, 0.0993206724524498, -0.24936731159687042, 0.1179521381855011, 0.13840094208717346, 0.07500907778739929, -0.3847065269947052, -0.06109102442860603, 0.14696814119815826, -0.3501662313938141, 0.029503263533115387, 0.178298681974411, 0.1089041531085968, -0.2477758228778839, -0.00487500848248601, 0.023803293704986572, -0.24556270241737366, 0.08246263861656189, 0.011593041941523552, -0.030025919899344444, -0.15471377968788147, 0.054563023149967194, -0.062429193407297134, -0.4863514304161072, 0.01427003275603056, -0.03805563971400261, 0.02665058523416519, -0.09048335254192352, 0.06645405292510986, 0.08823315054178238, -0.7283200621604919, 0.04372818022966385, -0.22780431807041168, 0.005908137187361717, -0.11371634900569916, -0.13768748939037323, 0.04528595507144928, -0.5864809155464172, 0.04095205292105675, 0.005470157600939274, -0.15346118807792664, 0.08609312772750854, 0.008336341939866543, -0.03773987293243408, -0.5494861006736755, -0.0028251614421606064, -0.11669600009918213, -0.04833076149225235, 0.20550811290740967, -0.043372951447963715, 0.053306836634874344, -0.5075432062149048, 0.0858679860830307, -0.010744732804596424, -0.01402059942483902, 0.11131589859724045, 0.05992690101265907, 0.0012721895473077893, -0.44531846046447754, -0.045244526118040085, 0.03022979386150837, -0.02585981972515583, 0.18554210662841797, -0.024275097995996475, -0.08462712168693542, -0.6253219246864319, -0.07205494493246078, 0.03776854649186134, -0.06647400557994843, 0.10944637656211853, 0.04897279292345047, 0.09849398583173752, -0.7626020908355713, -0.14512743055820465, 0.1254854053258896, -0.028948849067091942, 0.2930457293987274, -0.042447786778211594, -0.0842030793428421, -0.5546929240226746, -0.11753283441066742, -0.0097087686881423, -0.21250836551189423, 0.3278847336769104, -0.05622945725917816, -0.022980008274316788, -0.5426977872848511, -0.05683371052145958, -0.03610215336084366, -0.10443581640720367, 0.21683751046657562, 0.06490395218133926, 0.057237427681684494, -0.5044805407524109, -0.17432363331317902, -0.028115982189774513, -0.18549712002277374, 0.2993021011352539, 0.08082278072834015, 0.009269868955016136, -0.3664189279079437, -0.18011896312236786, -0.03613719716668129, 0.0788663998246193, 0.37677502632141113, -0.0712660551071167, 0.015263798646628857, -0.5152669548988342, -0.1316632181406021, 0.004048444796353579, -0.17495585978031158, 0.2654593884944916, -0.10004714131355286, 0.09429169446229935, -0.4629763662815094, -0.12835939228534698, -0.02823566645383835, -0.14756202697753906, 0.1845039427280426, 0.028021471574902534, -0.06819326430559158, -0.294801265001297, -0.3531540632247925, 0.002536553656682372, -0.009965602308511734, 0.30713438987731934, 0.04040323570370674, -0.11911775916814804, -0.5479220747947693, -0.16580438613891602, -0.004237054847180843, -0.10099583119153976, 0.2442999631166458, 0.058794014155864716, -0.04250231385231018, -0.504585862159729, -0.08673839271068573, -0.028015097603201866, -0.1512344479560852, 0.4554414451122284, 0.05990703031420708, 0.0996696949005127, -0.5153103470802307, -0.08384279161691666, 0.04294035956263542, -0.11924034357070923, 0.2792085111141205, 0.021397557109594345, -0.10947579145431519, -0.4147529900074005, -0.19791607558727264, -0.015407096594572067, -0.0627027228474617, 0.2833615243434906, -0.09968757629394531, -0.17793340981006622, -0.27001044154167175, -0.14166457951068878, 0.13575610518455505, -0.054626449942588806, 0.3668249249458313, -0.14809276163578033, -0.04511810839176178, -0.4918707013130188, 0.037724122405052185, 0.0032026409171521664, -0.1193331629037857, 0.1370924711227417, 0.03787476569414139, 0.08069875836372375, -0.15524078905582428, -0.1511617749929428, -0.0024458959233015776, -0.09186463057994843, 0.09969949722290039, -0.03321355581283569, 0.11666298657655716, -0.27556172013282776, 0.024272803217172623, -0.12331050634384155, 0.02406928688287735, -0.10660219192504883, 0.11139614135026932, 0.010570316575467587, -0.25141817331314087, -0.03221376612782478, -0.00016075052553787827, -0.015484445728361607, -0.08173563331365585, -0.16932694613933563, -0.23883187770843506, -0.2257264107465744, 0.13262367248535156, -0.10958455502986908, -0.0012692935997620225, -0.09600535035133362, -0.04718584194779396, -0.18934403359889984, -0.16009218990802765, 0.054563529789447784, -0.1341801881790161, 0.07143385708332062, -0.018373414874076843, 0.13936494290828705, -0.40487197041511536, -0.18913288414478302, 0.16592536866664886, -0.12479782104492188, 0.14476516842842102, -0.17641951143741608, -0.09583338350057602, -0.5280995965003967, -0.47207415103912354, 0.16558393836021423, -0.07398559898138046, 0.1145937368273735, -0.16188456118106842, -0.05282916501164436, -0.3605767786502838, -0.4178965091705322, 0.24699564278125763, -0.1112746000289917, 0.21843956410884857, -0.2897337079048157, 0.01499740220606327, -0.18538156151771545, -0.21313966810703278, 0.13213206827640533, 0.00882077869027853, 0.12821173667907715, -0.34938913583755493, -0.056104108691215515, -0.008435537107288837, -0.2130330204963684, -0.03341095522046089, 0.05177804082632065, 0.04928462952375412, -0.5466740131378174, -0.07293474674224854, -0.05292854458093643, -0.13347071409225464, -0.0803963840007782, -0.013103147968649864, 0.21927447617053986, -0.4895879924297333, 0.018106680363416672, -0.02728588506579399, 0.07700661569833755, -0.0352143831551075, 0.11100851744413376, 0.2106504887342453, -0.6258621215820312, -0.15628769993782043, 0.08970248699188232, 0.008766953833401203, -0.1132233515381813, 0.10191766172647476, 0.23934240639209747, -0.4700304865837097, -0.09936585277318954, 0.07847443222999573, 0.19815915822982788, -0.34460827708244324, -0.02583429031074047, 0.08688084781169891, -0.6144639253616333, 0.017133234068751335, 0.0038011835422366858, 0.1968899518251419, -0.45654889941215515, 0.13348063826560974, 0.15812265872955322, -0.4691341817378998, 0.04553333297371864, 0.11801034957170486, 0.36715957522392273, -0.11601778119802475, 0.08248747885227203, -0.03938029333949089, -0.3507854640483856, -0.03675093874335289, -0.10401782393455505, 0.22209028899669647, -0.08344709128141403, 0.05562137812376022, -0.22045613825321198, -0.37407079339027405, -0.0436776764690876, -0.034630823880434036, 0.307760089635849, -0.5560129880905151, 0.15834017097949982, -0.3513660728931427, -0.3088785707950592, 0.0005272062844596803, 0.05090099200606346, 0.3456990420818329, -0.4589247703552246, 0.06437873840332031, 0.06301526725292206, -0.6796714067459106, 0.5364285111427307, 0.3383033275604248], [-0.28686076402664185, -0.05456900969147682, 0.16508260369300842, 0.005706602241843939, -0.14234429597854614, -0.01910770684480667, 0.4067249000072479, -0.2801770567893982, -0.041470881551504135, 0.3564956784248352, 0.10984671115875244, -0.11343488842248917, -0.043240007013082504, 0.35158634185791016, -0.22023412585258484, 0.10428635776042938, -0.06414113938808441, -0.0020995899103581905, -0.08085048198699951, -0.06517830491065979, 0.3882984220981598, -0.357298344373703, 0.051499560475349426, -0.3052293062210083, 0.09892259538173676, -0.08678415417671204, -0.10263979434967041, 0.4509977102279663, -0.21699993312358856, -0.09346204251050949, -0.2781837582588196, 0.009248294867575169, -0.07119089365005493, -0.20072409510612488, 0.17636314034461975, 0.006413951050490141, -0.08485762774944305, -0.35135552287101746, -0.043180469423532486, -0.012506875209510326, -0.12422376126050949, 0.04436952620744705, -0.0593990795314312, -0.1722327023744583, -0.12205958366394043, 0.10880033671855927, -0.06871595978736877, 0.2505505383014679, -0.01029228325933218, -0.08080577850341797, -0.067624032497406, -0.11773238331079483, 0.16016435623168945, -0.05032726004719734, 0.4151740074157715, 0.04189498350024223, 0.011935329996049404, -0.10545381903648376, -0.11323678493499756, -0.05781858041882515, -0.040490761399269104, 0.044865597039461136, -0.005038801580667496, 0.08854857087135315, -0.01974637806415558, -0.1691109836101532, -0.017082424834370613, 0.0018435752717778087, 0.16427776217460632, 0.09265101701021194, 0.15181078016757965, 0.0387120395898819, -0.17365790903568268, -0.05523968115448952, 0.04594133049249649, 0.06642916053533554, 0.1362372189760208, -0.06605134159326553, 0.08046633005142212, -0.25235068798065186, 0.016633182764053345, -0.009660808369517326, 0.2615693211555481, 0.13173025846481323, -0.07541049271821976, -0.04074281081557274, -0.13445740938186646, 0.1361997276544571, -0.02750341035425663, 0.11571048945188522, 0.0018527283100411296, 0.12414374947547913, -0.13706931471824646, -0.10400624573230743, -0.05778459087014198, -0.032751765102148056, 0.18614143133163452, -0.09736020863056183, -0.01943279057741165, -0.03132733702659607, -0.016858473420143127, -0.02263008803129196, -0.036635853350162506, 0.04700479283928871, 0.014302573166787624, -0.08005397021770477, -0.19799430668354034, -0.2151889204978943, 0.02237890101969242, -0.034909237176179886, 0.1413387805223465, -0.12663374841213226, 0.0057085659354925156, -0.10214275121688843, -0.127686008810997, 0.03334580734372139, 0.00017671241948846728, 0.07484040409326553, -0.046253543347120285, 0.04307028278708458, 0.05122985690832138, 0.022811532020568848, 0.029748301953077316, 0.032835252583026886, 0.12004270404577255, 0.022549400106072426, 0.021940747275948524, 0.006680350285023451, -0.10880008339881897, 0.009763824753463268, 0.10077743977308273, 0.13833241164684296, -0.01076420210301876, -0.047845885157585144, -0.003792752046138048, -0.044949185103178024, 0.018341299146413803, 0.03413211181759834, -0.006131003610789776, -0.0841691792011261, -0.0015486275078728795, 0.0728691816329956, -0.016423163935542107, 0.020234806463122368, -0.027453307062387466, 0.16612601280212402, -0.02027623914182186, 0.0668242871761322, 0.05186091363430023, -0.04956495389342308, -0.09117282181978226, 0.02121543325483799, 0.06672485172748566, -0.05670059844851494, 0.017271745949983597, 0.15309683978557587, -0.02663620375096798, -0.10557921230792999, -0.00443468801677227, -0.0041273669339716434, -0.04861316829919815, -0.02239025942981243, 0.018592476844787598, -0.1770942509174347, 0.03323075920343399, 0.03417736664414406, 0.0911126583814621, -0.09026706218719482, 0.02775459922850132, 0.15533079206943512, -0.07369927316904068, 0.007897483184933662, 0.04354754462838173, 0.24879145622253418, -0.02970593050122261, 0.07183191925287247, 0.05652055889368057, -0.0502239391207695, -0.019933896139264107, 0.049274004995822906, 0.22036024928092957, -0.13039985299110413, 0.08909477293491364, 0.11262147128582001, 0.06014443561434746, -0.10053128749132156, 0.14812976121902466, 0.174137145280838, -0.11284491419792175, -0.06107838451862335, 0.09436074644327164, -0.04315781593322754, -0.16172626614570618, 0.5249418020248413, 0.20273105800151825, -0.21062016487121582, 0.008230799809098244, 0.07634124159812927, 0.03866197168827057, -0.022168094292283058, 0.15059980750083923, 0.1472722738981247, -0.1813221126794815, -0.02471829019486904, 0.034607622772455215, 0.010603810660541058, 0.12317003309726715, 0.0477922298014164, 0.19038818776607513, -0.33356428146362305, 0.032588884234428406, 0.10169698297977448, 0.08847048133611679, 0.0032189039047807455, 0.1494753360748291, 0.20378488302230835, -0.22647732496261597, 0.0036240406334400177, 0.06418456882238388, 0.09168317168951035, 0.017576755955815315, -0.10238838195800781, 0.2908842861652374, -0.23741135001182556, 0.020331881940364838, 0.09870536625385284, 0.08471338450908661, 0.009495159611105919, 0.09826859831809998, 0.09863168001174927, -0.25797638297080994, 0.03314515948295593, 0.1249706819653511, 0.0628402829170227, -0.14929825067520142, 0.06562258303165436, 0.27416712045669556, -0.24605196714401245, -0.030972905457019806, 0.28850898146629333, 0.0868203341960907, -0.10477662831544876, 0.055212173610925674, 0.14179842174053192, -0.2903982996940613, -0.17169226706027985, 0.1498757153749466, -0.014368017204105854, -0.1408521980047226, -0.012141113169491291, 0.2023649364709854, -0.270879328250885, -0.22748136520385742, 0.16213762760162354, 0.00633029593154788, -0.0793856605887413, 0.09424232691526413, 0.3425004184246063, -0.3548658788204193, -0.3514538109302521, 0.22317522764205933, 0.012523489072918892, -0.007783021777868271, -0.039362914860248566, 0.39400553703308105, -0.3236546814441681, -0.3710238039493561, 0.10794235020875931, 0.01589544676244259, -0.08075825870037079, -0.0625627189874649, 0.4769156575202942, -0.1741534173488617, -0.36879274249076843, 0.008338790386915207, -0.03177523985505104, 0.020821625366806984, 0.011967776343226433, 0.37432244420051575, -0.10462474822998047, -0.34575405716896057, 0.04241631180047989, 0.09060397744178772, -0.1606776863336563, -0.027187064290046692, 0.46490931510925293, -0.11615961045026779, -0.2537614703178406, -0.0029713804833590984, -0.0018397736130282283, -0.13532987236976624, -0.00757343415170908, 0.4686030447483063, -0.13439178466796875, -0.10368681699037552, -0.14953024685382843, -0.08481553196907043, -0.07348752021789551, -0.0020398071501404047, 0.34937584400177, -0.038742464035749435, -0.02730596251785755, -0.06227920576930046, -0.19554653763771057, -0.12285934388637543, -0.05731802061200142, 0.23890219628810883, 0.09886603057384491, 0.03764244168996811, -0.179213285446167, -0.010619756765663624, -0.027677295729517937, -0.05452260375022888, 0.2588235139846802, 0.06939979642629623, 0.16646410524845123, -0.13078367710113525, 0.011746043339371681, 0.013967247679829597, 0.028839269652962685, 0.16326555609703064, 0.2504482865333557, -0.056858308613300323, -0.07941058278083801, 0.10258705914020538, -0.006666878703981638, 0.006755848880857229, 0.12715278565883636, 0.3711588978767395, -0.3164348602294922, -0.024674156680703163, -0.0254397913813591, -0.0071673146449029446, -0.05399148538708687, 0.15566129982471466, 0.383540540933609, -0.34284088015556335, -0.07636742293834686, -0.006420303136110306, -0.2192419469356537, 0.38609856367111206], [0.057704273611307144, 0.0373106524348259, 0.5550410747528076, 0.0005003436817787588, -0.006191109772771597, -0.13625140488147736, 0.056843794882297516, 0.011021828278899193, 0.043027251958847046, 0.457572340965271, 0.003889689454808831, -0.07861439883708954, -0.003460106672719121, -0.14934512972831726, -0.002998083597049117, 0.13503935933113098, 0.4371645748615265, -0.05260491371154785, -0.10578769445419312, -0.03146017715334892, -0.2029474824666977, 0.09748321771621704, 0.10053562372922897, 0.1573638916015625, -0.07514537125825882, -0.1356179416179657, 0.0711025595664978, -0.09785125404596329, -0.07591339200735092, 0.04920398071408272, 0.08280716091394424, 0.12374380975961685, -0.18858486413955688, 0.14297275245189667, -0.08151233196258545, -0.06087766960263252, -0.00446595111861825, -0.0958750769495964, 0.1247050017118454, -0.17385005950927734, -0.1798125058412552, 0.09947521984577179, -0.2390293926000595, -0.09499350190162659, 0.014694075100123882, -0.05654953792691231, -0.26996907591819763, -0.04275469481945038, 0.07920876890420914, -0.2008412629365921, -0.036915797740221024, -0.13271141052246094, 0.008701655082404613, -0.2964382469654083, -0.18505771458148956, 0.14197365939617157, -0.13911236822605133, 0.012778115458786488, -0.1650238186120987, 0.0688990131020546, -0.15166571736335754, -0.09557337313890457, 0.14759787917137146, 0.01373086404055357, -0.024566762149333954, -0.31555649638175964, 0.025936830788850784, -0.2942138910293579, -0.02459375187754631, 0.14198651909828186, -0.03269776329398155, 0.19090336561203003, -0.5547640323638916, 0.05131194740533829, -0.25767582654953003, -0.09835920482873917, 0.26897403597831726, -0.07407983392477036, 0.18036441504955292, -0.7555707097053528, -0.06196756288409233, -0.15779465436935425, 0.08750652521848679, 0.2055373340845108, 0.061162326484918594, 0.2461031675338745, -0.8170648813247681, 0.04515593871474266, -0.07892335206270218, 3.884326361003332e-05, 0.2513083219528198, -0.028486846014857292, 0.2641976773738861, -0.4447022080421448, 0.022508487105369568, -0.19614334404468536, -0.032938893884420395, 0.16716215014457703, 0.09539996087551117, 0.05075604468584061, -0.22265209257602692, -0.09012763947248459, -0.05926904454827309, -0.09981031715869904, -0.052856847643852234, 0.08582964539527893, 0.14458435773849487, 0.1790320724248886, 0.009618065319955349, 0.07599294930696487, 0.04370744526386261, -0.14343470335006714, 0.055013202130794525, -0.06112729385495186, -0.152308851480484, -0.07721178978681564, 0.21397915482521057, -0.0007592664915136993, -0.026505187153816223, 0.01110080722719431, 0.17213551700115204, -0.06854785233736038, 0.09338810294866562, -0.17579564452171326, 0.005547851789742708, 0.051083605736494064, -0.029468249529600143, 0.09630310535430908, -0.1363704800605774, 0.0319175198674202, -0.12591341137886047, 0.14254556596279144, 0.011463053524494171, -0.08040053397417068, -0.012264147400856018, -0.11968312412500381, -0.06890397518873215, 0.05987865850329399, 0.011858848854899406, 0.010315080173313618, -0.014396777376532555, 0.018672971054911613, -0.15299265086650848, -0.10677578300237656, -0.18939702212810516, 0.004166249185800552, 0.09361005574464798, -0.14492379128932953, 0.17463266849517822, -0.2871326208114624, 0.0413295216858387, -0.11614088714122772, -0.04463926702737808, 0.009134594351053238, 0.12274564802646637, 0.059447966516017914, -0.35019639134407043, 0.09177370369434357, 0.04245034232735634, 0.013257012702524662, 0.08670703321695328, 0.007388236466795206, 0.1346290558576584, -0.13045166432857513, 0.1364205777645111, -0.05756557732820511, 0.08324266970157623, 0.07899237424135208, -0.05777803063392639, 0.04488227516412735, -0.2846654951572418, 0.05323532968759537, -0.16278713941574097, 0.09316554665565491, 0.066217802464962, 0.02229512482881546, 0.026718314737081528, -0.06300408393144608, -0.09373114258050919, -0.06525494158267975, -0.17305026948451996, 0.2438855767250061, 0.10597842931747437, 0.06731542944908142, -0.16349121928215027, 0.09965454787015915, 0.002848896896466613, -0.059263382107019424, -0.02967608906328678, -0.039225202053785324, 0.02001224458217621, -0.1127764955163002, -0.01038067415356636, -0.052389152348041534, -0.019438723102211952, 0.1706760823726654, -0.021233564242720604, -0.13313449919223785, -0.24516288936138153, 0.04500865936279297, 0.22661039233207703, 0.13998086750507355, 0.04371223971247673, -0.10028085857629776, 0.09650495648384094, 