{"schema_version": 1, "metadata": {"global_step": 12513280, "run_name": "v102_b2beta", "obs_size": 341, "hidden_size": 64, "action_space_size": 18}, "weights": {"fc1.weight": [[0.2645580470561981, -0.12054341286420822, 0.048149868845939636, -0.054915718734264374, 0.03176165744662285, 0.04038775712251663, -0.14103052020072937, 0.15040403604507446, 0.08392087370157242, -0.18272197246551514, -0.01894732192158699, -0.14363129436969757, -0.08348692953586578, 0.06737948209047318, 0.02502807416021824, 0.1208825558423996, 0.01912667602300644, -0.10491219907999039, -0.13269752264022827, -0.019657006487250328, -0.35486674308776855, 0.0871473178267479, -0.13449670374393463, 0.09566094726324081, 0.044964734464883804, -0.017866970971226692, 0.05885801091790199, -0.22762461006641388, 0.02828553505241871, -0.03126068040728569, 0.14276358485221863, 0.21999728679656982, -0.05468441918492317, -0.21780739724636078, 0.02448449097573757, -0.0014885399723425508, -0.10555408895015717, 0.16344498097896576, -0.037794485688209534, 0.08266542106866837, -0.026009099557995796, 0.05128508433699608, 0.044654909521341324, -0.12243156135082245, 0.15633049607276917, -0.09872739762067795, -0.014888941310346127, -0.0002808564458973706, 0.0973089337348938, 0.01908227987587452, 0.13412921130657196, 0.09056871384382248, -0.016150062903761864, -0.05784548074007034, -0.06550515443086624, -0.04893893003463745, 0.1880851536989212, 0.07259072363376617, -0.1303054690361023, 0.18757782876491547, -0.01101057417690754, -0.09444323927164078, -0.20280416309833527, 0.09121916443109512, 0.033310066908597946, -0.15690681338310242, -0.07957407832145691, 0.010151715949177742, 0.16137997806072235, 0.010707078501582146, 0.10138725489377975, -0.0475793331861496, -0.07956086099147797, 0.05782438814640045, -0.1512804478406906, 0.041804250329732895, -0.09135907143354416, 0.1078941747546196, 0.15103858709335327, -0.09375843405723572, -0.012726463377475739, 0.06322695314884186, 0.029241684824228287, 0.09092144668102264, 0.30080533027648926, 0.014256065711379051, -0.21550323069095612, -0.0410986989736557, -0.009664377197623253, 0.02628215216100216, 0.009424514137208462, 0.3491339385509491, 0.01325224805623293, -0.19549573957920074, 0.009255492128431797, 0.13404640555381775, 0.10601136088371277, 0.08600930869579315, 0.3130168914794922, -0.04375665262341499, -0.1230311244726181, 0.17201298475265503, 0.081264927983284, -0.008085867390036583, 0.08933822065591812, 0.06282990425825119, -0.13429661095142365, -0.15271292626857758, -0.11867991834878922, -0.005947635974735022, 0.09119173884391785, -0.0014730036491528153, 0.0722118467092514, -0.0871601477265358, -0.011581986211240292, 0.16302445530891418, 0.009790951386094093, 0.052195608615875244, -0.15327084064483643, 0.2307669073343277, 0.06042155623435974, 0.0453215055167675, -0.04967937991023064, -0.10217446833848953, 0.14479251205921173, -0.12932810187339783, 0.06855820119380951, 0.14758707582950592, 0.05346821993589401, 0.028448719531297684, 0.036496058106422424, -0.017798686400055885, -0.1048051193356514, 0.050692494958639145, -0.14250974357128143, -0.04235229268670082, -0.025379730388522148, -0.047827672213315964, 0.015209419652819633, -0.08403943479061127, 0.08680940419435501, 0.1002366915345192, -0.003329157130792737, -0.048978857696056366, -0.08976267278194427, 0.05488763004541397, -0.12988753616809845, 0.024388447403907776, 0.04753381013870239, -0.1328139752149582, 0.1968642771244049, -0.03053281083703041, -0.11508746445178986, -0.03930388763546944, -0.0013878355966880918, 0.038336992263793945, 0.05366302654147148, 0.14844629168510437, -0.1500440537929535, -0.15189974009990692, 0.050450023263692856, 0.23503057658672333, 0.24005930125713348, -0.16010646522045135, 0.037174053490161896, -0.03210733085870743, -0.36303430795669556, 0.14937812089920044, 0.013700966723263264, 0.05584583431482315, -0.16006098687648773, 0.11063992977142334, -0.24341924488544464, -0.3515225052833557, 0.027333203703165054, 0.11210080981254578, 0.10383966565132141, -0.07932419329881668, 0.032530587166547775, -0.2852643132209778, -0.42194846272468567, -0.029756976291537285, -0.09923583269119263, 0.19604040682315826, -0.1624128222465515, 0.005515762604773045, -0.17341330647468567, -0.5293031930923462, -0.057559672743082047, -0.008418284356594086, -0.008629278279840946, -0.09527241438627243, -0.008217346854507923, 0.1483837068080902, -0.4705890417098999, -0.016892993822693825, 0.07386477291584015, -0.022635778412222862, -0.10512188822031021, 0.025151744484901428, 0.15716679394245148, -0.4624352753162384, 0.05453823506832123, 0.058412816375494, 0.18234695494174957, -0.1534222513437271, -0.03371693193912506, -0.16170330345630646, -0.42926713824272156, -0.006863143760710955, 0.024147391319274902, 0.1340455263853073, -0.007462019100785255, -0.13780483603477478, -0.32578346133232117, -0.32519280910491943, 0.0545954555273056, 0.01468674186617136, 0.08647169917821884, -0.16740672290325165, -0.020384829491376877, -0.22838136553764343, -0.30781289935112, 0.07850852608680725, 0.07667344808578491, 0.03820909932255745, -0.13474075496196747, -0.07783439755439758, -0.5551895499229431, -0.34976720809936523, 0.15258315205574036, 0.08966057747602463, 0.13839443027973175, -0.17776483297348022, -0.16065534949302673, -0.2142527848482132, -0.12461061030626297, 0.09434352815151215, 0.2708265483379364, 0.022894050925970078, -0.19687727093696594, -0.11362965404987335, -0.10732043534517288, -0.15935221314430237, 0.005440110340714455, -0.026362769305706024, -0.0017243331531062722, -0.15818314254283905, 0.06540762633085251, 0.09912025928497314, -0.12517696619033813, 0.11273600906133652, 0.12613658607006073, 0.018245410174131393, 0.09155145287513733, 0.00810005608946085, -0.10121245682239532, -0.1377180963754654, 0.07718952745199203, 0.08996062725782394, -0.09939869493246078, -0.08269061148166656, -0.05229395255446434, -0.0485367514193058, -0.13208863139152527, 0.06522580236196518, 0.12180428206920624, -0.0036313410382717848, -0.12581728398799896, -0.021722208708524704, -0.30296945571899414, -0.10809725522994995, 0.0799388438463211, -0.02849455550312996, -0.0374322384595871, -0.10083214938640594, -0.060309819877147675, 0.008974959142506123, 0.0779348760843277, 0.04358930140733719, 0.11221066862344742, -0.06566796451807022, 0.03566405177116394, 0.02495807595551014, -0.16387924551963806, 0.14302989840507507, -0.13240183889865875, 0.06607069075107574, 0.03241696208715439, -0.3632009029388428, 0.08462193608283997, -0.003885821904987097, -0.0580674484372139, -0.16796456277370453, -0.009394928812980652, 0.06886511296033859, -0.224888414144516, 0.025898244231939316, 0.2868594527244568, 0.10168314725160599, -0.07369252294301987, 0.19004610180854797, 0.10480334609746933, -0.2686913013458252, 0.007818708196282387, -0.049718935042619705, 0.08094080537557602, 0.01869983784854412, 0.005172224249690771, -0.017136596143245697, -0.3076631724834442, 0.028095463290810585, 0.023021230474114418, 0.06809483468532562, 0.036810316145420074, -0.20894168317317963, 0.03785044327378273, 0.09750949591398239, -0.05780032277107239, 0.017546284943819046, -0.0591115765273571, 0.28788286447525024, 0.10885314643383026, 0.12583652138710022, -0.176278755068779, -0.06586486846208572, 0.07019686698913574, 0.015486001037061214, -0.2767570912837982, 0.03477124124765396, -0.002492734231054783, -0.16224689781665802, 0.028232092037796974, 0.07398495078086853, -0.08673903346061707, -0.2935512959957123, -0.01044671144336462, 0.18068858981132507, 0.6879544258117676, -0.08293929696083069, 0.3472379744052887], [-0.07610093802213669, 0.10371066629886627, -0.009616865776479244, -0.09144371002912521, 0.16706030070781708, -0.06913366913795471, -0.45414289832115173, -0.1115376278758049, 0.11050152778625488, -0.006824369076639414, 0.08236707001924515, -0.06118573620915413, -0.2906033396720886, 0.07108774036169052, -0.05459706112742424, 0.08797138929367065, -0.04406547546386719, 0.026701979339122772, 0.1510985642671585, -0.11011192202568054, -0.046200450509786606, 0.009889597073197365, 0.28120172023773193, -0.027984866872429848, -0.07806600630283356, -0.006238271947950125, -0.11619091778993607, -0.25043871998786926, 0.08777742832899094, 0.3371584415435791, -0.021140964701771736, 0.047376859933137894, 0.25113171339035034, -0.044669926166534424, -0.37945690751075745, 0.01871664635837078, 0.033949114382267, -0.05089407414197922, -0.029537495225667953, 0.15868426859378815, -0.07935424894094467, -0.14265847206115723, 0.13360218703746796, 0.06973696500062943, -0.10816550999879837, 0.04235531762242317, 0.0771404579281807, -0.0406312458217144, -0.04069747403264046, 0.048508550971746445, 0.018913617357611656, -0.0015121873002499342, 0.06037486344575882, 0.21321232616901398, -0.030299358069896698, 0.04439207538962364, 0.22239787876605988, -0.0016996084013953805, -0.3378073275089264, 0.01251243520528078, 0.052786193788051605, 0.10016221553087234, 0.1749803125858307, 0.06268173456192017, -0.17017117142677307, -0.15505677461624146, -0.046092402189970016, 0.25688260793685913, 0.18897026777267456, -0.07132405042648315, 0.03321819007396698, -0.0940980538725853, -0.4088122844696045, 0.02783999964594841, 0.1676456183195114, -0.06062931567430496, 0.22835399210453033, 0.12923265993595123, 0.006198246497660875, -0.41411587595939636, -0.028499219566583633, 0.12646663188934326, -0.03443072736263275, 0.21995265781879425, -0.12528541684150696, 0.06469868123531342, -0.26241153478622437, -0.005420919973403215, 0.0023497322108596563, 0.25840142369270325, 0.11700006574392319, 0.06885771453380585, -0.0038757354486733675, -0.35352325439453125, -0.1722412407398224, -0.06740514934062958, 0.130060076713562, 0.09734659641981125, -0.012153882533311844, 0.2065010666847229, -0.3004443049430847, -0.03249431028962135, -0.18143296241760254, 0.012641549110412598, 0.005461657885462046, 0.1118583157658577, 0.04918850213289261, -0.4169907569885254, -0.014233698137104511, -0.002662989078089595, 0.22579212486743927, 0.03699707239866257, 0.16858619451522827, 0.3544469475746155, -0.43746083974838257, -0.02567887492477894, -0.07860089093446732, 0.07972987741231918, 2.3393466108245775e-05, -0.03405733406543732, 0.08085209876298904, -0.3245297372341156, 0.1438455730676651, -0.15486983954906464, 0.10047042369842529, 0.168020099401474, 0.1359354704618454, 0.07917167991399765, -0.2689170241355896, -0.14667335152626038, -0.07818203419446945, 0.07869850844144821, 0.16518527269363403, 0.0435924157500267, 0.06824113428592682, -0.2878608703613281, -0.10775063931941986, -0.17504790425300598, -0.08019589632749557, 0.10377705097198486, 0.0437745675444603, 0.12998706102371216, -0.3156057894229889, -0.049182046204805374, -0.2951046824455261, -0.03156981244683266, 0.2417229413986206, 0.04141070693731308, 0.11379522830247879, -0.2439660280942917, -0.053565409034490585, -0.17158173024654388, -0.013056958094239235, 0.22583521902561188, 0.006478252820670605, 0.15189486742019653, 0.014870473183691502, 0.00046894553815945983, -0.286749929189682, 0.06918557733297348, -0.056544747203588486, 0.09673220664262772, 0.10169213265180588, -0.098601795732975, 0.03143664449453354, -0.06885246187448502, -0.15875382721424103, -0.18129104375839233, 0.006594039965420961, -0.04379240423440933, 0.12186799943447113, 0.0217220950871706, -0.0661059319972992, -0.20120438933372498, 0.10530239343643188, -0.04679213464260101, -0.1987484246492386, 0.021591128781437874, -0.05759405344724655, -0.2274055927991867, 0.01216649916023016, 0.010267039760947227, -0.09369458258152008, -0.16419292986392975, 0.03744623810052872, 0.020753249526023865, -0.07257525622844696, -0.04514583200216293, -0.11488046497106552, -0.04694011062383652, -0.053014591336250305, -0.003794861724600196, 0.004522170405834913, -0.15122604370117188, -0.12281537801027298, 0.07227262109518051, 0.022606395184993744, 0.0731746181845665, -0.1430700570344925, 0.04773859307169914, -0.17209960520267487, -0.10979617387056351, -0.09330248832702637, -0.010254903696477413, -0.0038009353447705507, -0.17229682207107544, 0.06259340792894363, 0.05301264300942421, -0.0035745275672525167, -0.02371373027563095, -0.12774810194969177, -0.186763197183609, 0.021529844030737877, -0.22807128727436066, -0.04639856517314911, -0.12695452570915222, 0.10169479995965958, 0.09930393844842911, -0.03650399670004845, -0.15158098936080933, 0.06958667188882828, -0.25289827585220337, 0.18418604135513306, 0.08202645182609558, -0.1066417247056961, -0.04395517334342003, -0.22824931144714355, 0.10477858036756516, -0.23797880113124847, 0.047521255910396576, -0.010703232139348984, -0.19105753302574158, -0.01394182164222002, 0.026511818170547485, 0.08446264266967773, -0.24647864699363708, 0.08725208044052124, -0.057592567056417465, 0.06419186294078827, -0.11191408336162567, -0.17192131280899048, -0.10208595544099808, -0.1705123335123062, 0.19579246640205383, 0.043182265013456345, 0.1339646726846695, 0.16578978300094604, -0.1460227221250534, -0.18415658175945282, -0.23752421140670776, 0.14329516887664795, 0.05272706225514412, -0.052183616906404495, 0.10609540343284607, -0.11051417142152786, -0.11843027919530869, -0.30123472213745117, 0.12930063903331757, 0.011979286558926105, -0.09947143495082855, -0.060007043182849884, -0.07882414013147354, 0.09906752407550812, 0.22666412591934204, 0.047926515340805054, 0.04280395805835724, -0.034481849521398544, -0.15315388143062592, -0.10983376204967499, 0.024585800245404243, 0.07617133855819702, 0.06964229047298431, 0.017383534461259842, 0.029094288125634193, -0.04628000408411026, -0.13319511711597443, 0.07016868889331818, -0.04782012477517128, 0.007932905107736588, 0.25874432921409607, -0.015140931122004986, -0.18867500126361847, -0.09662796556949615, 0.05995814874768257, -0.0806502178311348, -0.20120130479335785, 0.15896788239479065, -0.0050616031512618065, -0.10879209637641907, 0.04273432493209839, 0.01809859275817871, 0.16644378006458282, -0.010228696279227734, 0.021418731659650803, -0.09072443842887878, -0.19863393902778625, 0.0266276728361845, 0.062062643468379974, 0.05873466283082962, -0.09025184065103531, 0.12217151373624802, -0.056201573461294174, -0.0649522989988327, 0.027922973036766052, -0.07792642712593079, -0.03302967920899391, -0.2775394320487976, -0.013307766988873482, 0.022547932341694832, 0.04020164906978607, -0.036500588059425354, 0.07163932174444199, 0.008282791823148727, -0.19653946161270142, 0.361350953578949, 0.09296287596225739, 0.1193925142288208, -0.032879121601581573, -0.1262567788362503, -0.11637324839830399, -0.0417659617960453, 0.38733500242233276, 0.04795822873711586, 0.17848046123981476, 0.04341812804341316, -0.03648635745048523, -0.09656026214361191, -0.0930255874991417, -0.041411176323890686, -0.10520365834236145, -0.2098422646522522, -0.0560559518635273, 0.09923943877220154, 0.08783339709043503, -0.034578487277030945, 0.12988971173763275, -0.26445797085762024, 0.3089914321899414, -0.6528948545455933, 0.1642608493566513, -0.18296365439891815], [0.2984786033630371, 0.022613123059272766, 0.08683378994464874, 0.010060099884867668, -0.05647950991988182, -0.05674592778086662, -0.03284621238708496, -0.0026570959016680717, 0.05029352381825447, 0.027020839974284172, 0.043199822306632996, -0.04570946469902992, 0.04843748360872269, -0.1268426775932312, -0.21504102647304535, 0.10157819092273712, 0.07951483130455017, 0.06300079822540283, -0.38763245940208435, 0.06793957948684692, 0.026031259447336197, 0.03206676244735718, 0.029663974419236183, 0.13667051494121552, -0.1000923365354538, -0.14721304178237915, 0.0018421071581542492, -0.08355987071990967, 0.04749869555234909, 0.07790390402078629, -0.035082560032606125, -0.07592672854661942, -0.17993605136871338, -0.05103299766778946, -0.0737282782793045, 0.12992598116397858, -0.02081233449280262, -0.1686728298664093, -0.12388496100902557, 0.08359693735837936, -0.13235071301460266, -0.20007367432117462, 0.16654597222805023, -0.02428005076944828, 0.014954694546759129, 0.10511364042758942, 0.024600498378276825, 0.0214871596544981, -0.08666307479143143, 0.216668501496315, 0.11379898339509964, -0.19145642220973969, 0.08069762587547302, 0.01107694674283266, -0.05681854486465454, 0.10658032447099686, 0.020722631365060806, -0.15355680882930756, -0.02346678078174591, 0.06563236564397812, -0.09594088792800903, 0.07217390090227127, 0.06275307387113571, 0.12909919023513794, -0.031056812033057213, -0.1431160420179367, 0.13838455080986023, 0.024700773879885674, 0.10237995535135269, 0.02669638954102993, 0.03242334723472595, -0.14562232792377472, -0.22843106091022491, -0.009093906730413437, -0.027213668450713158, 0.2208181470632553, 0.07148122042417526, 0.07937117666006088, -0.0950491726398468, 0.18558423221111298, 0.05215265229344368, -0.3003348112106323, 0.004459759220480919, 0.009902220219373703, 0.11476034671068192, -0.06453102827072144, 0.30807986855506897, -0.09399597346782684, 0.00781357754021883, -0.003468836424872279, 0.042705751955509186, 0.003423848422244191, -0.002398936776444316, 0.05645207315683365, -0.01493065431714058, 0.029970629140734673, -0.06817050278186798, -0.033835459500551224, 0.12007828056812286, -0.1751956194639206, -0.013751775026321411, -0.008998755365610123, -0.07600291073322296, -0.011149302124977112, -0.09806717932224274, -0.051333796232938766, -0.07700569927692413, 0.1751076728105545, 0.03250672295689583, 0.013121947646141052, 0.013663009740412235, -0.035686273127794266, -0.21107245981693268, -0.22062404453754425, 0.49254080653190613, 0.03846248984336853, 0.03608408570289612, -0.027768321335315704, -0.4708594083786011, -0.17204000055789948, -0.14199765026569366, 0.32301396131515503, -0.06178133189678192, -0.02215534634888172, 0.05960584431886673, -0.27525535225868225, -0.013058931566774845, -0.15438354015350342, 0.3180266320705414, 0.02578406035900116, -0.07599127292633057, 0.05562448129057884, -0.4182066023349762, -0.2438308447599411, -0.06448562443256378, 0.31721675395965576, 0.22949232161045074, -0.0721074566245079, -0.007409502286463976, -0.2798277735710144, -0.129875048995018, -0.19694624841213226, 0.2810625731945038, 0.07602642476558685, 0.044217608869075775, 0.01247070450335741, -0.20338989794254303, -0.2381027787923813, -0.11726897954940796, 0.1076258197426796, -0.15351128578186035, -0.032681554555892944, -0.07503144443035126, -0.19798250496387482, -0.21413226425647736, -0.060181573033332825, 0.08717509359121323, 0.1259697526693344, -0.14057327806949615, -0.05439412221312523, -0.12988553941249847, -0.07704034447669983, -0.04704095795750618, 0.06717659533023834, 0.053362809121608734, -0.2043818086385727, -0.07298097014427185, -0.034058548510074615, -0.03606761246919632, -0.08375927805900574, 0.22301475703716278, 0.06956405192613602, -0.20440132915973663, -0.007805684115737677, -0.07981706410646439, -0.09141697734594345, -0.25811508297920227, 0.013116491958498955, -0.09543885290622711, -0.2768799960613251, 0.12888827919960022, -0.11398777365684509, -0.16921423375606537, -0.12047689408063889, 0.06621105968952179, -0.05343889445066452, -0.1251811534166336, -0.06165120378136635, -0.11989741027355194, -0.26665157079696655, -0.1058231070637703, 0.14382503926753998, 0.05372083559632301, -0.19100864231586456, -0.1106494888663292, -0.19471944868564606, -0.1373976767063141, 0.012646880932152271, 0.033968519419431686, 0.08371531963348389, -0.1780087798833847, -0.025079956278204918, -0.19554710388183594, -0.12209053337574005, 0.014713871292769909, 0.12293539196252823, 0.030053088441491127, -0.1339092254638672, -0.007731240708380938, -0.2286214977502823, -0.12441696971654892, 0.11837689578533173, 0.04800642281770706, -0.1313277781009674, -0.23161165416240692, -0.12128818780183792, -0.0684782862663269, 0.10681808739900589, 0.020991649478673935, 0.06867286562919617, -0.15654915571212769, -0.10222611576318741, -0.02846224047243595, -0.27546823024749756, 0.04481028392910957, -0.005562395788729191, -0.1210954487323761, -0.06603549420833588, -0.37040451169013977, 0.030498437583446503, -0.04672892391681671, 0.31370171904563904, 0.2194204330444336, -0.2645760774612427, 0.06050267070531845, 0.0885806530714035, 0.05356188863515854, 0.06297614425420761, 0.1832294911146164, 0.06262259185314178, -0.23316256701946259, 0.08746787160634995, 0.01919766142964363, 0.15523654222488403, -0.16459761559963226, 0.06891267746686935, 0.02855590172111988, -0.31313928961753845, -0.0002421017998130992, -0.04761022329330444, 0.039203815162181854, -0.1929776817560196, 0.20199841260910034, 0.14882829785346985, -0.22200879454612732, -0.05761312320828438, -0.014399157837033272, 0.15010575950145721, -0.09007073193788528, 0.10922633856534958, 0.267901211977005, -0.21760950982570648, 0.00017581589054316282, 0.07725256681442261, 0.039308011531829834, -0.20564430952072144, 0.043400153517723083, 0.09587983042001724, -0.3729335367679596, 0.035207349807024, 0.14149311184883118, 0.1783740073442459, -0.11586269736289978, -0.09454501420259476, 0.04853149875998497, 0.1074652150273323, -0.12952381372451782, 0.016372304409742355, 0.21724015474319458, -0.17244884371757507, -0.059108149260282516, 0.07609247416257858, -0.17345497012138367, -0.15665893256664276, -0.1249806210398674, 0.001782300416380167, -0.09549138695001602, -0.07568630576133728, -0.0983462706208229, -0.17248453199863434, 0.09803000837564468, -0.05253378301858902, 0.004652560688555241, -0.11310258507728577, 0.06946353614330292, 0.06868496537208557, 0.2430984377861023, 0.09027538448572159, -0.05543702095746994, -0.03948769345879555, -0.018312131986021996, 0.004045057576149702, -0.08142225444316864, -0.0751187726855278, 0.1523560881614685, -0.12654560804367065, -0.01602419838309288, -0.058155305683612823, 0.2260621190071106, -0.1299726814031601, -0.10945848375558853, 0.15681235492229462, -0.008503902703523636, 0.11196506023406982, -0.0300698634237051, -0.001676623011007905, -0.09528329968452454, 0.03745125234127045, -0.04540396109223366, -0.05780509486794472, 0.01892724446952343, -0.06276699155569077, 0.05629333108663559, -0.2182612270116806, 0.09172641485929489, 0.005014629103243351, 0.0544218011200428, 0.0715402141213417, -0.10879404842853546, 0.17932921648025513, -0.05128433182835579, -0.03220553696155548, 0.012528648599982262, 0.02930779941380024, 0.06887362152338028, -0.29209181666374207, -0.037628475576639175, 0.2151183933019638, 0.5034382343292236, -0.42367056012153625, -0.9062456488609314], [-0.04174252226948738, -0.046396490186452866, 0.2796761095523834, 0.02832574024796486, -0.2774929404258728, -0.0644802451133728, -0.07541223615407944, -0.029441315680742264, -0.09210555255413055, -0.08937922865152359, -0.004895247519016266, -0.06783420592546463, -0.11168140172958374, 0.15044863522052765, -0.1537027657032013, 0.13646844029426575, 0.22482511401176453, -0.017490606755018234, 0.02457471750676632, -0.2272806018590927, 0.09897787123918533, 0.019524455070495605, -0.11647016555070877, 0.4165697395801544, -0.03964352235198021, -0.05592191591858864, 0.015146369114518166, 0.017689837142825127, -0.11553876847028732, -0.11716384440660477, 0.26688894629478455, 0.10312582552433014, 0.011790722608566284, 0.10845043510198593, 0.14570721983909607, 0.23929136991500854, -0.10385735332965851, 0.15037330985069275, 0.003385254880413413, 0.08174293488264084, -0.2187660187482834, 0.09645900130271912, 0.02142191492021084, -0.15433120727539062, 0.33287757635116577, -0.006958015263080597, 0.23557031154632568, 0.004131450783461332, 0.039589762687683105, -0.02997576631605625, -0.17952610552310944, 0.41535329818725586, 0.06865082681179047, 0.10570958256721497, 0.013965558260679245, -0.08943422138690948, 0.126565083861351, 0.061076316982507706, 0.08217236399650574, 0.06610549241304398, 0.22471493482589722, -0.14171245694160461, -0.03539091348648071, -0.05405240133404732, -0.23406675457954407, 0.22001703083515167, -0.08276558667421341, 0.17114534974098206, 0.07067781686782837, 0.007905807346105576, 0.20148178935050964, -0.055020879954099655, 0.17501570284366608, 0.07209935784339905, 0.1301700323820114, -0.05133115500211716, 0.11742927134037018, -0.01956927217543125, -0.030531615018844604, -0.01711961440742016, 0.0736277848482132, 0.12275079637765884, -0.14917020499706268, 0.07160083949565887, 0.1437581181526184, -0.09450514614582062, 0.1592646986246109, -0.025585560128092766, 0.17005567252635956, -0.08261210471391678, 0.07184944301843643, 0.047271888703107834, -0.07255176454782486, 0.1366148591041565, -0.041745901107788086, 0.26904210448265076, 0.0952068418264389, -0.0038700031582266092, 0.023670047521591187, -0.05994191765785217, 0.25724291801452637, 0.005690598860383034, 0.05266309157013893, 0.005746261216700077, 0.046175215393304825, -0.041910428553819656, -0.32667678594589233, 0.17053331434726715, 0.0370979942381382, -0.1679770052433014, -0.06621060520410538, -0.010849392972886562, -0.02792571298778057, -0.024571824818849564, 0.06862515211105347, 0.09490296244621277, 0.07912752777338028, -0.08285891264677048, -0.02847830392420292, 0.04080704599618912, -0.05011908337473869, 0.03748924285173416, -0.09986358135938644, 0.07213526219129562, -0.07948128134012222, 0.0778411254286766, 0.015644878149032593, -0.047879207879304886, 0.061309050768613815, 0.1115085706114769, 0.056787896901369095, -0.0016519855707883835, 0.019420413300395012, 0.013122537173330784, -0.016438661143183708, -0.24752703309059143, -0.05743371322751045, 0.07389184832572937, 0.08339133858680725, -0.033288244158029556, 0.16463375091552734, 0.15288770198822021, -0.23536399006843567, -0.08733256161212921, 0.0603620670735836, -0.0024156910367310047, -0.05245807021856308, 0.09321720898151398, 0.14899307489395142, -0.2957681119441986, -0.07331470400094986, 0.1426846981048584, -0.032612573355436325, 0.06342095881700516, 0.143950954079628, 0.3131411671638489, -0.2232276052236557, -0.06442153453826904, 0.056272655725479126, -0.012267371639609337, 0.18009157478809357, 0.14561934769153595, 0.26677820086479187, -0.18043336272239685, 0.17352250218391418, 0.04034159332513809, -0.049951355904340744, 0.15377947688102722, 0.04677136614918709, 0.2881024479866028, -0.31351062655448914, 0.07098957151174545, 0.23312899470329285, -0.027021486312150955, 0.046920545399188995, 0.16488222777843475, 0.3418557345867157, -0.26425546407699585, -0.05391520634293556, 0.19808079302310944, 0.12197054922580719, 0.1497034728527069, 0.14077191054821014, 0.22750221192836761, -0.4025442600250244, 0.0605519637465477, 0.0626271665096283, 0.04697257652878761, 0.09693609923124313, 0.13384591042995453, 0.22602573037147522, -0.21319450438022614, -0.012231928296387196, -0.07859116047620773, -0.012353501282632351, 0.03240958973765373, -0.11657492816448212, 0.12732023000717163, -0.1968744695186615, 0.007894153706729412, -0.02789841592311859, 0.22085508704185486, 0.11428506672382355, 0.09223345667123795, 0.03722934424877167, -0.09475232660770416, 0.04373391717672348, -0.05716507509350777, 0.18541212379932404, 0.06033288687467575, -0.12193331867456436, -0.10789285600185394, -0.018286466598510742, 0.12325693666934967, -0.06456805765628815, 0.2287915050983429, 0.06826615333557129, -0.1488007754087448, 0.028336992487311363, 0.03507262468338013, -0.01401201169937849, -0.23423072695732117, 0.14015735685825348, -0.06826747953891754, 0.04863232374191284, -0.06732068955898285, -0.018110428005456924, -0.037408821284770966, -0.4716220200061798, 0.3153773248195648, -0.04646129533648491, 0.00680850725620985, -0.04695039987564087, 0.15086723864078522, -0.07265857607126236, -0.12238519638776779, 0.3578190505504608, -0.0017096600495278835, -0.034037068486213684, -0.01780710555613041, -0.1631697118282318, 0.10150512307882309, -0.06541112810373306, 0.39358100295066833, -0.0119278933852911, -0.021590840071439743, 0.08044524490833282, -0.03131486847996712, -0.11968178302049637, 0.12175755947828293, 0.40335261821746826, 0.09600340574979782, -0.03337128832936287, 0.004313352983444929, -0.18095046281814575, 0.049319520592689514, 0.220448836684227, 0.5009536743164062, -0.07234954088926315, -0.06440028548240662, -0.019513413310050964, -0.07882605493068695, 0.08680146932601929, 0.17007771134376526, 0.4141019284725189, -0.12752926349639893, -0.00183121208101511, -0.010363660752773285, 0.15766414999961853, 0.004757919814437628, 0.26174601912498474, 0.3488994836807251, -0.049282968044281006, 0.09268082678318024, 0.07070218771696091, 0.16196896135807037, -0.1110849529504776, 0.19685472548007965, 0.20277251303195953, -0.20460693538188934, 0.025630643591284752, 0.048210930079221725, 0.25542908906936646, 0.0071242437697947025, 0.11810410022735596, 0.15995554625988007, -0.24462176859378815, 0.007958980277180672, -0.04558982327580452, 0.3197022080421448, 0.019863538444042206, 0.11953616142272949, 0.1189950555562973, -0.0397905558347702, 0.02223140001296997, -0.08798734098672867, 0.33052462339401245, -0.08426429331302643, -0.039065685123205185, 0.0986204743385315, -0.11501293629407883, 0.056568581610918045, -0.19887685775756836, 0.26166170835494995, -0.00637812539935112, -0.09581056237220764, 0.030262336134910583, 0.06640630960464478, 0.04585789516568184, -0.16965170204639435, 0.2469194531440735, 0.027896730229258537, 0.04511190578341484, 0.1339288353919983, -0.1540651172399521, 0.10797666013240814, -0.5377007722854614, 0.16340894997119904, -0.005614932160824537, 0.27940085530281067, 0.17165271937847137, 0.09232565760612488, -0.1582987755537033, -0.020236866548657417, 0.432476669549942, -0.07234316319227219, 0.0440201498568058, 0.04319211095571518, 0.027263818308711052, -0.05838808789849281, -0.010756580159068108, 0.16532588005065918, -0.11132608354091644, -0.2097376585006714, -0.11667969822883606, -0.06812257319688797, -0.19127051532268524, 0.1468697488307953, 0.2566677927970886, -0.08468196541070938, -0.14487650990486145], [-0.20520925521850586, 0.10271646827459335, 0.09273213893175125, 0.08534801006317139, -0.038353003561496735, 0.21234416961669922, -0.07581343501806259, -0.21832416951656342, -0.0952063649892807, 0.30827805399894714, 0.05821864679455757, 0.17226041853427887, -0.12689855694770813, -0.06585685163736343, -0.09736049920320511, -0.24596159160137177, 0.225239560008049, 0.12903854250907898, 0.052501946687698364, -0.13562044501304626, 0.04438669607043266, -0.11226330697536469, -0.2746242880821228, 0.1227366030216217, 0.1367024928331375, 0.014948675408959389, 0.07621434330940247, 0.11626274138689041, -0.04662545770406723, -0.0223506148904562, 0.31374314427375793, 0.06165297329425812, -0.0040990980342030525, 0.19334666430950165, -0.03879201412200928, -0.23446165025234222, -0.049171872437000275, 0.27038368582725525, -0.041632045060396194, 0.09589160233736038, 0.13109327852725983, -0.10654663294553757, -0.1717609018087387, -0.2167639136314392, 0.2962362766265869, -0.06548328697681427, 0.01956874318420887, 0.11246771365404129, -0.02655438706278801, -0.13119207322597504, 0.06101910397410393, 0.16914884746074677, -0.02346479706466198, 0.10929327458143234, -0.043411657214164734, -0.0004040187341161072, -0.431235671043396, -0.09339561313390732, 0.13733677566051483, -0.024882201105356216, 0.11976286768913269, 0.18585361540317535, -0.09375996142625809, -0.2792753577232361, -0.11958308517932892, 0.2178701013326645, -0.0946199893951416, 0.18986475467681885, -0.10161440819501877, 0.125906303524971, -0.30103278160095215, 0.09016124159097672, 0.0949261412024498, -0.027156198397278786, 0.14734135568141937, 0.12071558833122253, 0.07254943251609802, -0.26485446095466614, -0.1619035303592682, -0.035908013582229614, -0.000755309360101819, 0.1442643254995346, 0.1423640251159668, -0.09178923815488815, -0.16345921158790588, -0.013074053451418877, 0.02601785957813263, 0.05027681216597557, 0.19145794212818146, 0.1660613715648651, -0.0009037717245519161, -0.16806162893772125, -0.0534684956073761, 0.018219400197267532, 0.11709010601043701, 0.08962259441614151, 0.11125623434782028, 0.07951954007148743, -0.10578355193138123, 0.020153338089585304, 0.08255229890346527, -0.007647364865988493, 0.018786629661917686, 0.13024993240833282, -0.00547226145863533, -0.04163394123315811, 0.08174251765012741, -0.027024444192647934, -0.027183206751942635, 0.03203107416629791, -0.050557639449834824, -0.017101306468248367, 0.12272191047668457, -0.07632788270711899, 0.005633927416056395, 0.04527566581964493, 0.2902121841907501, -0.08757132291793823, -0.07199490815401077, 0.17019568383693695, 0.1293589323759079, -0.043724626302719116, -0.06655128300189972, 0.43827566504478455, -0.12200696021318436, -0.06816048920154572, 0.038731370121240616, 0.04247831925749779, -0.0827023983001709, -0.08307338505983353, 0.2597050964832306, -0.03189044073224068, 0.002006535418331623, 0.10068534314632416, 0.067867711186409, -0.08449559658765793, -0.09747911244630814, 0.11306839436292648, -0.09454862773418427, 0.0038831199053674936, 0.004346967674791813, 0.04698953405022621, 0.06671909242868423, -0.0012433797819539905, 0.2028530091047287, -0.2142789363861084, 0.1468750238418579, -0.024020440876483917, -0.09440290927886963, 0.018897105008363724, -0.050605881959199905, 0.30224359035491943, 0.004074181895703077, 0.005682447459548712, -0.05487251281738281, 0.0910072848200798, 0.2889160215854645, -0.048669394105672836, 0.21808794140815735, -0.19292643666267395, 0.03570738807320595, -0.08304770290851593, 0.08000221848487854, 0.014070983976125717, 0.08628635853528976, 0.30266594886779785, 0.037055984139442444, -0.013626380823552608, -0.1438835710287094, 0.07809192687273026, 0.21782286465168, 0.053669918328523636, 0.2530747354030609, -0.23673449456691742, -0.004475660156458616, -0.1312492936849594, -0.018891461193561554, 0.023565033450722694, -0.00561728049069643, 0.4055514335632324, 0.016096195206046104, -0.05749437212944031, -0.15990768373012543, -0.019249536097049713, 0.04820546507835388, -0.09841921180486679, 0.14014539122581482, 0.0909484401345253, -0.12659287452697754, -0.2930777072906494, 0.06644479930400848, 0.016927005723118782, -0.017697378993034363, 0.14838872849941254, 0.002887207083404064, 0.002084129024296999, -0.42041054368019104, 0.15611442923545837, 0.07257610559463501, -0.0038977970834821463, 0.21457473933696747, 0.07922462373971939, -0.0529988594353199, -0.2787700295448303, -0.06979046761989594, 0.15999118983745575, -0.05656886100769043, 0.22098758816719055, 0.22308656573295593, 0.02442895993590355, -0.15805891156196594, 0.0667838528752327, 0.04614446312189102, -0.07960522174835205, 0.1397010236978531, 0.05381429195404053, 0.002991855377331376, -0.05021218582987785, 0.10291154682636261, 0.09884078800678253, -0.09752179682254791, 0.13118885457515717, 0.08470920473337173, -0.026254983618855476, -0.12370923161506653, -0.07294568419456482, 0.18208307027816772, -0.06686633080244064, 0.10799821466207504, -0.06015094742178917, 0.10920055210590363, -0.28704553842544556, -0.00010162105172639713, 0.09177298843860626, 0.13499614596366882, 0.01979716867208481, -0.023648254573345184, 0.08547932654619217, -0.2873440980911255, 0.016655297949910164, 0.07004943490028381, -0.0854724571108818, 0.0917181447148323, 0.19595542550086975, 0.03878001868724823, -0.27955248951911926, -0.0034046010114252567, 0.2141605168581009, -0.024996617808938026, 0.12111293524503708, -0.1568530946969986, 0.026420773938298225, -0.402452290058136, -0.004635147750377655, 0.23035810887813568, -0.03832685947418213, 0.13140065968036652, -0.0773271918296814, 0.03597084432840347, -0.273924857378006, -0.03982914984226227, 0.25027042627334595, -0.04505737125873566, 0.0023765070363879204, -0.10234785825014114, -0.03222791105508804, -0.1298108994960785, -0.03408828005194664, 0.11276333034038544, -0.022709593176841736, 0.18160881102085114, -0.09479224681854248, 0.048114463686943054, -0.07892667502164841, -0.13351452350616455, 0.08818632364273071, -0.0077186571434140205, 0.07332164794206619, -0.04497871547937393, 0.11542917788028717, -0.2725163400173187, -0.24703222513198853, 0.3116401135921478, -0.0714980736374855, 0.3151625394821167, -0.08827324211597443, 0.12780746817588806, -0.2102830708026886, -0.27718621492385864, 0.2909003794193268, -0.030658166855573654, 0.01911729760468006, -0.02486683800816536, 0.1398482769727707, -0.22764748334884644, -0.2778399884700775, 0.27278435230255127, 0.026323558762669563, 0.06747150421142578, -0.1375347524881363, 0.1989290565252304, 0.028471093624830246, -0.07503397762775421, 0.1211453378200531, 0.10341887921094894, -0.017020735889673233, -0.10664910823106766, 0.13619913160800934, -0.14586305618286133, 0.08922681957483292, -0.03742707148194313, -0.20318268239498138, 0.022300733253359795, -0.0995660051703453, 0.233067125082016, -0.07970751821994781, -0.29905715584754944, 0.5510987043380737, 0.0009014924289658666, -0.04358820617198944, 0.02972211316227913, 0.2308741807937622, -0.06628846377134323, -0.22934557497501373, -0.11243358999490738, 0.004071076866239309, 0.11449474841356277, 0.16185680031776428, 0.27037185430526733, -0.12034662812948227, 0.13587041199207306, 0.05769527330994606, -0.14064572751522064, -0.015237038023769855, 0.0033278195187449455, -0.09116227179765701, 0.27147477865219116, 0.09347181767225266, 0.5626190900802612, -0.042232561856508255, -0.017615655437111855], [0.01790899597108364, 0.017612595111131668, -0.38458752632141113, -0.024395296350121498, 0.2234697788953781, 0.025849711149930954, -0.05733858421444893, 0.13036824762821198, 0.06147428974509239, -0.05798589438199997, 0.04053729772567749, 0.08227113634347916, 0.15654726326465607, -0.023704737424850464, 0.1599045991897583, 0.026056481525301933, -0.1949945092201233, 0.025366520509123802, -0.01949898712337017, 0.007512142416089773, -0.22385822236537933, 0.04540213569998741, 0.09589585661888123, 0.1689407378435135, 0.09102515131235123, 0.047877442091703415, -0.05389590188860893, -0.3112911880016327, 0.10773952305316925, 0.18679027259349823, -0.044289201498031616, -0.10748008638620377, 0.1503499448299408, 0.17518781125545502, -0.20737306773662567, -0.04422163963317871, 0.14137782156467438, -0.11604058742523193, -0.10194182395935059, 0.18869026005268097, 0.14779263734817505, -0.2516692280769348, 0.053530581295490265, 0.15139934420585632, -0.0877247229218483, 0.020449522882699966, 0.17590855062007904, -0.014247751794755459, -0.16876928508281708, 0.09710897505283356, 0.3683296740055084, -0.21382297575473785, -0.010029541328549385, 0.08390376716852188, 0.11622803658246994, -0.21298016607761383, 0.030063234269618988, 0.17722153663635254, -0.039219871163368225, 0.014937978237867355, 0.11612030118703842, 0.11266448348760605, -0.1965409815311432, 0.11161377280950546, 0.15355700254440308, -0.08196458965539932, -0.022905487567186356, 0.16160114109516144, -0.07053526490926743, -0.19272379577159882, 0.09292170405387878, 0.11464974284172058, 0.01050510536879301, -0.006797836162149906, 0.08527591079473495, 0.04348897188901901, -0.12179532647132874, 0.023105662316083908, 0.08492356538772583, -0.11302785575389862, 0.1334201693534851, 0.02835240587592125, 0.013041142374277115, 0.01942053996026516, -0.045439817011356354, 0.06218573451042175, -0.040304891765117645, -0.04082689806818962, -0.006833252497017384, 0.16420525312423706, 0.050592876970767975, -0.03901931270956993, -0.0217035673558712, -0.05533517152070999, -0.04532519355416298, 0.0003306464641354978, 0.12858955562114716, 0.18841728568077087, 0.01733921840786934, 0.02301163040101528, -0.04694505035877228, 0.06348741054534912, 0.16328537464141846, 0.04354162514209747, -0.021914435550570488, -0.03052878938615322, 0.08592373877763748, -0.05076971277594566, -0.018119968473911285, 0.1741967499256134, 0.10041443258523941, -0.017505044117569923, 0.04858367517590523, 0.012804565019905567, -0.07534611970186234, 0.12587721645832062, 0.04976588487625122, 0.02767239324748516, 0.06211181357502937, -0.02396816574037075, 0.10923510789871216, -0.10779966413974762, 0.172159805893898, -0.06276094913482666, 0.09823894500732422, 0.09351888298988342, -0.08478473126888275, 0.014288217760622501, -0.1804305613040924, -0.05862515792250633, 0.13021419942378998, 0.18252910673618317, -0.028650356456637383, -0.059039343148469925, -0.16229678690433502, -0.0724954605102539, -0.024404767900705338, -0.02029498666524887, 0.03691505268216133, 0.0469953753054142, -0.029002752155065536, -0.0011027416912838817, -0.09662743657827377, -0.008561881259083748, -0.13193178176879883, 0.11892300099134445, 0.10669973492622375, -0.12920573353767395, -0.032391440123319626, -0.19698162376880646, -0.010271027684211731, -0.22911913692951202, 0.21942247450351715, 0.2031966596841812, -0.11141529679298401, -0.0690625011920929, -0.26395106315612793, 0.02800983004271984, -0.06314016878604889, -0.09085663408041, 0.07199704647064209, 0.1007203683257103, -0.020759327337145805, -0.10737667232751846, 0.056514956057071686, 0.17903082072734833, -0.06589741259813309, 0.214904323220253, -0.06317120045423508, -0.08209671825170517, -0.22173334658145905, -0.07480519264936447, -0.12596572935581207, 0.036112360656261444, 0.21069644391536713, -0.09275766462087631, -0.005823953542858362, -0.12976986169815063, 0.06839091330766678, 0.16905038058757782, 0.07404285669326782, 0.1475612372159958, 0.10262587666511536, -0.036083366721868515, -0.47918248176574707, 0.05247792601585388, 0.15129108726978302, 0.061808884143829346, 0.09765225648880005, 0.02562541514635086, 0.08340059220790863, -0.24355244636535645, 0.055855050683021545, 0.11989111453294754, 0.02299090102314949, 0.22333183884620667, -0.03023277036845684, -0.07404019683599472, -0.26911473274230957, -0.024835938587784767, -0.09437815099954605, 0.06890692561864853, 0.23234888911247253, 0.03390909358859062, -0.08036485314369202, -0.1544489711523056, 0.041040923446416855, -0.20971019566059113, 0.052300963550806046, 0.17805184423923492, -0.07361258566379547, -0.07812660187482834, -0.1812787503004074, -0.017686033621430397, -0.13190452754497528, 0.13995704054832458, 0.28472843766212463, -0.015684092417359352, -0.09796606004238129, -0.003839329583570361, -0.006296026054769754, -0.16647157073020935, 0.026911761611700058, 0.2473585605621338, 0.010393833741545677, -0.2533630132675171, 0.03854694589972496, 0.1108042299747467, -0.28103700280189514, 0.12247191369533539, 0.1555115133523941, -0.11762123554944992, -0.18698878586292267, -0.007403405383229256, 0.05346149206161499, -0.08549582958221436, 0.06302319467067719, 0.028360990807414055, -0.01254628412425518, -0.06669723242521286, -0.018399996683001518, 0.05169151350855827, -0.05038395896553993, 0.019864827394485474, 0.14588913321495056, -0.10505113750696182, -0.0664844661951065, -0.12504953145980835, -0.007948535494506359, -0.16475826501846313, 0.0918610692024231, 0.159737691283226, -0.026843750849366188, -0.1287277489900589, -0.08717726916074753, -0.11690085381269455, -0.3567385673522949, 0.048540789633989334, 0.12815353274345398, 0.020042654126882553, -0.06384503841400146, -0.10172142833471298, 0.060942646116018295, -0.30632349848747253, -0.1122765988111496, 0.1377285271883011, -0.08819124102592468, 0.007460349705070257, -0.1877104640007019, -0.1355653703212738, -0.2166920304298401, -0.17238155007362366, -0.045746587216854095, 0.0025688265450298786, 0.06439823657274246, -0.11159598082304001, 0.029350511729717255, -0.3189575970172882, -0.3678690791130066, 0.011191194877028465, 0.17999547719955444, 0.1481313705444336, -0.16135497391223907, -0.10040463507175446, -0.24585497379302979, -0.0794287770986557, 0.14650410413742065, 0.23224063217639923, 0.160306915640831, -0.16198833286762238, 0.04284151643514633, -0.23562848567962646, -0.34327417612075806, 0.16676567494869232, 0.21998941898345947, 0.03495074063539505, -0.37383005023002625, 0.021392742171883583, -0.051974788308143616, -0.28435584902763367, 0.11579762399196625, -0.010690039955079556, 0.17274557054042816, -0.25612345337867737, -0.10095161199569702, -0.0710982158780098, -0.2032981663942337, 0.12590691447257996, 0.13012421131134033, -0.15196406841278076, -0.23634228110313416, -0.032958973199129105, -0.07105878740549088, -0.3108825981616974, 0.24768689274787903, 0.12233999371528625, -0.020663365721702576, 0.08968628942966461, -0.040520623326301575, -0.03880264237523079, -0.1728052943944931, 0.37273263931274414, 0.20992855727672577, 0.02691173180937767, 0.053545936942100525, -0.04772628843784332, -0.006529248785227537, -0.12592610716819763, 0.21702131628990173, 0.29424792528152466, -0.00048286706442013383, 0.1479903906583786, 0.12377573549747467, 0.005602759774774313, -0.12606269121170044, 0.09630784392356873, 0.18012577295303345, 0.1424749195575714, -0.3380386233329773, -0.07854364067316055, 0.3317510783672333], [0.13090071082115173, 0.04404415190219879, 0.09168245643377304, -0.10715664178133011, -0.007280477322638035, 0.10369804501533508, -0.21852229535579681, 0.07717443257570267, 0.11293604224920273, -0.15875166654586792, 0.13364556431770325, 0.0300291758030653, 0.05253183841705322, -0.2590998113155365, 0.1475926637649536, 0.10792016983032227, -0.12115298211574554, -0.10971095412969589, 0.07506822794675827, 0.1180252879858017, -0.0657726377248764, -0.07546073943376541, 0.1708577275276184, -0.17820286750793457, -0.07870960980653763, -0.019419290125370026, -0.03492848947644234, -0.017414426431059837, 0.050344474613666534, -0.07663310319185257, -0.06452853232622147, -0.08808541297912598, 0.10659165680408478, -0.10983936488628387, 0.23549441993236542, 0.19622470438480377, -0.1824847161769867, -0.059648651629686356, -0.0010353303514420986, 0.000505895062815398, -0.02878490835428238, 0.05426664650440216, 0.1335216909646988, -0.14780181646347046, 0.08725278824567795, -0.1367052048444748, 0.05486620217561722, 0.09381038695573807, -0.08728525787591934, 0.05845639109611511, -0.19795319437980652, 0.05602427199482918, -0.057338226586580276, -0.14477966725826263, 0.028280407190322876, 0.18798498809337616, 0.02417103759944439, -0.3136654198169708, 0.13193759322166443, -0.009312999434769154, -0.059342749416828156, -0.14054839313030243, 0.11067181825637817, -0.0921841561794281, -0.27768009901046753, 0.41419291496276855, -0.05812497064471245, 0.10357674211263657, 0.028331443667411804, -0.012937570922076702, -0.10669446736574173, -0.3698475658893585, 0.28967130184173584, -0.09372811764478683, -0.02385912835597992, 0.1612546741962433, 0.02815769612789154, -0.14639748632907867, -0.2802417278289795, 0.32993245124816895, -0.042849406599998474, -0.12411189079284668, 0.10013426095247269, -0.0582297220826149, 0.09721675515174866, -0.21721462905406952, 0.34454604983329773, -0.0710792988538742, 0.056522492319345474, -0.023130564019083977, -0.0942578911781311, -0.036027781665325165, -0.14939868450164795, 0.18458303809165955, -0.05266072601079941, -0.05753946676850319, 0.044117528945207596, -0.08351166546344757, -0.11752413958311081, -0.11070562899112701, 0.19252412021160126, 0.1815701425075531, -0.04039006680250168, 0.007719713728874922, -0.09110470116138458, 0.010886620730161667, -0.06421196460723877, 0.15829329192638397, -0.04809761419892311, -0.22448097169399261, -0.039692774415016174, -0.05617208778858185, -0.004649592097848654, -0.17770330607891083, 0.11287686973810196, 0.04278464987874031, -0.0554925836622715, -0.09190791845321655, -0.09682817757129669, 0.02027141861617565, -0.1463622897863388, 0.19626560807228088, -0.08063725382089615, -0.029580892994999886, -0.04897347837686539, -0.22714880108833313, -0.11113240569829941, 0.07252897322177887, 0.15359070897102356, -0.08149309456348419, 0.019674023613333702, -0.2036304920911789, -0.05434346944093704, -0.09770507365465164, -0.0635313093662262, 0.2216959446668625, 0.023698844015598297, -0.2043677121400833, -0.20125004649162292, -0.1631065011024475, -0.1324082911014557, -0.10598652064800262, 0.2156408131122589, 0.014340369030833244, -0.06629285961389542, -0.07935549318790436, -0.10528837889432907, -0.06494233757257462, -0.1328294426202774, 0.24996791779994965, -0.01957758329808712, -0.15620675683021545, -0.19724953174591064, -0.08753521740436554, -0.11194676160812378, 0.04522295668721199, 0.2170943021774292, 0.00605013919994235, -0.05719789117574692, 0.05442645400762558, -0.073013074696064, -0.12034118920564651, -0.04594549909234047, 0.18384695053100586, 0.03252868354320526, 0.015225167386233807, -0.18943579494953156, -0.18642817437648773, -0.1473793089389801, -0.027968863025307655, 0.1517534703016281, 0.0626070573925972, -0.3226073086261749, -0.17806817591190338, -0.11196828633546829, -0.06149153411388397, -0.03328823670744896, 0.3478701114654541, 0.026432564482092857, -0.05297037959098816, -0.011597621254622936, -0.16691315174102783, 0.0063340445049107075, 0.024775542318820953, 0.18701739609241486, -0.04294874519109726, -0.10197494179010391, -0.057538893073797226, -0.07806763052940369, 0.06153583526611328, -0.021582340821623802, 0.35969674587249756, -0.0542629137635231, 0.010400909930467606, -0.037438225001096725, -0.08803915232419968, -0.06866107881069183, 0.0016607422148808837, 0.21182654798030853, -0.13394978642463684, 0.14290355145931244, -0.044716376811265945, -0.07785015553236008, -0.03940272703766823, -0.12152706831693649, 0.22759085893630981, -0.1492381989955902, 0.11808976531028748, -0.03376166522502899, -0.20435969531536102, -0.024057742208242416, -0.2012186199426651, 0.1957959532737732, 0.03306934982538223, 0.11929894238710403, -0.04538680613040924, -0.15350252389907837, 0.019457651302218437, -0.026701437309384346, 0.20594187080860138, 0.07364657521247864, 0.06577569246292114, -0.09672147780656815, -0.11805269122123718, 0.027272023260593414, 0.06220344454050064, 0.2666894793510437, -0.000556168844923377, 0.0295779537409544, -0.21712279319763184, -0.05737098678946495, 0.13259616494178772, 0.053786344826221466, 0.03366417810320854, 0.010140696540474892, -0.03539293259382248, -0.23362348973751068, -0.09117494523525238, -0.020479165017604828, -0.062013737857341766, 0.14817173779010773, -0.11421236395835876, 0.1743842512369156, -0.20656311511993408, -0.13864481449127197, -0.009318148717284203, 0.17897997796535492, -0.016243303194642067, -0.004584458656609058, -0.16166648268699646, -0.12167475372552872, 0.07482203096151352, 0.17856325209140778, 0.048946451395750046, -0.11171036213636398, -0.05800517275929451, -0.2705059349536896, -0.1167088970541954, -0.019525373354554176, 0.008778437972068787, 0.038029566407203674, 0.061466097831726074, -0.004370563663542271, 0.1357404887676239, -0.015160865150392056, -0.04310654103755951, 0.07294702529907227, 0.026503024622797966, 0.2557182312011719, 0.04809611290693283, 0.04135291650891304, -0.13620205223560333, 0.05037301778793335, 0.09128739684820175, -0.024427376687526703, 0.24075816571712494, -0.15544384717941284, -0.014317587018013, -0.14469540119171143, 0.15119785070419312, 0.06625798344612122, -0.017837489023804665, 0.23915618658065796, -0.08635809272527695, -0.17445865273475647, 0.012883264571428299, 0.010324809700250626, -0.003712905803695321, -0.04948848485946655, 0.1834854930639267, 0.060409631580114365, 0.08524591475725174, -0.06858554482460022, 0.013113587163388729, 0.18649978935718536, -0.026520878076553345, -0.09131903946399689, -0.04671098291873932, 0.20132122933864594, 0.031619127839803696, 0.048835452646017075, -0.03880166634917259, -0.021708723157644272, 0.06057760864496231, -0.050524234771728516, -0.16518624126911163, 0.022107157856225967, -0.06013663485646248, -0.06956284493207932, 0.07628839462995529, -0.10858653485774994, -0.026664938777685165, 0.05171230062842369, 0.15700803697109222, -0.017789209261536598, -0.11731342226266861, 0.16890333592891693, -0.15298952162265778, -0.013057021424174309, 0.07406732439994812, 0.011567024514079094, 0.1131952628493309, 0.08124171197414398, 0.06078341230750084, -0.09141170233488083, 0.11812499910593033, 0.02160409651696682, -0.13155971467494965, 0.12285969406366348, 0.2247723639011383, 0.08066072314977646, 0.17053745687007904, 0.044543348252773285, 0.04617426171898842, 0.008656039834022522, -0.10433028638362885, 0.608411967754364, 0.23057600855827332, 0.9986733198165894, 0.08072458207607269, 0.13503064215183258], [0.042770639061927795, -0.07956799864768982, -0.16982927918434143, 0.0371127687394619, -0.09642384201288223, 0.054311659187078476, 0.09322091937065125, -0.03505204990506172, -0.14316920936107635, -0.17911086976528168, 0.09556414186954498, -0.09457080811262131, -0.05299752578139305, 0.20711925625801086, -0.06903920322656631, -0.020106002688407898, -0.17318637669086456, 0.06524256616830826, 0.08129038661718369, -0.04295729845762253, 0.07083332538604736, 0.03652700409293175, -0.016421500593423843, -0.0005636115092784166, -0.2382652759552002, 0.18512630462646484, -0.09360581636428833, -0.03314576297998428, 0.13201375305652618, -0.2610315978527069, 0.3362584114074707, 0.05725677311420441, 0.30282798409461975, -0.018192678689956665, 0.007481677457690239, 0.07234817743301392, -0.16570308804512024, 0.1518356204032898, -0.015863852575421333, -0.03386256471276283, 0.15278124809265137, 0.035903122276067734, 0.12626327574253082, -0.10678111016750336, 0.20060719549655914, 0.07693330943584442, 0.12178134173154831, 0.15970733761787415, 0.010917318053543568, 0.1518438458442688, -0.1678009033203125, 0.06007184833288193, -0.06347469985485077, 0.08895915746688843, 0.21053433418273926, 0.16916143894195557, 0.12305158376693726, -0.19354461133480072, 0.20548641681671143, -0.05365399643778801, 0.20216701924800873, 0.16919483244419098, -0.004609866067767143, 0.3014982044696808, -0.00824226625263691, 0.1762009710073471, 0.05319337919354439, 0.09901252388954163, -0.10325955599546432, -0.0701574981212616, 0.28452998399734497, -0.09562337398529053, 0.09518036991357803, 0.03449101373553276, 0.19875842332839966, 0.03253267705440521, -0.22790364921092987, 0.28891271352767944, -0.008815540932118893, 0.05521160736680031, -0.007119062822312117, 0.021384477615356445, 0.11460539698600769, -0.09904611110687256, 0.19248467683792114, 0.00489501329138875, 0.3037031590938568, 0.005480271298438311, -0.04775691777467728, 0.08944205194711685, -0.24849429726600647, 0.11283909529447556, 0.0116245923563838, 0.04003749042749405, 0.12077543884515762, 0.2733463943004608, 0.1866627335548401, -0.05614554509520531, 0.08851537853479385, 0.07106510549783707, 0.027102705091238022, -0.07768435031175613, -0.05033982917666435, 0.14341802895069122, -0.1753738671541214, 0.058946166187524796, 0.17331945896148682, -0.059063103049993515, -0.041070133447647095, -0.2090890258550644, 0.11946221441030502, -0.1814488172531128, 0.02188999205827713, 0.06762201339006424, -0.04049360007047653, 0.033287592232227325, 0.16673293709754944, 0.20018745958805084, -0.028939511626958847, 0.1131250336766243, -0.07214456796646118, -0.009612364694476128, -0.014879687689244747, 0.11901748180389404, 0.15186436474323273, -0.10897910594940186, -0.01058391947299242, -0.002443235134705901, -0.04002044349908829, 0.06477535516023636, 0.03293978050351143, -0.011660405434668064, 0.035125844180583954, 0.02031395584344864, -0.09988609701395035, 0.3838692009449005, -0.14934255182743073, -0.0928894504904747, 0.0927186906337738, -0.051126278936862946, -0.150483638048172, -0.18845877051353455, 0.12346780300140381, -0.022886129096150398, -0.041968557983636856, -0.13942468166351318, 0.045958396047353745, -0.0718957856297493, -0.23885735869407654, 0.16016098856925964, 0.013195527717471123, -0.10965962707996368, -0.06989648193120956, -0.06106671690940857, -0.09301406890153885, -0.056886523962020874, 0.030161617323756218, -0.018660051748156548, -0.15700283646583557, 0.12339328974485397, -0.08480257540941238, -0.014485977590084076, -0.20557041466236115, 0.08726541697978973, 0.10900439321994781, -0.18625785410404205, 0.2111528366804123, -0.10796944051980972, -0.07055123150348663, -0.12059293687343597, 0.0905899778008461, 0.020606214180588722, -0.051403965801000595, 0.18645134568214417, -0.1272788941860199, -0.161992609500885, -0.09142138063907623, 0.010241175070405006, 0.024194395169615746, -0.05074848607182503, 0.2554996907711029, -0.1604004204273224, -0.06924208253622055, 0.0024549684021621943, 0.03820714354515076, 0.06390977650880814, -0.07489544153213501, 0.12617909908294678, -0.023429758846759796, -0.12183083593845367, -0.11863517761230469, -0.018005311489105225, -0.060143258422613144, 0.16284160315990448, 0.20339879393577576, 0.22095075249671936, 0.1409858763217926, -0.06912658363580704, -0.08074389398097992, -0.025964558124542236, 0.06689724326133728, 0.057986386120319366, 0.14495335519313812, -0.08072275668382645, -0.011651675216853619, -0.01562314573675394, -0.01397579163312912, 0.131942480802536, 0.09697633236646652, -0.018683357164263725, 0.049042146652936935, -0.06181832030415535, 0.054061029106378555, 0.06166485324501991, 0.05561668798327446, 0.1294398158788681, -0.07045858353376389, -0.08978336304426193, -0.10897845029830933, 0.07155642658472061, -0.03481534495949745, -0.03633888065814972, 0.20512036979198456, 0.09198392182588577, 0.03089122660458088, -0.03253483399748802, 0.1243675947189331, -0.07118218392133713, -0.18567508459091187, 0.17001937329769135, -0.03726226091384888, 0.04854532331228256, -0.17508241534233093, 0.17236630618572235, -0.040078550577163696, -0.1672109067440033, 0.23817852139472961, 0.04459478706121445, 0.17594727873802185, -0.1199275404214859, 0.1296275407075882, -0.10627443343400955, -0.004168144427239895, 0.2157943993806839, 0.004985329229384661, 0.19990669190883636, -0.16153167188167572, 0.12092903256416321, -0.010363866575062275, -0.06374627351760864, 0.1093909963965416, 0.04624713212251663, 0.1513872593641281, -0.16575267910957336, 0.021474068984389305, -0.029989859089255333, -0.22300514578819275, 0.14603258669376373, 0.139770045876503, 0.31273412704467773, -0.21033088862895966, 0.1510225534439087, -0.0231163389980793, 0.060095541179180145, 0.20991964638233185, -0.012294311076402664, 0.0455411933362484, -0.3102407455444336, 0.062165625393390656, -0.025737926363945007, 0.028466330841183662, 0.13263337314128876, 0.12602393329143524, 0.1069067120552063, -0.041144512593746185, 0.1711551398038864, -0.07588143646717072, 0.1090894415974617, -0.15341608226299286, 0.13228271901607513, 0.1611095815896988, -0.09449860453605652, 0.018285399302840233, -0.014340626075863838, 0.15847180783748627, -0.21149060130119324, 0.10560452193021774, 0.1953992396593094, 0.008403605781495571, -0.09674639254808426, -0.021291455253958702, 0.0410507433116436, -0.0624227412045002, -0.003547142492607236, 0.06365983933210373, -0.14970709383487701, -0.08939884603023529, -0.06550580263137817, -0.07923837751150131, -0.20059920847415924, 0.1611015349626541, 0.2065751999616623, -0.10624643415212631, -0.0008229220402427018, -0.007326758466660976, 0.16278700530529022, -0.18916213512420654, 0.20177540183067322, -0.004911111667752266, -0.01696154847741127, -0.3699440360069275, 0.1479383111000061, 0.07389317452907562, -0.20299497246742249, 0.32429933547973633, 0.04302971437573433, -0.059314239770174026, -0.4024483859539032, 0.01060508843511343, 0.028350599110126495, -0.00516388937830925, 0.008583136834204197, -0.024741394445300102, 0.03359102085232735, 0.00388386775739491, -0.1164533942937851, -0.008653017692267895, -0.06360328942537308, -0.17725317180156708, 0.08058979362249374, -0.03879297897219658, -0.13346245884895325, -0.04662632569670677, 0.11173733323812485, 0.016167934983968735, -0.0001582319673616439, 0.0037205670960247517, 0.08279773592948914, 0.6566475629806519, 0.300514817237854, -0.01915707439184189], [0.020747946575284004, 0.05357182398438454, 0.22282594442367554, 0.04895196855068207, -0.10824035108089447, 0.002455279463902116, 0.103497713804245, 0.05040115490555763, 0.04852494224905968, 0.09771594405174255, 0.05683976039290428, -0.18075606226921082, -0.12394808232784271, -0.1378238946199417, 0.09845178574323654, 0.0843045637011528, 0.3001842796802521, 0.07171106338500977, 0.05358360707759857, -0.07304360717535019, -0.13473986089229584, 0.18517373502254486, -0.10714898258447647, 0.03440195694565773, -0.09317982941865921, -0.07867667078971863, 0.07288119196891785, 0.09553428739309311, -0.01822504587471485, 0.05970235541462898, -0.011462756432592869, -0.03495442867279053, 0.15557794272899628, -0.16016119718551636, 0.09321106225252151, 0.00044060972868464887, -0.1499539613723755, 0.025035349652171135, -0.06284534186124802, -0.16132454574108124, -0.006312139332294464, -0.012698509730398655, 0.09721881151199341, -0.11007733643054962, 0.15658634901046753, -0.02558440901339054, 0.09964463859796524, -0.13751916587352753, -0.07377982139587402, -0.02881208248436451, -0.1629103720188141, 0.13332736492156982, -0.17804482579231262, 0.20309194922447205, -0.05613017827272415, -0.13499286770820618, -0.12612684071063995, -0.17799420654773712, 0.25048187375068665, -0.07210757583379745, -0.29913130402565, -0.001139179221354425, -0.024338234215974808, -0.17247667908668518, -0.063570536673069, 0.017549488693475723, -0.04723432660102844, 0.046340495347976685, -0.08920345455408096, 0.03987788408994675, -0.11780408769845963, 0.10422786325216293, -0.04743925854563713, -0.015054295770823956, 0.006659755948930979, -0.1791074126958847, 0.09477971494197845, -0.2017461061477661, 0.18708732724189758, -0.03505714237689972, 0.024659285321831703, 0.018662983551621437, -0.19796620309352875, -0.1227029412984848, -0.06803765147924423, 0.09899219870567322, -0.21311591565608978, -0.07851579785346985, 0.0939706414937973, -0.16364048421382904, 0.09063463658094406, -0.07408876717090607, 0.131358802318573, -0.27175670862197876, 0.008184378035366535, -0.19823327660560608, -0.24553892016410828, 0.10682948678731918, -0.048052698373794556, 0.21335333585739136, -0.2264568954706192, 0.06408476829528809, -0.04587745666503906, -0.1500711441040039, 0.14824078977108002, -0.13003380596637726, 0.18686121702194214, -0.2579151391983032, -0.03454158455133438, 0.001964256865903735, 0.07515933364629745, 0.0578567199409008, -0.06784739345312119, 0.07251667976379395, -0.13474006950855255, -0.03145741671323776, -0.11442447453737259, -0.10011889785528183, 0.13047821819782257, -0.1411956399679184, 0.001470311894081533, -0.20231987535953522, 0.035536229610443115, -0.13332200050354004, -0.11610522121191025, 0.006022792309522629, -0.14153145253658295, -0.08844585716724396, 0.05899352580308914, 0.07565685361623764, 0.05492794141173363, 0.07656564563512802, 0.03818077966570854, -0.019107433035969734, 0.02573006972670555, 0.18292412161827087, 0.03595449775457382, -0.03166168928146362, 0.22612237930297852, -0.13005204498767853, -0.022285612300038338, -0.26380655169487, 0.10273908823728561, 0.051985155791044235, -0.13173788785934448, -0.00697773601859808, -0.09553830325603485, -0.07369635999202728, 0.12325366586446762, 0.1581389158964157, 0.09652361273765564, 0.03507521003484726, -0.07267308980226517, -0.1764276921749115, -0.13286516070365906, -0.09504292905330658, 0.33104199171066284, 0.16204088926315308, -0.07206764072179794, -0.0270809568464756, -0.15370360016822815, -0.14408136904239655, -0.12607581913471222, 0.20769329369068146, -0.0681479424238205, -0.2085738480091095, -0.05059950798749924, -0.4106595516204834, -0.10275319963693619, 0.04837855324149132, 0.04806593060493469, 0.1485854834318161, -0.08464614301919937, 0.034513525664806366, -0.07366888225078583, 0.05936509743332863, 0.0051937042735517025, -0.08411227911710739, 0.012157240882515907, -0.190230593085289, 0.15989990532398224, -0.26802676916122437, 0.056380465626716614, -0.08752859383821487, 0.005362651310861111, -0.07211992144584656, -0.15312029421329498, 0.09962262213230133, -0.046157509088516235, 0.023850103840231895, -0.0016452419804409146, -0.07600382715463638, -0.07704531401395798, -0.002165441866964102, 0.10988753288984299, -0.1250518262386322, 0.12372711300849915, 0.00516538554802537, -0.04877011477947235, -0.01573760062456131, 0.012520335614681244, -0.03657258301973343, -0.056590743362903595, -0.06337147951126099, -0.061640817672014236, 0.15314984321594238, 0.020053908228874207, -0.06350158900022507, -0.05813058093190193, -0.16349968314170837, -0.03385834023356438, 0.0018074479885399342, 0.025596983730793, -0.105341337621212, 0.10496711730957031, 0.07177716493606567, -0.178801491856575, 0.00784655287861824, -0.08788919448852539, -0.06054646894335747, -0.1619575470685959, -0.09053045511245728, 0.057995136827230453, 0.24655494093894958, 0.10557293146848679, -0.14254777133464813, 0.06894654780626297, -0.011783336289227009, 0.08570412546396255, 0.20713113248348236, 0.34253042936325073, -0.25412553548812866, -0.2804883122444153, -0.004941120743751526, -0.011826977133750916, 0.053208038210868835, 0.12348388880491257, 0.04049073904752731, -0.34700632095336914, -0.16847363114356995, 0.0826873928308487, -0.053062111139297485, -0.036988984793424606, 0.2935037910938263, 0.1575477123260498, -0.0994391217827797, -0.24558904767036438, 0.07686977833509445, -0.00865509919822216, 0.026138557121157646, 0.3709455132484436, 0.08286508172750473, -0.27112945914268494, -0.13778428733348846, 0.013921473175287247, 0.030525265261530876, -0.4169839024543762, 0.20789717137813568, -0.02632289193570614, -0.3670547902584076, -0.027021829038858414, 0.18934045732021332, -0.046831924468278885, -0.21229702234268188, 0.24836692214012146, -0.13407595455646515, -0.15527568757534027, -0.12742997705936432, 0.3287595808506012, -0.06647323817014694, -0.04965405911207199, 0.12068964540958405, -0.05596127361059189, -0.12670926749706268, -0.1595538854598999, 0.010044923983514309, -0.011703774333000183, 0.12334524095058441, 0.17806673049926758, -0.05443011224269867, 0.07133982330560684, -0.09233536571264267, 0.07814227044582367, -0.030858388170599937, -0.10991597175598145, 0.22234013676643372, -0.01326687540858984, -0.0731540247797966, -0.07268384099006653, -0.21513228118419647, 0.12285050749778748, 0.04874053969979286, 0.15786388516426086, 0.08133142441511154, 0.04395673796534538, -0.1732809990644455, -0.2646023631095886, 0.03946896269917488, 0.08211644738912582, 0.28651756048202515, -0.02533842995762825, -0.0026979418471455574, 0.06915651261806488, -0.009676488116383553, 0.08516053855419159, -0.06514228135347366, 0.3146790564060211, 0.26156309247016907, -0.07803983986377716, -0.11702185124158859, 0.025039540603756905, 0.007969248108565807, 0.13254475593566895, 0.11906296759843826, 0.22745327651500702, -0.06054535135626793, -0.0757022425532341, 0.01640729233622551, 0.15684857964515686, -0.017317138612270355, 0.09470398724079132, -0.13638681173324585, 0.07307545840740204, 0.08889847993850708, 0.04003734141588211, 0.06310340017080307, -0.09419403970241547, -0.024352962151169777, -0.17046242952346802, 0.019188731908798218, -0.11184284090995789, 0.30308330059051514, -0.04968995228409767, -0.07269170135259628, 0.09710153192281723, 0.11190903931856155, -0.07413004338741302, 0.3680368959903717, 0.14630573987960815, -0.20132307708263397, -0.21874608099460602], [-0.19205322861671448, -0.09717628359794617, -0.08853647857904434, 0.06120535358786583, -0.035193078219890594, 0.019379407167434692, -0.051391370594501495, -0.23089835047721863, 0.055657029151916504, -0.09038140624761581, 0.043589022010564804, -0.033757347613573074, -0.012814369052648544, -0.07833155989646912, -0.17451448738574982, 0.012849163264036179, -0.15829207003116608, 0.04121038690209389, 0.06486982107162476, 0.08776852488517761, 0.07911230623722076, -0.0027850731275975704, 0.06322136521339417, -0.16369561851024628, -0.024085957556962967, 0.13923878967761993, 0.08217970281839371, -0.013470303267240524, 0.2278171330690384, -0.07355444878339767, 0.061704203486442566, 0.012539969757199287, 0.27451637387275696, 0.10057258605957031, 0.12236971408128738, 0.11308298259973526, -0.17731131613254547, 0.015621953643858433, -0.03338618203997612, 0.13664980232715607, 0.07883623987436295, 0.047065943479537964, 0.13371463119983673, -0.09857180714607239, 0.050747305154800415, 0.1207413524389267, 0.02896122634410858, -0.13568268716335297, 0.018606264144182205, 0.23830187320709229, -0.12966319918632507, 0.019045233726501465, -0.14965572953224182, 0.11188441514968872, 0.044328875839710236, 0.012602710165083408, 0.27679887413978577, -0.11246185749769211, 0.018716787919402122, -0.005221257451921701, 0.14888255298137665, 0.14574579894542694, 0.07036665827035904, 0.3182256519794464, -0.1883748173713684, -0.007036115508526564, 0.029554449021816254, 0.13813996315002441, 0.09298686683177948, 0.012648380361497402, 0.1369214802980423, -0.13127435743808746, 0.20192526280879974, -0.06904802471399307, 0.038988396525382996, -0.0018641854403540492, 0.12323566526174545, 0.07887445390224457, -0.06050431355834007, 0.04213332384824753, 0.031562063843011856, 0.05660334229469299, -0.025262102484703064, 0.08847790211439133, 0.21515607833862305, 0.05927775427699089, 0.11205561459064484, 0.007782788947224617, 0.024122854694724083, -0.1286931335926056, -0.015271767042577267, 0.3970249593257904, 0.22578783333301544, 0.04723341390490532, 0.09948264807462692, 0.11965570598840714, -0.16205941140651703, -0.07656362652778625, 0.30493125319480896, 0.20179374516010284, -0.010986676439642906, 0.017263447865843773, -0.05408623069524765, -0.16868078708648682, -0.23765772581100464, 0.21857191622257233, 0.2796993553638458, -0.1839037537574768, -0.06918501108884811, 0.08691256493330002, -0.09017804265022278, -0.2520970404148102, 0.23238715529441833, 0.2131889909505844, -0.0430709645152092, 0.062488824129104614, -0.05234331637620926, -0.06240088865160942, -0.1930406391620636, 0.27620670199394226, 0.2698320746421814, -0.12965387105941772, 0.040543027222156525, 0.14757981896400452, -0.14617441594600677, -0.133644700050354, 0.10535483062267303, 0.27898770570755005, -0.006718914490193129, -0.1275588870048523, 0.06188959255814552, -0.3789283037185669, -0.08468403667211533, 0.027911663055419922, 0.2123185247182846, -0.10889483988285065, 0.06885571777820587, 0.05636030063033104, -0.316158652305603, -0.23552416265010834, 0.12918473780155182, 0.1600686013698578, -0.14224328100681305, -0.010846883058547974, 0.022143250331282616, -0.1606537252664566, -0.16171012818813324, 0.1473052054643631, 0.19729505479335785, -0.04554799944162369, 0.16135120391845703, -0.138498917222023, -0.2386271357536316, 0.016576195135712624, -0.03254244849085808, 0.17553521692752838, -0.12073875963687897, 0.09099503606557846, -0.023078089579939842, -0.4065825045108795, -0.09645440429449081, 0.1017838716506958, 0.16573801636695862, -0.027638647705316544, -0.020092127844691277, -0.13552725315093994, -0.3839684724807739, -0.25126001238822937, 0.06837984919548035, 0.12720997631549835, -0.06027178466320038, -0.050908830016851425, -0.12156992405653, -0.3214978277683258, -0.20576930046081543, 0.08078833669424057, 0.09689593315124512, 0.23077456653118134, -0.048691052943468094, 0.10018660128116608, -0.3384484052658081, -0.17674486339092255, 0.17035029828548431, 0.03862535208463669, 0.05176139250397682, -0.0284801684319973, 0.027247590944170952, 0.011908698827028275, -0.2955511212348938, 0.14629815518856049, -0.0003086377982981503, 0.13017375767230988, 0.021771904081106186, 0.16811390221118927, -0.18124589323997498, -0.23894378542900085, 0.11758741736412048, -0.06518258154392242, 0.03686339035630226, -0.02060380019247532, 0.005915203597396612, -0.2376827597618103, -0.1520383059978485, 0.24969889223575592, -0.05095447227358818, 0.19152091443538666, -0.05015771463513374, 0.07935813814401627, -0.23282268643379211, -0.19670264422893524, 0.1427619606256485, 0.012201331555843353, -0.01500003132969141, -0.07833567261695862, -0.0034315285738557577, -0.24839961528778076, -0.15197400748729706, -0.11648985743522644, 0.05375135317444801, -0.01424946915358305, -0.08233983814716339, 0.020894858986139297, -0.2575357258319855, -0.1670072227716446, 0.027578815817832947, -0.06325779110193253, 0.1285592019557953, 0.03867023438215256, -0.008525045588612556, -0.1571160852909088, -0.14394152164459229, 0.08197393268346786, 0.02188671939074993, -0.11957121640443802, -0.03343730792403221, 0.12703005969524384, 0.08967729657888412, 0.23560132086277008, 0.12421198934316635, -0.011793889105319977, 0.1409836858510971, -0.02285672351717949, 0.12093989551067352, -0.0064178467728197575, -0.0702243223786354, -0.05589410290122032, -0.024761637672781944, -0.1048518717288971, -0.030520768836140633, -0.06777018308639526, -0.0485093891620636, 0.008625074289739132, -0.037390951067209244, -0.13057835400104523, 0.040642231702804565, -0.007159760221838951, 0.031872138381004333, 0.16054193675518036, -0.03464892506599426, 0.10040614008903503, 0.25503647327423096, -0.06196466460824013, 0.01597564108669758, -0.2699885070323944, 0.08377540856599808, -0.05637051537632942, -0.10529494285583496, 0.006183914374560118, -0.3053065538406372, 0.14867688715457916, -0.28011900186538696, 0.039729271084070206, -0.08915922790765762, 0.13746483623981476, 0.03823230415582657, -0.21683545410633087, -0.09863893687725067, -0.013191793113946915, 0.094044990837574, -0.09744666516780853, 0.1336483359336853, -0.00019755277025979012, -0.2638576626777649, 0.16867081820964813, -0.06681320071220398, 0.13035957515239716, -0.15301288664340973, -0.11303283274173737, 0.1367136836051941, -0.3727162480354309, 0.046105511486530304, 0.006229007616639137, 0.12505730986595154, 0.05971891060471535, -0.04606253653764725, -0.05060248076915741, -0.2709416151046753, -0.03931322693824768, 0.11868105828762054, 0.026115795597434044, 0.056077033281326294, 0.04015373811125755, 0.15301576256752014, -0.2050398290157318, 0.04544850066304207, 0.04920421913266182, -0.017413053661584854, -0.06067362427711487, -0.07572677731513977, -0.2235231250524521, -0.14376655220985413, -0.007862437516450882, 0.28204721212387085, 0.08818051964044571, -0.05013972893357277, -0.1710004359483719, -0.1695055365562439, -0.2398541271686554, -0.08244140446186066, 0.08938517421483994, 0.07438593357801437, 0.10866585373878479, 0.029607055708765984, -0.056193720549345016, -0.2301548272371292, 0.007685094606131315, -0.027541473507881165, 0.046888064593076706, 0.011134005151689053, -0.12168547511100769, -0.07245403528213501, 0.0909644290804863, -0.04998984932899475, 0.05403121933341026, 0.06943174451589584, -0.03247050195932388, -0.43729308247566223, 0.03514695540070534, 0.26400530338287354, 0.15966211259365082, 0.015481310896575451], [-0.4987034797668457, 0.23489947617053986, 0.06826776266098022, -0.132051482796669, -0.12170641869306564, -0.1850786805152893, -0.16943632066249847, -0.4261232018470764, 0.11827895045280457, -0.040049560368061066, 0.013003733940422535, -0.03789454326033592, -0.20359987020492554, 0.08634191006422043, 0.013582178391516209, -0.1466832160949707, 0.007342787925153971, -0.004346203990280628, 0.02622009441256523, 0.11928433924913406, 0.25919121503829956, 0.32970982789993286, 0.06174353137612343, 0.10776954889297485, -0.008985265158116817, 0.25764524936676025, -0.09227456152439117, 0.10674114525318146, 0.22074991464614868, 0.08483536541461945, -0.06596777588129044, 0.05589209869503975, -0.06698907911777496, -0.05859774351119995, -0.11677882820367813, 0.12092537432909012, -0.03525775298476219, -0.01755988411605358, 0.03825794905424118, 0.15917684137821198, -0.043917566537857056, 0.042518697679042816, 0.38006654381752014, 0.026360170915722847, -0.16027259826660156, 0.007131881546229124, 0.08741020411252975, -0.11759485304355621, 0.14279881119728088, 0.2281942069530487, -0.02458026073873043, -0.21531370282173157, 0.12809151411056519, 0.38784581422805786, -0.19188550114631653, 0.1788901388645172, 0.2927893400192261, 0.09688618034124374, -0.38339003920555115, -0.17127856612205505, 0.2056666761636734, -0.2058820277452469, -0.026046089828014374, 0.1411076784133911, 0.04859137162566185, -0.3068181276321411, -0.00672520836815238, 0.20558494329452515, -0.11294151097536087, -0.00535850552842021, 0.2415875345468521, 0.104044109582901, -0.4595230221748352, -0.07080916315317154, 0.019642993807792664, -0.054634273052215576, 0.14040932059288025, 0.3168368935585022, 0.29042908549308777, -0.4120429754257202, -0.05281566455960274, 0.18824733793735504, -0.11857356131076813, -0.03342575207352638, 0.004696997348219156, 0.22888042032718658, -0.4107055962085724, 0.10963883250951767, 0.28093451261520386, 0.007525336928665638, -0.04850687459111214, 0.19121520221233368, 0.09281575679779053, -0.0671282708644867, 0.07650325447320938, 0.17117320001125336, -0.03924558311700821, -0.11004266887903214, 0.175729438662529, -0.04150983318686485, -0.13496558368206024, -0.024274084717035294, 0.07030341774225235, -0.17708222568035126, 0.09087897092103958, 0.03172906115651131, 0.06505222618579865, -0.23003946244716644, -0.023259343579411507, -0.1165020614862442, -0.04895598441362381, 0.16318780183792114, 0.08325845003128052, -0.007606979459524155, 0.03290944918990135, 0.16511474549770355, 0.04064334183931351, -0.009561780840158463, -0.032673511654138565, -0.016444383189082146, 0.006910932715982199, 0.12876325845718384, 0.013004212640225887, 0.14499112963676453, -0.1452009230852127, -0.11576148867607117, -0.15227676928043365, -0.1366243064403534, -0.09635691344738007, -0.10987606644630432, 0.11868008971214294, -0.10611516237258911, 0.17122265696525574, -0.14395885169506073, -0.040081124752759933, 0.12856145203113556, 0.10833609104156494, -0.08617125451564789, 0.02225288562476635, 0.0714220404624939, -0.154760479927063, -0.03716403618454933, 0.1681559979915619, 0.13403113186359406, -0.06220279633998871, -0.04830412194132805, -0.07896457612514496, 0.0023007935378700495, -0.013413753360509872, 0.09340626746416092, -0.08475860208272934, -0.1146797388792038, 0.04737451300024986, -0.04313567280769348, -0.160404771566391, -0.1201171949505806, 0.15037471055984497, -0.014559773728251457, 0.36476951837539673, -0.06342238932847977, -0.0453207865357399, -0.07876317203044891, -0.077095627784729, 0.06163996458053589, 0.047208599746227264, 0.17519482970237732, -0.15822359919548035, 0.07564201205968857, 0.07370702177286148, -0.15721310675144196, 0.13107776641845703, 0.05151735618710518, -0.1027798131108284, -0.08418819308280945, -0.05969035252928734, -0.026094648987054825, 0.037691522389650345, -0.07872463762760162, 0.04463774338364601, -0.059160418808460236, -0.008472087793052197, 0.19543232023715973, 0.01540917344391346, -0.09609900414943695, 0.03224731609225273, 0.07513672858476639, 0.0011635279515758157, -0.02575981803238392, -0.04392533376812935, 0.06805318593978882, 0.05618208274245262, 0.051923979073762894, 0.031301457434892654, -0.03921745344996452, -0.09726431965827942, 0.07823881506919861, 0.05751528963446617, 0.053611110895872116, -0.10330852121114731, -0.008932165801525116, 0.10964758694171906, -0.1063779667019844, 0.055358413606882095, 0.0019725505262613297, 0.05475042387843132, -0.011700067669153214, -0.05220603942871094, 0.05472499132156372, 0.03718825802206993, -0.016256241127848625, -0.01433693990111351, 0.024675453081727028, -0.08278365433216095, 0.10404331982135773, -0.05355033278465271, -0.07031384855508804, -0.12390779703855515, -0.05384932830929756, -0.037572745233774185, 0.08529640734195709, 0.05748196691274643, -0.04255881905555725, 0.08474861085414886, -0.025680072605609894, -0.009680087678134441, -0.012536204420030117, 0.04390262812376022, 0.030904939398169518, -0.12253504246473312, 0.1873978227376938, -0.1971004456281662, -0.13018612563610077, -0.08223777264356613, -0.028132515028119087, -0.07150859385728836, 0.15167903900146484, 0.17151983082294464, 0.07766438275575638, 0.00970441848039627, 0.09217576682567596, -0.09259404242038727, 0.031065819784998894, 0.24005109071731567, 0.14499366283416748, -0.18832477927207947, 0.10508528351783752, -0.08896180242300034, -0.06805392354726791, 0.15431299805641174, -0.01810932531952858, 0.03978743031620979, -0.059360772371292114, 0.11771237105131149, -0.12044138461351395, 0.04132337495684624, 0.07252504676580429, -0.272238165140152, 0.1478879302740097, -0.08040217310190201, 0.24244901537895203, 0.2523936331272125, -0.19194597005844116, 0.07612371444702148, -0.2818249464035034, -0.03278980404138565, -0.23023444414138794, 0.060925815254449844, 0.2970866560935974, -0.06954342126846313, -0.0258848387748003, -0.2609018087387085, -0.026908935979008675, -0.17161794006824493, -0.060216616839170456, 0.16959168016910553, 0.16827233135700226, -0.10616300255060196, -0.06567016988992691, 0.06568111479282379, -0.2402515411376953, 0.1044434905052185, 0.10052262991666794, -0.16338738799095154, 0.1131427213549614, 0.0227511003613472, 0.07627686858177185, 0.013398051261901855, -0.057294536381959915, 0.07425737380981445, -0.1563829630613327, -0.14196009933948517, 0.0817384198307991, -0.07382570207118988, -0.2769352197647095, -0.07296984642744064, 0.029522186145186424, -0.06171806901693344, -0.11778654903173447, -0.14293073117733002, 0.14392203092575073, -0.04247727245092392, -0.06073295325040817, -0.13246122002601624, -0.04530569538474083, 0.05808774381875992, 0.0393509715795517, 0.07020235061645508, 0.007888861000537872, -0.006141919642686844, -0.004326509777456522, -0.1163916289806366, -0.020306287333369255, 0.09063378721475601, 0.06856690347194672, 0.05748617649078369, -0.1409209817647934, -0.03763297572731972, -0.16061830520629883, -0.0005785088869743049, -0.09548281133174896, 0.1338140368461609, -0.04615578055381775, -0.3454533815383911, 0.011001485399901867, 0.054596204310655594, -0.011409332044422626, -0.024536103010177612, 0.18648216128349304, -0.054363396018743515, -0.3610740005970001, -0.15155600011348724, 0.10066879540681839, -0.0615692213177681, -0.131979838013649, -0.00479905866086483, -0.023899853229522705, -0.05282380431890488, 0.23924578726291656, 0.1099330335855484, -0.07112222164869308, 0.3564261496067047], [0.08011934161186218, -0.006664137355983257, 0.06958182156085968, 0.014309829100966454, 0.011886180378496647, -0.038860369473695755, -0.2639572322368622, 0.014077357947826385, -0.007134635467082262, 0.22236734628677368, -0.041018128395080566, 0.04942677170038223, -0.03665851056575775, 0.11050944030284882, 0.041645556688308716, 0.08698024600744247, -0.11048654466867447, 0.12563660740852356, -0.04881981760263443, -0.1073489859700203, -0.004051113501191139, 0.17095565795898438, 0.06372378766536713, -0.3440018594264984, -0.018510963767766953, 0.005685829091817141, -0.039378032088279724, 0.057861246168613434, 0.03042624704539776, 0.06059527024626732, -0.3094392716884613, -0.0024668301921337843, 0.04393705353140831, -0.03495107218623161, 0.08450134843587875, 0.0836954414844513, 0.11644630879163742, -0.2685263454914093, 0.08550211787223816, 0.040445007383823395, -0.2023702710866928, 0.03283213451504707, 0.1918487697839737, 0.11448140442371368, -0.21262353658676147, -0.06109102442860603, 0.07101933658123016, -0.32899579405784607, -0.08045729994773865, 0.2688100337982178, 0.023126794025301933, -0.12646447122097015, -0.00487500848248601, -0.029314888641238213, -0.14740456640720367, 0.08905521035194397, 0.1733192354440689, 0.0019399180309846997, -0.17360511422157288, 0.054563023149967194, -0.17169496417045593, -0.3441009819507599, -0.01127572264522314, 0.12291503697633743, 0.08705054968595505, -0.0552104152739048, 0.06645405292510986, -0.03886384516954422, -0.4871794879436493, -0.03605533763766289, -0.051379699259996414, 0.07616017013788223, 0.027331417426466942, -0.13768748939037323, -0.23662139475345612, -0.3724457323551178, -0.04579402133822441, 0.17316126823425293, -0.13237784802913666, 0.14311344921588898, 0.008336341939866543, -0.4162730872631073, -0.34453484416007996, 0.028892913833260536, 0.0077981953509151936, -0.06262348592281342, 0.2816263437271118, -0.043372951447963715, -0.323656290769577, -0.34542059898376465, 0.12474754452705383, 0.04648943245410919, -0.08496081829071045, 0.288704514503479, 0.05992690101265907, -0.23670092225074768, -0.30101755261421204, -0.044709619134664536, 0.12447918951511383, -0.03968696668744087, 0.27523288130760193, -0.024275097995996475, -0.3972874879837036, -0.44706273078918457, -0.018274987116456032, 0.08692236989736557, -0.15040545165538788, 0.20092788338661194, 0.04897279292345047, -0.09789666533470154, -0.5992861986160278, -0.02545837312936783, 0.17336636781692505, -0.07508067041635513, 0.34083452820777893, -0.042447786778211594, -0.3702237606048584, -0.3556952476501465, 0.03777576982975006, 0.007693472318351269, -0.20378746092319489, 0.308820515871048, -0.05622945725917816, -0.35223138332366943, -0.3468624949455261, 0.060572121292352676, -0.03653191775083542, -0.1339903026819229, 0.19480368494987488, 0.06490395218133926, -0.03481015935540199, -0.3466337025165558, -0.11856608092784882, -0.04301566630601883, -0.21590331196784973, 0.2681758403778076, 0.08082278072834015, 0.09904614090919495, -0.24062974750995636, -0.11689554154872894, -0.05570099875330925, 0.07321085780858994, 0.36473265290260315, -0.0712660551071167, 0.004079848527908325, -0.3001942038536072, -0.10089900344610214, -0.01884685456752777, -0.19276900589466095, 0.2284187227487564, -0.10004714131355286, 0.113789401948452, -0.25979083776474, -0.07552340626716614, -0.0778779610991478, -0.2955355644226074, 0.17882654070854187, 0.028021471574902534, -0.07848925143480301, -0.04185880348086357, -0.20875723659992218, -0.07717528939247131, -0.12661859393119812, 0.28076425194740295, 0.04040323570370674, -0.05922205373644829, -0.23586302995681763, -0.07804092764854431, -0.06234868988394737, -0.1390649527311325, 0.1607515960931778, 0.058794014155864716, -0.04264631122350693, -0.1837460845708847, -0.01544694323092699, -0.04018789529800415, -0.034985244274139404, 0.3640751242637634, 0.05990703031420708, -0.023571882396936417, -0.21002253890037537, -0.11291210353374481, 0.0370541475713253, -0.11004176735877991, 0.15048745274543762, 0.021397557109594345, -0.22401714324951172, -0.07969563454389572, -0.11420660465955734, -0.03050002083182335, -0.07293957471847534, 0.18412071466445923, -0.09968757629394531, -0.0844188928604126, 0.030482178553938866, -0.13904297351837158, 0.18951965868473053, 0.01285284198820591, 0.25762200355529785, -0.14809276163578033, -0.014661828055977821, -0.21820150315761566, -0.009788775816559792, 0.05539315938949585, -0.061305802315473557, 0.157962828874588, 0.03787476569414139, -0.12655305862426758, 0.012162623926997185, -0.21333332359790802, 0.08200977742671967, -0.12179574370384216, 0.09171952307224274, -0.03321355581283569, -0.06218613311648369, -0.15518149733543396, 0.05045027285814285, -0.03964804485440254, -0.02579670026898384, -0.06136474013328552, 0.11139614135026932, -0.11777329444885254, -0.14267152547836304, -0.0081775588914752, 0.11714790761470795, -0.09050348401069641, -0.016686320304870605, -0.16932694613933563, -0.2749248743057251, -0.1267794519662857, 0.1621803194284439, -0.002061692299321294, 0.013185642659664154, -0.029457971453666687, -0.04718584194779396, -0.26423022150993347, -0.06051962450146675, -0.0058492026291787624, -0.03365818411111832, 0.04244183376431465, 0.10633187741041183, 0.13936494290828705, -0.28464335203170776, -0.05803929269313812, 0.07070580124855042, -0.022198239341378212, 0.14398136734962463, -0.11125769466161728, -0.09583338350057602, -0.4978712499141693, -0.24377958476543427, 0.08677897602319717, -0.009244539774954319, 0.11443807929754257, 0.011243445798754692, -0.05282916501164436, -0.39402467012405396, -0.13192643225193024, 0.07124914228916168, 0.024227984249591827, 0.22023676335811615, -0.1660255342721939, 0.01499740220606327, -0.05940631031990051, -0.17229022085666656, 0.042178988456726074, 0.17392992973327637, 0.192369282245636, -0.22308290004730225, -0.056104108691215515, -0.3400578498840332, -0.26575395464897156, -0.04375392943620682, 0.15033824741840363, 0.03461276367306709, -0.5252962708473206, -0.07293474674224854, -0.29811811447143555, -0.11202487349510193, 0.018144821748137474, -0.04231804236769676, 0.10949265211820602, -0.3175768554210663, 0.018106680363416672, 0.15185128152370453, -0.03209158405661583, -0.07496016472578049, 0.06046200543642044, 0.03830903023481369, -0.3093361258506775, -0.15628769993782043, 0.16583487391471863, -0.09526308625936508, -0.03802813962101936, 0.09405482560396194, 0.15541759133338928, -0.2767825126647949, -0.09936585277318954, -0.008352729491889477, 0.1298527717590332, -0.17846935987472534, -0.08343964070081711, -0.006470199674367905, -0.13214676082134247, 0.017133234068751335, -0.03858829662203789, 0.0006085714558139443, -0.1334664523601532, 0.08364987373352051, 0.04518786817789078, -0.08572741597890854, 0.04553333297371864, 0.09857892990112305, 0.20132295787334442, 0.23454362154006958, 0.0922354906797409, 0.008486039936542511, -0.2128220498561859, -0.03675093874335289, -0.012500530108809471, 0.040520548820495605, 0.05921919643878937, 0.0254999827593565, -0.15050363540649414, -0.3814360201358795, -0.0436776764690876, 0.06924943625926971, 0.13065610826015472, -0.3145740330219269, 0.19992554187774658, -0.09213848412036896, -0.3577822148799896, 0.0005272062844596803, 0.031780414283275604, 0.06620508432388306, -0.19512690603733063, 0.4796324372291565, 0.10967624187469482, -0.5312361121177673, 0.5406420230865479, 0.23809628188610077], [-0.1640239655971527, 0.03711753338575363, -0.0488755963742733, 0.005706602241843939, -0.038171932101249695, -0.0983223244547844, -0.016131432726979256, -0.18424533307552338, 0.01731109991669655, 0.12140972912311554, 0.10984671115875244, -0.20847320556640625, 0.011160427704453468, 0.024893930181860924, -0.15949022769927979, 0.06319252401590347, 0.00782791804522276, -0.0020995899103581905, -0.062474701553583145, -0.01290979515761137, 0.09894397109746933, -0.31347671151161194, -0.012458248063921928, -0.20927855372428894, 0.09892259538173676, -0.0073259505443274975, -0.06770042330026627, 0.2688193917274475, -0.12706026434898376, -0.1305466741323471, -0.14846979081630707, 0.009248294867575169, -0.024188345298171043, -0.22735461592674255, 0.23130841553211212, 0.06734830141067505, -0.06229418143630028, -0.24406281113624573, -0.043180469423532486, -0.095749631524086, -0.1581585854291916, 0.1354258507490158, 0.017101092264056206, -0.2157043069601059, -0.17275381088256836, 0.10880033671855927, 0.19451555609703064, 0.05118482559919357, 0.1173102930188179, 0.11900268495082855, -0.08637677133083344, -0.15745992958545685, 0.16016435623168945, -0.0417468324303627, 0.25397104024887085, 0.18279039859771729, 0.16943828761577606, -0.18065543472766876, -0.17632979154586792, -0.05781858041882515, 0.09021156281232834, -0.12998661398887634, 0.18656964600086212, 0.16161198914051056, -0.11274687945842743, -0.10336243361234665, -0.017082424834370613, 0.0018899174174293876, -0.22920523583889008, 0.3072082996368408, 0.057132359594106674, -0.0631752759218216, 0.048154205083847046, -0.05523968115448952, 0.06070061773061752, -0.19606778025627136, 0.16672629117965698, -0.03613429144024849, 0.16512373089790344, -0.2322908639907837, 0.016633182764053345, -0.10830599814653397, -0.13516265153884888, 0.1724887192249298, -0.02015533857047558, -0.12130749225616455, -0.1994861215353012, 0.1361997276544571, 0.0028009472880512476, -0.1770593822002411, 0.23552356660366058, 0.2613690495491028, -0.06886344403028488, -0.25958970189094543, -0.05778459087014198, -0.020444514229893684, -0.08498553186655045, 0.0364883616566658, 0.09269420057535172, 0.03470434993505478, -0.06719452142715454, -0.02263008803129196, -0.19583192467689514, -0.1802644431591034, 0.13539434969425201, 0.023041438311338425, -0.2066507786512375, -0.2707158029079437, 0.02237890101969242, -0.05369776487350464, -0.09165231883525848, 0.03972528502345085, 0.15529492497444153, -0.12705634534358978, -0.19677142798900604, 0.03334580734372139, -0.024097111076116562, -0.08419594168663025, 0.1214161291718483, 0.16994081437587738, 0.04653308913111687, 0.03196435794234276, 0.029748301953077316, -0.05527805536985397, -0.11026021838188171, 0.07806968688964844, 0.1506120264530182, 0.03319611772894859, -0.13064637780189514, 0.009763824753463268, 0.08551382273435593, -0.1039804220199585, 0.033462487161159515, -0.07327238470315933, 0.03900333121418953, -0.004490661900490522, 0.018341299146413803, 0.05218465253710747, -0.16025394201278687, -0.14181961119174957, -0.00978886242955923, 0.04648043215274811, -0.12788015604019165, 0.020234806463122368, -0.02634160965681076, 0.03476403281092644, 0.16978131234645844, 0.026153920218348503, 0.042506199330091476, -0.05574388802051544, -0.09117282181978226, 0.04600821062922478, -0.09180551767349243, 0.015879198908805847, 0.064267598092556, 0.1547171026468277, -0.04774054139852524, -0.10557921230792999, -0.31477171182632446, -0.2874414324760437, 0.13058790564537048, 0.006003241986036301, -0.010173155926167965, -0.12048045545816422, 0.03323075920343399, -0.20562231540679932, -0.1041310578584671, -0.00663490267470479, 0.08966974914073944, 0.16969798505306244, -0.02184990420937538, 0.007897483184933662, -0.08915210515260696, 0.16124041378498077, -0.03651055693626404, 0.13846983015537262, 0.024472350254654884, -0.05222176015377045, -0.019933896139264107, -0.015538085252046585, 0.14102624356746674, -0.0379723384976387, 0.13057056069374084, 0.1190783753991127, -0.0053095147013664246, -0.10053128749132156, 0.10098028182983398, 0.10064660012722015, -0.004930338356643915, -0.14440381526947021, 0.2042071372270584, -0.12273620814085007, -0.16172626614570618, 0.2917642295360565, 0.10597936809062958, -0.16101540625095367, -0.07045264542102814, 0.18517206609249115, -0.08667775988578796, -0.022168094292283058, 0.00829117652028799, 0.06857731938362122, -0.1262030303478241, -0.03656395152211189, 0.21749846637248993, -0.17233385145664215, 0.12317003309726715, -0.02717604488134384, 0.09695975482463837, -0.30992648005485535, 0.007028680760413408, 0.21531428396701813, 0.017722897231578827, 0.0032189039047807455, 0.12476126849651337, 0.17811745405197144, -0.2642558515071869, 0.036384209990501404, 0.24717339873313904, -0.010936247184872627, 0.017576755955815315, -0.26017338037490845, 0.2302498072385788, -0.23670703172683716, 0.046915654093027115, 0.3447951674461365, -0.045889243483543396, 0.009495159611105919, 0.0182869341224432, 0.01666834019124508, -0.37556537985801697, 0.05495932325720787, 0.2544957995414734, -0.001937241991981864, -0.14929825067520142, 0.05088208615779877, 0.24463309347629547, -0.29568806290626526, -0.026689371094107628, 0.3311651647090912, 0.13270922005176544, -0.10477662831544876, -0.03559507057070732, 0.08209320157766342, -0.3312329947948456, -0.06583628803491592, 0.20539221167564392, -0.014063705690205097, -0.1408521980047226, -0.060022011399269104, 0.10786614567041397, -0.3020617365837097, -0.05936384201049805, 0.21060331165790558, -0.08014603704214096, -0.0793856605887413, 0.027366193011403084, 0.23095077276229858, -0.31471022963523865, 0.006694317329674959, 0.32943540811538696, -0.05620207265019417, -0.007783021777868271, -0.23077793419361115, 0.16035033762454987, -0.24166402220726013, -0.05407498776912689, 0.2579580843448639, -0.16092054545879364, -0.08075825870037079, -0.056192003190517426, 0.09641087055206299, -0.24455025792121887, -0.08962122350931168, 0.051380276679992676, 0.039426665753126144, 0.020821625366806984, 0.0947611927986145, -0.060144804418087006, -0.18910206854343414, -0.0704626739025116, 0.15059411525726318, 0.1854461431503296, -0.1606776863336563, -0.06958360970020294, -0.03356063365936279, -0.14804330468177795, -0.01274119596928358, 0.09389419108629227, 0.07792786508798599, -0.13532987236976624, -0.04670991376042366, 0.007336697541177273, -0.12366213649511337, 0.06431954354047775, -0.038599684834480286, 0.07201407104730606, -0.07348752021789551, -0.11971183866262436, -0.10704517364501953, -0.020648710429668427, 0.056069932878017426, 0.031263597309589386, -0.08456005156040192, -0.12285934388637543, -0.0370008684694767, -0.1360188126564026, 0.06555283814668655, 0.09885735809803009, -0.08951576054096222, -0.03401917219161987, -0.027677295729517937, -0.0624346062541008, 0.10684218257665634, 0.045583631843328476, 0.23673425614833832, 0.0034232439938932657, 0.0773371234536171, 0.013967247679829597, -0.13950231671333313, 0.15791021287441254, 0.1026531308889389, 0.043250672519207, -0.22436052560806274, 0.06850780546665192, -0.006666878703981638, 0.28989121317863464, 0.17888450622558594, 0.030190428718924522, -0.05696926265954971, 0.11051720380783081, -0.1327374428510666, -0.0071673146449029446, -0.013251649215817451, 0.020323166623711586, 0.004111464601010084, -0.19346237182617188, -0.08972495049238205, 0.01774369738996029, -0.11687126010656357, 0.1312931329011917], [0.002004398265853524, 0.09409946203231812, 0.15454240143299103, 0.0005003436817787588, -0.0812208279967308, -0.056010179221630096, -0.03423840180039406, -0.07838048040866852, 0.14992983639240265, 0.13745996356010437, 0.003889689454808831, -0.12967616319656372, -0.05017448589205742, 0.05584968999028206, -0.18034087121486664, 0.24139998853206635, 0.2521287798881531, -0.05260491371154785, -0.04474218934774399, -0.09804154187440872, -0.22958511114120483, 0.0209990032017231, 0.2228279709815979, -0.05266089364886284, -0.07514537125825882, -0.11353150010108948, 0.10010623931884766, -0.22428184747695923, -0.13326913118362427, 0.13938996195793152, 0.08426114171743393, 0.12374380975961685, -0.1478966921567917, 0.173478901386261, -0.25181543827056885, -0.1356574445962906, 0.0464530847966671, -0.06086905300617218, 0.1247050017118454, -0.20376960933208466, -0.004922572989016771, -0.0498705618083477, -0.25491151213645935, -0.02955593355000019, 0.06309270113706589, -0.05654953792691231, -0.2920210063457489, 0.05676868557929993, -0.013082555495202541, -0.2118224948644638, -0.017921578139066696, -0.04649920016527176, 0.008701655082404613, -0.24157282710075378, -0.19197872281074524, 0.06954177469015121, -0.16817019879817963, -0.09971341490745544, -0.04852919653058052, 0.0688990131020546, 0.004196980036795139, 0.0496734157204628, 0.071331687271595, -0.018222594633698463, -0.14958955347537994, -0.031735144555568695, 0.025936830788850784, -0.06998304277658463, 0.11691241711378098, -0.008705705404281616, -0.05349470674991608, 0.04659866914153099, -0.21642392873764038, 0.05131194740533829, -0.12314838171005249, 0.05703039467334747, 0.10497012734413147, -0.02662750519812107, 0.030053656548261642, -0.32102832198143005, -0.06196756288409233, -0.22799597680568695, 0.12073283642530441, 0.10944061726331711, 0.1655270755290985, 0.3323379158973694, -0.595072329044342, 0.04515593871474266, -0.07388006895780563, 0.027103368192911148, -0.00305892713367939, 0.04776373133063316, 0.28783169388771057, -0.34159186482429504, 0.022508487105369568, -0.36115506291389465, 0.020965559408068657, 0.11411456763744354, 0.12390834838151932, 0.10993080586194992, -0.23492078483104706, -0.09012763947248459, -0.1680084466934204, -0.06305411458015442, -0.11533156037330627, 0.12267899513244629, 0.1748914271593094, 0.16356666386127472, 0.009618065319955349, 0.08319496363401413, -0.06142804026603699, -0.1662868857383728, 0.08170683681964874, -0.08032134175300598, -0.12487189471721649, -0.07721178978681564, 0.24948912858963013, -0.07270005345344543, -0.03182949498295784, 0.03485933318734169, 0.18521307408809662, -0.0644121840596199, 0.09338810294866562, -0.20098614692687988, -0.09509437531232834, 0.0827578455209732, -0.048357635736465454, 0.036552295088768005, -0.08878575265407562, 0.0319175198674202, -0.013864169828593731, 0.046186868101358414, 0.059916216880083084, -0.13569453358650208, -0.0851883739233017, -0.03989776223897934, -0.06890397518873215, 0.280089795589447, -0.08203518390655518, 0.024395104497671127, -0.05422725901007652, 0.0318768210709095, -0.005466622766107321, -0.10677578300237656, -0.11765777319669724, -0.07066744565963745, -0.013004717417061329, -0.1439915895462036, 0.21656638383865356, -0.15413260459899902, 0.0413295216858387, -0.1653141975402832, -0.07949096709489822, -0.08473938703536987, 0.12962555885314941, 0.06839549541473389, -0.16590416431427002, 0.09177370369434357, -0.057723455131053925, 0.016904551535844803, -0.025905001908540726, 0.07508257031440735, 0.18560224771499634, -0.03580367937684059, 0.1364205777645111, -0.19799934327602386, 0.09814205765724182, -0.022700712084770203, 0.0619380846619606, 0.10387527197599411, -0.2655543386936188, 0.05323532968759537, -0.2515978217124939, 0.12297969311475754, 0.01747998595237732, 0.13353833556175232, 0.05160307511687279, -0.020764345303177834, -0.09373114258050919, -0.09235361218452454, -0.1062939316034317, 0.16766823828220367, 0.19736449420452118, 0.042726412415504456, -0.030108347535133362, 0.09965454787015915, -0.2230738401412964, 0.010494649410247803, -0.1176588162779808, 0.09108703583478928, 0.08230134844779968, -0.06423500180244446, -0.01038067415356636, -0.22128081321716309, 0.0005496674566529691, 0.06530222296714783, 